<?xml version="1.0"?>
<opencv_storage>
<cascade>
  <stageType>BOOST</stageType>
  <featureType>HAAR</featureType>
  <height>50</height>
  <width>50</width>
  <stageParams>
    <boostType>GAB</boostType>
    <minHitRate>1.</minHitRate>
    <maxFalseAlarm>1.0000000149011612e-01</maxFalseAlarm>
    <weightTrimRate>9.4999999999999996e-01</weightTrimRate>
    <maxDepth>1</maxDepth>
    <maxWeakCount>100</maxWeakCount></stageParams>
  <featureParams>
    <maxCatCount>0</maxCatCount>
    <featSize>1</featSize>
    <mode>ALL</mode></featureParams>
  <stageNum>6</stageNum>
  <stages>
    <!-- stage 0 -->
    <_>
      <maxWeakCount>4</maxWeakCount>
      <stageThreshold>-1.6342211961746216e+00</stageThreshold>
      <weakClassifiers>
        <_>
          <internalNodes>
            0 -1 3 -3.3822961151599884e-02</internalNodes>
          <leafValues>
            6.9314718246459961e-01 -1.9796541929244995e+00</leafValues></_>
        <_>
          <internalNodes>
            0 -1 19 -7.3869200423359871e-04</internalNodes>
          <leafValues>
            9.3479073047637939e-01 -1.7655887603759766e+00</leafValues></_>
        <_>
          <internalNodes>
            0 -1 5 -1.5215047169476748e-03</internalNodes>
          <leafValues>
            9.1181963682174683e-01 -1.3410819768905640e+00</leafValues></_>
        <_>
          <internalNodes>
            0 -1 29 2.1728586405515671e-02</internalNodes>
          <leafValues>
            -7.8685307502746582e-01 1.1992020606994629e+00</leafValues></_></weakClassifiers></_>
    <!-- stage 1 -->
    <_>
      <maxWeakCount>6</maxWeakCount>
      <stageThreshold>-1.0898350477218628e+00</stageThreshold>
      <weakClassifiers>
        <_>
          <internalNodes>
            0 -1 2 1.7143504694104195e-02</internalNodes>
          <leafValues>
            -1.8530387878417969e+00 6.2638145685195923e-01</leafValues></_>
        <_>
          <internalNodes>
            0 -1 27 -5.5581424385309219e-04</internalNodes>
          <leafValues>
            6.2967938184738159e-01 -1.1951320171356201e+00</leafValues></_>
        <_>
          <internalNodes>
            0 -1 15 3.3619524911046028e-03</internalNodes>
          <leafValues>
            -1.5329625606536865e+00 5.1267045736312866e-01</leafValues></_>
        <_>
          <internalNodes>
            0 -1 31 -1.1854284093715250e-04</internalNodes>
          <leafValues>
            5.6590360403060913e-01 -1.1042389869689941e+00</leafValues></_>
        <_>
          <internalNodes>
            0 -1 12 -3.3411465119570494e-04</internalNodes>
          <leafValues>
            6.1235618591308594e-01 -1.0140535831451416e+00</leafValues></_>
        <_>
          <internalNodes>
            0 -1 10 -4.1922842501662672e-04</internalNodes>
          <leafValues>
            4.8822715878486633e-01 -1.5456708669662476e+00</leafValues></_></weakClassifiers></_>
    <!-- stage 2 -->
    <_>
      <maxWeakCount>6</maxWeakCount>
      <stageThreshold>-1.9643182754516602e+00</stageThreshold>
      <weakClassifiers>
        <_>
          <internalNodes>
            0 -1 11 -1.1403432115912437e-02</internalNodes>
          <leafValues>
            5.0580048561096191e-01 -1.8628467321395874e+00</leafValues></_>
        <_>
          <internalNodes>
            0 -1 35 -6.1234901659190655e-04</internalNodes>
          <leafValues>
            5.3470730781555176e-01 -1.0207279920578003e+00</leafValues></_>
        <_>
          <internalNodes>
            0 -1 22 -4.2202537879347801e-03</internalNodes>
          <leafValues>
            4.4312641024589539e-01 -1.4344183206558228e+00</leafValues></_>
        <_>
          <internalNodes>
            0 -1 1 5.0038810819387436e-02</internalNodes>
          <leafValues>
            -4.5269477367401123e-01 1.4754067659378052e+00</leafValues></_>
        <_>
          <internalNodes>
            0 -1 0 2.2065371274948120e-01</internalNodes>
          <leafValues>
            -5.8644807338714600e-01 1.1121715307235718e+00</leafValues></_>
        <_>
          <internalNodes>
            0 -1 8 5.5600248742848635e-04</internalNodes>
          <leafValues>
            -1.7387820482254028e+00 4.0890985727310181e-01</leafValues></_></weakClassifiers></_>
    <!-- stage 3 -->
    <_>
      <maxWeakCount>6</maxWeakCount>
      <stageThreshold>-1.6959435939788818e+00</stageThreshold>
      <weakClassifiers>
        <_>
          <internalNodes>
            0 -1 6 2.4316377937793732e-02</internalNodes>
          <leafValues>
            -1.8335374593734741e+00 7.7907228469848633e-01</leafValues></_>
        <_>
          <internalNodes>
            0 -1 21 -5.0777656724676490e-05</internalNodes>
          <leafValues>
            4.4428646564483643e-01 -1.2562735080718994e+00</leafValues></_>
        <_>
          <internalNodes>
            0 -1 30 1.0910224169492722e-02</internalNodes>
          <leafValues>
            -6.8659275770187378e-01 6.4467817544937134e-01</leafValues></_>
        <_>
          <internalNodes>
            0 -1 9 -1.7349672270938754e-04</internalNodes>
          <leafValues>
            -5.7564578056335449e+00 3.4251686930656433e-01</leafValues></_>
        <_>
          <internalNodes>
            0 -1 18 -8.0666693975217640e-05</internalNodes>
          <leafValues>
            -1.7022006511688232e+00 3.9482545852661133e-01</leafValues></_>
        <_>
          <internalNodes>
            0 -1 20 -8.3919301687274128e-05</internalNodes>
          <leafValues>
            -2.4531226158142090e+00 4.0831294655799866e-01</leafValues></_></weakClassifiers></_>
    <!-- stage 4 -->
    <_>
      <maxWeakCount>7</maxWeakCount>
      <stageThreshold>-1.9967520236968994e+00</stageThreshold>
      <weakClassifiers>
        <_>
          <internalNodes>
            0 -1 32 -2.2403877228498459e-02</internalNodes>
          <leafValues>
            5.8157539367675781e-01 -1.8047076463699341e+00</leafValues></_>
        <_>
          <internalNodes>
            0 -1 26 -1.8883618758991361e-04</internalNodes>
          <leafValues>
            -5.7564578056335449e+00 3.4223186969757080e-01</leafValues></_>
        <_>
          <internalNodes>
            0 -1 25 4.7323686885647476e-04</internalNodes>
          <leafValues>
            4.2394769191741943e-01 -1.6916793584823608e+00</leafValues></_>
        <_>
          <internalNodes>
            0 -1 7 3.5236892290413380e-03</internalNodes>
          <leafValues>
            -4.5033717155456543e-01 9.5590651035308838e-01</leafValues></_>
        <_>
          <internalNodes>
            0 -1 34 -1.5500008594244719e-03</internalNodes>
          <leafValues>
            8.4960472583770752e-01 -5.7649672031402588e-01</leafValues></_>
        <_>
          <internalNodes>
            0 -1 17 1.0278592526447028e-04</internalNodes>
          <leafValues>
            2.8996232151985168e-01 -5.7564578056335449e+00</leafValues></_>
        <_>
          <internalNodes>
            0 -1 13 2.3748689272906631e-05</internalNodes>
          <leafValues>
            3.4091088175773621e-01 -1.6474539041519165e+00</leafValues></_></weakClassifiers></_>
    <!-- stage 5 -->
    <_>
      <maxWeakCount>7</maxWeakCount>
      <stageThreshold>-2.0577158927917480e+00</stageThreshold>
      <weakClassifiers>
        <_>
          <internalNodes>
            0 -1 4 1.6477823257446289e-02</internalNodes>
          <leafValues>
            -1.8910837173461914e+00 2.0410997793078423e-02</leafValues></_>
        <_>
          <internalNodes>
            0 -1 24 4.3016865674871951e-05</internalNodes>
          <leafValues>
            -1.0323669910430908e+00 4.2490926384925842e-01</leafValues></_>
        <_>
          <internalNodes>
            0 -1 16 -2.2549499408341944e-04</internalNodes>
          <leafValues>
            -2.3325111865997314e+00 3.5892271995544434e-01</leafValues></_>
        <_>
          <internalNodes>
            0 -1 14 -2.9845215613022447e-04</internalNodes>
          <leafValues>
            4.8458462953567505e-01 -1.3015534877777100e+00</leafValues></_>
        <_>
          <internalNodes>
            0 -1 28 1.3518575578927994e-03</internalNodes>
          <leafValues>
            -5.9420090913772583e-01 9.0443140268325806e-01</leafValues></_>
        <_>
          <internalNodes>
            0 -1 33 1.1405929690226912e-03</internalNodes>
          <leafValues>
            -5.1847738027572632e-01 1.0391433238983154e+00</leafValues></_>
        <_>
          <internalNodes>
            0 -1 23 -5.3447885438799858e-03</internalNodes>
          <leafValues>
            9.9433934688568115e-01 -4.8908320069313049e-01</leafValues></_></weakClassifiers></_></stages>
  <features>
    <_>
      <rects>
        <_>
          0 8 36 40 -1.</_>
        <_>
          18 8 18 40 2.</_></rects>
      <tilted>0</tilted></_>
    <_>
      <rects>
        <_>
          3 7 38 2 -1.</_>
        <_>
          3 7 19 2 2.</_></rects>
      <tilted>1</tilted></_>
    <_>
      <rects>
        <_>
          4 31 16 6 -1.</_>
        <_>
          4 31 8 3 2.</_>
        <_>
          12 34 8 3 2.</_></rects>
      <tilted>0</tilted></_>
    <_>
      <rects>
        <_>
          8 24 26 10 -1.</_>
        <_>
          8 24 13 5 2.</_>
        <_>
          21 29 13 5 2.</_></rects>
      <tilted>0</tilted></_>
    <_>
      <rects>
        <_>
          14 11 12 8 -1.</_>
        <_>
          17 11 6 8 2.</_></rects>
      <tilted>0</tilted></_>
    <_>
      <rects>
        <_>
          16 36 5 6 -1.</_>
        <_>
          16 39 5 3 2.</_></rects>
      <tilted>0</tilted></_>
    <_>
      <rects>
        <_>
          17 3 6 26 -1.</_>
        <_>
          17 3 3 13 2.</_>
        <_>
          20 16 3 13 2.</_></rects>
      <tilted>0</tilted></_>
    <_>
      <rects>
        <_>
          17 12 8 6 -1.</_>
        <_>
          19 12 4 6 2.</_></rects>
      <tilted>0</tilted></_>
    <_>
      <rects>
        <_>
          18 37 6 1 -1.</_>
        <_>
          18 37 3 1 2.</_></rects>
      <tilted>1</tilted></_>
    <_>
      <rects>
        <_>
          20 42 20 2 -1.</_>
        <_>
          20 42 10 1 2.</_>
        <_>
          30 43 10 1 2.</_></rects>
      <tilted>0</tilted></_>
    <_>
      <rects>
        <_>
          20 42 27 2 -1.</_>
        <_>
          20 43 27 1 2.</_></rects>
      <tilted>0</tilted></_>
    <_>
      <rects>
        <_>
          21 15 9 4 -1.</_>
        <_>
          24 15 3 4 3.</_></rects>
      <tilted>0</tilted></_>
    <_>
      <rects>
        <_>
          22 20 4 2 -1.</_>
        <_>
          22 20 2 2 2.</_></rects>
      <tilted>1</tilted></_>
    <_>
      <rects>
        <_>
          23 29 4 11 -1.</_>
        <_>
          24 29 2 11 2.</_></rects>
      <tilted>0</tilted></_>
    <_>
      <rects>
        <_>
          24 30 8 14 -1.</_>
        <_>
          26 30 4 14 2.</_></rects>
      <tilted>0</tilted></_>
    <_>
      <rects>
        <_>
          25 28 14 7 -1.</_>
        <_>
          32 28 7 7 2.</_></rects>
      <tilted>0</tilted></_>
    <_>
      <rects>
        <_>
          26 35 4 9 -1.</_>
        <_>
          27 35 2 9 2.</_></rects>
      <tilted>0</tilted></_>
    <_>
      <rects>
        <_>
          26 37 4 5 -1.</_>
        <_>
          27 37 2 5 2.</_></rects>
      <tilted>0</tilted></_>
    <_>
      <rects>
        <_>
          26 42 4 3 -1.</_>
        <_>
          26 43 4 1 3.</_></rects>
      <tilted>0</tilted></_>
    <_>
      <rects>
        <_>
          27 26 5 4 -1.</_>
        <_>
          27 28 5 2 2.</_></rects>
      <tilted>0</tilted></_>
    <_>
      <rects>
        <_>
          27 36 3 8 -1.</_>
        <_>
          27 38 3 4 2.</_></rects>
      <tilted>0</tilted></_>
    <_>
      <rects>
        <_>
          28 18 5 2 -1.</_>
        <_>
          28 19 5 1 2.</_></rects>
      <tilted>0</tilted></_>
    <_>
      <rects>
        <_>
          28 27 16 6 -1.</_>
        <_>
          28 30 16 3 2.</_></rects>
      <tilted>0</tilted></_>
    <_>
      <rects>
        <_>
          31 10 6 20 -1.</_>
        <_>
          33 10 2 20 3.</_></rects>
      <tilted>0</tilted></_>
    <_>
      <rects>
        <_>
          31 38 8 1 -1.</_>
        <_>
          33 38 4 1 2.</_></rects>
      <tilted>0</tilted></_>
    <_>
      <rects>
        <_>
          33 34 2 4 -1.</_>
        <_>
          33 34 2 2 2.</_></rects>
      <tilted>1</tilted></_>
    <_>
      <rects>
        <_>
          33 35 1 4 -1.</_>
        <_>
          33 35 1 2 2.</_></rects>
      <tilted>1</tilted></_>
    <_>
      <rects>
        <_>
          33 42 3 6 -1.</_>
        <_>
          33 45 3 3 2.</_></rects>
      <tilted>0</tilted></_>
    <_>
      <rects>
        <_>
          36 18 6 4 -1.</_>
        <_>
          38 18 2 4 3.</_></rects>
      <tilted>0</tilted></_>
    <_>
      <rects>
        <_>
          37 7 8 38 -1.</_>
        <_>
          37 7 4 19 2.</_>
        <_>
          41 26 4 19 2.</_></rects>
      <tilted>0</tilted></_>
    <_>
      <rects>
        <_>
          37 23 12 22 -1.</_>
        <_>
          41 23 4 22 3.</_></rects>
      <tilted>0</tilted></_>
    <_>
      <rects>
        <_>
          38 31 1 4 -1.</_>
        <_>
          38 33 1 2 2.</_></rects>
      <tilted>0</tilted></_>
    <_>
      <rects>
        <_>
          40 14 6 24 -1.</_>
        <_>
          40 14 3 12 2.</_>
        <_>
          43 26 3 12 2.</_></rects>
      <tilted>0</tilted></_>
    <_>
      <rects>
        <_>
          40 17 6 3 -1.</_>
        <_>
          42 17 2 3 3.</_></rects>
      <tilted>0</tilted></_>
    <_>
      <rects>
        <_>
          42 35 4 10 -1.</_>
        <_>
          43 36 2 10 2.</_></rects>
      <tilted>1</tilted></_>
    <_>
      <rects>
        <_>
          48 4 1 45 -1.</_>
        <_>
          48 19 1 15 3.</_></rects>
      <tilted>0</tilted></_></features></cascade>
</opencv_storage>
