<?xml version="1.0"?>
<opencv_storage>
<stage2>
  <maxWeakCount>6</maxWeakCount>
  <stageThreshold>-1.9643182754516602e+00</stageThreshold>
  <weakClassifiers>
    <_>
      <internalNodes>
        0 -1 3071054 -1.1403432115912437e-02</internalNodes>
      <leafValues>
        5.0580048561096191e-01 -1.8628467321395874e+00</leafValues></_>
    <_>
      <internalNodes>
        0 -1 4995898 -6.1234901659190655e-04</internalNodes>
      <leafValues>
        5.3470730781555176e-01 -1.0207279920578003e+00</leafValues></_>
    <_>
      <internalNodes>
        0 -1 3876988 -4.2202537879347801e-03</internalNodes>
      <leafValues>
        4.4312641024589539e-01 -1.4344183206558228e+00</leafValues></_>
    <_>
      <internalNodes>
        0 -1 509303 5.0038810819387436e-02</internalNodes>
      <leafValues>
        -4.5269477367401123e-01 1.4754067659378052e+00</leafValues></_>
    <_>
      <internalNodes>
        0 -1 49343 2.2065371274948120e-01</internalNodes>
      <leafValues>
        -5.8644807338714600e-01 1.1121715307235718e+00</leafValues></_>
    <_>
      <internalNodes>
        0 -1 2749375 5.5600248742848635e-04</internalNodes>
      <leafValues>
        -1.7387820482254028e+00 4.0890985727310181e-01</leafValues></_></weakClassifiers></stage2>
</opencv_storage>
