%YAML:1.0
---
detector: !!opencv-object-detector-hog
   winSize: [ 200, 200 ]
   blockSize: [ 16, 16 ]
   blockStride: [ 8, 8 ]
   cellSize: [ 8, 8 ]
   nbins: 9
   derivAperture: 1
   winSigma: 4.
   histogramNormType: 0
   L2HysThreshold: 2.0000000000000001e-01
   gammaCorrection: 1
   nlevels: 64
   signedGradient: 0
   SVMDetector: [ -7.00383959e-03, 6.01580739e-03, -5.52077405e-03,
       7.95880798e-04, -4.62348759e-03, -1.17563910e-03, -6.07636245e-03,
       3.98620730e-03, -1.33868512e-02, -9.93887149e-03, 2.37852614e-03,
       -1.32456212e-03, -7.66764209e-03, -7.77483173e-03,
       -7.84607232e-03, -4.38279996e-04, 1.36812718e-03, -6.79446198e-03,
       -4.75723622e-03, 1.26875667e-02, -1.28573435e-03, 1.33750192e-03,
       1.28812715e-02, -3.57000041e-03, 2.23816489e-03, 1.67719964e-02,
       2.71260017e-03, -2.00122949e-02, 1.64874815e-04, 1.76220771e-03,
       2.14160816e-03, 1.08278566e-03, 1.41745748e-03, 5.48796169e-03,
       8.94212443e-03, -3.67475720e-03, -5.69465163e-04, -1.97928515e-03,
       7.23895908e-04, 7.24703120e-03, -1.10375946e-02, -1.54846525e-02,
       -7.56759010e-03, 3.61054461e-03, -1.64796971e-03, -9.20464378e-03,
       8.16151220e-03, 3.86676518e-03, 1.55736618e-02, 6.09303638e-03,
       8.58089048e-03, 1.33456709e-03, 9.89546999e-04, -1.17239552e-02,
       -4.12695063e-03, 6.75733667e-03, 6.45097066e-03, 1.38879698e-02,
       -8.44920706e-03, -1.14915874e-02, -1.65178794e-02,
       -1.05509358e-02, -4.62210784e-03, -3.36712808e-03, 1.41801331e-02,
       2.17685616e-03, 2.09802631e-02, 6.76086219e-03, -1.65627571e-03,
       -3.23963095e-03, -1.27997333e-02, -1.87026709e-02,
       -6.50750566e-03, 6.91747526e-03, -8.62672168e-04, -3.69325094e-03,
       5.06030209e-03, 8.33398383e-03, 8.82570446e-03, -1.15577886e-02,
       -1.12594767e-02, 1.62939762e-03, -5.46463439e-03, -8.98651686e-03,
       -1.25359874e-02, -2.41838861e-02, 3.77252745e-03, 8.12722836e-03,
       -4.66090115e-03, 5.33922110e-03, 1.05922036e-02, 1.19838575e-02,
       2.02544406e-03, 5.50878095e-03, -7.10823061e-03, -6.93254732e-03,
       2.97527481e-03, -2.77729798e-03, -1.63262337e-03, 1.15647614e-02,
       6.82746246e-03, 1.00508835e-02, -8.89933296e-03, -1.13611864e-02,
       3.20813572e-03, 8.52881651e-03, -2.21883500e-04, 9.76063963e-03,
       2.55052722e-03, -3.81297315e-03, -1.23942858e-02, -8.07634555e-03,
       -3.33592575e-03, 9.64920688e-03, 3.40318365e-04, -4.41568159e-03,
       1.26166074e-02, -5.43748727e-04, -4.18515131e-03, -6.34832913e-03,
       5.76511025e-03, -3.69174429e-03, 1.02754291e-02, 1.09984307e-02,
       8.10229126e-03, -3.75391031e-03, -4.23723459e-03, -1.49378355e-03,
       3.91186355e-03, -8.85954220e-03, 3.55289853e-03, 5.67119103e-03,
       -7.30417843e-04, -1.34547735e-02, -4.23704227e-03,
       -1.50318202e-02, -9.11486801e-03, -2.80558132e-03,
       -4.91313916e-03, -3.09930462e-03, -3.06664640e-03,
       -4.98495903e-03, -1.03186900e-02, -1.61033757e-02, 1.05671780e-02,
       -3.04640760e-03, -1.34985754e-03, 8.09868518e-03, 6.78155688e-04,
       6.96514174e-03, 7.77662685e-03, 7.64562748e-04, -2.35033501e-03,
       -9.32279229e-03, -3.15956632e-03, -5.28049795e-03, 3.73851438e-03,
       2.76693748e-03, 8.73813988e-04, 1.68961287e-02, 4.24295431e-03,
       -8.25227425e-03, -3.96597618e-03, -8.35823081e-03,
       -1.05464030e-02, 3.12844338e-03, -1.15036620e-02, -4.54057520e-03,
       -8.40283639e-04, -7.21689267e-03, -1.34047596e-02,
       -1.25258984e-02, -4.42037970e-04, -1.06865363e-02,
       -3.44809541e-03, -2.11059693e-02, -8.38311668e-03, 1.34473871e-02,
       -3.16639035e-03, -1.55299501e-02, -8.86534515e-04, 5.28715504e-03,
       5.51607041e-03, -1.30566517e-02, -4.54802811e-03, 3.42443166e-03,
       1.33083062e-02, 5.88614566e-05, -4.19866247e-03, -6.57634810e-03,
       5.40131889e-03, 2.10942165e-03, -1.71243418e-02, -2.78721447e-03,
       4.49993927e-03, 5.27442608e-04, -1.17968256e-03, 1.13635976e-03,
       -1.81258935e-03, 1.19538633e-02, 1.73590127e-02, -8.40367563e-03,
       -1.04967533e-02, -3.59740737e-03, 9.10517294e-03, -6.52199192e-03,
       -7.12862145e-03, -1.07670734e-02, 1.24343270e-02, 1.89169683e-02,
       -2.14187894e-02, -9.40669049e-03, -8.74253362e-03,
       -9.74028371e-03, -1.46766612e-02, -2.18998287e-02,
       -1.82066127e-04, 1.31401215e-02, 5.13645215e-03, -1.15161976e-02,
       1.36971856e-02, 4.09109576e-04, 2.29305401e-03, 7.32061593e-03,
       4.15344769e-03, 6.51420746e-03, 1.30406367e-02, 7.81864021e-03,
       1.55486609e-03, 6.95555797e-03, -2.06039585e-02, -9.12338030e-03,
       1.29793421e-03, -2.49953335e-03, -1.73476078e-02, 8.51737894e-03,
       1.65173784e-02, -8.46812036e-03, 1.06042512e-02, -9.57250129e-03,
       1.30150681e-02, 3.59947188e-03, -2.06040442e-02, -8.67783278e-03,
       2.58997804e-03, 1.75845735e-02, -1.01249944e-03, 1.42665841e-02,
       -1.54339606e-02, -1.21556344e-02, -1.26384869e-02,
       -1.95613485e-02, 1.02304677e-02, 1.59175030e-03, 4.31869645e-03,
       -4.71566152e-03, 8.71674065e-03, -1.58211906e-02, -5.81092713e-03,
       9.60034132e-03, -9.95902810e-04, -4.06402134e-04, -6.08970085e-03,
       7.98615068e-03, -1.60677126e-04, 4.81345505e-03, -9.50127747e-03,
       7.61630293e-03, 1.01821441e-02, -5.62285131e-04, -5.87282190e-03,
       -3.42917209e-03, 4.55769245e-03, -3.36073455e-03, 2.13514585e-02,
       -1.52085498e-02, -9.10891220e-03, -6.35824259e-03,
       -2.21690200e-02, 1.06659634e-02, -9.18131205e-04, 8.51316471e-03,
       5.26390923e-03, 2.77577601e-02, -1.69625320e-02, 1.04442984e-02,
       2.97623151e-03, -3.75886937e-03, 5.51251695e-03, 1.01852491e-02,
       1.17511926e-02, 9.25565884e-03, 4.38686507e-03, -7.18705636e-03,
       -2.54022656e-03, -4.75169159e-03, 4.27091448e-03, -5.33288810e-04,
       9.51198116e-03, 9.75885894e-03, 5.11204498e-03, 1.29549028e-02,
       -1.55935725e-02, -8.36111233e-03, -1.00557311e-02,
       -1.68926432e-03, 1.05405925e-02, 7.01898243e-03, 6.16597198e-03,
       6.03444315e-03, 7.68488413e-03, -1.49676744e-02, 2.39105290e-03,
       -2.82160263e-03, -7.16739043e-04, 3.20519786e-03, 6.75424607e-03,
       7.16992514e-03, 3.09360303e-07, 7.89152551e-03, -1.64101366e-02,
       -5.20852813e-03, 5.30139310e-03, -7.55901728e-03, 9.39599611e-03,
       4.81159473e-03, -3.31003498e-03, 5.85371582e-03, 6.99437549e-03,
       -7.84011465e-03, -6.75850827e-03, -1.01074101e-02,
       -3.44598969e-03, 7.92740658e-03, 1.66362687e-03, -7.49169267e-04,
       3.01433867e-03, 7.34361354e-03, -2.77214707e-03, -1.35878418e-02,
       -1.17799649e-02, -4.51070908e-03, 6.19144365e-03, -3.02286702e-03,
       3.55579425e-03, 4.59642243e-03, 8.13301129e-04, -9.50761698e-03,
       -2.17049057e-03, 4.64008097e-03, -9.60593391e-03, 2.00701808e-03,
       7.74646935e-04, 1.00265136e-02, 1.10588048e-03, 5.87031990e-03,
       -1.37054864e-02, -1.66905113e-03, -3.76760564e-03, 4.70124278e-03,
       7.57513475e-03, -5.70721179e-03, 4.11133078e-04, 1.18510064e-03,
       1.19162472e-02, -1.86053221e-05, -8.88980087e-03, -1.12240734e-02,
       -4.69594821e-03, 2.36385665e-03, -1.15018347e-02, 8.41431785e-03,
       6.18227059e-03, 1.66305266e-02, 2.59075896e-03, -4.23965883e-03,
       -9.65484360e-05, 2.66486546e-03, 7.46333785e-03, 7.22733885e-03,
       2.41047028e-03, -3.22432048e-03, 1.58613883e-02, -5.42743690e-03,
       -5.41583030e-03, -3.62667651e-03, 6.76986948e-03, 2.70879152e-03,
       3.52778123e-03, 7.82580674e-03, 1.28915801e-03, 1.69913340e-02,
       -6.04962092e-03, 1.20908571e-02, 3.01273912e-03, 4.03261185e-03,
       -2.60374579e-03, 1.93272205e-03, 8.43655691e-03, -1.66912866e-03,
       1.55915273e-02, 5.16879698e-03, -3.06365569e-03, -2.66499002e-03,
       -5.58293425e-03, 1.44144464e-02, 1.49716362e-02, 1.08798258e-02,
       -4.53235349e-03, -9.41236224e-03, -5.10673970e-03,
       -2.26968943e-04, 1.26883585e-03, -4.78111627e-03, -1.82796284e-04,
       5.72020328e-03, 1.13624637e-03, -1.12139750e-02, 9.08117741e-03,
       -8.71535949e-03, 1.58275734e-03, -1.17750384e-03, -9.20556951e-03,
       -1.01385806e-02, 9.25932173e-03, 9.47619788e-03, -7.88949616e-03,
       1.07232444e-02, -6.00345619e-03, 1.30130560e-03, -9.89254657e-03,
       -1.42805306e-02, 2.16594525e-02, 1.35552352e-02, 1.76343769e-02,
       -6.83482876e-03, -1.43978298e-02, -1.19235544e-02, 4.71590640e-04,
       -1.03142904e-03, 3.93992104e-03, 1.83961559e-02, 7.73616927e-03,
       2.15056296e-02, 3.72540439e-04, -4.28573042e-03, -1.52857173e-02,
       7.64039578e-03, -3.51366494e-03, -3.30983661e-03, -1.43776583e-02,
       -8.30161851e-03, 1.27875172e-02, -1.27587076e-02, -1.53874018e-04,
       4.25877422e-03, 9.95715614e-03, -5.04149869e-03, -1.24129588e-02,
       1.00969023e-03, -4.93912678e-03, 1.31944204e-02, -6.49914844e-03,
       1.40839443e-02, 1.74889900e-03, 1.81494206e-02, 4.55400255e-03,
       4.35249088e-03, 7.41027994e-03, -6.15233090e-04, -2.37345649e-03,
       -7.70287495e-03, 3.66929872e-03, -1.26620121e-02, 8.82930704e-04,
       -4.95497044e-03, -8.46453104e-03, -2.82119098e-03,
       -7.85317644e-03, -1.27677666e-02, -7.68005708e-03, 1.82008669e-02,
       6.17351895e-03, 5.20749344e-03, 6.35860767e-03, -6.75022893e-04,
       -2.45235581e-03, -1.25198215e-02, -1.01769306e-02,
       -4.94548772e-03, 3.37212835e-03, -1.53374858e-02, 2.36782958e-04,
       -7.90883508e-03, 1.20627438e-03, -6.30257372e-03, -1.22724520e-02,
       -1.20404242e-02, 1.36813987e-02, 1.87728163e-02, 2.75604124e-03,
       -4.79948707e-03, -1.28762340e-02, 2.27187388e-06, 3.05759115e-03,
       9.66072766e-05, 4.10218898e-04, -2.25442206e-03, -2.39145360e-03,
       -5.31835435e-03, -1.90071849e-04, 1.10689609e-03, 5.93275065e-03,
       5.02991071e-03, 5.44197531e-03, -3.19704483e-03, -1.42264063e-03,
       5.58358431e-03, -7.29217334e-03, 4.77230269e-03, 2.51763803e-03,
       1.02079408e-02, 5.69306128e-03, 3.45588825e-03, -5.90387499e-03,
       -2.93855835e-03, -8.92836228e-03, -6.46243664e-03,
       -7.67388800e-03, -1.18801999e-03, 1.19694499e-02, 2.44679768e-03,
       9.46308207e-03, -6.55401684e-03, -9.18270741e-03, 6.93955342e-04,
       -4.21613018e-04, -1.30888238e-03, 1.24444198e-02, -2.76210275e-03,
       1.15236640e-02, 5.85923810e-03, -3.56190465e-03, -4.39696712e-03,
       1.27112893e-02, -8.16610234e-04, 1.21431258e-02, 8.24482739e-03,
       4.42905072e-03, 4.10532812e-03, 1.68517081e-03, 1.04853092e-02,
       4.36764210e-03, 1.78988427e-02, -1.85966562e-03, 1.15251737e-02,
       4.73108282e-03, 1.22820027e-02, -6.40140893e-03, 3.93063296e-03,
       1.44595001e-03, -7.41102733e-04, 1.39559926e-02, 2.25900486e-03,
       5.72505081e-03, 1.01264659e-02, -7.06579813e-05, -9.15844645e-03,
       7.34679308e-03, 4.50078305e-03, 1.05034211e-03, 1.38046090e-02,
       -5.21288626e-03, 1.08636627e-02, 4.85636247e-03, -8.67213868e-03,
       8.06391612e-03, 7.74216373e-04, 1.00835124e-02, 8.47682450e-03,
       1.09000495e-02, 8.90620577e-04, -4.90060728e-03, -9.76914819e-03,
       8.51003267e-03, 1.00270417e-02, 1.76315242e-03, -1.35014008e-03,
       3.56010976e-03, 1.12130968e-02, -4.28012758e-03, -1.51506951e-03,
       -1.16274804e-02, -2.29418557e-03, -8.25566240e-03, 1.10107400e-02,
       5.50377136e-03, -3.17945750e-03, -1.21084703e-02, 7.82349904e-04,
       -5.43266535e-04, 4.11353167e-03, -7.06212409e-03, 9.34744347e-03,
       1.97096001e-02, 8.07645207e-04, -1.24558946e-03, -3.49910348e-03,
       -1.16831176e-02, -3.85936722e-03, -4.63793427e-03,
       -3.52303614e-03, 2.44256319e-03, -4.53164708e-03, -7.51442555e-03,
       1.50159889e-04, 2.70372233e-03, -1.37779478e-03, 3.53685464e-03,
       -7.61648314e-03, -3.19744297e-03, -5.48694702e-03,
       -4.74056043e-03, -7.89557211e-03, -1.24504827e-02,
       -4.87051252e-03, 5.64172352e-03, 1.01240138e-02, 4.97839786e-03,
       -1.09812813e-02, 2.60871761e-02, 1.47247892e-02, -1.21293925e-02,
       -8.12928006e-03, 8.24898074e-04, -7.57612148e-03, 5.37623093e-03,
       -4.85984189e-03, 1.15080327e-02, 1.46783311e-02, 7.14619691e-03,
       -1.42404474e-02, -1.31166857e-02, -1.03225019e-02, 3.28606949e-03,
       2.10673269e-02, 1.16090721e-03, -3.79275152e-04, -1.97332539e-03,
       -4.26220708e-03, -7.56734097e-03, -1.65770967e-02,
       -6.11425471e-03, 6.90389518e-03, 2.59034522e-03, 2.65956204e-03,
       -7.56492931e-03, -8.93040153e-04, 7.77341484e-04, -9.30559170e-03,
       -1.40304221e-02, -8.62616673e-03, -8.27787071e-03,
       -6.26163371e-03, 5.53349918e-03, 5.63864643e-03, 6.54433481e-03,
       1.00047756e-02, -5.45634842e-03, -4.06307774e-03, -3.81275499e-03,
       -7.67665508e-04, -2.37722020e-03, -7.78559269e-03,
       -7.04789860e-03, -8.72488786e-03, -4.55782842e-03,
       -6.29732711e-03, -9.29856731e-04, -1.26960455e-02,
       -1.71329454e-02, -1.48292743e-02, -1.00806437e-03,
       -3.81988520e-03, -4.38122079e-03, 8.30818526e-03, -1.00306375e-03,
       -9.49048996e-03, -5.11595560e-03, -4.74913092e-03,
       -1.87186955e-03, 4.59090015e-03, -3.91025189e-03, -2.04159282e-02,
       5.80206420e-03, 1.37505319e-03, -2.86789215e-03, -1.56692672e-03,
       -9.19064041e-04, 1.31127108e-02, 2.57436070e-03, -2.10253969e-02,
       -1.19876990e-03, 8.81382823e-03, -1.02977827e-02, -4.45552403e-03,
       1.34197166e-02, -1.58363935e-02, 1.32928675e-04, -5.01501514e-03,
       -3.29172937e-03, -1.20166438e-02, 9.80022736e-03, 9.11570713e-03,
       6.50595827e-03, 4.22658352e-03, -1.23951687e-02, 5.26752789e-03,
       -1.06789554e-02, -9.63967945e-03, -6.44311449e-03, 3.16849281e-03,
       1.17887426e-02, 1.01180887e-02, -3.44783044e-03, -2.87099043e-03,
       8.30298662e-03, -2.37913639e-03, -2.04967093e-02, -6.80709991e-06,
       1.37155280e-02, 1.52749754e-02, -3.38652078e-03, -1.75428321e-03,
       -2.53902227e-02, 1.54047674e-02, 5.78974979e-03, -1.73050165e-02,
       -5.37532289e-03, 7.62667367e-03, 1.15425913e-02, 5.27776126e-03,
       -2.42469683e-02, -7.89677165e-03, -2.41476919e-05, 3.54614016e-03,
       -1.14280591e-03, 5.15777571e-03, 1.73210595e-02, 1.48507636e-02,
       8.85392772e-04, -2.18400173e-02, -1.87326409e-02, 4.92830994e-03,
       1.90522317e-02, 2.89332308e-03, 6.39657769e-03, 1.49396313e-02,
       1.72318984e-02, -7.21149566e-03, -4.25362820e-03, -1.61978360e-02,
       2.21267361e-02, 1.68714835e-03, -5.20567177e-03, -5.43843023e-03,
       2.04861369e-02, 8.61975271e-03, -1.36158951e-02, -5.52003225e-03,
       2.73064198e-03, 2.48884931e-02, 5.05217118e-03, -8.36024806e-03,
       3.62771819e-03, 1.35659380e-03, 5.08616678e-03, -1.62926828e-03,
       -7.69758131e-04, -1.08457971e-02, 1.91588383e-02, 1.68401692e-02,
       -2.96882004e-03, -1.94971617e-02, -5.09284250e-03,
       -1.04041724e-02, -5.74347330e-03, -7.38764228e-03,
       -9.03206877e-03, 8.15247558e-03, -3.58762103e-03, -2.07788888e-02,
       6.20457996e-03, 3.53324041e-02, 1.68909617e-02, 1.06585829e-03,
       9.04625934e-03, 9.48914234e-03, 2.12830435e-02, 7.49916863e-03,
       3.80095444e-03, 7.51927216e-03, 1.14901587e-02, -9.57651762e-04,
       -1.30778179e-02, 5.68280753e-04, -1.48621183e-02, 4.02068533e-03,
       8.89867172e-03, 1.33070610e-02, 3.32052005e-03, 1.53988367e-02,
       5.04161930e-03, 1.72980013e-04, 3.10214725e-03, -3.25919082e-03,
       9.40409722e-04, 1.48424049e-04, 6.15922408e-03, -5.13889268e-03,
       -9.78734996e-03, -1.02176210e-02, -1.07962284e-02, 1.03522036e-02,
       -1.74545851e-02, -1.39004625e-02, 3.54764704e-03, 5.80723397e-03,
       -8.02286249e-03, 3.08343908e-03, -4.26980294e-03, 2.14130688e-03,
       9.90058389e-03, -1.86650585e-02, -4.22839215e-03, 8.78534093e-03,
       -1.07662007e-03, 2.83114123e-03, 1.67624932e-02, 1.09943217e-02,
       8.93595349e-03, 5.75545570e-03, -2.15928052e-02, -7.95423239e-03,
       6.72998326e-03, -1.47502171e-02, -1.32215638e-02, -8.75266083e-03,
       -4.54340456e-03, -1.02454913e-04, 4.42697806e-03, -4.53018770e-03,
       -6.31662086e-03, 9.04280413e-03, -2.95435172e-03, -6.13614824e-03,
       2.50350889e-02, 1.04861641e-02, 7.48696830e-03, -1.66032289e-03,
       -2.77400389e-03, -1.36986375e-02, 2.45375698e-03, -1.05003249e-02,
       7.75268627e-03, 6.46318449e-03, 1.14748278e-03, -7.78256916e-03,
       4.38532373e-03, -6.52205339e-03, 5.47283143e-03, 1.56402793e-02,
       1.65385194e-02, -5.27373003e-03, -8.45151022e-03, 4.81029012e-04,
       5.34521183e-03, -1.39917629e-02, -9.02053714e-03, 2.34415345e-02,
       1.73380133e-02, 1.14180464e-02, -2.28428631e-04, -6.47861685e-04,
       1.12934300e-04, -6.38457341e-03, -8.20820034e-03, -6.95640780e-03,
       -1.47724862e-03, -2.96371174e-03, 6.57727662e-03, -1.35057773e-02,
       -7.17650680e-03, -6.34044129e-03, -2.63597281e-03,
       -9.70942341e-03, -1.70571078e-02, 1.34044327e-02, 3.17092007e-03,
       -1.09815719e-02, -6.96503837e-03, -7.15323864e-03,
       -3.89000913e-03, 1.38476323e-02, 2.84484180e-04, 2.16349936e-03,
       7.67696183e-03, 4.87581501e-03, 1.18252961e-02, -9.20947082e-03,
       -2.02070666e-03, 3.98828462e-03, 1.26699405e-02, 1.53569039e-02,
       5.68655203e-04, 3.85648198e-03, -2.74439808e-03, -4.34694579e-03,
       -8.50647874e-03, -7.25087384e-03, -5.25416667e-03, 4.98694228e-03,
       -1.68412291e-02, -7.00245984e-03, 1.32419020e-02, 5.39680663e-03,
       -3.19122477e-03, 8.01860529e-04, -1.18968654e-02, 4.57699317e-03,
       -8.74999166e-03, 2.41447962e-03, 3.50895198e-03, 8.18187185e-03,
       4.34388919e-03, 7.18312291e-03, 7.54567375e-03, 5.13152801e-04,
       -2.00383808e-03, 3.90018267e-03, -2.86948145e-03, -1.66155084e-03,
       2.67764903e-03, 4.46785474e-03, 1.21187754e-02, 7.11650937e-04,
       3.29915259e-04, 2.28911755e-04, -1.13505861e-02, -1.44679295e-02,
       1.52797229e-03, 7.42671313e-03, 6.49090740e-04, 5.70428511e-03,
       1.31690549e-02, -1.78282533e-03, -1.97678921e-03, -8.02767742e-03,
       -9.68646072e-03, 1.26374990e-03, -1.69250637e-03, -2.41745700e-04,
       8.10621865e-03, 8.64697213e-04, -5.29245532e-04, -5.36214234e-03,
       -5.51025290e-03, -2.58846227e-02, 2.23341724e-03, 9.16684605e-03,
       1.23038217e-02, 3.73628776e-04, -4.65596607e-03, -3.24923894e-03,
       1.62975173e-02, 3.96874966e-03, 6.13254076e-03, 3.27179860e-03,
       4.44242265e-03, -8.50424578e-04, 2.01122742e-03, -1.08453142e-03,
       -1.43405120e-03, 1.02050183e-02, 1.22907455e-03, 2.13585189e-03,
       -9.13261157e-03, -6.51511084e-03, -7.17983674e-03,
       -5.50938211e-03, -1.07272305e-02, -8.81773140e-03, 5.23390248e-03,
       5.19566936e-03, -6.87842118e-03, -4.81140008e-03, 4.59365686e-03,
       4.11050441e-03, -5.13253035e-03, 2.56156898e-03, 7.89061096e-03,
       1.13249207e-02, 1.72038423e-03, 6.38197002e-04, -2.50585796e-03,
       -3.82030662e-03, -3.85325472e-03, -7.92485487e-04,
       -2.18798849e-03, -1.64215118e-02, -1.09481178e-02, 7.68249738e-05,
       -1.99579843e-03, -6.24555442e-03, -1.25686335e-03,
       -7.16168713e-03, -2.66007846e-03, 8.80780630e-03, -5.28961141e-03,
       -1.64111257e-02, -3.27362143e-03, -3.29461088e-03,
       -3.37837264e-04, 2.24655098e-03, 1.22356566e-03, 5.70517173e-03,
       6.58845180e-04, -9.66628734e-03, -3.93279316e-03, -3.47749656e-03,
       -8.50317720e-03, -4.59606294e-03, -1.06553519e-02, 9.17183526e-04,
       5.44805266e-03, 4.94918367e-03, -8.02472606e-03, -6.90001715e-03,
       5.72630786e-04, 3.96248419e-03, 7.56696938e-03, 7.56148482e-03,
       9.84493829e-03, 4.58368007e-03, 8.40522908e-03, 1.03422143e-02,
       3.92282847e-03, -3.80848278e-03, -1.18594933e-02, 4.28176392e-03,
       1.09789986e-02, -6.63989689e-03, 5.72171248e-03, 3.52686294e-03,
       1.11315679e-02, 4.32076631e-04, -1.23379314e-02, 3.04819411e-03,
       -1.15475245e-02, -4.68820520e-03, -1.28126666e-02,
       -5.06842742e-03, -1.13931904e-03, 1.91551179e-03, 8.36670119e-03,
       9.65864630e-04, -1.19473068e-02, 4.39538900e-03, 1.32737905e-02,
       4.67333104e-03, 9.45287116e-04, -6.76030712e-03, 2.89685233e-03,
       6.33860752e-03, -6.45076763e-03, 8.76577757e-03, -1.11231944e-04,
       7.14536896e-03, -3.32809961e-03, -1.17493607e-02, -1.60350755e-03,
       1.67360646e-03, -8.54997896e-03, -1.06143132e-02, -2.99760513e-03,
       -1.09653873e-02, 4.48601367e-03, -2.73620826e-03, 5.30967535e-03,
       -1.28443465e-02, -1.22451130e-02, -5.42992819e-03,
       -6.04654010e-03, -2.70425994e-03, 8.17599706e-03, -5.38477674e-03,
       4.96542454e-03, 5.88002801e-03, -1.14315283e-02, -6.48227427e-03,
       -6.07515103e-04, -3.78275313e-03, 2.55359709e-03, -1.38410588e-03,
       1.85777172e-02, -3.04577011e-03, -2.61396961e-03, -1.51021462e-02,
       -7.43700983e-03, 8.65567476e-03, -5.26819658e-03, 6.48329547e-03,
       1.48533685e-02, 1.25158401e-02, -2.98353098e-03, -2.49574223e-04,
       -1.33048696e-02, -6.09047711e-03, -3.83605203e-03, 5.88999270e-03,
       1.63905546e-02, 5.37617970e-03, -7.01854657e-03, -1.46571966e-03,
       -3.05631640e-03, 7.46504683e-03, 4.56239097e-03, -5.66841476e-03,
       -3.87184601e-03, 1.58384498e-02, -1.95339016e-04, 4.15842282e-03,
       1.22440013e-03, 9.96773317e-03, -1.08909057e-02, -7.94755388e-03,
       3.17746890e-03, -3.83512396e-03, 8.30814615e-03, 1.37258703e-02,
       -1.88920961e-03, -5.64734591e-03, -4.27865190e-03,
       -1.05036786e-02, -2.05022423e-03, -3.04755382e-03,
       -1.55518251e-02, 2.74481974e-03, -7.84448627e-03, -1.15202237e-02,
       -7.71607226e-03, -1.03992540e-02, 1.52415968e-02, 1.37167135e-02,
       1.54343492e-04, 2.06652842e-03, -5.60956402e-03, -2.89942091e-03,
       -5.85910771e-03, -2.21668114e-03, 8.16784613e-03, 1.75345931e-02,
       7.41223618e-03, 1.21642379e-02, 7.52090150e-03, -1.66608114e-02,
       -6.51925988e-03, -1.62037183e-02, 9.17273760e-03, 1.16907118e-03,
       -6.61026593e-03, 4.41176398e-03, 3.82767478e-03, -3.96203296e-03,
       -2.39858497e-03, -7.19632348e-03, -5.99513203e-03,
       -4.88999626e-03, -1.75967789e-03, 1.18988438e-03, 1.26642743e-02,
       2.01965030e-02, -4.47910745e-03, -1.26086855e-02, 1.55830092e-03,
       -1.16317691e-02, 1.18501531e-02, 5.84362447e-03, 7.34974723e-03,
       -4.95398534e-04, 6.90414663e-03, 1.50979469e-02, -7.39585934e-03,
       4.39524092e-03, -8.11674632e-03, 6.58623828e-03, -8.60923063e-03,
       -3.26049747e-03, -2.97854189e-03, -1.28906919e-03, 6.65370701e-03,
       1.79942814e-03, -8.72193743e-03, 6.10497722e-04, 7.36703305e-03,
       -5.16619859e-03, 4.58022999e-03, -1.35171937e-03, -2.26990785e-03,
       7.22351857e-03, -6.49036048e-03, 1.11815718e-03, -6.93043973e-03,
       8.54079798e-03, 1.08996108e-02, -3.74085992e-03, -1.01325875e-02,
       -1.26335165e-02, -2.06647557e-03, -1.06179481e-02,
       -4.84946743e-03, 4.10948554e-03, 8.93469527e-03, 3.50761367e-03,
       1.01954432e-03, 5.49209910e-03, 5.84261352e-03, 1.52529799e-03,
       2.83315568e-03, -1.43022202e-02, -8.90795514e-03, 2.07992829e-03,
       7.79382419e-03, 1.54178934e-02, 7.05758436e-03, 1.14546558e-02,
       1.29866758e-02, 9.96994507e-03, -8.93113296e-03, 5.50352549e-03,
       7.11168721e-03, 2.34945249e-02, 3.70617700e-03, 3.04130255e-03,
       6.68198429e-03, -5.90220036e-04, -4.07353602e-03, -9.77516361e-03,
       -2.56748241e-03, 7.89092761e-03, 1.19495774e-02, 1.21618323e-02,
       3.73608270e-03, 2.13480853e-02, 1.52543262e-02, 4.13563522e-03,
       -1.55264502e-02, -5.25334198e-03, 6.68073364e-04, 4.32252744e-03,
       1.78701356e-02, 1.21657774e-02, 6.03427598e-03, 4.90646064e-03,
       1.57495367e-03, -1.74893793e-02, 1.90040318e-03, 4.26959479e-03,
       1.41552351e-02, 6.31677278e-04, 2.22310511e-04, 1.45510565e-02,
       -6.85199723e-03, -8.71265400e-03, -5.12103643e-03,
       -1.50062598e-03, -1.83731201e-03, -6.64065708e-04, 9.03198402e-03,
       -3.06995749e-03, 1.36533361e-02, 1.46895899e-02, -1.05620278e-02,
       -1.79615691e-02, -9.47002380e-04, -1.56262307e-04, 1.55821815e-03,
       4.92079789e-03, -1.76035857e-04, 2.21165530e-02, 1.09250583e-02,
       2.58729304e-03, -3.05054546e-03, 6.28507510e-03, 5.98954037e-03,
       -8.90094880e-03, 1.97131839e-03, -6.19295007e-03, 7.05634383e-03,
       -5.32935839e-03, -3.49998404e-03, -1.92317209e-04,
       -5.34492405e-03, -1.26162320e-02, 2.26214877e-03, 9.38291196e-04,
       -1.16275530e-03, 2.35000532e-03, -6.60421967e-04, 1.20916020e-03,
       -2.55677826e-03, 9.68802348e-03, -6.73891557e-03, 9.75782424e-03,
       9.86632425e-03, -4.26812272e-04, 2.65976135e-03, -4.33386117e-03,
       -8.65030196e-03, 6.56501111e-03, 4.98603936e-03, -3.64882266e-03,
       -8.61931872e-03, 9.41503793e-03, 4.51971973e-05, 4.67059063e-03,
       2.05478771e-03, -1.50617759e-03, -2.96711922e-03, 7.12299719e-03,
       1.18066967e-02, 5.80901559e-03, 4.59771184e-03, -1.34232931e-03,
       -1.47798343e-03, 1.28903834e-03, -6.98785111e-03, -1.57773923e-02,
       -6.82284869e-03, -1.65818371e-02, 1.61814771e-03, -1.10401667e-03,
       2.84544542e-03, -3.90306185e-03, 1.61656253e-02, 1.73073763e-03,
       -1.96604873e-03, -1.90791395e-02, -2.74875164e-02,
       -1.76230036e-02, 1.80352118e-03, -7.87394121e-03, 3.13547254e-03,
       9.67659708e-03, -9.52048413e-03, 5.60537737e-04, -3.95764480e-04,
       1.35654043e-02, -9.39485617e-05, 2.01585963e-02, -1.11938476e-04,
       -4.54064086e-03, 4.42511449e-03, -1.29517550e-02, 1.27954036e-03,
       -1.03322184e-02, 1.34976255e-03, -5.14201820e-03, 1.98658905e-03,
       5.96033921e-03, -1.68820899e-02, -9.48752742e-03, -9.22098290e-03,
       -6.72128703e-03, -7.44950958e-03, -1.86105408e-02,
       -1.27926227e-02, -7.15491406e-05, 7.79905682e-03, -1.70051809e-02,
       -3.36723751e-03, 2.14957502e-02, 1.27127785e-02, 1.13733509e-03,
       8.92268610e-04, -1.21439900e-02, 2.20343545e-02, 4.45268396e-03,
       -2.27380879e-02, -1.70478355e-02, -8.90954863e-03, 8.53240862e-03,
       -4.16664610e-04, -1.00712257e-03, 8.86453409e-03, 1.07301781e-02,
       -1.53934245e-03, -7.83361960e-03, -5.40485326e-03, 2.59329062e-02,
       1.18332757e-02, 1.00838335e-03, 2.74053751e-03, 1.08698783e-02,
       -5.88739198e-03, 3.10865254e-03, -2.10868139e-02, -4.84173186e-03,
       2.15822104e-02, 2.54708156e-03, -3.09282844e-03, -1.29123859e-03,
       -6.93201728e-04, -1.08632073e-03, 8.42646696e-03, -1.97254233e-02,
       -8.08987301e-03, 2.50487565e-03, -1.45326613e-03, 7.13975728e-03,
       -4.63717990e-03, -3.66801815e-03, 1.04823029e-02, 4.20189812e-04,
       -9.46413819e-03, -2.82857753e-03, 6.15125662e-03, -2.51240982e-03,
       -3.45184328e-03, 5.06555336e-03, 4.36972547e-03, 6.05360931e-03,
       4.77750879e-03, -5.09380270e-03, -7.00918306e-03, -7.34586455e-03,
       -1.12520196e-02, 8.21320154e-03, 8.52001365e-03, 1.31260697e-03,
       -1.06721418e-02, 5.88235585e-03, -6.43006340e-03, -7.64667243e-03,
       -4.96173371e-03, 1.75489660e-03, 1.00164441e-02, 2.98138446e-04,
       -7.78035680e-03, 4.19952348e-03, 1.07449153e-02, -4.83313389e-03,
       -5.96054457e-03, 5.06426999e-03, 4.09429893e-04, 1.25601934e-03,
       5.45103289e-03, -1.81255658e-04, -1.57237928e-02, -6.20505353e-03,
       -8.15028697e-03, -3.74841318e-03, -5.23292553e-03,
       -4.63335356e-03, 1.16533954e-02, -1.06259948e-03, -1.11481929e-02,
       -7.95682613e-03, -6.61425898e-03, -1.83639694e-02, 1.44649835e-04,
       1.69614889e-03, 3.62696033e-03, 7.69126986e-04, -1.26448646e-02,
       -1.52315777e-02, 2.40092482e-02, 2.06073057e-02, -6.88011898e-03,
       -6.57730037e-03, -1.57181441e-03, -1.31488079e-04,
       -8.21188744e-03, -3.14160530e-03, 1.13631720e-02, 2.17861310e-02,
       1.36518292e-02, -1.04040476e-02, -1.07353665e-02, -1.98531518e-04,
       8.02923832e-03, 1.19697480e-02, -7.97740743e-03, -9.41430262e-05,
       1.09156612e-02, 6.09941315e-03, -7.53373792e-03, 8.99181888e-03,
       2.03049090e-03, 4.37163096e-03, -6.88397605e-03, -1.11129237e-02,
       -7.43917516e-03, 4.66040894e-03, 5.07642457e-04, -7.72624277e-04,
       -7.59204093e-04, -3.94894462e-03, 7.20665883e-03, -8.59112572e-03,
       -6.11631991e-03, -1.25967143e-02, 1.05388351e-02, 1.27770109e-02,
       -9.29567777e-03, -1.94579898e-03, 7.92172644e-03, 6.76041096e-03,
       1.42768379e-02, -1.49114197e-03, 2.39369785e-03, 1.26479904e-03,
       -3.79666383e-03, -1.14345597e-02, -9.09241661e-03, 1.39222259e-03,
       9.04601940e-04, 8.90161935e-03, 5.95536731e-05, 5.30095585e-03,
       4.92492225e-03, 4.29896987e-04, -1.35407904e-02, -3.97817791e-03,
       3.47871246e-04, 9.29038227e-03, 1.80356633e-02, 7.80285709e-03,
       -3.49927228e-03, -3.30825773e-04, -4.10970673e-03,
       -2.23457860e-03, -9.71494592e-04, -5.36260707e-03, 2.67032324e-03,
       7.40963966e-03, -4.54307813e-03, -1.16136868e-03, 1.04551008e-02,
       -6.13015052e-03, -7.38461409e-03, 3.53579735e-03, 1.75416004e-02,
       8.77874997e-03, 1.01954117e-03, 5.24140056e-03, 6.36659982e-03,
       -9.35263874e-04, -9.13105346e-03, 4.92649525e-03, 3.39687150e-03,
       5.52833267e-03, 4.56261681e-03, 1.77134462e-02, 1.14349285e-02,
       1.83293305e-03, 6.67436421e-03, -5.87114226e-03, -5.82844205e-03,
       6.42659725e-04, -3.85912484e-03, -4.02704859e-03, -1.17050693e-03,
       1.43328216e-03, 3.76805570e-03, 6.81266014e-04, 4.39631427e-03,
       -1.73232716e-03, 2.10710149e-03, 7.56585412e-03, -5.01428545e-03,
       5.24250697e-03, 2.38615018e-03, 5.78160398e-04, -1.52107258e-03,
       -8.49285396e-04, 1.45394700e-02, -2.79048923e-04, -7.23432843e-03,
       3.32356023e-04, 1.76774096e-02, 1.53221348e-02, 1.45268394e-03,
       5.57929371e-03, 9.37072560e-03, 1.34822056e-02, 6.22972054e-03,
       -9.81557649e-03, 2.51028012e-03, 1.25310719e-02, 2.47421917e-02,
       1.48657253e-02, -8.62860400e-03, 3.03381868e-03, -4.49063536e-03,
       4.51217731e-03, 1.73146669e-02, 4.29965369e-03, 4.20298241e-03,
       1.98557670e-03, -6.31879829e-03, -5.10228006e-03, 1.66391134e-02,
       1.96841356e-04, 5.03997225e-03, 6.70226011e-03, 1.00203017e-02,
       -8.72252043e-04, -4.49173059e-03, -6.76242588e-03,
       -9.54718096e-04, -5.36280824e-03, 1.63930247e-03, -4.41648124e-04,
       1.45809138e-02, 2.33850535e-03, 1.05192941e-02, 1.50315622e-02,
       3.87721113e-03, -3.29017546e-03, -4.73665586e-03, -3.34969419e-03,
       6.59798365e-03, 2.85215233e-03, -1.65271927e-02, 1.90573419e-03,
       -2.37338059e-03, -8.89424514e-03, 1.87219027e-03, 2.13743392e-02,
       5.58915664e-04, -1.24305794e-02, -4.38945787e-03, 9.29289672e-04,
       1.09098398e-03, 3.08659306e-04, -3.05663678e-03, 3.10082873e-03,
       2.59700250e-02, 5.66163100e-03, -6.63717883e-03, -5.89323975e-03,
       -1.39401518e-02, 7.71330029e-04, -4.55150730e-04, 6.66680105e-04,
       -1.02284877e-03, 3.82231339e-03, 7.20415637e-03, 1.59119954e-03,
       3.65398591e-03, -1.53060229e-02, -1.02009450e-03, -1.16537989e-03,
       -6.52783690e-03, -7.58270780e-03, -1.12795439e-02,
       -7.17703113e-03, -4.21338854e-03, 5.62536437e-03, -1.03240414e-02,
       -5.94208250e-03, 1.27576955e-03, -7.52355810e-03, 9.48745012e-03,
       1.76431835e-02, -7.11381016e-03, 1.55371020e-03, 7.34715816e-03,
       -2.31712367e-02, 1.28269556e-03, -3.36664682e-03, -2.32817256e-03,
       6.59075147e-03, 2.08418667e-02, 1.49944599e-05, 1.27933705e-02,
       5.98254614e-03, -2.37698527e-03, -6.03189971e-03, -1.80964880e-02,
       -9.01803467e-03, -1.03164073e-02, -9.16259270e-03, 5.22657530e-04,
       -2.35378882e-03, 3.35260550e-03, 7.71605270e-03, 2.82614725e-03,
       7.29483506e-03, -1.20049557e-02, -1.02139311e-02, 3.57797137e-03,
       5.39305527e-03, -8.76143854e-03, 1.07021909e-03, 9.91200376e-03,
       -4.14346764e-03, 2.50164000e-03, -1.26276202e-02, 1.04005483e-03,
       2.01860163e-02, 4.16586734e-03, 8.75012297e-03, 1.75725110e-03,
       5.51947160e-03, 1.42316171e-03, -2.71914504e-03, -8.90266337e-03,
       -1.73758180e-03, 6.05751527e-03, 8.01263191e-03, -3.57624213e-03,
       -4.57128789e-03, 1.15072078e-04, 6.38067781e-04, -8.42731315e-05,
       -7.46226870e-03, 2.77747028e-03, -1.69612300e-02, -1.16807995e-02,
       7.22107291e-03, 8.93921498e-03, 1.27365589e-02, 9.88236535e-03,
       5.07183746e-03, 1.43783493e-02, 2.66847783e-03, -6.32948242e-03,
       -4.47839871e-03, -1.25837920e-03, 8.92730057e-03, -1.37596391e-02,
       2.55607232e-03, 2.51240749e-03, 3.20213404e-03, -8.22054688e-03,
       -1.55935744e-02, -1.64136849e-02, 5.58532635e-03, 1.12288061e-03,
       1.21559817e-02, 2.71735378e-02, 1.23300245e-02, -2.56168284e-03,
       -2.16564536e-03, -5.43507631e-04, -2.47526797e-04,
       -6.91683497e-03, 3.63546703e-03, -6.68710563e-03, 2.74193590e-03,
       3.43260425e-03, -4.92474716e-03, 4.13764408e-03, -8.68093921e-04,
       8.12330749e-03, -2.08663801e-03, -1.68999936e-03, -4.52584960e-03,
       7.53805460e-03, 8.65367334e-03, 9.91790555e-03, 1.07538775e-02,
       -2.74586870e-04, 5.84746525e-03, -8.37202743e-03, -2.05850955e-02,
       1.03080589e-02, 3.25155421e-03, 3.02370591e-03, 2.40658503e-02,
       1.58044440e-03, 1.27912657e-02, 8.65392480e-03, -4.66231210e-03,
       -1.03782269e-03, -3.63547332e-03, -8.17084219e-03,
       -5.93752926e-03, -3.76596727e-04, 1.49999047e-02, 8.54314305e-03,
       1.03711793e-02, 1.51083956e-03, -1.38417305e-02, 2.66066636e-04,
       -1.04189916e-02, -8.53545684e-03, 1.54845836e-02, 1.03829382e-02,
       1.88798527e-03, -8.00705049e-03, -4.36330726e-03, -6.73553348e-03,
       5.21376356e-03, -4.83883265e-03, -8.12417455e-03, 1.41230663e-02,
       2.67048803e-04, 2.29933765e-03, 3.23655055e-04, 6.82231551e-03,
       -1.59401596e-02, 8.18362739e-03, 2.50557321e-03, -2.70973687e-05,
       -2.83040316e-03, 8.96397419e-03, -8.38812048e-05, -6.82436221e-04,
       -2.11784616e-03, 3.92221799e-03, -7.50980899e-03, -1.31134363e-02,
       -6.94435090e-03, 4.86401346e-04, 6.28464331e-04, 7.40205264e-03,
       1.22405253e-02, 7.29830191e-03, -1.00664189e-02, -1.01118791e-03,
       -3.65537405e-03, -6.23115385e-03, -4.49506100e-03,
       -1.00357849e-02, -5.70830842e-03, 8.13019346e-04, 8.06118827e-03,
       5.43535780e-03, -1.80589286e-05, 4.49714158e-03, 3.06954631e-03,
       -5.58768446e-03, 6.76585035e-03, -3.35633825e-03, 4.32950072e-03,
       1.62422529e-03, -1.16592478e-02, -2.47050845e-03, -6.96712453e-03,
       -5.40308363e-04, 4.77827666e-03, -7.20334752e-03, 1.49340823e-03,
       9.49469116e-03, 6.08066982e-03, 6.72126655e-03, -2.13080854e-03,
       2.93935509e-03, 3.73385963e-04, -3.11386469e-03, -5.48031880e-03,
       -1.68983592e-03, 1.43396473e-02, 2.22307790e-04, 5.17575163e-03,
       -1.17533831e-02, -6.13148045e-03, -1.26383745e-03,
       -9.89472307e-03, 2.04840302e-02, -4.74793883e-03, 3.59034119e-03,
       -2.24033464e-03, -1.47495111e-02, -2.26488500e-03,
       -9.63189080e-03, 3.85606801e-03, 9.46267787e-03, 4.21114685e-03,
       -6.63423538e-03, -2.51557818e-03, -3.97723727e-03,
       -1.72337878e-03, -1.04913535e-03, -2.57049710e-03, 1.98224676e-03,
       2.26881728e-03, 1.69087143e-03, 4.78770817e-03, 8.80751293e-03,
       -5.95471496e-03, -7.64451921e-03, -1.67302694e-02,
       -9.14377533e-03, -5.52596431e-03, -6.90752221e-03,
       -3.59541224e-03, -6.08374225e-03, 3.80916661e-03, -9.24109109e-03,
       1.08901039e-02, 6.88287849e-03, -2.27493653e-03, -7.05311820e-03,
       4.21183789e-03, 3.66100925e-04, -2.13532429e-03, 3.06237955e-03,
       1.50962977e-03, -2.21495214e-03, 1.06477225e-03, 9.02443286e-03,
       1.83126028e-03, -1.16039477e-02, 5.21665765e-03, 1.09018944e-03,
       8.28901120e-03, -2.19438830e-03, 1.52842738e-02, 2.13813409e-03,
       1.08529115e-02, 1.79511879e-03, -7.14441109e-03, -5.63231064e-04,
       -8.27560760e-03, -1.64771127e-03, -3.73362843e-03, 4.99117654e-03,
       6.62573241e-03, 2.73983832e-03, -1.07375551e-02, -6.30470784e-03,
       1.88667998e-02, 1.57687366e-02, 1.50801232e-02, -2.36835657e-03,
       6.26967568e-03, 7.73384795e-03, 1.36262888e-05, 8.79894826e-04,
       9.15948860e-03, 4.85308515e-03, 1.52694434e-03, 1.16102248e-02,
       -5.63248235e-04, 9.18267481e-03, 1.14864809e-02, 1.62647590e-02,
       -3.75349424e-03, -2.39090808e-03, 2.42781383e-03, -3.10192187e-03,
       1.79715827e-02, -1.71242654e-03, 6.68995921e-03, 1.06352558e-02,
       1.00487880e-02, -3.96555243e-03, 1.03447605e-02, 3.40965763e-03,
       9.94848181e-03, 1.77702941e-02, -3.39523214e-03, 4.48362390e-03,
       1.51096256e-02, -5.90674020e-03, -4.03307099e-03, 5.96258743e-03,
       9.20114294e-03, 8.16516764e-03, 6.65180618e-03, 4.45799436e-04,
       5.20639867e-03, 1.18454278e-03, -1.75294711e-03, -1.31814852e-02,
       1.76317710e-02, -3.81501112e-03, -4.49378788e-03, 5.31293545e-03,
       -7.23628444e-04, 1.10954023e-03, 1.20341284e-02, 9.92254913e-03,
       9.46972240e-03, 1.28301431e-03, -7.92977307e-03, -2.79310322e-03,
       4.34871018e-03, -7.84166157e-03, 2.76892865e-03, -1.16924674e-03,
       -5.36769349e-03, 9.68663371e-04, -4.81542246e-03, 1.49887707e-02,
       9.61799920e-03, 5.20388409e-03, 9.84434318e-03, 7.69588980e-04,
       7.47173792e-03, 3.85286077e-03, -5.32196555e-03, 6.93240622e-03,
       1.21115185e-02, 8.85381829e-03, -1.31323189e-03, 3.55399284e-03,
       9.06789955e-03, 1.36063655e-03, 7.56749604e-03, 9.07357410e-03,
       2.94990116e-03, -7.94608984e-03, -3.67040257e-03, 6.36307383e-03,
       -9.90301836e-04, 6.57222141e-03, 2.35775672e-03, -9.96584166e-03,
       -3.08587984e-03, -1.61814794e-03, 7.43570784e-03, 1.14832642e-02,
       7.36915600e-03, -6.31639408e-03, 3.44530004e-03, 1.31472256e-02,
       -4.25632531e-03, 7.47849094e-03, 1.24758454e-02, -3.99190513e-03,
       -1.21646049e-03, 3.67197953e-03, 2.63054599e-03, 1.37606552e-02,
       3.11455247e-03, -3.28171533e-03, 9.46538895e-03, 5.52111398e-03,
       3.92819708e-03, 6.02247752e-03, 9.78570338e-03, 1.74843753e-03,
       1.63819455e-02, 2.45458465e-02, -7.15038925e-03, 9.05421446e-04,
       8.44926480e-03, -7.95439817e-03, -1.70012086e-03, -9.75157949e-04,
       -5.29029348e-04, 4.80766734e-03, 7.43270013e-03, -4.62029595e-03,
       6.21487328e-04, -1.14696631e-02, -1.68753918e-02, -1.06126908e-02,
       -4.02227463e-03, -9.41675343e-03, -7.70048983e-03, 1.76667352e-03,
       -1.52075430e-03, 7.90361688e-03, -4.78946418e-03, 1.30197480e-02,
       3.67945386e-03, 1.20225111e-02, 4.87761339e-03, 1.47462720e-02,
       1.32423947e-02, -3.11249122e-03, -4.61278809e-03, 3.22096166e-03,
       1.14103919e-02, 4.80618514e-03, 5.43097907e-04, -2.77129817e-03,
       -3.29437689e-03, -1.66506926e-03, 8.48147459e-03, 9.76958498e-03,
       -2.63335672e-03, -1.06592029e-02, 1.33276486e-03, 5.89103531e-03,
       1.71979098e-03, 1.71955291e-03, 4.43938002e-03, -4.39182622e-03,
       -2.64785718e-03, 9.78999422e-04, -6.80242479e-03, -2.12715170e-03,
       6.12219889e-03, 1.25399390e-02, -3.80602526e-03, -7.42893526e-03,
       -1.17843542e-02, -5.90479793e-03, 2.86242983e-04, 5.83492545e-03,
       -3.57884594e-04, -4.08429594e-04, -6.55852351e-03,
       -3.88360745e-03, 1.00993328e-02, 1.61986221e-02, 1.60937698e-03,
       3.18878260e-03, 1.59647148e-02, -9.06900968e-03, -2.06721830e-03,
       -4.98999900e-04, -1.38063841e-02, 1.12882424e-02, -1.65852974e-03,
       -8.24354123e-03, 8.91033933e-03, -7.16024591e-03, -3.94511735e-03,
       5.59524726e-03, 1.23326415e-02, -1.98505912e-03, -3.00405617e-03,
       3.22668138e-03, -4.14114399e-03, -1.26502267e-03, -2.44279392e-03,
       2.52344832e-03, 1.64649878e-02, 1.79580692e-02, 9.92512330e-03,
       2.90767779e-03, 8.62972997e-03, 9.26515553e-04, -1.25773158e-02,
       3.69941699e-03, -2.27895416e-02, -3.19330883e-03, 3.98930814e-03,
       -6.51590619e-03, 6.65905233e-03, 1.12487990e-02, -7.41852541e-03,
       2.26365402e-03, 1.22763608e-02, -7.76120322e-03, 1.23913623e-02,
       9.42654256e-03, 6.99250214e-03, -8.03223083e-05, 1.01571623e-02,
       -8.85076169e-03, -2.52770190e-03, 8.19166540e-04, -7.82286457e-04,
       2.59369030e-03, -3.65652697e-04, -3.36258649e-03, 1.88377779e-02,
       6.46258006e-03, -9.10703465e-03, -1.96331255e-02, 1.14695476e-02,
       -2.11416511e-03, -1.02726175e-02, 4.36733896e-03, -5.10656554e-03,
       1.33826593e-02, 1.32216541e-02, 9.21894703e-03, -5.26911067e-03,
       6.31774915e-03, -1.09544666e-02, -1.66027099e-02, -9.07434896e-03,
       -1.33848945e-02, 9.81223490e-03, -1.39628362e-03, -1.57282259e-02,
       -1.03947828e-02, 1.42528173e-02, -1.00531690e-02, -1.32914232e-02,
       1.15384068e-02, 7.96039775e-03, 7.69374706e-03, 7.45053543e-03,
       -1.38556790e-02, 6.65990356e-03, 4.81140660e-03, -2.27371999e-03,
       7.39468029e-03, 1.86954923e-02, -1.00680515e-02, 5.88872936e-03,
       -4.75452654e-03, 7.78347726e-07, -2.95184297e-03, 6.97654719e-03,
       -1.90692814e-03, 5.90773672e-03, 1.32143479e-02, 5.73314587e-03,
       7.78950239e-03, -1.10513913e-02, -5.30631142e-03, -6.08754205e-03,
       1.12064006e-02, -7.72695476e-03, -1.22109475e-02, 1.11203948e-02,
       -1.38289970e-03, -1.78858044e-03, -1.71125715e-03,
       -2.29067225e-02, -2.62230728e-03, 7.29286531e-03, -1.18944170e-02,
       -5.45196282e-03, 7.20109744e-03, -1.38425303e-03, -8.44550610e-04,
       -1.96385123e-02, -2.04493552e-02, -6.36774162e-03, 4.33590077e-03,
       -7.34064355e-03, -9.61067621e-03, 1.53126905e-03, -3.28327296e-03,
       1.12364003e-02, 2.24794750e-03, 2.89341551e-03, 5.20055124e-04,
       6.11908501e-03, -4.68702149e-03, -1.70284079e-03, 8.94104596e-03,
       6.56297430e-03, 1.53668188e-02, 1.32999299e-02, 1.15505699e-02,
       9.63452086e-03, 5.56643121e-03, -1.04943309e-02, -4.05620784e-03,
       2.40708399e-03, 3.17772594e-03, 9.28782206e-03, -7.45394966e-03,
       -6.24514325e-03, 3.55946366e-03, -3.78824561e-03, 1.42581323e-02,
       1.21893678e-02, 5.90772694e-03, 1.26351800e-03, -5.10379253e-03,
       1.24042132e-03, -9.34413634e-03, 1.02158897e-02, 7.17240735e-04,
       -1.29111321e-03, -1.73791498e-03, -7.73659616e-04, 1.74343516e-03,
       1.11048790e-02, 1.16907181e-02, 1.54524865e-02, 9.28402587e-04,
       4.71037027e-04, -2.22627306e-03, 4.61103255e-03, -1.68536250e-02,
       -5.65226842e-03, 1.09097483e-02, 2.02859845e-02, 2.09952686e-02,
       -1.23283104e-03, -4.52697650e-03, 1.30010387e-02, 2.50302861e-03,
       -7.70253688e-03, 5.12593659e-03, -3.11199576e-03, 6.40903716e-04,
       -1.36320489e-02, -2.32937094e-03, 3.63664026e-03, -2.20269605e-04,
       -5.75991161e-03, -1.01152239e-02, -8.96949042e-03,
       -6.06321404e-03, 5.44917956e-03, 7.50320917e-03, 9.51410271e-04,
       3.14236822e-04, -4.08823165e-04, 8.35313462e-03, 3.30274645e-03,
       -4.27350495e-03, 3.56746983e-04, 1.14209615e-02, -7.14401249e-03,
       6.34237332e-03, 7.89222028e-03, -1.99195440e-03, 2.17515486e-03,
       5.98168140e-03, -3.81551171e-03, 7.71624269e-03, 6.67445874e-03,
       -1.47983646e-02, 3.44932824e-03, 1.02506457e-02, 5.06224344e-03,
       9.04942770e-03, 6.02623820e-03, -4.87452373e-03, -1.61765106e-02,
       -1.42389222e-03, -8.01223982e-03, 1.32529996e-03, 1.55556453e-02,
       1.23191401e-02, 1.62336405e-03, 8.65094457e-03, -9.01945517e-04,
       -4.59971651e-03, -1.69876590e-02, -3.59395631e-02,
       -7.51962606e-03, 7.68634491e-03, -5.59707591e-03, -4.85993410e-03,
       1.01373456e-02, 5.90546010e-03, 3.28671350e-03, 3.13791470e-03,
       -8.68709292e-03, -8.48116877e-04, 1.15792984e-02, -9.10593569e-03,
       -9.61675867e-03, 2.38179555e-03, -7.44173070e-03, 2.82627996e-03,
       -5.83803235e-03, -2.02608109e-03, 8.95489182e-04, 2.01088171e-02,
       7.61130545e-03, -4.50245431e-03, -5.00788505e-04, 1.10932868e-02,
       -4.64995718e-03, -2.44979281e-03, -1.42848659e-02,
       -2.36113276e-03, 1.48565490e-02, 5.00319013e-03, -4.25292365e-03,
       -1.76267244e-03, 9.95916687e-03, -1.49197113e-02, 2.69902195e-03,
       6.85728854e-03, 9.02911555e-03, 1.28275650e-02, -1.62308440e-02,
       -1.51066799e-02, -3.10571119e-03, -6.23997860e-03,
       -4.46260208e-04, -3.63629684e-03, 2.29860260e-03, 7.25253439e-03,
       4.42638109e-03, -1.56915430e-02, -1.12271318e-02, 1.25989271e-03,
       -6.07305532e-03, -1.07853161e-02, -1.91826245e-03,
       -8.52297992e-04, 3.25577613e-03, 1.51820667e-02, -8.09394696e-05,
       -2.59018992e-03, 3.89227062e-03, 4.89863520e-03, -1.47984708e-02,
       -3.15462053e-03, 4.92081221e-04, 1.63278971e-02, 8.25569406e-03,
       6.70856936e-03, 1.54102501e-03, 9.78833064e-03, 3.59113119e-03,
       -2.47407537e-02, -9.11502447e-03, -7.20638642e-03, 1.95838492e-02,
       1.47159211e-02, 7.89093133e-03, 3.72652034e-03, 8.42811633e-03,
       -1.34687144e-02, -6.03571301e-03, -7.87777547e-03,
       -3.13894008e-03, 4.67336597e-03, 4.03632876e-03, 1.18415169e-02,
       4.65236837e-03, -1.01739392e-02, -8.19800515e-03, -1.03558572e-02,
       -4.49315039e-03, -5.35937550e-04, -8.64511298e-04, 1.21399229e-02,
       1.41659025e-02, 1.35315889e-02, 9.58365761e-03, -5.53897629e-03,
       -4.99986531e-03, -3.94133106e-03, -6.61125546e-03, 1.28533980e-02,
       2.21988838e-03, 1.12934951e-02, 7.19135115e-03, -9.79943573e-03,
       -1.00448076e-02, -8.76979996e-03, -1.83104456e-03,
       -3.17594735e-03, -4.47645644e-03, 2.83488567e-04, 9.69022419e-03,
       4.74992348e-03, 1.03231389e-02, 9.87389684e-03, -6.33817539e-03,
       -9.79692675e-03, -7.66030094e-03, -7.13213766e-03,
       -2.81780981e-03, 7.63745233e-03, -2.94145825e-03, 1.19187133e-02,
       -3.02261999e-03, 2.63828994e-03, -5.55137126e-03, 1.48567115e-03,
       -4.05452633e-03, 7.06276158e-03, 2.02814545e-02, 6.79255091e-03,
       3.39794881e-03, -8.29362217e-03, -1.39882881e-02, 1.97346951e-03,
       -4.76443348e-03, -5.31088514e-03, 6.81353500e-03, 7.43607711e-03,
       3.07435915e-03, 1.60714369e-02, 1.26443682e-02, 2.33033625e-03,
       -3.57765565e-03, -6.36509946e-03, -2.62311590e-03,
       -4.05950844e-03, 1.70875154e-02, 1.15532838e-02, 3.06381588e-03,
       1.39912136e-03, -7.59559407e-05, 8.18930508e-04, 1.07766304e-03,
       -1.57730188e-03, -2.31967913e-03, 2.60644406e-02, 1.61083173e-02,
       -4.72178310e-03, -8.66236258e-03, -5.39194094e-03, 6.58582244e-03,
       -4.08219825e-03, -3.95464757e-03, 7.79983820e-04, 6.71535637e-03,
       5.23433415e-03, -3.03438585e-03, 7.93090928e-03, 9.14687756e-03,
       5.78597048e-03, 5.48789557e-03, -3.36184073e-03, -1.04950285e-02,
       1.65462140e-02, 1.84709454e-04, -6.66085677e-03, -1.62435006e-02,
       1.71514670e-03, 4.25437139e-03, 2.89370451e-04, -1.52341519e-02,
       6.13683695e-03, 7.69311935e-03, -1.12110958e-03, -7.80130364e-03,
       3.47092457e-04, -1.26704071e-02, 1.95637625e-03, -7.64504774e-03,
       5.32072154e-04, -7.62162311e-03, 6.26661954e-03, 2.25755526e-03,
       3.36336740e-03, 2.28528716e-02, 1.06579550e-02, -1.33071456e-03,
       -1.17073869e-02, -2.37315651e-02, 2.75398651e-03, 9.66375694e-03,
       -5.76830655e-03, -1.17316935e-02, -1.11092404e-02,
       -5.58967423e-03, -6.48585847e-03, -3.47222463e-04,
       -5.35919215e-04, -1.06836697e-02, 1.16465380e-02, -7.29222270e-03,
       -1.03512616e-03, 1.02417571e-02, 1.35404081e-03, -5.64003550e-03,
       5.75122004e-03, 2.91533885e-04, -3.34391952e-04, 1.59813035e-02,
       -2.87685683e-03, 9.33925994e-03, 2.19382159e-02, 1.06354151e-02,
       3.03803652e-04, -1.14039658e-03, -1.69708952e-02, -3.13454913e-03,
       3.49819893e-03, -4.30851383e-03, -1.52086548e-03, 1.08137578e-02,
       -3.09694139e-03, 4.37630108e-03, 4.46114020e-04, -1.74908843e-02,
       -5.73024945e-03, 8.66536889e-03, -1.10638840e-02, 6.44751126e-03,
       1.25634046e-02, 2.56384956e-03, 1.75115580e-04, 4.40543937e-03,
       3.71413049e-03, 4.51423135e-03, 1.62913669e-02, -1.20890152e-03,
       -9.23130661e-03, 3.76494369e-03, -7.45272590e-03, -2.93297879e-03,
       -1.26981437e-02, 2.52972706e-04, -4.56464197e-03, 1.19483809e-03,
       -1.60407349e-02, -1.13335431e-04, -1.45316869e-03, 5.12524415e-03,
       1.06108589e-02, 1.02646453e-02, 3.63307423e-04, -3.62591189e-03,
       -1.39872264e-03, -1.23005845e-02, -1.69275701e-02,
       -6.99148467e-03, -1.42434640e-02, -1.31817106e-02, 6.89880108e-04,
       -1.49085151e-03, 2.62322766e-03, 1.81639958e-02, -3.21220444e-03,
       2.26640515e-03, 1.59683020e-03, -1.96451088e-03, -7.89393904e-04,
       -5.92353055e-03, -5.35303773e-03, -8.74918420e-03,
       -1.30771997e-03, -8.69872048e-03, -1.49456570e-02, 2.59318552e-03,
       -1.03889359e-02, -5.89297246e-03, -3.59702436e-03,
       -6.27438491e-03, 2.57549318e-03, 1.34199124e-03, -5.46198850e-03,
       -9.43560153e-03, -1.52635295e-03, 2.64216075e-03, -9.81869921e-03,
       4.24129394e-04, 4.83355019e-03, 1.64955074e-03, -8.20550323e-03,
       -6.28255017e-04, 5.91165014e-03, -1.97125250e-03, 3.21030500e-04,
       -1.99434087e-02, -2.01411708e-03, 8.38747714e-03, -8.87470879e-03,
       -1.69503335e-02, -7.16021331e-03, -1.08610522e-02, 5.25195093e-04,
       4.55899630e-03, 7.74889067e-03, -1.46612700e-03, -9.76271275e-03,
       -1.24673406e-02, -2.34487746e-02, -7.19184102e-03,
       -1.55190122e-03, -7.67335237e-04, 1.62663367e-02, 1.03088263e-02,
       -8.46469495e-03, -8.87216628e-03, -3.81709542e-03,
       -8.76389036e-04, 1.37385167e-03, -1.19987805e-03, 1.17564283e-03,
       1.36103034e-02, -7.99722597e-03, -1.04087684e-03, 1.07234227e-03,
       -1.90338166e-03, 1.17816059e-02, 9.59214475e-03, 1.22052140e-03,
       8.36827850e-04, 1.01773320e-02, 3.41685675e-03, 2.63928389e-03,
       1.90235360e-03, 1.89402641e-03, -1.38393724e-02, -6.09896891e-03,
       4.97908145e-03, 4.76739835e-03, 1.39074530e-02, -2.31272937e-03,
       -1.83823239e-02, -1.68019230e-03, 1.17175793e-02, -1.66394524e-02,
       -4.00945777e-03, -8.63264780e-03, -8.30556173e-03, 1.63077526e-02,
       -9.77813825e-03, -1.27385696e-02, 3.12380464e-04, -8.24462995e-03,
       4.59677423e-04, 8.27097800e-03, -3.94136691e-03, 5.96913323e-03,
       3.46500194e-03, 8.65365379e-03, 2.52275192e-03, -5.40020270e-03,
       -7.45646423e-03, 7.16064917e-03, 3.71564669e-03, -3.10508069e-03,
       -1.72440067e-03, -8.94133095e-03, 4.87660663e-03, 4.75645065e-03,
       -1.08288080e-02, -1.67699042e-03, -1.62177682e-02,
       -1.90275500e-03, -1.11602629e-02, 9.93135292e-03, 1.53725222e-02,
       4.45612241e-03, -1.08480714e-02, -1.01006459e-02, -9.13797237e-04,
       -1.47709502e-02, 2.94066174e-03, -1.78943577e-04, -1.51510851e-03,
       -3.34723224e-03, 1.56920645e-02, 6.63361466e-03, -6.76885853e-03,
       3.90638551e-03, 1.03176730e-02, 1.82363100e-03, -3.00659612e-03,
       -8.62725172e-03, -1.42462486e-02, -1.24852536e-02, 4.84647462e-03,
       -4.04429482e-03, -2.62963260e-03, 7.11370399e-03, 5.49813081e-03,
       -1.00920862e-03, -4.03912365e-03, -3.37519986e-03,
       -4.19285055e-03, 1.09292427e-03, -2.71757809e-03, 7.27300812e-03,
       -5.49004367e-03, -9.87713574e-04, -4.97296825e-03,
       -8.72793142e-03, -1.10090766e-02, 7.80014554e-04, 9.99249425e-03,
       1.39961325e-04, -5.20627061e-03, 1.07969390e-02, 2.28156503e-02,
       1.46273207e-02, 8.21894407e-03, -1.54561293e-03, -3.35410540e-03,
       5.57184266e-03, -1.19467732e-02, -5.83055546e-04, 1.62634987e-03,
       1.01896795e-03, 5.48789138e-03, 7.86697865e-03, 1.03847450e-02,
       1.83711026e-03, -7.57953059e-03, -6.85536349e-03, 5.14810998e-03,
       1.44284144e-02, 2.57182587e-03, 4.97793127e-03, -1.66919129e-03,
       7.00915139e-03, 5.07208798e-03, -1.28487439e-03, -5.06733963e-03,
       -1.75333081e-03, 1.00404480e-02, 2.16057114e-02, 9.81533434e-03,
       1.41525287e-02, 2.25542951e-03, -1.41847320e-03, -2.35768408e-03,
       -6.96488144e-03, 8.51611514e-03, -1.03021255e-02, 8.26636422e-03,
       2.92548840e-03, 6.04468817e-03, -8.56082886e-03, 6.36445405e-03,
       -1.69433828e-03, 6.41693547e-03, 2.75136717e-03, 1.26347630e-04,
       -6.68469770e-03, -1.13864092e-03, -9.67273489e-03, 8.65515787e-03,
       -2.11475402e-04, -8.00453301e-04, -1.91506732e-03, 6.13139058e-03,
       1.28834741e-02, 1.72823237e-03, 8.22581630e-03, 6.49418496e-03,
       4.75341920e-03, -3.05379322e-03, -1.21114273e-02, -2.69689690e-03,
       1.09969042e-02, -6.93501020e-03, -4.51309467e-03, -2.02750508e-03,
       -6.79759774e-03, -3.87048232e-03, 8.27373285e-03, -3.93849768e-04,
       8.62314831e-03, 6.31398754e-03, 1.38015347e-02, 7.44642224e-03,
       2.09487788e-02, 8.88566859e-03, 4.16435394e-03, -5.27310371e-03,
       -1.45690348e-02, -2.12492165e-03, 1.64536443e-02, 1.54327322e-02,
       2.67274003e-03, 1.88321248e-02, 7.01335212e-03, 1.21964468e-02,
       -5.72397723e-04, -9.46898852e-03, 8.35976913e-04, 8.78351741e-03,
       7.49676256e-03, -4.23427997e-03, 3.59917455e-03, -4.50858846e-04,
       -6.00087224e-03, 5.89365978e-03, 1.06556610e-04, 3.55454045e-03,
       6.20680209e-03, 1.47097092e-02, -1.00497302e-04, 2.36862767e-02,
       -9.40915570e-03, 2.13139388e-03, -4.39649308e-03, -1.26681980e-02,
       -4.32058470e-03, 4.76220204e-03, -9.57652461e-03, -7.37316813e-03,
       -1.98794832e-03, -1.04872473e-02, -2.05487255e-02, 2.54133251e-03,
       -3.21070873e-03, -2.60420470e-03, -1.06848159e-03,
       -7.31862150e-03, -1.38294222e-02, -6.37954613e-03,
       -5.97990397e-03, 8.61267839e-03, 9.40211862e-03, 8.62819050e-03,
       1.14702201e-03, -1.00738797e-02, -1.02974577e-02, -8.03420041e-03,
       -2.33358727e-03, 3.41070327e-03, 2.79010385e-02, 5.34871034e-03,
       1.42322946e-02, 1.37447065e-03, 3.51661257e-03, -1.47889405e-02,
       -1.55187938e-02, -4.67840862e-03, -1.13141648e-02,
       -6.73318375e-03, 3.22374282e-03, -1.40824972e-03, 8.01182725e-03,
       -4.94131539e-03, -5.87734673e-03, -6.30758004e-03,
       -3.13256052e-03, 7.48471171e-03, 8.90201796e-03, 3.39098251e-03,
       1.33337099e-02, 1.83467027e-02, 6.22400222e-03, -3.88829992e-03,
       -4.19952441e-03, 3.37545830e-03, -1.21444035e-02, 1.24303307e-02,
       -1.12919910e-02, 3.65514471e-03, 1.58861384e-03, 1.37968948e-02,
       -3.51912901e-03, -8.80443025e-03, -5.02871722e-03,
       -1.65785588e-02, -7.73958303e-03, 4.43918072e-03, 3.87935597e-03,
       1.03594526e-03, 3.31782014e-03, -9.05941182e-04, -2.48963293e-03,
       -2.00135823e-04, -1.25718880e-02, 8.81545246e-03, 2.04848312e-03,
       1.25248693e-02, 1.62474997e-02, -4.70870826e-03, -1.22187426e-02,
       -1.55990245e-02, -1.04550496e-02, -2.54587941e-02,
       -6.04149606e-03, 7.56112207e-03, 9.53579042e-03, 7.70133547e-03,
       1.54934246e-02, -1.75222303e-04, 1.70707365e-03, -1.00224884e-02,
       -5.62520605e-03, 3.48377903e-03, 1.56764165e-02, -1.18509755e-02,
       1.88640296e-03, 2.01087706e-02, 4.39840415e-03, -5.45996334e-03,
       -7.40384450e-03, -3.00095547e-02, 1.21444883e-03, 2.36414978e-03,
       -1.70315951e-02, 5.02280938e-03, 5.98863186e-03, -6.68701110e-03,
       -5.97624248e-03, -6.18722849e-03, 3.85432533e-04, 6.52382709e-03,
       8.32005031e-03, -3.58496024e-03, 5.48696844e-03, 3.95876076e-03,
       -5.95586328e-03, -4.84166760e-03, 4.44127107e-03, -1.43956691e-02,
       1.43744266e-02, 6.68984978e-03, -1.39630921e-02, 4.07279935e-03,
       1.94777064e-02, 1.00470055e-02, 8.30505043e-03, -3.36344913e-03,
       -1.54685453e-02, -5.52725932e-03, 1.09319249e-03, -1.85706783e-02,
       5.98246511e-03, 9.55532119e-03, -3.15738888e-03, 4.49938327e-03,
       -2.61278823e-03, -2.87667662e-03, -1.48937909e-03,
       -3.36078927e-03, -1.26884412e-02, -5.02608437e-03, 4.80966922e-03,
       -1.12474733e-03, 3.66625353e-03, 5.90979960e-03, -1.03574072e-03,
       3.38742416e-03, 8.85204878e-03, -2.25076396e-02, -3.57598416e-04,
       6.09799987e-03, -1.33029399e-02, 2.97000096e-03, -1.50513230e-02,
       7.16419332e-03, -2.44344422e-03, 7.32218660e-03, -2.61288532e-03,
       2.49005505e-03, 5.01250208e-04, -6.90648798e-03, -7.84114096e-03,
       -6.60225423e-03, -7.76548125e-03, 6.58541918e-03, -1.04462476e-02,
       -8.11734423e-03, -1.12239495e-02, 8.36914591e-03, -7.73355225e-03,
       -8.04138277e-03, 1.73203200e-02, 9.94552951e-03, 2.90616206e-03,
       1.07124262e-03, -1.66033930e-03, 4.67774039e-03, 4.45917109e-03,
       -9.63875093e-03, -6.65632961e-03, -1.09492671e-02,
       -9.11898259e-03, 2.98981857e-03, 5.63865942e-05, -1.01772575e-02,
       -1.57151720e-03, 1.07015772e-02, 9.35205165e-03, 1.57903798e-03,
       -2.64296134e-04, 1.09179635e-02, 3.83646437e-03, -6.76898099e-03,
       -1.21604269e-02, -2.09741178e-04, 5.87385567e-03, 8.41404777e-03,
       -5.55445533e-03, 1.49395801e-02, -6.88375300e-03, 2.96414248e-03,
       1.46624970e-03, -4.07099538e-03, -8.12547747e-03, 9.54943802e-03,
       -2.18304014e-03, -9.52214748e-03, 7.06473226e-03, 5.82083873e-03,
       1.17222602e-02, 1.66743807e-02, 6.71593379e-03, -7.75445299e-03,
       4.68632160e-03, 1.12708425e-02, -5.33679407e-03, -5.07199299e-03,
       -1.65247470e-02, 9.45524778e-04, 4.44422942e-03, -1.14097921e-02,
       -2.05010641e-02, 1.57698039e-02, 1.68436002e-02, -9.25760809e-03,
       2.19523977e-03, -6.84719952e-03, 2.41099391e-03, 2.72682775e-02,
       -4.96674736e-04, -1.50068998e-02, -2.49730702e-03,
       -8.66474677e-03, -1.91114135e-02, -4.54861159e-03,
       -9.36595461e-05, 4.33068629e-03, 5.52603416e-03, 3.76220746e-03,
       -5.72147546e-03, -8.76046158e-03, 3.01873777e-03, 3.88014334e-04,
       4.76581138e-03, -3.28518613e-03, -1.23947775e-02, 2.98647908e-03,
       2.98804883e-03, 4.06753551e-03, 3.83466540e-04, 6.77674264e-03,
       -1.74057893e-02, -2.66102748e-03, 2.58530630e-03, 8.83970701e-04,
       6.25227718e-03, -3.25054134e-04, -1.80995762e-02, -1.03621231e-02,
       -4.68431925e-03, -5.92137128e-03, 1.11348899e-02, 8.38082470e-03,
       -1.23288040e-03, -5.32724941e-03, 4.89426358e-03, -1.08211813e-02,
       2.96527229e-04, 1.32681178e-02, 9.64300614e-03, -6.73120655e-03,
       9.68334917e-03, -2.90104165e-03, -3.01994290e-03, -3.75125557e-03,
       -2.27917408e-04, 8.22705869e-03, 5.63846249e-03, -6.11030322e-04,
       -2.15737661e-03, -1.91870593e-02, -1.18039548e-02,
       -8.28883238e-03, -3.46525409e-03, 7.79133290e-03, 4.26013907e-03,
       3.26793198e-03, -5.96524100e-04, 4.79159970e-03, 7.74250180e-03,
       -1.23810174e-03, -1.02167130e-02, -1.11495238e-02,
       -2.02668412e-03, 8.00135080e-03, -3.44650680e-03, -7.84898456e-03,
       3.43074393e-03, -7.23494310e-03, 1.99796795e-03, -2.14116415e-03,
       5.39130345e-03, 1.31759569e-02, 7.41623854e-03, 7.86303822e-03,
       -4.56658611e-03, 4.41928720e-03, -1.14842309e-02, -1.40103893e-02,
       3.59574566e-04, -4.35860548e-03, 6.11692667e-03, 1.64009389e-02,
       5.34279458e-03, -7.98578560e-03, 6.32968312e-03, -6.87360705e-04,
       9.77587537e-04, -4.99694841e-03, -9.43144318e-03, -1.05193176e-03,
       4.69034771e-03, -1.48509219e-02, -2.26050336e-02, 1.11021418e-02,
       -9.33150109e-03, 7.14402320e-03, 1.73037653e-04, 1.36931781e-02,
       8.66307411e-03, 8.87166522e-03, -1.88181996e-02, -2.26456877e-02,
       -1.59360468e-03, 9.55014199e-04, 5.83152007e-03, 8.79116450e-03,
       9.05766990e-03, 1.06506478e-02, 7.20737316e-03, -3.78172641e-04,
       -8.48596171e-03, 7.52946828e-04, 1.28560383e-02, 3.22788255e-03,
       4.74063354e-03, -4.49525286e-03, -4.21875715e-03, -3.82866384e-03,
       6.52191229e-03, -3.11517389e-03, 3.12315533e-03, 1.42377615e-02,
       1.49350439e-03, 7.05571473e-03, 4.70601441e-03, -1.21486839e-02,
       4.50988859e-03, -9.23837069e-03, -8.58448073e-03, -4.77694068e-03,
       6.39679888e-03, 2.76609557e-03, 1.20034460e-02, 3.82583053e-03,
       4.60831355e-03, -9.68461577e-03, -7.60417338e-03, -1.53812459e-02,
       4.36983118e-03, 3.24131950e-04, 6.72990363e-03, 1.22312605e-02,
       -5.11945970e-03, -2.11543292e-02, 7.05050584e-03, 1.34250447e-02,
       1.10215731e-02, 1.63276419e-02, 9.62847751e-03, -3.88287543e-03,
       1.91102235e-03, 2.90151872e-03, 2.71993782e-03, 9.15021822e-03,
       6.25340967e-03, 1.60489064e-02, 1.90529432e-02, 1.17305880e-02,
       -5.08587016e-03, 4.40318929e-03, -2.46662903e-03, 1.24387341e-02,
       1.81585806e-03, -4.25667921e-03, 2.84977397e-03, 9.82046407e-03,
       -5.12563484e-03, 3.52405943e-04, -7.15503050e-03, -1.19651845e-02,
       -4.95510455e-03, -1.02393259e-03, -2.55653635e-02,
       -1.35171479e-02, -7.15204328e-03, 7.75333401e-03, -4.98558686e-04,
       6.47968671e-04, -3.36998864e-03, 1.70940626e-02, 1.56843290e-02,
       6.30129222e-03, 1.63028594e-02, 2.11644396e-02, 8.56596883e-03,
       -4.50452510e-03, 4.08011721e-03, 4.00074897e-03, 1.68332737e-02,
       1.89536475e-02, 1.83398428e-03, 1.64070707e-02, 1.27150612e-02,
       -4.21072450e-03, 5.98218699e-04, 2.09480000e-04, 6.96094427e-03,
       1.21068666e-02, 1.09416130e-03, -2.49372292e-02, -5.46123320e-03,
       3.27519723e-03, 3.38884583e-03, -5.51537378e-03, 8.86252616e-03,
       1.39843242e-03, 9.42574721e-03, 2.53406506e-05, -1.40196234e-02,
       4.46914928e-03, 1.05183898e-02, 1.12804091e-02, -9.45043750e-03,
       3.84693244e-03, -1.76667478e-02, 2.78471925e-05, 1.16392830e-02,
       8.84975120e-03, 1.37412210e-03, 1.03266742e-02, 8.55458929e-05,
       4.74406144e-04, -9.78394318e-03, -9.84113850e-03, 2.08059349e-03,
       1.72811542e-02, 1.56168779e-02, 4.84337844e-03, 5.00151934e-03,
       1.57141145e-02, 1.03808416e-03, -5.36225457e-03, -1.44601138e-02,
       -1.91986398e-03, 2.70304107e-03, -3.69223324e-03, -8.76843091e-03,
       4.24927613e-03, -2.79272604e-03, 1.95529917e-03, -6.37727976e-03,
       -1.48901194e-02, -4.22680285e-04, 6.65510027e-03, 1.87139977e-02,
       2.64637894e-03, -4.61437041e-03, -2.53548054e-03, 1.16521597e-03,
       -1.29181147e-02, -1.48471072e-02, -2.20339280e-03,
       -1.94880075e-03, 1.18937651e-02, 4.65825852e-03, -7.48758158e-03,
       6.67572313e-04, -7.54296489e-05, -7.20724976e-03, -3.10756802e-03,
       -8.96213856e-03, -4.32805507e-04, 1.06895864e-02, -1.22408499e-03,
       1.20842771e-03, -3.78916389e-03, 9.70943179e-03, 6.01372169e-03,
       1.22029260e-02, -3.83777125e-03, 1.03103332e-02, 1.23467520e-02,
       -3.49527923e-03, -8.37318040e-03, 3.61204264e-03, -1.85264479e-02,
       -1.64603312e-02, -6.22934243e-03, -1.06033601e-03, 1.02968868e-02,
       4.48145857e-03, -9.98387951e-03, 8.75159074e-03, 1.02302916e-02,
       4.36327094e-03, -9.55691375e-03, -2.90923123e-03, -5.67775872e-03,
       -1.14173512e-03, 3.03857145e-03, -9.35815927e-03, -8.15896597e-03,
       -8.25182814e-03, -2.37183552e-03, -5.53157972e-03, 1.36589375e-03,
       -8.67896061e-03, -2.01234384e-03, 1.36109684e-02, -6.79930067e-03,
       -3.05747613e-03, -4.69567580e-03, -3.56843811e-03,
       -5.76683693e-03, 1.68726977e-03, -7.45968195e-04, 6.85112830e-03,
       5.04011149e-03, -6.63241558e-03, -4.37953928e-03, 5.15283830e-03,
       -3.90901836e-03, -5.43018896e-03, -6.73225801e-03,
       -1.16964588e-02, -3.41005012e-04, 8.76097754e-03, 6.07031956e-03,
       2.32951040e-03, -1.50074605e-02, -7.16517586e-03, 1.31780002e-03,
       -1.15476381e-02, -9.01932921e-03, -5.56282932e-03, 9.71658062e-03,
       -1.01207271e-02, -7.12698326e-03, -3.85740050e-03,
       -1.19932625e-03, -3.77052720e-03, 2.19054567e-03, -1.39446568e-03,
       -9.28531168e-04, 1.00544607e-02, -5.83847519e-03, -1.61737390e-02,
       -1.14561683e-02, -1.23775089e-02, 5.71321510e-03, 2.92079430e-03,
       -3.82935954e-03, 3.33356508e-03, 1.07538691e-02, 7.98919518e-03,
       -9.46246926e-03, -5.22460730e-04, -5.61345462e-03,
       -9.51637235e-03, -9.58043523e-03, -4.38478682e-03, 1.27552412e-02,
       2.22228281e-02, 2.39568595e-02, -5.57739334e-03, 6.20473875e-03,
       -1.04130860e-02, -4.35085082e-03, 2.89278431e-03, 3.60628660e-03,
       1.52288405e-02, 1.23864505e-02, 1.08086439e-02, 6.60701375e-03,
       1.77595131e-02, 4.31977183e-04, 2.03413726e-03, 5.77933062e-03,
       5.83975948e-03, 2.40339525e-03, -6.17045863e-03, -2.32170059e-04,
       -6.30165159e-04, 1.37837725e-02, 4.07399284e-03, 4.91275871e-03,
       -2.69880285e-03, -2.78033200e-03, -8.41495860e-03,
       -1.04076357e-03, 4.62051574e-03, 8.16314598e-04, 7.35989725e-03,
       3.85362771e-03, -2.41993621e-04, -6.87110005e-03, -2.13166233e-03,
       -8.28221964e-04, 4.72808862e-03, 1.26643125e-02, 6.81916764e-03,
       4.27970954e-04, 3.32409618e-05, 4.37043980e-03, -9.33994260e-03,
       -8.92609358e-03, -2.32306519e-03, -7.78322807e-03, 5.99860679e-03,
       1.63713659e-04, 1.94208249e-02, 6.45089429e-03, 9.15544666e-03,
       -3.72985168e-03, -6.84295455e-03, -7.73104723e-04, 3.94186820e-04,
       8.28693341e-03, -6.42890856e-03, -5.88561455e-03, 4.59594978e-03,
       7.45767960e-03, -7.78339012e-03, -5.57086722e-04, 9.67281312e-03,
       1.40156597e-02, 1.27076562e-02, 1.21893603e-02, 1.84437335e-02,
       4.50685294e-03, 8.68362654e-03, 1.08182896e-03, 5.23066102e-03,
       5.86520787e-03, 1.90841090e-02, -2.35208194e-03, -1.18057169e-02,
       -6.35854667e-03, 6.59195846e-03, 5.63607784e-04, -9.19506419e-03,
       1.02378717e-02, 2.87115388e-03, -1.34859225e-02, -3.71179613e-03,
       -9.02973488e-03, 8.45923368e-03, 2.10483819e-02, 3.33777349e-03,
       -5.88971237e-03, 1.46195265e-02, 8.10256228e-03, -8.42020381e-03,
       1.86282210e-03, -2.68927915e-03, 1.13060838e-02, 1.44234663e-02,
       -5.98948821e-03, -9.37003549e-03, 9.54070780e-03, -6.57887338e-03,
       -1.23164337e-03, -6.93022693e-03, -1.06595317e-02, 1.03472907e-03,
       1.54858241e-02, -4.89357626e-04, -6.52244408e-03, -1.92722096e-03,
       -3.46974772e-03, -5.38993953e-03, 4.22769506e-03, 1.93920010e-03,
       -6.32745354e-03, 1.18722264e-02, -1.56851998e-03, -6.81157084e-03,
       -1.51267683e-03, 1.25351204e-02, -1.80922518e-03, 2.36901734e-03,
       -6.92003546e-03, 8.71153921e-03, 1.16055962e-02, -1.82903619e-04,
       -5.03276335e-03, 2.53863283e-03, 4.34349850e-03, -9.51663125e-03,
       6.57908013e-03, 2.87426100e-03, 1.54802960e-03, 1.42895365e-02,
       1.72479805e-02, 2.53291265e-03, 8.21692124e-03, 1.59324668e-02,
       6.59831753e-03, 6.31674659e-03, -1.42602874e-02, -7.34233577e-03,
       1.01440120e-03, 8.03997274e-03, -9.28811543e-03, 4.44168970e-03,
       1.60631817e-02, 1.39887119e-02, 1.66989770e-02, -1.95461744e-03,
       8.60944914e-04, 8.84167943e-03, 9.05493740e-03, -1.42411713e-03,
       -7.81556300e-04, 1.03217186e-02, -1.64970872e-04, 1.36138033e-03,
       3.62901203e-03, 1.37479557e-02, 6.46540197e-03, 2.64701457e-03,
       1.03515303e-02, 5.33442618e-03, -7.84517266e-03, 1.30962664e-02,
       2.87450403e-02, 2.80576497e-02, 1.51603883e-02, 6.26948290e-03,
       4.07522731e-03, 7.65934354e-03, -1.38971647e-02, -3.63911589e-04,
       -2.67308834e-03, -7.00533018e-03, 5.13522606e-03, 2.80148722e-02,
       8.00405815e-03, 4.94140200e-03, -5.13630267e-03, -1.68110628e-03,
       9.48838051e-03, -6.59994222e-03, 1.83963943e-02, 8.54940992e-03,
       2.09364220e-02, -8.58906365e-04, 1.43317524e-02, 4.95614903e-03,
       1.05159925e-02, 1.94554660e-03, 5.65598998e-03, 2.65921541e-02,
       2.18825359e-02, 3.80382035e-03, 9.21761524e-03, 4.95681074e-03,
       6.30252948e-03, 7.14050326e-03, 3.92844062e-03, -1.20775783e-02,
       5.42320451e-03, 6.33166032e-03, -2.51270761e-03, 1.39412959e-03,
       1.65381469e-02, 3.60367051e-03, 1.28137395e-02, 5.68050891e-03,
       -1.16519574e-02, 2.97627393e-02, 6.62943395e-03, -1.14157423e-03,
       -8.70018918e-03, 7.43896142e-03, 9.17864498e-03, 2.03833133e-02,
       9.77266021e-03, -7.06218183e-03, 1.92940515e-02, 6.16092514e-03,
       9.50274430e-03, -5.64605370e-03, 1.03511410e-02, 3.78142158e-03,
       1.31726479e-02, -1.44262472e-03, -1.35997199e-02, 1.56807865e-03,
       5.53697906e-03, -3.87469260e-03, 7.68284139e-04, 7.87966326e-03,
       -4.87901131e-03, 4.15439531e-03, 3.08941281e-03, 2.59706256e-04,
       2.25933897e-03, 1.95951015e-02, 1.93972979e-02, 5.60467318e-03,
       -1.42029428e-03, -1.16839567e-02, 4.13836213e-03, 5.70830936e-03,
       -4.96985810e-03, 1.59833825e-03, 6.54458441e-03, 5.73178811e-04,
       3.84758809e-04, -1.29303872e-03, -7.32170744e-03, 4.97750891e-03,
       1.52641246e-02, 1.15372229e-03, 1.52192796e-02, 1.27177667e-02,
       1.55011164e-02, -3.80305434e-03, -1.27223954e-02, -1.89305618e-02,
       1.22822160e-02, -3.95667087e-03, -6.22876105e-04, -5.27237263e-03,
       1.56397354e-02, 1.23829767e-02, 3.78555129e-03, -4.43544518e-03,
       -8.54743831e-03, -2.93033640e-03, -1.12807015e-02,
       -9.96089540e-04, 4.04504361e-03, 4.02815081e-03, 2.99002277e-03,
       -8.82199872e-03, -3.44763044e-03, -1.49800787e-02,
       -1.43230930e-02, 5.58473310e-03, 4.00550570e-03, -2.31884723e-03,
       6.05475204e-03, -1.02394132e-03, -1.29207605e-02, -1.86181907e-02,
       -1.28743323e-02, -4.82481997e-03, -2.98350537e-03, 6.35415222e-03,
       7.31910951e-03, 1.09200394e-02, 1.28543368e-02, -1.64112318e-02,
       -3.89390346e-03, -2.91477703e-03, -1.16218980e-02,
       -1.01926774e-02, 3.34681198e-03, 6.23599859e-03, 5.18005155e-03,
       6.41077803e-03, -5.46690868e-03, 3.45205818e-03, -6.82279002e-03,
       -3.94426845e-03, -9.66059137e-03, 5.45874424e-03, 4.41787252e-03,
       8.27766489e-03, 1.14268549e-02, 9.18912236e-03, 1.88802544e-03,
       1.15486952e-02, 3.89820919e-03, -7.25823594e-03, -2.16356758e-03,
       1.05153071e-02, 1.24352351e-02, 1.34717347e-02, -2.03792881e-02,
       -9.26360022e-03, 8.24723393e-03, 1.66057888e-03, -3.43976449e-03,
       -7.33058201e-03, -8.08345154e-04, 7.18672434e-03, 1.48811378e-04,
       -1.55286258e-03, 8.32037069e-03, 1.24585228e-02, 2.01968420e-02,
       -1.28492517e-02, -1.27934618e-03, 2.30063987e-03, 2.72597303e-03,
       9.89058288e-04, 2.40975618e-02, 8.78160354e-03, 1.89146830e-03,
       2.76515679e-03, -1.77395176e-02, -6.77845348e-03, -9.45307035e-03,
       -7.36404257e-03, -6.44466374e-03, 9.96444188e-03, 1.45216985e-02,
       1.33858602e-02, -5.42545551e-03, -2.66539194e-02, -1.87470093e-02,
       2.94878567e-03, 7.08926283e-03, -4.20541083e-03, 3.79116391e-03,
       4.85718343e-03, -5.24040312e-03, -1.11680180e-02, -1.68623067e-02,
       -3.69460857e-03, 3.58511135e-03, 2.06005313e-02, 1.15814591e-02,
       -1.12189760e-03, 1.64699946e-02, 8.47646873e-03, -7.60185160e-03,
       -1.59320924e-02, -1.21545028e-02, -8.15066881e-03, 9.39950580e-04,
       5.66522963e-03, 4.57011582e-03, 2.00408930e-03, 3.72385420e-03,
       -1.83706568e-03, -2.04971340e-02, -1.34773189e-02,
       -7.59763038e-03, 2.01350194e-03, -1.84474839e-03, 2.24727904e-03,
       -3.66433058e-03, -1.60246482e-03, -1.04307551e-02,
       -1.27724065e-02, -3.76334821e-04, 5.28939115e-03, 1.86950453e-02,
       1.90744512e-02, -6.86652400e-03, -3.56371980e-03, 9.15494747e-03,
       8.12349934e-03, -9.16692952e-04, 9.90828499e-03, 1.52240377e-02,
       8.86442885e-03, 2.89932330e-04, -1.55874221e-02, -2.81202083e-04,
       1.59399547e-02, 1.35727124e-02, -1.16211111e-02, -9.13649425e-03,
       1.79395720e-03, 1.25015425e-02, 9.23842471e-03, 1.50489481e-03,
       4.44456004e-03, -1.23772956e-02, -3.26677528e-03, 1.03174374e-02,
       -2.57632672e-03, -7.44001474e-03, -1.34879565e-02, 4.32610791e-03,
       -5.32937422e-03, 6.89801620e-03, -1.00747542e-02, 2.17985851e-03,
       1.17943883e-02, 5.15724905e-03, 1.11767594e-02, 3.81768536e-04,
       -1.95926102e-03, -1.59864873e-02, 6.58518588e-03, 1.27111934e-02,
       1.36890803e-02, 1.35406377e-02, 2.55688350e-03, -8.61348957e-03,
       3.37980199e-03, -5.48497122e-03, -9.66846477e-03, 3.26142879e-03,
       7.16122612e-03, 7.46388407e-03, 9.28224108e-05, 2.00831506e-04,
       -1.19386781e-02, -8.68740398e-03, -7.10891141e-03, 4.85829485e-04,
       9.61859711e-03, -8.01001489e-03, -4.61560005e-04, 1.30060746e-03,
       3.33820027e-03, 4.65561729e-03, -1.35630160e-03, 7.05494592e-03,
       -1.45586045e-03, 5.50033571e-03, -1.01412125e-02, -2.32712759e-04,
       6.53630123e-03, 6.76198211e-03, -1.08080693e-02, 9.16267454e-04,
       1.58349343e-03, 6.79567736e-03, 1.11697614e-02, 5.34621300e-03,
       7.17245333e-04, 4.07175254e-03, 1.39157167e-02, -3.66142741e-03,
       1.05049985e-05, 6.99819205e-03, 1.05785644e-02, 4.34151385e-03,
       -8.69468506e-03, -8.47146753e-03, 1.29839336e-03, 9.61918104e-03,
       -6.24066778e-03, -1.21790906e-02, -1.10400813e-02,
       -2.54226802e-03, 6.32146932e-03, -9.63106286e-03, -2.06116233e-02,
       1.90998893e-02, 2.88350433e-02, -6.72034826e-03, -5.52220130e-03,
       -6.83610840e-03, 1.91711320e-03, 1.39297834e-02, -1.31817942e-03,
       -1.53776444e-02, 1.54631557e-02, 6.61769882e-03, -1.38590829e-02,
       -1.39680803e-02, -9.90750268e-03, 4.45025088e-03, -1.40954345e-03,
       -9.30609182e-03, -1.10091930e-02, 1.70046389e-02, 1.84853021e-02,
       -7.86251295e-03, -1.97865833e-02, -4.28524986e-03, 1.35781057e-03,
       -8.18262168e-04, 4.73972969e-03, -4.56741545e-03, 9.56260879e-03,
       1.33906063e-02, -7.91106466e-03, -8.04295577e-03, 4.70973505e-03,
       5.60056325e-03, 8.52959882e-03, 1.83897093e-03, -9.36644245e-03,
       4.35175607e-03, 6.81416597e-04, -1.06465770e-02, -2.63478118e-03,
       7.77092157e-03, 5.31869382e-03, 9.13569424e-03, 9.32531245e-03,
       -7.52971089e-03, 3.74577683e-03, 8.59657209e-03, -1.17120156e-02,
       -2.44456232e-02, 3.27672623e-03, 9.71939880e-03, 1.65138859e-02,
       1.52544715e-02, -1.75066153e-03, -1.42303295e-02, 2.50731773e-05,
       -4.77747340e-03, -1.92513000e-02, 4.23961924e-03, 2.83748435e-04,
       6.84948824e-03, 6.49002241e-03, -1.72885433e-02, 8.66676215e-03,
       1.42789304e-07, -4.35421010e-03, -4.02310194e-04, 1.17447050e-02,
       1.91635743e-03, 3.14886612e-03, 5.74536761e-03, -5.12872823e-03,
       8.46514758e-03, -2.37756572e-03, -1.52155917e-05, 3.52237350e-03,
       9.46546160e-03, 8.50315765e-03, -7.94946027e-05, 4.50951513e-03,
       6.17309846e-03, 4.86022513e-03, 1.09623875e-02, -4.85670520e-03,
       -6.50232984e-03, 9.69534274e-03, 2.84664636e-03, 5.90785546e-03,
       2.84376857e-03, -8.79970193e-03, 5.17888041e-03, 2.14420119e-03,
       -3.50700854e-03, 1.36366091e-03, 3.48706055e-03, -5.11918869e-03,
       3.64233460e-03, 1.55103649e-03, -1.99537980e-03, -7.17201037e-03,
       -9.09515936e-03, -1.28014712e-02, 1.25422711e-02, 1.77167269e-04,
       1.09808370e-02, -9.00604948e-03, 1.00536039e-02, -1.30337838e-04,
       -2.04512523e-03, -9.04912595e-03, -1.52485501e-02, 4.55633271e-03,
       -5.03486861e-03, 8.50580912e-03, -1.06724538e-02, 9.93562210e-03,
       -1.69448802e-04, -6.18375791e-03, -7.27373688e-03,
       -8.95548519e-03, -3.80791316e-04, 1.35196345e-02, -3.56504926e-03,
       -1.98371019e-02, -1.73539761e-02, -1.08424481e-02,
       -3.10600008e-04, -1.71616033e-03, -1.40995318e-02,
       -3.50119732e-03, 3.35545698e-03, 5.53322816e-03, -2.08959226e-02,
       -2.38464288e-02, -5.86310402e-03, 8.31643003e-04, -8.72386619e-03,
       -9.86177474e-03, -2.05913023e-03, 2.85277888e-03, 1.79003295e-03,
       -2.50592362e-03, 9.78869107e-03, 1.04950797e-02, -1.16174705e-02,
       -1.79953165e-02, -1.86848026e-02, 8.09561810e-04, -7.69199105e-03,
       1.21885976e-02, 1.47534290e-03, 1.09511586e-02, -6.82094647e-03,
       5.84253855e-03, -1.58456108e-03, -2.29897443e-02, -6.10798225e-03,
       1.27509097e-02, 6.91663148e-03, -8.39676894e-03, -1.03201745e-02,
       -8.04337149e-04, -4.12594760e-03, -1.79069471e-02,
       -2.72362772e-02, -1.42653601e-03, 2.05805013e-03, 7.84920901e-03,
       -3.02861957e-03, 8.24468397e-03, 5.88498136e-04, -8.89241323e-03,
       -1.69036780e-02, -2.00176029e-03, 8.17161705e-03, -5.67937410e-03,
       7.44516030e-03, 1.40237052e-03, -2.40622298e-03, -7.41227297e-03,
       -3.00678401e-03, -2.15765238e-02, -1.77208073e-02,
       -4.01736191e-03, -1.18244835e-03, -3.56269046e-03,
       -1.06026407e-03, -4.78303526e-03, 5.11736982e-03, 6.60189718e-04,
       -1.10329194e-02, -1.06322467e-02, 5.30565670e-03, 6.58492744e-03,
       -3.25386948e-03, -6.26538042e-03, 1.09776470e-03, 8.30483681e-04,
       1.36281233e-05, 8.71737581e-03, 6.27869274e-03, 4.64407075e-03,
       8.61643255e-03, -5.20466082e-03, -4.60536359e-03, -2.99090613e-03,
       -4.31551319e-03, 7.92160910e-03, -1.19829848e-02, -8.60688835e-03,
       1.03866318e-02, 6.81552850e-03, -1.13562038e-02, 6.13695942e-03,
       -2.81027914e-03, -1.51246786e-04, 3.63091100e-03, -4.63821972e-03,
       -6.46760501e-03, -1.81107107e-03, 5.48953004e-03, -5.49994875e-03,
       1.26392916e-02, 7.18711317e-03, -6.62378687e-03, 1.02066603e-02,
       1.93374641e-02, 1.25175118e-02, 2.99301161e-03, 3.80572886e-03,
       -2.34319479e-03, 4.56078630e-03, -7.03979691e-04, -5.01268031e-03,
       4.31915279e-03, 1.32152950e-02, -7.64541270e-04, -1.23200184e-02,
       -1.07124157e-03, -8.05177446e-03, 1.60440523e-02, 3.13637266e-03,
       -6.37977384e-03, 7.54264090e-03, -3.31882364e-03, -9.46140476e-03,
       -6.86169649e-03, -8.60195234e-03, 2.21189577e-03, -1.99909788e-03,
       1.37952634e-03, -3.81879625e-03, 1.25545822e-02, 6.42900309e-03,
       -3.90209979e-03, -8.48527905e-03, -6.73277245e-04, 9.41510964e-03,
       6.68481505e-03, 1.04741883e-02, 5.39467903e-04, 3.78941302e-03,
       3.97170149e-03, -6.00396330e-03, -1.22225471e-02, -1.30568231e-02,
       -5.49546722e-03, 9.39103309e-03, -4.67786938e-03, 4.08617407e-03,
       3.97588639e-03, 6.76791091e-03, -2.49469507e-04, 3.62566556e-04,
       5.79042127e-03, 9.73655656e-03, 1.13382004e-02, -1.82722812e-03,
       -1.47855608e-03, 6.24021841e-03, 6.24523731e-03, -3.75986262e-03,
       -1.15276733e-02, 1.81996648e-03, -6.05032314e-03, 3.36904055e-03,
       6.55678893e-03, 2.46608048e-03, 3.14332754e-03, 8.59097019e-03,
       -5.70472423e-03, -2.04528464e-04, 7.55128823e-03, 1.04657630e-03,
       7.67590536e-04, 8.21528770e-03, -7.53881456e-03, -4.06980375e-03,
       1.19893318e-02, 8.39648955e-03, 5.09587396e-03, 7.37094367e-03,
       7.80742662e-03, 5.05452882e-03, -3.84747167e-03, -7.91152474e-03,
       -5.41711925e-03, 1.94795635e-02, 6.87249005e-03, -4.94853035e-03,
       -1.87565368e-02, -6.81913085e-03, -1.61671510e-03, 3.18223261e-03,
       -7.74969580e-03, 2.27394467e-03, 7.43032666e-03, 2.64750328e-03,
       -5.22590522e-03, -4.52972949e-03, -4.25945502e-03, 4.07964035e-05,
       3.14488239e-03, -9.97286849e-03, -4.59417934e-03, -5.61175728e-03,
       1.39308290e-03, 8.52742791e-03, -8.15496221e-03, -1.98033871e-03,
       6.40793936e-03, -1.13394475e-02, -1.16962465e-02, -5.82793867e-03,
       1.67089328e-02, 1.09949289e-02, -8.27793404e-03, -1.71219017e-02,
       -1.04485499e-02, 4.34343517e-03, 3.20827868e-03, -9.75421071e-03,
       -4.21795109e-03, -2.98736244e-03, -4.00525657e-03,
       -5.57932071e-03, -6.17340580e-03, -8.21591879e-04, 1.72532108e-02,
       -3.51231359e-03, -1.16271311e-02, 4.42676386e-03, 9.88501473e-04,
       8.39388929e-03, 9.50307678e-03, 1.31951791e-04, -2.20092107e-03,
       -1.27201155e-02, -1.43182753e-02, -1.50027284e-02, 3.60700581e-03,
       1.40767023e-02, 1.46593144e-02, 3.69022251e-03, 1.35087566e-02,
       5.96932741e-03, -2.70306831e-03, 1.58352224e-04, -9.75993276e-03,
       7.88778346e-03, 4.83619049e-03, 1.68261142e-03, -6.10648375e-03,
       8.00298512e-05, 3.50773538e-04, 2.58066691e-03, -1.78814363e-02,
       -1.57765467e-02, 4.14397800e-03, 1.24599142e-02, 3.20515083e-03,
       -1.56514049e-02, 9.01010539e-03, 8.36683344e-03, 5.13783889e-03,
       -8.06900114e-03, -1.45497918e-02, -6.97138137e-04, 3.04203277e-04,
       7.89726339e-03, -2.82793446e-03, 1.94403436e-02, -6.96367770e-03,
       5.12715103e-03, -8.29749368e-03, 3.78218293e-03, 6.07582135e-03,
       9.63443052e-03, 1.39372852e-02, -4.27303184e-03, 4.65118606e-03,
       1.02716573e-02, 1.76703390e-02, -4.13328223e-03, 2.97289179e-03,
       -4.01802035e-03, -2.47946498e-03, 1.31103741e-02, -4.87272814e-03,
       -1.66627895e-02, -2.76426375e-02, -9.94468108e-03,
       -1.70803778e-02, -2.75384635e-03, 3.46801331e-04, -4.30839835e-03,
       2.61939205e-02, -2.81152711e-03, 2.01931293e-03, -7.69800367e-03,
       -4.34356462e-03, -2.51260074e-03, -5.91238961e-03, 5.69835724e-03,
       1.02763334e-02, 2.85901711e-03, -6.04892522e-03, -1.36938295e-03,
       1.10775372e-02, -1.00666378e-03, 2.83115124e-03, 7.15501187e-03,
       1.18146650e-03, 7.97225442e-03, -4.90905717e-03, -1.18143754e-02,
       -4.83448431e-03, 8.53626058e-03, -3.25054489e-03, -6.82045519e-03,
       4.81307134e-03, 6.95496611e-03, -2.17353273e-03, 7.32458616e-03,
       -6.58367155e-03, -7.20878039e-03, -1.43194161e-02,
       -1.03034517e-02, 7.09592318e-03, 4.62878169e-03, 3.49599170e-03,
       1.55518670e-03, -3.20036151e-03, -1.75533202e-02, -8.05448182e-03,
       -4.28566756e-03, 6.54232409e-03, 1.17125781e-02, 5.82014164e-03,
       1.03569599e-02, -3.43672698e-03, -7.21399905e-03, -4.20785043e-03,
       -2.29559126e-04, 2.65426654e-03, -5.24559105e-03, -1.45306613e-03,
       1.15524903e-02, -1.08583020e-02, -1.07111512e-02, -3.68147134e-03,
       4.90404491e-04, -2.64322967e-03, 6.10132702e-03, 4.70040599e-03,
       -3.01365019e-03, -3.41977575e-03, 6.15537167e-03, -1.44181727e-02,
       -2.54831351e-02, -1.11920349e-02, -7.50553142e-03,
       -8.35843105e-03, 4.74324776e-03, 1.02863247e-02, 4.87411162e-03,
       8.23330251e-04, -6.74514892e-03, 4.58449853e-04, 1.20570175e-02,
       7.65079446e-03, 1.01876734e-02, 8.77388380e-03, 8.55528750e-03,
       8.00784864e-03, 1.30331924e-03, 1.41559879e-03, 1.03815217e-02,
       -1.08665293e-02, -1.47722885e-02, 4.01911931e-03, 1.39374984e-02,
       4.69057402e-03, -7.32560293e-04, -1.00197340e-03, 7.24569755e-03,
       9.03619267e-03, -2.01289123e-03, -1.18326070e-02, 8.72598612e-04,
       -5.93880657e-03, 6.39266474e-03, -4.37452132e-03, -5.34075825e-03,
       3.02924984e-03, 2.07411386e-02, 1.40838381e-02, 1.00095980e-02,
       1.50769958e-02, -1.94685196e-03, -3.52182338e-04, -9.03653447e-03,
       -1.93760905e-04, 1.48349283e-02, 2.23209504e-02, 1.42089827e-02,
       -6.81559104e-05, 4.33542678e-04, -1.65092610e-02, -1.06076594e-03,
       9.10746712e-06, -5.76299243e-03, -3.65057145e-04, -8.21588002e-03,
       -1.29770453e-03, 8.29713512e-03, 5.22731431e-03, -1.80547114e-03,
       -1.73889240e-03, -4.11620550e-03, -3.29018501e-03,
       -1.07067404e-02, -5.27713588e-03, -7.61911552e-03, 5.90834580e-03,
       1.76784117e-02, 1.92779656e-02, 1.06230397e-02, 1.86261139e-03,
       1.05618844e-02, 7.03231758e-03, -2.61547905e-03, 5.39379427e-03,
       -2.17013308e-04, -1.16458535e-02, -7.26857316e-03, 3.57450824e-03,
       5.63317398e-03, 1.37575753e-02, -9.56317002e-04, -9.20952670e-03,
       -8.22562072e-03, 1.43824308e-03, 1.46962618e-02, 2.04390902e-02,
       7.69129442e-03, 1.23115936e-02, 3.48979142e-03, -1.28597831e-02,
       2.65183789e-03, -5.85437613e-03, -4.28908126e-04, -5.65288065e-04,
       -2.28045741e-03, 2.23062956e-03, 9.52831842e-03, -3.62097262e-03,
       -6.68682065e-03, 1.40973937e-03, 3.14326212e-03, 8.07020639e-04,
       -2.55235028e-03, -4.15678555e-03, 6.05134852e-03, -4.83019016e-04,
       2.76976905e-04, -6.05145935e-03, 3.98370251e-03, -4.46085911e-03,
       -9.34813754e-04, 3.29569099e-03, 5.29146811e-04, -1.41227420e-03,
       -1.99501077e-03, -3.17669677e-04, 7.32993055e-03, 3.79067636e-03,
       1.57794934e-02, 1.68978013e-02, -7.78703368e-04, -1.11897392e-02,
       -9.78727941e-04, -9.24181845e-03, 3.05270683e-03, -5.97044127e-03,
       -6.60554692e-03, 6.02885103e-03, -6.41458947e-03, 3.63777252e-03,
       -3.75443045e-03, 6.11918280e-04, 3.09588923e-03, 1.10875256e-02,
       4.31870390e-03, -2.43352400e-03, 5.19537413e-03, -7.76670966e-03,
       -5.57371508e-03, -1.12515446e-02, -1.09185651e-02, 9.99228656e-03,
       7.42709683e-03, 8.93106032e-03, -1.25810364e-02, 1.72284786e-02,
       7.56081101e-03, -1.21063902e-03, 3.87211354e-03, 5.85851585e-03,
       -5.86352032e-03, 2.32828632e-02, 1.52439270e-02, -1.62304379e-02,
       8.73626024e-03, 1.78100821e-02, 1.53927144e-03, -1.66573131e-03,
       -2.37859925e-03, 8.94107204e-03, -6.99353917e-03, -8.25107750e-03,
       -1.88835338e-02, -7.33534200e-03, -1.57835800e-02,
       -3.77467688e-04, -8.75978917e-03, -1.18951604e-04, 3.84354568e-03,
       -1.37569057e-02, -1.18530663e-02, -1.64657105e-02, 1.16688805e-03,
       -1.91262038e-03, 1.89973100e-03, -1.02002127e-02, -4.36385069e-03,
       -4.05991916e-03, 1.40144639e-02, 3.00270796e-04, -1.76702999e-02,
       3.80866136e-03, -1.31589370e-02, 8.77858978e-03, 5.93435159e-03,
       5.76319071e-05, 1.40284151e-02, 9.22755245e-03, -6.42625615e-03,
       -8.80604703e-03, 1.02734985e-02, -1.18096534e-03, 4.51481808e-03,
       -8.54050647e-03, -5.89314429e-03, 9.32137948e-03, -1.70426480e-02,
       -7.34926155e-03, -9.89186112e-03, 1.21212173e-02, 2.22176895e-03,
       7.36767892e-04, 5.88945253e-03, 9.58476029e-03, -2.18984392e-03,
       -1.93079375e-02, -2.32493021e-02, -2.11951230e-02, 4.69056213e-05,
       -3.71122570e-03, 7.36078713e-03, 4.87690838e-03, -1.24025038e-02,
       3.96538014e-03, -4.40255180e-03, -1.13057680e-02, -1.69446878e-02,
       6.77192002e-04, 1.37609988e-02, 3.12930951e-03, 4.02338104e-03,
       3.63614992e-03, 5.63977007e-03, -1.34068914e-02, -4.63797664e-03,
       1.28206599e-03, -8.40250868e-05, -1.02438673e-03, -4.10032284e-04,
       1.47182420e-02, 7.76239485e-03, -2.31115078e-03, -2.59340238e-02,
       -2.00610869e-02, -3.05735180e-03, 2.81286822e-03, -1.88897375e-03,
       -3.18810251e-03, -2.83334753e-03, -1.02681722e-02,
       -6.20492082e-03, -1.92374866e-02, -1.32006863e-02, 3.63526284e-03,
       9.82910953e-03, 1.31184919e-04, -3.94131150e-03, 1.29727731e-02,
       4.42821346e-03, -1.88146085e-02, -6.77650748e-03, -4.72165318e-03,
       2.80071818e-03, -8.42978712e-03, -4.86371387e-03, -1.15501210e-02,
       -1.79542182e-03, 1.75510999e-02, 6.58610224e-06, -5.27300499e-03,
       3.37169156e-03, 6.35272451e-03, 4.59532812e-03, 9.18685459e-03,
       -8.19576380e-04, 1.65218167e-04, 2.00726222e-02, 3.90486955e-03,
       -1.10751530e-02, -4.95117344e-03, 3.30440071e-03, 6.47141691e-03,
       -2.38877092e-03, -8.60159751e-03, -6.69170078e-03, 2.83427187e-03,
       -3.54366750e-03, -1.58187356e-02, -1.34499895e-03, 7.67538697e-03,
       -1.13509959e-02, -2.09746081e-02, -1.67480353e-02,
       -4.73544095e-03, 1.33316778e-03, -5.07576810e-03, -1.08098437e-03,
       -8.85669026e-04, -5.89741580e-03, 4.49384999e-04, -1.11401558e-03,
       -8.95838533e-03, -1.48525452e-02, 1.63910110e-02, 6.95921481e-03,
       1.51986699e-03, 2.68068491e-03, 1.41323556e-03, -9.67780873e-03,
       -1.82467643e-02, -7.83320423e-03, -5.03772544e-03, 1.48352971e-02,
       -1.64446991e-03, -4.94377827e-03, 1.01091778e-02, 1.03229508e-02,
       -3.09706200e-03, -1.32896788e-02, -9.41925589e-03,
       -5.01561037e-04, 6.90241810e-03, -4.36471542e-03, -1.73032656e-03,
       -2.19900813e-03, -8.85658152e-03, 1.07525112e-02, 4.13035648e-03,
       -4.72564343e-03, -1.47783768e-03, -5.03841729e-04,
       -1.08551455e-03, 9.87165049e-03, 1.55587718e-02, 1.18084783e-02,
       1.00681093e-03, -1.00200558e-02, -7.57325324e-04, -7.70792738e-03,
       2.96507892e-03, -4.78719943e-04, -5.52098174e-03, -8.27457232e-04,
       -1.75662688e-03, 3.01833218e-03, -1.26425549e-03, -2.85789301e-03,
       -1.09835388e-02, -6.79628551e-03, -2.38858070e-03, 5.90066519e-03,
       7.88354687e-03, -4.31554206e-03, 8.96476395e-03, 1.62499479e-03,
       2.28022691e-04, -1.61245093e-03, -2.33702012e-03, -4.55474388e-03,
       8.48367810e-03, 1.95883634e-03, -1.01374071e-02, 4.09644563e-03,
       3.47345573e-04, 3.32015473e-03, -2.12925617e-02, -1.89867821e-02,
       -1.77850090e-02, -5.80745703e-03, -2.36607692e-03,
       -6.07346557e-03, -2.05162470e-03, 5.41717978e-03, -5.75242622e-04,
       2.21425598e-03, 8.03982664e-04, -4.85156430e-03, -7.87955709e-03,
       1.44013931e-04, -1.13634150e-02, 1.46133744e-03, 3.89781804e-03,
       2.16255710e-02, 2.02727458e-03, -1.69827056e-03, -1.21371169e-02,
       1.30527010e-02, 2.87046190e-03, -4.28089127e-03, 3.19879106e-03,
       7.79785332e-04, -2.94263451e-03, -1.82369887e-03, -1.72829181e-02,
       4.72770102e-04, -3.66556318e-03, 9.86363459e-03, -3.16713029e-03,
       5.49730496e-04, -5.54240867e-03, 1.02715846e-03, 7.03065656e-03,
       2.54494697e-03, -1.30112758e-02, -2.93499371e-03, 1.40309660e-03,
       -9.54397582e-03, 2.75082001e-03, 4.30013333e-03, 1.73234865e-02,
       5.33224922e-03, 4.51966003e-03, -5.74602792e-03, -1.08006643e-02,
       3.62140988e-03, -1.91245857e-03, -1.14173873e-03, -5.29017951e-03,
       -1.04532680e-02, 6.62310142e-03, 9.27128177e-03, -8.28292873e-03,
       -3.02025350e-04, 1.24330390e-02, -3.58510809e-03, -1.75623465e-02,
       6.24949671e-03, 7.84879085e-03, 1.44964699e-02, 5.61744813e-03,
       -8.99291784e-03, -1.67611800e-02, -3.95249401e-04,
       -6.39406499e-03, -8.06328561e-03, 7.39630731e-03, 8.93011782e-03,
       6.73209876e-03, -4.54525976e-03, -1.83328763e-02, 8.88174865e-04,
       2.02765968e-03, -7.15814857e-03, -1.95984393e-02, -9.37128207e-04,
       -1.22569432e-03, 1.02190878e-02, 7.79497111e-03, -4.14308533e-03,
       -8.21593963e-03, -3.95853352e-03, -6.27518585e-03,
       -8.78447318e-04, 6.97627338e-03, -6.64894423e-03, 5.88571094e-03,
       -1.84217279e-05, -9.45886876e-03, -6.96526025e-04, 7.37819215e-03,
       -5.49040642e-03, -2.74612731e-03, 2.19899733e-02, 1.37226656e-02,
       6.71573542e-03, -2.43769772e-03, -1.23552252e-02, -6.21669227e-03,
       1.18890300e-03, -8.61879345e-03, -3.99511075e-03, 4.06863028e-03,
       7.22603919e-03, 1.05211670e-02, 1.81067828e-03, -9.00823902e-03,
       -1.21533731e-03, -4.58176853e-03, 6.61378028e-04, -7.78189395e-03,
       3.17961257e-03, 1.18113998e-02, 1.20626548e-02, 1.11065852e-02,
       1.02264246e-04, -6.88838423e-04, -7.60775851e-03, -1.44536169e-02,
       -2.22247299e-02, -1.65524278e-02, 1.23415291e-02, 8.40931293e-03,
       6.88840263e-03, 9.69102699e-03, -2.46750121e-03, 7.05927494e-04,
       -5.79456659e-03, 5.74690057e-03, 1.43682808e-02, 1.27189187e-02,
       -1.46532001e-03, -8.57395492e-03, -3.14654619e-03, 8.44314042e-03,
       3.89366760e-03, -8.48160684e-03, 1.30078746e-02, 1.11778025e-02,
       1.13657368e-02, -4.90865763e-03, -1.74800288e-02, 1.50296697e-03,
       -1.27404195e-03, -5.33241965e-03, -2.02067196e-02,
       -8.34650267e-03, -1.71175192e-03, 1.63623020e-02, 5.93120046e-03,
       -1.90043803e-02, 5.09414170e-03, 1.23323537e-02, -3.21559003e-03,
       -1.81953646e-02, 3.92430881e-03, 4.49461257e-03, 7.08203996e-03,
       -4.39978437e-03, -1.62325241e-02, -9.68476199e-03, 1.67240493e-03,
       -6.16268348e-03, -2.12876759e-02, -2.44067443e-04,
       -8.90196898e-05, 6.45591877e-03, -4.93140193e-03, -1.17228152e-02,
       -2.88864900e-03, 1.59702394e-02, -2.62029353e-03, -1.11395009e-02,
       1.44422462e-03, -8.56977142e-03, 1.38310092e-02, 5.15530631e-03,
       1.83835793e-02, 1.17628751e-02, 4.23769280e-03, -6.64894097e-03,
       -1.60612836e-02, -4.60324256e-04, -3.58466851e-03,
       -1.53719028e-03, -9.02897865e-03, 1.11907204e-04, -9.77888145e-03,
       3.98902735e-03, 4.76621138e-03, 7.27176480e-03, 4.34217136e-03,
       -6.61237771e-03, 4.21491358e-03, 9.12747532e-03, 2.05152668e-02,
       -3.14608030e-03, 2.23288946e-02, 7.45087571e-04, -9.17522795e-03,
       2.62640486e-03, 1.76160317e-03, -2.00642436e-03, 4.34067985e-03,
       1.15974573e-02, 1.36477649e-02, 1.59555487e-02, 8.44538677e-03,
       9.13705328e-04, -1.01765562e-02, -1.17237996e-02, -6.17280928e-03,
       -2.31554732e-03, 6.42266544e-03, 1.26051856e-02, -4.12692362e-03,
       -5.76651131e-04, -1.38624816e-03, 1.50122360e-04, 7.44528091e-03,
       4.39939694e-03, 8.03782255e-04, 4.38296748e-03, -1.41633311e-02,
       -6.27581822e-03, -7.37318071e-03, -1.70060508e-02,
       -9.31062736e-03, -3.18095856e-03, -1.15309535e-02,
       -1.11072361e-02, 4.57540806e-03, -7.73757324e-03, 3.21509363e-03,
       1.03959562e-02, 4.87276120e-03, -1.00897262e-02, -3.30133969e-03,
       -8.26775387e-04, 7.04970816e-03, 1.63438424e-04, 4.16806666e-03,
       3.21089127e-03, 6.82520866e-03, 3.06875817e-03, -1.16088465e-02,
       -1.49180368e-03, -2.99074058e-03, 1.06290458e-02, 2.83461483e-03,
       8.58323928e-03, -5.63662546e-03, 2.54183239e-03, -3.85428383e-03,
       -1.23451687e-02, 2.05155797e-02, -1.70522779e-02, -1.70505047e-03,
       6.29394921e-03, -1.98322363e-04, 5.41180512e-03, 1.56300759e-03,
       4.17386182e-03, -1.09773530e-02, 2.80750217e-03, -7.11450679e-03,
       1.07159023e-03, 5.74274734e-03, 1.28185293e-02, 4.63997386e-03,
       -1.39282830e-03, -5.89060830e-03, -5.66201750e-03,
       -4.40443959e-03, 6.91400655e-03, 1.33324880e-03, -7.44672166e-03,
       1.17500676e-02, 6.58955378e-03, 3.23441438e-03, 1.12430868e-03,
       -4.71128878e-04, 7.26953498e-04, 1.89260188e-02, 2.41719559e-02,
       2.17724871e-03, 1.24331908e-02, -6.25516241e-03, -1.02496706e-02,
       -5.90248546e-03, -6.56483090e-03, -1.05020646e-02, 1.35367550e-03,
       4.32793843e-03, 5.40772278e-04, 1.68671049e-02, -1.32176603e-04,
       9.22985002e-03, 1.07972315e-02, 3.82733927e-03, -8.92779045e-03,
       9.75932367e-03, 7.91401323e-03, -3.74730816e-03, 1.55581394e-02,
       4.98083420e-03, 2.53641279e-03, -6.83692459e-04, 1.98627613e-03,
       1.13581112e-02, 1.17391776e-02, -4.62218770e-04, -9.37384367e-03,
       5.00525627e-03, -4.63693682e-03, 6.16217172e-03, 3.36443516e-03,
       -8.06661043e-03, 8.99650389e-04, -2.74379202e-03, 7.54783535e-03,
       4.69944673e-03, 9.10469890e-03, -4.81266249e-03, -3.06617492e-03,
       8.16836767e-03, 1.64057985e-02, 1.00196917e-02, 9.81472526e-03,
       -6.10944442e-03, -1.18057439e-02, 1.61836518e-03, 3.63964913e-03,
       -5.51717647e-04, 5.07745426e-03, 8.83698650e-03, 1.91882402e-02,
       -6.18176162e-03, -5.96307637e-03, 1.24891717e-02, 3.85593530e-03,
       4.25752811e-03, 7.06233131e-03, 6.54874742e-03, -1.00715188e-02,
       -2.30463827e-03, -8.46230797e-03, -3.35388631e-03, 3.75785702e-03,
       6.34492794e-03, 8.53126682e-03, -4.85969754e-03, -5.44646382e-03,
       -1.10725900e-02, -1.40913082e-02, 4.96274838e-03, 1.27209006e-02,
       -1.54095248e-03, 3.95025779e-03, 4.42381570e-04, 2.63738184e-04,
       3.49470973e-03, -9.24360473e-03, 1.58555098e-02, -1.70723051e-02,
       -1.12657361e-02, 6.37997687e-03, 5.72065450e-03, -4.45879716e-03,
       -9.41494666e-03, -1.83606253e-03, -1.18163526e-02,
       -1.47205300e-03, -1.19877383e-02, 1.64672802e-03, 4.24408214e-03,
       -8.21739715e-03, 1.43771935e-02, 6.48920285e-03, 1.01460365e-03,
       -1.14459200e-02, -2.34122109e-03, -1.56089023e-04, 8.91775545e-03,
       -5.45750745e-03, -5.51408250e-03, 2.47460953e-03, 1.20137548e-02,
       4.41064872e-03, -2.04224773e-02, 6.30752789e-03, 3.93247837e-03,
       9.99695156e-03, -4.13375115e-03, -1.31056383e-02, -9.76734515e-03,
       -6.83258695e-04, 1.89530998e-02, -1.26443047e-03, -1.26564885e-02,
       -7.10217189e-03, 1.52849723e-02, 8.62780213e-03, -1.47281308e-02,
       2.39554537e-03, 1.47086922e-02, 2.58076917e-02, 2.39654881e-04,
       4.04895982e-03, -1.10688480e-02, 1.34834731e-02, 1.37240319e-02,
       -1.80254336e-02, 1.77297578e-03, 8.39644764e-03, 2.05667652e-02,
       7.19801232e-04, -2.38344595e-02, -1.75186004e-02, 3.28111392e-03,
       4.87508718e-03, 6.16265973e-03, 4.04704735e-03, 3.95960500e-03,
       2.75014471e-02, 4.96960012e-03, 3.38653714e-04, -9.58337542e-03,
       6.23675948e-03, 1.64462812e-02, 1.16375573e-02, 6.45593274e-03,
       1.21018644e-02, 5.53568266e-03, -1.93493324e-03, -1.69516541e-02,
       1.70072963e-04, 9.65196174e-03, 6.04996318e-03, 5.95940463e-03,
       -1.80259917e-03, 1.02818769e-03, 3.08786146e-03, -9.77262296e-03,
       -9.81115550e-03, -8.34614690e-03, 1.32289045e-02, 1.59364194e-02,
       -2.07128469e-03, 7.98168499e-03, -5.72875328e-03, 1.07299965e-02,
       8.20934423e-04, 3.28929350e-03, -1.31779425e-02, -9.24388005e-04,
       5.90973115e-03, 1.25923357e-03, -6.35881070e-03, -7.21566146e-03,
       -1.40614761e-03, -1.29778441e-02, 1.26383593e-02, -4.69435612e-03,
       1.36646861e-02, 1.23864450e-02, -1.22447079e-02, 9.41638928e-03,
       1.52783049e-03, 6.77250884e-03, -1.67539495e-03, 2.34240051e-02,
       -4.16193297e-03, 2.89433519e-03, -6.41800638e-04, -4.97532729e-03,
       1.01786414e-02, 2.45112255e-02, 2.17490029e-02, 7.62605807e-03,
       3.54596078e-02, 6.71046833e-03, 7.47216307e-03, 5.34843002e-03,
       -2.87243421e-03, -8.13422818e-03, -1.93325747e-02,
       -2.68097464e-02, -1.45562477e-02, 1.41745922e-03, -3.34701757e-03,
       8.19060765e-03, 3.26347159e-04, -1.43235810e-02, -8.02571513e-03,
       -1.13228783e-02, -1.06075676e-02, -6.35781931e-03, 6.75391825e-03,
       4.28669062e-03, 7.31147500e-03, 2.53645889e-03, -3.46358749e-03,
       1.73227291e-03, 1.43203314e-03, -1.16143702e-02, -5.45707345e-03,
       8.78688134e-03, 2.58038333e-03, -8.55143182e-03, -7.90374912e-03,
       -1.26085598e-02, 1.63033120e-02, 6.25718990e-03, 3.53598560e-04,
       2.04237178e-03, 1.55082755e-02, 8.04611109e-03, -5.13424445e-03,
       -9.36930999e-03, -1.90674094e-03, -4.08543972e-03,
       -3.20990314e-03, 8.12098570e-03, 3.49676725e-03, 5.06013259e-03,
       4.81437705e-03, -1.31053310e-02, -1.01562915e-02, -1.20054046e-02,
       -1.35757076e-03, 8.67673103e-03, 1.02424370e-02, 7.78982649e-03,
       -1.06032724e-02, -4.84729977e-03, -1.62691455e-02,
       -1.17371650e-02, -1.15605853e-02, 1.14473896e-02, 1.29298046e-02,
       4.67109913e-03, 1.82172470e-03, 1.59012098e-02, 9.09646216e-04,
       -6.30596606e-03, -2.22945847e-02, -1.23437066e-02, 3.72568448e-03,
       9.19876434e-03, 7.85033964e-03, 1.34505657e-02, 1.22978389e-02,
       3.69316852e-03, 7.98895024e-04, -9.75651015e-03, -5.72086079e-03,
       2.28979834e-03, -1.96753279e-03, -8.58913455e-03, 5.36923436e-03,
       -1.03114294e-02, -5.21440245e-03, -2.07354475e-04, 2.27205385e-03,
       6.68532774e-03, 5.04713459e-03, -6.16458186e-04, -1.02917813e-02,
       -1.22698676e-02, 9.62473731e-03, 8.77333060e-03, 1.19946050e-02,
       -9.95282456e-03, 1.56842027e-04, -4.84618824e-03, -3.95770511e-03,
       -5.77453990e-03, -1.30381598e-03, 4.57759539e-04, 3.06295580e-03,
       1.20643768e-02, 1.21111032e-02, -3.79211106e-03, 1.16414903e-02,
       1.30228996e-02, 7.79412128e-03, -1.79889146e-02, 1.29193021e-02,
       3.60041577e-03, 8.28287099e-03, 7.52711762e-03, 1.56956036e-02,
       1.65855773e-02, -6.71482936e-04, -1.22069707e-02, -1.34078562e-02,
       -7.23349070e-03, -4.83645964e-03, 5.82211139e-03, -1.16133727e-02,
       -2.51726783e-03, 7.11452961e-03, 6.49185060e-03, -3.49530810e-03,
       1.31550506e-02, 9.70780943e-03, -9.54314834e-04, -3.57322488e-03,
       -1.98429897e-02, -1.01502379e-02, 2.26738956e-02, 1.49025042e-02,
       -7.19856424e-03, -1.37777077e-02, -1.05650565e-02,
       -3.52952071e-03, 7.34479260e-03, 8.96209851e-04, 1.11298095e-02,
       2.97686830e-02, 1.81113537e-02, 9.38378181e-03, 1.14068082e-02,
       1.73362847e-02, -1.88422164e-05, 4.65200841e-03, -1.13711860e-02,
       1.70063023e-02, 5.03136590e-03, 1.51879685e-02, -7.68865924e-03,
       1.57248043e-02, -1.48536987e-03, 7.71550694e-04, 1.97642570e-04,
       -1.40502211e-02, -7.71273626e-03, 1.14274491e-02, 8.81435163e-03,
       -1.70045234e-02, 5.45569090e-03, -8.41604720e-04, 3.99271521e-04,
       -1.23711198e-03, -1.09318402e-02, -2.20056949e-03, 2.96643078e-02,
       2.20667198e-02, 1.00978967e-02, 1.18565317e-02, -1.43412186e-03,
       -1.08848372e-03, -2.17153993e-03, -4.31841426e-03, 1.07950782e-02,
       2.13667061e-02, 2.19683554e-02, -8.85687396e-03, -1.68368709e-03,
       3.42214154e-03, 3.71722155e-03, 2.14702822e-03, -5.38411131e-03,
       -1.43711688e-03, 5.69862034e-03, 2.70493701e-03, -1.70643721e-02,
       2.82236282e-03, -1.58030763e-02, 9.38538695e-04, -9.63289349e-04,
       -4.20585647e-03, 1.01178447e-02, -5.04678290e-04, -1.51486974e-03,
       -1.34724351e-02, 8.62151012e-03, -2.43844930e-03, 1.57620385e-03,
