%YAML:1.0
---
detector_l: !!opencv-object-detector-hog
   winSize: [ 200, 200 ]
   blockSize: [ 16, 16 ]
   blockStride: [ 8, 8 ]
   cellSize: [ 8, 8 ]
   nbins: 9
   derivAperture: 1
   winSigma: 4.
   histogramNormType: 0
   L2HysThreshold: 2.0000000000000001e-01
   gammaCorrection: 1
   nlevels: 64
   signedGradient: 0
   SVMDetector: [ -5.70769375e-03, -3.71541770e-04, 2.50585843e-03,
       -1.48832472e-03, 3.47037334e-03, -6.99431496e-03, 4.53145040e-04,
       2.07661209e-03, 1.23213686e-03, -3.74796125e-03, -5.78899635e-03,
       -2.29333923e-03, -4.62913467e-03, 4.07091435e-03, -9.53710172e-03,
       3.45273246e-03, 1.82709342e-03, 1.27952034e-03, -4.45134705e-03,
       -4.09482094e-03, -2.55992287e-03, -1.58712978e-03,
       -6.57584402e-04, -2.29270803e-03, -9.74332856e-04, 4.89698211e-03,
       4.67215804e-03, -4.59656073e-03, -6.79643638e-03, -4.82718553e-03,
       -4.50106384e-03, 2.93234596e-03, -3.28624924e-03, 3.76502052e-03,
       7.84374122e-03, 2.60675023e-03, 4.49996674e-04, -1.21105474e-03,
       -1.21969590e-03, 7.92746258e-04, 4.58194641e-03, -4.54147486e-03,
       -5.25517855e-04, 7.63302669e-03, 2.06085877e-03, -7.38203805e-03,
       4.31155531e-05, -3.57837742e-03, -1.91265042e-03, 6.66425843e-03,
       1.35333033e-03, -6.69407239e-03, 1.59542519e-03, -4.79217991e-03,
       -5.23037525e-05, -3.37348622e-03, -6.42473111e-03,
       -2.45029014e-03, 4.58096294e-03, -5.13911620e-03, -4.63422667e-03,
       5.74079249e-03, 2.14570761e-03, -7.49292783e-03, -7.09298911e-05,
       -4.16590832e-03, -3.98465479e-03, 6.20208960e-03, 2.54814373e-03,
       -4.23708092e-03, 3.70543799e-04, -6.22314354e-03, -2.53929570e-03,
       8.16271408e-04, -3.25567345e-03, -5.71101718e-03, -1.38731138e-03,
       -4.37127426e-03, -5.89125464e-03, -1.37464423e-03, 1.79716712e-03,
       5.23958448e-03, 6.46005711e-03, 4.54257429e-03, -7.98590854e-03,
       -9.96080507e-03, -1.27312597e-02, -8.20530020e-03, 9.03036352e-03,
       9.18254349e-03, -3.50800599e-03, 5.40509936e-04, 3.15226428e-03,
       3.67560331e-03, 4.92598582e-03, -1.74682494e-03, -4.92070685e-04,
       -8.62896341e-05, -2.99371430e-03, 7.86997844e-03, 5.54471323e-03,
       1.05599472e-02, -5.35825326e-04, 5.64907561e-04, -5.91892935e-03,
       -1.15561497e-03, 3.03981965e-03, 1.96360867e-03, 1.10642519e-02,
       1.27597926e-02, 9.25290491e-03, -8.51637591e-03, -2.13097525e-03,
       -3.15728970e-03, -6.33582426e-03, 1.01824393e-02, 9.10698809e-03,
       5.77215804e-03, 5.72304241e-03, 9.70718917e-03, -6.32696832e-03,
       -4.24154394e-04, -6.61080051e-03, -2.60228082e-03, 7.39163300e-03,
       5.12241246e-03, 3.06033832e-03, 5.65647380e-03, 8.20096023e-03,
       -2.51124613e-03, 4.43699630e-03, -7.49124272e-04, -7.81753659e-03,
       -8.56855186e-04, -3.75232776e-03, 4.43611341e-03, 4.08701086e-03,
       8.44934396e-03, -4.77845734e-03, 1.69188983e-03, -8.00752919e-03,
       -3.99664789e-03, 3.34912771e-03, -2.09244463e-04, -2.41956790e-03,
       3.75255872e-03, 5.19087585e-03, -3.54707660e-03, 3.13833915e-03,
       -8.62352550e-03, -5.45215514e-03, 4.03781701e-03, 5.47613855e-03,
       -6.32877694e-03, -5.12032676e-03, -7.30984786e-04,
       -6.72701353e-05, 1.08007742e-02, -6.02826430e-03, -8.22219823e-04,
       7.70954182e-03, 6.03078026e-03, 8.62118541e-05, -4.08313470e-04,
       4.09704959e-03, -3.50089325e-03, -9.69598419e-04, -1.03874421e-02,
       -3.10773263e-03, 3.11647193e-03, 3.01746093e-03, -5.92961069e-03,
       -2.08940660e-03, 3.59358033e-03, -3.29636357e-04, -4.73431544e-03,
       -7.55201094e-03, 1.84145337e-03, 4.47951397e-03, 3.75694316e-03,
       -2.23306101e-03, -3.68557684e-03, -8.81585944e-03,
       -5.20399585e-03, -1.27385324e-03, -4.04314417e-03,
       -5.63095557e-04, 2.31246883e-03, 3.46204266e-03, 2.57448084e-03,
       2.67250161e-03, -3.95674631e-03, -6.56200526e-03, 2.70964601e-03,
       2.69055041e-03, 6.73716364e-04, -3.58541938e-03, 2.64502363e-03,
       -4.74086218e-03, -4.31274157e-03, -8.87905527e-03,
       -5.33424877e-03, -6.46559009e-03, -3.49097350e-03, 7.50304665e-03,
       2.77850591e-03, -2.65229680e-03, -4.82055498e-03, -1.67083985e-03,
       -1.12696923e-02, -7.17348279e-03, 4.53358423e-03, 4.31464752e-03,
       7.95017928e-03, -3.90490703e-03, -6.24019559e-03, 8.26204848e-03,
       6.31711492e-03, -3.76657164e-03, -4.07483662e-03, 2.56185792e-03,
       7.83494767e-03, -9.98971082e-05, -2.58722575e-04, 5.34690311e-03,
       5.63122332e-03, 3.69781558e-03, -1.70029874e-03, -3.57844471e-03,
       -1.41080725e-03, 2.66120536e-03, 5.12384297e-03, 9.42651555e-03,
       5.72761241e-03, -3.92645458e-03, 1.82223890e-03, -6.21135160e-03,
       -3.36672249e-03, 6.74392469e-03, 7.33748637e-03, 2.68561154e-04,
       -3.74347717e-03, -8.61411821e-03, -3.47953080e-03, 3.20344488e-03,
       -1.27192950e-04, -9.38344281e-03, 3.91247682e-03, -2.69762269e-04,
       6.78401534e-03, 4.28999448e-03, -6.21607667e-03, 3.90824489e-03,
       3.66648426e-03, 6.76806550e-03, -2.42141797e-03, -2.33294466e-03,
       -9.69069661e-04, 5.74627891e-04, 1.10983930e-03, -3.49857786e-04,
       8.97791050e-03, 1.56914396e-03, 9.28561576e-03, 2.18936824e-03,
       4.86476719e-03, 2.67800596e-03, -7.17645569e-04, 6.87672873e-04,
       2.42002518e-03, 3.20213917e-03, 8.73044226e-03, 4.61997045e-03,
       -5.61984815e-03, 7.92356877e-05, -8.42520408e-03, -5.29564684e-04,
       -5.87787828e-04, -1.03321765e-03, 7.28214486e-03, 7.08972430e-03,
       1.01263681e-02, 3.77373566e-04, 4.32645029e-04, 2.09061545e-04,
       6.00671396e-03, 1.40270987e-03, 4.47493186e-03, 3.54736322e-03,
       2.35609454e-03, 1.48626964e-03, -3.90881486e-03, 1.09145488e-03,
       -3.50768748e-03, -7.70526566e-03, -1.98504096e-03,
       -4.47300402e-03, 7.73821631e-03, 7.37929344e-03, 2.47660931e-03,
       3.04093352e-03, 7.05343112e-03, 3.71406227e-03, 4.38477116e-04,
       3.53003200e-03, 1.14411488e-03, 3.49756354e-03, 5.78140095e-03,
       2.64519034e-03, -6.79978495e-03, -5.97632164e-03, -3.57256341e-03,
       -3.10500199e-03, -1.09798636e-03, -2.81180808e-04, 3.70578188e-03,
       9.97850765e-03, 7.24238157e-03, 2.41938629e-03, 5.53239929e-03,
       -4.19696327e-03, -2.99412617e-03, -1.42305018e-03,
       -3.23244231e-03, 3.88002978e-03, 2.16566399e-03, -1.23274780e-03,
       -1.48294272e-03, 1.02056600e-02, 1.33952161e-03, -4.90333559e-03,
       4.93644504e-04, -2.61350535e-04, -6.85665815e-04, 2.56613246e-03,
       2.84501561e-03, -6.15697121e-03, -9.34934535e-04, -2.33334443e-03,
       -1.33043183e-02, -4.31347126e-03, -4.70766623e-04, 1.36907166e-03,
       4.43428429e-03, 1.69447286e-03, -4.04273113e-03, 5.59302745e-04,
       -2.69763498e-03, -4.82604792e-03, -2.00183922e-03,
       -2.27486296e-03, -4.79663111e-04, 4.89445077e-03, 2.13628123e-03,
       -7.61219626e-03, 1.46400556e-03, -4.10129922e-03, -5.37558831e-03,
       -6.26314338e-03, -1.34184828e-03, 1.00352410e-02, 3.82888387e-03,
       5.20130619e-03, -2.83019454e-03, -1.21152785e-03, 2.53625819e-03,
       -3.05805751e-03, -2.15464286e-04, 6.21939637e-03, 1.22512104e-02,
       3.69280111e-03, -4.24655096e-04, -1.48521289e-02, -1.09486608e-02,
       -5.00100991e-03, -4.68194252e-03, 4.48441860e-04, 4.12902189e-03,
       2.20304646e-04, 1.25424901e-03, 1.87844818e-03, -5.96945221e-03,
       -2.80833966e-03, -2.77686428e-04, -7.05335930e-04,
       -4.93054918e-04, 7.98498932e-03, 1.94029754e-03, 3.55628924e-03,
       6.13090163e-03, -1.22893378e-02, -6.19108835e-03, -1.21326128e-03,
       3.40971700e-03, 3.13505484e-03, 8.28940980e-03, -4.26908070e-03,
       8.54476297e-04, 2.90191709e-03, -8.94446112e-03, -1.65946176e-03,
       -3.45138018e-03, -1.83762459e-03, 6.87107618e-04, -2.27497169e-03,
       -4.37300373e-03, 3.55297397e-03, 7.30581442e-03, -2.04111706e-03,
       2.57143448e-03, -3.77547089e-03, 2.13297387e-03, -6.00270461e-04,
       -1.88593869e-03, -5.93594741e-03, 2.23907572e-03, 6.70916168e-03,
       -4.88428120e-03, 4.33931779e-03, -4.49351901e-05, 4.60549910e-03,
       4.96026967e-03, 3.20460135e-03, -9.93588241e-04, 3.99464741e-03,
       1.03014177e-02, -3.69381602e-03, 2.99788639e-03, -3.97326937e-03,
       -2.88801314e-03, 4.01306851e-03, 1.11945486e-03, -4.44525649e-04,
       3.95129574e-03, 5.41244308e-03, -1.24929321e-03, -3.41592939e-03,
       -3.92766320e-04, -3.97754787e-03, -3.12299351e-03, 7.87139288e-04,
       -3.34019074e-03, 8.32924340e-03, 4.15638974e-03, -3.42356693e-03,
       -1.73883652e-03, -4.64057131e-03, -6.83873659e-04,
       -1.63530488e-03, 5.09863952e-04, -5.74886613e-03, 1.43580546e-03,
       1.39096577e-03, -4.94324649e-03, -1.09672488e-03, -5.94791397e-03,
       -5.70049696e-03, 4.75666806e-04, 5.59847918e-04, -2.58547341e-04,
       1.19093098e-02, 6.32767007e-03, -6.12441264e-03, -5.03558805e-03,
       -5.32851368e-03, 8.44513532e-04, -4.46795672e-03, 1.01009838e-03,
       2.26891413e-03, 9.05372016e-03, 5.08897332e-03, 2.75656604e-03,
       -1.35400007e-03, -2.17880675e-04, 1.04143971e-03, -1.03141787e-03,
       6.88343216e-03, 6.55524898e-04, 5.32750087e-03, -1.28721920e-04,
       4.41082893e-03, -3.10227275e-03, -4.42089373e-03, -1.29235804e-03,
       2.57491716e-03, 9.42131784e-03, 6.30701659e-04, 1.03397062e-02,
       7.22345710e-03, 1.55840907e-03, -3.37016420e-03, -4.50905925e-03,
       -2.57295673e-03, -2.20259535e-03, 3.96042917e-04, -1.98086142e-03,
       1.41205976e-03, 5.78661566e-04, 6.44311728e-03, 3.25361243e-03,
       -3.13657452e-03, -5.64515730e-03, -2.31744628e-03, 9.95642273e-04,
       4.56894573e-04, 3.85149592e-03, 3.43779568e-03, 5.96941588e-03,
       1.82013807e-03, -6.85362378e-03, -6.78861188e-03, -6.33755524e-04,
       9.99085698e-03, -3.72700999e-03, -3.83108575e-03, -4.53589531e-03,
       3.68222012e-03, 8.70458502e-03, -1.94492505e-03, -3.98704520e-04,
       4.90886485e-03, 3.23827821e-03, -2.83872290e-03, -2.78919959e-03,
       -2.65364139e-03, 7.63620948e-03, -6.16918493e-04, -7.91841093e-03,
       -4.06255154e-03, -1.83492783e-03, 5.91386715e-03, -9.83813661e-04,
       -4.97933033e-05, -1.68885151e-03, 5.37597435e-03, 1.93952525e-03,
       -6.89780712e-03, 1.56287075e-04, 3.22051300e-03, 2.24623457e-03,
       -7.51791196e-03, -6.93034986e-03, -7.52508501e-03,
       -2.05994654e-03, 5.17498190e-03, -6.73839683e-03, -6.63219439e-03,
       2.51336186e-03, -4.03208796e-05, -2.99488311e-03, -4.30181203e-03,
       -3.82898632e-03, 1.80500082e-03, 1.16445413e-02, -1.82644802e-03,
       -1.17466087e-02, -1.25832215e-03, 7.20664999e-03, 4.90909861e-03,
       -3.49524518e-04, -3.47095123e-03, -3.37608415e-03,
       -1.14407530e-03, -8.89782608e-03, -5.05140377e-03,
       -1.18424767e-03, 3.31627554e-03, 2.89558480e-03, -7.28055427e-04,
       -9.91442241e-03, -1.07852090e-03, 3.91107611e-03, -2.48099887e-03,
       -8.75726528e-03, -2.70815124e-03, 3.94242303e-03, -3.03806085e-03,
       -1.90135627e-03, -2.40318640e-03, 7.77226081e-03, 4.36332403e-03,
       -4.18257061e-03, -1.28234886e-02, -4.13505826e-03, 2.61302851e-03,
       -7.00607384e-03, -7.87719432e-03, -1.32832653e-03, 5.15416125e-03,
       -2.62732292e-03, -6.06742362e-03, -8.76659434e-03, 2.84548360e-03,
       -2.27716635e-03, -6.67604152e-04, 2.00077612e-03, -7.32056657e-03,
       6.84480276e-03, -6.25134213e-04, -9.81546356e-04, -8.21391679e-03,
       6.31681236e-04, 3.70333996e-03, 1.98330544e-03, 4.40723728e-03,
       4.75445529e-04, 3.59642622e-03, -2.94511672e-03, 3.95292154e-04,
       -5.16949361e-03, 3.23909358e-03, 1.03859361e-02, -1.13889053e-02,
       -5.55754034e-03, 1.08976522e-03, 2.59535271e-03, 5.61057450e-03,
       2.70971004e-03, 3.70635209e-03, 6.08100230e-03, -6.76685059e-03,
       -1.00174164e-02, -4.64448892e-03, -6.45640725e-03,
       -4.61770128e-03, -6.67762710e-03, 1.25619757e-03, -4.32796404e-03,
       6.08982611e-03, -3.84202413e-03, 3.56941397e-04, 1.54133922e-05,
       5.06001012e-03, 3.49538890e-03, 9.53002647e-03, 5.96534181e-03,
       1.86761914e-04, 5.23729529e-03, 1.13756321e-02, 9.82331764e-03,
       3.70584032e-03, 4.65851044e-03, -1.05513865e-03, -6.54815463e-03,
       -8.20652861e-03, -4.36926726e-03, 5.59922075e-03, 8.78802314e-03,
       -1.69010658e-03, -7.29599793e-04, -3.99104459e-03,
       -2.02088873e-03, -4.00351360e-03, 3.37021891e-03, -6.94776094e-03,
       -3.26290843e-03, -1.88753288e-03, 3.49940383e-04, 1.94220303e-03,
       1.58120936e-04, 3.45043908e-03, -4.72092675e-03, -1.76221086e-03,
       -5.12571726e-03, -4.61174920e-03, -1.69803493e-03, 1.58796168e-03,
       -3.57522350e-03, 3.01887840e-03, 8.44395327e-05, -8.32776539e-03,
       -6.36944547e-03, -2.89077102e-03, -1.78204512e-03, 4.75386111e-03,
       2.44429073e-04, 2.12175702e-03, 2.96325563e-03, 7.90031534e-03,
       4.20633657e-03, -3.85584310e-03, -1.18600456e-02, -1.11001106e-02,
       1.23597262e-03, -1.45155238e-04, -3.04517383e-03, -1.90957973e-03,
       2.04293244e-03, -5.99966478e-03, 9.29856673e-04, -1.40669558e-03,
       2.07451312e-03, -2.46126205e-03, -1.05974153e-02, -4.42299945e-03,
       -1.84292370e-03, 2.39271461e-03, -1.53131494e-02, 9.91874258e-04,
       1.74310248e-04, -9.67283384e-04, -9.70929954e-03, 3.00913467e-03,
       2.99218437e-03, 7.90103059e-03, 7.94073753e-03, 7.70153990e-03,
       -1.64042099e-03, -6.62892219e-03, -5.15371608e-03,
       -2.50980887e-03, -7.44337885e-05, -2.87686987e-03, 2.27828440e-03,
       2.38853926e-03, -8.36694147e-03, -2.14105053e-03, 2.62507331e-03,
       7.64861121e-04, -4.17174102e-04, -8.67204648e-03, 6.54874137e-04,
       4.15855506e-03, 7.96659756e-03, -1.33557501e-03, 3.75553570e-03,
       1.37855718e-03, -4.74590110e-03, -2.73292535e-03, -3.25953751e-03,
       3.38878803e-04, 1.78979186e-03, 7.93317740e-04, 2.81503540e-03,
       1.83307671e-03, 5.49347606e-04, -4.82660718e-03, -4.37563378e-03,
       4.85636643e-04, -2.92171782e-04, -1.29862304e-03, 5.56606008e-03,
       -5.51897287e-03, 6.07405498e-04, -3.53938248e-03, 1.74291909e-03,
       2.38567140e-04, -3.32197384e-03, 4.51727351e-03, -8.06138851e-04,
       -1.91255880e-03, 2.60364893e-03, 2.50034570e-03, -1.26880116e-03,
       -4.82089771e-03, -5.77331334e-03, -6.53671159e-04,
       -5.86438878e-03, -8.18338711e-03, -2.27400823e-03, 5.21978782e-03,
       9.49326030e-04, 8.87999195e-04, -1.46145502e-03, -1.85472250e-04,
       -1.97604904e-03, -5.98344067e-03, -5.15797036e-03,
       -2.01328984e-03, -8.77733715e-03, 7.47697195e-04, 2.40881299e-03,
       1.36430346e-04, 3.05107376e-03, -1.69585073e-05, 6.48988702e-04,
       -9.93498601e-04, -6.79613464e-03, 4.76051448e-03, 3.48202279e-03,
       1.78664501e-04, -4.11764067e-03, -8.22617579e-03, -1.55137293e-03,
       -3.87358852e-03, 1.39702763e-03, 2.06633238e-03, -3.17421253e-03,
       -1.92185678e-03, 7.05835549e-03, 3.30211921e-03, -5.81898203e-04,
       -1.24753744e-03, -4.80818935e-03, 5.44681796e-04, -4.67993272e-03,
       -8.00568238e-03, -3.23101133e-03, -8.54794809e-04,
       -2.50985567e-03, 3.31418077e-03, 1.12135778e-03, -5.74851502e-03,
       4.57131164e-03, 2.50759913e-04, -1.15908217e-03, -4.44797380e-03,
       7.49973289e-04, -8.79518746e-04, 6.21617772e-03, -3.58202471e-03,
       -4.66438057e-03, 1.21783162e-03, 2.76364875e-03, -6.42536953e-03,
       -2.13844539e-03, 4.33142995e-03, -1.88938971e-03, -5.76677208e-04,
       -1.34384586e-03, -3.53194028e-03, 1.17379695e-03, -1.32583897e-03,
       -4.24692626e-05, -5.79534099e-03, -2.54425366e-04,
       -5.04276017e-03, -8.51974997e-04, -1.48803368e-03,
       -4.77051036e-03, 2.59013590e-03, 6.07020268e-03, 7.18549767e-04,
       -3.73116275e-03, -5.58726629e-03, 6.07784255e-04, 6.87655900e-03,
       -2.50643538e-03, -4.15503327e-03, 1.62005669e-03, 6.09330088e-03,
       -6.03159051e-03, -7.88284373e-03, -8.61872453e-03, 1.50557875e-03,
       1.07589690e-03, 2.93587125e-03, -1.50494475e-03, 4.94358072e-04,
       2.73398636e-03, 1.96040462e-04, -6.19256217e-03, -4.67193779e-03,
       -1.07881671e-03, 4.01922781e-03, -1.35739072e-04, -1.55142741e-03,
       1.15732208e-03, 4.41769091e-03, -4.87443991e-03, -3.93608166e-03,
       -6.78755902e-03, 4.60975018e-04, 2.45745969e-03, -7.54173612e-04,
       -1.95360510e-03, -2.66388920e-03, -4.91841405e-04, 5.55710262e-03,
       -2.02331855e-03, -2.62842653e-03, 1.73863920e-03, 5.27991867e-03,
       -5.18620946e-03, -5.96181350e-03, -2.10050610e-03, 1.70157140e-03,
       2.51671532e-03, -7.41425762e-03, 3.69321904e-03, 9.08997655e-03,
       2.43501319e-03, 5.19076968e-03, 1.88088475e-03, -4.62984154e-03,
       -3.13559314e-03, -5.38773369e-03, -5.43880463e-03,
       -7.22848345e-03, -3.00218002e-03, -1.79754978e-03,
       -5.82597626e-04, -2.13497769e-04, -1.76373578e-04, 1.30700631e-04,
       -8.72058328e-04, -6.65862393e-03, 7.39459973e-03, 3.74413608e-03,
       -5.16896462e-03, 2.45621218e-03, -5.38726663e-03, -1.59417896e-03,
       -3.15446872e-04, 2.93992646e-03, -4.99491533e-03, 1.50158780e-03,
       9.07873921e-03, 6.74184738e-03, 3.31611838e-04, 4.98851936e-04,
       2.55602325e-04, -4.98706242e-03, -1.15477003e-03, -4.15044138e-03,
       3.00589553e-03, 4.42528445e-03, -7.51482148e-04, -5.97253442e-03,
       9.88106593e-04, 4.83908551e-03, 7.74211111e-03, 2.65169889e-03,
       -3.56083456e-03, 8.66539776e-03, 5.24692936e-03, -8.49032030e-03,
       -5.78808505e-03, 3.25068395e-04, 5.67009998e-03, -4.50393790e-03,
       -2.74818647e-03, 1.33892149e-03, 6.37607742e-03, 2.94844084e-03,
       -1.09647652e-02, 2.21927254e-03, 1.06925581e-04, 1.96891720e-03,
       2.15418520e-04, 3.55064333e-03, -1.82607048e-03, 4.55436716e-03,
       4.57322272e-03, 8.42718582e-04, 6.69598114e-03, -2.66648072e-04,
       -3.38294543e-03, -5.34680393e-03, 3.65522515e-04, -9.19865153e-04,
       5.92033286e-03, 3.77084175e-03, 4.52071847e-03, -6.82235928e-03,
       -2.89629400e-03, -4.14293696e-04, -9.22882091e-03,
       -1.14094559e-02, -5.99742460e-04, 2.16715573e-03, 5.13396459e-04,
       -1.44466115e-02, 1.78788335e-03, -7.16193987e-04, 3.43224080e-03,
       -3.47901438e-03, -1.07807107e-02, -7.42613385e-03, 1.13186110e-02,
       3.27505986e-03, -6.42658351e-03, 4.28321073e-03, -1.99064426e-03,
       -2.10154825e-03, -2.02157372e-03, 2.69058137e-03, 2.85255327e-03,
       1.96883059e-03, 5.86688565e-03, 7.85699300e-03, 1.47803791e-03,
       -3.63920350e-04, 7.72893662e-03, -4.31724075e-05, 4.31008730e-03,
       -8.43681302e-03, -9.65156418e-04, 4.66232933e-03, 4.56766831e-03,
       -1.04015530e-03, -1.44173580e-04, 3.37468111e-03, -2.01785029e-03,
       -1.77255331e-03, -1.67034799e-03, 6.59766793e-03, 6.27251342e-03,
       2.33118259e-03, -4.76456189e-04, -8.14999454e-04, 1.04644736e-02,
       1.83317438e-03, 3.53330630e-03, -5.67607535e-03, -2.84912577e-03,
       2.74597132e-03, 1.51041069e-03, 5.61244087e-03, -9.14251024e-04,
       2.75046867e-03, -4.19338187e-03, 5.53732831e-03, -7.81913660e-03,
       -3.77520407e-03, 2.23686220e-03, 6.52524317e-03, -1.69453572e-03,
       -8.16930115e-05, 4.51205950e-03, -4.01368691e-03, -1.66983879e-03,
       -7.74733350e-03, -4.25543496e-03, -5.10163722e-04, 2.36015278e-03,
       1.29134743e-03, 1.17502513e-03, 9.80418921e-03, 2.03514122e-03,
       5.80109237e-03, -2.61125644e-03, -3.22675589e-03, -1.24248210e-03,
       -3.17187514e-03, 2.87877326e-03, 2.68323370e-03, 9.88211203e-03,
       3.60766449e-03, -2.60488200e-03, -9.42630868e-04, 3.66771733e-03,
       7.75320863e-04, 4.24812222e-03, -2.12000008e-03, -8.66394257e-05,
       -4.33814293e-03, 6.60150254e-05, -4.22480283e-03, 5.98284241e-04,
       5.75190363e-03, -2.33139188e-04, -1.71741965e-04, 3.15243495e-03,
       2.00158567e-03, -7.15538068e-03, -1.44510472e-03, 7.14172609e-03,
       6.76603289e-03, 7.88525771e-03, -1.89050799e-03, 1.11025444e-03,
       -4.39513195e-03, -1.99865270e-03, -4.52677859e-03,
       -2.04311009e-03, -1.40037155e-02, 4.74529061e-03, 6.70098420e-03,
       2.21825391e-03, 1.93947111e-03, 4.07912862e-03, 5.63137513e-03,
       2.08224193e-03, -3.34560126e-03, -6.62665209e-03, 5.60810510e-03,
       9.70336515e-03, -5.75875980e-04, 4.16064775e-03, -2.73138843e-03,
       2.86699156e-03, -2.39627413e-03, -4.22065891e-03, 1.88876444e-03,
       1.08708590e-02, 3.10947187e-03, -2.74699787e-03, -2.06920295e-03,
       -5.00162877e-03, 4.75411443e-03, 8.23265291e-04, -1.31298951e-03,
       3.44988977e-04, 1.91453189e-04, 3.09087033e-03, 4.14102199e-03,
       -6.97860727e-03, 4.42871219e-03, 7.16912979e-03, 4.26693074e-03,
       5.88967057e-04, 3.38945049e-03, 1.15332557e-02, 4.95639676e-03,
       -2.05110479e-03, 6.75356761e-03, -3.10273562e-03, 4.74918773e-03,
       7.84523040e-03, 5.56226447e-03, 7.67600350e-03, 3.55494954e-03,
       2.08820426e-03, -1.00985460e-03, -1.23601826e-03, 1.44264428e-03,
       3.20018129e-03, 6.98193151e-04, 3.24554695e-03, 4.74719796e-03,
       5.66080096e-04, 1.15894154e-03, 2.53661815e-03, -2.75553437e-03,
       3.17877578e-03, 2.36201519e-03, -7.08911626e-04, -2.72344844e-03,
       1.30249339e-03, 2.66888202e-03, 9.09611955e-03, 7.66116544e-04,
       2.46503996e-03, -3.22778174e-03, -2.27000797e-03, 3.06168012e-03,
       4.14708676e-03, -3.59358120e-04, 1.80576998e-03, 3.41441191e-04,
       -3.19677545e-03, -3.83706717e-03, -4.11848957e-03, 2.06863484e-03,
       -6.69127854e-04, -2.43342714e-03, -3.81437666e-03,
       -2.08925316e-03, 2.93006422e-03, 1.49757741e-03, -1.13426684e-03,
       -3.13775172e-03, -2.33492837e-03, -5.73732425e-03,
       -1.06603997e-02, 2.57656700e-03, 8.82646814e-03, 3.59904021e-03,
       -7.41606113e-03, -3.66420043e-03, 2.37129093e-03, 1.77077483e-03,
       7.91136175e-03, 4.15712874e-03, 3.81189235e-03, 1.74518733e-03,
       -7.55516207e-03, -1.01910001e-02, -4.86226613e-03,
       -6.69267401e-03, 3.96807259e-03, -3.03857680e-03, -6.71955990e-03,
       3.13495030e-03, 2.90010031e-03, -2.59206194e-04, -8.79751146e-03,
       -3.97051545e-03, 3.22822272e-03, 5.22914901e-03, 8.43482278e-03,
       3.15177953e-03, 4.50506806e-03, 1.54558686e-03, -4.18792805e-03,
       -6.12362102e-03, -2.73158192e-03, 4.00894880e-03, -1.03590207e-03,
       3.06547247e-03, 1.27317209e-03, 1.04839522e-02, 1.29994669e-03,
       -5.10755833e-03, -9.74279549e-03, -5.19800349e-04,
       -3.65952542e-03, -3.83740803e-03, -9.13725141e-03,
       -8.17614421e-03, 3.90419178e-03, -1.92295539e-03, -3.67232971e-03,
       -7.51484651e-03, -5.51347993e-03, 3.93944839e-03, 9.02033411e-04,
       -2.99797929e-03, -1.04281888e-03, 7.88248703e-03, 3.87548615e-04,
       -1.51583343e-03, -8.14818963e-03, 2.87427008e-03, -1.66393991e-03,
       3.18851322e-04, -8.45424645e-03, -3.38507351e-03, -7.13167829e-04,
       1.95298600e-03, -2.96924729e-03, -4.70187841e-03, 9.50575399e-04,
       -6.19061477e-03, -3.72651685e-03, -2.63987295e-03,
       -6.12426409e-03, -1.26609195e-03, -2.22704746e-03,
       -4.09604618e-05, 9.64468461e-04, 3.86534445e-03, -7.29022967e-03,
       -1.20639941e-03, 6.47759158e-03, -1.96290994e-03, 1.99574325e-03,
       -2.19671126e-03, 2.36344594e-03, 6.19339105e-03, 2.12673983e-03,
       4.26778942e-03, 6.81925972e-04, 2.83565419e-03, 1.20565121e-03,
       -8.71753972e-03, -3.83862690e-03, -4.90535330e-03, 1.82154344e-03,
       8.29591509e-03, -2.98636849e-03, -3.98392696e-03, 7.13498704e-03,
       4.12455120e-05, -3.25081265e-03, -6.92474190e-04, -5.56551851e-03,
       6.45680865e-03, 6.04203716e-03, -9.32103768e-03, -2.78170733e-03,
       5.21545671e-03, -2.26480071e-03, 2.93209637e-03, -1.22130127e-03,
       -1.30607525e-03, 5.98672638e-03, -2.71080818e-04, -2.88346084e-03,
       -5.03117975e-04, 8.51771887e-03, -1.93944026e-03, 7.49211933e-04,
       -3.55620822e-03, -6.16618386e-03, 5.13044745e-03, 1.34080823e-03,
       -3.90349934e-03, -2.69573671e-03, 3.24225263e-03, -5.79893007e-04,
       -1.02185167e-03, 3.13382014e-04, -4.84280055e-03, 3.69970361e-03,
       2.25713011e-04, 9.89800785e-04, 4.05804487e-03, 9.56459530e-03,
       -2.81415065e-03, -3.32323741e-03, -2.24469672e-03,
       -2.43987399e-03, -7.24296333e-05, 9.07490728e-04, -3.40320216e-03,
       5.19031135e-04, 2.07532896e-03, -1.30193471e-03, 1.03337213e-03,
       -1.62416184e-03, -2.59508728e-04, 8.38070919e-05, -2.97792978e-03,
       1.22577674e-03, 5.04368683e-03, 4.97253286e-03, 1.11117156e-03,
       -2.91931327e-04, 4.18753223e-03, 4.68910951e-03, -7.82316737e-03,
       -4.17153817e-03, 2.99760583e-03, 5.46174077e-03, -8.00358655e-04,
       -2.83489795e-03, -4.59381705e-03, -2.13300646e-03,
       -1.89272745e-03, -3.06926575e-03, 3.59831174e-04, 3.24834511e-03,
       1.89250102e-03, -3.67591693e-03, 1.15217478e-03, 4.12941305e-03,
       3.27632925e-03, -1.23342534e-03, -5.09461714e-03, -3.57740931e-03,
       3.70634394e-03, 5.44970157e-03, 1.17413392e-02, 7.48784374e-03,
       4.78570862e-03, -3.30929202e-03, -6.37751771e-03, -7.82426447e-03,
       -2.40589981e-03, 2.73149181e-03, 5.48398076e-03, 4.87162918e-03,
       7.80768599e-03, 7.59288482e-03, -3.87982395e-03, -7.27992458e-03,
       -4.10407642e-03, 1.22634124e-03, 2.61208368e-03, -2.43959390e-03,
       1.02236692e-03, 3.78234452e-03, -1.01117184e-03, -4.38150717e-03,
       -1.14395120e-03, -2.34211632e-03, 2.82633887e-03, 3.37594980e-03,
       -1.65507616e-03, -3.57814785e-03, 9.51485825e-04, 5.58736548e-03,
       -1.00820360e-03, -1.03655821e-02, -5.24267415e-03, 4.97765606e-03,
       1.41622138e-03, -3.21175321e-03, -3.72927566e-03, 1.63644645e-03,
       -2.32399860e-03, -8.26278143e-03, -2.20465730e-03,
       -8.62423622e-05, 6.27854420e-03, -1.33203971e-03, -1.32752396e-03,
       -1.67876319e-03, 8.91347975e-03, 1.84804609e-04, -2.65760114e-03,
       -1.06658705e-03, -1.41730276e-03, 5.40834386e-04, 6.55523688e-03,
       2.14510667e-03, -3.11732432e-03, 2.34499923e-04, -1.90146617e-03,
       -9.36283730e-03, -1.07922526e-02, -7.57649122e-03, 5.39367786e-03,
       8.70127697e-03, 5.04495576e-03, 6.14997465e-03, 1.11385100e-02,
       8.19297135e-03, -7.58337555e-03, -2.12892890e-03, -4.72135097e-03,
       1.00562284e-02, -2.00235704e-03, -2.22490681e-03, -1.73610530e-03,
       2.91351252e-03, -2.77271145e-03, -5.69056580e-03, -6.75961724e-04,
       -2.41349614e-03, 1.64423033e-03, -6.81017875e-04, -2.66710576e-03,
       -7.69618480e-03, -8.53713427e-04, 3.22986511e-03, 1.04517629e-03,
       -6.07308175e-04, -6.98165968e-04, 1.78088958e-03, -1.80645217e-03,
       -2.28029629e-03, -4.56476724e-03, -4.00416926e-03,
       -2.13436573e-03, -1.01637095e-02, 4.71993070e-03, 3.12594394e-03,
       7.45674968e-03, -3.11498344e-03, -1.17745064e-03, -5.03724674e-03,
       -6.10511983e-03, 7.65979849e-03, 6.06680114e-04, 4.09423420e-03,
       2.56145257e-03, -4.41740593e-03, -2.18550651e-03, 4.77085449e-03,
       -5.65154944e-03, 8.80343001e-03, 1.52089063e-03, 7.23360718e-05,
       -4.70838929e-03, -3.50542995e-03, -2.52120546e-04, 3.79492086e-03,
       1.65527349e-03, -2.29350594e-03, -9.40527709e-04, -4.31294134e-03,
       2.16968707e-03, 1.15538489e-04, 4.36091796e-03, 1.40012531e-02,
       -1.00117391e-02, -4.81292745e-03, -5.78624895e-03, 3.53187881e-03,
       -3.85187380e-03, 3.18442821e-04, 3.99471680e-03, 2.04540510e-03,
       -1.20297298e-02, -6.34848699e-03, -7.00015202e-03, 2.52700644e-04,
       -2.98970495e-03, -1.07733449e-02, 2.78877735e-04, 8.04290292e-04,
       -3.01468797e-04, -4.93976055e-03, 9.85607505e-03, 2.87702982e-03,
       5.13062300e-03, 4.99660987e-03, 4.03142581e-03, -1.85473752e-03,
       -3.67002140e-05, 9.08711401e-04, 1.77188255e-02, 5.72659774e-03,
       4.16520983e-03, 7.04213092e-03, 2.57790182e-03, -6.48954231e-03,
       -1.17857810e-02, -6.34536846e-03, 2.06955883e-04, 8.87451693e-03,
       -8.95206723e-03, -2.02803130e-04, 1.01577174e-02, 1.18080876e-03,
       2.94545200e-03, 1.86099307e-04, -9.26517532e-04, -6.95359008e-03,
       -4.75976849e-03, -7.63684325e-03, 2.27402593e-03, 5.35401097e-03,
       -5.11463557e-04, 2.69076135e-03, -3.21142189e-03, -3.49265081e-03,
       7.53666973e-04, -8.51991761e-04, 2.72283237e-03, -1.90274313e-03,
       4.75366041e-03, 2.03496916e-03, -5.98611869e-03, -8.39277171e-03,
       -2.77799414e-03, -2.01190799e-03, 7.10452255e-03, -6.32408366e-04,
       -3.37030180e-03, 7.60486000e-04, 6.46047934e-04, -9.17638303e-04,
       -3.01069533e-03, -5.64862322e-03, -4.11783997e-03, 5.03030792e-03,
       -2.84091407e-03, 7.78676535e-04, 2.02445942e-03, -1.28527376e-04,
       -1.25582243e-04, -1.62974081e-03, 6.58054079e-04, 2.60411901e-03,
       4.47584596e-03, -5.87418023e-03, -2.68423604e-03, -2.36395141e-03,
       -1.38266804e-03, -4.42579109e-03, -6.44566817e-03,
       -3.09842825e-03, -1.24603196e-03, 8.84208785e-05, 3.78927635e-03,
       2.32296553e-03, 5.90388756e-03, 4.45266906e-03, 7.05015287e-03,
       3.10021150e-03, -8.09572078e-03, -4.66671027e-03, 3.85562028e-03,
       2.32640933e-03, -9.93946800e-04, 4.90128761e-03, 1.20891561e-03,
       -5.73846186e-03, 1.04160479e-03, 1.34756824e-03, 6.88584289e-04,
       9.38820245e-04, -1.91208397e-04, -4.93840314e-04, -3.11437133e-03,
       -2.72396416e-03, -3.57013475e-03, -9.05166194e-03,
       -6.69529801e-03, -1.12893747e-03, 2.43477034e-03, 2.01918557e-03,
       -6.00489927e-03, -4.80473274e-03, 4.06660438e-05, 4.71202051e-03,
       2.95481947e-03, -1.97938032e-04, 5.49351535e-05, 4.67301393e-03,
       1.38230342e-03, 1.13832345e-03, 6.26459252e-03, 5.08828647e-03,
       -4.15186677e-03, 2.01354804e-03, 9.21062601e-04, 1.13560504e-03,
       -1.54929046e-04, -6.41131774e-03, 4.54045134e-03, 1.56212511e-04,
       3.33653152e-04, 1.71587896e-03, -8.50218523e-04, 9.39874735e-04,
       -4.23871027e-03, -5.39032044e-03, -8.01117159e-04,
       -2.91106873e-03, -2.44091544e-03, 5.78177394e-03, 1.06830308e-02,
       5.14784548e-03, 4.58153244e-03, -1.58225175e-03, 1.45885759e-04,
       -5.83515596e-03, 9.41226099e-05, -1.98255247e-03, -1.97047790e-04,
       4.13075136e-03, -7.15641072e-04, 2.88379309e-03, -4.18839557e-03,
       3.73609108e-03, -9.01798718e-04, 4.05970233e-04, 1.62920647e-03,
       -3.86668905e-03, 2.64245295e-03, 3.86449252e-03, 2.82968394e-03,
       -3.36118811e-03, -7.77228503e-03, 2.78066075e-03, -1.56902627e-03,
       3.07118124e-03, 1.32675935e-03, 4.14801156e-03, -1.87764445e-03,
       8.73962045e-03, 8.16806918e-04, -3.74899083e-03, -9.38106969e-04,
       -1.71219616e-03, 1.72889384e-03, -3.12785082e-03, -5.59601979e-03,
       -4.99838591e-03, 4.49773576e-03, -3.38979508e-03, 5.06396079e-03,
       5.26764197e-03, -1.39518012e-03, 9.67291649e-03, 2.81156087e-03,
       1.26050075e-03, -4.19216556e-03, 5.55165671e-03, -2.74127745e-03,
       3.94296227e-03, 4.48311400e-03, -1.64069969e-03, 3.55370319e-03,
       6.02146005e-03, 1.40133523e-03, -3.78678064e-03, 4.87912213e-03,
       -5.39997709e-04, -8.55058781e-04, 1.18182844e-03, -2.51165428e-03,
       -1.05318381e-03, -1.64184457e-05, 6.36314182e-03, -6.61975192e-03,
       4.36674850e-03, 3.93495383e-03, 5.04168496e-03, 7.24959699e-03,
       4.78610210e-03, 7.82205909e-03, 4.51425929e-03, -6.30427059e-03,
       -2.63642160e-05, 7.50046782e-03, 4.36619623e-04, 3.98163637e-03,
       -1.15176861e-03, 8.62558279e-03, 9.96936462e-04, -2.57266522e-03,
       3.06739967e-04, -4.86393925e-03, 7.71551626e-03, 2.75779562e-03,
       -9.05826528e-05, -6.03111519e-04, 3.19996296e-04, 3.74652329e-03,
       2.65106768e-03, 8.74633528e-03, 5.15151536e-04, 7.41674844e-03,
       4.37565846e-03, 5.74118877e-03, -1.09297270e-03, 1.01111620e-03,
       3.39972111e-03, 8.54635425e-03, 7.99690560e-03, 2.75855395e-03,
       -8.42720736e-04, -2.98790401e-03, 1.18767109e-03, -6.02361932e-03,
       3.17627355e-03, 4.96340217e-04, -3.07268533e-03, 2.85540125e-03,
       2.41150404e-03, 1.05011826e-02, 3.36225820e-03, -2.02703872e-03,
       -2.22880114e-03, -3.47205787e-03, 1.45402912e-03, -1.07576360e-03,
       1.00149997e-02, 4.77700541e-03, 9.16141830e-03, 3.52969859e-03,
       -1.89112546e-03, 1.47793593e-03, -1.23279158e-03, -4.20455215e-03,
       -2.42327247e-03, 1.89579616e-04, -4.98352759e-03, -1.10013168e-02,
       -2.70259520e-03, 1.39990752e-03, -9.64826718e-03, -2.27616914e-03,
       9.02621017e-04, 2.02018605e-03, -1.19532342e-03, -3.88921518e-03,
       6.07793499e-03, 2.34458013e-03, -7.15139695e-03, 9.39586479e-03,
       3.33251781e-03, -4.20161616e-03, -4.20089113e-03, 3.44404485e-03,
       -5.20916143e-03, 1.06954470e-03, 1.43270579e-03, 3.70262563e-03,
       2.83088931e-03, 1.30232645e-03, 2.31447536e-03, 2.47020740e-03,
       3.69776972e-03, 3.44390515e-04, 1.01227751e-02, 1.58723479e-03,
       4.70379600e-03, -1.48516428e-02, -2.13157991e-03, 4.33072826e-04,
       6.25847001e-03, 6.82806736e-03, 5.12246159e-04, 7.39738252e-03,
       4.48756106e-03, -1.09560480e-02, -7.01366877e-03, 1.21985655e-03,
       -1.12453592e-04, -1.98177644e-03, -3.89399426e-03,
       -3.27592192e-04, 3.86464223e-03, 3.95540847e-03, -8.19323491e-03,
       -1.17421012e-04, 4.50802222e-03, 3.52347409e-03, 8.89306050e-03,
       8.23983271e-03, 4.99896379e-03, -3.17060039e-04, -5.48307737e-03,
       1.30341868e-04, 8.65298789e-03, 5.51486062e-03, 6.77431410e-04,
       2.06136797e-03, -4.64957207e-03, -5.75455651e-03, -3.25867138e-03,
       -6.13636943e-03, 1.24318455e-03, -2.52276310e-03, 3.51199252e-03,
       -6.40131708e-04, -4.41563828e-03, -8.76899809e-03,
       -6.28239708e-04, 7.63884652e-03, 3.10455356e-03, -9.32165235e-03,
       -1.61621568e-03, 1.95406377e-03, 4.40199347e-03, -3.79780564e-03,
       -8.12631939e-03, -6.77766837e-03, 1.97238307e-02, 6.37252629e-03,
       -8.67117569e-03, 7.21830502e-03, 3.06029874e-03, -8.73400480e-04,
       2.59056862e-04, 2.38435622e-03, -3.62352515e-03, 4.56645107e-03,
       -1.20208936e-03, -7.99654750e-04, 3.15626268e-03, 8.67996830e-04,
       2.30609439e-03, 4.72419243e-03, 2.86368397e-03, -7.26638408e-03,
       1.32048083e-02, 8.43279762e-04, -2.78880261e-03, -5.58131514e-03,
       -3.41761578e-03, 1.69958360e-03, -7.03524279e-08, -4.02759667e-03,
       -5.61686419e-03, 9.34667606e-03, 6.03263872e-03, -1.43457786e-03,
       -4.15273150e-03, -1.72605482e-03, 6.60996465e-03, 4.62850556e-03,
       8.65673763e-04, -5.24034910e-03, 1.29030121e-03, 2.02984479e-03,
       -1.64930092e-03, -6.70455745e-04, 1.96495256e-03, 1.26589753e-03,
       6.00502780e-03, 7.29039265e-03, -2.08691391e-03, 6.90202694e-03,
       1.69557077e-03, -2.57978798e-04, -5.02292532e-03, 1.86224049e-03,
       1.54308902e-04, 3.27527709e-03, 4.65493323e-03, 7.61798699e-04,
       3.45732505e-03, 1.15987472e-03, -3.17591708e-04, 1.70282481e-04,
       1.52835250e-03, 6.20272197e-03, 9.86432307e-04, 7.25195184e-03,
       1.33307942e-04, 9.69627057e-04, -1.18551974e-03, -2.75033177e-03,
       -1.40228693e-03, -2.28626397e-03, -4.15704865e-03,
       -7.52540352e-03, -8.29689298e-03, 3.62587534e-03, 6.32759649e-03,
       4.11915081e-03, 9.30451846e-04, 2.00119545e-03, 5.24743879e-03,
       -4.15165816e-03, -6.41821511e-03, 3.78821790e-03, 3.06327618e-03,
       2.15765508e-03, 2.07512965e-03, 1.70228013e-03, 7.64431758e-03,
       8.46868474e-03, -2.48244428e-03, -7.28636980e-03, 2.49921042e-03,
       6.43729791e-03, 6.84064813e-03, 2.30732909e-03, 3.66375409e-03,
       -3.26206535e-03, -2.16013053e-03, -5.52175147e-03,
       -6.92542549e-03, -1.29878540e-02, 2.08175718e-03, 2.78936792e-03,
       1.82397605e-03, -1.19058714e-04, 2.02811859e-03, 2.38972995e-03,
       3.55223380e-03, -3.18351877e-03, -8.24023224e-03, 8.92323849e-04,
       5.44129172e-03, -1.96035166e-04, 3.18249268e-03, 3.42558231e-03,
       9.42048430e-03, 2.53323396e-03, -6.30564382e-03, -2.39290320e-03,
       2.76989187e-03, -1.43804355e-03, -2.67276913e-03, -3.21021536e-03,
       8.86889454e-03, 1.37041872e-02, 1.04503985e-02, -2.43724696e-03,
       2.28572683e-03, 1.82827498e-04, -2.15749745e-03, -2.88209965e-04,
       1.28458301e-03, 4.42440435e-03, 3.19968746e-03, 2.32998957e-03,
       5.89096198e-05, -1.13962730e-03, 8.57168809e-03, 9.75082454e-04,
       -3.09784315e-03, 5.00029931e-03, -3.15546896e-03, 3.30759271e-04,
       4.50105174e-03, 9.44293453e-04, 8.06931173e-04, 1.27751508e-03,
       -2.84594414e-03, -2.72391335e-04, 3.95887950e-03, 6.06769789e-03,
       7.89061375e-03, -1.08091663e-04, -1.72372558e-03, 4.34230955e-04,
       6.60183607e-03, -3.80419265e-03, -6.16277568e-03, -1.04476244e-03,
       -4.89455555e-03, 1.95884216e-03, 9.96128004e-03, -4.43933444e-04,
       5.41071501e-03, 1.14369439e-02, 2.59262579e-03, -7.63883162e-03,
       2.29981658e-03, -3.86627181e-03, -6.22826582e-03, -2.09786464e-03,
       -2.25435058e-03, -5.12998505e-03, -1.03623985e-04, 2.16695713e-03,
       2.23609526e-03, 2.50380044e-03, -3.36371805e-03, 4.52150777e-03,
       2.40412352e-04, -6.59513194e-03, -9.79342498e-03, -3.69448774e-03,
       4.57812054e-03, 2.30258773e-03, -2.36908812e-03, -5.84769715e-03,
       -2.97428668e-03, 3.40247341e-03, 5.38868224e-03, 1.22491186e-02,
       1.16803162e-02, 3.37564643e-03, -1.49672339e-03, 3.16944160e-03,
       -2.21774261e-03, 2.80874840e-04, -2.77760159e-03, -2.58898525e-03,
       3.19899758e-03, 8.94540548e-03, 8.03203322e-03, 7.51723477e-04,
       -4.25474755e-05, -3.49589111e-03, 3.51494178e-03, -9.11185169e-04,
       -6.18052529e-03, 1.57350593e-03, -8.91804011e-05, 3.17771197e-03,
       -4.81807953e-03, -8.60279333e-03, 1.81712629e-03, 1.85024564e-03,
       1.17979874e-03, -7.79232942e-03, 2.49346398e-04, 2.11682729e-03,
       1.81117153e-03, 2.26160395e-04, -1.25803030e-03, -6.96409820e-03,
       -3.30967433e-03, 1.11991924e-03, -1.10087241e-03, 1.35753036e-03,
       3.66871967e-03, 3.63945100e-03, -6.02055201e-03, -4.70097503e-03,
       3.21046403e-03, 3.05729263e-05, 3.24000674e-03, 6.45794300e-03,
       -3.61992919e-04, 8.40095617e-03, 1.86490978e-03, -5.11841942e-03,
       -1.37481478e-03, -1.67821592e-03, -2.08801427e-03,
       -8.16143863e-03, -5.59723563e-03, 2.84805801e-03, 2.26221164e-03,
       -3.11282696e-03, -1.89404213e-03, 2.22879485e-03, -5.05051576e-03,
       2.65240716e-03, -5.41496975e-03, -1.06673257e-03, -1.25588709e-03,
       -1.12905043e-04, -1.91106927e-03, 1.05419045e-03, -2.75292550e-03,
       5.42742433e-04, 2.82943598e-04, 3.07751377e-03, 7.03836232e-03,
       3.25599941e-03, 3.41057684e-03, -7.91192753e-04, -3.27035622e-03,
       -1.75113324e-03, 3.15780542e-03, 1.56539469e-03, 8.13620689e-04,
       1.76562497e-03, 5.99923730e-03, 9.20909457e-04, 2.45365617e-03,
       8.27124226e-04, 1.44413832e-04, 5.63345244e-03, 2.86780857e-03,
       -8.39572516e-04, 1.68027461e-03, -1.82705093e-03, -1.60880212e-03,
       -8.66409577e-03, -1.50134508e-03, 6.09763805e-03, 1.46035431e-03,
       1.41127282e-04, 1.61450333e-03, 4.77564894e-03, -2.20292434e-03,
       4.02270071e-03, -1.28364842e-02, -2.35396111e-03, 1.93195767e-03,
       9.80615709e-03, -1.31046341e-03, -5.00559201e-03, -2.78191408e-03,
       5.98878413e-03, -1.51281198e-03, -6.69113069e-04, 3.34377261e-03,
       8.89342930e-03, 1.03050200e-02, -8.49341275e-04, -3.66605911e-03,
       3.74355027e-03, 2.54170480e-03, -9.33846284e-04, -1.29763735e-03,
       -2.61548237e-04, 7.92558771e-03, -3.63906473e-03, 3.96523770e-04,
       3.79638607e-03, 6.01273263e-03, 5.08577004e-03, 6.94548059e-03,
       -8.84453487e-03, -2.51610368e-03, 2.20050570e-03, -1.19366043e-03,
       1.93374918e-03, 8.39820877e-03, -2.07916275e-03, 2.18741060e-03,
       1.06164603e-03, -1.19243807e-03, 1.80657813e-03, 2.48772022e-03,
       -9.64598090e-04, -1.31766102e-03, 1.71669433e-03, 8.12093634e-03,
       9.96678136e-03, -1.62007462e-03, -2.16763490e-03, -4.14725533e-03,
       -1.09779520e-03, 2.60043726e-03, -1.93319179e-03, 4.98889247e-03,
       -1.44960839e-04, 1.25476755e-02, -4.22201725e-03, -6.04338886e-04,
       -1.57334807e-03, 4.26759105e-03, 5.91038540e-03, 2.57956702e-03,
       -1.80936081e-03, -3.31930444e-03, 5.05041331e-04, 5.18461224e-03,
       -6.15669822e-04, -4.17008111e-03, 1.73533685e-03, 5.26571739e-03,
       7.28843268e-03, -5.16725658e-03, 2.76404852e-03, 4.16290388e-03,
       8.37973692e-03, 3.14951292e-03, -2.50009447e-03, -2.72443565e-03,
       1.72580709e-03, -3.87848564e-03, -1.88507780e-03, 1.57710898e-03,
       9.14330222e-03, 4.43568965e-03, 2.31148605e-03, -4.54527140e-03,
       -1.97898014e-03, -1.43662118e-03, 4.43955389e-04, -3.54804168e-03,
       -2.62561045e-03, 4.09127399e-03, 6.14932971e-03, -2.40675104e-03,
       -1.06802266e-02, -7.39010004e-03, -1.07491249e-03, 1.94961578e-03,
       1.30384194e-03, 2.35446868e-03, -6.33864058e-03, -2.95694149e-03,
       -5.03503904e-03, -2.92124157e-03, 9.78977885e-04, -1.44229282e-03,
       -4.47578309e-03, -7.05936516e-04, 2.28082109e-03, 4.95682564e-03,
       1.29493419e-03, -2.81187682e-03, -3.82649974e-04, 1.94127951e-03,
       4.52491548e-03, 5.82740223e-03, 1.51089136e-03, -2.53723888e-03,
       -1.58313301e-03, -2.07414688e-03, -7.70736998e-03,
       -6.76528411e-03, 5.94101381e-04, 1.53053121e-03, 6.44035870e-04,
       -1.86055258e-03, 5.14386222e-03, 9.22910869e-03, -1.10188019e-04,
       -2.60893954e-03, -5.50684053e-03, 1.58730196e-03, -1.23223627e-03,
       -1.07748364e-03, -2.35914183e-03, 2.12160102e-03, 2.19112099e-03,
       -2.45742826e-03, -5.14610810e-03, -7.45191099e-03,
       -3.76169197e-03, 3.69532546e-03, 3.18839611e-03, 9.50591057e-04,
       7.71589577e-03, 4.30730870e-03, -4.86356579e-03, -3.92708462e-04,
       -6.38872897e-03, 4.37893148e-04, 1.02664612e-03, -5.46920020e-03,
       -5.30965859e-03, 5.98664628e-03, 2.31627841e-03, 3.97819607e-03,
       2.21612561e-03, -5.01848385e-03, -7.24277576e-04, 1.55929965e-03,
       -2.57063750e-03, -3.22734960e-03, 8.25841539e-03, 2.18173722e-03,
       7.37282541e-03, 1.00885909e-02, -2.06796010e-03, 1.93888764e-03,
       3.21164168e-03, 7.60140887e-04, -5.85869653e-03, -9.07178596e-03,
       -5.52197360e-03, -7.22845504e-03, 8.96360818e-03, 1.74257881e-03,
       1.33822532e-03, -9.51447350e-04, -1.59432553e-03, -7.57711055e-03,
       -1.12291463e-02, 5.64964430e-04, 1.50930195e-03, 9.25788935e-03,
       8.78608786e-03, -2.75774952e-03, 1.04879576e-03, -5.46549330e-04,
       -1.17322309e-02, -5.87410759e-03, -5.97681478e-03, 2.36171810e-03,
       5.04222000e-03, 1.92650117e-03, 3.04391934e-03, -1.21938391e-03,
       -5.06702345e-04, -6.51890645e-03, -2.22546002e-03,
       -5.24994917e-03, 5.05915843e-03, 1.08969500e-02, 6.86882762e-03,
       -4.44709603e-03, -7.20088137e-03, -5.90554625e-03,
       -8.77273455e-03, -4.41854470e-04, 5.29625500e-03, -3.85604519e-03,
       2.20282469e-03, -1.80242700e-03, -5.59054455e-03, -4.94651729e-03,
       -4.17315774e-03, -7.63478689e-04, -3.88106913e-03,
       -6.92457100e-03, 1.84863911e-03, 6.52395887e-04, -1.57415972e-03,
       -6.86606998e-03, -3.28023569e-04, -2.93788360e-03,
       -1.07666850e-02, 3.48525355e-04, -5.52778272e-03, 3.07331677e-03,
       5.43708866e-03, 8.65359511e-03, -5.14112459e-03, 3.40446690e-03,
       3.44506465e-03, -3.73866712e-03, -6.37370162e-03, -1.02348272e-02,
       -3.16988770e-03, 1.38474791e-03, 6.20305119e-03, -1.96568988e-04,
       -6.34538941e-03, -2.85262987e-03, 7.71745108e-03, -6.84765284e-04,
       3.86373349e-03, 3.76344076e-03, 5.06412564e-03, -5.89611707e-03,
       -3.32466722e-03, -7.86045007e-03, -6.35933480e-04, 2.14093877e-03,
       -1.53371366e-03, 4.21552127e-03, 1.13701215e-03, 6.02319371e-03,
       -4.91262646e-03, -3.29859206e-03, 5.85257681e-03, -1.61150983e-03,
       7.42088072e-03, -3.68701690e-03, -5.49122691e-03, 9.67963773e-04,
       7.82327447e-03, 5.97697683e-03, 4.92875278e-03, 2.11827084e-03,
       -7.28067971e-05, 6.23574248e-03, 4.11262663e-05, -1.38821825e-03,
       -2.75214110e-03, 3.69197852e-03, -6.42369443e-04, 3.08825937e-03,
       -1.50659459e-03, -1.11615525e-04, 3.34652839e-04, -3.44089000e-04,
       6.07998203e-03, -1.58620125e-03, -2.88665108e-03, -2.67626857e-03,
       3.78493941e-03, -4.82912983e-05, -9.39474121e-05, -2.71302671e-03,
       -2.36294465e-04, 3.51942354e-03, -7.83786085e-03, -6.30806061e-03,
       -8.91350489e-03, 3.57802794e-03, 5.05556446e-03, -5.16457367e-04,
       -2.86519853e-03, -2.65464513e-03, 4.84909426e-04, -2.07392545e-03,
       2.24195374e-03, -5.02160145e-03, 3.59278102e-03, 5.20430459e-03,
       1.23458263e-03, 1.13865353e-04, 3.62808409e-04, 7.26765580e-03,
       -5.52356616e-03, -9.50251985e-03, -1.90624446e-02,
       -2.73822644e-03, 4.12003091e-03, -3.40558909e-04, -3.60928336e-03,
       -3.14208143e-03, -2.53068213e-03, -8.34751595e-03,
       -9.09539312e-03, -6.30635070e-03, 3.83200194e-03, 1.25726766e-03,
       -1.98939000e-03, -4.36519133e-03, -3.59616987e-03, 2.59532081e-03,
       -5.51071344e-03, -4.57391981e-03, 3.66457651e-04, 2.43480527e-03,
       4.09036409e-03, 1.95868406e-03, 2.05454160e-03, -1.81223347e-03,
       2.97562219e-03, -6.37726532e-03, -1.02578821e-02, -1.47756543e-02,
       -1.19533762e-03, 4.88189096e-03, 2.39720661e-03, 4.01354209e-03,
       -5.00262203e-03, 2.46268185e-03, -9.91978496e-03, -9.16351844e-03,
       -2.67301477e-03, 5.73845813e-03, -2.88308831e-03, -2.71747774e-03,
       -5.19945892e-03, -2.94026732e-03, 6.57224702e-03, -2.63245800e-03,
       -4.06449428e-03, -5.36981225e-03, -2.13051424e-03,
       -5.40347444e-03, -1.37572305e-03, -7.54554011e-03,
       -8.72286223e-03, 2.59481068e-03, -7.24487379e-03, -1.04039512e-03,
       -7.18984473e-03, 6.53078826e-03, 9.43076797e-03, 6.23241113e-03,
       4.87165758e-03, -2.07194593e-03, 1.62027194e-03, -7.51856575e-03,
       -8.26974213e-03, -7.74151972e-03, -4.85990277e-05,
       -6.72284441e-05, 6.13031629e-03, -2.52041942e-03, -6.65815827e-03,
       4.96390788e-03, 4.18112759e-04, -1.07436383e-03, -4.29822365e-03,
       -2.72725755e-03, 2.75679841e-03, 3.43827973e-03, -3.36117717e-03,
       -4.41949628e-03, 7.68527912e-04, -4.75270581e-03, 4.63618618e-03,
       1.26944855e-03, 1.14041213e-02, 1.15791096e-04, -6.92392467e-04,
       -2.58400035e-03, 2.13244162e-03, -1.55204791e-03, -3.75078060e-03,
       2.15894310e-03, -5.09534450e-03, 2.02150550e-03, 1.04165066e-03,
       5.88669488e-03, -1.09752978e-03, -5.63407969e-03, 8.01563822e-03,
       3.10945185e-03, 3.06275603e-03, 2.12670607e-03, 4.97687561e-03,
       -8.68006051e-03, -2.29068194e-03, -4.28703381e-03, 2.26412341e-03,
       2.10683839e-03, 1.40363071e-03, 4.16191341e-03, 4.65088384e-03,
       8.16496613e-04, 4.31685708e-03, 4.40959167e-03, 5.27733471e-03,
       6.44651242e-03, 6.28936291e-03, 1.86655394e-04, 2.19138362e-03,
       -4.97002969e-04, 7.80056277e-03, -5.04522258e-03, 4.66926023e-03,
       -1.69742538e-03, -6.22407487e-03, 2.91947392e-03, -7.08929636e-03,
       1.18183717e-03, 5.58087230e-03, -5.97104779e-04, -4.17025480e-03,
       1.84872665e-03, -8.28333141e-04, 7.33993156e-03, 3.38152749e-03,
       -1.65393238e-03, 1.45761471e-03, 1.30781776e-03, 1.72615843e-03,
       -4.40608803e-03, 7.57250004e-03, 6.80223573e-04, 1.85465591e-03,
       2.20177346e-03, -2.86625605e-03, -3.89729626e-03, -4.66069579e-03,
       -1.37677032e-03, -8.32141470e-03, 7.63337477e-04, -3.66089074e-03,
       -7.90219009e-03, 9.99534223e-03, 3.11633456e-04, 4.96301847e-03,
       4.33954643e-03, -6.88696280e-03, -4.88954037e-03, -2.85409810e-03,
       -7.67178208e-05, -4.29810677e-03, 6.47932896e-03, 2.89082946e-03,
       5.11186803e-03, 4.69344063e-03, -2.38608848e-03, -2.40035099e-03,
       4.15042462e-03, -6.41659717e-04, -1.59270340e-03, 2.30328040e-03,
       2.51063099e-03, 3.93109425e-04, -1.03445922e-03, 9.80619807e-05,
       -2.55317963e-03, 3.65982135e-03, -3.58896184e-04, 9.21024301e-04,
       1.19068008e-02, 8.96273088e-03, 5.40040154e-03, 2.39884597e-03,
       1.86024088e-04, 3.39457858e-03, 1.04648452e-02, -3.93448211e-03,
       -3.92080192e-03, 2.27916380e-03, -3.98554187e-03, 2.26909484e-04,
       -1.08894869e-03, -1.50288537e-03, 3.71078937e-03, 4.22327593e-03,
       -2.58304086e-03, -7.02657679e-04, -1.42520620e-03,
       -8.44722521e-03, -3.99358617e-03, -6.74158288e-03,
       -5.68569032e-03, 5.37397247e-03, 1.23244412e-02, 3.52863991e-03,
       4.62147640e-03, 7.88963214e-03, -1.30772218e-03, -1.13143353e-03,
       3.63411289e-03, 4.35947813e-03, -3.68334982e-03, 2.35972041e-03,
       9.68593231e-05, 1.10329278e-02, 7.37379817e-03, 2.06538127e-04,
       -1.50871195e-03, -6.25308929e-03, -1.01447348e-02, 2.65200366e-03,
       -1.46376085e-03, -3.59324086e-03, 5.21117775e-03, 1.11226812e-02,
       3.15136625e-03, -5.89114334e-03, -1.01818293e-02, 7.89405371e-04,
       1.37752655e-03, -5.01828175e-03, -5.47799608e-03, -3.45640257e-03,
       -2.62292335e-03, -2.29045167e-03, -6.64412649e-03,
       -7.75201805e-03, -2.55522202e-03, -1.96664175e-03,
       -6.16337545e-03, -4.39110212e-03, 7.47609371e-03, 1.85988117e-02,
       5.78435510e-03, 2.29292596e-03, -8.31649452e-03, -2.64711562e-03,
       -2.44851178e-03, -6.04243623e-03, -1.83560024e-03,
       -3.07536218e-03, 3.51545191e-03, 1.56291947e-03, 1.23734232e-02,
       -7.49615720e-03, -6.91200374e-03, 4.20246599e-03, -2.99372274e-04,
       -3.10638500e-03, -4.46261466e-03, -1.10943220e-03, 6.54583157e-04,
       3.44512332e-03, 1.57398381e-03, 3.01378989e-03, 2.58032279e-03,
       -1.99958403e-03, -3.04570658e-05, 2.61635310e-03, 5.86943701e-03,
       1.16712984e-03, 9.75294132e-03, 4.88358131e-03, 2.87082582e-03,
       -2.52215308e-03, -2.77516409e-03, 2.41496321e-03, -2.62678741e-03,
       5.84077835e-03, -4.24973230e-04, 1.18165845e-02, -2.11477815e-03,
       -2.94478587e-03, 4.09616296e-05, -9.09365807e-03, -4.04718536e-04,
       -1.66989828e-03, -3.66120861e-04, -7.84145959e-04, 8.83068703e-03,
       -4.52042045e-03, 1.60009402e-03, -2.63571134e-03, -4.01502894e-03,
       -1.51641702e-03, 1.80025154e-03, 6.35351567e-03, 3.65314726e-03,
       3.67586850e-03, 1.58631324e-03, 2.66428804e-03, -4.47214767e-03,
       -2.55710958e-03, -3.90378968e-03, -4.43363329e-03, 3.78113030e-03,
       3.35837365e-03, 7.71281309e-04, 1.11674017e-03, 1.32089626e-04,
       -6.15586876e-04, -5.96543029e-03, 4.39463096e-04, -2.12574494e-03,
       -9.17992962e-04, -6.61468715e-04, 3.20424023e-03, -4.85583674e-03,
       2.33824598e-03, 9.58517287e-03, 5.52099664e-03, 1.45836384e-03,
       -2.01483420e-03, 3.33279534e-03, -5.10374038e-03, -6.03372291e-06,
       2.69573702e-05, 4.07664618e-03, 3.72759323e-03, -2.18134653e-03,
       -4.67529567e-03, -9.66752879e-03, -2.12087575e-03, 4.33955196e-04,
       -2.71899626e-03, -2.14060023e-03, 1.48286589e-03, 5.27893659e-03,
       -1.09228049e-03, -5.59339719e-03, -5.33770630e-03,
       -8.35409679e-04, 2.88506417e-04, 6.72417786e-03, 1.72052742e-03,
       3.04518384e-03, 5.20812022e-03, -1.75759767e-03, -2.96191243e-03,
       -8.55837204e-03, 1.20373082e-03, -6.62210397e-03, -3.35773081e-03,
       3.58290668e-03, 6.22598105e-04, -2.84230895e-03, -5.58606442e-03,
       -7.39728683e-04, -3.06878064e-05, 4.89754882e-03, -3.64679750e-03,
       1.25559550e-02, 6.30860217e-03, 2.48012855e-03, 3.32044577e-03,
       3.27596837e-03, 9.22291598e-04, -4.27560555e-03, 4.61664516e-03,
       1.01951906e-03, 3.65870935e-03, -3.71395680e-03, -4.52788686e-03,
       1.22576952e-03, 6.36136159e-03, 2.44582188e-03, -7.95161631e-03,
       4.72765125e-04, -6.95942948e-03, -4.40452108e-03, -9.30252858e-03,
       -4.33218805e-03, -2.01476272e-03, 3.81118116e-06, 4.54407651e-03,
       -1.92793738e-03, 3.50095448e-03, 3.84769356e-03, 9.20918956e-03,
       -3.34469532e-03, -4.06561792e-03, 1.44250698e-05, 1.44843408e-03,
       -1.90925156e-03, -1.24595920e-02, -3.45720048e-03,
       -1.15943828e-03, 2.78333598e-03, -6.16984093e-04, -7.31200329e-04,
       7.21099321e-03, 7.39372242e-03, -3.68014211e-04, -5.59189683e-03,
       2.56794179e-03, -2.16488243e-05, -5.34913130e-03, -1.10173728e-02,
       -1.65708328e-03, 2.54967972e-03, 4.59010713e-03, 5.73160173e-03,
       3.82903707e-03, 1.24797402e-02, 1.53374393e-02, 4.01217304e-03,
       -8.54898524e-03, 1.36053201e-03, 1.19145622e-03, 9.59247933e-04,
       -4.62616445e-04, -1.59996853e-03, 3.90424835e-03, 2.72034178e-03,
       -2.12297449e-03, -4.48684301e-03, -4.01883060e-03, 7.45514873e-04,
       8.49563349e-03, 4.67299577e-03, 4.70826402e-03, 4.63124691e-03,
       6.70242961e-03, -1.65558315e-03, -9.52923764e-03, -3.01171769e-03,
       -3.59881157e-03, -1.56549842e-03, 2.11307453e-03, 4.30629775e-03,
       1.16473567e-02, 1.81335509e-02, 1.36223179e-03, -7.05404114e-03,
       -1.33021013e-03, -4.02553054e-03, 2.25362112e-03, -3.33767646e-04,
       -2.04316829e-03, 1.19476579e-03, 7.68743921e-03, -2.28480971e-03,
       -6.03711000e-03, -5.87836327e-03, 2.39522359e-03, 4.14960505e-03,
       5.02824504e-03, 6.68810261e-03, 1.44212949e-03, 7.79423723e-03,
       3.25722911e-04, -4.04344918e-03, 1.08517488e-05, 1.92875246e-04,
       4.71006148e-03, 9.04605491e-04, -4.35644016e-03, -9.21817496e-03,
       -2.93768127e-03, -1.66742038e-03, -4.79349820e-03,
       -3.89375398e-03, 1.05270743e-03, 2.01951317e-03, 1.68353633e-03,
       -3.55255092e-03, -1.41096639e-03, 7.42597226e-03, -8.63277004e-04,
       -5.86117292e-03, -6.63018646e-03, 3.29588796e-03, -5.57527601e-05,
       5.94197353e-03, 5.51004009e-03, 8.94629979e-04, 8.17175303e-03,
       6.01035310e-03, -3.65644251e-03, -7.74505956e-04, -8.99523089e-04,
       3.14573012e-03, 1.83368381e-03, -6.50070142e-03, -7.81275146e-03,
       -6.39012409e-03, -5.69494069e-03, -2.40653311e-03,
       -2.54467945e-03, -6.05048472e-03, -2.10822071e-03, 3.57869081e-03,
       7.50610197e-04, -7.01468531e-03, -3.11752920e-05, 3.67081701e-03,
       1.20351545e-03, -2.64483877e-03, -3.27218935e-04, 2.69154145e-04,
       4.12752572e-03, 5.87889599e-03, 3.66205000e-03, 9.41488612e-03,
       5.27685788e-03, -1.46623037e-03, 3.76947806e-04, -1.83913740e-03,
       -4.94936481e-04, 3.63394711e-03, 2.04839162e-03, -1.10534900e-04,
       4.04638192e-03, 1.59707293e-03, 5.35041280e-03, 6.74361084e-03,
       -1.19074266e-02, -6.67805178e-03, -2.35765683e-03, 2.16940977e-03,
       -6.07901299e-03, 4.26021451e-03, 6.22105645e-03, -5.24357252e-04,
       -6.29829429e-03, -7.21593853e-03, -5.00868075e-03,
       -2.86800344e-03, -4.42002341e-03, -7.57804187e-03,
       -1.79786945e-03, -2.10886286e-03, -1.56117673e-03, 4.30293428e-03,
       4.71143518e-03, -9.19751998e-04, -1.58413104e-03, -4.83121723e-03,
       -3.75788892e-04, -2.75394507e-03, -3.49535909e-03, 2.93534645e-03,
       1.12794815e-02, 8.52074660e-03, 1.25710480e-03, -4.53594746e-03,
       -2.17185263e-03, 8.91717093e-04, -1.21462857e-03, -5.34385722e-03,
       -2.84010661e-03, 4.69887583e-03, 1.62726128e-03, -2.89015879e-04,
       -2.67500826e-03, -8.32240842e-03, -4.79509914e-03,
       -5.66242868e-03, -9.61221289e-03, 1.56790158e-03, 1.28034530e-02,
       2.94500642e-04, 4.08381270e-03, 1.93685188e-03, -6.68841694e-03,
       -3.21578188e-03, -5.48258796e-03, -6.60197577e-03,
       -1.70504779e-03, 3.18060920e-04, -6.02101267e-04, 2.26068869e-03,
       -2.36138818e-03, 3.84388352e-03, 9.40196216e-03, 3.63435480e-04,
       -2.77590821e-03, -5.43622579e-03, -2.75720051e-03,
       -6.18835096e-04, 1.54185412e-03, -1.21508026e-03, 8.95254780e-03,
       1.10723861e-02, 6.08676637e-04, 4.37968317e-03, -3.51201999e-03,
       -3.58215976e-03, -1.24522205e-03, 1.01335684e-03, -2.53195176e-03,
       2.94673926e-04, -5.34692453e-03, -4.92762867e-03, -1.68173539e-03,
       -3.67847877e-03, -4.95302491e-03, 2.10381276e-03, 4.90554841e-03,
       4.43593337e-04, 1.64585654e-03, 1.50727190e-03, -2.55530421e-03,
       2.12492840e-03, -3.51938978e-03, 1.68969433e-04, -3.44794127e-03,
       -2.32521095e-03, -2.42652814e-03, 6.02622470e-03, 1.01447981e-02,
       1.48983230e-03, 2.90086307e-03, -7.18363607e-03, -7.95877166e-03,
       -2.76059494e-04, -3.44052794e-03, -6.57873135e-03,
       -2.61922576e-03, 2.14170804e-03, 8.03735014e-03, -3.89848894e-04,
       -5.65044722e-03, -6.14504388e-04, 7.32100662e-03, 2.50897720e-03,
       -3.76449374e-04, -1.59730029e-03, 1.42315030e-03, 2.48133624e-03,
       1.04439235e-03, -5.14616841e-04, -6.67517248e-04, 8.64063762e-03,
       2.86070164e-03, -4.42913128e-03, -4.38090181e-03, 8.69618787e-04,
       7.91590475e-03, -3.51512665e-03, -3.82030965e-03, 1.27486140e-03,
       5.90142142e-03, -1.43244932e-03, -1.00682778e-02, -6.47303555e-03,
       -7.90948421e-03, 3.70823801e-03, -7.71060260e-03, -9.99858975e-03,
       2.94825295e-03, 5.60933491e-03, -5.44804381e-03, -1.42157320e-02,
       2.18624226e-03, -2.12314495e-04, 6.08409801e-03, 3.09894979e-03,
       2.05847295e-03, -1.98132661e-03, 3.14014754e-03, -5.67598362e-03,
       -9.41578858e-03, -2.53741094e-03, -3.00045987e-03, 1.20678882e-03,
       -3.56437964e-03, -7.08923023e-03, 2.64365226e-04, 7.54004391e-03,
       -5.00741089e-03, -1.22865057e-02, 1.83450943e-03, 1.88801682e-03,
       9.39204544e-03, 1.00388983e-02, 3.51358578e-03, 2.34360551e-03,
       1.41104695e-03, -8.52954295e-03, -8.94061010e-03, 3.68572911e-03,
       4.50045476e-03, 7.94854760e-03, 5.59139298e-03, -3.44994641e-03,
       -7.46466545e-03, -6.30336930e-04, -4.92933393e-03,
       -9.59558133e-03, 4.93627042e-03, -8.38745618e-04, 3.12736141e-03,
       -2.32174178e-04, -8.14402476e-03, -5.99277159e-03, 1.99264451e-03,
       -3.95825272e-03, -6.30813884e-03, 2.56775203e-03, 7.64740910e-03,
       8.35009478e-03, 7.33417785e-03, -1.33775850e-03, -3.34493234e-03,
       -4.34245588e-03, 4.54383291e-04, -2.63315090e-03, 6.62285509e-03,
       -5.51811978e-03, 4.63425089e-03, -1.26455305e-03, -3.28117283e-03,
       -3.73177580e-03, 3.58799502e-04, -4.19980707e-03, -6.44863956e-03,
       1.55435258e-03, 1.94692414e-03, 4.50871978e-03, 6.09134790e-03,
       2.19305186e-03, -1.35496142e-03, -1.90886704e-03, 6.36056589e-04,
       -1.73750299e-03, 6.22069405e-04, -2.57317070e-03, 5.46351913e-03,
       6.49183523e-03, 4.20144666e-03, -5.22402674e-03, -2.55393540e-03,
       3.47087951e-03, 4.90204897e-03, 8.95212404e-03, -5.65042114e-03,
       2.33269529e-03, -4.53703135e-04, 8.19488196e-04, -3.01519688e-03,
       -4.88407118e-03, 4.43565799e-03, 1.18033343e-03, -2.60443310e-03,
       -6.30870508e-03, 8.14123414e-05, -2.08479585e-03, 2.12074048e-03,
       -8.81035533e-03, -1.10582006e-03, -1.73742941e-03,
       -5.97688090e-03, 3.42433155e-03, -3.74076189e-03, 1.67234079e-03,
       4.88757621e-03, 1.47542171e-03, -5.32886339e-03, 5.47414413e-03,
       -8.10091384e-04, 2.80432669e-05, -5.28884167e-03, -7.76076829e-03,
       -1.46923470e-03, 1.30823441e-03, 5.00592357e-03, 2.81554856e-03,
       -6.36282377e-03, 8.96245649e-04, 2.39915866e-03, -6.23999687e-04,
       -6.78497413e-03, -2.91475700e-03, -2.69080698e-03,
       -6.09683199e-03, -1.46670993e-02, -3.12457466e-03, 1.91319385e-03,
       1.50389050e-03, -1.00052273e-02, -1.00950841e-02, -4.87774797e-03,
       1.68253551e-03, -5.93174994e-03, -8.23133904e-03, 9.54618398e-03,
       3.12811672e-03, 6.41540438e-03, -1.05529325e-03, -2.52415962e-03,
       -3.35817365e-03, 1.17222022e-03, 3.31440545e-03, 4.11120430e-03,
       7.74322171e-03, 2.20087008e-03, 6.50211843e-03, 7.58130220e-04,
       -5.06751065e-04, -4.18810220e-03, 7.08884254e-05, -5.13695460e-03,
       9.72160953e-04, -1.83917780e-03, 2.69352878e-03, 3.01309023e-03,
       -6.70302939e-03, -4.77948366e-03, -4.38211625e-03, 6.88534346e-04,
       2.06572795e-03, 3.44541902e-03, -1.56143412e-03, -1.15776551e-03,
       -4.62837098e-03, -2.52076914e-03, -3.81343905e-03, 3.09106265e-03,
       2.93248962e-03, -4.57268255e-03, -6.32107258e-04, 7.89051969e-03,
       2.95369793e-03, 5.69611229e-03, 2.79754284e-03, 1.40355167e-03,
       9.80881974e-04, 8.14465689e-04, -7.91931152e-03, 2.02600932e-04,
       9.02978890e-03, 1.04791124e-03, 6.41050423e-03, 1.01760053e-03,
       3.28787602e-03, 3.58401379e-03, -8.10637255e-04, -1.16504794e-02,
       1.50221668e-03, -3.55471927e-03, -2.32602470e-03, 1.80475460e-03,
       3.34525947e-03, 2.92138313e-03, 4.76604002e-03, 4.70634596e-03,
       -3.83876730e-03, -1.60705682e-03, 2.61690537e-03, -1.47845910e-03,
       5.67901554e-03, 4.81334544e-04, 7.46692345e-03, 6.11603772e-03,
       2.77383556e-03, -5.45402523e-03, 6.96112495e-03, 1.25053935e-02,
       -3.90870916e-03, -9.94465547e-04, -1.27468840e-03, 3.90664814e-03,
       2.86281138e-04, -1.83073967e-03, -7.93890283e-03, 7.22612487e-03,
       1.58725400e-02, -1.03834784e-03, 5.15109533e-03, -1.99763756e-03,
       1.02182222e-03, -9.36892908e-03, -1.24097848e-02, -6.62596012e-03,
       1.33737419e-02, 9.15191043e-03, -3.29120713e-03, 7.51641113e-04,
       -1.70713931e-04, 5.46173984e-03, 1.28837372e-03, -1.00183382e-03,
       -3.32961278e-03, 1.25862556e-02, 3.89660313e-03, -3.34570045e-03,
       -3.74193443e-03, -2.17803218e-03, 5.90292690e-03, -3.83137772e-03,
       -8.97341687e-03, -3.07750865e-03, 6.21025357e-03, 1.86215639e-02,
       4.72180499e-03, 3.48910457e-03, -2.14507896e-03, 5.71910990e-03,
       -2.87043769e-03, -4.48428886e-03, -1.04013144e-03, 1.58577599e-02,
       6.63758954e-03, 4.42853058e-03, 9.84962913e-04, -3.95014556e-03,
       8.55234824e-03, 3.99694359e-03, 1.63118704e-04, -1.65021583e-03,
       4.19853115e-03, -7.03757396e-04, -8.22703878e-04, -4.66460595e-03,
       -5.76488068e-03, 7.45952129e-03, 1.75819994e-04, -9.07259237e-04,
       6.43683271e-03, 4.27584816e-03, -1.68050278e-03, 1.38054474e-03,
       3.48623027e-03, -8.09014961e-03, 5.67767117e-03, -3.04693240e-03,
       -2.25664256e-03, 2.47077458e-03, 4.89451864e-04, 1.84993888e-03,
       5.27072884e-03, 4.04849323e-03, 1.00119074e-03, 5.09236008e-03,
       3.30687454e-03, -6.38878532e-03, -2.54409900e-03, 1.11500453e-03,
       -9.23640255e-05, -3.05783586e-04, 3.32181877e-03, 7.80858425e-03,
       4.00424609e-03, 2.14545312e-03, -4.18335585e-05, 8.95685237e-03,
       7.39874830e-03, -9.83055215e-04, 6.43742457e-03, 1.00489995e-02,
       2.55500712e-03, 1.20201951e-03, -2.97098025e-03, -1.06283566e-02,
       -3.79369687e-03, -7.25266617e-03, -6.90509842e-05, 4.87589324e-03,
       7.50954729e-03, 1.43619841e-02, -1.25517696e-03, 6.40393526e-04,
       -2.81403190e-03, 3.45165492e-03, -1.15613500e-03, -2.90459767e-03,
       -3.16925580e-03, -6.00312231e-03, 4.14220104e-03, -2.66705314e-03,
       -2.88407109e-03, 9.16052610e-04, 6.37846859e-03, 3.61089059e-03,
       3.10828700e-03, 2.15639197e-03, -6.26022229e-03, -2.84782844e-03,
       -1.66057819e-03, -6.28610421e-03, -7.98198103e-04,
       -6.98016665e-04, 2.24466622e-03, -1.20693655e-03, -1.48253434e-03,
       8.00113659e-04, 8.44277721e-03, 5.85241895e-03, -8.71041382e-04,
       2.10246257e-03, 4.29803086e-03, 9.69917863e-04, -2.06867699e-03,
       -1.01511774e-03, 1.10185647e-03, -3.85838957e-03, -4.72236983e-03,
       -2.55821622e-03, 2.31870078e-03, 4.40746453e-03, 5.15893567e-03,
       1.23723014e-03, -2.18599522e-03, -4.09859419e-03, -4.66913823e-03,
       -7.73245352e-04, -1.22886465e-03, -2.61931098e-03, 2.36918032e-03,
       4.83834837e-03, 2.27855844e-03, 3.56192497e-04, -3.23130563e-03,
       -3.99389956e-03, -5.49140340e-03, 2.38569500e-03, 5.04473317e-03,
       5.50575228e-03, 4.28699190e-03, 2.13300390e-03, -1.64690975e-03,
       -1.20874646e-03, -4.95928992e-03, -6.65696664e-03,
       -3.20419250e-03, 2.02309317e-03, 6.23565167e-03, 1.26547171e-02,
       2.40193284e-03, 3.05465958e-03, 1.64590369e-03, -5.24343224e-03,
       -1.82968862e-02, -5.34027908e-03, 1.51087926e-03, 4.82120644e-03,
       3.69452848e-03, 5.91681385e-03, 1.15779545e-02, 1.85895921e-03,
       7.94570614e-03, 8.23684130e-03, 1.02630421e-03, -1.05482934e-03,
       7.02286419e-03, 2.39004195e-03, -4.26369207e-03, 5.95853024e-04,
       1.87295396e-03, 1.34817567e-02, -2.98446859e-03, 2.12049417e-04,
       -4.81040403e-03, -4.33401298e-03, -1.08809331e-02, 2.03964836e-03,
       1.06179705e-02, 2.75446009e-03, -4.15076123e-04, -4.24962165e-03,
       -6.65323855e-03, -8.33160244e-03, 1.99539470e-03, 1.30060490e-03,
       4.27231658e-03, 6.88772555e-03, 5.33805741e-03, 4.62939916e-03,
       -1.63478106e-02, -5.74687216e-03, -1.30077815e-02, 1.52486225e-03,
       6.69539301e-03, -4.55678720e-03, -3.69118247e-03, -3.33569851e-03,
       1.02362568e-02, 1.71087794e-02, 6.88913092e-03, 4.47246839e-06,
       -7.07713515e-03, -7.61908200e-03, -6.36595627e-03,
       -7.68396165e-03, -9.34797246e-03, -1.05872459e-03,
       -1.16616336e-03, 2.92917714e-04, 1.47662563e-02, 2.11652648e-03,
       -3.13617359e-03, 9.23061569e-04, 1.89009740e-03, 9.67640139e-04,
       7.13694328e-03, -2.13560602e-03, -2.79645459e-03, -1.09262997e-02,
       5.48756856e-04, 5.68086887e-03, -4.67516948e-03, -7.57680449e-04,
       -7.50051904e-03, -8.60179402e-03, -1.82354748e-02,
       -1.57294236e-03, 5.48717193e-03, 8.00906029e-03, -1.23372197e-03,
       -7.19270553e-04, 1.68217346e-03, 1.34829408e-03, 1.63123570e-03,
       -7.09265179e-04, -7.43559620e-04, 1.09577198e-02, 3.04077147e-03,
       1.70073169e-03, 2.14710832e-03, 2.85499089e-04, -3.31024802e-03,
       5.71281162e-05, 3.63394036e-03, -4.96615982e-03, -3.87673732e-03,
       -8.82590748e-03, -5.24669047e-03, 5.52061247e-03, 3.09556746e-03,
       1.46594088e-04, -5.44540351e-03, -6.95036212e-03, -8.12685350e-04,
       5.69574395e-03, 9.07802489e-03, 6.46319427e-03, 4.99479286e-03,
       8.25854018e-03, 1.15762421e-04, 1.52740465e-03, -2.82400893e-03,
       -8.30126740e-03, -4.81921760e-03, -5.50862029e-03, 3.42242420e-03,
       3.87609680e-03, -4.51560860e-04, -2.66523613e-03, 3.33598023e-03,
       3.86965857e-03, -8.86536785e-04, -3.43017047e-03, -8.71231221e-03,
       -2.99770664e-03, 1.10658715e-02, 9.40154248e-04, -2.53340858e-03,
       4.04084194e-03, 7.31097069e-03, 4.56061587e-03, 4.38192487e-03,
       -1.21518166e-03, 4.31201002e-03, 1.68759981e-03, 1.00230356e-03,
       -2.96516670e-03, -1.54235371e-04, 7.21000228e-03, 1.90025638e-03,
       2.64731911e-03, -5.40246023e-03, -2.60086241e-03, 2.70713912e-03,
       -1.23224501e-03, -4.10263950e-04, -2.76943727e-04, 8.88392795e-03,
       6.42803032e-03, 1.38483504e-02, -3.56566953e-03, -1.95795158e-03,
       5.95722161e-03, -4.73522488e-03, -6.65289629e-03, -5.44730341e-03,
       1.23956213e-02, -4.30573616e-03, -1.40020996e-03, 3.31844261e-04,
       -3.88290442e-04, -1.82217080e-03, -3.96962278e-03, 2.11573299e-03,
       4.59448621e-03, 1.07941804e-02, 8.45423259e-04, 9.52670723e-03,
       2.07898021e-03, 4.09656175e-04, -8.48158612e-04, -5.06217498e-03,
       9.85326944e-04, -2.60063726e-03, 3.95901920e-03, -3.78561392e-03,
       3.68600502e-03, -9.52080265e-03, -6.69441465e-03, 3.58619681e-03,
       -2.25901371e-04, 3.50772729e-03, 4.11077961e-03, 2.56427308e-03,
       -4.75920504e-03, 5.46737667e-03, -1.03925467e-02, 3.89660685e-03,
       -1.31603982e-03, -1.18076173e-03, 2.04176665e-03, 5.72365662e-03,
       -7.81411873e-05, 3.84430494e-03, 1.61542045e-03, -5.56345563e-03,
       -2.59939837e-03, 2.08268734e-03, -7.47352000e-03, -8.75464547e-03,
       -1.46240520e-03, -4.02231375e-03, 2.59969756e-03, 3.66735202e-03,
       1.06864935e-03, 3.68993497e-03, 7.51265511e-03, -3.03773489e-03,
       2.49369798e-04, 6.16040034e-03, 1.57255633e-03, 5.15846943e-04,
       1.36490352e-03, -3.87192774e-03, 7.31475977e-03, -3.37363058e-03,
       -1.00474469e-02, -1.08782470e-03, 1.12809543e-03, 4.57280595e-03,
       -3.05789360e-03, 2.11644243e-03, 2.80864595e-04, 1.61321688e-04,
       3.91154038e-03, -7.19120959e-03, -4.71618166e-03, -9.56899137e-04,
       8.94762855e-03, 8.31854995e-03, 5.54048037e-03, -1.21156033e-03,
       4.27575177e-03, 2.58919899e-03, -1.83247647e-03, 3.89704108e-03,
       7.63966143e-03, 8.80581851e-04, 5.80324791e-03, 2.76569696e-03,
       -4.74651391e-03, 5.54480683e-03, -4.78376169e-03, -7.15437951e-03,
       -5.62397647e-04, 7.35650538e-03, 1.03401393e-02, 7.23746698e-03,
       8.89450777e-03, 4.21947939e-03, 3.54941213e-03, -4.48292261e-03,
       -2.81426823e-03, 8.73432611e-04, 5.45249833e-03, 1.71310705e-04,
       5.29119931e-03, 3.87374545e-03, -1.15283963e-03, -2.36334978e-03,
       -7.14366266e-04, 2.56340811e-03, 3.89004638e-03, 9.62685049e-03,
       7.82528613e-03, 5.44386916e-03, 1.61054416e-03, 2.15613880e-04,
       1.14381348e-03, -9.28809241e-05, 2.45851162e-03, 5.62497007e-04,
       -7.55229441e-04, -2.06068362e-04, 5.30426740e-04, 4.87156771e-03,
       3.16247065e-03, -1.42937677e-03, -6.52962411e-03, 6.43650710e-04,
       3.24686128e-03, 2.83157057e-03, 3.09160328e-03, -4.97959438e-04,
       -7.43030291e-03, -4.26571025e-03, -6.62026228e-03,
       -7.71700917e-03, 5.47070114e-04, -3.22801364e-03, 2.33599427e-03,
       2.77039758e-03, -6.66105049e-03, -8.04120582e-03, 3.84446653e-03,
       -6.76314486e-03, 2.96705635e-03, 5.41040848e-04, 8.62601097e-04,
       -6.18880149e-03, 2.90050451e-03, -2.49673240e-03, -1.64729368e-03,
       3.23058199e-03, 1.15658471e-03, -1.73366466e-03, 1.30351435e-03,
       5.18906536e-03, -2.44422792e-03, 2.33160128e-04, 1.58495212e-04,
       6.72928337e-03, 5.42646227e-03, -2.57793162e-03, -2.74381693e-03,
       -4.69564600e-03, -1.00960839e-03, 1.85829983e-03, 5.50321443e-03,
       -4.70910175e-03, -7.27316132e-03, 4.83845267e-03, -4.20060847e-03,
       -3.56469944e-04, -2.59806099e-03, 3.20832973e-04, -2.61944206e-03,
       -1.95073255e-03, -7.33753026e-04, -1.57562201e-03, 2.03568721e-03,
       -1.07214996e-03, -8.47308990e-03, -4.95750178e-03,
       -1.93220994e-03, 1.37698906e-03, 6.90312765e-04, 2.29382841e-03,
       7.30453245e-03, 2.81166262e-03, -4.29149903e-03, -3.68251046e-03,
       -8.54021753e-04, -7.16849405e-04, -2.59558368e-03, 7.72853789e-04,
       -1.27671473e-03, 5.55627572e-04, 1.50606502e-03, 4.85088862e-03,
       -8.32332484e-03, 1.44788483e-03, 2.79114000e-03, 2.85534770e-03,
       -3.73043527e-04, 9.35906253e-04, 1.85956387e-03, -4.31861961e-03,
       -9.06620268e-03, -1.02003980e-02, 6.95418147e-03, 5.04647801e-03,
       8.38401914e-03, 1.26834761e-03, 2.71983934e-03, 5.22277551e-03,
       -1.82763883e-03, -4.00437834e-03, -2.97187665e-03, 3.89725581e-04,
       3.95544432e-03, -2.74800789e-03, -1.59096718e-03, -8.41339133e-05,
       -6.25003688e-03, 6.63730025e-04, 8.40411894e-03, 1.05439348e-03,
       3.25293699e-03, 5.15625766e-03, 3.45479872e-04, -2.56501348e-03,
       -3.76607594e-03, -6.97965920e-03, -6.13973383e-03, 1.13409245e-03,
       -1.27589228e-02, -1.74227124e-03, 5.72005054e-03, 3.02122813e-03,
       2.58602016e-03, 2.12072860e-03, -2.68357294e-03, 4.61072754e-03,
       -1.21143868e-03, -1.72143173e-03, -2.90061906e-03, 5.69477864e-03,
       2.91434699e-03, 1.63846149e-03, -3.16486880e-03, -5.10504469e-03,
       7.87183736e-03, 5.34086069e-03, 1.61713932e-03, -1.41381321e-03,
       -1.03320321e-03, 1.74486032e-03, -5.17902477e-03, -9.82042123e-03,
       -8.47711973e-03, -6.28540060e-03, 6.69207540e-04, 8.94225948e-03,
       1.58726165e-04, -9.17733123e-04, 1.08637323e-03, 4.32636309e-03,
       -3.87428352e-03, 6.42644663e-05, -8.29723431e-04, 1.91554148e-03,
       -2.65325792e-03, -6.43014582e-03, -2.02824408e-03, 4.45284275e-03,
       -3.68621503e-03, -1.11784553e-02, -7.39780860e-03, 4.90824925e-03,
       1.41006685e-03, 1.46345538e-03, 2.48846016e-03, 2.30343780e-03,
       5.48058655e-03, 4.97347489e-03, -8.55402742e-03, 2.77869869e-04,
       9.89135727e-03, 4.37913602e-03, 1.18797207e-02, 3.03175510e-03,
       -1.14174571e-03, -3.00761266e-03, 2.88201962e-03, -2.53425469e-03,
       -6.15838310e-03, -6.58551045e-03, 1.91969029e-03, 4.87771071e-03,
       4.01712395e-03, -2.59271270e-04, 2.93980329e-03, 2.47979164e-03,
       1.48334622e-03, -7.93796591e-03, -1.29157985e-02, -1.12236803e-02,
       5.22717321e-03, 1.72108248e-05, -9.93826252e-05, 3.72229237e-03,
       1.03505515e-03, -7.89534394e-03, -2.84527149e-03, 5.52583393e-03,
       4.03479766e-03, -1.12464116e-03, 7.71445269e-03, 6.99020876e-03,
       6.47141319e-03, 7.47924205e-03, -2.08077277e-03, -6.57197600e-03,
       -1.41877483e-03, -2.10282416e-03, 3.28791281e-03, -1.54758140e-03,
       -5.86639578e-03, -4.88594465e-04, -5.71181718e-03, 2.26490316e-03,
       -2.92292284e-03, -8.89847707e-03, -6.90420577e-03, 7.46706687e-03,
       -3.38528724e-03, -7.06857303e-03, -3.69303511e-03,
       -7.19336933e-03, 4.87992633e-03, 1.33135598e-02, -1.51767710e-03,
       5.12452610e-03, 1.79696816e-03, 4.93361615e-03, 6.81480300e-03,
       -1.73318083e-03, -1.02723250e-02, 4.47599730e-03, -5.92140481e-03,
       -3.63690476e-03, 4.50361567e-03, 6.98200660e-03, 8.58142693e-03,
       -2.11865804e-03, -3.19347298e-03, -6.73243264e-03,
       -3.94113781e-03, 6.32042345e-03, -3.65490397e-03, 4.37588384e-03,
       1.49557411e-04, -5.56475157e-03, -8.07197299e-03, -1.53151725e-03,
       3.25905881e-03, 1.13929517e-03, 8.28560907e-03, -5.53802494e-03,
       -3.92249436e-04, -7.61175482e-03, -3.55778355e-03,
       -2.66845711e-03, 5.31256292e-03, -6.10608468e-03, 2.02129886e-04,
       2.20436559e-04, -4.17845044e-03, -9.42518003e-03, -2.14151642e-03,
       9.11256182e-04, -3.39966267e-03, -1.38365047e-03, 5.17863920e-03,
       -2.42120540e-03, 1.66010987e-02, 8.05498101e-03, 1.30837795e-03,
       -1.39257926e-02, -3.86591488e-03, -2.23779446e-03, 7.07669649e-03,
       -9.09139588e-03, 2.17456734e-04, 8.01363494e-03, 1.35534210e-03,
       -1.58437490e-02, -4.30415245e-03, 6.76764757e-05, 2.98076216e-03,
       9.21163987e-03, -5.47406916e-03, 4.40363958e-03, 7.45331496e-03,
       4.84693679e-04, -5.69557492e-03, -4.80864570e-03, -2.09065169e-04,
       3.80116538e-03, 3.45470849e-03, -4.24114848e-03, 1.30427594e-03,
       4.51580435e-03, 7.16479146e-04, -1.08355442e-02, -5.87848062e-03,
       -1.52573735e-03, -3.90036497e-03, 4.96726832e-04, -1.78847299e-03,
       5.60587039e-03, 1.38941631e-02, 8.67836550e-03, -9.30008199e-03,
       -1.96169550e-03, 4.67937859e-03, 8.50444485e-04, -6.33422937e-03,
       -6.08072616e-03, -1.27644720e-03, 1.09184496e-02, 2.50293920e-03,
       -8.48502293e-03, -4.19134693e-03, 1.82849378e-03, 4.17154422e-03,
       6.85592089e-03, -3.29930661e-03, 2.56193359e-03, 2.54514115e-03,
       -5.83399087e-03, -9.13044531e-03, 3.61723680e-04, 7.34551530e-03,
       4.63912176e-04, -2.71939323e-03, -4.23200522e-03, 3.79930972e-03,
       5.17239235e-03, -3.08801857e-04, -1.15942233e-03, -5.80810010e-03,
       3.10678268e-03, 3.86340590e-03, 1.55829219e-03, -3.02354083e-03,
       3.06654634e-04, 1.47595408e-03, -2.10706168e-03, -1.03760147e-02,
       5.58816781e-03, 2.65309960e-03, 2.65050074e-03, -3.37867369e-03,
       -8.70716665e-03, -2.06255307e-03, -1.57347089e-03,
       -4.94791195e-03, -1.16241782e-03, -2.87228753e-03, 3.42507637e-03,
       -4.98042069e-03, -3.38821043e-03, -6.02710061e-04, 7.36487517e-03,
       5.03285043e-03, -2.54603568e-03, 1.19483448e-03, -2.72872951e-03,
       1.02792910e-04, -7.45954085e-03, -1.51999775e-04, 8.61799461e-04,
       9.72397625e-03, -2.16976929e-04, -3.25059751e-03, 6.63436484e-03,
       -9.78800002e-04, -1.18591601e-03, -5.00218943e-03,
       -4.83033573e-03, -5.15524810e-03, 4.22115391e-03, 1.63551862e-03,
       -7.31582195e-03, 3.62478837e-04, -3.40757542e-03, -4.17298451e-03,
       -3.16138892e-03, -3.78122809e-03, -1.19550887e-03, 1.46939035e-03,
       -1.49431278e-03, 2.45302473e-03, 9.41235665e-03, 1.09901186e-03,
       1.16999331e-03, 1.45842589e-03, 4.29924577e-03, 1.16797620e-02,
       1.19115170e-02, 6.65756455e-03, -5.41019673e-03, 5.08534396e-03,
       1.87701604e-04, -1.75663235e-03, 3.50311934e-03, 1.07158651e-03,
       6.06119400e-03, 6.25503436e-03, 5.55417361e-03, -5.54046640e-03,
       4.84572817e-03, -2.65005394e-03, -3.08040925e-03, -2.55452516e-03,
       -2.45193602e-03, -8.83256493e-04, -5.37495548e-03,
       -3.99638317e-04, -2.14476883e-03, 1.82512624e-03, -3.92910885e-03,
       1.47457083e-03, 2.19212007e-03, -2.21644156e-03, -7.05809426e-03,
       -6.78741280e-03, -1.91429528e-04, -5.17880358e-03,
       -3.18934675e-03, 5.43785607e-03, -1.66993681e-03, 1.19428756e-03,
       1.13125169e-03, 5.99606568e-03, 1.59001944e-03, -2.53741629e-03,
       -2.71236664e-03, 8.69751163e-03, 1.20049785e-03, -1.71212014e-04,
       -1.81808823e-03, 4.01689252e-03, 9.96142626e-03, 1.49299088e-03,
       -1.92810060e-03, -8.79413346e-05, 3.78048373e-03, -2.75428244e-03,
       -2.53525772e-03, 4.18786472e-03, 7.59441347e-04, -6.72286469e-03,
       -4.23460081e-03, 1.83906499e-03, 7.97788962e-04, -2.70960561e-04,
       -3.65636428e-04, -3.12677142e-03, 4.46393900e-03, 3.01076076e-03,
       -1.07506360e-03, -4.82759613e-04, 4.53045126e-03, -3.81788518e-03,
       1.97253586e-03, 4.14099824e-03, 3.10982717e-03, -5.45437587e-03,
       6.10768446e-04, 1.06321014e-02, 7.36269727e-03, 4.69500170e-04,
       4.49815625e-03, 5.24202455e-03, -5.31819649e-04, 5.27545018e-03,
       4.91218176e-04, -3.86058749e-03, 4.31481749e-03, -3.49936867e-03,
       -7.63412507e-04, -1.55186479e-03, -2.13256013e-03, 6.71209441e-03,
       4.32189496e-04, -5.10050915e-03, 1.89054641e-03, 1.21671728e-04,
       2.88476073e-03, 7.23416405e-03, -8.62480447e-05, 6.55686576e-03,
       2.58819247e-03, 9.01776075e-04, 2.16185744e-03, 8.25808663e-03,
       8.81725864e-04, -3.86362546e-03, 5.67188673e-03, 4.43735829e-04,
       3.98217654e-03, -2.57265288e-03, 4.79607889e-03, 3.33765103e-03,
       2.20878283e-03, 9.59018897e-03, -1.02000067e-03, -4.30041365e-03,
       -2.64801900e-03, -4.90407227e-03, 2.97644176e-03, 1.89606030e-03,
       -2.17200792e-03, 8.94924812e-03, 1.03781857e-02, 1.55218854e-03,
       -3.82838043e-04, 7.53375411e-04, -4.82915813e-04, -3.30572802e-04,
       2.44471920e-03, 6.54819480e-04, 4.54940461e-03, 4.09627147e-03,
       -3.09943745e-04, -4.75019478e-04, 1.62952358e-03, -4.54176567e-04,
       1.60376111e-03, -6.89091114e-03, -4.34808992e-03, 2.70836428e-03,
       1.15358259e-03, -4.52804845e-03, 3.57829779e-03, 1.48643146e-03,
       6.90284325e-03, -6.74014853e-04, 3.26170702e-03, 4.44163941e-03,
       5.26372856e-03, 1.39320195e-02, 3.21660284e-03, 1.15345535e-03,
       1.32178934e-03, 8.20278481e-04, -4.98896837e-03, 1.63105933e-03,
       1.07260756e-02, -1.28891272e-03, 8.23602895e-04, 7.94821535e-04,
       3.25723225e-03, 2.70144106e-03, 1.53560878e-03, -6.78977231e-04,
       1.42829522e-04, 3.02081020e-03, -1.39329146e-04, 5.48331672e-03,
       -9.81496554e-03, -8.60402302e-04, -1.77380152e-03,
       -1.68077624e-03, -7.46676698e-03, -4.48732171e-03,
       -4.36666515e-03, -5.69467852e-03, 3.82864894e-03, -5.33109112e-03,
       6.68495661e-04, -1.85414136e-03, -4.31950809e-03, 3.10770795e-03,
       -2.90435983e-05, 2.51831231e-03, -6.31994847e-03, -1.08506123e-03,
       -5.33972541e-03, -3.59266205e-03, -4.00937721e-03, 8.42264108e-03,
       -2.77931162e-04, 1.78320019e-03, 3.90630681e-03, -2.58981553e-03,
       -2.92907050e-03, -2.10085744e-03, 8.60987348e-05, -2.96155747e-04,
       1.40576181e-03, -6.05034130e-03, -5.23749925e-03, -1.58122729e-03,
       -8.80377367e-03, -7.64704484e-04, -2.38537532e-03,
       -9.12015559e-04, -6.88365987e-03, -3.88060859e-03,
       -1.74744858e-03, -3.44846281e-03, 1.31488207e-03, -8.80596973e-03,
       -2.42370856e-03, 9.36784199e-04, -1.24329596e-03, -9.74397920e-03,
       -3.88193014e-03, 1.38251198e-04, 3.91261280e-03, 3.69427819e-03,
       6.85441820e-03, 1.28045706e-02, 7.03019832e-05, -6.35592313e-03,
       5.20958845e-03, -7.18499650e-05, 7.46844150e-03, 5.23222657e-03,
       4.06051008e-03, 9.84007260e-04, -7.90133048e-03, -5.41978795e-03,
       -1.01072975e-02, 5.95590891e-03, 4.39742906e-03, -6.21071877e-03,
       2.04146490e-03, 6.42898586e-03, 1.11410124e-02, 8.28253012e-03,
       -6.77185971e-03, -6.83414284e-03, -1.77584914e-03,
       -5.92625001e-03, -3.63522628e-03, -3.07680946e-03,
       -1.63374876e-03, -9.62349772e-03, -8.81631114e-03,
       -1.29600465e-02, -6.59727771e-03, -2.46171001e-03,
       -9.38915648e-03, 2.82598753e-03, -1.23241241e-03, 4.08751104e-04,
       1.81708473e-03, -2.96991854e-03, -2.40074564e-03, -6.94722263e-03,
       5.51612535e-03, 2.53501185e-03, -4.08321526e-03, -2.92496895e-03,
       -4.10457095e-03, -7.68113742e-03, -7.47871585e-03, 2.86091794e-03,
       4.31379085e-05, 4.10799962e-03, 1.92872633e-03, -4.66631725e-03,
       -8.80812947e-03, -6.41167583e-03, -2.95996363e-03, 6.55948604e-03,
       1.31286355e-03, 2.04886110e-05, 4.12518065e-03, 2.38266704e-03,
       -7.30585167e-03, -9.48768016e-03, -1.45000489e-02,
       -7.34789111e-03, 5.13772992e-03, 8.80820304e-03, 5.31906961e-03,
       6.98018121e-03, 5.86271100e-03, 3.48944147e-03, -1.90155127e-03,
       -2.88905762e-03, -8.60946625e-03, -3.74791631e-03,
       -8.51996265e-06, -3.29351315e-04, 9.82183847e-04, 6.01746701e-03,
       1.11872063e-03, 3.92879359e-03, -3.18615511e-03, -6.52675517e-04,
       4.14017309e-03, -4.47649043e-03, -2.48838100e-03, -7.12610269e-03,
       -8.85864021e-04, 3.40106734e-03, -4.76742256e-03, -8.77540186e-03,
       -5.05578471e-03, 5.56291919e-03, 4.26510582e-03, 3.99180548e-03,
       3.49112786e-03, 6.32698927e-03, 5.24058612e-03, 1.45415671e-03,
       -2.24460475e-03, 7.18233362e-03, 7.70626916e-03, -3.03743267e-03,
       3.85843217e-03, -2.00950773e-03, 5.46481693e-03, 1.74315035e-04,
       4.42152050e-05, -4.78625647e-04, -1.56880205e-03, -4.55597765e-04,
       4.05684905e-03, 3.47643229e-03, -4.60990844e-03, -3.86336353e-03,
       6.74537942e-03, -6.46987185e-03, -3.88822082e-04, -4.55431873e-03,
       -2.52421433e-03, 4.96742222e-03, 8.29716772e-03, -1.02866068e-02,
       1.44002668e-03, 5.06825559e-03, 1.07856905e-02, 8.45731050e-03,
       7.18717463e-03, -4.29169321e-03, 1.58330030e-03, -8.68844392e-04,
       -4.17376496e-03, -2.85139278e-04, 1.31403748e-02, 9.89054982e-03,
       1.20271929e-02, -1.51347730e-03, -2.69587268e-03, 1.62825803e-03,
       5.45659149e-03, -3.32477875e-03, 1.02702565e-02, -6.49166934e-04,
       -4.44065826e-03, 3.86066386e-04, -2.03130976e-03, -5.32077299e-03,
       -3.80820804e-03, 1.93022401e-03, -1.04355356e-02, -1.90291740e-03,
       4.87182336e-03, 1.98585074e-03, 1.95709406e-03, 2.31467304e-03,
       -1.63990085e-03, -1.24228373e-03, 4.66635823e-03, -8.03043135e-03,
       4.70639346e-03, 1.12020625e-02, 7.17573159e-04, -1.23068714e-03,
       -4.33146674e-03, -2.80335126e-03, -3.85072525e-03, 2.73789791e-03,
       1.81902153e-03, 1.20413722e-02, 1.50012020e-02, 4.35014861e-03,
       9.21955705e-03, 4.90572629e-03, 1.24906981e-03, -6.01808075e-04,
       2.75794812e-03, -4.01497167e-03, 1.13635045e-02, 4.06051194e-03,
       -6.27738555e-05, 4.27309424e-04, 2.55742390e-03, -3.47810658e-03,
       -2.61544855e-03, -1.32875063e-03, -6.72298949e-03, 3.25214537e-03,
       -4.66960203e-03, -7.05309398e-03, -1.79943605e-03, 1.63070648e-03,
       -1.49947809e-04, -8.57512746e-03, -1.15001213e-03, 1.86602352e-03,
       3.28700966e-03, 8.51894263e-03, 5.57993213e-03, 6.76121656e-03,
       4.38426126e-04, 5.31257014e-04, -3.71589535e-03, -7.48926029e-03,
       -2.10436876e-03, 1.20119750e-02, 2.41517264e-04, 1.48721202e-03,
       -2.11792206e-03, -5.85757103e-03, -1.47439493e-03,
       -7.09419604e-03, -5.19783422e-03, 2.36954400e-03, 1.58112850e-02,
       -7.59977568e-03, -7.55932461e-03, 3.93843930e-03, 4.99219447e-03,
       5.85926510e-03, 2.03900854e-03, -7.02526595e-05, 4.64675063e-03,
       5.24169859e-03, -6.42305380e-03, -2.41852901e-03, 2.94225221e-03,
       4.00168821e-03, 3.46605852e-03, 3.86892469e-03, 4.63805394e-03,
       3.24181397e-03, -1.00271311e-03, 4.08349931e-03, -8.35810322e-04,
       4.29849606e-03, -4.72806580e-03, 6.32262835e-03, 5.04315132e-04,
       -2.83059012e-03, 3.28588742e-03, 2.00821534e-02, 4.48925421e-04,
       -8.98974424e-04, 5.10868989e-03, -2.40444278e-04, 1.68823209e-02,
       3.04910145e-03, 7.68940372e-04, -8.90215684e-04, 4.10734763e-04,
       -6.10744231e-04, 4.05999925e-03, 5.26640797e-03, 7.88957067e-03,
       1.08196158e-02, -9.11311508e-05, -3.84537294e-03, -3.25568905e-03,
       -5.78336127e-04, -1.00735975e-02, -2.40663951e-03, 5.76613890e-03,
       6.51103025e-03, 7.62716029e-03, -6.21425034e-03, -7.74606178e-03,
       1.63899804e-03, -2.13357829e-03, -1.84060889e-03, 1.37726136e-03,
       6.79254532e-03, 7.61677092e-03, 1.18580349e-02, 9.94643662e-04,
       -1.18120073e-03, -4.41902783e-03, -4.61423164e-03,
       -9.16800369e-03, -2.33624666e-03, 5.85129159e-03, 7.43929390e-03,
       8.01677629e-03, -1.76488119e-03, -2.35989969e-03, -1.03573054e-02,
       -7.37964455e-03, -1.19651724e-02, -7.77020166e-03,
       -1.29554351e-03, -4.77036519e-04, 3.48607753e-03, 1.84788805e-04,
       -2.21558893e-03, 6.61536446e-03, -4.83998982e-03, -4.06410685e-03,
       -3.67052318e-03, -1.76769181e-03, -4.72419197e-03, 7.24314433e-03,
       6.53794594e-03, -6.48547604e-04, 7.47074606e-03, 2.43103877e-03,
       -1.15363700e-02, -1.26357609e-03, 1.36685313e-03, 1.93783210e-03,
       1.09815020e-02, 2.18690629e-03, 2.17566150e-03, -3.63741396e-03,
       -1.07411742e-02, 1.29536993e-03, 5.47051243e-03, 9.37860366e-03,
       6.25649514e-03, 1.10808956e-02, 4.31616092e-03, -4.12659283e-04,
       4.57282783e-03, -2.66704912e-04, -4.95540211e-03, 3.16402584e-04,
       4.70953388e-03, -6.79364253e-04, -4.56169189e-04, -1.50112610e-03,
       -3.64200096e-03, 2.53328402e-03, -3.01621924e-03, -7.30603049e-03,
       -1.67945528e-03, 2.45653372e-03, 1.00765871e-02, -2.73572048e-03,
       1.74750865e-03, 5.44596603e-03, 5.31084486e-04, -2.81716743e-03,
       3.18493787e-03, 8.10884871e-04, 5.76564251e-03, 3.85900191e-03,
       -7.24678452e-04, 4.15957626e-03, -2.01984146e-03, 2.28459528e-03,
       -2.26899923e-04, 4.70790255e-04, 9.22472740e-04, 3.41036706e-03,
       9.82071087e-03, 4.87859501e-03, 2.19584443e-03, -1.24374099e-04,
       5.33628557e-03, -1.95563864e-03, -1.05794799e-02, -6.43380871e-03,
       -3.65146843e-04, 4.89399210e-03, 2.42813351e-03, 4.98210546e-03,
       -3.01027251e-03, 2.46813986e-03, 9.94107104e-04, -7.21283071e-03,
       -7.73852784e-03, -1.28907245e-03, 3.27708246e-03, 3.32426443e-03,
       -6.76468387e-03, -1.09734759e-02, 1.37282899e-04, 1.97249861e-03,
       -2.63478048e-03, -1.20427413e-03, -2.11404893e-03, 1.99302728e-03,
       8.88649933e-03, 1.69247773e-03, 5.06612647e-04, 5.66814421e-03,
       2.61950819e-03, 1.88120804e-03, -3.38151760e-04, -1.28675997e-03,
       7.36549729e-03, 1.03664109e-02, -1.25318905e-03, -1.51818513e-03,
       3.23572452e-03, 5.01358788e-03, -2.58705113e-03, -5.52658085e-03,
       1.46948523e-03, 5.38366707e-03, 1.83343107e-03, -1.18378848e-02,
       -6.74141804e-03, 3.18141319e-05, 3.06830113e-03, 2.65896064e-03,
       -8.02043534e-04, 3.12825199e-04, 4.16296069e-03, 4.01955377e-03,
       -7.22533884e-03, -5.31208096e-03, -4.10614215e-04, 2.25553778e-03,
       -1.20856345e-03, -1.79875991e-03, 6.15010643e-03, 5.99835487e-03,
       4.17840574e-03, -3.33829410e-03, -7.26615451e-03, -2.35544913e-03,
       -2.31299666e-03, 5.40829031e-04, 7.59786984e-04, 5.54388389e-03,
       6.08939270e-04, -2.27835480e-04, -2.22329586e-03, 6.12194475e-04,
       -4.80549817e-04, -1.28253060e-03, -4.90528764e-04,
       -5.95619576e-03, -4.73749451e-03, 1.80188846e-03, -4.97094635e-03,
       -7.73158623e-03, -7.23109581e-03, -1.71687978e-03,
       -1.75034872e-03, -1.32915413e-03, 1.71965430e-03, 8.81879218e-03,
       6.63563795e-03, 5.81705128e-04, -1.01933898e-02, -9.25209746e-03,
       -4.47985530e-03, -7.25591648e-03, -7.35676521e-03,
       -3.78870848e-03, -5.13245631e-03, -5.58496627e-04,
       -8.38379655e-03, -4.07072529e-03, -1.23127352e-03,
       -3.16239847e-03, -6.84570894e-03, -1.19435135e-03, 6.49554236e-03,
       8.16014316e-03, 7.20133400e-03, 3.53183644e-03, 2.30223624e-04,
       6.08959096e-03, -2.91606935e-04, -5.57499239e-04, 1.52449997e-03,
       -2.93413177e-03, 1.40276528e-03, -7.69209757e-04, -1.70038939e-02,
       -7.75758550e-03, -2.89316708e-03, -3.25897592e-03, 5.06673241e-03,
       -2.83679203e-03, -5.12870215e-03, -7.07479427e-03,
       -1.67342613e-03, -1.73593294e-02, -3.11106863e-03, 7.07876822e-03,
       3.07974196e-03, 1.17997266e-03, -2.84512597e-03, 2.96414061e-03,
       3.79877724e-03, 8.81425978e-04, -1.09734433e-03, 1.95078109e-03,
       7.08504627e-03, 2.56076135e-04, 1.93488738e-03, -1.12025216e-02,
       -9.66746546e-03, -7.33437622e-03, -6.76233205e-04,
       -5.42426016e-03, 4.36985213e-03, 8.67670402e-03, 6.67967426e-04,
       -8.34074058e-03, -5.97597519e-03, -3.07204411e-03,
       -4.67327470e-03, -1.49316809e-04, -7.01875193e-03,
       -5.29654790e-03, 7.67502422e-03, 7.40994117e-04, -5.94991399e-03,
       -1.43985460e-02, -4.85584419e-03, -4.11729235e-03,
       -1.32982081e-04, -1.39760263e-02, 4.69754310e-03, 8.61521345e-03,
       2.03903602e-03, -1.56135615e-02, -7.06467265e-03, -9.95251909e-03,
       -1.11450572e-02, -8.78901687e-04, -1.06151635e-02,
       -3.97009496e-03, 6.96725398e-03, 3.96290049e-03, -8.26726202e-03,
       -7.07693072e-03, -6.38852268e-03, -1.05501311e-02,
       -5.34614222e-03, -1.14350254e-02, -3.90803209e-03, 5.46277221e-03,
       -6.87206979e-04, -9.13861208e-03, -7.15727394e-04,
       -1.83441362e-03, -5.36047714e-03, -3.06533487e-03,
       -8.22172314e-03, -1.37356180e-03, 4.16974956e-03, 9.17517289e-04,
       -7.26048695e-03, 3.11445748e-03, 1.69403828e-03, -9.64095164e-03,
       -6.90426026e-03, -9.56078898e-03, -1.49440102e-03, 9.72932263e-04,
       -5.91931457e-04, -8.79349932e-03, 5.32521540e-03, 5.00502670e-03,
       -3.90226790e-03, -5.62818442e-03, -1.03978338e-02,
       -5.23233041e-03, 7.53902737e-03, 8.48614052e-03, 1.75554084e-03,
       6.61209784e-03, -1.31619730e-04, -8.88342224e-03, -8.90141912e-03,
       -1.52007630e-02, -5.07811876e-03, 6.01522066e-03, -8.87838542e-04,
       -3.98427853e-03, 5.29622077e-04, -9.90452128e-04, -4.51222900e-03,
       8.62842891e-04, 5.16057573e-03, 2.55457126e-03, 8.14102497e-03,
       -4.54964442e-03, -6.98863761e-03, 5.89800533e-03, 1.95412687e-03,
       -3.01594893e-03, -4.75799199e-03, -9.54843685e-03,
       -7.57008092e-03, 6.29946869e-03, -6.01602718e-03, -4.54506557e-03,
       7.25999568e-03, -1.67192554e-03, -5.12267556e-03, -2.16035894e-03,
       1.94725150e-03, 4.81637800e-03, 1.78988166e-02, -1.22973253e-03,
       -2.27105338e-04, 7.04276655e-03, 1.04485475e-03, -3.55265616e-03,
       -4.37662471e-03, 4.56204696e-04, -2.24639545e-03, 1.19434176e-02,
       -3.15820053e-03, -2.37550121e-03, 7.15554692e-03, 1.39986500e-04,
       -3.18271574e-03, -3.04490444e-03, -1.06752058e-03, 4.16266918e-03,
       1.40915709e-02, 3.76947783e-03, 5.64054633e-03, 7.14167533e-03,
       -3.09410435e-03, -9.21822153e-03, -5.64073212e-03,
       -6.30282192e-03, 1.67006999e-03, 2.28540087e-03, 5.42590534e-03,
       1.44784860e-02, 5.06545184e-03, 2.82626762e-03, -3.51043628e-03,
       -1.53614988e-03, 1.32229342e-03, 2.41660583e-03, 8.52988753e-03,
       3.42058600e-03, 8.42438603e-04, 3.25934310e-03, 9.88711836e-04,
       -9.89441178e-04, -2.76002451e-03, -2.15425575e-03, 1.61551579e-04,
       5.52994525e-03, 4.95952507e-03, 4.17452352e-03, 1.05886636e-02,
       1.93788612e-03, -7.34617235e-03, -5.02062310e-03, -5.44386159e-04,
       2.50557461e-03, 7.04488205e-03, 2.08129757e-03, 1.12646604e-02,
       5.78473462e-03, -1.14153710e-03, -5.35005936e-03, -4.53003822e-03,
       -9.10963211e-03, -5.07827208e-05, 4.74744104e-03, 3.43758566e-03,
       8.42253037e-04, 2.86937319e-03, 1.45556731e-03, 2.65841861e-03,
       -5.34183055e-04, -7.26835424e-06, 6.06127875e-03, 6.46658614e-03,
       5.11469087e-03, 5.44334622e-03, 9.81869176e-04, -4.50652838e-03,
       -7.73830293e-03, -1.55005546e-03, -2.34366697e-03,
       -2.01986614e-03, 1.02535123e-02, 4.90414305e-03, -2.90817954e-03,
       1.84212450e-03, -7.08031980e-03, 8.86597845e-04, 1.66470872e-03,
       2.84723617e-04, -2.69730622e-03, 4.17669769e-03, 1.76280027e-03,
       -2.36220891e-03, 6.61828741e-03, -3.66285653e-03, 4.13625082e-03,
       2.63712066e-03, -4.17023757e-03, 5.80617739e-03, 1.09532094e-02,
       -5.99949446e-04, 9.10300016e-03, -7.69800041e-04, -9.05076601e-03,
       -4.51989612e-03, 1.32286840e-03, 4.64568008e-03, -1.29314912e-02,
       1.73013273e-03, 1.91521225e-03, -3.91152641e-03, -2.46385275e-03,
       -7.12958630e-03, 1.67144486e-03, -5.46180224e-03, 1.29407225e-03,
       4.44080099e-04, 2.72947224e-03, -1.62167090e-03, 1.66298321e-03,
       6.22281991e-03, -6.76449016e-03, -6.50324952e-03, -8.84792651e-04,
       -5.55238512e-05, 1.16934034e-03, -6.26647496e-04, -6.40578428e-03,
       8.73055588e-03, 5.55598829e-03, -7.89748225e-03, -7.24996906e-03,
       2.81167589e-03, 9.92094260e-03, 6.24906679e-04, 2.81282002e-03,
       -1.20111567e-03, 8.88322387e-03, -5.26577840e-03, -5.60697587e-03,
       -2.57964683e-04, -5.44785289e-03, -9.80340317e-03,
       -3.21316416e-04, 1.98087236e-03, -7.41310697e-03, -2.75301142e-03,
       -4.53797344e-04, -1.07216241e-03, 3.84810683e-03, -4.39777877e-03,
       -4.30609751e-03, -3.96439666e-03, 3.02369532e-04, -2.35446147e-03,
       3.24220542e-04, 5.13312360e-03, -3.73990252e-03, -6.75556716e-03,
       2.28991164e-04, 6.89644646e-03, 4.55923658e-03, -1.24924548e-03,
       -5.93698537e-03, 5.73703926e-03, 3.05845519e-03, -2.57196533e-03,
       -4.00438579e-03, -4.34339978e-03, -2.30645412e-03,
       -7.47271907e-03, 3.42430430e-03, -2.00772937e-03, 3.52944620e-03,
       7.01148878e-04, 3.14524630e-03, -8.83138971e-04, -2.56028725e-03,
       9.41227539e-04, 3.63131263e-03, -4.17770538e-03, -5.96076343e-03,
       -1.90559309e-03, 5.83878811e-03, 9.46096797e-03, -1.25199044e-03,
       -6.43444434e-03, -1.96690275e-03, -4.72270930e-03,
       -3.16337426e-03, 2.99492362e-03, 4.84645832e-03, 5.80240879e-03,
       3.38667701e-03, -6.73503894e-03, -5.98214008e-03, 6.80040056e-03,
       -1.03307925e-02, 1.38095091e-03, 5.31016942e-03, 4.73928545e-03,
       -2.87906732e-03, -1.64072379e-03, -6.67266827e-03,
       -7.19346944e-03, 1.30840647e-03, -6.79926306e-04, 5.40077407e-03,
       4.20773169e-03, -6.24038395e-04, 7.32194399e-03, 1.20431343e-02,
       -1.94389222e-03, -9.80453379e-03, 3.48550617e-03, -1.02939252e-02,
       -1.87853177e-03, 7.73331011e-03, 3.66004230e-03, -5.22891618e-03,
       3.25880479e-04, -9.22403979e-06, -1.29301231e-02, 4.85369144e-03,
       -4.78512235e-03, 2.89169140e-03, 1.87121844e-03, -8.28954484e-03,
       -7.68359809e-04, -3.99209000e-03, 7.82144140e-04, -5.11392159e-03,
       4.24242998e-03, 3.70277627e-03, 5.93476556e-03, -1.43916032e-03,
       6.41105289e-04, -5.02864132e-04, -8.83171521e-03, 3.89093114e-03,
       -5.90839516e-03, 2.66872277e-03, 2.57858098e-03, 2.27861688e-03,
       -2.59922515e-03, 2.38627940e-03, -9.99856181e-03, -9.60273109e-03,
       2.96213757e-03, -8.23708996e-03, 2.47672875e-03, 1.49253581e-03,
       5.46636339e-03, 2.33602198e-03, -5.87682519e-03, -5.13751619e-03,
       -8.58983397e-03, 6.03685807e-03, -1.51324878e-03, 7.14018708e-03,
       1.07321923e-03, -2.18726491e-04, -3.65513400e-03, -4.37150244e-03,
       -5.82186272e-03, 8.16164538e-03, 1.18333939e-02, 1.28774727e-02,
       5.69718797e-03, -4.80109267e-03, 2.56356760e-03, 1.11837080e-03,
       -1.00474516e-02, -2.16901256e-03, 1.72804191e-03, 3.81673337e-03,
       -3.64175625e-03, -8.73130187e-03, -2.64755171e-03, 1.82940299e-03,
       -1.03786639e-04, -5.00657735e-03, 1.74794998e-03, 2.09663576e-03,
       2.27508182e-03, 7.01036165e-03, 2.33040098e-03, 2.31400668e-03,
       5.57763968e-03, -3.00702173e-03, -5.27777104e-03, 7.74179306e-03,
       3.48677090e-03, 3.63437296e-03, 1.70883461e-04, -5.58021059e-03,
       3.31689650e-03, 5.18297171e-03, 4.59131581e-04, 1.31134782e-03,
       -8.46404582e-03, -5.77285141e-03, -6.13898924e-03,
       -6.26237225e-03, -4.06935392e-03, 3.22772353e-03, -1.83090451e-03,
       -1.78040937e-03, 2.82031164e-04, -8.01232271e-03, -6.99755270e-03,
       -1.21175535e-02, -1.08335949e-02, -1.90903246e-03, 8.04148428e-03,
       1.54359650e-03, 2.95861252e-03, 2.49069370e-03, -8.34708859e-04,
       -2.16148491e-03, 1.54809223e-03, -5.58971660e-05, -6.43547066e-03,
       9.73232184e-03, 3.97579931e-03, 1.10337953e-03, 5.12453495e-03,
       1.69356179e-03, 1.81181895e-04, -3.95439332e-03, -6.11441117e-03,
       8.58867366e-04, 1.21534653e-02, 9.72254016e-03, 5.62304212e-03,
       8.61011166e-03, -3.45475576e-03, -5.99683030e-03, -1.13795949e-02,
       -1.19266268e-02, -4.93485155e-03, -6.43715786e-04,
       -3.15857260e-03, -2.74231192e-03, 3.17182392e-04, -3.85132967e-04,
       -4.22391482e-03, -3.94180883e-03, 1.32728554e-03, -1.31997152e-03,
       -2.66087451e-03, -5.30971563e-04, -4.17292863e-03,
       -4.52620501e-04, 3.17526120e-03, 4.52622725e-03, -3.74243385e-03,
       -4.06986190e-04, -4.34873393e-04, 3.04068835e-03, 2.00757990e-03,
       -3.36195854e-03, -4.57394123e-03, 7.60988332e-03, 7.96921737e-03,
       5.94193302e-03, 1.07196290e-02, 6.16781879e-03, -1.10751425e-03,
       -3.07647022e-03, -8.04182328e-03, 3.40066617e-03, -5.20666922e-03,
       -4.29504551e-03, -2.49390956e-03, 3.86966392e-03, -8.36834311e-03,
       5.52851299e-04, -1.72443601e-04, -7.88492989e-03, -4.26888699e-03,
       -4.69941413e-03, -2.37855548e-03, 7.35662703e-04, -2.00952447e-04,
       -7.55757280e-03, 2.65947427e-03, -2.27841525e-03, -6.43955730e-03,
       -9.07242065e-04, 1.17544550e-02, 5.80051728e-03, 4.67440067e-03,
       4.35971515e-03, 1.10967224e-03, -2.28737760e-03, -1.58342195e-03,
       -1.04963109e-02, 1.05510019e-02, 1.11306729e-02, 5.71090356e-03,
       -1.12737634e-03, 1.52961802e-04, -7.95016473e-04, 1.38157257e-03,
       8.13515577e-03, -6.81859907e-03, 6.43563224e-03, -3.01953568e-03,
       -1.36620004e-03, -2.94942735e-03, 2.94793514e-03, 1.88892148e-03,
       1.93193997e-03, 4.97799413e-03, -2.47646542e-03, 1.79220893e-04,
       -1.19948898e-04, -5.62605821e-03, -1.15401985e-03, 4.12239321e-03,
       -4.91539529e-03, 2.23289663e-03, 1.61148515e-03, -9.34928842e-03,
       -5.54884791e-05, 8.11723713e-03, 5.19653037e-03, 1.07695197e-03,
       4.15334012e-03, 9.21110041e-05, 1.79873384e-03, 9.97407828e-03,
       2.01977650e-03, 4.47161542e-03, 2.30887742e-03, -1.69983468e-04,
       -7.01486459e-03, -1.07476802e-03, -2.64912902e-04,
       -1.05962693e-03, 1.36497233e-03, 4.09386447e-03, 5.84402215e-03,
       2.49980437e-03, -5.01343631e-04, -4.02888376e-03, -2.32814974e-03,
       -4.80224285e-03, -6.40355211e-05, -1.04584941e-03, 6.57920260e-04,
       6.13766676e-03, 1.92593900e-03, 5.62730769e-04, -2.70019122e-03,
       -3.23484908e-03, -2.42214347e-03, 1.54501281e-03, -4.50865540e-04,
       7.37621030e-03, 1.29816523e-02, 1.53290504e-03, -5.56704217e-05,
       -1.17970202e-02, -7.55528733e-03, -7.64280790e-03,
       -3.72714736e-03, -1.97745604e-03, 4.97690588e-03, 4.23719035e-03,
       -1.92042696e-03, -5.47489570e-03, -4.02299082e-03,
       -1.01792999e-02, -1.47481228e-03, -1.29406713e-03, 3.58374254e-03,
       8.53512436e-03, 9.32715368e-03, 3.81044019e-03, -3.09524272e-04,
       1.45417033e-03, -3.55325453e-03, -5.83711965e-03, 1.29726395e-04,
       -5.64686442e-03, 4.82583139e-03, 1.59443561e-02, -1.31890574e-03,
       -2.11740122e-03, 3.58196138e-03, -5.09466045e-03, 1.69346959e-03,
       -3.29145300e-03, -5.58985304e-03, -5.76602342e-03, 2.91349296e-03,
       1.19784359e-04, -5.02802245e-03, -3.23740998e-03, -6.26617530e-03,
       -6.83068484e-03, -6.78314921e-03, -2.40812567e-03, 1.05769821e-02,
       1.63227078e-02, -7.89674558e-03, -8.63028411e-03, 2.68475222e-03,
       -1.85436697e-03, -4.99826157e-03, -6.04570098e-03,
       -4.59918659e-03, 4.67518764e-03, 8.39316100e-03, -4.72897338e-03,
       -1.67797448e-03, 6.09694934e-03, 2.24391697e-03, 5.54164406e-03,
       2.16287118e-03, -9.58537508e-04, -6.81309309e-03, -6.12070668e-04,
