%YAML:1.0
---
detector: !!opencv-object-detector-hog
   winSize: [ 200, 200 ]
   blockSize: [ 16, 16 ]
   blockStride: [ 8, 8 ]
   cellSize: [ 8, 8 ]
   nbins: 9
   derivAperture: 1
   winSigma: 4.
   histogramNormType: 0
   L2HysThreshold: 2.0000000000000001e-01
   gammaCorrection: 1
   nlevels: 64
   signedGradient: 0
   SVMDetector: [ 4.69167856e-03, 8.11346807e-03, 1.43619301e-02,
       5.44149755e-03, 8.10255203e-03, 1.04901828e-02, -5.23202994e-04,
       -1.37029504e-02, -9.31858900e-04, -1.24081108e-03, 2.88297841e-03,
       7.45878601e-03, 2.29358743e-03, 9.10934992e-03, 3.27469897e-03,
       -4.14598593e-03, -2.15792917e-02, 1.05588546e-03, 7.95474567e-04,
       3.82473972e-03, 1.02800401e-02, 5.59977954e-03, -9.26123373e-03,
       4.92253061e-03, 1.43742729e-02, -6.35068165e-03, -4.13311820e-04,
       2.49425531e-04, 1.03096589e-02, 4.68371995e-03, 4.36648028e-03,
       1.85575755e-03, -1.55826064e-03, 2.17092270e-03, -7.27383699e-03,
       1.24010630e-03, -6.18990930e-03, -5.55151887e-03, -8.12948681e-04,
       2.40679341e-03, -1.80232490e-03, -1.58186979e-03, 8.16291489e-04,
       9.65123239e-04, 1.18348049e-03, -1.24174636e-02, -1.21056875e-02,
       -1.39833870e-03, 3.45008424e-03, 3.00533161e-03, 5.44630317e-03,
       9.87497345e-03, 9.44295805e-03, -1.54095259e-03, 7.02257268e-03,
       6.99068466e-03, -2.83954735e-03, 9.00643226e-03, 5.58736175e-03,
       -7.41591398e-03, -8.60623550e-03, -9.66234971e-03,
       -5.11917286e-03, 2.74068979e-03, -2.13438389e-03, 1.06622500e-03,
       1.76779814e-02, 1.80356409e-02, 1.05387729e-03, 2.83801230e-03,
       3.80357355e-03, -5.54369530e-03, -1.32951951e-02, -8.55403766e-03,
       -7.57667050e-03, -7.17500877e-03, 5.34641650e-03, 2.69243936e-03,
       5.56629570e-03, -4.09619557e-03, -8.69915821e-03, 2.72898888e-03,
       2.39768857e-03, -3.21199838e-03, -5.90820052e-03, -1.66877378e-02,
       2.25171447e-03, 1.80316833e-03, -6.89683808e-03, 1.56423077e-03,
       1.42472959e-03, 2.28100619e-03, 5.24771214e-03, 1.31635489e-02,
       1.04906773e-02, -1.44436184e-04, 5.11637656e-03, 4.03553527e-03,
       -5.38389711e-03, 4.81435610e-03, 9.54886619e-03, 1.06163118e-02,
       -8.74523772e-04, -1.27279768e-02, 3.42651946e-03, 7.74225267e-03,
       -3.99866560e-03, -2.16628052e-03, 8.74455087e-03, 1.14607411e-02,
       7.14698248e-03, 2.26536882e-03, -1.49771450e-02, 7.95237906e-03,
       2.64040288e-03, -2.23598816e-03, 3.15958099e-03, -2.64723157e-03,
       7.06902519e-03, 8.26889474e-04, 1.85950496e-03, -1.94347568e-03,
       3.40019097e-03, 1.31051720e-03, -7.50067265e-05, -7.43540656e-03,
       -2.52898899e-03, 3.63318669e-03, 6.90053869e-03, -6.85865898e-03,
       -1.59501936e-03, 8.41940753e-03, 9.17329732e-03, -3.22880480e-03,
       -7.76892342e-03, -1.52598508e-02, 6.50808390e-04, 2.95520877e-04,
       -5.06168697e-03, -3.91063793e-03, -3.88651295e-03,
       -2.30280519e-03, 4.67895617e-04, -4.43937862e-03, -2.26357137e-03,
       -4.35600756e-03, -1.41984839e-02, -2.98916060e-03,
       -1.40187447e-03, -2.20626267e-03, -3.33847385e-03,
       -2.01896415e-03, -5.77557553e-03, -2.11819494e-03,
       -7.90415052e-03, -1.53590944e-02, -9.05100070e-03, 6.39929855e-03,
       5.54658007e-04, 3.30937980e-03, -1.74428988e-03, -1.04021106e-03,
       3.60013801e-03, 4.83513996e-03, -7.62991607e-03, -7.06343446e-03,
       -9.58337449e-03, -1.18547454e-02, -8.75566248e-03, 4.05993126e-03,
       6.52124872e-03, 7.31706247e-03, 1.00470744e-02, -3.33331642e-03,
       4.86747187e-04, -6.71988260e-03, -9.63383261e-03, 5.24118484e-04,
       6.44752569e-03, 8.08474328e-03, -1.05665997e-02, 8.34691280e-04,
       -6.07909868e-03, -8.09932128e-03, 7.47461664e-03, 8.49433988e-03,
       3.54189379e-03, -3.52319935e-03, -1.47349983e-02, -1.21302102e-02,
       4.96668788e-03, 3.59566230e-03, -1.20788002e-02, 1.92575320e-03,
       3.54420277e-03, -4.75394167e-03, -5.27344504e-03, -1.24780228e-02,
       1.65515242e-03, 1.07498858e-02, 9.48890636e-04, -9.85146267e-04,
       4.31000767e-03, 3.85826244e-03, 8.79895315e-03, 9.96914413e-03,
       1.19089487e-03, -5.68870921e-03, 1.24466447e-02, 4.34941892e-03,
       -1.08059887e-02, -4.32690606e-03, 5.08530531e-03, 1.70416257e-03,
       3.56677081e-03, -5.79087064e-03, -4.51887446e-03, 1.24403257e-02,
       1.28139416e-03, -3.23231635e-03, 1.01928739e-02, 1.29535841e-02,
       1.45309081e-03, -1.34099193e-03, -1.03180585e-02, 2.47864635e-04,
       7.51994038e-03, -7.41628045e-03, -1.66270314e-04, 7.13207526e-03,
       7.19371659e-04, 1.20151928e-02, 5.66389086e-03, -6.88103447e-03,
       -6.99756341e-03, 1.73880253e-02, 5.08145988e-03, -3.40170925e-03,
       1.20486524e-02, 9.31225065e-03, 3.81452427e-03, 8.94280057e-03,
       -6.33307034e-03, 1.20554212e-03, 1.14653688e-02, 8.42869049e-04,
       -3.45785008e-03, 8.45654216e-03, 1.38093543e-03, 2.59384024e-03,
       1.98723096e-03, 1.49781606e-03, 8.32804851e-03, 8.86742026e-03,
       -3.26601090e-03, 1.96560659e-03, 3.65399988e-03, -1.47936558e-02,
       -8.07109289e-04, 7.46528525e-03, -2.75817234e-04, 9.04034171e-03,
       2.30101799e-03, 2.63224798e-03, 8.28520488e-03, 6.13938225e-03,
       -9.16460995e-03, 3.47005785e-03, 4.32790536e-03, 7.83423334e-03,
       7.17054354e-03, 1.15396855e-02, -2.63770181e-03, 1.07900577e-03,
       4.85649891e-03, -9.92718525e-03, -1.06960512e-03, 2.52349465e-03,
       5.76308090e-03, 3.70749994e-03, 9.42026824e-03, 4.43483284e-03,
       1.04429061e-02, -3.19261407e-03, -1.72691476e-02, -5.41205704e-03,
       6.82528422e-04, 6.81802351e-03, 6.44236291e-03, 5.06831042e-04,
       1.15398876e-03, 1.61920360e-03, -3.07038985e-03, -6.71245018e-03,
       5.35365893e-03, 2.36212136e-03, 1.27662870e-03, -6.07428141e-04,
       1.90844340e-03, 9.80732404e-03, 1.44978901e-02, 6.31447998e-04,
       -1.32102445e-02, 1.72792654e-03, 1.97301008e-04, -2.36251974e-03,
       4.74860147e-03, 9.22953151e-03, 3.21388920e-03, 5.40093705e-03,
       -2.18456089e-02, -1.53821446e-02, 5.53918180e-05, -2.12464272e-03,
       2.53327377e-03, 3.94657301e-03, -4.06707724e-04, 4.38924925e-03,
       1.05136093e-02, -6.65501086e-03, -1.90924946e-02, 2.65035382e-03,
       2.86170794e-03, 3.10401968e-03, 1.86830189e-03, 9.18232545e-04,
       6.87168678e-03, 2.06899568e-02, 7.95207731e-03, -6.51791273e-03,
       -4.88423323e-03, -1.77473656e-03, -1.50138214e-02,
       -2.13667424e-03, 2.48507294e-03, 4.89941053e-03, 1.28406724e-02,
       1.40059562e-02, 4.05507162e-03, 1.89454772e-03, -3.56904580e-03,
       -1.01525970e-02, 9.37014725e-03, 3.05819372e-03, 2.26599490e-03,
       1.40170865e-02, 4.80567012e-03, -1.00770406e-02, -1.00846565e-03,
       4.56464291e-03, 2.17518839e-03, 6.32266374e-03, 1.12637104e-02,
       1.59228053e-02, 1.69346165e-02, 9.77036264e-03, -2.05087336e-03,
       7.18310475e-04, -4.82261227e-03, -2.48463033e-03, 7.75776862e-04,
       -3.70824756e-03, 2.62608728e-03, -1.07977586e-03, 8.57586134e-03,
       5.59772772e-04, -1.98462140e-03, -1.47303613e-03, -4.11624834e-03,
       2.03535892e-03, -2.07703537e-03, 1.20255901e-02, -4.02917666e-03,
       5.72593044e-03, -7.87056808e-04, -9.23975185e-03, 2.51876866e-03,
       -3.66179179e-03, -5.80747286e-03, 4.95080277e-03, 8.24448746e-03,
       -2.71202262e-05, 6.89173024e-03, 4.32690838e-03, 1.71910820e-03,
       -7.01571116e-04, -1.01434020e-02, 1.87842618e-03, 1.94587596e-02,
       1.26815783e-02, -1.25152580e-02, 1.26320040e-02, 1.06556239e-02,
       8.51153489e-03, 9.37247882e-04, -3.42145562e-03, 1.97918667e-03,
       6.82696328e-03, 1.56237073e-02, -2.48492509e-03, 3.48652410e-03,
       -2.65112310e-03, -5.86458948e-03, -5.87736815e-03,
       -7.53182685e-03, 6.09143171e-03, 5.08777471e-03, 1.55256055e-02,
       -9.42598935e-03, 7.54272006e-03, -1.98441884e-03, 1.42173812e-04,
       1.73630076e-03, 9.78102544e-05, 5.64232701e-04, 9.84540954e-03,
       9.29139368e-03, -1.57202128e-02, -2.62714364e-03, 3.98756284e-03,
       3.62353120e-03, -1.01001170e-02, -7.23411722e-05, 4.47662082e-03,
       7.44480640e-03, 1.06642917e-02, -1.03181629e-02, 2.37738830e-03,
       -7.88720697e-03, 1.14740315e-03, -5.29393414e-03, 3.78751545e-03,
       -2.01998954e-03, -5.81394741e-03, 7.99640082e-03, -4.96758753e-03,
       2.05577118e-04, 4.85106139e-04, 1.63110404e-03, 1.01561025e-02,
       5.28031215e-03, -1.11549506e-02, -8.52411985e-03, -5.04356390e-03,
       -8.79967399e-03, 3.95897543e-03, 2.89859320e-03, 2.24678070e-06,
       8.85068625e-03, 6.61682978e-04, -1.72423359e-04, -4.87506296e-03,
       -3.21534835e-03, -7.71352137e-03, -4.95231804e-03,
       -1.98040740e-03, 4.29961737e-03, 2.43265880e-03, 6.40018471e-03,
       5.27432821e-05, 5.17316908e-03, 4.57579408e-05, -1.65002868e-02,
       -5.67425787e-03, -3.05097993e-03, 4.68160817e-03, 9.37034376e-03,
       1.29498728e-02, -1.23985633e-02, -5.19928115e-04, -7.31220096e-03,
       -1.14466585e-02, -1.04160048e-03, -7.93157332e-03, 3.75334406e-03,
       1.12122418e-02, 3.52419447e-03, -6.07950566e-03, 3.74842761e-03,
       -4.32791095e-03, -7.56734656e-03, 7.83010013e-03, -1.40727935e-02,
       -3.66520579e-03, 1.76775758e-03, 4.56672022e-03, 9.91014019e-03,
       8.29160213e-04, -3.90112074e-03, -1.93631183e-02, -1.07715819e-02,
       -1.38604669e-02, -6.13249000e-03, 9.37613775e-04, 1.50320577e-02,
       1.58141609e-02, 9.01435781e-03, 2.62499414e-03, 1.95548800e-03,
       8.17843433e-03, -8.56438745e-03, -1.36306547e-02, -1.30961789e-02,
       3.83348088e-03, -1.35919743e-03, 5.71011507e-04, -3.37761547e-03,
       -4.83182212e-03, -6.65048230e-03, -1.21080484e-02, 3.03740660e-03,
       1.68265193e-03, 5.78147965e-03, 9.30954330e-03, 5.52210025e-03,
       -1.51021278e-03, -9.51241702e-03, -1.00363679e-02,
       -1.47287268e-03, 1.59897711e-02, 8.81821476e-03, 8.91886745e-03,
       1.16317207e-02, 4.64977464e-03, 3.55348270e-03, 2.69887457e-03,
       -9.33614932e-03, -1.14917718e-02, -6.48264540e-03,
       -1.26019940e-02, 5.67825278e-04, 1.26170022e-02, 9.00488067e-03,
       5.62580163e-03, -9.82659636e-04, -1.07670240e-02, -1.54817908e-03,
       1.87356560e-03, -8.71768780e-03, -3.37321102e-03, 6.89443713e-03,
       2.21625972e-03, 2.30862154e-03, -1.10236835e-02, -8.70258361e-03,
       2.90223840e-03, 4.60362434e-03, 6.84336666e-03, 5.37484838e-03,
       -1.02069555e-03, -8.14336352e-03, 4.00451681e-04, -5.13474550e-03,
       -6.28669572e-04, -4.93323011e-03, 1.86463236e-03, 4.84070694e-03,
       1.30275572e-02, 1.64395776e-02, 4.22117487e-03, 1.04012843e-02,
       3.88410385e-03, -1.57521816e-03, -3.67211970e-03, -1.83267659e-03,
       -1.52918883e-03, 7.50685297e-03, 4.70085116e-03, -3.13146017e-03,
       -5.20436559e-04, 3.99464648e-03, 4.39096568e-03, -9.78590804e-04,
       8.86688533e-04, 4.92863683e-03, 8.29002634e-03, -7.51741789e-03,
       -9.00379289e-03, -7.38503039e-03, 2.47600372e-03, 1.08673880e-02,
       -8.70060641e-04, 3.11701349e-03, 1.24609214e-03, 3.66408052e-03,
       -9.99428891e-03, -9.92101524e-03, -3.17717763e-03, 1.25056412e-02,
       -8.41440447e-03, -6.05542492e-03, -4.37686406e-03,
       -4.02381225e-03, -9.51352902e-03, -3.87532683e-03,
       -5.27300034e-03, -1.11406092e-02, 7.58003816e-03, 1.11612454e-02,
       6.68641645e-03, 1.35958400e-02, 9.29696206e-03, 9.99432988e-03,
       -2.99089006e-03, -4.91368957e-03, -1.15822991e-02, 8.39213375e-03,
       -3.34079238e-03, 6.14307914e-03, 2.09390448e-04, -4.90978314e-03,
       -3.27071617e-03, -4.70169913e-03, -7.16656214e-03, 7.53290718e-03,
       9.27588902e-03, -1.82785876e-02, -2.12222966e-03, 3.27271270e-03,
       5.58173703e-03, -7.84199871e-03, -2.34494987e-03, -6.68855675e-04,
       -5.20924572e-04, -1.66504551e-03, -2.07346361e-02, 5.01576485e-03,
       -6.35034172e-03, 3.33952252e-03, 2.05998571e-04, 4.36565839e-03,
       -7.75907934e-03, -2.48325011e-03, -7.69011164e-03,
       -7.57707935e-03, 7.23521970e-03, -2.85899686e-03, 2.67336634e-03,
       2.42376863e-03, -2.95564020e-03, 4.21052100e-03, -5.22169471e-03,
       -8.77619814e-03, -1.72593314e-02, 7.81454798e-03, -8.23981315e-03,
       -2.23458069e-03, -1.77694543e-03, -4.20482270e-03, 3.17975617e-04,
       -3.44963744e-03, -6.90296479e-03, -3.62754054e-03, 6.12468598e-03,
       1.08497159e-03, 1.30342534e-02, -1.81718462e-03, -2.67081265e-03,
       6.40648790e-03, -1.46431918e-03, -4.14145383e-04, 1.31692179e-03,
       1.26660697e-03, 6.28797628e-04, 1.27256727e-02, 3.57423606e-03,
       -1.93713570e-03, 7.79307960e-03, -9.70142079e-04, 4.54683788e-03,
       -4.95305145e-03, 2.90887943e-03, -5.78767247e-03, -8.75711732e-04,
       -1.54022221e-02, -6.76062051e-03, 8.64828192e-03, 3.83906998e-03,
       7.76340859e-03, 2.15042732e-03, -3.34747299e-03, -2.13645003e-03,
       1.85848761e-03, -1.37670282e-02, -1.51175652e-02, 5.42982714e-04,
       -3.53180245e-03, 1.09286001e-03, -1.05016250e-02, -4.67822514e-03,
       -5.89408772e-03, 1.13649201e-02, 1.76528434e-03, -1.14495466e-02,
       7.67329009e-03, 1.34770328e-03, 8.78646038e-03, -4.28433018e-03,
       1.34106260e-03, -3.38157848e-03, 1.85716664e-03, 2.05309727e-04,
       -1.11719985e-02, -2.14900076e-03, 2.49020266e-03, 3.39325197e-04,
       1.00149435e-03, -1.30635537e-02, -6.46764133e-03, 5.17664291e-03,
       1.34790642e-03, -4.42781486e-03, 1.39290607e-02, 6.88403146e-03,
       -1.70430879e-03, -8.59090593e-03, -1.38215208e-02,
       -3.29283695e-03, 2.99833459e-03, 1.06128026e-02, -2.97779590e-03,
       1.28888758e-02, 3.24315857e-03, 7.38028856e-03, 6.26722164e-03,
       2.36832793e-03, -2.22467561e-03, -2.63675582e-03, 1.59820728e-03,
       -7.87746569e-04, 1.13611054e-02, 4.00292734e-03, -1.24735376e-02,
       -1.54180021e-03, -1.43642817e-02, -1.27678248e-03,
       -9.59232170e-03, -7.09620910e-03, 3.52481566e-03, 1.23572936e-02,
       9.13658645e-03, 3.89549136e-03, -4.71943663e-03, -4.94276825e-03,
       9.47121996e-04, 6.14123652e-03, 1.10148573e-02, 3.75777017e-03,
       1.24302050e-02, 9.01619624e-03, 1.80432980e-03, -3.90046998e-03,
       -8.66300613e-03, 2.55335681e-03, -5.94424410e-03, -1.23057002e-02,
       -1.57209975e-03, 5.04452270e-03, 3.66830354e-04, -2.10776161e-02,
       3.79082095e-03, -6.19647279e-03, 4.81762737e-03, -1.36824585e-02,
       -5.85654704e-03, 2.72093737e-03, 1.71964965e-03, 2.95953080e-03,
       -1.34556107e-02, 4.89002559e-03, 1.87915750e-02, 7.56790070e-03,
       -1.22850738e-03, -1.81367248e-03, -4.73687745e-04, 3.02236341e-03,
       6.43417472e-03, -6.68072049e-03, 7.04518892e-03, 1.40831666e-03,
       2.01628450e-03, -7.89770205e-03, -1.85751282e-02, -1.06633753e-02,
       -1.03747202e-02, 6.37089787e-03, -9.65142809e-03, 3.34410416e-03,
       4.83461190e-03, 4.54202807e-03, 8.77500046e-04, -3.77577241e-03,
       1.42406847e-03, 7.88854714e-03, 6.55956334e-03, -3.21334321e-03,
       6.62365637e-05, 3.23448307e-03, 2.28013028e-03, 8.23364360e-04,
       7.83046358e-04, 9.50753782e-03, 7.16708135e-03, 9.10733920e-03,
       5.30526042e-03, 9.31811170e-04, -8.29041749e-03, -5.31735306e-04,
       4.35585447e-04, 6.02925476e-03, -4.67520533e-03, 1.20058970e-03,
       1.24384407e-02, -3.63152986e-03, 5.10088343e-04, -3.47296614e-03,
       -1.51539058e-03, -3.12449713e-03, -3.03222216e-04,
       -2.60726130e-03, 7.32300105e-03, 1.55213317e-02, 9.91317909e-04,
       4.74553974e-03, -1.15077952e-02, -1.54557580e-03, -3.46882967e-03,
       -5.06490376e-03, 1.75249309e-03, 4.54924721e-03, 3.26162577e-03,
       -1.92654331e-03, 7.89528899e-03, -8.97671503e-04, 8.00017035e-04,
       -6.92278147e-03, -4.27422952e-03, -1.11473654e-03, 9.50381253e-03,
       -4.26595611e-03, -8.17521755e-03, 1.15707684e-02, -5.56880143e-03,
       -2.69429805e-03, -4.66418127e-03, -1.38393082e-02, 3.85446614e-03,
       1.32844057e-02, 1.56049933e-02, -7.35032884e-03, 1.39339408e-02,
       2.31291004e-03, -1.57853332e-03, -1.93844177e-03, -7.79656833e-03,
       5.20892162e-03, 1.98910199e-02, 6.41108770e-03, -9.15778335e-03,
       6.09559298e-04, -4.59059188e-03, -5.45562338e-03, -2.69710273e-03,
       -9.13468190e-03, -5.41730318e-04, -2.46664230e-03, 2.16946378e-03,
       -3.95956077e-03, -1.37947667e-02, 8.00029747e-03, 6.81262417e-03,
       -7.80846132e-03, 2.89561896e-04, 5.96304424e-04, 1.16602040e-03,
       -1.77180220e-03, -1.63316657e-03, -1.66127440e-02,
       -1.06620297e-04, 1.02073206e-02, 5.93774239e-05, 3.18565592e-03,
       1.08745275e-02, 9.78067890e-03, 1.25335259e-02, 3.16250138e-03,
       -1.17435502e-02, 4.39689169e-03, -1.15631672e-03, -1.14684422e-02,
       1.01281926e-02, 1.10405602e-03, -9.35149903e-04, 7.27265282e-03,
       -3.33483564e-03, -2.37055384e-02, 1.95406540e-03, 4.80409572e-03,
       -2.78432877e-03, -2.24375795e-03, 1.20404339e-03, -2.21135374e-03,
       -3.61554587e-04, 9.23592888e-04, -6.85104961e-03, -4.90776123e-03,
       1.67190225e-03, 1.74544682e-03, 1.83504983e-03, -4.42650402e-03,
       -5.01158007e-04, 2.16752104e-03, 1.11440765e-02, 5.19705517e-03,
       -4.19937586e-03, -1.13631657e-04, 2.55774288e-03, -4.52689826e-03,
       -6.05879631e-03, 1.60869502e-03, 4.27346444e-03, 3.68838373e-04,
       -2.00321600e-02, -9.83989565e-04, 1.21734086e-02, 6.92536632e-05,
       -2.42332066e-03, -2.98151909e-03, 6.49690721e-03, 1.50421439e-02,
       2.51836755e-04, 9.99405864e-04, 9.25702509e-03, 9.24684666e-03,
       6.46318193e-04, 5.21548791e-04, 2.99046375e-03, 2.17058230e-04,
       2.37888610e-03, 4.04231809e-03, 2.49840523e-04, -1.03481242e-03,
       4.67912760e-03, 8.55425186e-03, 4.74076514e-04, -9.03261753e-06,
       -1.80098484e-03, -5.46485931e-03, -1.43664433e-02,
       -1.86340492e-02, -1.67022552e-03, 9.05353483e-03, 9.12365329e-04,
       -1.65672845e-03, 3.57744657e-03, -7.96106923e-03, 5.30625321e-03,
       -6.22563995e-03, 4.78192838e-03, 7.11154426e-03, 4.65929648e-03,
       -8.00336595e-04, -1.68275903e-03, 2.32510921e-03, -1.04976920e-02,
       1.83347473e-03, -1.17430286e-02, -1.34107778e-02, -4.93089529e-03,
       5.20384684e-03, 3.41484603e-03, -7.00130942e-04, -4.23275959e-03,
       -1.17292628e-02, -7.93879293e-03, -1.27750821e-02,
       -2.78697396e-03, 8.77250824e-03, 4.30960255e-03, 1.21737691e-03,
       -1.19160872e-03, -3.24448408e-03, -3.13254102e-04, 3.77007178e-04,
       -2.22508051e-03, 4.27924609e-03, -2.23646103e-03, -3.85248265e-03,
       2.80892686e-03, -3.79227451e-04, 5.49952965e-03, -6.66963728e-03,
       5.14123961e-03, -8.17929802e-04, -8.94524565e-04, -1.68181195e-05,
       1.80225834e-04, -5.83938835e-03, 1.82667165e-03, 9.30051412e-03,
       -2.01134640e-03, 1.15630394e-02, 9.13285185e-03, -4.21324652e-03,
       -1.57616346e-03, -6.53830543e-03, -3.94070661e-03, 3.47553939e-03,
       2.74734804e-03, 6.35847077e-03, 1.48226663e-05, -7.53440429e-03,
       -5.46329748e-03, -1.13572422e-02, -1.67681165e-02,
       -8.99943814e-04, -1.58388726e-03, 2.05802964e-03, 7.33311195e-03,
       1.77689944e-03, -9.05908272e-03, -3.09254415e-03, -1.12866005e-02,
       -1.10935513e-02, 1.34136202e-03, -3.23021039e-03, 7.65891885e-03,
       5.09691425e-03, 1.10962093e-02, -4.80070041e-04, -9.84000508e-03,
       -3.02097341e-03, -1.60179585e-02, -7.47609651e-03,
       -1.77640049e-03, 1.30175781e-02, 8.13957211e-03, 1.40241329e-02,
       -7.84053002e-03, 1.70668925e-03, -2.94889137e-03, -8.89408216e-03,
       -5.97575726e-03, 2.64439895e-03, 4.36537201e-03, 8.75287876e-03,
       2.52599712e-03, 2.65950453e-03, -1.75232755e-03, 4.35232045e-03,
       4.62973164e-03, 7.47802528e-03, -8.10886384e-04, 3.75335081e-03,
       5.23692882e-03, -8.89322441e-03, -3.12499260e-03, 4.56729997e-03,
       6.87151682e-03, -2.31784754e-04, -3.08589754e-03, -6.33411855e-03,
       -3.97313572e-03, 1.68211304e-03, 2.41965568e-03, 4.26130742e-03,
       -9.55699477e-03, 5.89548936e-03, -1.67140167e-03, 3.39463376e-03,
       1.30340282e-03, -8.24337621e-05, 9.86662880e-03, -6.19388372e-03,
       4.07275651e-03, -1.25659592e-02, 3.00462125e-04, -4.72163549e-03,
       1.34788593e-03, -2.52025551e-03, -5.66910347e-03, 1.20013359e-03,
       -5.56352222e-03, -3.12830380e-04, 1.16220778e-02, 1.20779444e-02,
       5.19749010e-03, 4.35103150e-03, -7.41238147e-03, -9.43695288e-03,
       -1.14013453e-03, 9.28820227e-04, 2.74798949e-03, 1.05376868e-02,
       6.15632907e-03, 5.39326807e-04, 2.27300264e-03, -7.73074105e-03,
       1.67645072e-03, 4.94608516e-03, -4.56630398e-04, 9.51398723e-03,
       5.65759046e-03, 3.91961494e-03, 1.94757839e-03, 5.96343866e-03,
       2.42386176e-03, -2.37321621e-03, -4.83846990e-04, 9.97520331e-03,
       8.83632246e-03, 6.52136793e-03, -4.23574995e-04, -1.04670525e-02,
       -5.36062336e-03, 2.26242119e-03, -4.36789356e-03, -2.51318305e-03,
       -1.19253492e-03, 9.92947351e-03, 7.61191407e-03, 4.31389827e-03,
       4.53146733e-03, 2.61001033e-03, -5.38548129e-03, -1.32781127e-02,
       2.77979852e-04, 5.45873633e-03, 1.07050724e-02, 7.44884182e-03,
       -5.88607043e-03, -1.03747635e-03, -1.85618163e-04,
       -4.98887571e-03, -2.62777857e-03, -4.58073616e-03, 2.19533220e-03,
       4.43102559e-03, 7.80468201e-03, 6.45986898e-03, -2.54350947e-03,
       -3.70393484e-03, 6.76557189e-04, -6.60639675e-03, -4.45131771e-03,
       4.72219754e-03, 6.93774223e-03, 5.45702083e-03, 4.84214164e-03,
       -3.79404495e-03, -7.87203293e-03, -2.01009389e-04,
       -5.06872218e-03, 9.97130992e-05, 4.12665401e-03, 6.26847241e-03,
       -1.04149822e-02, -9.65984771e-04, 1.60712353e-03, -2.00483901e-03,
       -1.40818581e-03, -4.07420238e-03, -4.89375088e-03, 7.14271935e-03,
       8.26079771e-03, -6.39016507e-03, -6.01127697e-03, -8.24092887e-03,
       -4.27976344e-03, 7.72808737e-04, 4.43280383e-04, 5.12069790e-03,
       7.48953316e-03, 1.14633830e-03, -1.18723949e-02, 2.85086548e-03,
       2.51036428e-04, -6.06855657e-03, 1.09239155e-02, 3.23407655e-03,
       3.58724385e-03, 1.43079767e-02, 5.14598191e-03, 4.80258651e-03,
       4.77458205e-04, -9.93170589e-03, -3.94514203e-03, 6.74632145e-03,
       -2.40011071e-03, -5.63263800e-03, -3.45261581e-03, 7.73456367e-03,
       8.19515530e-03, -6.72246004e-03, -7.61508802e-03, -4.50239517e-03,
       -2.29521608e-03, 3.29877180e-03, 3.20054730e-03, -1.49359845e-03,
       7.41061289e-03, 9.28074121e-03, -2.74857506e-03, 2.77143391e-03,
       -1.76665676e-03, 4.37209645e-04, 6.18224591e-03, -8.35402578e-04,
       1.28936677e-04, 2.59605912e-03, -2.17207428e-03, 1.73147058e-03,
       -6.18118420e-03, -4.77137184e-03, 4.02168557e-03, 1.03702885e-03,
       9.03994031e-03, -2.10769428e-03, 3.11467913e-03, -1.41449273e-02,
       -4.50009760e-03, -1.46104209e-03, 8.81853420e-03, 3.40925343e-03,
       -1.45290419e-03, 5.32667106e-03, 1.72201614e-03, 1.16609008e-04,
       4.04039258e-03, -2.77292402e-03, -2.39924644e-03, -1.31564360e-04,
       -4.50237002e-03, 5.55846933e-03, 1.25298323e-02, 1.06515577e-02,
       -8.10721423e-03, 1.33141838e-02, 1.33995991e-03, 2.03883811e-03,
       8.08856159e-04, 1.11952331e-03, -7.96635821e-03, 7.09428079e-03,
       1.60546484e-03, -1.86322641e-03, -1.24477157e-02, -1.60492957e-02,
       -8.70918098e-04, 7.46108126e-03, -6.74406206e-03, -2.81152432e-03,
       4.28706454e-03, 8.95600021e-03, 3.71091696e-03, 6.36205776e-03,
       2.28825025e-03, -1.41170633e-03, 1.37494924e-03, -8.65398254e-03,
       1.95879489e-03, 4.69219172e-04, 1.39279896e-03, -1.67706721e-02,
       -6.35855552e-03, -3.19344713e-03, -2.18402085e-04,
       -3.37269669e-03, 2.18964810e-03, 2.84821982e-03, -5.01234690e-03,
       1.62575277e-03, -1.19193671e-02, 4.35230602e-03, -7.61078158e-03,
       1.55378354e-03, -1.02819791e-02, -8.09948775e-04, 2.82464852e-03,
       -3.79053433e-03, -3.16518382e-03, -7.13126408e-03,
       -1.56153878e-03, -3.20302392e-03, -2.34608050e-03,
       -4.48842719e-03, -8.01339373e-03, -1.19917886e-03,
       -6.55577239e-03, 3.25334375e-03, 5.23268885e-04, 1.95151269e-02,
       2.22820119e-04, 2.67339125e-03, -9.83785186e-03, -1.01066781e-02,
       4.93421964e-03, 4.05084481e-03, 3.67083121e-03, -1.30124751e-03,
       5.98651171e-03, -1.29467482e-03, 5.63214207e-03, -9.22480132e-03,
       -3.33676068e-03, 1.18508460e-02, 1.23551944e-02, 1.20447658e-03,
       -6.06785296e-04, 2.83775269e-03, 1.46034756e-03, 7.05088768e-03,
       -8.67722556e-03, 1.64395245e-03, -2.54686078e-04, 5.40797878e-03,
       5.80771081e-03, -7.23154633e-04, -2.49251985e-04, 1.07144713e-02,
       9.51000117e-03, -1.45522598e-02, -1.52408760e-02, 7.20787002e-03,
       1.03637502e-02, 4.59627993e-03, 2.07428867e-03, -1.72321522e-03,
       5.39700454e-03, 7.07473932e-03, -1.67326573e-02, -1.35163898e-02,
       8.87538679e-03, 1.99378072e-03, -2.80318828e-03, -6.19790237e-03,
       -2.62027280e-03, -6.45204075e-03, -2.11827783e-03,
       -7.73457391e-03, 2.59315711e-04, 9.49923415e-03, 2.54188082e-03,
       1.14962822e-02, 1.03443088e-02, 3.56283784e-03, -5.37579181e-03,
       -8.78180657e-03, -1.54655399e-02, 9.92814021e-05, -3.13477911e-04,
       2.00253446e-03, 6.66569278e-04, 6.46031927e-03, -4.01485711e-03,
       -6.31250348e-03, 4.69021237e-04, -1.51964668e-02, -6.45958353e-03,
       8.14030599e-03, -2.02299725e-05, 3.11491848e-03, 6.45951787e-03,
       -8.69704969e-03, -4.78328252e-03, -6.98716193e-03,
       -7.15283677e-03, 1.34191301e-03, 4.87285201e-03, 6.32908847e-03,
       1.62706170e-02, 7.80285383e-03, 5.17369807e-03, -6.38037687e-03,
       -3.78355896e-03, -1.03890710e-02, -2.51241983e-03,
       -3.70142446e-03, 1.24984060e-03, 8.13777186e-03, 6.84113335e-03,
       5.60186198e-03, 1.34332397e-04, -4.13459260e-03, -1.63644534e-02,
       -1.40255932e-02, 4.39586723e-03, 2.55146576e-03, 8.45642388e-03,
       6.92715030e-03, -6.55206013e-03, -4.25882032e-03, -7.56089529e-03,
       -2.94806622e-03, 4.83093876e-03, -4.10581380e-03, -1.10312933e-02,
       -1.19475869e-03, 1.11038657e-03, -2.47267098e-03, -1.51844660e-03,
       2.26677349e-03, -6.24415511e-03, 2.21743295e-03, -1.05148717e-03,
       -6.07470237e-03, -3.17017839e-04, 3.52045451e-03, -4.29088995e-03,
       -6.73201820e-03, 5.82771981e-03, -2.09484273e-03, -5.20983012e-03,
       5.21234935e-03, -6.85060257e-03, -1.13961333e-02, 5.61627373e-03,
       -1.27668399e-03, -5.17248234e-04, 8.57497286e-03, 4.54094540e-03,
       5.21535985e-03, -2.72026146e-03, -1.28147127e-02, -6.70062518e-03,
       4.59299335e-04, -1.29842376e-02, -2.41678837e-03, 1.59673672e-02,
       1.25855831e-02, 5.10395458e-03, 1.98118039e-04, -8.07663519e-03,
       -4.86022281e-03, 8.14617239e-03, 1.19079195e-03, -8.27177893e-04,
       1.71885453e-02, 5.19757345e-03, 4.16131038e-03, 1.21075194e-03,
       -4.35046013e-03, -9.74868797e-03, 7.93222524e-03, 5.90812927e-03,
       2.50547496e-03, 3.97655088e-03, -1.51041872e-03, 4.04247362e-03,
       6.43353071e-03, -6.69020088e-03, -6.13543577e-03, -1.73936156e-03,
       1.01744654e-02, 4.60225297e-03, 2.24087294e-03, 8.55155929e-04,
       1.35681557e-03, -6.32718857e-03, -7.04615610e-03, -3.98244150e-03,
       1.22836726e-02, -1.50062982e-03, -9.30664968e-03, 2.71980255e-03,
       -6.33746246e-03, -3.41420365e-03, -8.70866887e-03,
       -1.32328523e-02, -5.81771974e-03, 8.36112071e-04, -4.41027805e-03,
       -6.97999028e-03, -2.37093423e-03, -6.71308115e-03,
       -1.18186073e-02, 4.67389310e-03, -4.70483303e-03, -7.26716453e-03,
       -6.60671759e-03, 9.73886903e-03, 4.91827843e-04, -6.54167961e-03,
       -1.40210276e-03, 1.60876091e-03, 2.08327617e-03, 1.05843619e-02,
       -4.20831610e-03, -6.00159960e-03, 4.94980393e-03, 3.12586408e-03,
       -3.99771146e-03, -6.34505600e-03, 1.77962516e-04, -1.34081848e-03,
       8.04082374e-04, -4.77823848e-03, -1.55802385e-03, 4.96591209e-03,
       4.60608717e-04, -9.57472622e-03, -1.85833906e-03, 3.25994275e-04,
       2.18050252e-03, 2.33433628e-03, -4.68479469e-03, -1.13458959e-02,
       -5.65625378e-04, -3.87219735e-03, -1.08030951e-02,
       -4.00935858e-03, 2.49310350e-03, 1.87354430e-03, 6.79290527e-03,
       3.74382641e-03, 4.35110321e-03, -3.56338592e-03, 1.19511259e-03,
       -8.84082541e-03, -2.52287835e-03, -2.47889571e-03, 8.47254042e-03,
       3.02316272e-03, 3.20315571e-03, 6.63849292e-03, 5.43876959e-04,
       -3.02715041e-03, -5.47353935e-04, 3.43897799e-03, -1.99306547e-03,
       2.42975331e-03, 4.04879311e-03, -4.84404480e-03, -9.91462730e-03,
       -6.24964479e-03, -7.59545946e-04, 1.39507814e-03, 3.21167218e-03,
       9.44083743e-03, -3.46066407e-03, 5.08304546e-03, 8.16080952e-04,
       4.35327273e-03, -1.70582309e-02, -3.01442854e-03, 6.98390184e-04,
       5.81311109e-03, 4.79439856e-04, -5.00461645e-03, -9.54210572e-03,
       -2.29011243e-03, 1.61186629e-03, 1.46805029e-02, 4.75109031e-04,
       -1.70685851e-03, 8.84068199e-03, -5.14146173e-03, -1.09111614e-04,
       8.22392176e-05, 2.84158764e-03, -5.37061971e-03, -1.10039371e-03,
       -5.06905699e-03, 4.15295968e-03, 4.23098914e-03, 1.17423222e-03,
       -9.17868037e-03, 3.04861223e-05, 3.25123401e-04, -2.95178965e-03,
       -2.78435834e-03, 2.99332803e-03, -1.54851098e-03, 9.72936768e-03,
       -9.10383277e-03, -3.41706094e-03, 8.27445276e-03, 1.95146899e-03,
       9.42419210e-05, -5.86857786e-04, -2.59259087e-03, 6.00723550e-03,
       1.53100584e-02, -1.45719026e-03, 9.77743766e-04, -2.38804473e-03,
       1.19668851e-02, 2.60062923e-04, -6.17131649e-04, -2.37645931e-03,
       3.06366431e-03, 1.63248391e-03, 2.90705095e-04, -4.02687676e-03,
       -4.42802068e-03, 8.07629246e-03, 7.20643904e-03, -7.49626942e-03,
       -2.80817418e-04, 6.11583330e-03, -2.23958772e-03, -9.35934391e-03,
       -5.15313307e-03, 3.45570571e-03, 9.82177909e-03, 6.77664718e-03,
       9.69416555e-03, -3.00929626e-03, 4.65055835e-03, 6.85150130e-03,
       1.21970684e-03, -1.15512768e-02, -6.03603572e-03, 5.76505112e-03,
       4.68840916e-03, 6.59589496e-05, 2.93095736e-03, 4.86422534e-04,
       2.88310787e-03, 7.76304724e-03, -4.96545155e-03, -2.61507207e-03,
       4.82888101e-03, 4.81095107e-04, -7.27103883e-03, 1.55614893e-04,
       4.48988564e-03, -9.96915973e-04, -1.08465115e-02, -3.68755078e-03,
       -3.12853185e-03, 6.09837333e-03, -4.66655847e-03, -6.35098387e-03,
       -3.78929521e-03, -3.77075485e-04, -4.62685304e-04,
       -4.82252287e-03, -2.48634908e-03, 2.09406926e-03, 1.47312889e-02,
       -7.17078149e-03, -8.27724766e-03, 4.17500082e-03, 7.40660308e-03,
       5.71223209e-03, 3.86099884e-04, 5.09195821e-03, 3.96637293e-03,
       1.35122808e-02, -1.12949423e-02, -2.38945801e-03, 8.38220213e-03,
       1.39856646e-02, 2.44944496e-03, 2.97873281e-03, -3.35874455e-03,
       -1.59212144e-03, 7.69669190e-03, -9.62589926e-04, -3.63037107e-03,
       -6.15908904e-03, -3.03111318e-03, -4.21300472e-04,
       -6.10917620e-03, 4.14948305e-03, 1.47602521e-03, 1.02913547e-02,
       4.69589978e-03, 1.60296876e-02, -5.84814372e-03, 1.58006418e-03,
       5.42445062e-03, -5.51402755e-03, -3.93483992e-04, 2.03649770e-03,
       8.81416444e-03, 7.21566204e-04, 3.55070480e-03, 6.91679958e-03,
       8.77513457e-03, 3.22046760e-03, 2.13870266e-03, 3.80385132e-03,
       6.36263564e-03, 2.08743522e-03, 3.55599751e-03, 3.66078177e-03,
       -1.27997613e-04, 1.20558194e-03, -3.26198316e-03, -2.52867729e-04,
       7.05281971e-03, 1.06539158e-02, 1.68214478e-02, -5.92438446e-04,
       1.03875389e-02, 1.67678029e-03, 8.80197249e-03, 6.68811146e-03,
       -1.82522205e-03, 5.74537087e-04, 1.22777363e-02, 1.00323800e-02,
       -2.08140607e-03, 1.87770824e-03, -4.40906873e-03, 5.48943412e-03,
       7.60367024e-04, -3.22686392e-03, 2.03325297e-03, 5.71298786e-03,
       8.93357862e-03, -8.01621820e-04, 3.16259218e-03, 4.16102959e-03,
       4.24701208e-03, 2.91182776e-04, 2.31122877e-03, -5.89002506e-04,
       -6.38974248e-04, 1.61425788e-02, 2.57178559e-03, -4.61072137e-04,
       1.04425002e-04, 1.17165567e-02, -8.33247148e-04, -9.43414494e-03,
       1.04453089e-02, -1.36569561e-03, 1.64636748e-03, 1.01964399e-02,
       8.76299664e-03, -8.39110944e-05, -4.85514104e-03, -8.00766144e-03,
       1.28421662e-02, -9.97784734e-03, -9.28905886e-03, 2.02766852e-03,
       -6.38120249e-03, -1.11435754e-02, -6.33103028e-03, 2.15755426e-03,
       -3.47685814e-03, -6.79671299e-03, 3.96180386e-03, -5.33221569e-03,
       -1.12113972e-04, 3.68664460e-03, 1.09213367e-02, 4.92815487e-03,
       1.12439506e-02, 7.41748651e-03, 1.04587749e-02, -2.36867089e-03,
       -9.82175581e-03, -5.20164671e-04, -1.45694977e-02,
       -4.38743597e-03, -4.30221856e-03, 3.81598272e-03, -1.09505236e-04,
       -1.16365985e-03, -8.57667997e-03, -3.87253705e-03, 3.55549669e-03,
       -4.38979873e-03, -1.12811690e-02, -2.89832824e-03, 8.45224131e-03,
       -1.90101375e-04, -7.37305079e-03, 9.03911539e-04, 1.83307903e-03,
       2.93110963e-03, -4.92703030e-03, -1.27562834e-02, 2.33466784e-03,
       1.16475523e-02, 4.89560142e-03, 8.41730740e-03, -1.14267599e-03,
       -2.52092001e-03, 3.17159039e-03, -4.06046538e-03, 8.99155065e-03,
       5.51445468e-04, 1.74612354e-03, -6.03658240e-03, -2.10865866e-03,
       6.39958354e-03, 7.38754869e-03, 2.39898800e-03, -2.04321276e-03,
       -4.47430462e-03, -1.14286542e-02, -5.18416055e-05,
       -1.88110076e-04, 2.40708236e-03, -5.70874836e-04, -2.48692860e-03,
       -6.80391851e-04, -9.78153758e-03, -6.27205533e-04, 4.40651039e-03,
       5.50339406e-04, 1.92590524e-03, -1.56492679e-04, -2.55543069e-04,
       -3.84360715e-03, -9.97273368e-04, 1.07875466e-03, -5.65449847e-03,
       -5.86379506e-03, 1.88415195e-03, 1.22716255e-03, -5.53296180e-03,
       2.87586264e-03, -8.55808496e-04, -9.39733069e-03, -1.02112480e-02,
       5.23763418e-04, -6.51250966e-03, -1.87894516e-03, 4.15649777e-03,
       -8.36137158e-04, -1.75924040e-03, -4.18380881e-03, 3.64518887e-03,
       6.64535770e-03, 1.06340181e-02, -2.67998059e-03, 9.97779891e-03,
       2.59996462e-03, -6.33618562e-03, 7.27752084e-03, -9.78587312e-04,
       5.86634455e-03, 6.06589718e-03, -9.58092045e-03, -4.85194568e-03,
       1.38615677e-03, 1.48171536e-03, 1.25140802e-03, 8.89791176e-03,
       -3.47961299e-03, 1.12094646e-02, 1.22753559e-02, -1.31634381e-02,
       -6.17436785e-03, -5.40843373e-03, -4.67304047e-03, 1.39000337e-03,
       6.43148366e-03, 1.67061703e-03, 8.34475923e-03, 1.18957357e-02,
       7.68978707e-03, -2.09626113e-03, 4.10467293e-03, -3.29569378e-03,
       -2.89989810e-04, -6.79071934e-04, -5.29284473e-04, 8.93467292e-03,
       1.58563163e-02, 5.06421493e-04, -9.06216539e-03, -6.03683013e-03,
       -1.46597978e-02, -1.17126037e-03, 1.37783121e-02, -7.30058132e-03,
       1.13793025e-02, 4.35786741e-03, -4.96770069e-03, 1.74523669e-03,
       -9.24148015e-04, 6.93688227e-04, 5.55075845e-03, -4.63311234e-03,
       -8.23951326e-03, 1.45522447e-03, -9.86108650e-03, -3.75913479e-03,
       7.01144664e-03, 5.18863206e-04, -6.42847689e-03, -3.98279959e-03,
       1.49071857e-04, -1.30873211e-02, -1.82958785e-03, 5.47887571e-03,
       -7.91579543e-04, -2.14264821e-03, -3.55574855e-04,
       -1.19932871e-02, 6.20574178e-03, -7.69796688e-03, -1.44312624e-02,
       -2.54430366e-03, -4.79767751e-03, 1.76069792e-03, 1.61495544e-02,
       9.23820585e-03, -8.59941915e-03, -3.63160879e-03, -3.05037573e-03,
       -7.24377634e-04, 4.46937978e-03, 2.69866636e-04, -2.96754367e-03,
       6.05438696e-03, 7.03764288e-03, 1.28346414e-03, -1.73920929e-03,
       8.99544172e-03, 6.96903700e-03, 3.54108401e-03, 8.91047472e-04,
       -1.12687498e-02, -1.19086076e-02, -2.10318645e-03, 3.42773885e-04,
       -5.98034421e-05, -3.69489659e-03, -1.52880582e-03, 3.70037463e-03,
       -9.02541727e-03, -6.35458389e-03, 4.78072837e-03, 4.14001150e-03,
       -1.48742823e-02, -1.44740101e-02, 1.28709143e-02, 1.34991426e-02,
       8.16669967e-03, -6.34953938e-03, -2.95736571e-03, -1.17666577e-03,
       -2.65196967e-03, -7.36045605e-03, -7.93801993e-03, 9.14965756e-03,
       1.54593925e-03, -3.57943354e-03, 3.07179289e-03, -2.82482617e-03,
       -5.82763180e-03, 2.32828711e-03, 1.08430278e-03, 8.99102818e-03,
       4.53873398e-03, 4.38401848e-03, 2.04989850e-03, -3.33036273e-03,
       7.24457786e-04, -1.01266811e-02, -1.12022394e-02, -8.49934481e-03,
       5.09567093e-03, 5.46361879e-03, 6.62056589e-03, 4.58049681e-03,
       2.74596736e-03, 2.41058855e-03, 4.26067924e-03, -1.44561916e-03,
       -3.99954012e-03, -5.59732970e-03, 1.32541161e-03, 3.78351589e-03,
       -2.68335752e-05, -2.29848956e-04, 9.61630605e-03, -2.14382214e-03,
       -6.61468413e-03, -1.03530819e-02, 1.04288221e-03, -8.13635823e-04,
       4.14022850e-03, -2.81055085e-03, -1.04676941e-02, 9.96356737e-03,
       5.64565416e-03, 1.76307326e-03, 3.31297121e-03, -4.01812280e-03,
       -8.67323112e-03, 1.04363193e-03, -3.32060363e-03, -1.47612141e-02,
       5.96135342e-03, -5.04845870e-04, 4.07582289e-03, 4.82919021e-03,
       -4.13831137e-03, 5.33027947e-03, 2.32417067e-03, -3.44218477e-03,
       -2.59470922e-04, 1.87251195e-02, 8.09013192e-03, 1.07714506e-02,
       1.24858867e-03, 2.89747026e-04, 7.29814218e-03, -1.39777781e-03,
       -1.07901404e-02, -7.23898131e-03, 1.31558888e-02, 3.06435605e-03,
       1.43100722e-02, 1.26658205e-03, 1.44701538e-04, -6.33870438e-03,
       -7.29899330e-04, -4.92310792e-04, -8.55967309e-03,
       -2.07643979e-03, -2.50408147e-03, 1.59748795e-03, 4.45475290e-03,
       -2.20111222e-03, -4.56580659e-03, 2.73900980e-04, 5.52297896e-03,
       -5.00940718e-03, -1.24215463e-03, -7.74215674e-04,
       -8.34754575e-03, 2.63757014e-04, -8.88172945e-04, -5.52398525e-03,
       4.21026396e-03, 6.17904635e-03, -2.34746956e-03, -4.45268553e-04,
       -6.99897716e-03, 1.76584464e-03, -3.44397966e-03, -3.01278220e-03,
       6.50226185e-03, 5.03696082e-03, 1.04880780e-02, 1.52915530e-03,
       -3.23136197e-03, 9.18282662e-03, -6.46073488e-04, -7.90775847e-03,
       4.03687544e-03, -9.98410629e-04, -1.39475637e-03, -8.60252709e-04,
       -5.68472687e-03, 4.78851143e-03, 5.16281137e-03, -8.89446400e-03,
       -1.80733169e-03, 9.61444341e-04, -2.13963632e-03, 1.04799587e-02,
       -1.26045488e-03, -5.66204125e-03, -3.87073634e-03,
       -7.72901671e-03, -7.11229630e-03, 4.43322631e-03, -1.55890186e-03,
       2.49238499e-03, 5.19993016e-03, 9.33127478e-04, -6.34258427e-03,
       -1.66648568e-03, 9.32932273e-03, -4.08144295e-03, -7.83244893e-03,
       -3.63170821e-03, 7.93411455e-04, 7.39288563e-03, -5.02503803e-03,
       -1.00586070e-02, -5.36710140e-04, -2.47625331e-03, 4.63781832e-03,
       1.23448658e-03, -9.19828191e-03, -3.91566008e-03, 8.69265106e-03,
       2.98318523e-03, -7.07198819e-03, -5.56316972e-03, -1.71164032e-02,
       4.85241704e-04, 7.44774099e-03, -5.29804127e-03, 9.05353227e-05,
       3.63990292e-03, 8.34535866e-04, 7.34795164e-03, -9.90410103e-04,
       7.60773569e-03, 4.88836458e-03, -4.09383560e-03, -7.95360189e-03,
       4.63171769e-03, -4.95168939e-03, -6.61774538e-03, -9.54436138e-03,
       -8.41614138e-03, -1.80706605e-02, 3.82178905e-03, 1.37879048e-03,
       1.24072377e-03, 1.13388477e-02, -9.80518479e-03, -3.68803204e-03,
       4.35958942e-03, -2.90914532e-03, 1.25369639e-03, 9.44402162e-03,
       3.07658361e-03, 8.16978142e-03, -1.73939578e-03, -1.11110206e-03,
       6.02391432e-04, -3.87469493e-03, 6.61081052e-04, 2.08075694e-03,
       -3.52667598e-03, -1.31664388e-02, -8.36094841e-03, 1.45045633e-03,
       -1.92229520e-03, 1.05039068e-02, 4.26833564e-03, 1.86299589e-02,
       6.58801245e-03, 1.73702094e-04, -1.66244823e-02, -7.35762808e-03,
       2.55414564e-03, -4.04043216e-03, -2.61456153e-04, 9.45609063e-04,
       1.13263133e-03, -6.85607409e-03, 6.18729088e-03, 4.50501032e-03,
       4.08912683e-03, 9.09191323e-04, -1.73296570e-03, 8.48423224e-03,
       -1.53081049e-03, 1.80082489e-02, -3.81283322e-03, 1.05743036e-02,
       3.71457939e-03, 3.61073180e-03, 2.07016757e-03, 2.17991858e-03,
       4.87543084e-03, -6.64901396e-04, 7.46880705e-03, 1.54122049e-02,
       3.13476007e-03, -1.43404324e-02, -1.34941097e-02, 2.81661469e-03,
       5.19429147e-03, 1.16566312e-03, 3.89794097e-03, 1.16069068e-03,
       1.33239971e-02, 6.61972258e-03, -8.44452996e-03, -8.24642088e-03,
       -3.62960808e-03, -6.35044277e-03, -3.20486631e-03,
       -4.38823458e-03, 1.29164280e-02, 8.39588232e-03, 1.24937147e-02,
       -2.21754215e-03, -1.46637915e-03, 4.12812643e-03, -5.13029564e-03,
       2.66914302e-03, 8.62639397e-04, 1.74456444e-02, 1.05751986e-02,
       9.53750312e-03, 2.01165304e-03, 8.30515567e-03, 2.19123391e-03,
       3.00009642e-03, 2.69865734e-03, 7.27755157e-03, -2.68655625e-04,
       2.89708911e-03, -2.83262925e-03, -1.35512240e-02, -1.40502903e-04,
       9.01414081e-03, -1.03657870e-02, 1.13912416e-03, 6.19078148e-03,
       2.60121236e-03, 3.93504230e-03, -1.26745217e-02, -1.12780947e-02,
       8.59541073e-03, -8.13434192e-04, -5.79591328e-03, 1.55937753e-03,
       -3.04601155e-03, 1.06192743e-02, -2.24980782e-03, -7.75609515e-04,
       -5.73418802e-03, 5.77778276e-03, -2.68378272e-03, -1.76769514e-02,
       -5.20395953e-03, -2.34151375e-03, 6.82555279e-03, 3.79312318e-03,
       -4.32468485e-03, 2.04136921e-03, 1.33949437e-03, 1.22455985e-03,
       -1.06912842e-02, 1.09272555e-03, 1.07859168e-02, 9.95690376e-03,
       9.31681693e-03, -2.39778263e-03, 8.55111866e-04, 1.96008524e-03,
       -4.71312087e-04, -1.16322041e-02, -1.78267190e-03, 9.33875702e-03,
       -4.30328399e-03, 9.78962611e-03, 7.10509066e-03, 3.42205889e-03,
       7.29904789e-03, -5.19010099e-03, -1.16906632e-02, -3.44272354e-04,
       3.42057482e-03, 4.83637815e-03, 6.63801050e-03, 4.79020132e-03,
       8.69916379e-03, 7.23442761e-04, -2.64153699e-03, 3.39393737e-03,
       3.62254726e-03, 7.99729303e-03, -2.40295008e-03, 9.19733942e-03,
       5.88573166e-05, -8.13976687e-04, 7.45711103e-03, -4.25369386e-03,
       -1.17037371e-02, -1.25488276e-02, -4.49712342e-03,
       -1.10282069e-02, -3.67258233e-03, 1.11492034e-02, 1.08648380e-02,
       -1.02179800e-03, -1.84413174e-03, -8.93310085e-03,
       -4.30473825e-03, 2.31116475e-03, 6.59488700e-03, 1.59380666e-03,
       2.24546064e-02, 1.40069602e-02, -1.42749946e-03, 2.87878769e-03,
       5.48306527e-03, -8.78861826e-03, -6.02159929e-03, -1.43980645e-02,
       -1.65348407e-03, 9.89673194e-04, 2.52471794e-03, -7.16656446e-04,
       7.54680438e-03, -6.36361830e-04, -1.04005532e-02, 7.87590630e-03,
       -9.62419156e-03, 1.76392333e-03, 1.79285333e-02, 1.17785856e-02,
       4.42168256e-03, -1.28452200e-02, -9.45118815e-03, -5.12967771e-03,
       6.24496629e-03, 8.36847816e-03, -2.95446580e-03, 3.50064039e-03,
       -6.11372478e-03, -6.05663704e-03, -1.39000369e-02, 8.58018000e-04,
       2.30327714e-03, -5.05594397e-03, -5.80344116e-03, -1.13597857e-02,
       -2.40594312e-03, -1.20580038e-02, -1.34625761e-02, 4.07801184e-04,
       -5.68646844e-03, 1.49370939e-03, 9.62850917e-03, 1.03862185e-04,
       1.80624076e-03, 1.18960068e-02, 9.97460820e-03, 7.31410738e-03,
       3.04280221e-03, 7.48301973e-04, 2.97283987e-03, -1.78736006e-03,
       -2.57771666e-04, -1.09523050e-02, 4.90540965e-03, -2.22403731e-04,
       4.29123035e-03, -3.44370748e-03, 3.79858841e-03, 2.48524407e-03,
       -6.29107514e-03, 9.03267704e-04, -9.46692284e-03, -6.05921820e-03,
       -3.83500499e-03, -1.65178557e-03, -1.38928532e-03,
       -3.54090543e-03, -1.97368045e-03, -8.33578408e-03,
       -5.14576444e-03, -7.51316966e-03, -6.06241822e-03,
       -9.62712395e-04, 5.91869326e-03, 3.50792892e-03, 2.41467671e-04,
       -9.70501642e-05, -3.28497333e-03, -6.72003534e-03,
       -8.95213149e-03, 8.08633678e-03, 1.12075415e-02, 8.11403058e-03,
       2.24539242e-03, -4.17551352e-03, 1.18480145e-03, 6.55398471e-04,
       -9.95591655e-03, -8.99196602e-03, 1.26268901e-03, 1.53164077e-03,
       2.71117338e-03, 1.83756161e-03, -4.13131621e-03, -2.60110712e-04,
       -6.10339874e-03, -6.87557692e-03, -4.57232771e-03,
       -6.94627455e-03, -6.10958494e-04, 1.41023993e-02, 7.18041789e-03,
       5.75694675e-03, 6.83803903e-03, -3.29919567e-04, -4.81391093e-03,
       -7.33960187e-03, -6.42119069e-03, -3.75485932e-03, 1.15139112e-02,
       8.14466563e-04, -5.80702722e-03, 4.44980059e-03, 7.33731024e-04,
       -1.34369615e-03, -5.84395416e-03, -3.80905438e-03,
       -4.28557675e-03, 1.51853100e-03, 2.82949838e-03, -6.93881325e-03,
       4.53351252e-03, -2.11468572e-03, -3.20977415e-03, -6.11461140e-03,
       -5.07007167e-03, -1.14473468e-02, 2.58835941e-03, 5.78491483e-03,
       9.06379148e-03, 1.39234355e-02, -1.28966384e-03, -1.95961125e-04,
       -8.18911009e-03, -4.70174942e-03, 1.37591909e-03, 5.66662522e-04,
       6.89246831e-03, 7.76666496e-03, 1.47686703e-02, -1.37927255e-03,
       3.60171034e-05, -7.50949793e-03, -3.44397777e-05, 8.45206156e-03,
       8.35282821e-03, 9.74892173e-03, -5.05843526e-03, 1.44441072e-02,
       -3.30852554e-03, -3.96925490e-03, -3.35321669e-03,
       -2.13544373e-03, -1.50913885e-02, 3.55329667e-03, 1.60820386e-03,
       5.44015644e-03, 8.88135936e-03, -1.38313025e-02, -1.91800687e-02,
       -8.38035904e-03, 5.66139934e-04, -5.81426080e-03, -1.32068258e-03,
       -3.55869089e-03, 6.88298186e-03, 1.16747199e-02, 6.32840442e-03,
       -1.13608921e-03, -1.10908011e-02, -1.91557163e-03, 5.29851473e-04,
       -3.21426283e-04, -9.96613130e-03, -5.95365593e-04, 6.67182216e-03,
       4.08753200e-04, 7.07431091e-03, 2.44047190e-03, -1.50396035e-03,
       -5.43012051e-03, 2.12018480e-04, 4.54884255e-03, 1.34909889e-02,
       1.26421107e-02, -1.10200176e-03, -3.10200010e-03, -1.37988627e-02,
       4.17934870e-03, -4.49209521e-03, -7.92503636e-03, -5.99149009e-03,
       3.26058757e-03, 4.90024360e-03, 2.74686702e-03, 1.93971992e-02,
       3.01360991e-03, -1.63371232e-03, -1.68645196e-03, -9.43228602e-03,
       1.89354148e-04, 5.94543666e-03, 1.42925167e-02, -7.68659869e-03,
       -2.55178940e-03, -4.09092318e-04, 3.31025850e-03, 9.99489450e-04,
       2.11054372e-04, 5.83657296e-03, 1.16677890e-02, 8.97430629e-03,
       -4.71223705e-03, 5.54916507e-04, 4.90070507e-03, 9.20784753e-03,
       -7.94415083e-03, -2.38584689e-04, 5.11554768e-03, 7.59305712e-03,
       1.13489721e-02, -3.38941650e-03, 8.53532925e-03, -2.13121553e-03,
       -2.10573082e-03, 2.18556263e-03, 2.43560760e-03, 6.82418840e-03,
       6.28728047e-03, -2.00740993e-03, -3.69385707e-05, -1.33485002e-02,
       -8.39463156e-03, 2.52442574e-03, -9.11207031e-03, 1.43750454e-03,
       3.34627810e-03, 2.65493919e-03, 8.08669440e-03, 4.36612871e-03,
       1.47401867e-02, 4.83887130e-03, 6.59576291e-03, 5.50056109e-04,
       2.29186984e-03, -1.50251889e-03, 1.09365000e-03, 1.42963289e-03,
       -7.64102617e-04, 1.67373978e-02, -1.04582859e-02, -1.14886919e-02,
       -4.88380948e-03, -1.84222381e-03, 5.35659725e-03, 7.04552559e-03,
       -3.15618841e-03, 9.73884016e-04, 9.82834585e-03, -7.03178998e-03,
       1.84342137e-03, -6.18452579e-03, 1.27104914e-03, 1.99596002e-03,
       1.32046510e-02, 3.92570597e-04, -2.10926589e-03, 1.46096339e-02,
       -1.15780383e-02, -6.95056375e-03, -2.93727405e-03,
       -8.12448282e-03, -4.38426709e-04, 7.45403999e-03, 4.96819057e-03,
       -3.57337669e-03, 1.50472075e-02, -3.23378504e-03, -4.91923606e-03,
       7.80030503e-04, -1.99269241e-04, 6.93232892e-03, 8.48163944e-03,
       1.66159924e-02, -2.69642053e-03, 1.39310453e-02, 2.82674842e-03,
       5.62281115e-03, 2.92989938e-03, 4.75039426e-03, 1.22079707e-03,
       1.03218565e-02, 8.74478184e-03, 4.88180853e-03, 1.46148936e-03,
       -8.35265499e-03, -4.18143719e-03, 1.01978367e-03, -4.02102945e-03,
       5.52979810e-03, 1.17256148e-02, 4.08358377e-04, -5.60361333e-03,
       7.40154588e-04, -1.53188745e-03, -7.69528467e-03, -7.50302058e-03,
       1.12958846e-03, -1.07148231e-03, -4.61017108e-03, -2.63089174e-03,
       -6.19529793e-03, 9.91723500e-03, 1.04993442e-02, 8.08741804e-03,
       8.05863552e-03, 1.60447098e-02, 7.14533171e-03, -4.37619491e-03,
       -3.10519687e-03, -1.23487087e-02, -5.24633564e-03,
       -2.94082426e-03, -4.27559530e-03, -5.01720374e-03, 7.96596706e-03,
       -2.07632012e-03, -3.90803255e-03, 1.43398915e-03, 3.35905468e-03,
       9.66797769e-03, 8.48093070e-04, 2.39021727e-03, 1.44520029e-03,
       5.60882688e-03, -5.37603814e-03, -5.79808000e-03, -6.06693747e-03,
       -3.30170663e-03, -2.40666908e-03, -3.01877526e-03,
       -9.37381294e-03, -9.58522595e-03, -4.40746825e-03, 3.38332332e-03,
       -4.74290806e-04, -2.85586342e-03, -1.33459596e-03, 8.74642190e-03,
       9.81266610e-03, -1.67987985e-03, -5.28253522e-03, 5.36975823e-03,
       1.10205635e-02, 1.54433219e-05, -9.53812990e-03, -2.59694760e-03,
       -2.32088217e-03, -2.66927248e-03, -3.97764146e-03,
       -2.63507012e-04, 4.82337968e-03, -2.36882316e-03, -2.18633143e-03,
       -2.65248911e-03, -4.64844098e-03, 1.68169790e-03, 1.24789290e-02,
       -1.67334033e-03, -6.99856225e-03, -9.56785865e-03,
       -2.31710286e-03, -6.99912850e-03, -8.33144691e-03,
       -1.31845279e-02, -1.03587275e-02, 9.42778494e-03, 5.39243035e-03,
       -6.31315680e-03, -8.96127243e-03, 1.33901490e-02, -4.96000377e-03,
       -1.06464429e-02, -5.55133214e-03, 1.33059733e-03, 8.23323987e-03,
       8.92211776e-03, 1.14714261e-02, 8.48668814e-03, 1.78640708e-03,
       -6.14466798e-03, -3.64543847e-03, 9.55059193e-03, 7.48837693e-03,
       -3.18603794e-04, 9.85899474e-03, 1.54612202e-03, -1.62612891e-03,
       -2.42245980e-04, -1.27261886e-02, -1.28048230e-02,
       -6.19479315e-03, -3.28577426e-03, 2.09948723e-03, 6.87642675e-03,
       -7.69093749e-04, -4.61342745e-04, 3.31801060e-03, -5.84618142e-03,
       6.71408488e-04, 2.18137563e-03, -5.58847387e-05, 5.24263480e-04,
       5.06097823e-03, -5.66223124e-03, 7.08587875e-04, 2.36465200e-03,
       -2.10293662e-03, 3.14027566e-04, 1.21584451e-02, 6.29916834e-03,
       -6.24755921e-04, 7.68821454e-03, -1.61292602e-03, -7.61073432e-04,
       -8.68929259e-04, 4.64669103e-03, 1.32150401e-03, 1.32421339e-02,
       6.60697231e-03, 5.86957764e-03, -2.59912387e-03, -1.10298768e-02,
       5.72361890e-03, 3.50611145e-03, -7.55704415e-04, 6.92140171e-03,
       8.51301290e-03, -2.10500392e-03, -7.21372059e-03, -2.58983928e-04,
       -1.13748917e-02, -5.52850729e-03, 1.03739258e-02, 1.22594123e-03,
       1.33663951e-03, 5.79513190e-03, -9.63686034e-03, 4.80234856e-03,
       5.31478366e-03, -5.33878943e-03, -8.57050647e-04, 1.46542070e-03,
       -5.38923405e-03, -1.07428525e-03, 3.08482023e-03, 5.11568913e-04,
       1.04973977e-02, 1.85722392e-03, -1.16042709e-02, 1.02879638e-02,
       -6.43820409e-03, -1.35234129e-02, -6.58347039e-03,
       -5.94609883e-03, 3.34982789e-04, 1.05846841e-02, 8.11497774e-03,
       -7.56507413e-03, 4.25065449e-03, 8.49431474e-03, -5.20182867e-03,
       -6.10998319e-03, -1.09223547e-04, -1.33791901e-02, 2.63542868e-03,
       2.54698563e-03, -3.66073265e-03, -4.31104098e-03, -1.11850665e-03,
       -5.64600388e-03, 3.98162054e-03, 1.54231791e-03, -1.63055563e-04,
       4.96187108e-03, 8.63237120e-03, 7.32249697e-04, -7.94436142e-04,
       -4.08025319e-03, -3.44852451e-03, -7.04357959e-03,
       -9.72308312e-03, 5.84705640e-03, 9.16373730e-03, 2.65624886e-03,
       -1.18523398e-02, -3.43556306e-03, 3.53032933e-03, 3.78993573e-03,
       3.97193898e-03, -9.69161559e-03, 2.89105368e-03, 3.68914567e-03,
       -4.91968449e-03, -1.88736338e-02, -6.17514132e-03,
       -2.27779662e-03, -7.28559121e-03, 2.87836650e-03, -5.51011087e-03,
       9.21851676e-03, 1.01558594e-02, 3.21778469e-03, -7.98327569e-03,
       -5.41307032e-03, 1.96647621e-03, -8.80536251e-03, 1.77858910e-03,
       1.03552372e-03, 5.67751843e-03, 7.62674399e-03, 7.50661711e-05,
       -1.37445917e-02, -9.34204960e-04, -6.12880662e-03, 5.35326777e-03,
       5.44908131e-03, -4.57090372e-03, 6.72686519e-03, 6.35599438e-03,
       -4.25829319e-03, -1.32665373e-02, -1.11529324e-02,
       -3.41378315e-03, 1.69590570e-03, 3.28256283e-03, -7.82847274e-05,
       7.00666290e-03, 1.16871139e-02, 2.01329961e-03, -9.86544229e-03,
       -4.23028861e-04, 2.41639023e-03, -2.00233102e-04, 4.39704023e-03,
       4.13144473e-03, -1.18832057e-03, 2.12498126e-03, -8.17855448e-03,
       -1.25117982e-02, 2.34182226e-03, 5.20615699e-03, 1.22681856e-02,
       7.32994499e-03, 5.76140825e-03, 8.69838055e-03, 1.78041533e-02,
       -6.00768207e-03, -1.19052390e-02, 6.94647897e-03, 8.85829236e-03,
       -2.19014985e-03, -3.78657808e-03, 4.26123757e-03, 6.50597876e-03,
       1.75291225e-02, 1.25038195e-02, -4.24827624e-04, 4.84406715e-03,
       7.21757673e-03, -7.11567421e-03, -6.04718411e-03, -3.57983704e-03,
       4.60093701e-03, -9.60193574e-04, 9.39613860e-03, -1.11389742e-03,
       -1.04092993e-03, 3.88276851e-04, 9.11834370e-03, 4.09927545e-03,
       1.18879797e-02, 8.37771874e-03, 2.34087873e-02, 7.68521475e-03,
       -1.66813098e-03, -1.75818498e-03, -5.71834389e-03,
       -2.45900359e-03, -6.62296079e-04, 3.97910690e-03, 8.53392587e-04,
       -1.72367354e-03, 8.41186754e-03, -5.02440101e-03, -5.67061268e-03,
       -2.81996885e-03, 1.19797839e-03, 2.30242102e-03, -9.30837588e-04,
       2.83235079e-03, -1.59365276e-03, 5.25628915e-03, -3.92555678e-03,
       -1.34515380e-02, -4.20271838e-03, -1.54350291e-03, 3.91810993e-03,
       1.67589809e-03, 3.41758854e-03, 9.66611598e-03, -5.95656340e-04,
       -8.24185263e-04, -6.27526967e-03, -6.25147345e-03,
       -8.52544699e-03, 2.30135769e-03, 3.99535289e-03, 1.95764005e-03,
       -4.45223739e-03, 2.21129344e-03, -8.22512433e-03, -5.84413484e-03,
       -1.14966817e-02, -9.74675640e-03, 4.96677542e-03, 1.57523551e-03,
       7.81311654e-03, 4.30831872e-03, -3.85299977e-03, 7.84838223e-04,
       4.17071744e-04, 2.83066067e-03, -1.27854338e-03, -4.04998194e-03,
       -5.93627756e-03, -8.90974607e-03, 1.65281799e-02, 1.89493853e-03,
       3.14221787e-03, 2.06645834e-03, 2.28783116e-03, -4.03062347e-03,
       -1.19203404e-02, -6.72632921e-03, -1.19144982e-02, 8.39536358e-03,
       2.30519171e-03, 9.51072294e-03, -3.15087242e-03, -6.33709505e-03,
       1.78138970e-03, -3.34224757e-03, -1.01760691e-02, -3.69822187e-03,
       1.41512672e-03, 1.95063418e-03, 3.72171751e-03, 1.66117889e-03,
       6.60540117e-03, 6.93880301e-03, 2.01627123e-03, -6.94617955e-03,
       -8.08220543e-03, 2.70337658e-03, 4.58756788e-03, 2.25734035e-03,
       -2.11786479e-04, 7.34215835e-03, -7.06003373e-03, -2.71414849e-03,
       -3.15548736e-03, -1.15697635e-02, -7.09136715e-03, 2.82751309e-04,
       1.23447564e-03, 3.55746597e-03, 1.04861716e-02, -2.15193210e-03,
       5.01550920e-03, 5.96135389e-03, -9.93661303e-03, -1.53163029e-03,
       2.11744313e-03, -3.96899227e-03, 1.04786744e-02, 1.20095648e-02,
       3.00748507e-03, 5.80844330e-03, -3.78025649e-03, -4.43905918e-03,
       -2.44249613e-03, -9.69935860e-03, -1.47535850e-03, 8.01416114e-03,
       5.04349358e-03, 4.60373813e-05, 5.46493940e-03, 5.54650696e-03,
       -1.24194100e-03, 5.19651501e-03, 7.94742256e-03, 2.47389567e-03,
       4.53597633e-03, 4.32387181e-03, 4.81006969e-03, 7.83345476e-03,
       3.06280656e-03, 2.14786921e-03, -9.19778924e-03, 2.76238588e-03,
       8.68796604e-04, 1.88897050e-03, 3.22061125e-03, -2.01796734e-04,
       3.23192962e-03, -2.60842219e-03, 1.51009094e-02, -2.29474157e-03,
       -6.36922632e-05, -6.74544880e-03, -3.05580907e-03,
       -2.41623333e-04, -7.01817276e-04, 1.36051863e-03, 1.03330205e-03,
       2.38664751e-03, -6.34578615e-03, 5.91908954e-03, -1.90576352e-03,
       -7.35037075e-03, 4.37250966e-03, 2.21256574e-04, 6.41774945e-03,
       -6.32818905e-04, 7.82479066e-03, -4.66484437e-03, -1.68888213e-03,
       -8.53580190e-04, -4.18954296e-03, -4.30442393e-03,
       -5.18438825e-03, -8.12790706e-04, -2.19290447e-03, 6.91552879e-03,
       3.15610901e-03, -5.33388369e-03, -6.81430334e-03, -9.12716892e-03,
       3.10052710e-04, -3.05912993e-03, 4.00474994e-03, 7.93752074e-03,
       1.61373820e-02, 4.56134090e-03, -3.79899610e-03, 2.45595514e-03,
       5.20006812e-04, -4.04646900e-03, -1.46741950e-04, 6.21673185e-04,
       -4.85459063e-03, -3.04815965e-03, 4.79155831e-04, -1.77768117e-03,
       -4.92258929e-03, -1.10922521e-02, 2.83810380e-03, 6.55781105e-03,
       2.56249239e-03, -4.67831240e-04, 6.56252680e-03, -5.95044752e-04,
       -1.09092556e-02, -1.28798261e-02, -7.68335164e-03, 5.95993362e-04,
       -9.94604779e-04, -2.40959416e-04, -9.40466940e-04, 9.60581470e-03,
       -5.14581101e-03, -2.57837260e-03, -3.23344814e-03, 4.83674649e-03,
       2.34671356e-03, -8.71861726e-03, -1.03700580e-02, -7.23427767e-03,
       2.40129884e-03, -2.11493042e-03, 1.06756529e-03, 7.62948161e-03,
       -4.41360148e-03, 9.87053965e-04, 3.74525576e-03, 1.50122796e-03,
       4.70775319e-03, 9.54328571e-04, -1.44306663e-02, -8.42167810e-03,
       -2.74198758e-03, -1.94641668e-03, 1.32531626e-02, -4.43597935e-04,
       -1.32602705e-02, -6.46498660e-03, -8.80461186e-03,
       -1.40363844e-02, 6.76508667e-03, 9.99978371e-03, 9.09782422e-04,
       -1.12507939e-02, -6.09664153e-03, -7.98270386e-03,
       -7.11509772e-03, 1.18158031e-02, -1.55879243e-03, 4.80060698e-03,
       4.20995941e-03, -1.37789007e-02, -1.09464079e-02, -9.00428160e-04,
       -2.21063197e-03, 7.27947149e-03, 1.67067349e-02, 1.57706579e-03,
       -4.18493105e-03, -9.28175263e-03, -4.49087843e-03, 5.54850185e-03,
       2.24769092e-03, -6.81382744e-03, -5.64579107e-03, 1.58789363e-02,
       1.19173201e-03, 2.97925808e-03, -4.87140933e-04, -5.43967867e-03,
       -6.49822177e-04, -4.49960819e-03, -1.03023900e-02, 9.57749784e-03,
       6.59601483e-03, 1.02485688e-02, 8.66590941e-04, -5.78359701e-03,
       4.68473323e-03, 3.69360950e-03, 1.19957328e-03, -3.33700306e-03,
       -2.25117849e-03, 2.39823712e-03, 2.24197120e-03, 6.73984131e-03,
       -1.11432432e-03, -2.83884257e-03, 7.34321447e-03, 3.49558447e-03,
       2.82317953e-04, 4.57104994e-03, -7.53042428e-03, -2.45124032e-03,
       5.44126146e-03, 5.81931556e-03, 1.12337498e-02, 7.35709351e-03,
       -3.03046429e-03, -1.11623108e-02, -1.42155087e-03,
       -1.81002039e-02, -1.85944233e-03, 4.97303810e-03, 2.33067572e-03,
       9.47519299e-03, 3.37960519e-04, -3.37602221e-03, 3.41042038e-03,
       5.71031636e-03, -1.40101137e-02, -3.24328849e-03, 1.32812711e-03,
       5.10661118e-03, 5.03697246e-03, -7.97225907e-03, -1.11140227e-02,
       -3.71731119e-03, 1.17992265e-02, 6.33651577e-03, 1.55178318e-03,
       3.20607284e-03, 1.62541255e-04, -1.29203952e-04, -9.30492487e-03,
       -1.84433628e-02, -1.94340572e-03, 3.60741676e-03, 2.55971623e-04,
       -6.57003885e-03, 7.96243083e-03, 6.82073785e-03, 1.11677230e-03,
       -9.97474045e-03, -1.84890870e-02, -2.02324265e-03, 1.44245354e-02,
       6.87678810e-03, 2.86943140e-03, -8.19574762e-03, -1.31114479e-02,
       -7.68818427e-03, 3.52454162e-03, -1.92824546e-02, -1.11197522e-02,
       9.38763027e-04, 9.82010923e-03, -2.18913425e-04, -1.78256712e-03,
       -6.96569565e-04, 7.03188637e-03, -5.77455340e-03, -8.51094816e-03,
       7.82779709e-04, 8.88966396e-03, -4.84339427e-03, -9.89699643e-03,
       1.16912220e-02, 1.01544671e-02, -5.58694452e-03, 1.05933647e-03,
       -3.60149378e-03, 3.64630646e-03, 1.11266496e-02, -8.63704714e-04,
       -3.60974134e-03, 1.41354080e-03, -8.78382567e-03, -8.78422800e-03,
       4.05610166e-03, -6.25091279e-03, -1.68243446e-03, -1.10545568e-03,
       5.93464216e-03, 4.36098734e-03, 8.60765763e-03, 8.20154976e-03,
       1.11489072e-02, -1.84006843e-04, -4.01422475e-03, -7.08012329e-03,
       1.15598785e-02, 5.92994224e-03, 1.16099296e-02, 5.65728499e-03,
       -3.82595230e-03, -7.65128410e-04, -1.72583852e-03,
       -6.80520665e-03, 4.57171537e-03, 1.37041854e-02, 1.02080107e-02,
       -4.45792452e-03, -2.07988691e-04, -7.55033316e-03,
       -9.17216530e-04, -2.18597823e-03, -1.10418675e-02, 4.28891182e-03,
       2.66304519e-03, 6.25464832e-03, 2.15318426e-03, -8.74831749e-04,
       -9.86906886e-03, -4.34441864e-03, 5.56640653e-03, 7.20674812e-04,
       5.11821033e-03, 1.33683942e-02, 1.04921982e-02, 1.66545005e-03,
       3.44674336e-03, -1.17730042e-02, 2.04364699e-03, 5.94186655e-04,
       -5.31109003e-03, -8.72433558e-03, -1.37733426e-02, 4.46445448e-03,
       5.23596350e-03, -1.08746230e-03, -1.66131873e-02, 3.40825150e-04,
       4.68172878e-03, -3.45997559e-03, 9.63585172e-03, 1.50204333e-03,
       1.04736248e-02, 8.53620190e-03, 9.75622423e-03, -7.86252040e-03,
       6.24861568e-04, 1.16115250e-02, 4.46493505e-03, 8.64865817e-03,
       -5.00339689e-03, -5.57124568e-03, -2.86135660e-03, 2.84102908e-03,
       -4.59004007e-03, 1.24849973e-03, 9.13347211e-03, 6.34487253e-04,
       3.35724582e-03, -8.38012341e-03, -2.96189170e-03, -3.33854783e-04,
       4.74111037e-03, -1.21160261e-02, 1.89654552e-03, 4.78381943e-03,
       -2.45280657e-03, 3.01443343e-03, -5.29561564e-03, 9.08310805e-03,
       -7.05965376e-03, -2.38543702e-03, -7.44329300e-03, 3.78561817e-04,
       1.46759581e-02, 9.67808347e-03, 8.45732354e-03, 5.67776430e-03,
       -1.90854468e-03, -4.64037573e-03, 7.25471834e-03, -1.47021224e-03,
       -4.80151130e-03, 6.30888995e-03, 7.27101555e-03, 5.60313836e-03,
       -5.94784156e-04, 1.34441033e-02, 3.43781151e-03, 6.64801849e-03,
       3.68029601e-03, -6.99963886e-03, -4.59218543e-04, 2.14927667e-03,
       -8.97571445e-03, 6.88126718e-04, 1.53027717e-02, -6.90944679e-03,
       3.25924950e-03, 2.71398667e-03, -2.68303929e-03, 1.52746739e-03,
       -4.13038972e-04, -6.89203665e-03, -8.06654897e-03,
       -5.90609806e-03, -1.05648115e-02, -9.23987105e-03,
       -3.70461540e-03, -7.70863052e-03, 7.90591724e-03, 5.68744028e-03,
       2.24720803e-03, -3.74789420e-03, -3.70510574e-03, -4.63655312e-03,
       -7.45879672e-03, -2.21593212e-03, 1.04857387e-03, 1.26318978e-02,
       4.74721007e-03, 3.24498978e-04, -9.78930737e-04, -9.64349788e-03,
       -1.29498693e-03, 1.84197107e-03, 7.28963641e-04, 1.11362953e-02,
       8.71630386e-03, 4.05012909e-03, -6.36217184e-03, -4.87930421e-03,
       -5.10647055e-03, -7.21956650e-03, -1.14960726e-02,
       -3.14773503e-03, 4.10819106e-04, 7.89865013e-03, -2.12610117e-03,
       5.55758551e-03, 8.45525227e-03, -4.40019721e-05, -6.90176617e-04,
       -6.62931195e-03, 4.08769911e-03, 1.34299928e-02, -1.98922027e-03,
       -2.66976422e-03, -5.53000253e-03, -3.95778241e-03, 3.64146545e-03,
       -1.41382008e-03, 4.71672916e-04, 5.77246246e-04, -8.49925634e-03,
       -3.79835232e-03, 8.20814352e-03, -2.61229835e-03, -3.98751535e-03,
       6.80247089e-03, -5.34397131e-03, 1.61446608e-03, 1.59013865e-03,
       -1.27265966e-02, 4.88605723e-03, -5.09067997e-03, 8.95730045e-04,
       -3.27032595e-03, 1.07338885e-02, -2.94808298e-03, -3.60351638e-04,
       2.48442777e-03, 7.37263076e-03, 5.74235292e-03, 5.46208629e-03,
       2.04383465e-03, -5.95579250e-03, -5.65924309e-03, -5.24875126e-04,
       6.99259341e-03, 2.72198161e-03, -7.30543118e-03, -5.20131225e-03,
       8.40656459e-03, 4.77095880e-03, -3.20178200e-03, 1.17719884e-03,
       -1.31608860e-03, 1.05545679e-02, 1.13565521e-02, -8.19476601e-03,
       4.55038808e-03, 7.91432895e-03, -5.28584654e-03, -1.10836970e-02,
       -5.79400919e-03, -4.09102999e-03, -7.96053675e-04, 2.23906222e-03,
       2.62344867e-04, 8.61389562e-03, 1.44694699e-02, 5.29137580e-03,
       -6.98337005e-03, 2.53830850e-03, -7.88515061e-03, 7.33795390e-03,
       7.12040160e-03, 1.98734742e-05, 1.10911177e-02, 1.17018409e-02,
       5.36075141e-03, -8.68626218e-03, 7.75090838e-03, -7.27226632e-03,
       -7.72776408e-03, 1.80379197e-04, -2.78756395e-03, 5.73365018e-04,
       -5.13588777e-03, 1.71588222e-03, 8.66645947e-03, 9.69166309e-03,
       5.43568237e-03, 1.96380005e-03, 5.19953249e-03, -5.22670220e-04,
       4.65094345e-03, -5.98190166e-03, -9.82937030e-03, 7.42460019e-04,
       -2.09475099e-03, 4.27252101e-03, -8.15937936e-04, -4.90567926e-03,
       7.20026947e-05, -1.14617951e-03, 6.64491998e-03, 1.18424902e-02,
       4.20678593e-03, 4.99116257e-03, -1.15054916e-03, -6.14288030e-03,
       -1.50705792e-03, -1.07448304e-03, 7.51174055e-03, -3.87511798e-04,
       3.41913576e-04, -5.64378686e-03, -5.77537529e-03, 1.13942218e-03,
       -6.98351348e-03, -2.17155390e-03, 8.00790917e-03, 6.32183335e-04,
       -4.14961192e-04, -1.52154197e-03, -2.00826931e-03, 2.73022894e-03,
       6.26925007e-03, 1.73732627e-03, -4.19276161e-03, -3.35372193e-03,
       9.93637601e-04, -1.09628297e-03, -1.01139555e-02, -1.36795305e-02,
       -9.93244629e-03, 6.44712010e-03, 3.43355886e-03, -2.49686488e-03,
       -1.25711097e-03, -1.79604045e-03, 1.84753945e-03, 6.53158873e-04,
       6.84009865e-04, 3.25719384e-03, 5.65391826e-03, -7.78629677e-03,
       -3.25355504e-04, 2.70586438e-03, -3.27185681e-03, 3.06749484e-03,
       -9.29549709e-03, -9.59512871e-03, -1.86855707e-03,
       -2.57068058e-03, -1.74655707e-03, 4.99061355e-03, -1.69572828e-03,
       1.39579000e-02, 1.37427310e-03, -4.48787026e-03, -4.08595474e-03,
       6.71037426e-03, 4.00709826e-03, -1.71024492e-03, -4.79599170e-04,
       8.84894188e-03, 2.27566622e-02, 8.38781800e-03, 5.11016417e-03,
       1.49502023e-03, 8.62935465e-03, -7.42874481e-03, -1.35297759e-03,
       -1.00866584e-02, 6.71275426e-03, 5.74497366e-03, 1.75473071e-03,
       -3.07464134e-03, -3.83810885e-03, -2.05748272e-03,
       -3.66579602e-03, -5.38320746e-03, 1.56644077e-04, -1.75267959e-03,
       -1.28394132e-03, 6.80727942e-04, 3.09423520e-03, -3.79188708e-03,
       -1.26254205e-02, -8.21247511e-03, -6.19605184e-03,
       -1.43101802e-02, -6.01761928e-03, 2.47705113e-02, 3.69532430e-03,
       6.51295437e-03, 5.61948214e-03, 6.97069569e-03, -8.05203710e-03,
       -1.19814335e-03, -2.32483377e-03, 1.04811527e-02, 1.99529901e-02,
       -1.64587726e-03, 1.22651400e-03, 5.67303738e-03, 7.81605020e-03,
       6.55047735e-03, 8.05038773e-03, 1.34042246e-04, 7.23041035e-03,
       -2.33105873e-03, -2.58654077e-03, 9.54333518e-05, -2.89882021e-03,
       4.99851909e-03, -5.03047509e-03, 4.48775152e-03, -1.48922084e-02,
       -1.43796699e-02, -6.13219989e-03, -2.45196279e-03, 3.53227532e-03,
       4.10304731e-03, 1.82332154e-02, 4.00718255e-03, 7.04290159e-03,
       -4.20964044e-03, -1.24496575e-02, 1.48051120e-02, -1.08465424e-03,
       -8.51603225e-03, 1.00664841e-03, -4.79546812e-04, 7.25932932e-03,
       7.28561496e-03, 5.36133349e-03, 4.79496364e-03, 4.41001868e-03,
       3.74764903e-03, 7.10270228e-03, 4.50885715e-03, -2.69419634e-05,
       2.58305925e-03, 1.27870915e-02, 4.76137735e-03, -7.30054511e-04,
       -1.15168067e-02, -4.31406870e-03, -5.96215064e-03, 8.13657418e-04,
       -3.07073537e-03, -2.32865044e-04, 1.41624990e-03, -7.45221972e-03,
       -1.50996912e-02, 1.22936966e-03, 6.62239548e-03, 1.33312028e-02,
       5.76755591e-03, 2.00098683e-03, -8.15852731e-03, 1.10094957e-02,
       3.60981468e-03, -5.29454369e-03, -7.13921443e-04, -3.40687344e-04,
       5.49622299e-03, 4.08526976e-05, 1.46951759e-02, 7.95000978e-03,
       1.71543669e-03, -1.28250374e-02, -3.10699199e-03, -3.77050415e-03,
       -9.25607979e-03, -1.26004627e-03, 2.51543080e-03, 3.66796553e-03,
       -3.40248412e-03, 4.65126429e-03, -3.39460233e-03, -3.79484001e-04,
       3.05802358e-04, 5.54184150e-03, 1.58767402e-02, 5.36822947e-03,
       7.90371466e-03, -5.76394564e-03, 2.51524313e-03, 6.95681723e-04,
       -4.36710985e-03, -1.98675296e-03, 2.81220465e-03, 9.77693498e-03,
       6.32403046e-03, 7.75144994e-03, -7.22648622e-03, 4.52060578e-03,
       -3.28799291e-03, -5.48904669e-03, 9.50517497e-05, -5.14717167e-03,
       2.10678368e-03, 6.26444351e-03, 2.18533003e-03, 4.14869050e-03,
       3.78766027e-03, 8.37091357e-03, 7.27601489e-03, 9.83360875e-03,
       2.96577928e-03, 7.07021914e-03, 6.51773298e-03, 7.57343089e-03,
       1.97574813e-02, 2.48841569e-03, 5.09904930e-03, 9.28570423e-03,
       -4.00270429e-03, -7.98815768e-03, -8.25146737e-04, 1.08155292e-02,
       1.74329448e-02, -1.58981502e-03, 2.18693097e-03, 2.26615043e-03,
       -2.22011842e-03, 6.84761722e-03, -5.44723240e-04, -1.95041392e-03,
       2.10642675e-03, 6.37058867e-03, 9.64487903e-03, 6.34474680e-03,
       -4.22636233e-03, 4.12650499e-03, 5.35075227e-03, 6.62867818e-03,
       1.15983551e-02, 2.16753269e-03, -4.23186546e-04, 1.56632345e-02,
       3.21015459e-03, 5.23741497e-03, 4.35856578e-04, 3.01909051e-03,
       4.54263063e-03, 1.02594141e-02, 7.41731049e-03, 9.41418391e-03,
       -4.85733821e-04, 2.60403519e-03, -6.03687856e-03, -1.34356727e-03,
       9.63222701e-03, 1.94687257e-03, 6.66153478e-03, 1.56256265e-03,
       -6.67596608e-03, -3.95004312e-03, -4.51009814e-03,
       -2.46401853e-03, -1.78555888e-03, 1.51258046e-02, 3.78597132e-03,
       1.15203867e-02, 8.56330991e-03, 2.41845046e-04, -1.74517129e-02,
       -9.70510673e-03, -7.61549454e-05, 4.24431032e-03, 2.81349686e-03,
       -4.05763881e-03, 1.75769452e-03, 5.62571920e-03, 6.42077159e-03,
       2.05452531e-03, 4.74929548e-04, -1.39485521e-03, 3.81188071e-03,
       -1.70662645e-02, -1.12848273e-02, -7.54167326e-03,
       -2.50580581e-03, 2.20196252e-03, 1.09644840e-02, 4.52155480e-03,
       8.15734547e-03, -4.37192712e-03, 1.24665825e-02, -4.61463351e-04,
       2.88971234e-03, 9.75786708e-03, 8.35432857e-03, -6.91741006e-03,
       -4.90278378e-03, 3.95561149e-03, 7.79905869e-03, -1.61644910e-03,
       -6.07388793e-03, -3.70127033e-03, 9.10069619e-04, -2.84431293e-03,
       4.45750030e-03, 2.34503415e-03, 2.80445232e-03, -6.01754524e-04,
       -1.21724475e-02, -3.40580568e-03, -7.37855071e-03,
       -4.65534301e-03, 1.25311094e-03, 8.14654212e-03, -2.47610407e-03,
       -3.10047297e-04, -1.90740218e-03, 1.61059271e-03, -2.27705823e-04,
       -1.20013498e-03, -5.77749044e-04, -2.99404003e-03, 4.44080122e-03,
       -1.47776119e-03, -2.94173788e-03, -9.65530239e-03,
       -3.85831948e-03, 2.31833328e-04, 7.22734444e-03, 8.45478289e-03,
       4.22841543e-03, 1.01075256e-02, -6.09261077e-03, -1.25584342e-02,
       -8.18079989e-03, -6.56935619e-03, 5.92029560e-03, 1.40184574e-02,
       1.93806272e-02, 1.13978153e-02, 1.96106452e-02, 3.79240746e-03,
       -7.93082267e-03, -6.80211606e-03, 1.57759665e-03, -3.85475974e-03,
       -2.65594851e-03, -1.41206325e-03, -1.63766299e-03, 9.10383556e-03,
       -2.84458464e-03, -4.29894170e-03, -1.24576688e-02, 4.99529997e-04,
       6.99121912e-04, 1.08908353e-04, 7.67323887e-03, -4.39815549e-03,
       1.86054257e-03, 7.50258565e-04, -3.41852708e-03, -7.84371421e-03,
       -6.47609681e-03, -1.07048377e-02, -4.99368820e-04, 1.03111807e-02,
       7.88156688e-03, 1.09358551e-02, 8.87683313e-03, 7.05455709e-03,
       -1.83339021e-03, 3.94928968e-03, -4.11857944e-03, 1.35887498e-02,
       2.01734602e-02, 1.19845234e-02, 3.50223621e-03, 7.61596905e-03,
       6.27881708e-03, 4.56069969e-03, 1.99522707e-03, 1.84296153e-03,
       -6.14821911e-03, 1.88304228e-03, -5.42165479e-03, -8.07317067e-03,
       -5.41747874e-03, -3.04347556e-03, -3.75751383e-03, 9.08194482e-03,
       4.94556688e-03, -4.90471257e-06, -4.36173240e-03, 6.97477022e-03,
       -4.66166483e-03, 5.09950798e-04, -2.76952493e-03, -6.67289598e-03,
       5.35344705e-03, -3.59236589e-03, 6.69404352e-03, 2.31588376e-03,
       -9.29119531e-03, -9.08426382e-03, -4.42145020e-03, 6.36319118e-03,
       6.39235461e-03, 1.17603438e-02, 2.02912092e-03, -3.15252051e-04,
       -1.16777688e-03, 3.04543087e-03, -1.23341074e-02, -1.66998862e-03,
       3.63700627e-03, 9.34560783e-03, -4.14850563e-03, 4.25921427e-03,
       1.50081841e-03, -7.31432578e-03, 6.07972546e-03, 6.78540766e-03,
       -1.73609611e-03, -1.09557286e-02, -1.51902279e-02,
       -6.34194398e-03, 1.04004089e-02, 6.79934863e-03, 8.19197390e-04,
       2.08771997e-03, -1.15119654e-03, -5.48883202e-03, -1.08912913e-02,
       -1.63152758e-02, 1.19758919e-02, 1.42580746e-02, -2.69460399e-03,
       6.03708264e-04, 3.75679159e-03, -1.44928973e-03, -4.76745982e-03,
       -3.58967530e-03, -1.28918828e-03, -8.46596493e-04, 1.45938713e-02,
       1.05162272e-02, 6.00761687e-03, -8.10375810e-03, -7.82261603e-03,
       -8.03303919e-05, -1.42016839e-02, -8.87036417e-03,
       -6.78421417e-03, 8.07398185e-03, 5.47402818e-03, 1.47895270e-03,
       -4.20460803e-03, -9.28086601e-03, -7.61926966e-03,
       -4.46646800e-03, -1.44830551e-02, 1.20599242e-02, 1.02203982e-02,
       7.40946969e-04, -7.98310898e-03, 2.66179064e-04, -3.91221372e-03,
       5.75878425e-03, -2.50774971e-03, -1.09157488e-02, 4.49227216e-03,
       3.30731249e-03, 1.18507585e-03, -2.35343026e-03, -9.37994977e-04,
       -4.43196902e-03, -1.69695111e-03, -1.18988547e-02,
       -1.01717313e-04, 1.30572738e-02, 3.45169893e-03, -9.85282846e-03,
       -1.40114389e-02, 1.62977085e-03, -1.57114782e-03, -2.63504265e-03,
       -1.30943405e-02, 4.94576246e-03, 2.25105765e-03, 3.56899947e-03,
       3.42833833e-03, -4.45796549e-03, 1.43857971e-02, 6.01023715e-03,
       7.24357786e-03, -6.25646999e-03, -6.80040848e-03, -4.67082346e-03,
       -2.85349367e-03, -8.77005421e-03, 6.38882723e-03, -4.10155440e-03,
       1.01532377e-02, 3.60521302e-03, -6.41314036e-05, -6.52795471e-03,
       1.09103741e-02, 2.24699057e-03, -4.86023305e-03, -6.15929766e-03,
       1.27940169e-02, 1.97972776e-03, 1.18996827e-02, -1.53983908e-03,
       3.87068349e-03, -4.82089864e-03, 2.31863814e-03, -4.70176479e-03,
       7.37628993e-03, 2.79571605e-03, 2.64598010e-03, 2.83475453e-03,
       -4.43972042e-03, -1.81067791e-02, 4.93407855e-03, -4.33249958e-03,
       -5.90621587e-03, 3.19580385e-03, -1.08209476e-02, -2.96610408e-04,
       1.27321025e-02, 1.38708428e-02, 3.76352388e-03, 2.98327231e-03,
       -2.98782764e-03, 6.51636906e-03, 8.83723795e-03, -4.82196920e-03,
       5.71130915e-03, 7.27817323e-03, 8.11089762e-03, 1.47960114e-03,
       -2.41171831e-04, 7.06294831e-03, 4.20088600e-03, 2.61381874e-03,
       -9.65147163e-04, -2.72957864e-03, 1.62017904e-03, 6.75305445e-03,
       -1.07695609e-02, 5.09372866e-03, -2.23112572e-03, 3.96154728e-03,
       3.17462813e-03, -5.07830130e-03, -8.57675634e-03, 3.48920468e-03,
       -1.63088873e-04, -2.03688536e-03, -7.37570366e-03,
       -8.38090200e-03, 1.31165097e-03, 1.19917430e-02, 6.14729710e-03,
       8.04042351e-03, -2.90719909e-03, -2.79528787e-03, -5.91434399e-03,
       2.38931319e-03, -9.64394212e-03, -1.16650434e-02, 2.04065349e-03,
       1.20299775e-02, 7.61471782e-03, 3.28589929e-03, 8.09945725e-03,
       9.13794897e-03, 9.99853946e-04, -2.87786708e-03, 2.59652676e-04,
       -6.06964389e-03, -3.08465585e-03, -4.56255954e-03,
       -8.06797389e-03, -8.75145197e-03, -1.05230128e-02, 3.79618164e-03,
       -6.67966483e-03, -8.81565362e-03, -1.31173208e-02,
       -8.03068746e-03, 4.04902268e-03, -3.72796576e-03, -5.79403201e-03,
       3.48384934e-03, 1.18288351e-03, -9.35163070e-03, -1.00605525e-02,
       7.98582507e-04, 9.64071881e-03, 1.01690497e-02, 6.29137550e-03,
       5.04582189e-03, 8.26673675e-03, 8.58157349e-04, -8.97243246e-03,
       -9.40014888e-03, 4.36736830e-03, 1.07126813e-02, 1.83469784e-02,
       5.26112411e-03, 1.06409658e-03, 5.37211122e-03, 8.56478140e-03,
       -5.42838452e-03, -1.06268758e-02, -5.73845254e-03, 2.05581752e-03,
       9.58652887e-03, -3.79873469e-04, -7.00553553e-03, 6.82894420e-03,
       -1.86868384e-03, -1.59666166e-02, -4.15845122e-03,
       -9.83327976e-04, 4.33476921e-03, 7.32773263e-03, 4.82365664e-04,
       -1.70871150e-03, 1.48019684e-03, 3.24041757e-04, -3.72556737e-03,
       1.78096164e-03, 1.93470612e-03, 4.53997264e-03, 1.37862824e-02,
       4.98042768e-03, -9.08650830e-03, -2.21135654e-03, -3.25565250e-03,
       2.33203312e-03, -3.39280977e-03, -9.94762778e-03, -1.12592264e-04,
       3.96652194e-03, 3.30584962e-03, -1.29676843e-02, -6.35549519e-03,
       6.11889351e-04, -1.31058251e-03, 8.25122464e-03, -1.95920188e-03,
       -2.69613974e-03, -2.19428912e-04, -5.22016361e-03,
       -4.82507749e-03, -7.14943791e-03, 2.75504100e-03, 9.57752857e-03,
       3.48734879e-03, -8.73074029e-03, 4.27290285e-03, -5.49795385e-03,
       -7.04837544e-03, -5.36279241e-03, -1.16067110e-02, 5.21943253e-03,
       2.96512968e-03, 8.84017616e-04, -7.84517545e-03, -3.71656101e-03,
       -7.90994428e-03, 6.64532138e-03, -4.92114201e-03, 9.21233324e-04,
       -5.14853629e-04, -6.31976640e-03, -8.99105612e-03,
       -1.14724378e-03, 8.38316232e-03, -6.57873740e-03, -4.12628893e-03,
       -5.16834110e-03, -5.29306009e-03, 1.28866229e-02, 1.23152109e-02,
       1.42495133e-04, -7.45918788e-03, -2.96040176e-04, -9.85530484e-03,
       9.19462182e-04, 2.62392772e-04, 4.84442525e-03, 1.05357608e-02,
       8.88750772e-04, -1.38087086e-02, -6.89197378e-03, -2.51882095e-02,
       -7.25751696e-03, 1.72104258e-02, 4.29493422e-03, 6.61680335e-03,
       -3.16405296e-03, -7.31946807e-03, -1.60452258e-02,
       -5.45091508e-03, 9.93273687e-03, -1.05295272e-03, -1.35933200e-03,
       5.32924943e-03, 1.67948147e-03, 1.08543354e-04, 9.96081275e-04,
       -1.23107247e-02, -4.91318153e-03, 7.28658261e-03, -4.85691801e-03,
       -7.41205877e-03, -4.91959800e-04, 3.45357414e-03, 8.50531459e-03,
       2.48909439e-03, -9.47188959e-03, -9.48871952e-03, -1.50484201e-02,
       -2.21476867e-03, 1.13728698e-02, 6.70791790e-03, 5.79276402e-03,
       -5.67548955e-03, 1.02885542e-02, -1.46514736e-03, 7.58540630e-03,
       4.41531092e-03, -5.27791074e-03, -2.20701727e-03, -8.69845622e-04,
       -1.76220213e-03, 9.95589420e-04, 8.33713822e-03, -1.13161495e-02,
       -7.94716179e-03, 7.59612350e-03, -6.65737968e-03, -1.54251503e-02,
       -1.20247100e-02, -6.00027898e-03, 4.24715737e-03, 5.71327982e-03,
       5.06040128e-03, 2.16172356e-03, 4.79064649e-03, 2.87800003e-03,
       -1.05497008e-02, -1.00956541e-02, -9.03105270e-03,
       -3.80298356e-03, 1.28919156e-02, 2.57242331e-03, 6.99288910e-03,
       3.12329992e-03, -7.70689454e-03, -1.06146503e-02, -8.96161236e-03,
       -1.05606085e-02, 3.30732553e-04, 7.38880923e-03, 1.13401040e-02,
       4.27061832e-03, -6.35976763e-03, 1.95032591e-03, -7.58676417e-03,
       -8.27296637e-03, -6.08468149e-03, 5.82877314e-04, -1.12547687e-05,
       9.04284790e-03, -9.31429735e-04, 6.63102651e-03, -3.59803578e-03,
       -8.18853918e-03, -9.86701227e-04, -1.45690097e-03,
       -3.77655518e-03, -2.04197760e-03, -7.83398573e-04,
       -1.64362765e-03, -4.26096795e-03, -5.07224072e-03, 2.46791937e-03,
       -1.66879769e-03, -8.68826080e-03, 8.46752152e-03, 1.45739960e-02,
       1.13463905e-02, -4.07349458e-03, 1.65907911e-03, -5.30678360e-03,
       -9.81858466e-03, -4.58817696e-03, -4.18689987e-03,
       -1.21912337e-03, 7.80674908e-03, -1.49984928e-02, -1.10476911e-02,
       -7.46887969e-03, -1.03618158e-02, -1.09878313e-02,
       -4.15632920e-03, -1.17193470e-02, 2.98791658e-03, 6.47868915e-03,
       -3.54730617e-03, -5.80882467e-03, 9.28272307e-03, -9.90830641e-03,
       -6.78831944e-03, -7.09885359e-03, -9.27447528e-03, 4.80963476e-03,
       1.29853841e-02, 5.89585211e-03, 8.15696828e-03, 1.85375828e-02,
       -7.85423443e-03, -1.84139702e-02, -9.87290498e-03,
       -1.20014427e-02, 1.27157429e-03, 1.24788191e-02, -1.43309543e-02,
       -3.44577129e-03, -1.57004746e-03, -6.87284814e-03,
       -6.68951450e-03, -3.43861338e-03, -8.01719539e-03, 6.86389348e-03,
       2.04468481e-02, 5.02456259e-03, 9.36323591e-03, 7.38015678e-03,
       -5.74783608e-03, -1.52327819e-02, -1.10197812e-02,
       -6.72200089e-03, 5.93593158e-03, 1.10372780e-02, 9.57294647e-03,
       5.53397043e-03, 1.19974371e-02, -5.85271884e-03, -7.31504662e-03,
       -3.18117673e-03, 1.13486731e-02, 3.85397580e-03, 4.50673327e-03,
       9.35037341e-03, -2.02739262e-03, -1.24301324e-02, -1.62478245e-03,
       -1.62779121e-03, -1.65866315e-03, 3.73669621e-03, -2.03794963e-03,
       -3.74316987e-05, 2.01537600e-03, -5.49693406e-03, 5.99967374e-04,
       -8.57970119e-03, -1.69609170e-02, -1.05339577e-02, 2.87015247e-03,
       1.17465248e-02, 1.13447104e-03, 7.36999838e-03, 7.22720230e-04,
       -1.13746328e-02, -3.77859198e-03, -7.96507206e-03,
       -3.54939443e-03, 6.64100656e-03, -4.66387067e-03, 4.96123731e-03,
       6.26913691e-03, 2.99015967e-03, 6.30333729e-04, 7.28021143e-03,
       -3.67231434e-03, 2.86188116e-03, 2.53318530e-03, -4.74947318e-03,
       1.26474572e-03, -7.62749510e-03, -8.26628786e-03, -8.20515864e-03,
       7.33133231e-04, -3.84836621e-03, -1.00167969e-03, -3.86650232e-03,
       6.02876907e-03, 4.00194665e-03, 8.04873649e-03, 4.73076059e-03,
       -3.98923457e-03, -1.30821532e-03, -2.86152121e-03,
       -4.91244486e-04, 2.63174064e-03, -5.64024644e-03, -4.77731135e-03,
       -7.23706698e-03, -9.61099844e-03, -1.08196698e-02, 3.59499501e-03,
       -3.04509816e-03, -9.62536968e-03, 5.15034003e-03, 9.72855464e-03,
       3.80073069e-03, -1.70537306e-03, -2.50099623e-03, 7.60819763e-04,
       3.24034085e-03, -8.73876270e-04, 1.55425238e-04, 6.44913176e-03,
       -7.48065952e-03, 6.31810515e-04, 3.84275522e-03, -3.32898321e-03,
       -5.37885772e-03, 2.28697341e-03, 1.70117745e-03, -1.49193127e-02,
       -1.28501458e-02, 5.25994878e-03, -2.80715409e-03, 4.71743383e-03,
       5.98420156e-05, 5.07295132e-03, 7.18821911e-03, 2.96149100e-03,
       -5.39068738e-03, 9.35711060e-03, -5.09851007e-03, 2.52590718e-04,
       6.91624358e-03, -2.67875800e-03, 3.88812763e-03, 8.65991315e-05,
       -3.24264761e-06, -9.90111753e-03, -4.55638068e-03, 5.13237575e-03,
       2.51629087e-03, 6.97214296e-03, -1.79707038e-03, 1.20877456e-02,
       7.88306631e-03, 1.55733433e-02, -1.04834642e-02, -7.83034414e-03,
       8.33957084e-03, 5.28362580e-03, 6.32775854e-03, 1.19834731e-04,
       1.15911979e-02, 1.12813748e-02, 1.15053337e-02, -1.36386661e-03,
       4.69701923e-03, 8.22348928e-04, 1.77639734e-03, 1.77382752e-02,
       8.54376797e-03, 1.52599923e-02, 6.74089696e-03, 3.09937866e-03,
       -1.39930565e-02, -3.18915304e-03, 1.55763635e-02, 1.04418388e-02,
       2.59633381e-02, 2.73892796e-03, 1.15911150e-03, 8.94611236e-03,
       6.53641857e-03, -1.34124774e-02, 9.72594041e-03, -1.61208422e-03,
       2.20820773e-04, 2.62040598e-03, -5.23310294e-03, 5.42909233e-03,
       4.67162160e-03, 4.85246861e-03, -3.99511121e-03, -2.80345208e-04,
       9.33902152e-03, 9.36696026e-03, 1.38658145e-02, -2.65807682e-03,
       5.60314720e-03, -3.68000404e-03, 8.08184873e-03, 8.62638059e-04,
       -5.11350483e-03, 1.60210859e-02, 1.13818757e-02, 9.78012662e-03,
       -4.55630338e-03, -6.70070367e-05, -3.66744818e-03,
       -5.15038008e-03, -1.40114501e-02, 1.37964147e-03, 1.30761079e-02,
       1.92095805e-02, 1.93499662e-02, -4.65958193e-03, 8.70820228e-03,
       -1.11078878e-03, 7.73528405e-03, -1.20988926e-02, 2.87763309e-03,
       -1.66887743e-03, 3.61175719e-03, 4.08157660e-03, -3.26874899e-03,
       -1.10035874e-02, -4.27168934e-03, -2.97946949e-03,
       -1.45331013e-03, -9.52635054e-03, 5.55591600e-04, 4.28624544e-03,
       2.08096323e-03, 6.29123300e-03, -3.40339192e-03, 6.53798692e-04,
       5.61323017e-03, 1.40138180e-03, 2.51867156e-03, -9.30996984e-03,
       2.86242017e-03, 5.30125480e-03, -1.03207177e-03, -1.10547030e-02,
       -2.42906273e-03, -9.58092231e-03, -1.61893163e-02,
       -1.33189345e-02, -6.28150906e-03, 6.01347350e-03, 5.37664397e-04,
       1.06481034e-02, 9.61492304e-03, 8.61424394e-03, 5.86433150e-03,
       5.09345904e-03, 3.68628767e-03, 6.60093687e-03, -5.94414864e-03,
       -1.81386748e-03, 1.02269100e-02, 3.36858723e-03, 2.26986755e-04,
       -4.65048663e-03, -3.76190583e-05, 1.55844842e-03, 9.19265021e-03,
       -1.27531169e-03, -7.91747123e-03, 1.03536539e-03, -8.90092831e-03,
       2.79383175e-03, -5.83629729e-03, -2.90647848e-03, 8.81729531e-04,
       9.97665804e-03, 8.66091251e-03, 1.49877626e-03, 8.50662775e-03,
       5.55374008e-03, -2.66869483e-03, -6.70404127e-03, 1.75720814e-03,
       1.19631561e-02, 5.22400672e-03, -1.62468117e-04, 5.09890402e-03,
       3.69813154e-03, 2.21108226e-03, 1.35663257e-03, 1.22517382e-03,
       2.26596999e-03, 8.58198479e-03, 2.41699209e-03, 2.76967697e-03,
       3.08026036e-04, 4.77084285e-03, -9.29898862e-03, -3.88357369e-03,
       -8.68280511e-03, 4.18598996e-03, 3.26830149e-03, 6.95701782e-03,
       2.35153851e-03, 3.34304688e-03, 5.92492009e-03, -9.50477365e-03,
       -1.37488311e-02, -1.80931371e-02, -4.17110045e-03, 7.75302527e-03,
       3.56109021e-03, 2.77955667e-03, 7.32793985e-03, 3.96828027e-03,
       -1.06954540e-03, 1.36656109e-02, 1.24334460e-02, 3.52609041e-03,
       4.21418389e-03, 7.46935559e-03, 2.08141468e-03, -2.32890685e-04,
       -4.90887929e-03, -2.33407551e-03, 3.32707632e-03, -6.57066656e-03,
       -1.70210246e-02, 6.21174974e-03, 5.65390754e-03, 8.99122606e-05,
       -1.96331553e-03, 6.24334862e-05, -3.03555443e-03, -2.21626181e-03,
       -5.27815241e-03, 5.73625369e-03, 6.51147030e-03, 1.22078694e-03,
       -1.96744897e-03, -1.52805506e-03, 6.24957634e-03, 7.73961702e-03,
       8.25488847e-03, -1.83629547e-03, -2.64108065e-04, -8.36895604e-04,
       1.50638772e-03, -3.76636651e-03, -9.62578505e-03, -8.42383876e-03,
       1.55772073e-02, 3.46496026e-03, -4.46142163e-04, 5.03442436e-03,
       4.11878573e-03, -3.15136788e-03, -4.58085118e-03, 7.66396476e-03,
       1.38637032e-02, 7.93811399e-03, 6.54490944e-03, 9.18369461e-03,
       1.32526793e-02, -3.57166678e-03, -6.28460059e-03, -6.18781149e-03,
       8.19573645e-03, 9.34642553e-03, 4.04934603e-04, -5.38509153e-03,
       -1.13373669e-02, -8.14185571e-03, -9.78272129e-03,
       -5.34755690e-03, -7.52712646e-03, 5.74229704e-03, 7.45775318e-03,
       4.31633182e-03, 9.45193414e-03, 8.86208657e-03, -7.71859474e-03,
       -1.04461722e-02, -9.74713068e-04, -5.38630085e-03, 1.00767035e-02,
       1.67215485e-02, 2.48507247e-03, -1.12482030e-02, -5.06035844e-03,
       5.29813999e-03, -6.58129156e-03, 3.99757084e-03, 1.82600156e-03,
       4.49866941e-03, 7.69879296e-03, 1.89081766e-03, 3.32653779e-03,
       -2.07252358e-03, 1.13703860e-02, -6.44595479e-04, -5.17713884e-03,
       -1.07926847e-02, -3.01334937e-03, -2.19222577e-03,
       -4.68808226e-03, 5.70601458e-03, 1.47695467e-03, 1.61026767e-03,
       -2.21639429e-03, -1.83503013e-04, -6.84791850e-03, 7.00830203e-03,
       4.64823050e-03, 3.35874851e-03, -6.75239321e-03, -6.96164416e-03,
       2.67724670e-03, 1.45868456e-03, 1.66778488e-03, 6.86993916e-03,
       -1.71721238e-03, -1.40900556e-02, -7.82974251e-03, 3.87734734e-03,
       -1.06094987e-03, 1.51578505e-02, 4.26187227e-03, 6.59931358e-03,
       7.23498408e-03, 1.15457363e-02, -4.95853135e-04, 2.16168188e-03,
       -1.52960783e-02, -5.52204950e-03, 1.17882788e-02, 8.46092589e-03,
       5.47262141e-03, -8.43522977e-03, 9.23459593e-04, -4.72716242e-03,
       2.14610365e-03, -7.43121328e-03, -6.17779186e-03, 2.16711708e-03,
       1.01944003e-02, 1.12510882e-02, -2.44533783e-03, -7.39839673e-03,
       -3.17693618e-03, 5.00172493e-04, -8.78618471e-03, -2.46540410e-03,
       1.29909231e-03, 5.70778269e-03, 1.20382151e-02, 3.01395473e-03,
       2.67507602e-03, 1.33930333e-03, 1.96580160e-02, -1.16290366e-02,
       -1.16823791e-02, 1.16404635e-03, 3.93111212e-03, 4.77404241e-03,
       3.93731473e-03, -9.34478734e-03, -7.49307498e-03, -5.33149438e-03,
       -1.18071958e-02, -1.60333011e-02, -9.19486629e-04,
       -7.05814222e-03, 1.41496630e-02, 4.06825263e-03, -9.46080219e-03,
       1.91164145e-03, -5.82512887e-03, -4.85800207e-03, -2.06770189e-03,
       -7.23018683e-03, -1.54708617e-03, 9.59544443e-03, -4.29537985e-03,
       1.27054034e-02, 6.04229188e-03, -4.79180599e-03, 4.15526214e-04,
       5.10464888e-03, -1.21711371e-02, -8.25503096e-03, -3.94038390e-03,
       2.17842637e-03, -2.73946766e-03, -5.92255685e-03, -1.51475063e-02,
       -7.30938232e-03, -2.64412840e-03, -4.06407099e-03,
       -4.51912731e-03, -4.08758037e-03, -7.26908864e-03, 2.21834495e-03,
       -5.60214394e-04, -2.68409029e-04, 1.47005050e-02, 1.62888914e-02,
       2.30919966e-03, -2.97853979e-03, 2.54561682e-03, -1.54740727e-02,
       -4.80414741e-03, -4.46539372e-03, -9.32447426e-03,
       -3.09019093e-03, 5.15677081e-03, -3.09947599e-03, 5.11270715e-03,
       8.56601354e-03, -1.04151787e-02, -1.95608661e-02, -8.57595634e-03,
       -1.40703209e-02, 2.86100898e-03, 1.09349089e-02, -4.31724871e-03,
       3.70725943e-03, -5.54975495e-03, -7.87605252e-03, -5.46408212e-03,
       -1.00053642e-02, -1.00737775e-03, 8.20667669e-03, 1.34954359e-02,
       1.13711478e-02, 4.68851579e-03, 2.44123791e-03, 1.37922645e-04,
       -5.36668580e-03, -6.83322921e-03, -3.69777950e-03, 2.56078690e-03,
       6.82705361e-03, 1.74232339e-03, -5.93892206e-03, 8.07094760e-03,
       1.76665501e-03, -8.21565557e-03, -5.81961172e-03, 4.72137192e-03,
       5.22104790e-03, 1.02935964e-02, -1.09250527e-02, -1.49617344e-03,
       -1.22784497e-03, 4.26307647e-03, -5.51866833e-03, -7.26812214e-05,
       7.15256575e-03, 1.63298827e-02, 5.55247359e-04, -9.11072921e-03,
       -1.59535911e-02, 4.59701102e-03, 2.83435080e-03, -3.73420073e-03,
       -1.22991856e-02, 6.87758671e-03, 9.12377890e-03, 4.20233048e-03,
       -1.16306276e-03, -2.20330618e-03, -8.44119641e-04,
       -1.87199051e-03, -8.55244510e-03, -6.87723374e-03, 7.61404820e-03,
       9.30387061e-03, 9.05349199e-03, -3.66057805e-03, -4.22990648e-03,
       7.07023172e-03, 2.57794349e-03, -2.65139784e-03, -1.53932057e-03,
       4.66736546e-03, 3.58422799e-03, -1.90281600e-03, -5.85109461e-03,
       -1.23045966e-02, 7.41241325e-04, -1.88727188e-03, 1.10804441e-03,
       -5.79968281e-03, -1.52032133e-02, 4.55342117e-04, 3.52273718e-03,
       -4.41394141e-03, -9.87295900e-03, 1.11565907e-02, 4.64213267e-03,
       6.38260244e-05, -2.63768132e-03, 4.84448578e-03, 1.01104588e-03,
       1.89312436e-02, 5.08413091e-03, 4.36398387e-03, 1.03202257e-02,
       -2.60492065e-03, -1.73081551e-03, 7.03125203e-04, -1.88905057e-02,
       3.60469590e-03, 4.09365259e-03, 3.17709724e-04, 7.75766745e-03,
       -3.90647165e-03, 1.44178711e-03, 1.16501353e-03, -8.23726598e-03,
       -1.32893061e-03, 2.42347363e-03, 9.08595324e-03, -4.72556893e-03,
       -6.59374427e-03, 2.48375023e-03, 3.05064092e-03, -1.40628748e-04,
       -1.29465284e-02, -6.51088962e-03, -5.42420940e-03,
       -2.36216956e-03, -7.52367498e-03, 1.16766058e-03, 9.87593830e-03,
       -2.81649205e-04, -1.25420922e-02, -5.14339143e-03, 1.05103501e-03,
       9.58048645e-03, 9.29904636e-03, -7.99917849e-04, 1.99926645e-02,
       4.75214189e-03, -4.15501511e-03, -1.12303253e-02, -6.58352999e-03,
       -6.11555763e-03, 9.36392462e-04, 2.67841690e-03, -6.73474837e-03,
       1.41834784e-02, 1.05532175e-02, 1.08984218e-03, -8.26836738e-04,
       -1.56562380e-03, -2.94672413e-04, 3.38609889e-03, 2.76996219e-03,
       -2.40373169e-03, 3.32342624e-03, 7.72875315e-03, -7.73507752e-04,
       -3.46944644e-03, 1.08285004e-03, 2.49377196e-03, 6.20235875e-03,
       -3.03089223e-03, 2.76535354e-03, 2.50803703e-03, 1.33922667e-05,
       -1.26499403e-03, -5.02402429e-03, 5.87839494e-03, 2.66320538e-03,
       1.11675700e-02, -5.40417572e-03, -2.61163502e-03, 1.90192528e-04,
       3.04902438e-03, -6.96630590e-03, -1.78282906e-04, 6.11382490e-03,
       5.98544348e-03, 9.16666538e-03, 3.10674380e-03, 1.12880114e-02,
       -2.55008857e-03, 6.95951143e-03, 2.15896452e-03, -6.66379929e-03,
       -1.95683050e-03, 1.09564234e-02, 4.57116915e-03, -1.16360607e-03,
       1.66045711e-03, -1.08332175e-03, 5.10124257e-03, 5.60316863e-03,
       -4.87613725e-03, -4.66268230e-03, 2.87730084e-03, -1.07312563e-03,
       4.83144121e-03, 4.73181205e-03, -7.11948192e-03, 4.09929221e-03,
       2.99443747e-03, -6.53142063e-03, 5.41464798e-03, 6.62844861e-03,
       5.42388239e-04, 2.50819139e-04, 8.76716804e-03, -6.14487845e-03,
       1.42156463e-02, 1.43968879e-04, -4.95623145e-03, -1.48830947e-03,
       -6.01495756e-03, -8.36100616e-03, -7.24694692e-03, 2.37299409e-03,
       2.32867408e-03, 3.01975105e-03, 6.84101135e-03, -2.24980246e-03,
       3.12738563e-03, 7.23251421e-03, -3.66783375e-03, 3.80242802e-03,
       2.53644539e-03, -2.69116880e-03, 3.27651598e-03, 8.43961630e-03,
       7.86641031e-04, -1.56812326e-04, -1.06779421e-02, -1.98978302e-03,
       1.57697126e-02, 3.76240746e-03, 7.21759535e-03, 4.27394034e-03,
       7.54642859e-03, 3.07791214e-03, 5.11770742e-03, 7.18447519e-03,
       -1.65946782e-02, -7.76481582e-03, 6.96230156e-04, -5.73363272e-04,
       6.34282315e-03, 1.21777132e-02, 1.00481855e-02, -7.06061779e-04,
       1.26538137e-02, -1.54370740e-02, -1.41414741e-04, 5.30262338e-03,
       5.14177000e-03, 2.95036181e-04, -4.45711252e-04, -1.00481613e-02,
       -3.04376613e-03, -9.90422815e-03, 1.85019500e-03, 1.23410560e-02,
       9.28387139e-03, 3.85653577e-03, -1.57038514e-02, 2.27010972e-03,
       -4.66133747e-03, 6.12790044e-03, 1.62327103e-03, 3.52431298e-03,
       7.53417518e-03, 1.97013840e-03, -9.99036245e-03, -2.53829639e-04,
       5.23875235e-03, 2.82911758e-04, 2.81288056e-04, 5.04769525e-03,
       -3.21639259e-03, 7.43293064e-03, 1.34871127e-02, -8.76130245e-04,
       9.79962992e-04, 1.05627459e-02, 8.42291117e-03, 6.57891063e-03,
       6.43074885e-03, 2.78630783e-03, 4.27539041e-03, 9.24033485e-03,
       -5.48986858e-03, -1.55544318e-02, 8.09496501e-04, -7.92565662e-03,
       1.21826102e-04, 3.25429742e-03, 1.90407305e-03, 5.43302100e-04,
       -5.09523507e-03, -1.32995211e-02, -2.22249003e-03,
       -5.29811776e-04, 4.17694729e-03, 2.78192549e-03, 8.71844310e-03,
       -3.72900767e-03, 7.98181398e-04, -2.55869236e-03, 6.66868698e-04,
       5.82984369e-03, 3.45480512e-03, 8.31346028e-04, 3.88874486e-03,
       1.00013604e-02, 1.07583217e-03, -9.08821414e-04, 2.48507527e-03,
       -3.67608760e-03, 8.56537558e-03, 2.03677430e-03, -4.87293350e-03,
       -1.14227775e-02, 3.84492055e-03, -8.19403678e-03, -6.37404248e-03,
       -7.77980778e-04, 4.70184954e-03, 7.24694552e-03, 6.11115387e-03,
       -4.68138326e-03, -1.15447296e-02, 8.50328337e-03, -5.18791517e-03,
       -4.29729465e-03, 2.94923154e-03, 2.29086494e-03, -1.23280822e-03,
       9.07154288e-03, -1.00379093e-02, -1.41975330e-02, -9.71694477e-03,
       -1.74790749e-03, -1.91043108e-03, 2.24889931e-03, -4.95393714e-03,
       8.96004029e-03, 1.19716208e-02, -4.12488030e-03, -2.11513415e-02,
       1.71683952e-02, -2.90142605e-03, -6.60571782e-03, 8.71965662e-03,
       4.60576313e-03, 8.82749213e-04, 4.86196438e-03, -1.16552310e-02,
       -7.53953122e-03, -8.54286645e-03, -4.38433420e-03, 1.46727485e-03,
       5.55903232e-03, -3.25292232e-03, -6.43847976e-03, 5.48616564e-03,
       -1.06539512e-02, -5.43312263e-03, -5.75466827e-03,
       -8.96514684e-04, 1.34936208e-03, 5.60101215e-03, -8.20105337e-03,
       1.48454669e-03, 7.47926347e-03, -2.09186575e-03, 4.88238409e-03,
       1.53268920e-03, 2.30895914e-03, -3.44059686e-03, 1.52504619e-03,
       -4.07078769e-04, -4.65354323e-03, -2.33018235e-03, 1.29611918e-03,
       1.38505865e-02, 1.00450823e-02, -8.94998200e-04, 5.83034009e-03,
       7.51939742e-03, -5.26483031e-03, 5.82321268e-03, -1.98704517e-03,
       2.59204395e-03, 1.09690214e-02, 1.52616408e-02, 7.75442459e-03,
       7.06152385e-03, 3.32178478e-03, 2.84182932e-03, -3.48702830e-04,
       -1.99746387e-03, 1.16643617e-02, 7.42378086e-03, 9.69123375e-03,
       -4.53436375e-03, -2.75628711e-03, -3.84372985e-03, 6.67994143e-03,
       1.12503339e-02, 2.22588866e-03, 1.08066341e-02, 7.40844943e-03,
       -7.72893429e-03, -6.21983595e-03, -1.58003194e-03, 9.48085170e-03,
       2.01527402e-02, 2.52515497e-03, -1.43556739e-03, 4.25661728e-03,
       6.52046129e-03, 5.15864184e-03, -3.83263477e-03, 1.74131186e-03,
       -2.91329902e-03, 1.34428348e-02, 9.76746622e-03, 4.75521479e-03,
       6.03532884e-03, 3.63710546e-03, -1.88697013e-03, -1.25968568e-02,
       -4.59409412e-03, 3.06062633e-03, 1.37432786e-02, 5.20233577e-03,
       -7.41849071e-04, 3.09169851e-03, 1.41280901e-03, -2.16690241e-03,
       -7.95737258e-04, -4.79458552e-03, 5.85709466e-04, 4.90402663e-03,
       -7.38121290e-03, -1.86344830e-03, -3.58400098e-03,
       -1.17820445e-02, 1.58496317e-03, 8.56077392e-03, -5.35380328e-03,
       -7.19213346e-03, 1.68575242e-03, 3.20429890e-03, -7.17557920e-03,
       -4.67568217e-03, -2.94493046e-03, 5.99605963e-04, -1.04714802e-03,
       -1.13509456e-02, 5.17850742e-04, 1.97313773e-03, 2.61929841e-03,
       3.04265041e-03, 6.07141468e-04, -7.67522166e-03, 5.40600205e-03,
       6.51425309e-03, -4.60135099e-03, 4.36732639e-03, 4.51787608e-03,
       -7.27855740e-03, -4.26761201e-03, -1.60079554e-03,
       -3.35801044e-03, -3.98126757e-03, 8.59140232e-03, 9.77269839e-04,
       -1.98592222e-03, 2.71673780e-03, -1.23876911e-02, -3.25016794e-03,
       6.84271939e-03, -3.92041914e-03, -9.64720547e-03, -5.09428000e-03,
       -2.77314615e-03, -5.95531613e-03, -5.37736854e-03, 4.53828229e-03,
       1.23268953e-02, 6.76329574e-03, -1.99792930e-03, -2.95267161e-03,
       8.34600255e-03, 4.27094707e-03, 7.65344454e-03, 4.56414651e-03,
       8.21314193e-03, 2.26221774e-02, 2.83875410e-02, 1.20615661e-02,
       -4.22768202e-03, -2.76141567e-03, 4.41848300e-03, 7.91574549e-03,
       3.98355816e-03, -1.57386158e-02, -7.24807987e-03, 4.50574514e-03,
       5.07074688e-03, 4.70671523e-03, 8.54127342e-04, -8.78484175e-03,
       -1.29081877e-02, -1.13367261e-02, -6.44324161e-03, 4.45856852e-03,
       7.74389878e-03, 7.35968305e-03, -1.60069764e-03, -1.18544057e-03,
       -6.63436297e-03, -1.65249240e-02, -9.23444796e-03, 1.40648317e-02,
       1.01595093e-02, 1.90327913e-02, 1.08822081e-02, 1.41386017e-02,
       3.53283552e-03, 9.36141610e-03, -1.15681476e-04, 1.11382660e-02,
       1.30341155e-02, 5.09108230e-03, 4.31821588e-03, 9.56934690e-03,
       1.27595859e-02, 5.74871944e-03, 1.39042074e-02, -9.61326412e-04,
       4.43910668e-03, -9.05779016e-04, 4.78134118e-03, -2.22622836e-03,
       5.15134493e-03, -2.04356690e-03, -5.85315470e-03, -4.40309942e-03,
       -1.18308002e-02, -1.92499859e-03, 2.97206338e-03, 7.89929740e-03,
       1.77650573e-03, -5.02310647e-03, -5.15059661e-03, -5.50119765e-03,
       2.25855364e-03, -1.22970780e-02, -6.63418462e-03, 4.94798692e-03,
       -2.49502715e-03, -4.46618022e-03, -2.01093988e-03, 3.46487015e-03,
       -3.12008127e-03, 1.04768658e-02, -1.04141800e-05, 1.32718749e-04,
       1.04811201e-02, 1.08008627e-02, 7.29303202e-03, -2.41779583e-03,
       4.02979832e-03, -2.15191371e-03, 8.70478712e-03, 1.30456211e-02,
       9.99803282e-03, -2.43310886e-03, -2.16727774e-03, -5.31628774e-03,
       -6.79562334e-03, -8.95098969e-03, -4.81224502e-04, 3.53166973e-03,
       -6.03021309e-03, -4.20300011e-03, 2.37180502e-03, 2.23010359e-03,
       8.08337296e-04, 1.38527965e-02, 1.27196154e-02, 1.05536962e-02,
       1.42567093e-02, 7.70762376e-03, 1.17084002e-02, -5.31518366e-03,
       -4.20888280e-03, -9.71086044e-03, -1.09507442e-02,
       -8.43711663e-03, -5.27256215e-03, 2.77959253e-03, 3.34147061e-03,
       -1.11430978e-04, -3.82446172e-03, -1.03787584e-02,
       -9.51420050e-03, 5.02040377e-03, 1.10639604e-02, 2.67154281e-03,
       1.54712936e-02, 1.54964980e-02, 6.21996634e-03, -2.95454898e-04,
       2.59072846e-03, -1.89971121e-03, 1.21222362e-02, 3.90999997e-03,
       -6.31302083e-03, -1.80102175e-03, 3.32297152e-03, 7.47960247e-03,
       -4.33161331e-04, -1.23113049e-02, -7.07171718e-03, 4.71832044e-03,
       3.46659706e-03, 5.99501946e-04, -6.22766837e-03, -6.14504050e-03,
       1.87727169e-03, -6.42110966e-03, -6.83787232e-03, -5.00989938e-03,
       6.30583568e-03, -1.02182701e-02, -7.22765690e-03, 2.82275910e-03,
       1.10035902e-02, 1.40396110e-03, -3.33424332e-03, -2.41294227e-04,
       -1.76017915e-04, 4.15973039e-03, 4.96985205e-03, 5.55283017e-03,
       1.81925279e-04, 7.31134135e-03, 2.55721214e-04, 1.63339340e-04,
       -8.43712501e-03, -4.45049582e-03, 1.98289496e-03, -3.38249444e-03,
       1.36247799e-02, 3.49597097e-03, -3.36744892e-03, 3.59067670e-03,
       -4.43738466e-03, -1.29113737e-02, -1.48046892e-02,
       -9.00552049e-03, 4.48629353e-03, 1.23852892e-02, -3.89722479e-03,
       -3.28789372e-03, 7.86119141e-03, 2.75755790e-03, 9.82637051e-04,
