%YAML:1.0
---
detector_l: !!opencv-object-detector-hog
   winSize: [ 200, 200 ]
   blockSize: [ 16, 16 ]
   blockStride: [ 8, 8 ]
   cellSize: [ 8, 8 ]
   nbins: 9
   derivAperture: 1
   winSigma: 4.
   histogramNormType: 0
   L2HysThreshold: 2.0000000000000001e-01
   gammaCorrection: 1
   nlevels: 64
   signedGradient: 0
   SVMDetector: [ -2.09865929e-03, 2.06733798e-03, 3.90750496e-03,
       1.66366191e-03, -6.44163135e-03, -9.75953043e-03, 1.42845197e-03,
       2.98762764e-03, -1.65117485e-03, -6.15312718e-04, -1.50402216e-03,
       5.89212496e-03, 7.31432112e-03, -8.95801466e-04, -4.21304023e-03,
       5.95964491e-03, -7.54669076e-04, -7.26014958e-04, -6.00926252e-03,
       -4.14883392e-03, -1.59407756e-03, 5.49696898e-03, 1.63673877e-03,
       -2.97582475e-03, 2.72811903e-03, 7.40382448e-03, -1.40373722e-05,
       -9.67926928e-04, -2.29456881e-03, 2.88990443e-03, 7.16547389e-03,
       9.91428457e-03, -3.80524481e-03, 2.95782206e-03, -1.21349527e-03,
       -3.28620372e-05, 3.47854011e-03, 1.40217307e-03, 3.07041779e-03,
       1.18331192e-02, -1.20665075e-03, -1.44073612e-03, 1.88806315e-03,
       5.11657167e-03, 2.51199119e-03, -5.76762576e-03, -4.08408139e-03,
       -4.75977222e-03, -7.72144413e-04, 1.02264073e-03, 9.67801921e-03,
       6.36794092e-03, 1.04684839e-02, 4.00309218e-03, 9.56902630e-04,
       -2.70565692e-03, -8.86669615e-04, 7.00065540e-03, -2.20074528e-03,
       -3.42330866e-04, -3.81389819e-03, -2.46315543e-03,
       -6.88257569e-04, -4.05929098e-03, -2.92727165e-03,
       -7.90911145e-04, -5.11504186e-04, -1.21505756e-03, 1.03594353e-02,
       2.34040362e-03, 9.06098052e-04, -4.63075470e-03, -8.55002459e-03,
       -3.35672544e-03, -1.03508378e-03, -3.51359555e-03, 9.54166241e-03,
       9.83309466e-03, 5.13354037e-03, 8.54459086e-06, 2.68834294e-03,
       -2.83775595e-03, -4.79473732e-03, -2.46598409e-03,
       -8.46618321e-03, -5.67718735e-03, -4.80290176e-03,
       -1.65853649e-03, -3.82075406e-04, 4.48805559e-03, -3.91664775e-03,
       -2.72139511e-03, 4.93192021e-03, 1.33948354e-03, 7.03286938e-03,
       8.45942087e-03, 2.48092599e-03, -4.68935445e-03, -4.64660907e-03,
       9.40201338e-03, 1.21854956e-03, 1.05867684e-02, -2.68170820e-03,
       1.63931909e-04, 5.38878236e-03, 2.54733721e-03, -5.13638603e-03,
       4.25529853e-03, -1.72509183e-03, 1.27757748e-03, 1.57521141e-03,
       -5.77163463e-03, -2.55667628e-03, -7.60239782e-03,
       -2.20173434e-03, 2.87644030e-03, -7.88883888e-04, -8.91780655e-04,
       4.09753155e-03, 7.15490477e-03, 4.16650670e-03, 7.08477385e-03,
       -9.95590817e-03, -6.84982806e-04, 7.89951626e-03, 3.56918405e-04,
       5.80178481e-03, -3.39496578e-03, 7.53521081e-03, -4.86228522e-03,
       2.48491857e-03, 2.09415494e-03, 2.06489791e-03, 2.70440127e-04,
       2.27121916e-03, 6.44765212e-04, 1.51383667e-03, 7.23638525e-03,
       -1.69884675e-04, 3.73463240e-03, -5.03234426e-03, -1.04548479e-03,
       1.67625421e-03, 1.02479581e-03, -5.84652834e-03, 4.19822801e-03,
       1.79908145e-03, -1.54837046e-03, 7.97883049e-03, -1.20828655e-02,
       -6.53211400e-03, 5.81100304e-03, 1.10617303e-03, -6.84472499e-03,
       2.61522684e-04, 8.68746662e-04, -2.85021961e-03, 2.92590912e-03,
       -6.63716905e-03, -8.09356687e-04, 6.94643892e-03, 2.59420858e-03,
       -4.26176470e-03, 1.30593078e-03, -4.85139608e-05, -5.39383339e-03,
       3.83337145e-03, -1.02718975e-02, -1.13198832e-02, -2.04399158e-03,
       6.66254433e-04, 1.56358734e-03, 3.18354671e-03, 2.50151195e-03,
       -3.88267939e-03, -2.04389813e-04, -1.03767850e-02,
       -2.64460966e-03, 5.78874722e-04, 8.30193050e-03, -2.75851809e-03,
       1.64427317e-03, -2.79738870e-03, -3.59461922e-03, -5.53731713e-03,
       -5.57656575e-04, 1.35770987e-03, 5.90974791e-03, -1.47852430e-03,
       -3.81513586e-04, 2.55310792e-03, 5.56862680e-04, -9.08941776e-03,
       -4.84515214e-03, 1.92629395e-03, 3.48246540e-04, -2.45729787e-03,
       5.18419314e-04, 9.75176925e-04, 1.91889284e-03, -4.36819810e-03,
       -6.59406791e-03, -5.48852840e-03, -6.01745956e-03, 5.17390110e-03,
       4.34816489e-03, 1.66272314e-03, -8.24097311e-04, -1.83602294e-03,
       6.05452107e-04, -7.69893220e-03, -1.82456046e-03, 4.84406156e-03,
       7.80936144e-03, -1.91368605e-03, -2.36482592e-03, 2.77433218e-03,
       2.86845188e-03, -6.29777927e-03, -1.09131476e-02, 3.80348554e-03,
       5.13163861e-03, 1.05231244e-03, 8.85488291e-04, 8.35448038e-04,
       4.29665018e-03, 1.83712132e-03, -4.89371317e-03, -6.91612577e-03,
       6.06142171e-03, 2.19012564e-03, 3.05935042e-03, 3.43861384e-03,
       3.62755614e-03, -4.18948289e-03, -4.91458178e-03, -3.65929585e-03,
       -4.61317739e-03, 7.50435237e-03, 6.05990412e-03, 1.92466972e-03,
       -5.71482815e-03, -2.74951872e-03, 1.76855561e-03, 4.25965432e-03,
       -1.38031773e-03, -1.11660575e-02, 6.52870629e-03, 3.43323359e-03,
       3.35975434e-03, -3.74264410e-03, 4.41924948e-03, 2.31448864e-03,
       -3.12157883e-03, -2.37405975e-03, -4.84082662e-03,
       -6.37366250e-03, -1.10969006e-03, -3.10580293e-03,
       -2.53870012e-03, 1.17811339e-03, 6.18854910e-03, 1.14156329e-03,
       5.84887713e-03, 2.06066458e-03, -8.91240081e-04, 4.20898153e-03,
       9.43401828e-04, -2.28177896e-03, 1.75949448e-04, 4.25017672e-03,
       6.19098358e-03, 4.00551315e-03, -7.68636959e-03, -5.65109402e-03,
       -3.10247415e-04, 9.58291872e-04, -1.43998579e-04, 7.68279983e-03,
       3.37648392e-03, 2.95010488e-03, 5.99924847e-03, -5.83994028e-04,
       2.03034352e-03, 1.71503297e-03, 6.20849244e-03, -2.37313798e-05,
       4.54384368e-03, 3.70524847e-03, 3.67949298e-03, 3.92008433e-03,
       2.32922379e-03, 2.33047991e-03, 3.20657296e-03, -1.27530145e-03,
       -5.97573584e-03, -9.97704640e-03, -2.36546432e-04, 3.90728749e-03,
       -3.19802156e-03, -1.56491506e-03, 7.87194166e-03, 4.64940723e-03,
       -3.56797711e-04, 8.15601496e-04, -8.32145568e-03, 6.09708950e-03,
       5.26669854e-03, 9.26728710e-04, -4.00091708e-03, -1.25427137e-03,
       -3.36942356e-03, -2.61449092e-03, -5.92879718e-03,
       -9.42436222e-04, 5.90960961e-03, 6.67941198e-03, -9.70827605e-05,
       -1.83647091e-03, 4.20551794e-03, 2.94253638e-04, -1.62446778e-03,
       -4.28162981e-03, -5.19581186e-03, 1.94995000e-03, 6.72494620e-03,
       2.19964213e-03, -3.07542621e-03, 4.75361943e-03, 1.54016670e-04,
       3.86293803e-04, 5.82589069e-04, -7.11276662e-03, -2.41477787e-03,
       5.22506796e-03, 7.14175811e-04, -8.50591157e-03, -6.85018068e-03,
       -5.66811577e-05, -3.30160954e-04, -3.79110046e-04,
       -7.89725780e-03, 3.94539628e-03, 9.01392568e-03, 7.34691694e-03,
       1.87912234e-03, 6.14160625e-03, 1.91905105e-03, 6.97754731e-05,
       -4.07838682e-03, -6.77725952e-03, -1.87850208e-03, 3.77378194e-03,
       4.46414854e-03, -4.08230489e-03, -1.84806541e-03, -4.68928646e-03,
       1.83454843e-03, -6.11505331e-03, -3.88520025e-03, 3.80770513e-03,
       1.22254365e-03, 1.01739250e-03, -6.98145758e-03, -3.16746905e-03,
       1.84475677e-03, 2.07844144e-03, -1.13398116e-03, -2.47784681e-03,
       9.87957045e-03, 6.14734134e-03, 2.91136233e-03, -9.33926832e-03,
       -4.89584357e-03, -3.79849551e-03, -1.49831781e-03,
       -6.08141068e-03, -3.08015873e-03, -7.56106153e-03,
       -3.07784328e-04, -8.02272407e-04, -6.23206235e-03, 2.21905182e-03,
       -3.19683342e-03, -7.40230025e-05, -2.65137223e-03, 1.75577472e-03,
       4.00670012e-03, 4.59597353e-03, 1.26267159e-02, -4.90033813e-03,
       -1.52884191e-03, 1.26484869e-04, 4.24540881e-03, -1.17285468e-03,
       4.33798134e-03, 3.86191206e-03, 6.63019111e-03, 2.63451110e-03,
       -6.22826163e-03, 5.66136441e-04, 3.91082111e-04, 7.53074535e-04,
       -4.87935357e-03, -2.95467582e-03, 5.36181964e-03, 5.55521809e-03,
       1.40160031e-03, -8.06001108e-03, -1.39326719e-03, -4.49728547e-03,
       4.03457234e-04, -1.74130243e-03, -2.71816947e-03, 5.66813513e-04,
       3.01221292e-03, 1.00812120e-02, 3.02570872e-04, 6.69661630e-03,
       1.91904476e-03, 5.69850672e-03, 1.77554175e-05, 5.38230594e-03,
       -3.50250839e-03, -1.02792180e-03, -2.01406190e-03,
       -4.81662014e-03, -1.69874064e-03, -4.92701773e-03, 1.52621930e-03,
       -2.64335237e-03, -1.79495127e-03, 5.33499755e-03, 4.97284345e-03,
       2.99571804e-03, -5.00113424e-03, -6.19610539e-03, -2.67082913e-04,
       -4.47847182e-03, -1.98372221e-03, 1.79006916e-03, 3.72063834e-03,
       7.96338171e-03, 3.48329870e-03, -3.59353377e-03, -1.60282711e-03,
       -1.34447240e-03, -6.54800562e-03, -6.28144830e-04, 5.58611425e-03,
       5.91561431e-04, 1.12050481e-03, -3.83589533e-03, -5.82405133e-03,
       7.71861756e-04, -4.36934170e-05, -9.83662088e-04, -3.08392267e-03,
       -2.83683022e-03, 1.03272721e-02, 9.14172828e-03, 6.40825043e-03,
       -7.75225135e-03, -9.04438421e-05, 1.50996516e-03, 2.05803360e-03,
       1.35718798e-03, 5.76955313e-03, 3.14314780e-03, 7.23757641e-03,
       1.93218049e-03, -6.01572404e-03, -3.27616790e-03, -8.02598801e-03,
       -3.33812740e-03, -3.66216805e-03, 9.55644529e-03, 4.04631812e-03,
       4.38935496e-03, -3.12055228e-03, -1.73105148e-03, -1.88698992e-03,
       -4.48832894e-03, 8.00167618e-04, 1.72859500e-03, 7.31515000e-03,
       6.84804982e-03, 8.01429525e-03, 3.52386432e-03, -7.41007831e-03,
       -2.33197658e-04, -7.59626832e-03, -2.98345042e-03,
       -1.29217433e-03, 6.13452820e-03, 1.61464722e-03, 1.53068884e-03,
       2.36857263e-03, 1.30350201e-03, -4.22160514e-03, -2.92347092e-03,
       -5.62307984e-03, -3.65015259e-03, 5.69129479e-04, 3.23169003e-03,
       3.70588712e-03, 9.38019191e-04, -6.68162247e-03, -1.95680605e-03,
       -1.00233657e-02, -1.89114420e-03, -2.57215579e-03, 5.75614860e-03,
       4.69286507e-03, 2.09921598e-03, -2.71013472e-03, -3.33772413e-03,
       1.93421566e-03, -1.04910415e-02, 3.45124560e-03, 3.71121522e-03,
       2.93653272e-03, 1.12419453e-04, -2.55160709e-03, 5.50574798e-04,
       -1.35638507e-03, -2.49590795e-03, -8.60059634e-03,
       -3.90559318e-03, -4.36351635e-03, 3.58878460e-04, 6.14489382e-03,
       4.38196398e-03, 4.83745569e-03, 2.31189327e-03, -4.83865209e-04,
       -1.10653676e-02, 4.03978396e-03, 2.59606936e-03, -3.77397914e-03,
       -1.77030335e-03, -2.12437892e-03, -2.50540138e-03,
       -8.42182140e-04, 4.11381293e-03, -1.23932548e-02, -4.53574350e-03,
       1.41469785e-03, 1.57849537e-03, -2.36141402e-03, -3.75446118e-03,
       2.26676479e-04, 6.67778403e-03, 6.22944674e-03, -6.20921189e-03,
       -4.90457471e-03, 1.24278871e-04, 7.71128060e-03, 1.90723222e-03,
       6.97481725e-03, 6.65166928e-03, 1.51199370e-03, 3.69246374e-03,
       -7.86561426e-03, -1.14795973e-03, -1.06347713e-03,
       -5.13812341e-03, 7.62413675e-03, 4.02942300e-03, 1.25478208e-03,
       5.44487964e-03, 7.81647395e-03, -6.54860632e-03, -7.50846462e-03,
       -3.89560987e-03, -3.24058277e-03, 2.52104383e-05, -2.42076535e-03,
       -2.32675666e-05, 1.30227702e-02, 5.13112778e-03, -3.95793933e-03,
       -6.91095321e-03, -2.29363493e-03, 7.29360478e-03, -3.62221408e-03,
       -4.64796415e-03, 3.04113468e-03, 1.10884113e-02, -2.51532020e-03,
       -4.25987085e-03, -1.68007764e-03, -2.27803783e-03,
       -6.53761299e-03, 4.34451125e-04, -1.11271115e-03, -2.54743570e-03,
       6.48112129e-03, 3.64310283e-04, -7.49383913e-03, -9.53467563e-03,
       -2.13788915e-03, -1.16953871e-03, -1.47133053e-03,
       -4.28497884e-03, -4.34925640e-03, 6.89330976e-03, -4.44897078e-03,
       -5.23965061e-03, -6.32746750e-03, -8.75796750e-03,
       -7.43248209e-04, -3.90419038e-03, -5.90563379e-03, 1.00173859e-03,
       -7.58093447e-05, 3.69631889e-04, 2.19040387e-03, 2.93518254e-03,
       -7.47693121e-04, -6.27220934e-03, -5.24760922e-03,
       -4.14288510e-03, 1.49342383e-03, 1.45517744e-03, -6.03107922e-03,
       -3.10723227e-03, -5.06109325e-03, -3.62882065e-03,
       -7.79583259e-03, 2.11101561e-03, -1.69662398e-03, 1.09502638e-03,
       3.56727117e-03, -1.11800339e-03, 3.60033964e-03, 1.10348244e-03,
       -1.93677237e-03, 4.23247041e-03, 1.38342166e-02, 8.87402054e-03,
       9.50110238e-03, 8.90811265e-04, -7.18988292e-03, -3.21748294e-03,
       -2.58397404e-03, 4.06126455e-05, 5.58400806e-03, 1.67647167e-03,
       4.33321693e-04, -5.57120657e-04, 4.24222648e-03, -5.23221586e-03,
       -1.02511654e-03, -4.14084131e-03, -5.62583283e-03,
       -5.61591424e-03, 4.74861497e-03, 1.23745003e-05, 3.08332499e-03,
       6.54956326e-03, -1.16735119e-02, -8.22364911e-03, -8.47501494e-03,
       -6.07235171e-03, -2.57817702e-03, 1.10996021e-02, 4.03065421e-03,
       1.01807201e-02, 2.47904798e-03, -9.99805983e-03, -2.84329313e-03,
       -3.26019153e-03, -2.07597623e-03, 1.69770757e-03, 7.04261614e-03,
       -9.90314526e-04, 1.17144128e-03, 4.06102138e-03, -4.95838001e-03,
       -5.45513490e-03, -1.38631687e-02, -1.23352772e-02, 9.68524546e-05,
       -2.67775008e-03, -5.81172528e-03, 6.71721529e-03, 1.27337305e-02,
       -2.64441653e-04, -1.18540262e-03, -3.81306210e-03, 3.92845785e-03,
       -1.61288306e-03, -1.19018788e-02, -7.58337835e-03,
       -2.22843047e-03, 7.45426584e-03, -3.85990855e-03, 1.26481010e-03,
       -3.13161509e-05, 8.50466453e-03, -3.79533577e-03, 1.54699688e-03,
       -1.55775412e-03, 6.25600526e-03, 8.60461220e-03, 3.11703584e-03,
       -4.33617824e-05, -5.15621249e-03, -2.43011815e-03,
       -7.17403716e-04, -8.98011494e-03, -3.03054065e-03, 3.44834104e-03,
       4.30265395e-03, -1.14535084e-02, -2.02646106e-03, 7.64137553e-03,
       1.50838995e-03, -1.72681280e-03, -8.27221479e-03, -1.10091688e-03,
       1.31747802e-03, 1.31002236e-02, 8.93468037e-03, 6.71155099e-03,
       4.10404662e-03, 8.84490291e-05, -4.42049000e-03, 1.14107819e-03,
       8.10844358e-04, 3.32007476e-04, 2.42846715e-03, 1.01156672e-02,
       -3.06644448e-04, 2.18977313e-03, -1.97126321e-03, -9.01119132e-03,
       -7.53903249e-03, 2.41323747e-03, 1.65985490e-03, 1.03357229e-02,
       9.33290983e-04, 1.47445488e-03, 1.77148413e-05, -4.10572346e-03,
       -5.22633735e-03, -6.59157662e-03, -9.32822528e-04,
       -2.84573180e-03, -4.14167112e-03, 6.07703580e-03, -2.02366477e-03,
       -4.28863801e-03, -8.41942150e-03, -1.01980167e-02,
       -2.53111095e-04, -5.08125732e-03, -5.86986309e-03, 1.11751806e-03,
       9.07593314e-03, 7.21815624e-04, 3.11551010e-03, -1.63787219e-03,
       -4.89945570e-03, -4.64394083e-03, -7.35353958e-03,
       -4.52851830e-03, -2.20993790e-03, 3.43879033e-03, 5.83870662e-03,
       1.60102252e-04, -4.80343774e-03, -1.01963815e-03, -1.68565137e-03,
       -1.74643879e-03, -1.42964488e-03, -3.89034557e-03, 5.63092530e-03,
       4.74573718e-03, 2.19388446e-03, -2.53252732e-03, -5.88526716e-03,
       1.03206956e-03, -3.40541155e-04, 3.39323026e-03, -4.13266127e-04,
       -7.72382831e-04, 1.33809168e-03, 9.29755811e-03, 5.47668943e-03,
       -5.37538901e-04, -2.97663501e-03, -4.61749220e-03, 1.80015061e-03,
       -3.63134034e-03, -1.26740918e-03, 1.40695553e-03, -3.64501891e-03,
       -9.66813695e-03, 1.70425826e-03, 5.32414578e-03, 2.81648652e-04,
       5.84134692e-03, -1.99563359e-03, -3.97571828e-03, -3.39147612e-03,
       -6.29980816e-03, -8.88359174e-03, 2.40352866e-03, 3.81375503e-05,
       1.12266722e-03, 2.31859041e-03, -4.30534221e-03, -5.35593322e-03,
       4.68760467e-04, 5.45420125e-03, -2.48097023e-03, 2.21004104e-03,
       -1.36053876e-03, 4.62535769e-03, 1.12201869e-02, -3.74968094e-03,
       -6.71423739e-03, -8.59125704e-03, -1.51483191e-03,
       -1.00125670e-02, -3.59392515e-03, 3.51130543e-03, -9.91884037e-04,
       2.01530661e-03, -1.90133473e-03, -2.34961510e-03, -9.22371913e-03,
       -6.93339808e-03, -3.17651848e-03, 6.72038039e-03, 2.21584970e-03,
       1.27804966e-03, 3.68402572e-03, 4.96713771e-03, -1.97613938e-03,
       -8.08100123e-03, -3.72477836e-04, 1.90133358e-06, 7.55305577e-04,
       5.69497643e-04, 3.05796275e-03, 6.74944371e-03, -5.70673076e-03,
       -5.00772381e-04, -1.06516201e-02, -5.23640402e-03,
       -7.88646843e-03, -3.94520536e-03, -4.17967979e-03, 3.32757365e-03,
       5.75741613e-03, 2.75283237e-03, -3.58571042e-03, -2.24912423e-03,
       -2.83843232e-03, -1.46152684e-03, -5.73093956e-03,
       -1.69777102e-03, -1.18713186e-03, -1.84019515e-03, 5.17643429e-03,
       5.60230855e-03, -1.22733088e-03, 6.80066459e-03, 3.69234884e-04,
       1.98136258e-04, 6.71256494e-05, -6.87136222e-03, -5.13098808e-03,
       4.95383423e-03, 5.56965452e-03, -4.23280895e-03, -4.76489338e-04,
       4.39231575e-04, 2.88653164e-03, 4.46422817e-03, 6.22395193e-03,
       4.64271475e-03, 7.11154239e-03, -7.11309258e-03, 1.49529555e-03,
       -5.54797181e-04, -3.73595371e-03, 1.11585122e-03, 1.01665000e-03,
       -3.06766946e-03, -6.00147853e-03, -2.45933933e-03,
       -2.37962953e-03, 4.27347235e-03, 5.34342462e-03, -1.02571258e-03,
       -1.24960649e-03, 4.28674463e-03, -8.39082338e-03, -3.68435681e-03,
       -2.85028480e-04, 9.65349725e-04, 2.89766467e-03, -1.97571702e-03,
       4.99025127e-03, 7.69721856e-03, 4.82745841e-03, -3.41213727e-03,
       -4.70044836e-03, -2.32197018e-03, 7.55533390e-03, 5.53883938e-03,
       1.52951200e-03, 3.31461872e-03, 9.58246819e-04, 7.52990542e-04,
       -2.86795199e-03, -4.57181968e-03, -4.45355522e-03,
       -6.08880026e-03, 1.04421675e-02, 1.15627162e-02, 9.57763009e-03,
       4.62745363e-03, 5.23142889e-03, 9.13611439e-04, -4.18955693e-04,
       -7.04784133e-03, 2.17443611e-03, 5.56606473e-03, 7.19469134e-03,
       6.31537242e-03, 6.42640563e-03, 5.92309097e-03, -2.73283245e-03,
       -1.54651341e-03, -7.48585560e-04, 8.87594279e-03, 3.19567579e-03,
       4.90578648e-04, 5.04982483e-04, -4.33624024e-04, 1.27646597e-02,
       4.42606770e-03, 2.87921936e-03, -5.21208206e-03, -2.48568272e-03,
       -3.02407541e-04, 2.82888277e-03, -2.22024554e-03, 6.27100328e-03,
       -4.39797295e-03, -2.85186921e-03, -4.12606495e-03,
       -5.05962176e-03, 8.29473604e-03, 6.33384986e-03, 4.23309393e-03,
       2.56764563e-03, -3.45529732e-03, -5.82920504e-04, 6.22354681e-03,
       1.00455601e-02, 6.07226789e-03, 4.77278983e-04, 5.34765283e-03,
       6.66515529e-03, -4.00045072e-04, -8.14974401e-03, 4.36211191e-03,
       -3.57291312e-03, 3.02354060e-03, -3.17426492e-03, -4.16597817e-03,
       -7.91289713e-05, 2.67005968e-03, 4.24622931e-03, 7.74278352e-03,
       -3.82335857e-04, -1.22203829e-03, 1.12201069e-02, 1.44915388e-03,
       4.70374245e-03, -4.96268878e-03, -7.19496747e-03, -1.24096486e-03,
       5.39511163e-03, 1.32533896e-04, 5.41683286e-03, 1.33494772e-02,
       9.59844328e-04, 1.26251287e-03, 8.15315114e-04, 1.96545944e-03,
       -3.93626234e-03, 7.14533206e-04, 3.38956062e-03, 6.66171836e-05,
       1.78420227e-02, 5.35986805e-03, 3.47610447e-03, -1.57753704e-04,
       -3.26110399e-03, -1.43523770e-03, 4.18806029e-03, 2.02207128e-03,
       1.54517242e-04, 5.47582470e-03, -2.77441880e-03, 3.88634019e-03,
       -7.55597232e-03, -1.49816349e-02, -4.72231489e-03, 2.57667946e-03,
       -1.04655931e-03, 1.74332422e-03, 5.34461113e-03, -2.97715917e-04,
       5.20593161e-03, -1.09582432e-02, -6.47075009e-03, 2.10030106e-04,
       3.01430142e-03, 3.00074252e-03, -9.97444615e-04, 8.77578184e-03,
       2.64615216e-03, -5.65918209e-03, -3.87286441e-03, -9.47316550e-03,
       -5.24396962e-03, -4.69426624e-03, 5.78011805e-03, 4.86682728e-03,
       9.20775905e-03, 5.02588227e-03, -4.84275445e-03, -3.82061605e-03,
       -1.66057551e-03, 9.83694190e-05, 4.41323442e-04, -8.05347785e-03,
       -2.46797968e-03, -2.16654269e-03, -1.39937364e-03, 1.14433805e-03,
       -4.85118479e-03, 6.28217822e-03, 8.70919134e-03, -2.36132904e-03,
       -6.00413093e-03, -5.76354004e-03, -1.01435371e-03,
       -3.79777543e-04, 1.08415606e-02, 6.19309954e-03, 8.04474670e-03,
       6.82417396e-03, -5.25026291e-04, -5.57899242e-03, -4.36206954e-03,
       -4.73164022e-03, -3.07449652e-03, -4.85302275e-03,
       -2.93755578e-03, 3.19983927e-03, 3.61714885e-03, 9.21850093e-04,
       -7.05550285e-03, -2.04687612e-03, -2.72914371e-03,
       -3.62309627e-03, 4.95008286e-03, 9.12439544e-03, 5.62034920e-03,
       1.20456703e-03, -1.89564918e-04, -7.60611205e-04, -2.26868666e-03,
       -1.92844414e-03, -3.17842443e-03, 2.15466018e-03, 6.05105748e-03,
       -2.46302364e-03, -2.98611820e-03, 4.83898533e-04, -4.94169246e-04,
       9.02391784e-03, 6.23677019e-03, -2.34641088e-03, 1.04977784e-03,
       3.40272463e-03, 3.91309237e-04, -1.60858536e-03, 4.67104983e-04,
       2.77915481e-03, 1.75612140e-03, -2.19949242e-03, -3.79961421e-04,
       3.66375013e-03, 9.22805816e-03, 6.31328719e-03, -2.62560113e-03,
       1.93568983e-03, -1.03836705e-03, 4.06596391e-03, 3.65873193e-03,
       6.54680794e-03, 2.80543696e-03, 7.23667035e-04, 2.19484535e-03,
       -1.00832079e-02, -3.99927888e-03, -6.78462163e-03, 4.76007845e-04,
       2.77341739e-03, -1.92362801e-04, -3.17227584e-03, 4.30140318e-03,
       2.35506939e-03, 4.25536977e-03, 1.18297362e-03, -2.06388044e-03,
       -2.37400318e-03, 2.10631569e-03, 3.28813517e-03, 3.42616020e-03,
       -3.17066652e-03, 5.42004826e-03, -1.37773051e-03, 3.47529515e-03,
       -8.88391584e-03, -7.65840709e-03, 1.31163956e-03, 5.83287422e-03,
       -7.33231287e-03, 2.03124480e-03, -1.41316792e-04, -5.97684318e-03,
       -5.33997687e-03, -8.77108308e-04, -5.23854047e-03,
       -2.13012705e-03, -8.00001028e-04, 7.06469757e-04, -4.42276616e-03,
       2.31055729e-03, -2.90879580e-05, 5.23724640e-03, -7.08789623e-04,
       -1.44960999e-03, -1.55276607e-03, -2.26468942e-03, 1.48389465e-03,
       1.05546904e-03, 1.84961874e-03, -8.84181634e-03, -9.95726790e-04,
       1.86313235e-03, -1.87207491e-03, 2.67744903e-03, 1.24025194e-03,
       -1.54440443e-03, 3.67403473e-03, -2.73246807e-03, -6.91493507e-03,
       -5.01330756e-03, 9.38121288e-04, 5.11909348e-05, 9.07896683e-05,
       -2.78595649e-03, -3.34802270e-03, -5.00234822e-03, 1.55742350e-03,
       -3.19032953e-03, 1.18531846e-02, 6.55235723e-03, 8.93866469e-04,
       1.06609976e-02, -3.97442747e-03, -5.66484081e-03, 1.24274346e-03,
       -2.51859054e-03, -1.23126234e-03, 4.50085523e-03, 2.46342947e-03,
       1.86386099e-03, 6.67513534e-03, 5.23075927e-03, 8.72456562e-03,
       5.29278954e-03, 5.71379496e-04, -6.23942912e-03, -2.12227670e-03,
       -1.39528688e-03, -2.21994705e-03, -4.33918973e-03,
       -5.42971352e-03, 8.70340504e-03, -4.10980219e-03, 1.80061173e-03,
       -7.44050555e-03, -3.73635790e-03, 9.88923945e-03, 2.79328693e-03,
       2.53857207e-03, -3.27908038e-03, 1.18578877e-03, 3.66896624e-03,
       2.19041691e-03, -4.32620151e-03, 4.74392809e-03, 3.87111446e-03,
       4.02003154e-03, -7.63144344e-03, -5.33317076e-03, -1.72781874e-04,
       -5.38614753e-04, -1.16501830e-03, -2.17177114e-03, 2.30265385e-03,
       -9.02302098e-03, -2.09226535e-04, -2.66258046e-03,
       -4.38332791e-03, 3.42740165e-03, -2.66871485e-03, 2.75390595e-03,
       -1.35693187e-03, -2.58768070e-03, -3.81377921e-03, 2.32418790e-03,
       7.44934846e-03, -3.10698990e-03, 4.64951526e-03, 3.85342934e-03,
       4.77843639e-03, 2.83266301e-03, -1.26645155e-03, 4.26352664e-04,
       3.23803932e-03, -3.31897289e-04, 1.24714011e-03, 3.87420063e-03,
       -2.93685775e-03, 5.42646786e-03, -2.15850654e-03, 5.45790012e-04,
       -2.98459711e-03, 1.95014116e-03, 9.52679012e-03, 1.25340163e-03,
       -3.04487010e-04, 7.25669274e-03, 6.10102573e-03, -9.48510016e-04,
       -3.89309396e-04, -5.75063191e-03, 9.43715975e-04, 7.01835426e-03,
       1.09023752e-03, 6.04503136e-03, 2.25271404e-04, -1.37959825e-04,
       1.25776418e-03, -2.98022688e-03, -8.62634741e-03, -2.67091673e-04,
       1.54272199e-03, -2.81366520e-03, 3.47848306e-03, -2.51116580e-03,
       3.40749952e-03, 2.38889502e-03, -7.64227146e-03, 3.60146724e-03,
       3.03843175e-03, 5.99249918e-03, 4.59125126e-03, 9.04422812e-03,
       5.39040798e-03, -2.44331546e-03, -3.49296210e-03, -1.71989173e-04,
       -1.11813075e-03, -2.27124500e-03, 4.35350696e-04, -5.08872373e-03,
       6.77926932e-03, -1.53468631e-04, -2.34287023e-03, -4.43200162e-03,
       -2.67737987e-03, -6.24933885e-03, 3.99351446e-03, -9.03952110e-04,
       -3.52221867e-03, 8.17194395e-03, 6.49885694e-03, 4.31952020e-03,
       -1.94253935e-03, -1.01737473e-02, 3.24518490e-03, 8.90265591e-03,
       3.53898481e-03, -7.24815705e-04, 9.59901605e-03, 1.07455859e-02,
       4.84369881e-03, -5.38034691e-03, -8.12685583e-03, 6.22396255e-05,
       3.32941185e-03, -3.82944965e-03, -4.12300043e-03, 1.25460199e-03,
       4.03182628e-03, 1.99720659e-03, -3.53482692e-03, -2.62037478e-03,
       5.22614131e-03, 4.33091680e-03, -2.26000580e-03, 2.50151986e-03,
       1.02551524e-02, 1.25244353e-02, 4.44268575e-03, -6.53289864e-03,
       -1.46620534e-03, 4.03502258e-03, 1.14498716e-02, 6.44753827e-03,
       1.76324649e-03, 6.86183758e-03, -2.96257180e-03, -2.84359627e-03,
       -7.44929910e-03, -8.48733541e-03, 4.01360821e-03, 7.51173263e-03,
       4.49156528e-03, 4.34330152e-03, 3.97585239e-03, 6.60256308e-04,
       -7.43277790e-03, -1.08682234e-02, -8.64425860e-03,
       -2.00429538e-04, 4.17797040e-04, 7.94492371e-05, -1.18421903e-03,
       1.84023124e-03, -1.83221477e-03, 7.34601577e-04, -5.94423711e-03,
       -1.91414438e-03, 1.05720153e-02, 2.76024244e-03, -1.39333773e-03,
       1.01842929e-03, 1.07295334e-03, 4.76580020e-03, -2.89746607e-03,
       -5.65473270e-03, -1.11012894e-03, -5.74340265e-06,
       -5.08477585e-03, -6.03710068e-03, -5.13023464e-03, 3.22837819e-04,
       -8.31399113e-03, -3.93208303e-03, -7.26572471e-03,
       -3.92948836e-03, 4.84538497e-03, -3.21339234e-04, 5.36058615e-05,
       6.81645796e-03, 4.22128057e-03, -5.37870079e-03, 3.05468636e-03,
       -2.19848217e-03, -1.39808166e-03, 7.21226307e-03, 2.37838039e-03,
       -1.13985233e-03, -2.96367053e-03, -4.62746806e-03,
       -6.21721707e-03, -7.16248993e-03, -1.02738496e-02,
       -2.95163773e-04, 1.14677865e-02, 6.66790875e-03, 1.02253426e-02,
       6.69904938e-03, -1.47099281e-03, -3.08118691e-03, -1.64826366e-03,
       2.44425167e-03, 8.48147552e-03, -3.49485222e-03, -2.91782781e-03,
       -1.53201655e-03, 3.64392693e-03, 5.98582579e-03, -3.15029942e-03,
       3.07517010e-03, -8.83980771e-04, -2.29086890e-03, 3.59664811e-03,
       -4.76463139e-03, -6.71601901e-03, -5.74284291e-04, 5.87737001e-03,
       -5.24008973e-03, -3.94125609e-03, -1.01365580e-03, 3.61050316e-03,
       3.56625440e-03, -7.88373523e-04, -1.48541760e-03, 4.00899118e-03,
       4.64352372e-04, -7.61593087e-03, 3.52351810e-03, 1.08951665e-02,
       8.96838401e-03, -9.64080170e-03, -1.20632267e-02, -8.63375422e-03,
       -2.91648251e-03, -2.00915127e-03, -6.39374554e-03, 2.40576896e-03,
       5.45031764e-03, -4.00908850e-03, 2.78222770e-03, -1.51535030e-03,
       -2.29214574e-03, 4.85462043e-03, -1.72889140e-03, -6.20278344e-03,
       -5.10171521e-03, 8.15575593e-04, 4.98680398e-03, 3.00515373e-03,
       -1.69580325e-03, -7.42896274e-03, -9.80251003e-04,
       -7.54321041e-03, -1.80591166e-03, -4.57033934e-03,
       -1.93438912e-03, 9.71501693e-03, -1.03033008e-02, -1.21891517e-02,
       -7.88009446e-03, -1.55518192e-03, -5.11925109e-03,
       -2.47561536e-03, 1.11920498e-02, 1.12633063e-02, -4.95003769e-03,
       -9.55876894e-03, -7.74214324e-03, -5.67348488e-03,
       -4.68333345e-03, -4.43237135e-03, 2.55200284e-04, -2.18340522e-03,
       -3.27786634e-04, -7.03492202e-03, 9.60372388e-03, -2.26586795e-04,
       -3.34824610e-04, 3.73922102e-03, -1.72906811e-03, -9.36907134e-04,
       -1.96151622e-03, -4.80411667e-03, 1.12830363e-02, 1.19839003e-02,
       6.03560731e-03, 1.05119823e-02, 1.23290671e-03, -6.60672830e-03,
       -1.16251782e-03, -4.31782147e-03, -2.64072046e-03, 5.20229898e-03,
       -7.62497215e-03, 1.27280061e-03, 7.75922835e-03, 2.82076164e-03,
       1.96449552e-03, -3.52373347e-03, -9.59017687e-03, -5.96543774e-03,
       -4.13242169e-03, -2.20016902e-03, 6.29672222e-03, 7.89370015e-03,
       -1.66722154e-03, -5.74531406e-03, -2.96803424e-03,
       -7.92234764e-03, -2.32295366e-03, -1.83173351e-03, 6.25287509e-03,
       3.90460924e-03, 1.09171802e-02, 1.02517963e-03, -7.06071546e-03,
       -3.88349476e-03, -6.22442178e-03, -4.85454360e-03, 2.12612737e-04,
       2.85114802e-05, -1.23027340e-03, 4.67329426e-03, -2.41711922e-03,
       -4.31501819e-03, 8.45433329e-04, -1.23108737e-02, -4.47942736e-03,
       7.03774102e-04, -4.12250310e-03, 3.16900061e-03, -1.09984493e-03,
       -7.94849079e-03, -4.45803860e-03, -4.27466026e-03, 1.09881372e-03,
       4.84887278e-03, 8.57586798e-04, -3.37379775e-03, -3.80778639e-03,
       -2.33887200e-04, -1.03200562e-02, -9.59069189e-03,
       -2.31319037e-03, 6.75983378e-04, 7.12911505e-03, 2.92251771e-03,
       -1.92999863e-03, 2.56162835e-03, 1.00649940e-02, 5.63406013e-03,
       8.45847186e-03, 7.73283094e-03, -5.37063926e-03, 9.04068700e-04,
       1.00398925e-03, -5.90395369e-03, 9.98445554e-04, 7.65785063e-03,
       1.19824929e-03, -9.75842029e-03, -2.14840448e-03, 4.64924518e-03,
       7.06846535e-04, -1.79406849e-03, 1.47444976e-03, 6.37629069e-04,
       1.06754992e-03, -4.52368520e-03, -1.15620228e-03, 3.38855013e-03,
       -3.10176355e-03, 7.37046963e-03, 9.10885725e-03, -2.02671252e-03,
       2.65773758e-03, 1.37510081e-03, -5.14567969e-03, -8.29089619e-03,
       2.85105198e-04, 2.70324596e-03, 5.01723960e-03, 3.03729880e-03,
       -5.75773185e-03, 1.35069946e-03, 6.45067636e-03, 2.60869111e-03,
       -1.74474204e-03, 3.20446282e-03, 1.21893024e-03, -1.80963916e-03,
       -5.27828699e-03, -5.55762555e-03, 2.60197348e-03, 3.20025859e-03,
       8.13237973e-04, 6.54241443e-03, -3.64313775e-04, -1.39013061e-03,
       -4.23020218e-03, -5.08402521e-03, -6.43479230e-04, 1.36982591e-03,
       -4.78606817e-04, -2.59733852e-03, 8.39848444e-03, 4.56157979e-03,
       4.58204141e-03, 1.40777568e-03, -2.26385822e-03, -3.02607403e-03,
       1.96436630e-03, 4.08691913e-03, 4.92074760e-03, 6.66914601e-03,
       3.46298981e-03, -3.79916257e-03, -1.16564566e-03, 2.76759150e-03,
       -5.91233792e-03, -2.91581056e-03, 2.64021009e-03, 9.26177716e-04,
       5.27761364e-03, 1.08169035e-04, 3.71992495e-03, 2.89121154e-03,
       -8.02887417e-03, -7.36547299e-05, -4.65581397e-04,
       -3.66601249e-04, -3.82010755e-03, 2.89213797e-03, -2.78550899e-03,
       1.18693141e-02, 8.38889927e-03, -7.01227982e-04, 9.70054534e-04,
       1.58302649e-03, 5.10594947e-03, 4.26153140e-03, -5.94514655e-04,
       -1.37902657e-03, -3.81348771e-04, 4.18337435e-03, 5.87330014e-03,
       4.90183663e-03, 6.28514867e-03, 6.12143427e-03, -1.63733057e-04,
       -4.84432047e-03, -5.68652339e-03, 7.30796298e-03, 6.37040054e-03,
       5.90535719e-03, 3.14782467e-03, 1.69699383e-03, 8.90866737e-04,
       -1.55945588e-03, -1.34203103e-04, -3.41206021e-03, 6.50013611e-03,
       1.76408095e-03, 4.40241955e-03, -1.87740530e-04, -1.25799223e-03,
       6.30074833e-03, -3.65867792e-03, 1.40348508e-03, -1.02969483e-02,
       5.61656989e-03, -4.27550141e-04, -2.46077101e-03, 1.50174601e-03,
       7.06867408e-03, 2.42703734e-03, 1.32353709e-03, 2.28693872e-03,
       -4.66185575e-03, 5.14275022e-03, 2.60913745e-03, 4.42501390e-03,
       -7.41722900e-03, 1.17323652e-03, 2.93781655e-03, -2.76001636e-03,
       3.59957479e-03, -7.25446129e-03, 9.27560031e-04, -7.69021048e-04,
       -4.81281523e-03, 5.15693391e-04, 9.80031793e-04, 6.65909983e-03,
       -7.44317658e-04, 7.03357300e-03, -7.28994887e-03, 7.95217603e-03,
       1.00407116e-04, -3.33408639e-03, -9.35911573e-03, 4.97527979e-03,
       1.17703211e-02, 9.89194587e-03, 4.11968725e-03, 3.44352657e-03,
       1.31960469e-03, -1.02111057e-03, -1.00199291e-02, -6.12498121e-03,
       -1.11860910e-03, -7.02595047e-04, -1.73132459e-03,
       -5.14758844e-03, -3.39209312e-03, 7.04078609e-03, 2.69893534e-03,
       -2.42312835e-03, -1.01530505e-02, -3.52224265e-03, 5.86768240e-03,
       6.81331009e-03, 4.11994662e-03, 8.93626176e-03, 9.04882792e-03,
       5.95567108e-04, -6.81355083e-03, 5.03937807e-03, -3.88703571e-04,
       7.12511755e-05, 6.77163852e-03, -4.64150263e-03, 2.88754061e-04,
       -2.03004922e-03, -3.83402244e-03, 5.68022137e-04, -3.26659618e-04,
       -3.82831157e-03, -1.32718962e-03, -1.27493218e-03,
       -6.76110527e-03, 5.17269317e-03, 5.23900893e-03, -2.11855699e-03,
       -3.88167310e-03, 5.92179643e-03, -1.12211259e-04, 2.15445273e-03,
       4.58474411e-03, 8.67739506e-03, 5.77973318e-04, 2.48402078e-03,
       -7.88227073e-04, 1.48241303e-03, 3.00620706e-03, -9.67465283e-04,
       4.12647892e-03, 9.06368252e-03, 5.78080956e-03, 3.18399374e-03,
       5.06139302e-04, -8.05161521e-03, 7.49451458e-04, -5.20657701e-03,
       -1.42592390e-03, -1.73210469e-03, -5.75847831e-03,
       -4.60754056e-03, 3.88258719e-03, 9.21808556e-03, 6.43469335e-04,
       -3.93868983e-03, 5.26794279e-03, 3.24920565e-03, -2.02884921e-03,
       -8.05768091e-03, -8.33907910e-03, -7.84405321e-03, 4.08400549e-03,
       3.32635292e-03, 7.92675000e-03, -4.41099331e-03, 7.38603482e-03,
       4.26457310e-03, 4.22610343e-03, 7.55805755e-03, 4.07475047e-03,
       -4.02521197e-04, -1.04783494e-02, -8.37778300e-03, 1.12650655e-02,
       1.03702340e-02, -8.25249241e-04, -1.73308933e-03, 3.99847003e-03,
       -2.56046187e-03, 1.21620216e-03, -8.47194158e-03, 2.33803829e-03,
       6.75268966e-05, 8.91355623e-04, -5.61576942e-03, -9.83527582e-03,
       -4.55388334e-04, -1.29800523e-03, 1.59527268e-03, 2.79363105e-03,
       9.80142970e-04, -1.77552260e-03, 3.67825059e-03, 5.34888636e-03,
       8.61477514e-04, 1.34569200e-04, 2.13135220e-03, 7.59520475e-03,
       1.42509642e-03, -9.09286737e-03, 1.17091509e-02, 8.95356480e-03,
       -3.92000377e-03, -3.95010458e-03, 4.69928654e-03, -4.49127145e-03,
       -3.20465025e-03, 2.47298484e-03, 7.38756359e-03, 2.83601321e-03,
       3.15689645e-03, 6.04047393e-03, 9.95100942e-03, 8.90331902e-03,
       -6.30992698e-03, 2.65058735e-03, 1.44190865e-03, 6.86622690e-03,
       8.73432669e-04, 3.02686472e-03, 1.30962059e-02, 3.02877766e-03,
       -1.17167120e-03, -1.22703111e-03, 1.53833476e-03, -1.52054185e-03,
       -9.29574773e-04, 5.23069408e-04, -3.61357327e-03, 1.20345270e-02,
       2.01641442e-03, -4.49737906e-03, -4.12501191e-04, -2.94299418e-04,
       1.58204127e-03, 7.84099195e-03, 3.10935522e-03, 4.57538944e-03,
       8.10198206e-03, 4.00851015e-03, 7.89214484e-03, 1.41692546e-03,
       4.20462247e-03, 4.53757029e-03, 6.45017857e-03, 2.47289836e-06,
       3.34245339e-03, 7.16055324e-03, -2.46071047e-03, -3.26112658e-03,
       5.99913037e-05, 8.17790453e-04, 1.66339893e-03, 3.85898282e-03,
       7.09551619e-04, -5.66813117e-03, 4.89766104e-03, 7.89875223e-04,
       -5.09495893e-03, 2.59363471e-04, 4.08110704e-04, -1.62373966e-04,
       -7.05667553e-05, 1.32924831e-03, 1.22360027e-04, 2.59413617e-03,
       -1.59137440e-03, -5.52871870e-03, 5.19953392e-05, 1.40076107e-03,
       2.54803058e-03, 1.63246680e-03, -1.54432887e-03, 8.65928014e-04,
       -3.18476261e-04, -5.16849523e-03, 9.95472947e-05, 5.04042429e-04,
       2.74891313e-03, -6.65251864e-04, 2.01745052e-03, 3.93216033e-03,
       1.67239434e-03, -2.74549448e-03, -7.17343530e-03, 4.84342547e-03,
       8.23571056e-04, 2.55030300e-03, 2.90629198e-03, 3.67725454e-03,
       -5.71181625e-03, 1.03141973e-03, 5.57394698e-04, -3.42541467e-03,
       -2.89281388e-03, 6.31700910e-04, 8.44988273e-04, 8.60200962e-04,
       2.26505028e-04, -3.48139345e-03, -2.03829235e-03, -9.64861712e-04,
       -1.60087098e-03, 5.11328224e-03, 2.70237005e-03, 5.55329211e-03,
       3.30441073e-03, 2.73362920e-03, 3.07128835e-03, 4.64340672e-03,
       1.17189554e-03, -6.96668075e-03, -2.09122474e-04, -4.97853674e-04,
       6.74363459e-04, -4.13718447e-03, -3.93803744e-03, -3.00325570e-03,
       4.73732129e-03, 9.22563486e-03, -4.86781122e-03, 8.61197151e-03,
       3.15071637e-04, -1.46661524e-03, -1.73498166e-03, -6.41992642e-03,
       2.12768023e-03, 1.46123813e-03, -9.57453449e-04, 4.92293737e-04,
       -1.08771829e-03, 4.31048172e-03, 3.88935301e-03, -1.32586248e-03,
       1.27442286e-03, 1.70467293e-03, -2.15100148e-03, 2.85908161e-03,
       9.45710053e-04, -2.79030902e-03, -2.43816990e-03, 8.94061232e-04,
       -5.32166008e-03, 4.26453864e-03, -3.55999032e-03, 4.34381654e-03,
       6.46661455e-03, 2.01853720e-04, 6.36069570e-04, 1.66883075e-03,
       -4.72401921e-03, -7.05536082e-03, -9.30224359e-03,
       -6.90186769e-03, 2.65855435e-03, 1.34099768e-02, 3.98900360e-03,
       2.79811514e-03, 3.56843066e-03, 2.00346089e-03, -7.88716413e-03,
       -3.44506721e-03, 5.72394812e-04, -9.56154056e-03, -3.78819322e-03,
       -8.09244288e-04, -4.39977786e-03, 5.65820280e-03, 4.03263653e-03,
       -1.22141922e-04, 5.65645285e-03, -8.70142103e-05, -6.73019839e-03,
       -9.00693052e-03, -3.99552565e-03, 3.13717942e-03, 1.98187307e-03,
       2.19992152e-03, 4.75339155e-04, 6.59805629e-03, -8.05888325e-03,
       -6.64399983e-03, 1.76616211e-03, 1.15030876e-03, 1.58731453e-03,
       7.22025614e-03, 4.10973839e-03, -2.83068209e-03, 4.22708970e-03,
       -6.79916842e-03, -1.09666977e-02, -1.19385310e-02,
       -5.77240624e-03, -5.14965877e-03, 4.33638040e-03, 1.49816729e-03,
       -5.66066289e-03, 6.89065084e-03, -1.30712427e-03, -1.38426456e-03,
       -3.39011569e-03, -2.05239817e-03, 6.60021324e-04, -8.48140917e-04,
       -1.33805012e-03, -1.29203720e-03, 2.70608696e-03, 5.06167999e-03,
       1.21494173e-03, 3.35263554e-03, -7.15601770e-03, -5.29134413e-03,
       2.16840868e-04, -2.70008575e-03, 3.34533700e-03, 1.82505429e-03,
       -8.31477996e-03, -7.44389743e-03, -3.48465703e-03,
       -2.71469937e-03, -5.97466342e-03, -1.38409901e-03,
       -6.26631081e-03, -1.00586647e-02, 2.66679237e-03, -2.90486100e-03,
       -8.38352309e-04, 4.27448249e-05, 3.91858723e-03, -1.92188553e-03,
       5.98420016e-03, 2.52169650e-03, -3.71049996e-03, -1.46558566e-03,
       5.55031002e-03, 3.33625777e-03, -4.30407841e-03, -9.39455070e-03,
       8.94239463e-04, 3.72390356e-03, -7.64916127e-04, -5.91970631e-04,
       2.70305388e-03, 3.25733004e-03, 9.91297048e-03, -3.24434135e-03,
       -5.10864984e-03, -6.93492417e-04, -5.51373046e-03,
       -5.48272068e-03, 9.42306360e-05, -4.16062353e-03, -1.30959938e-03,
       1.12390204e-03, -2.78786756e-03, -5.74606704e-04, 7.95566570e-03,
       4.69803158e-03, 4.62222332e-03, -4.14810656e-03, -4.30246582e-03,
       5.25133684e-03, 4.14548628e-03, -1.75406481e-03, -4.04180400e-03,
       3.77756823e-03, -5.09530865e-03, -6.16235007e-03, -8.15321226e-03,
       -7.74135394e-03, 5.26520889e-03, 7.70585192e-03, 4.49646777e-03,
       2.68872315e-03, 3.24460119e-03, -4.72847093e-03, -1.97291514e-03,
       -2.39152275e-03, -1.01048267e-03, 1.09138247e-03, 3.45105934e-03,
       7.83317536e-03, 5.38033666e-03, -2.18340871e-03, 6.45434111e-03,
       4.27084928e-03, -3.43984552e-03, -3.68320383e-03, 1.08335949e-02,
       3.55837890e-03, 1.36800256e-04, -3.94383492e-03, 1.00816204e-03,
       -3.99306091e-03, -2.96399754e-04, -4.42493008e-03, 4.03173640e-03,
       9.53343697e-03, 2.00263434e-03, 5.05442964e-03, 1.05262210e-03,
       -6.94182236e-03, 1.17713108e-03, 6.49654446e-03, -5.99637534e-03,
       4.26072488e-03, 2.18944019e-03, 5.01351524e-03, 7.90362433e-03,
       6.66901097e-03, 9.00727883e-03, 7.76552036e-03, -3.43727600e-03,
       -6.27965480e-03, 1.23968988e-03, 1.62008184e-03, 1.14612238e-04,
       3.28086526e-03, -7.22478144e-03, 1.59105915e-03, -1.94703939e-03,
       -7.20830588e-03, -4.04856447e-03, 3.74452583e-03, 4.37801797e-03,
       9.99852084e-04, 5.48233883e-03, 8.85094982e-03, 5.08388458e-03,
       6.60446647e-04, -2.70667882e-03, -6.51770784e-03, 2.48216279e-03,
       8.53853114e-03, -8.52715597e-03, 3.64036835e-03, -6.14739535e-03,
       1.01899356e-02, -2.50592455e-03, -6.29018620e-03, -1.53427862e-03,
       6.96921395e-03, 1.25205552e-03, -3.26740346e-03, -6.18012669e-03,
       -1.00453850e-02, 4.67510166e-04, 5.79073979e-03, -1.20281964e-03,
       -6.07500644e-03, -1.51160441e-03, 4.25384054e-03, -3.22059914e-03,
       -9.88086779e-03, -2.42275884e-03, 7.77317118e-03, 1.10502737e-02,
       4.90529835e-03, -5.22240065e-03, -4.50924184e-04, 6.76499633e-03,
       -1.07485736e-02, -4.24938463e-03, -3.74185666e-03, 9.14049614e-03,
       7.19922921e-03, 1.62404054e-03, -1.63193513e-03, 2.49412400e-03,
       -1.79169327e-03, -4.59828647e-03, -2.59625632e-03,
       -8.45536590e-04, 4.93367994e-03, 6.32870430e-03, 4.20095911e-03,
       -4.70947940e-03, -2.30953447e-03, 4.58581094e-03, 9.75061674e-04,
       1.78748203e-04, -4.93903004e-04, 2.91533116e-03, 1.90630113e-03,
       -9.11406940e-04, -9.65767913e-03, 4.22398932e-03, 2.22781464e-03,
       2.71561625e-03, 1.61830592e-03, 2.95749778e-04, 3.76653508e-03,
       7.26770470e-03, -1.17959303e-03, -5.77354385e-03, 1.31411618e-03,
       -2.74347578e-04, 4.15934203e-03, 6.43113162e-03, -2.44012572e-05,
       3.68641550e-03, -4.42208070e-03, -4.28853650e-03, -7.75340525e-03,
       8.60891960e-05, -4.07500379e-03, 8.61610100e-03, 9.88422055e-03,
       4.50480916e-03, 7.16644386e-03, 1.13691192e-03, -5.48342383e-03,
       -1.11902347e-02, -4.88775130e-03, 1.06401194e-03, 2.58437055e-03,
       1.82366034e-03, -1.90780044e-03, 5.16949175e-03, 8.65168218e-03,
       -2.71229935e-03, -9.58979689e-03, -6.85050664e-03, 4.73851338e-03,
       3.71264410e-03, 1.26385316e-02, 1.03380745e-02, 2.18738033e-03,
       4.66378825e-03, 3.13452270e-04, -1.36824930e-03, 9.81942212e-05,
       -2.61378451e-03, 1.86296809e-03, 1.07988622e-03, 3.29652056e-03,
       5.85918827e-03, 6.85214531e-03, -3.25586251e-03, -1.08413557e-02,
       -8.14172160e-03, -2.15802435e-03, -8.47546384e-03,
       -6.71952846e-04, 1.18943071e-02, 1.13008241e-03, 6.33380702e-03,
       4.80251992e-03, -4.17132303e-03, -1.41476165e-03, -1.80594926e-03,
       -4.23764391e-03, 8.28898221e-04, 8.10789759e-04, -3.40213720e-03,
       -5.98668493e-03, 9.93012078e-03, 1.18567226e-02, 2.60315416e-03,
       -8.54993518e-03, -6.95284177e-03, -7.05587957e-03,
       -8.56060255e-03, -2.15056454e-04, 1.60181010e-03, 1.59866661e-02,
       1.28495069e-02, 1.12152612e-03, -3.00001702e-05, -7.57596130e-03,
       -5.44699281e-03, -1.43832003e-03, -2.37913639e-03,
       -2.29352457e-03, 4.01062518e-03, 9.45513882e-03, 3.88280419e-03,
       -2.26440607e-03, 2.11745937e-04, -8.73160781e-04, -4.59650718e-03,
       -3.96631658e-03, 7.28446292e-03, 1.37112597e-02, 1.23312427e-02,
       -2.60268780e-03, -8.61907750e-03, -5.99051220e-03,
       -7.09356740e-03, -6.21721754e-03, 7.65228062e-04, -1.38319086e-03,
       1.16939330e-02, 4.51081339e-03, -2.88144359e-03, -9.94818285e-03,
       -4.00596298e-03, 6.87789216e-05, -2.83420668e-03, 5.97727543e-04,
       -9.01417108e-04, 8.78799357e-04, 2.70026969e-03, -9.51915234e-03,
       7.53932458e-04, 3.49849416e-03, -3.15674744e-03, -4.58091870e-03,
       -3.01060616e-03, 2.57698121e-03, 1.51918316e-02, 1.03346175e-02,
       -2.98389071e-03, -5.50194038e-03, 2.71595689e-03, 2.54692999e-03,
       -3.45150911e-04, -8.02146457e-03, -9.89602506e-03, 4.20310209e-03,
       6.49200939e-03, -5.85104944e-03, -1.15933232e-02, 3.70900729e-03,
       1.33652575e-02, 6.32958952e-03, 7.91558996e-03, -4.33137966e-03,
       -5.58984745e-03, -6.01311354e-03, -8.44577700e-03,
       -3.29058734e-03, 3.03950324e-03, 3.39230266e-03, -2.74694781e-03,
       4.78717557e-04, -4.76267189e-03, -2.82734795e-03, -4.51366743e-03,
       -1.38243404e-03, -1.80657161e-03, -4.22672776e-04, 7.49927200e-03,
       1.95964659e-03, -3.36285494e-03, -3.48960957e-03, 3.76319583e-03,
       6.49598194e-03, 7.31616514e-04, 4.88490239e-03, -3.04218062e-04,
       4.31104796e-03, -9.13585722e-03, -1.05724027e-02, -8.11997056e-03,
       -1.03179715e-03, -4.25132504e-03, 4.39766841e-03, -8.58085928e-04,
       2.33976194e-03, -5.65744878e-04, -5.35301398e-03, 2.81415554e-03,
       -8.13313946e-03, -4.85275965e-03, -3.58206104e-04,
       -5.93463948e-04, 2.91426457e-03, -3.36172455e-03, -8.43139424e-04,
       -8.08234699e-03, -1.90742046e-03, -5.48652513e-03, 2.28538318e-03,
       4.74699959e-03, 3.11931549e-03, 5.84158348e-03, -5.51661593e-04,
       -2.13358691e-03, -4.97812405e-03, -8.19018856e-03,
       -1.11448588e-02, -1.34973193e-03, -7.86079094e-03,
       -1.34900876e-03, 2.67274352e-03, -2.52211140e-03, -2.66162958e-03,
       -4.47028456e-03, -2.77725933e-03, -1.15682455e-02,
       -7.38730282e-03, -1.42926741e-02, -6.55519590e-03, 1.87818229e-03,
       -3.62484669e-03, -2.17120934e-04, -2.05874327e-03,
       -5.52739808e-03, -4.12189541e-03, -3.34424223e-03, 2.57876003e-03,
       5.75863477e-03, -2.04532102e-04, 2.02858952e-04, 3.67898284e-03,
       -6.47066394e-03, -1.44439470e-02, -6.89582666e-03, 5.17128559e-04,
       2.92056031e-03, 3.65925953e-03, -1.88579457e-03, -1.56553381e-03,
       -2.90653523e-04, -1.93257863e-03, -5.83891571e-03,
       -3.64957703e-03, -3.57771921e-03, -1.38376374e-02,
       -4.70334617e-03, 1.43412373e-03, 2.40610982e-03, 5.79324085e-03,
       -5.30913891e-03, -8.67133960e-03, -5.17569622e-03,
       -2.56490032e-03, -4.88111936e-03, 3.33151757e-03, -1.53255870e-03,
       -2.83569767e-04, -9.66759457e-04, -6.61570951e-03,
       -2.67551187e-03, -5.55413496e-03, 3.88983125e-03, -2.99661537e-04,
       -4.93260683e-04, -2.16463557e-03, -1.29640941e-03, 3.98597243e-04,
       3.97195807e-04, -4.05802112e-03, -9.70199797e-03, -4.32519987e-03,
       -2.12716265e-03, 5.81327546e-03, 4.44127107e-03, 6.25974080e-03,
       3.25174374e-03, -2.56708916e-03, 4.06735810e-03, -9.09319986e-03,
       9.13912445e-05, -4.33299085e-03, 2.70292675e-03, 1.32347213e-03,
       6.71127951e-03, 5.87232225e-03, 5.57238609e-03, 7.35773332e-03,
       -7.49977864e-03, -2.48770113e-03, -2.04881397e-03,
       -2.72148754e-03, 4.70372662e-03, 4.79024043e-03, 2.15829303e-03,
       3.39732808e-03, 1.67059421e-03, -3.04099894e-03, 1.27260236e-03,
       6.12645352e-04, 1.23462584e-02, -3.70036857e-03, 3.84900020e-04,
       -2.93750875e-03, 5.58908447e-04, -4.15639253e-03, -2.66734185e-03,
       3.43292323e-03, 1.39054807e-03, 7.01416982e-04, 2.86666513e-03,
       1.54931680e-03, 4.05822508e-03, 2.40350375e-03, 8.18204414e-03,
       3.32549820e-03, 6.01007417e-03, 5.34473779e-03, 7.06300000e-03,
       -6.26437087e-03, -5.74526144e-03, -7.09156273e-03, 3.78963863e-03,
       -1.29823247e-03, 1.57475239e-03, 3.30423960e-03, 5.61191794e-03,
       7.05367327e-03, -2.41383072e-03, -3.34234186e-03, -3.87516106e-03,
       1.81723118e-03, 2.92044180e-03, -4.74758446e-03, 3.29352287e-03,
       5.91126643e-03, 5.86794503e-03, -8.99201445e-03, -6.67137140e-03,
       -6.62177242e-03, -5.00442367e-03, 9.96138062e-03, -3.21714045e-03,
       -4.62807994e-03, 3.07110231e-03, -9.12426331e-04, -5.23567665e-03,
       -5.63263381e-03, -7.03516603e-03, 4.30161878e-03, 2.25027255e-03,
       -3.30644078e-03, -1.05048146e-03, 8.37888662e-03, 1.14587694e-02,
       -3.39235296e-03, -1.64654816e-03, -4.70659649e-03,
       -3.23290442e-05, 1.05994418e-02, 3.44768493e-03, -3.35839693e-03,
       2.07343092e-03, 4.72535938e-03, -4.75713098e-03, -4.37267404e-03,
       -7.58325402e-03, -3.21292348e-04, 1.12940017e-02, -3.39971302e-04,
       -4.02698992e-03, 2.75782985e-03, -2.06206087e-03, -8.50688387e-03,
       -5.51631581e-03, -2.17999355e-03, 3.18746897e-03, 1.10953599e-02,
       4.14042547e-03, 2.19987705e-03, 2.53147865e-03, -1.79047650e-03,
       -5.45250950e-03, -2.11454928e-03, -5.51665993e-03, 2.48031132e-03,
       8.66329018e-03, 3.17608821e-03, -8.37172382e-03, 1.76625466e-03,
       3.40928743e-03, -9.40362737e-03, -5.94117795e-04, -3.30132106e-03,
       -2.65866099e-03, 1.04457466e-02, -1.18613336e-03, -2.22128676e-03,
       5.23050176e-03, -1.98135455e-03, 5.02745155e-03, 6.64415304e-03,
       -1.27660099e-03, 2.91464617e-03, 6.85743801e-03, -2.50633783e-03,
       9.56367876e-04, -6.75994524e-05, 4.05241922e-03, 3.36408010e-03,
       2.16085673e-03, 2.04169541e-03, 3.25392187e-03, 3.70289455e-03,
       -7.26361945e-03, -1.01773478e-02, -1.29433917e-02,
       -1.11878023e-03, 4.10578214e-03, 6.29775319e-03, 4.87181265e-03,
       -6.22621505e-04, -2.56734667e-04, -3.84337525e-03, 5.20158792e-03,
       3.37413256e-03, 8.97491991e-04, 6.85560401e-04, 4.75553749e-03,
       6.90249866e-03, 1.25748839e-03, 8.13150126e-03, -3.87127488e-03,
       -9.60866280e-04, -5.82680944e-03, -2.10455339e-03,
       -2.35600024e-03, 2.39990093e-03, 2.58571585e-03, 1.41579669e-03,
       6.69550709e-03, 3.96481156e-03, -3.84340552e-03, -1.30854426e-02,
       -3.87435174e-03, -3.33429314e-04, 1.24965794e-03, -1.35752023e-03,
       8.18038650e-04, 1.55200460e-03, 6.00553816e-03, 2.76141545e-05,
       -5.74857090e-03, -3.46618006e-03, -1.11896009e-03, 1.49303966e-03,
       2.54247547e-03, 1.88126741e-03, 4.95014107e-03, 4.40230127e-03,
       -9.27203626e-04, -9.79624223e-03, -3.38628003e-03,
       -4.66308184e-03, -8.51260556e-04, -7.66867888e-04,
       -5.07459417e-03, -7.17725372e-04, 8.66864529e-03, 6.93335710e-03,
       -2.22873129e-03, -2.81961192e-03, 3.28545272e-03, 5.41393179e-03,
       1.51206681e-04, -4.09776438e-03, 4.94517805e-03, 2.95947376e-03,
       4.85005556e-03, 3.81989032e-03, 5.88011695e-03, 7.24465703e-04,
       -1.30128197e-03, 2.09988793e-03, 5.98215498e-03, 1.11634331e-02,
       -3.75076244e-03, 5.02687274e-03, 2.68251728e-03, 4.01227735e-03,
       1.78049190e-03, -4.05132258e-03, 2.15697932e-04, -8.88273306e-03,
       9.81339603e-04, 6.18349388e-03, 1.26006259e-02, 4.71750461e-03,
       6.99251285e-03, 1.70352461e-03, -7.74756866e-03, -4.37939540e-04,
       -5.35130454e-03, 5.63805783e-03, 7.37832801e-04, 1.26864659e-02,
       1.39867107e-03, 6.46964787e-03, 1.23520137e-03, -2.63146614e-03,
       1.85825874e-03, 2.32036877e-03, 7.74805900e-03, -9.61625541e-04,
       5.16975112e-03, 3.92646156e-03, 3.95072950e-03, -3.75903305e-03,
       2.42401822e-03, 6.33471785e-03, -1.16356241e-03, 5.09197777e-03,
       1.65610830e-03, 1.28572062e-03, 6.51275273e-04, -2.52715335e-03,
       5.22841793e-03, -2.08549015e-03, 5.46323694e-03, -8.79716594e-04,
       3.42541235e-03, -3.58107896e-03, 1.77935499e-03, -3.05655040e-03,
       3.74240242e-03, 5.59074804e-03, 5.01363678e-03, 7.01586856e-03,
       1.96378492e-03, 9.79717169e-03, 5.28958335e-04, 2.91923480e-03,
       -3.85837257e-03, 2.11388525e-03, -5.23098512e-04, 3.54859349e-03,
       2.50407821e-03, -5.83025534e-03, -3.30036972e-04, -4.42355685e-03,
       -3.82394064e-03, -3.01017985e-03, -6.98734249e-04, 1.95910712e-03,
       6.67060551e-04, -4.37110662e-03, -8.47380515e-03, -1.20412733e-03,
       -3.71264573e-03, 5.73397754e-03, 3.27943056e-03, 2.12039659e-03,
       1.83414202e-03, 4.76231100e-04, 9.92452260e-04, -5.44195250e-03,
       6.22592308e-03, -5.16609289e-03, 1.72081043e-03, 1.90850953e-03,
       1.23653305e-03, -1.52868719e-03, -4.55722999e-04, 4.85462369e-03,
       -5.42911375e-03, -6.44076802e-03, -5.97902713e-03, 1.26059912e-02,
       5.74098201e-03, 4.37688595e-03, 5.87779272e-04, 1.44311076e-03,
       -1.47620018e-03, -8.49050190e-03, 6.54012337e-03, -1.35451590e-03,
       4.09244979e-03, -3.47352208e-04, 5.36383595e-04, 2.56173802e-03,
       3.95066990e-03, 3.65162641e-03, -1.06862113e-02, 7.65381288e-03,
       -7.18590571e-03, -1.70364371e-03, -4.55571339e-03,
       -1.28379848e-03, -7.66160898e-04, 1.28995173e-03, 4.51799901e-03,
       -5.17962500e-03, -3.81695782e-03, -4.71161038e-05, 1.11000696e-02,
       1.72218739e-03, 1.97978877e-03, -2.09544687e-05, 6.43068505e-03,
       1.24255149e-03, -1.41941709e-02, 3.33697558e-03, -6.61637215e-03,
       1.07112523e-04, -7.08298711e-03, -1.02026761e-03, 8.20091169e-04,
       5.69228036e-03, 5.84279699e-03, -5.68352500e-03, -4.52827517e-04,
       -1.03016116e-03, -3.15844687e-03, -4.17823205e-03,
       -6.38526678e-03, -2.93285702e-03, 5.41687990e-03, 9.32118669e-03,
       1.32741465e-03, 1.32873014e-03, 1.02646267e-02, 5.86021505e-03,
       -2.35785986e-03, -6.90135406e-04, 9.29896079e-04, 4.80730180e-03,
       1.33065297e-03, -1.06665296e-02, -3.42714658e-04, -3.26828798e-03,
       -1.17872539e-03, -7.82270543e-03, -3.24091362e-03, 2.80862529e-04,
       7.44658243e-03, 7.80988857e-03, 2.72386917e-03, 1.80234993e-03,
       1.04924738e-02, 7.07404804e-04, -9.25073493e-03, -1.26074720e-03,
       -6.13189163e-03, 3.92529444e-04, 6.20024046e-03, 1.64859917e-03,
       2.23565241e-03, 1.37268174e-02, 2.41731852e-03, -3.78799206e-03,
       -1.17212359e-03, -1.05464028e-03, -4.64702584e-03,
       -1.76878681e-03, 4.87188436e-03, -5.60968136e-03, 3.41831497e-03,
       -3.07236868e-03, -6.37534354e-03, 3.65648698e-03, -5.50150080e-03,
       -2.96414411e-03, 1.55528274e-03, -2.75754323e-03, -4.06338950e-04,
       7.23440386e-03, -2.65654456e-03, -7.07328133e-03, -4.25447803e-03,
       2.33378145e-03, -3.87212937e-03, 4.07933444e-03, 1.55251753e-03,
       -5.36969118e-03, 1.88134832e-03, 1.91182271e-03, -5.25989430e-03,
       -6.50603499e-04, -1.96416141e-03, -3.72300786e-03, 4.40665102e-03,
       7.08009873e-04, -6.74204063e-03, 1.21427316e-03, -4.27214103e-03,
       -8.86203442e-03, -9.25617875e-04, -9.49189533e-03,
       -2.65707611e-03, 5.70753822e-03, 2.03214306e-03, 9.29938338e-04,
       4.12916346e-03, 4.57931450e-03, -2.43717129e-03, -3.99341574e-03,
       1.73358491e-03, -2.52287689e-04, 6.45615999e-03, 1.09114312e-03,
       -5.20245917e-03, -5.27767977e-03, -3.41807865e-03,
       -6.61686808e-03, 8.95936624e-04, -4.42731101e-03, -1.78930594e-03,
       5.10090962e-03, -1.02355098e-05, -7.66427675e-03, -1.03742280e-03,
       9.23491549e-04, -2.14787037e-03, -3.78923025e-03, -6.36645081e-03,
       -2.13915808e-03, 1.71198649e-03, 3.38363042e-03, 4.51834034e-03,
       7.56290043e-03, 4.02909936e-03, -5.21684811e-03, -4.67555219e-06,
       -1.30495674e-03, -5.43381413e-03, 1.40168611e-03, -1.60543143e-03,
       -1.41913607e-03, -9.07967973e-04, -3.13860155e-03,
       -4.81329887e-04, 6.35557668e-03, -1.03779910e-02, -7.70128099e-03,
       -2.64175469e-05, 3.22003150e-04, -2.58150091e-03, -1.90106279e-03,
       -5.69646852e-03, -2.86474125e-03, -3.75750987e-03,
       -1.85243250e-03, -6.68603648e-03, -3.81059200e-03,
       -9.83660109e-03, -9.58199054e-03, -3.57080880e-03,
       -3.04651796e-03, 2.06313515e-03, 8.36166181e-03, 2.99213431e-03,
       -1.31113699e-03, 7.09848711e-04, -4.92770458e-03, -7.99503736e-03,
       -3.76870204e-03, 1.21589203e-03, -1.05193572e-03, 8.45939573e-03,
       6.24248898e-03, 4.97781066e-03, 2.71103880e-03, 4.18815995e-03,
       -2.91033415e-03, 1.09062763e-03, 3.28034419e-03, -3.06029874e-03,
       3.68645252e-03, 3.23245255e-03, 9.10310308e-04, -7.36298316e-05,
       -8.64725374e-03, -8.94207880e-03, -1.15050084e-03, 9.10465431e-04,
       8.37042090e-03, 1.53376171e-02, 3.44570680e-03, 7.26621784e-03,
       6.43348182e-03, 5.67608979e-03, -4.72138607e-04, -1.57400128e-03,
       3.24475608e-04, 1.92768918e-03, 6.94508525e-03, 7.98053981e-04,
       3.76585149e-03, -7.52589141e-04, 4.99679428e-03, 5.10502327e-03,
       -2.50032870e-03, -8.01402889e-03, -8.45949445e-03,
       -1.92823622e-03, 5.09675265e-05, -3.65171349e-03, 1.33811659e-03,
       2.29735463e-03, 4.79568169e-03, -2.69639608e-03, -4.53674421e-03,
       -2.16091634e-03, -4.20912402e-03, 5.70486207e-03, 8.04589421e-04,
       -9.27093904e-04, 6.57672994e-03, 2.74006696e-03, -2.79584131e-03,
       -7.24005222e-04, -2.16605440e-05, 5.44421095e-03, 5.60394116e-03,
       -1.08284433e-03, 1.59659062e-03, 2.61367750e-05, -3.31307016e-03,
       -2.74083414e-03, -2.31935686e-04, 2.43234774e-03, 7.30744982e-03,
       -1.30711868e-03, -8.16509034e-03, -2.93366425e-03, 1.46877917e-03,
       6.22906722e-03, 7.96735694e-04, -4.64943470e-03, -3.87856551e-03,
       -4.18182649e-03, -1.26738544e-03, -6.90397574e-03,
       -1.31525542e-03, -7.04083825e-04, -3.28311184e-03, 1.11637637e-04,
       3.20580788e-04, -1.36015739e-03, -1.41439028e-04, 7.73291942e-03,
       -1.24779926e-03, 1.68997841e-03, 6.83820457e-04, -5.73256658e-03,
       1.68836606e-03, 2.80681252e-03, 2.27376190e-03, 6.34422852e-03,
       1.34920608e-02, 2.91341590e-03, 1.23449299e-03, -3.89049971e-03,
       -8.34672805e-03, -3.96535142e-05, 1.31043431e-03, -3.93362530e-03,
       8.40519276e-03, 7.19952877e-05, -6.80133759e-04, -3.06762103e-03,
       -7.41255237e-03, -8.71107075e-03, -3.64502915e-03,
       -1.12021749e-03, -5.07267192e-03, 3.40810046e-03, 6.45450025e-04,
       1.57141674e-03, -1.84215675e-03, -4.56270674e-04, -5.18905278e-03,
       5.51749290e-05, 3.29912570e-03, 1.78261136e-03, -3.89048550e-03,
       6.95962599e-03, -1.58219552e-03, -3.12400633e-03, -8.34027492e-03,
       -8.39480106e-03, -1.63022033e-03, 4.35518613e-03, -4.37721703e-03,
       5.69387386e-03, 9.17479023e-03, 4.63751424e-03, -5.72094228e-03,
       -1.22942787e-03, -4.63058613e-03, 8.66327062e-03, 1.28471991e-02,
       6.45441795e-03, 3.52706807e-03, -4.39741474e-04, -4.48566116e-03,
       -3.05829849e-03, -3.97131080e-04, -7.12791443e-05, 3.55343288e-03,
       5.43479249e-03, -4.99454513e-03, -6.56672940e-03, -1.17442477e-03,
       -1.26153175e-02, -1.05766775e-02, 3.44888796e-03, -8.76620237e-04,
       3.34921689e-03, 4.87658632e-04, -8.15876853e-03, -1.35163777e-03,
       1.14825065e-03, 3.00765620e-03, -2.93171988e-03, 1.38871360e-03,
       4.61789826e-03, 5.93916234e-03, 1.02519663e-02, 9.49109322e-04,
       -2.42145942e-03, 3.99022480e-04, -2.43610353e-03, -1.52002287e-03,
       7.97939487e-03, -4.85608447e-03, 9.03582759e-03, 5.07525401e-03,
       -2.79273116e-03, 1.90376409e-03, -3.59613885e-04, -4.63646650e-03,
       -6.60353573e-03, 3.41427949e-04, 1.74499734e-03, 3.95444268e-03,
       2.97094393e-03, 1.43924321e-03, 1.60854805e-04, -2.13686959e-03,
       1.93223823e-03, -1.19487452e-03, -3.07977723e-04, 1.58260984e-03,
       5.99571969e-03, 7.53393071e-03, 6.63593039e-03, -5.07492619e-03,
       7.85611570e-04, 1.86564657e-03, 4.29719003e-05, 3.17426724e-03,
       -7.91239459e-03, 5.12147322e-03, 6.65382436e-03, 5.68109052e-03,
       3.76054295e-03, 5.17437642e-04, 1.48250221e-03, 7.72714789e-04,
       -8.96129292e-03, -5.15178498e-03, -1.67382916e-03, 3.26309330e-03,
       7.50456285e-03, 2.76858616e-03, -3.61100165e-03, -1.86432095e-04,
       -1.61426340e-03, 2.21736007e-03, -4.68172785e-03, -1.66223792e-03,
       1.28409304e-02, 1.42652786e-03, -6.26446307e-03, -5.55597187e-04,
       -1.93195394e-03, -8.72245932e-04, -4.72228014e-04,
       -4.55982564e-03, -8.57293978e-03, 3.71879898e-03, 6.58008270e-03,
       1.05008017e-03, -4.94673522e-03, -3.64482170e-03, 2.64377752e-03,
       -9.40944010e-04, -4.14624298e-03, -2.12389627e-03, 2.93083023e-03,
       3.70691298e-03, -1.92352419e-03, -3.75767308e-03, -5.12889540e-03,
       -6.71708840e-04, -6.18039723e-03, -1.65356207e-03,
       -4.45634453e-03, 2.41167727e-03, -2.25010794e-03, -4.86693438e-03,
       3.46597470e-03, 1.26084290e-03, 5.02101332e-03, -1.07407349e-03,
       -2.42546012e-04, -4.66840155e-03, 8.65302747e-04, 7.95416348e-03,
       1.62519247e-03, 2.43123015e-03, -1.86103059e-03, 6.79901754e-03,
       -1.12548033e-02, -9.76428948e-03, -6.95122930e-04,
       -1.33313658e-03, -3.54112172e-03, 1.16877921e-03, -6.56973105e-03,
       -3.73123353e-03, 3.99251655e-03, -1.09303165e-02, 4.51374659e-03,
       -1.13494624e-03, 1.24702090e-03, 1.08567427e-03, -1.08454621e-03,
       -6.75943447e-03, -1.24226860e-03, 3.44843953e-03, -5.31606935e-03,
       -4.39464580e-03, 9.47922375e-03, 6.22883486e-03, -5.36628393e-03,
       -8.34147868e-05, 4.46399115e-03, 1.66023686e-03, 4.39454569e-03,
       -2.28728610e-03, -3.25320929e-04, -4.72541060e-03,
       -1.31820329e-04, -8.26246943e-03, -4.54195915e-03, 1.34996278e-03,
       -2.15378660e-03, 4.37024236e-03, -3.81944655e-03, 3.23220342e-03,
       -4.46246006e-03, -4.15789941e-03, -1.38609391e-02,
       -6.88919285e-03, -1.25797139e-03, 4.97533474e-03, 7.96666648e-03,
       6.24336163e-03, 3.76501749e-03, 2.04665796e-03, 3.81365581e-03,
       -6.90267980e-03, 2.86799739e-04, -1.12614816e-03, 4.08498477e-03,
       2.23989855e-03, 1.01816375e-03, 5.21990260e-05, -2.50817440e-03,
       -2.88199401e-03, -7.32888281e-03, 1.15738518e-03, 5.75996609e-03,
       -3.16198217e-03, 2.33592629e-03, 1.15261297e-03, 4.67426050e-03,
       -3.86506715e-03, -2.27022870e-03, -1.09390747e-02,
       -1.37553259e-04, 1.09367529e-02, 6.41579099e-04, 5.30773960e-03,
       -3.06150643e-03, 5.16565703e-03, -5.58467163e-03, -6.04635896e-03,
       -7.91279692e-03, 6.25539524e-03, 9.16960370e-03, 9.78665194e-04,
       -9.55842901e-04, 5.04243770e-04, 3.00490903e-03, -7.59472931e-03,
       -3.01209837e-03, -5.84204122e-03, 1.15626659e-02, 5.79548394e-03,
       -2.51687900e-03, -1.99667807e-03, -8.88579525e-03, 3.07817408e-03,
       -7.30308658e-03, -5.52831637e-03, -6.18710089e-03, 3.34045338e-03,
       1.08733848e-02, 4.23388742e-03, -1.11346140e-04, 3.62621911e-04,
       1.24489078e-02, -4.23450954e-03, -3.57254408e-03, -3.26455920e-03,
       1.00139854e-02, 7.07445806e-03, 2.37355777e-03, 1.91910146e-03,
       -3.28416890e-03, 9.73236375e-03, -2.71837553e-03, 1.50903699e-03,
       2.66076671e-03, 3.97146726e-03, 4.89693414e-03, -1.12453906e-03,
       -2.87135434e-03, -4.60791308e-03, 9.87715181e-03, -2.68204487e-03,
       -3.59314959e-03, 4.85299574e-03, 1.47909974e-03, 2.90383608e-03,
       -2.47728103e-03, -2.69921147e-03, -1.12885013e-02,
       -3.55337420e-03, -9.66344588e-03, -5.87725313e-03, 5.67913381e-03,
       1.48728737e-04, -3.46287456e-03, 1.30461925e-03, 3.15041840e-03,
       -3.09150713e-03, 8.83108098e-03, 2.95865745e-03, 2.27021961e-03,
       4.15966287e-03, 6.74144947e-04, -7.12364726e-03, -3.72658926e-03,
       -4.06007050e-03, 4.58145747e-03, 5.44441398e-04, -3.49400309e-03,
       -4.66638617e-03, 1.17831118e-02, 6.74159871e-03, 1.41147524e-03,
       1.34051556e-03, 1.94738735e-03, -3.87529028e-03, 3.53194633e-03,
       -1.00246966e-02, -6.43832050e-03, 8.65694601e-04, 5.70007658e-04,
       -8.57265724e-04, 1.23670860e-03, 5.88341383e-03, 6.72969315e-03,
       4.65044053e-04, -1.18612284e-02, -4.48591495e-03, 8.85753427e-03,
       3.72541463e-03, -1.06846131e-02, -6.57604076e-03, -8.89078435e-03,
       -1.80285002e-04, -5.70002524e-03, -9.08273272e-03,
       -5.19736763e-03, 1.16989333e-02, 4.17432003e-03, -4.41207318e-03,
       2.22274498e-03, -2.94906250e-03, -6.29914040e-03, 3.63534922e-03,
       -2.44186795e-03, -1.86150937e-04, 4.36164485e-03, -7.99470290e-04,
       -5.36024850e-03, -7.14927912e-04, 4.07546712e-03, 2.25912128e-03,
       1.02781062e-03, -1.04142129e-02, -1.11903159e-04, 9.72773414e-03,
       -1.46531721e-03, -3.16908327e-03, 4.24528262e-03, 7.00365379e-03,
       -1.89659547e-03, -2.25825119e-03, -3.49957659e-03, 1.14410790e-03,
       5.80649683e-03, 2.52739317e-03, -7.50183174e-03, -2.35034246e-03,
       -2.22681067e-03, -3.50935408e-03, 5.70781995e-03, 1.04781089e-03,
       -8.99856794e-04, 4.33702907e-03, -7.58949900e-05, -1.71874790e-03,
       -1.65948458e-03, -7.56537868e-03, -8.18334520e-03,
       -1.72395632e-03, -3.65407253e-03, 3.55329970e-03, 6.23785146e-03,
       4.52576624e-03, 4.64869634e-04, 1.01853674e-03, 4.45109233e-03,
       -3.53255006e-03, -3.86834843e-03, -2.72723543e-03,
       -4.72537125e-04, 6.53418945e-03, 8.85959715e-03, 9.39749088e-03,
       2.19432055e-03, 4.16324940e-03, -7.08173541e-03, -6.92313258e-03,
       -5.31881023e-03, -1.78146103e-04, 8.67378153e-03, 8.64599273e-03,
       -3.71004746e-04, 2.73331464e-03, 1.15711370e-03, 3.20915040e-03,
       4.49026469e-03, 1.66067679e-03, 3.86493350e-03, 9.87515599e-03,
       -1.04413717e-03, -2.66278139e-03, -3.15125845e-03, 4.38216841e-03,
       3.14493105e-03, 7.73326727e-03, 2.71351985e-03, 3.70411761e-03,
       5.57319168e-03, -1.91154343e-03, -5.96669689e-03, 2.14706850e-03,
       -4.00176365e-03, -3.94909037e-03, -1.44729775e-03,
       -5.95247885e-03, -5.50497184e-03, 3.77682527e-03, 2.11605616e-03,
       -2.86972220e-03, 1.26811303e-03, 7.20313692e-04, 1.19090732e-03,
       -3.37288622e-03, -4.65335511e-03, -1.28879154e-03, 6.85888203e-03,
       6.68575102e-03, -1.92965148e-03, -1.56367983e-04, 2.27389438e-03,
       2.47422396e-03, 6.51958212e-03, 1.42002432e-03, -3.27805988e-04,
       -2.68377340e-03, -5.94007724e-04, -1.52221730e-03,
       -3.44730401e-03, -8.89089797e-03, -8.35690182e-03,
       -4.75196913e-03, 3.14863469e-03, 8.31032731e-03, 4.44192952e-03,
       2.94406363e-03, -2.79856427e-03, -1.50504406e-03, 3.64775001e-03,
       1.85665279e-03, 5.58492087e-04, -4.73525794e-03, -2.65597622e-03,
       2.16393126e-03, 5.05976472e-03, -2.76706787e-03, 8.86234920e-04,
       -9.49178822e-03, -9.29868966e-03, -1.26622450e-02,
       -3.58138146e-04, 1.01784980e-02, 1.18078487e-02, 2.13842862e-03,
       2.67224200e-03, -2.30376562e-03, -5.89176035e-03, -5.12755755e-03,
       1.51179708e-03, 3.02737486e-03, 8.96422006e-03, 3.56334983e-03,
       9.36198141e-03, 1.28665846e-03, -8.30452133e-04, -7.55651994e-03,
       -2.53603794e-03, 5.16486214e-03, 1.04085798e-03, -2.22986727e-03,
       -5.64886816e-03, -9.26335983e-04, 2.75505171e-03, 4.00626287e-03,
       -5.06618619e-03, -5.77238295e-03, 1.38417340e-03, -4.30699997e-03,
       5.13514969e-03, 6.55435678e-03, 2.79131485e-03, 3.72918951e-03,
       9.00523737e-03, -1.50330516e-03, 1.24056928e-03, 5.89190749e-03,
       -4.96578729e-03, -3.33416788e-03, -4.44814237e-03,
       -5.43448608e-04, 1.82625570e-03, -9.27675428e-05, 3.17529542e-03,
       6.54326612e-03, 5.49421925e-03, -1.68440002e-03, -6.31196937e-03,
       -4.62717796e-03, -4.45436779e-03, -6.20381499e-04,
       -1.04015821e-03, 4.08782274e-04, 7.62764877e-03, 1.24175716e-02,
       4.27094102e-03, 2.58477358e-03, -4.83041303e-03, -5.56403119e-03,
       1.09063217e-03, 6.76563149e-03, 3.21575906e-03, 7.77136534e-03,
       3.53511586e-03, -8.86021706e-04, -3.70987202e-03, -5.48864203e-03,
       -9.69181303e-03, 2.20702868e-03, 1.50885631e-03, -4.36871545e-04,
       3.07720155e-03, 1.87313389e-02, 4.61957278e-03, 6.45251339e-03,
       -6.09373301e-03, -3.38770868e-03, 1.54441060e-03, -1.84566656e-03,
       -6.31179428e-04, 2.23142910e-03, 8.89888499e-03, -1.55194954e-03,
       1.33102958e-03, 1.65115751e-03, -9.04441869e-04, 2.28767609e-03,
       -1.36579806e-03, 3.26481834e-03, 1.71367521e-03, 1.50264194e-03,
       -2.75476952e-03, 5.73589373e-03, -2.65862746e-03, -8.55568855e-04,
       -3.59405903e-03, 5.85239650e-05, 1.12301402e-03, -1.80492317e-03,
       7.06167473e-03, -1.65138359e-03, 4.52163350e-03, -5.37418900e-03,
       -5.05810883e-03, 1.43874041e-03, 1.79665396e-03, 6.72045909e-03,
       4.61801980e-03, 3.00538004e-03, -2.28810357e-03, 2.65835156e-03,
       -1.27282096e-02, -8.97940714e-04, 1.32288411e-03, -3.20987916e-03,
       -2.03363714e-04, 3.21131386e-03, -4.04804526e-03, 3.62055609e-04,
       -1.44981550e-05, -7.26475101e-03, -2.69844057e-03,
       -7.59601919e-03, -3.37827136e-03, -4.33949288e-03,
       -1.75922480e-03, 2.78343959e-03, 5.54482627e-04, 5.39505738e-04,
       -8.99048243e-03, -6.48737559e-03, 4.65514418e-03, -8.52696423e-04,
       3.07023618e-03, 3.59293143e-03, -2.78949365e-03, 3.82877677e-03,
       4.46846150e-03, -3.92209180e-03, 2.76004663e-03, -8.44230689e-03,
       -4.68982896e-03, 3.88480374e-03, -2.49303831e-03, 3.13984952e-03,
       5.26362145e-03, 1.34430733e-02, 5.58697572e-03, -9.80389537e-04,
       -4.03726846e-03, -7.33075384e-03, -5.89129841e-03,
       -3.81604489e-03, 5.10762772e-03, 6.04661182e-03, 2.36711139e-03,
       -8.36968981e-03, -3.99865350e-03, -4.20278683e-03,
       -8.08275118e-03, -1.50824781e-03, 1.49723131e-03, -1.66550581e-03,
       8.75065289e-03, 1.49358273e-03, -7.33902724e-03, -2.79781572e-03,
       -3.16554541e-03, -8.87814164e-03, 9.87035601e-05, 3.76252271e-03,
       6.25704182e-03, 6.04333729e-03, 1.06924381e-02, 4.12107073e-03,
       5.14541753e-03, 6.60517346e-03, -5.54849533e-03, -3.34023591e-03,
       2.54107232e-04, 5.40399924e-03, 6.21696096e-03, 5.43685490e-03,
       -1.88500760e-03, 7.80652650e-03, -9.23164841e-03, -7.03988504e-03,
       -1.54046761e-03, -9.65353684e-05, 1.32744818e-03, 3.20754154e-03,
       8.34056336e-05, -1.10365415e-03, -8.42384249e-03, -8.70288815e-03,
       -8.84470157e-03, 1.35772454e-03, 1.24875049e-03, -1.87756738e-03,
       -2.19053333e-03, 8.10387544e-03, 4.07819683e-03, -5.79086319e-03,
       -2.12219008e-03, -2.65666121e-03, 3.67604475e-03, -2.46928306e-04,
       2.46959296e-03, -1.33479142e-03, -4.63471003e-03, -3.54115083e-03,
       -2.03654263e-03, -1.04469794e-03, 5.52676502e-04, 1.00946417e-02,
       6.58689300e-03, 1.04392867e-03, -4.71205171e-03, 2.40803231e-03,
       4.31702891e-03, -2.15901458e-03, -5.23787178e-03, -5.15886908e-03,
       3.50174285e-03, -2.56845867e-03, 2.35382654e-03, -9.78837628e-03,
       -1.98165164e-03, 2.79183383e-03, -2.37979344e-03, -3.16328579e-03,
       -5.18811448e-03, -2.88642501e-03, -4.79478436e-03,
       -9.21635539e-04, -3.47967190e-03, -3.35449749e-03, 1.84320204e-03,
       -5.37126279e-03, -7.30365224e-04, 8.63836322e-05, 2.61614425e-03,
       3.26287816e-03, 1.04177808e-02, -6.95618102e-03, -4.11246911e-05,
       6.91851228e-03, -8.50174343e-04, 5.70890773e-03, -8.28347984e-04,
       -6.78374432e-03, -5.91468904e-03, 8.49794829e-04, -2.94690137e-03,
       -2.66033341e-03, 7.00614089e-03, 7.76693283e-04, -7.64006516e-03,
       -5.17409015e-03, -3.32490960e-03, -3.34521895e-03, 4.10136674e-03,
       4.19449853e-03, -8.57429113e-04, -9.84484213e-04, -4.01186151e-03,
       -4.67476388e-03, 8.89240240e-04, 1.06618740e-03, -1.01203974e-02,
       -5.16887475e-03, 6.85076579e-04, -6.66161627e-03, 3.94353061e-04,
       2.92908330e-03, -4.98066843e-03, 3.04147671e-03, 3.53134796e-03,
       2.74463301e-03, 5.18972054e-03, 6.11810992e-03, 1.81016233e-03,
       -1.18755421e-03, -5.28856646e-03, -1.00933202e-02, 7.89773278e-03,
       1.14361262e-02, 4.86737117e-03, 4.30386863e-05, 5.16396202e-03,
       6.29021414e-03, 1.74687163e-03, 6.97895302e-04, -2.90547265e-03,
       2.10534595e-03, 9.23193805e-03, 2.63943628e-04, -1.11316598e-03,
       1.58322626e-03, -4.28696023e-03, 6.49812166e-03, 7.30885193e-03,
       -2.38331733e-03, 4.58039343e-03, 1.11318734e-02, 5.15320292e-03,
       4.75968374e-03, -1.25665311e-03, -3.44981393e-03, -6.68129418e-04,
       1.94213790e-04, -1.12169590e-02, -2.63944827e-03, 7.37160631e-03,
       8.29809811e-03, 3.61484685e-03, 8.10152106e-03, 5.54352161e-03,
       1.25495074e-02, 3.14600929e-03, 4.39952157e-04, 5.90425404e-03,
       1.12275649e-02, 6.94967154e-03, 1.32512292e-02, 5.59003931e-03,
       1.54084282e-03, 1.28829870e-02, 4.32987744e-03, -1.19598676e-03,
       -1.40948792e-03, -2.67891824e-04, -4.82619434e-05, 1.04911614e-03,
       -4.10474790e-03, -6.13294775e-03, -4.36137803e-03, 1.98704889e-03,
       8.65110382e-03, -1.81305630e-04, 5.43351925e-04, -2.58084224e-03,
       3.31960199e-03, -6.00352592e-04, 1.39262484e-04, 4.81694797e-03,
       3.06169130e-03, 3.93823581e-03, 1.92391500e-03, 2.59267213e-03,
       7.71361170e-04, -5.61331585e-03, -3.83456075e-03, -2.90397252e-03,
       7.75574474e-03, 5.60148340e-03, 1.98928756e-03, -5.04958385e-04,
       -1.15303532e-03, -2.14454415e-03, -2.77962215e-04,
       -7.57444790e-03, 7.72314321e-04, 9.28698946e-03, 3.37439263e-03,
       6.96216570e-03, -8.61054927e-04, 2.21386226e-03, -3.96730291e-04,
       -3.64371669e-03, 5.90913172e-04, -3.23030259e-03, -1.81706541e-03,
       -1.83970702e-03, 5.97191462e-03, 4.84869024e-03, 6.25586975e-03,
       3.39136622e-03, -3.40566784e-03, -4.06811340e-03, -6.57265354e-03,
       -1.10417996e-02, -5.60582988e-03, 2.22592102e-03, -5.74691687e-03,
       -2.22438574e-03, 3.03094217e-04, -1.93759170e-03, -3.39196227e-03,
       -4.05567838e-03, 3.02664191e-03, 1.00570684e-03, 6.38188561e-03,
       4.07331716e-03, 3.93127510e-03, 2.61350861e-03, 3.05411988e-03,
       -4.45885304e-03, -7.39108119e-03, -6.70812605e-03, 1.90868136e-03,
       6.54848525e-03, 5.10329939e-03, -1.21478329e-03, -4.45726328e-03,
       -5.33064874e-03, -3.91078414e-03, -2.60381913e-03,
       -9.79616400e-03, -2.02179071e-03, 4.49440302e-03, 3.25430860e-03,
       -1.68122840e-03, -7.66364112e-03, -4.12057666e-03, 3.33584682e-03,
       1.08436188e-02, -5.72673092e-03, -7.63526186e-03, 7.35791447e-03,
       2.09010934e-04, -2.17008404e-03, -6.40612748e-03, -4.14982717e-03,
       -4.48047474e-04, -2.79099238e-03, -3.98947531e-03, 2.45013251e-03,
       8.80248030e-04, -4.85923653e-03, -9.23199300e-03, -6.55238423e-03,
       -3.67015530e-03, -6.10237068e-04, 5.75684709e-03, -3.58820357e-03,
       -4.25343821e-03, -3.99044622e-03, -2.38000648e-03,
       -4.56605898e-03, -2.49143643e-03, 6.19283412e-03, 2.63463910e-04,
       1.00159524e-02, -2.99811130e-03, -4.84279450e-03, -4.85635223e-03,
       -3.14803282e-03, -4.34794370e-03, 4.45902860e-03, -4.52602096e-03,
       -2.83459318e-03, 9.14064143e-03, 2.30769147e-04, -6.90400694e-03,
       -2.84352922e-03, -1.51272966e-02, -8.30075704e-03,
       -2.96079088e-03, -4.18708718e-04, -1.18481308e-04, 1.05717275e-02,
       2.30832188e-03, -1.86614401e-03, -2.52128835e-03, -1.26922652e-02,
       -6.03842782e-03, 5.16462419e-03, 6.71732822e-04, 2.19112425e-03,
       5.63513162e-03, -1.77694089e-03, -6.70182379e-03, 1.19317835e-03,
       2.44119088e-03, 1.20993925e-03, 2.13439320e-03, -2.82273768e-03,
       1.96125562e-04, 1.79246049e-02, 1.04354117e-02, -9.04272834e-04,
       1.79417210e-03, -2.61096144e-03, 1.53468142e-03, -8.14547297e-03,
       -3.95687122e-04, -2.19637901e-03, 6.83931960e-03, 5.52217243e-03,
       -2.83529516e-04, -4.34357818e-04, -5.11412323e-03,
       -4.65155486e-03, -2.95673264e-03, -1.55513897e-03, 6.82236580e-03,
       1.82870291e-02, 9.88294557e-03, -6.71092235e-03, -2.82788230e-03,
       -6.00440567e-03, -8.20178445e-03, -8.13199673e-03,
       -7.37872394e-03, -6.45572320e-04, 1.95649695e-02, 7.23382318e-03,
       -1.02844322e-02, 6.22873777e-04, 5.37732732e-04, 5.67907188e-03,
       3.80025152e-03, 6.56435126e-03, 4.87176655e-03, 2.90924008e-03,
       2.09844997e-03, 3.80647434e-05, -1.47750136e-03, -1.51964591e-03,
       1.21275999e-03, -5.37894666e-03, 3.69317993e-03, 8.09952430e-03,
       6.16240082e-03, 1.20273302e-03, 2.06145836e-04, -4.84860223e-03,
       -4.39377269e-03, 8.58887506e-04, 7.61136238e-04, 1.45900121e-03,
       3.79779073e-03, 6.50555827e-03, 5.58463251e-03, -5.56456111e-03,
       9.00702085e-04, -2.24699406e-03, 1.80464485e-05, -9.32748895e-03,
       -8.90249666e-03, 4.35540732e-03, 2.98853265e-04, -7.60108652e-03,
       5.18103084e-03, -8.71534925e-03, -4.54545673e-03, -2.06312980e-03,
       -9.46931075e-03, 1.06431898e-02, 7.14382948e-03, 6.82074158e-03,
       -5.99425891e-03, -7.05437828e-03, -6.27559423e-03, 1.06642523e-03,
       -6.66434760e-04, -1.87467341e-03, 3.02919466e-03, 9.73620731e-03,
       5.51170949e-03, -3.96506395e-03, -2.13792757e-03, -8.06053635e-03,
       -5.57557913e-03, -2.43928377e-03, -1.89468451e-03,
       -9.28015972e-04, 4.96613421e-03, 2.36605806e-03, -1.59345418e-02,
       -3.48110404e-03, -6.86168205e-03, -3.94032523e-03,
       -5.14202425e-03, 3.34642857e-04, -3.82965081e-04, 5.36017353e-03,
       8.33365135e-03, -2.09739921e-03, -8.61431239e-04, 1.56045856e-03,
       4.99157188e-03, 2.26444006e-03, -2.29885321e-04, 7.43017858e-03,
       7.10374769e-03, 8.58078431e-03, -4.40538302e-03, -3.66308470e-03,
       -1.18391297e-03, 5.28176827e-03, 1.90224207e-03, 2.50769174e-03,
       -2.52074911e-03, 2.15999447e-04, 1.30493264e-03, -8.10714625e-03,
       -4.20060707e-03, -4.11933241e-03, -2.05464242e-03,
       -3.20748356e-03, -3.02054640e-03, 1.48103980e-03, -4.69785044e-03,
       4.18467261e-03, -5.55481808e-03, -5.10402676e-03, -3.52315069e-03,
       -2.09326565e-04, 1.28623098e-03, -4.69903555e-03, -4.64014569e-03,
       -6.96058199e-03, 1.01480668e-03, -5.34797041e-03, -5.04032802e-03,
       9.27581976e-04, 2.15102267e-03, -1.20585342e-03, 2.25369609e-03,
       2.79175118e-03, -4.73223487e-03, 2.29149498e-03, -6.59184007e-04,
       4.93093580e-03, 1.96966180e-03, 8.20084300e-04, -7.80750206e-03,
       -8.33717920e-03, 5.39383339e-03, -6.85369037e-03, -4.56727634e-04,
       1.99089875e-03, 5.94706368e-03, -6.88802451e-03, -1.47477782e-03,
       2.69258511e-03, 3.33447242e-03, -5.94718661e-03, -4.64625983e-03,
       7.10976869e-03, 9.74379363e-04, -1.56019034e-03, -5.07208146e-03,
       -3.35873920e-03, -4.47064731e-03, 7.84293516e-05, -3.60519113e-03,
       -7.73240346e-03, 5.06876921e-03, 4.47539293e-04, 4.61312570e-03,
       4.96695982e-03, 5.94306597e-03, -4.18164441e-03, -5.11500100e-03,
       6.48500910e-03, 3.62734264e-03, 1.00490823e-03, 4.04765969e-03,
       2.28423811e-03, 3.98773374e-03, 7.19858892e-03, -2.05052411e-03,
       -5.84341446e-03, 1.54835253e-03, -6.00371044e-03, -1.53561868e-03,
       3.07597290e-03, 3.86634056e-04, 2.88673397e-03, -4.47244442e-04,
       -8.39513820e-03, 5.87558781e-04, -4.54737898e-03, 3.28001892e-03,
       8.34068097e-03, 5.39092813e-04, 2.64622015e-03, 7.47063023e-04,
       3.50537337e-03, -1.60159107e-04, 1.05655650e-02, -5.76828979e-03,
       -3.67457815e-03, 4.78509627e-03, -2.92159873e-03, -3.24708642e-03,
       4.49062325e-03, 7.73867685e-03, 1.87931536e-03, -1.73451321e-03,
       4.83479211e-03, -6.84354873e-03, -4.55398299e-03, 1.08750370e-04,
       -1.74252651e-04, 4.24263906e-03, 5.20650018e-03, 7.29338592e-03,
       6.33637002e-03, 7.66405929e-03, -5.30073838e-03, -2.82178377e-03,
       4.20973590e-03, -5.88408497e-04, 1.77898991e-03, 7.07992818e-03,
       3.24469665e-03, 8.24366324e-03, 4.59084258e-04, 3.79341625e-04,
       -1.91481813e-04, 3.58234720e-05, -2.30309251e-03, -3.39834252e-03,
       -5.14748826e-05, 3.83672910e-03, 8.92872550e-03, 3.68692592e-04,
       -2.72510387e-03, -4.59935563e-03, -2.78892461e-03,
       -3.44004668e-03, -3.27963685e-03, 3.05960746e-03, 7.14659132e-03,
       1.28635671e-03, 5.65345353e-03, -6.84944540e-03, 7.34650530e-04,
       2.70992145e-03, -2.33684666e-03, -3.93032422e-03, 2.02007592e-03,
       9.45707317e-03, 1.69690396e-03, -4.77533322e-03, -4.33660485e-03,
       1.47818658e-03, 5.07354224e-03, 3.03230481e-04, -7.54618610e-04,
       1.71214994e-03, 6.97741890e-03, 8.89965799e-03, 3.69739246e-05,
       -5.31547097e-03, -2.80730776e-03, -5.90350805e-03,
       -6.93181064e-03, -2.43733567e-03, 1.38389855e-03, 4.43636719e-03,
       -2.46967218e-04, -1.24288653e-03, 5.00964408e-04, 4.55653807e-03,
       -3.41266347e-03, -3.69764725e-03, -4.57446527e-04, 5.61267079e-04,
       2.27587670e-03, -6.88293064e-03, -1.41572161e-03, -5.63034043e-03,
       -7.14552775e-03, 1.71595812e-03, 4.71211504e-03, 3.06760427e-03,
       2.28146324e-03, 1.18318817e-03, -7.50104664e-03, 1.13163365e-03,
       -8.38304032e-03, -8.98973376e-04, 5.63875306e-03, 2.46395799e-03,
       -3.29692941e-03, 2.11337674e-03, 2.38665892e-03, -4.95857280e-03,
       5.56168612e-03, 5.57493884e-04, -1.08932043e-04, -3.20605701e-03,
       -4.20641107e-03, 3.08509893e-03, 5.91769209e-03, 9.04268306e-03,
       -5.17759705e-03, 6.70420588e-04, -8.94070603e-03, 3.59598198e-05,
       -3.39751039e-03, 2.55268230e-03, -3.47144483e-03, 2.93820660e-04,
       -3.12428572e-03, -2.41816905e-03, 8.71616881e-03, -1.66624738e-03,
       -2.00738641e-03, 7.09214760e-03, 2.31843325e-03, 4.45986027e-03,
       1.87326956e-03, -4.79665614e-04, -2.62754108e-03, 3.72411567e-03,
       -1.10882008e-03, 1.01940765e-03, 4.49569337e-03, 7.11589865e-03,
       -6.46320125e-03, 2.13992642e-03, -6.16791134e-04, -1.20901386e-04,
       4.97315777e-03, -5.44109102e-03, -3.83115537e-03, -1.54282301e-04,
       -8.25287402e-03, 1.29262567e-03, 4.41070227e-03, -2.21785158e-03,
       -3.00904596e-03, -4.65430552e-03, -5.72025077e-03,
       -4.63535683e-03, -4.62819776e-03, -7.37130828e-03, 8.65339942e-04,
       -2.68770009e-03, 4.63324273e-03, 3.23844911e-03, 7.64861470e-03,
       -1.39676081e-03, -5.30651398e-03, 3.24963650e-04, 8.60854110e-04,
       -1.36551540e-03, -2.48166546e-03, -5.79547603e-03,
       -8.01771414e-03, -1.04889981e-02, 4.19742399e-04, 5.10484446e-03,
       5.71625261e-03, 3.13574029e-03, -4.61816275e-03, -1.34192186e-03,
       1.68192433e-03, 4.72251326e-03, 1.96888135e-03, 2.81567965e-03,
       -3.54465307e-03, -4.17455891e-03, -5.49732288e-03,
       -1.01697436e-02, -3.28834937e-03, -9.12785251e-03,
       -1.47087302e-03, -1.97228580e-03, 1.03620393e-02, 7.50816986e-03,
       -1.20989897e-03, -1.85132015e-03, 6.09454559e-03, -1.44860917e-03,
       -8.09127465e-03, -5.96161000e-03, -5.99293038e-03,
       -1.05931598e-03, 3.25889816e-03, 2.93647707e-03, 1.03745526e-02,
       7.58535322e-03, -8.67805153e-04, -3.32452729e-03, 2.09796405e-03,
       1.87694526e-03, -3.15648969e-03, 1.02747534e-03, -2.87035364e-03,
       6.26634248e-03, -1.42669689e-03, -3.81865236e-03, -8.62117950e-03,
       1.65205231e-04, -4.76203999e-03, 5.97521523e-03, 4.24468424e-03,
       1.40591792e-03, 3.86692258e-03, -7.39374664e-03, -4.68722172e-03,
       -5.70132444e-03, 8.04247055e-03, 8.17948859e-03, 2.51945038e-03,
       1.29502907e-03, -1.34390639e-03, -1.76925235e-03, 6.72025234e-03,
       2.05396931e-03, 4.09701886e-03, 5.26575046e-03, 3.54435830e-03,
       2.17498676e-03, 5.56765171e-03, -4.38168536e-05, -1.20470719e-03,
       7.87339918e-03, 1.02130020e-04, -2.45122883e-05, -2.93426774e-03,
       7.15727778e-03, 2.24751726e-04, 3.50209582e-03, -6.61878334e-03,
       -1.58518145e-03, -8.48575123e-03, -8.14509811e-04, 4.24386887e-03,
       1.05679696e-02, 3.01965210e-03, 4.57614195e-03, 9.30263894e-04,
       -2.09216448e-03, -8.54437891e-03, 2.35040556e-03, 3.18279769e-03,
       4.83102212e-03, 1.18335185e-03, -4.47608560e-04, 2.47721374e-03,
       -3.76201491e-03, -3.16455844e-03, 1.86699955e-03, 1.22078136e-03,
       6.26132241e-04, 1.84837996e-03, -5.56644425e-03, 3.30897165e-03,
       -2.53042160e-03, 1.06244086e-04, -7.50439381e-03, -3.65625066e-03,
       -1.85686816e-03, 5.48158889e-04, 2.62524211e-03, -5.84404974e-04,
       -1.14197412e-03, 1.13458009e-04, 1.28457334e-03, -1.03546856e-02,
       -4.73266188e-03, 5.47803659e-03, 4.28293645e-03, 2.47104652e-03,
       -1.58912875e-03, -3.34692362e-04, -3.03448550e-03,
       -6.97539560e-03, -3.26281355e-04, 6.43516704e-03, 7.33704714e-04,
       6.01857435e-03, 7.31626106e-03, 3.54329660e-03, 4.57392598e-05,
       3.46134789e-03, -9.40010766e-04, -5.85009949e-03, 5.96798118e-03,
       -1.22811703e-04, -1.39754789e-04, -2.03600177e-03,
       -3.50281189e-04, -8.73105321e-03, 7.13346200e-03, -2.21101101e-03,
       -9.03120730e-03, 4.53574321e-04, -1.09530091e-02, -6.45446870e-03,
       2.76463339e-03, -3.58430785e-03, -7.17252074e-03, -1.23196642e-03,
       5.67438593e-03, 2.79624620e-03, 1.13020791e-03, 1.31809805e-03,
       -6.42355182e-04, 3.87895241e-04, -4.29912563e-03, -3.99156287e-03,
       1.86468509e-03, -4.85775387e-03, -5.72386757e-03, 9.15815216e-03,
       -4.88867704e-03, 1.41988392e-03, 2.88711325e-03, -1.55063334e-03,
       -4.69115999e-04, -4.31432901e-03, -5.20643499e-03,
       -1.71689165e-03, 7.64733134e-03, -9.02538002e-03, -5.49128233e-03,
       4.05278616e-03, 1.73831673e-03, -3.77166341e-03, -7.40725140e-04,
       -1.44576165e-03, 2.37327046e-03, 4.32310102e-04, 3.29836016e-03,
       -4.44153557e-03, 8.42625042e-04, -1.39601226e-03, -6.75930118e-04,
       2.96082435e-04, 3.80903040e-03, 2.60200351e-04, 3.87685234e-03,
       -2.92676617e-03, -2.80128699e-03, 4.17771237e-03, 3.44428758e-04,
       -2.20963801e-03, 4.97126393e-03, -2.04582815e-03, 1.86086760e-03,
       1.14114871e-02, 3.12585663e-03, -3.16491642e-04, 6.95466297e-03,
       1.70367374e-03, 3.18452204e-03, 1.12702569e-03, 5.76812075e-03,
       5.42051799e-04, 5.82668232e-03, -2.92976317e-03, -3.55839403e-03,
       4.02522227e-03, 5.08609554e-03, 1.91295019e-03, -3.09588411e-03,
       -8.31070263e-03, -8.13227985e-03, -8.75157129e-04,
       -8.77784658e-03, -4.56576981e-03, 1.11576598e-02, 9.93961934e-03,
       1.31808093e-03, -7.76858628e-03, -1.09666893e-02, -3.95940198e-03,
       -3.38153611e-03, -1.90177094e-03, 1.97236845e-03, 5.93306730e-03,
       7.71662127e-03, 7.48904003e-03, -1.22905464e-03, -3.40530969e-04,
       -4.32361197e-03, -1.16880576e-03, -7.08949333e-03,
       -1.80954265e-03, 1.12130027e-02, 1.28914630e-02, 1.03105605e-02,
       -2.88618659e-03, -1.08072227e-02, -1.52795846e-02,
       -8.96307174e-03, -1.13557093e-02, -2.59706099e-03, 6.64592395e-03,
       8.41624755e-03, 9.51648038e-03, 1.90301461e-03, -5.78231935e-04,
       8.06732196e-03, -3.49801220e-03, -3.50151327e-03, -2.43792683e-03,
       -4.53170575e-03, -4.22446476e-03, -2.94356956e-04,
       -2.61678570e-03, -6.07790658e-03, 1.15949772e-02, 1.63392711e-03,
       -1.07756425e-02, -4.64617833e-03, 6.28221454e-03, 7.18302978e-03,
       1.76218525e-02, 4.08997200e-03, -3.88057088e-03, -4.70882142e-03,
       -1.05883228e-02, -5.75672428e-04, -1.56529510e-04, 5.48819639e-03,
       -3.13182594e-04, 5.39909629e-03, -2.38471432e-03, -5.16930409e-03,
       9.94137488e-03, 2.57515535e-03, 1.47237815e-03, 1.75497064e-03,
       4.11571143e-03, 2.36670999e-03, -2.26798351e-04, -8.03356338e-03,
       -5.72929299e-03, 7.87900109e-03, 1.72211300e-03, -2.44306820e-03,
       -4.86351224e-03, 3.64242261e-03, 7.08664628e-03, -6.94432901e-03,
       -2.01475690e-03, 5.71686681e-03, 8.43617774e-04, 2.92784511e-03,
       3.05998628e-03, 9.32699651e-04, 4.91154287e-03, 4.75637009e-03,
       3.78108071e-03, -7.10567692e-03, -5.09669352e-03, 8.96692742e-03,
       3.70474998e-03, 1.02493784e-03, -3.44122131e-03, -2.41927453e-03,
       7.32804509e-03, -1.34242990e-03, -7.09321816e-03, -1.36395090e-03,
       6.35737786e-03, 5.40195126e-03, -7.75931915e-03, -7.01445621e-03,
       -2.50693853e-03, 2.82554072e-03, -2.03546532e-03, 6.40178565e-03,
       1.52678508e-03, 1.84796029e-03, 1.49806344e-03, -2.43229768e-03,
       -1.13752543e-03, -1.23588776e-03, 8.10068566e-04, -8.69992597e-04,
       -1.96077046e-03, 1.60153536e-03, 4.37965151e-03, 1.18726841e-03,
       2.11378629e-03, 3.48231726e-04, -4.42882115e-03, 1.42080092e-03,
       1.09703839e-03, 1.95356479e-04, 2.06679455e-03, 6.29876507e-03,
       5.50152641e-03, 8.81756656e-03, 7.86915701e-03, 1.65326451e-03,
       3.52517958e-03, 2.80151842e-03, -7.84478895e-03, 7.39810662e-03,
       5.76334959e-03, 2.45280750e-03, 1.15475050e-04, 8.84656096e-04,
       1.19789166e-03, 4.07335348e-03, 2.09600141e-04, -8.29824898e-03,
       -1.85742218e-03, 2.94424919e-03, 1.46070169e-03, 1.52006117e-03,
       -1.05922460e-03, -4.64092474e-03, 3.20933457e-03, 5.30351512e-03,
       -6.05588732e-03, -2.62524933e-03, 2.22823024e-03, -1.26994867e-03,
       -1.73796399e-03, 4.23397683e-03, 2.81910878e-03, 3.79507244e-03,
       -4.20621410e-03, -6.59740530e-03, 7.51748565e-04, -1.24696689e-03,
       -7.86352716e-03, 1.67611393e-03, 6.99787028e-03, 8.16863088e-04,
       7.46368710e-03, 2.94433965e-04, -4.46866686e-03, -1.54436415e-03,
       -2.95443228e-03, -6.21069083e-03, -1.81904004e-03,
       -1.01509849e-02, -9.44992341e-03, -2.43500969e-03,
       -2.83618714e-03, -3.76833742e-03, -5.67260943e-03,
       -2.32965569e-04, -4.90965368e-03, -5.14698273e-04,
       -3.71248019e-03, -1.16896583e-03, 3.23055545e-03, -5.58740227e-03,
       -4.83960565e-03, -3.59885022e-03, -3.65636894e-03,
       -5.49823418e-03, -4.84339148e-03, -1.60072476e-03,
       -5.42213675e-03, 2.10545678e-03, -5.48130833e-03, -4.02242504e-03,
       1.07888808e-03, -4.97175148e-03, -8.68472178e-03, -4.47401125e-03,
       5.33005502e-03, 4.69006179e-03, 9.19672754e-03, 1.14605122e-03,
       4.09247633e-03, 8.98573175e-03, -5.03693358e-04, -7.91222043e-03,
       3.40028922e-03, -6.99464744e-03, -7.99906254e-03, -3.74650233e-03,
       -1.02243507e-02, -1.70685572e-03, 4.62576980e-04, -3.79148428e-03,
       2.47354293e-03, -2.78042583e-03, -1.24586504e-02, -1.57789886e-02,
       -7.55229732e-03, -4.89854906e-03, 3.65119521e-03, 5.27021289e-03,
       1.82962778e-03, 1.50215259e-04, 3.09488998e-04, 4.24350519e-03,
       -1.97765976e-03, -2.25221025e-04, 3.53863958e-04, -1.16398546e-03,
       5.52423717e-03, -1.02850632e-03, -1.28995255e-03, -8.02090485e-03,
       -7.31506525e-03, -1.25982696e-02, -1.99501892e-03,
       -2.55541527e-03, 1.20997597e-02, 1.08571937e-02, 3.82480933e-03,
       -1.65797607e-03, -6.51510712e-03, -1.08571583e-02,
       -6.24569738e-03, -6.18425722e-04, -2.58638896e-03, 1.75787590e-03,
       2.90783262e-03, -6.13339851e-03, -2.96960282e-03, -1.11593371e-02,
       -1.06159439e-02, -5.33791399e-03, 1.63016026e-03, -6.66725310e-03,
       8.22999328e-03, 1.06311101e-03, -7.06184469e-03, -9.96407773e-03,
       -8.05669930e-03, -1.04754511e-02, -1.40962061e-02,
       -4.37403331e-03, -4.91554709e-03, 6.28948072e-03, 6.89353142e-03,
       4.13384754e-03, -9.87210893e-04, -3.05309729e-03, -1.24708852e-02,
       -1.41837038e-02, -7.93156028e-03, -1.09763462e-02,
       -4.25484776e-03, -4.01995471e-03, -6.84423326e-03,
       -3.22192581e-03, 8.44643393e-04, -8.14506691e-03, -7.51497457e-03,
       -4.10531182e-03, -5.17391553e-03, 5.52311400e-03, 1.06999679e-02,
       -2.25939951e-03, -5.42448787e-03, 1.04874372e-03, -7.29079964e-03,
       -1.22438977e-02, -6.90181041e-03, -1.15242423e-02, 1.74659491e-03,
       1.50316199e-02, 1.48845802e-03, -9.82914306e-03, 1.32669753e-04,
       -7.59671954e-03, -1.11299669e-02, -4.23394004e-03,
       -5.98248187e-03, -6.96161122e-04, 6.61335699e-03, 2.76943855e-03,
       -3.69631755e-03, -9.37155727e-03, -7.65428273e-03,
       -9.97965038e-03, -6.71063922e-03, -5.29695582e-03, 1.38316222e-03,
       1.43717229e-02, 1.05140952e-03, -1.25764310e-02, 9.40537080e-04,
       -3.38046229e-03, -5.15484950e-03, 4.73124121e-04, 8.38925189e-04,
       3.38924606e-03, 1.43314116e-02, 1.26239739e-03, -2.31431960e-03,
       5.79285948e-03, 3.03451181e-03, 9.95983370e-04, -3.56056751e-03,
       -9.37646534e-03, -8.06795806e-03, 2.96545424e-03, -1.18627604e-02,
       2.47788359e-03, -6.04040106e-04, -1.92988210e-03, -8.85928166e-04,
       1.27343682e-03, 2.63256556e-03, 8.09336454e-03, 2.35526655e-02,
       4.51607593e-05, -2.55826535e-03, 8.75061844e-03, 2.25461670e-03,
       3.20482906e-03, -8.12339317e-03, -2.47663702e-03, -4.56938753e-03,
       5.35309082e-03, -8.69145896e-03, -3.07977665e-03, -4.34748712e-04,
       9.50098620e-05, 1.65057310e-03, 2.11936026e-03, -2.84388196e-03,
       4.01496328e-03, 7.28624500e-03, -6.50220551e-03, 3.64528550e-03,
       3.80476099e-03, 2.70507589e-04, -6.41355058e-03, -2.78241653e-03,
       -1.57097017e-03, 4.75848652e-03, 9.80073027e-03, 6.75007934e-03,
       9.88104567e-03, 7.23798200e-03, 4.61310288e-03, 3.73973045e-03,
       -3.65083618e-03, -2.52736569e-03, -2.35331082e-03,
       -1.89750257e-03, -6.48395717e-03, -9.93043068e-04, 6.52257772e-03,
       2.02520262e-03, -9.15553886e-04, -9.41735134e-03, -1.98567146e-03,
       2.60265777e-04, 7.29671214e-04, -6.68858178e-04, -4.84603865e-04,
       4.31478815e-03, 5.75815188e-03, -5.20670786e-03, -4.47439495e-03,
       1.39068672e-03, -3.65223008e-04, 1.35165034e-02, 4.79400903e-03,
       3.27569852e-03, 4.24365047e-03, 1.14954554e-03, -1.57852529e-03,
       -2.21798103e-03, -1.62502769e-02, -3.81395733e-03, 5.21673821e-03,
       3.08203604e-03, 1.42131024e-03, 3.43205221e-03, 6.76383934e-05,
       -4.38497635e-03, -1.08169168e-02, 2.55368999e-03, 3.59215681e-03,
       2.28489307e-03, 2.50073010e-03, -1.31347842e-04, 7.10578403e-04,
       -6.37393584e-03, -6.26293523e-03, -6.03967858e-03,
       -1.05649326e-02, -5.79093536e-03, 8.93785711e-03, 3.80224362e-03,
       3.23733618e-03, -3.39055294e-03, -1.84340274e-03, 3.58474953e-03,
       5.93991671e-03, -5.47027122e-03, -2.12964672e-03, 4.75157285e-03,
       2.69084936e-03, -1.93852873e-03, -2.54606712e-04, -3.21480166e-03,
       1.62839761e-03, 1.63119950e-03, -2.65822350e-03, -5.71217667e-03,
       1.07979514e-02, 2.88370252e-03, 7.01656751e-03, -4.58551571e-03,
       -2.06821621e-03, 1.24112098e-03, 4.66042431e-03, -6.32002193e-04,
       -9.08702705e-03, -1.94557244e-03, 2.05456698e-03, -4.03998047e-03,
       -4.19412303e-04, 2.70829885e-04, 6.28295494e-03, -8.67614406e-04,
       3.12550808e-04, -2.34387442e-03, 4.12191544e-03, 5.88655891e-03,
       2.65540415e-03, 2.11810184e-04, -5.19465376e-03, -7.43386336e-03,
       4.75861249e-04, -4.50225268e-03, -1.78954560e-05, 3.91997537e-03,
       -6.90760906e-04, 1.63863099e-03, 4.43662843e-03, -2.83631380e-03,
       -6.93548936e-03, 7.59648811e-03, -3.13704275e-03, -1.49764295e-03,
       5.34323649e-03, -2.93998537e-03, 6.92489266e-04, 2.10736622e-03,
       -1.11959444e-03, -6.49806025e-05, -1.05768454e-03,
       -2.93438649e-03, -2.50642711e-06, 2.52342108e-03, 5.56542445e-03,
       2.30720645e-04, 7.66954618e-03, 2.74027186e-03, 1.53970171e-03,
       -1.49779755e-03, -3.03075113e-03, -1.83869875e-03,
       -1.54634914e-03, -1.58849056e-03, 1.92597264e-03, 2.86102132e-03,
       -6.16178149e-04, -1.42246054e-03, 3.15911695e-03, -3.78736318e-03,
       -4.73699532e-04, 2.19091750e-03, -2.61545600e-03, 3.27836559e-03,
       1.84841943e-03, -3.68846534e-03, 3.18091456e-03, 6.87390286e-03,
       -2.26444774e-03, -1.03329774e-02, 5.03682590e-04, -2.07341346e-03,
       2.99373339e-03, 7.22411089e-03, 6.07499294e-03, 5.59038203e-03,
       2.14457861e-03, 9.93062090e-03, 3.00129701e-04, -5.13357809e-03,
       -8.41522310e-03, 3.76687991e-03, 4.76961164e-03, 1.84602919e-03,
       5.17914630e-03, 5.74576715e-03, 9.07848938e-04, -1.00438902e-02,
       3.79538862e-03, 1.11278531e-03, 3.69585329e-03, 1.00781152e-03,
       1.98672456e-03, 2.26837583e-03, 5.69659332e-03, 2.62231031e-03,
       -1.00001944e-02, 1.96126336e-03, 2.53853528e-03, 4.44935067e-05,
       1.66650710e-03, 5.48190996e-03, 3.70680820e-03, -4.55028517e-03,
       -8.60976614e-03, 4.50541545e-03, 6.84248889e-03, 2.52502598e-03,
       3.94566334e-04, 3.06236488e-03, 3.68031021e-03, 1.53340423e-03,
       2.79897195e-03, 9.09756869e-03, -9.66114458e-03, 2.39231298e-03,
       7.26270070e-03, 2.67296005e-03, -3.32175638e-03, 6.31196308e-04,
       -5.52349840e-04, -8.92997719e-03, 3.07680178e-03, -8.08312849e-04,
       8.15902557e-03, 8.94753262e-03, -2.35220068e-03, 2.10678461e-03,
       3.58141190e-03, 1.52964692e-03, -6.46354491e-03, -1.58319925e-03,
       5.44542633e-03, 4.50482080e-03, 2.93239532e-03, 1.12185406e-03,
       1.28234318e-03, -1.87355676e-03, 6.43585809e-03, -4.55751689e-03,
       -4.69624111e-03, -1.43199251e-03, 2.09350488e-03, 1.54975790e-03,
       7.29435449e-03, 1.18060003e-03, -9.51601774e-04, -2.04591034e-03,
       -9.71570238e-03, 4.17825533e-03, 2.44453992e-03, 4.81873285e-03,
       1.09383110e-02, 6.59868587e-03, 5.86802233e-03, -1.81454991e-03,
       3.56706814e-03, -4.55629081e-03, 1.70593022e-03, -8.37189727e-04,
       -1.12282512e-04, 1.71730109e-03, 1.12502994e-02, -3.07389721e-03,
       6.90598832e-03, 3.07246018e-03, 6.04326744e-03, 5.94262453e-03,
       -6.94801891e-03, -2.85373582e-03, -1.18297266e-05,
       -8.06906167e-03, 4.20701777e-04, 4.78349812e-03, -1.05054583e-03,
       1.96628226e-03, -4.72340081e-03, -6.47465186e-03, -4.37536696e-03,
       -3.13836592e-03, -4.83991066e-03, -6.98567368e-03, 1.66523107e-03,
       -1.21681206e-03, 5.29320957e-03, -3.09096929e-03, -3.46463895e-03,
       7.73561234e-03, -2.28477665e-03, -1.21002290e-02, -4.97331517e-03,
       5.05962735e-03, -8.43645656e-04, 2.68541230e-03, 1.63537438e-03,
       -5.34983724e-03, 8.57546751e-04, -9.25337372e-04, -6.07087370e-03,
       -1.97876664e-03, 3.13086528e-03, -9.50592395e-04, 4.03444003e-03,
       4.25488368e-04, 1.78685237e-03, -4.04073671e-03, -4.69332747e-03,
       -4.24070796e-03, -7.71935843e-03, -1.05197169e-03,
       -6.18632464e-03, -2.56882329e-03, -5.32095367e-03, 5.07181883e-03,
       2.09600781e-03, -2.34698411e-03, -4.12076991e-03, -1.06334873e-03,
       -9.28631460e-04, -1.40867196e-03, 5.36884740e-03, 6.92653703e-03,
       3.60964285e-03, -2.28485721e-03, -3.30269756e-03, 7.89444195e-04,
       -5.34373708e-03, -5.43224299e-03, -8.89687613e-03,
       -1.82260177e-03, 5.13568171e-04, 5.12205483e-03, 1.25623669e-03,
       -1.57117355e-03, -1.75644748e-03, -3.26566957e-03,
       -2.02777004e-03, -1.59370305e-03, -4.29729279e-03,
       -2.26263190e-03, 4.08020429e-03, -1.33318175e-03, 5.68914693e-04,
       -1.35378877e-03, -3.50630283e-03, -3.29502160e-04, 4.34449455e-03,
       5.38354274e-03, 5.39905333e-04, 2.52016447e-03, -1.55472278e-03,
       2.23120465e-03, -8.13099032e-04, -2.72407639e-03, 1.20182405e-03,
       1.65576988e-03, -1.29706750e-04, -1.81156618e-03, 3.42435390e-03,
       -3.63758323e-03, -3.37327854e-03, -6.86534634e-03, 2.31704791e-03,
       1.37490025e-02, 1.00323213e-02, 1.39432971e-03, 9.72096168e-04,
       1.41339761e-03, -5.37271099e-03, -4.06713178e-03, -2.99774460e-03,
       -8.80743470e-03, -2.63716769e-03, 2.22520926e-03, 5.72591461e-03,
       -4.98094037e-03, 1.53902662e-03, -1.49168685e-04, -2.43621855e-03,
       -8.20266362e-03, -3.44365160e-03, -1.66356505e-04, 2.20432016e-03,
       4.91388142e-03, -1.47874723e-03, 6.77399803e-03, -2.53757206e-03,
       -3.19661689e-03, -5.81428455e-03, 6.35662023e-03, 7.93583598e-03,
       4.03955905e-03, -3.41459829e-03, -2.24426785e-03, -2.77404604e-03,
       -9.34203446e-04, -8.09236430e-03, 1.34613481e-03, 1.21917138e-02,
       6.84541324e-03, 7.08119129e-04, 3.60519858e-03, 2.63442256e-04,
       2.80786562e-03, 9.76972282e-03, -9.79549834e-04, 3.67370201e-03,
       -6.92134909e-03, 1.36569346e-04, -5.41790202e-03, 4.49318113e-03,
       2.65952968e-03, 3.42674344e-03, -5.21816779e-03, -5.38740400e-03,
       -4.24642256e-03, -5.35229873e-03, -3.04239523e-03, 2.82417843e-03,
       5.16615668e-03, -4.25112760e-03, 1.59846374e-03, -4.60471818e-03,
       -8.88663810e-03, -2.42718798e-03, 4.44065779e-03, 8.02429393e-03,
       -4.87497961e-03, 1.88665523e-03, -1.70728564e-03, 4.16233717e-03,
       6.00786041e-03, 5.19668078e-03, 3.29250982e-03, 1.07964275e-04,
       9.83316265e-03, 4.10325592e-03, 4.40041302e-03, 5.15430584e-04,
       -2.11385102e-03, -4.57426254e-03, 1.67160598e-03, 3.69281485e-03,
       -7.22833816e-03, -7.34721264e-03, -8.00743047e-03,
       -3.19983857e-03, -1.01374751e-02, 1.26551546e-03, -3.46356537e-03,
       -1.42836093e-03, 4.61377378e-04, -3.49346525e-03, 6.49007619e-04,
       -1.12701021e-03, 1.63810281e-03, -4.54297522e-03, -3.36601096e-03,
       -6.16056425e-03, 2.83600157e-03, 6.96849078e-03, -3.01966071e-03,
       7.77080713e-04, -4.69208509e-03, -1.68786326e-03, -6.95151463e-03,
       -1.95432967e-03, -7.69174704e-03, 1.75420684e-03, 5.62993158e-03,
       -9.19668470e-04, 1.41584477e-03, 3.51706427e-03, 5.55385835e-03,
       3.55601776e-03, -7.54454581e-04, -4.40471573e-03, 7.84166064e-03,
       8.05507321e-03, -5.79408836e-04, -3.78090912e-03, 3.35162069e-04,
       1.62853091e-03, -9.96526517e-03, 1.63791119e-03, -7.62076769e-03,
       3.68336518e-03, 1.06986864e-02, 1.68293098e-03, -3.46439192e-03,
       2.30491976e-03, -2.90203560e-03, -1.00697381e-02, -7.04368250e-03,
       -9.26948269e-04, -6.14188146e-04, 7.43848411e-03, -1.70356804e-03,
       -2.27055629e-03, 1.50226674e-03, -2.19182955e-04, -8.11551232e-03,
       -9.01331753e-03, -7.24907173e-03, 1.39610097e-02, 1.16164098e-02,
       -1.66328344e-03, -5.85257867e-03, -2.27063335e-03,
       -1.66599941e-03, -8.53900984e-03, -1.01805739e-02,
       -4.59298166e-03, 1.01143457e-02, 1.60322096e-02, -3.52478214e-03,
       -3.32660740e-03, 4.67189588e-03, 5.75244473e-03, 6.28082955e-04,
       -2.42817309e-03, -9.87723237e-04, 6.55217038e-04, 1.17027154e-03,
