%YAML:1.0
---
detector: !!opencv-object-detector-hog
   winSize: [ 200, 200 ]
   blockSize: [ 16, 16 ]
   blockStride: [ 8, 8 ]
   cellSize: [ 8, 8 ]
   nbins: 9
   derivAperture: 1
   winSigma: 4.
   histogramNormType: 0
   L2HysThreshold: 2.0000000000000001e-01
   gammaCorrection: 1
   nlevels: 64
   signedGradient: 0
   SVMDetector: [ 6.23002509e-03, 1.80819854e-02, 1.21579068e-02,
       5.82278101e-03, 3.06622265e-03, 5.65140182e-03, 1.36905105e-03,
       -4.02818248e-03, -1.10308351e-02, -3.09289456e-03, 1.91576853e-02,
       1.24496538e-02, -1.07203389e-03, -1.17596984e-02, 1.60552026e-03,
       1.34447208e-02, -1.29407528e-03, -1.00342808e-02, 2.33597366e-05,
       6.93149585e-03, -6.00159960e-03, -5.65337529e-03, 7.22843863e-04,
       1.12837590e-02, 2.00477056e-02, 5.03851241e-03, -3.71227995e-03,
       -8.54642503e-03, 1.92612596e-03, -1.82841588e-02, -1.08164316e-02,
       -8.32778960e-03, 2.89491261e-03, 1.33607853e-02, 4.88700252e-03,
       -1.14316579e-04, 3.13398708e-03, 1.53786130e-02, 7.43483612e-03,
       3.82009638e-03, -9.19982698e-03, -9.19621438e-03, 1.15471287e-02,
       8.81089643e-03, -1.32044125e-03, -1.13741029e-03, 5.51245734e-03,
       -1.18205352e-02, 1.35308321e-04, 4.05798480e-03, -2.15514214e-03,
       1.12034399e-02, 9.45759064e-04, -9.70765483e-03, 4.42251470e-03,
       1.11756604e-02, -9.11799259e-03, 2.88583664e-03, 9.43189953e-03,
       -1.66076852e-03, 2.49318336e-03, 1.97640946e-03, -3.06583312e-03,
       -3.49680847e-03, 4.04520798e-03, 1.79597596e-03, 2.20305333e-03,
       4.56024939e-03, -8.65377951e-03, -4.42709279e-04, -1.78211578e-03,
       -1.14328722e-02, 2.13561952e-03, 1.12302019e-03, -1.09350309e-02,
       -4.89077391e-03, 8.63590837e-03, 3.85086285e-03, 1.29011804e-02,
       -4.75746440e-03, -6.46783225e-03, -5.43518318e-03, 4.21279063e-03,
       -9.70896985e-03, -8.48202594e-03, -1.55891981e-02, 6.83447637e-04,
       4.57757339e-03, -4.76512918e-03, -7.93318450e-03, 1.12342844e-02,
       5.32827433e-03, 8.34667590e-03, 5.80459926e-03, 3.77748103e-04,
       -3.92115628e-03, 4.67638066e-03, 2.43046624e-03, -2.08749506e-03,
       8.72396305e-03, 1.13390908e-02, 1.22972010e-02, -7.93090207e-04,
       -1.80323934e-03, 2.64575286e-03, 2.48546619e-03, -1.37513445e-03,
       -4.35196981e-03, -3.23701347e-03, 2.04086513e-03, -7.70282187e-03,
       2.27721594e-03, 5.23280061e-04, 7.02218479e-03, 4.05446254e-03,
       1.24020420e-03, -8.40801839e-03, -1.27112437e-02, -9.07252543e-03,
       -7.31093250e-03, 1.11616012e-02, -1.57158950e-03, -1.41884834e-02,
       1.38380555e-02, 6.94354251e-03, -1.30926622e-02, 1.60188065e-03,
       4.09291097e-04, 9.57915559e-03, 8.84400401e-03, 2.44429503e-02,
       1.26303798e-02, 5.75084053e-03, 4.93024802e-03, -5.34438249e-03,
       -3.20239994e-03, -3.92495049e-03, -4.14022099e-04, 2.01343391e-02,
       1.65854171e-02, -9.68657248e-03, 1.79336183e-02, 1.00991279e-02,
       7.27505307e-04, -9.36981104e-03, -4.00682352e-03, -2.70942645e-03,
       6.96091261e-03, -3.22334096e-03, -9.74052306e-03, 3.25673819e-03,
       -8.29908415e-04, -6.56877691e-03, -4.97498177e-03,
       -4.23800753e-04, -1.88547024e-03, -3.71421152e-03,
       -5.22925192e-03, -4.78729955e-04, 7.72558199e-03, 8.23012437e-04,
       -5.82132302e-03, 6.94431690e-03, 8.73667886e-04, 1.26436609e-03,
       1.03165936e-02, -5.42260287e-03, -1.39406370e-02, 3.51047376e-03,
       4.94459271e-03, 1.07466020e-02, 8.11833329e-03, 5.80207491e-03,
       1.27031589e-02, 4.22617141e-03, -1.14574395e-02, -1.20891416e-02,
       5.07767033e-03, 5.29030338e-03, 8.25367589e-03, -7.86914863e-03,
       5.22506889e-03, -6.16375124e-03, -1.26975197e-02, -1.27291132e-03,
       5.39392838e-03, 6.11267006e-03, -8.92251451e-03, -1.72371678e-02,
       -9.37006157e-03, 8.11979081e-03, -1.69064780e-03, -9.42695979e-03,
       3.16516892e-03, 5.10961888e-03, -3.92055884e-03, -1.22119626e-02,
       -1.28349401e-02, 1.55696424e-03, 6.04457036e-03, 9.97992698e-03,
       -3.17056634e-04, 1.46551442e-03, 5.13825275e-04, 1.01896776e-02,
       -5.00391936e-03, -6.80951355e-03, 2.07310985e-03, 1.15324436e-02,
       1.30094192e-03, -1.49726518e-03, -1.92635960e-03, 5.86826494e-03,
       1.27235707e-02, -1.00511853e-02, -8.85139126e-03, 2.47281254e-03,
       1.04162320e-02, 1.37967407e-03, 1.05832913e-03, 1.92362741e-02,
       1.16317756e-02, -2.72913068e-03, -9.89415310e-03, -1.09609999e-02,
       -3.15886410e-03, -2.45007244e-03, -6.04769867e-03, 4.72456776e-03,
       1.41688511e-02, 8.56780622e-04, 8.12621601e-03, 4.71789483e-03,
       -1.32226041e-02, -2.91065895e-03, 8.38756654e-03, 5.64172072e-03,
       9.91246197e-03, 1.23730870e-02, 5.60054928e-03, 1.32087283e-02,
       -9.25543904e-03, -1.25771975e-02, 4.63450415e-04, 1.83058647e-03,
       -3.03091458e-03, 1.04482863e-02, 4.54265671e-03, -3.07283597e-03,
       -1.69238285e-03, -1.24194548e-02, -1.05951997e-02,
       -3.84346931e-03, 5.68192126e-03, 3.40710650e-03, 9.65582486e-03,
       1.40515603e-02, -8.33607558e-03, -5.58462553e-03, 6.43998431e-03,
       -6.64290087e-03, 6.27802860e-04, 9.37592331e-03, 9.58788674e-03,
       4.37495857e-03, 2.03931164e-02, -1.52455438e-02, -9.76198632e-03,
       2.24818685e-03, 1.08246354e-03, 1.10416068e-02, 1.60230044e-02,
       6.87907776e-03, 1.14186769e-02, 5.07284189e-03, -5.69743989e-03,
       -2.01704111e-02, -1.01776263e-02, 1.82600191e-03, 4.63562086e-03,
       1.95236392e-02, 1.12108812e-02, 6.05959166e-03, 1.32648731e-02,
       -1.36853382e-02, -3.23022157e-03, 9.60609037e-03, 5.82417892e-03,
       1.26151554e-02, 9.16753989e-03, 6.23834599e-03, -2.63146707e-04,
       -4.28747898e-03, -1.87549386e-02, -5.73913194e-03, 1.63983018e-03,
       2.27993866e-03, 3.30253039e-03, 5.25240041e-03, 8.45593028e-03,
       9.16839985e-04, 4.36800113e-03, -4.86574601e-03, 8.88871774e-03,
       5.03248069e-03, -6.96359295e-03, 3.03407293e-03, 1.34018064e-02,
       1.16891786e-02, 1.69384386e-03, -9.49743204e-03, -2.45139599e-02,
       -7.73156900e-03, 5.36516774e-03, 1.54852154e-04, -4.61777952e-03,
       6.39110524e-03, 8.32565408e-03, 2.52937130e-03, -7.35205272e-03,
       -1.85144003e-02, 5.34756435e-03, 9.76491813e-03, -2.25594454e-03,
       7.16424407e-03, 4.97781439e-03, 9.91184171e-03, 6.27548620e-03,
       1.95496995e-02, 5.58492681e-03, 1.16053494e-02, 5.96399885e-03,
       -1.08281965e-03, -4.21994831e-03, -5.45356248e-04, 1.70614710e-03,
       1.84428925e-03, -2.26343051e-03, 1.53696572e-03, 4.76567354e-03,
       7.51646282e-03, -4.81419702e-04, -3.05860746e-03, 1.96502614e-03,
       7.68714678e-03, -9.00943996e-04, 4.57244786e-03, -7.41438102e-03,
       5.23058278e-03, 1.13427946e-02, 5.05249773e-04, -9.40974988e-03,
       3.68456100e-03, 1.13003710e-02, -2.17374298e-03, 4.57708584e-03,
       -1.12453923e-02, 8.73865653e-03, 6.83879829e-04, -4.48025949e-03,
       4.73179109e-03, -5.62488521e-03, -7.52150826e-03, 2.90632038e-03,
       -5.92960045e-03, -4.65572393e-03, -1.66699232e-03, 1.80044759e-03,
       3.70350620e-03, 1.31981098e-03, -4.52289125e-03, 2.55437731e-03,
       -1.50399236e-03, 7.30213616e-03, -3.00981221e-03, -7.87605473e-04,
       3.65312304e-03, -1.39720491e-04, -7.12855300e-03, -3.50499665e-03,
       -9.08764370e-04, 3.60117410e-04, 9.86847188e-03, -3.13326746e-04,
       8.80039297e-03, 5.13850059e-03, -2.63519236e-03, 3.26475431e-03,
       -1.13859656e-03, -1.61974840e-05, 1.43519638e-03, 1.23734539e-02,
       4.28870320e-03, 1.24710249e-02, 6.69977022e-03, -2.40339548e-03,
       -8.79192725e-03, -9.44156852e-03, 1.23087084e-02, 4.86339675e-03,
       3.78131890e-03, 2.45005102e-03, 3.96257313e-03, 1.79113331e-03,
       -4.66880109e-03, -1.71940494e-03, 9.61382687e-03, 2.13539675e-02,
       6.93721871e-04, -1.60435978e-02, 2.94436188e-03, 1.16171986e-02,
       -3.54252150e-03, -3.93521367e-03, -8.19469709e-03,
       -5.82816964e-03, 1.05167897e-02, -3.12040048e-03, 4.49262839e-03,
       5.32262493e-03, 2.76239542e-03, -8.15031864e-03, 8.17368156e-04,
       -1.77773889e-02, 6.50833221e-03, 1.44439088e-02, -1.09380484e-02,
       -2.03124937e-02, 2.80781183e-03, -2.39265850e-03, -1.47434147e-02,
       -1.58158112e-02, 2.00100406e-03, 1.48974452e-02, 1.49974506e-02,
       -3.88523214e-03, -9.73721035e-03, 3.20101297e-03, 3.87675618e-03,
       8.90794117e-03, 5.13510499e-03, -4.83216951e-03, 9.68530867e-03,
       8.18242319e-03, -1.01901451e-02, -5.57718985e-03, -2.48821615e-03,
       -9.06084012e-03, 8.22411757e-03, 1.38271297e-03, -4.33779648e-03,
       1.07626719e-02, 7.30270473e-03, -1.24159167e-02, -1.55709255e-02,
       1.45984790e-03, -6.29048329e-03, -7.47963274e-03, -1.08453992e-03,
       -6.34758791e-04, 5.64120943e-03, 1.02459081e-02, -1.63964443e-02,
       -6.06854337e-06, -2.42735236e-03, -4.31418745e-03,
       -8.18199595e-04, 9.46384389e-03, 3.56596895e-03, 1.35639086e-02,
       -2.41537532e-03, -1.26691498e-02, -2.26650038e-03,
       -7.98706990e-03, -5.46401599e-03, 6.44365652e-03, 2.89173773e-03,
       5.53619722e-03, 1.37583166e-02, -1.29676033e-02, -1.85897369e-02,
       2.15186132e-03, -1.49632310e-02, 8.74562934e-03, 1.29684899e-02,
       2.91335536e-03, 1.62799750e-03, -3.04319896e-04, 1.63756471e-04,
       -1.64100993e-02, -3.51025746e-03, -1.15233595e-02,
       -9.08509642e-03, -4.17748488e-05, 3.06099188e-03, 9.33427550e-03,
       1.16627440e-02, 3.60326213e-03, -3.71042849e-03, -1.00799613e-02,
       -1.74254850e-02, -6.81359647e-03, 7.47691607e-04, 2.15547183e-03,
       3.48874228e-03, 1.04211411e-02, -9.79014859e-03, -8.52703489e-03,
       -6.60419930e-04, -1.04268799e-02, 9.48113482e-03, 1.51623972e-02,
       -5.34632709e-03, -1.95503910e-03, 8.26912280e-03, -7.15544773e-03,
       -1.18139782e-03, 7.69745884e-03, -9.09905788e-03, 4.54518711e-03,
       1.37540521e-02, -1.16234482e-03, 1.40218658e-03, 8.19543935e-03,
       -4.89189103e-03, -8.24280549e-03, -1.00403437e-02,
       -1.02767125e-02, -7.66221061e-03, 1.96160492e-03, -9.22996900e-04,
       6.70280497e-05, 1.41639039e-02, -2.16513337e-03, -9.62408201e-04,
       1.93709449e-03, -7.27438321e-03, -1.17026726e-02, 3.88597557e-03,
       3.31208645e-03, -7.65312323e-03, 8.59007426e-03, -3.36079567e-04,
       -6.01933012e-03, 8.62524658e-03, -9.99534782e-03, -5.75720100e-03,
       1.07636089e-02, -5.34674386e-03, -2.77769123e-03, 1.39310798e-02,
       8.19751341e-03, -1.05385378e-03, 1.50542017e-02, -5.72276674e-03,
       -3.62646347e-03, -5.44418988e-04, 2.98965315e-04, -2.06022570e-03,
       1.22309774e-02, 6.93441741e-03, -1.66347169e-03, 1.88859808e-03,
       -1.44790215e-02, -1.19598750e-02, -1.29645388e-03, 2.59673898e-03,
       4.66626231e-03, 8.82703438e-03, 3.09525779e-03, 1.92690210e-03,
       2.01124069e-03, -1.13398777e-02, -3.84731521e-03, 2.87096086e-03,
       1.11986406e-03, -4.30263672e-03, 1.54600805e-02, 1.21291531e-02,
       8.46293755e-03, 1.82538126e-02, -3.86945810e-03, -5.68945985e-03,
       -3.92240472e-03, -4.28497652e-03, -9.46702249e-03, 8.91464017e-03,
       1.61234513e-02, 1.19619910e-02, 1.73367257e-03, -5.56837395e-03,
       -1.35929799e-02, -5.17298048e-03, -9.93176177e-03,
       -8.71507265e-03, 4.79430798e-03, 3.72649659e-03, 5.46949124e-03,
       -2.42693140e-03, -4.55069682e-03, -4.06049611e-03, 2.84475344e-03,
       -1.11656720e-02, 1.73672350e-04, 6.13670517e-03, 5.61412144e-03,
       8.48136749e-03, -1.65687129e-02, -1.03552965e-02, -1.25751840e-02,
       1.53743103e-03, 1.10800122e-03, 8.15546699e-03, 1.63240673e-03,
       9.69381910e-03, 4.66363924e-03, 2.56627914e-03, 5.02443826e-03,
       -2.32063793e-03, 2.58949865e-03, 8.67127310e-05, -4.08611697e-04,
       -3.03518772e-03, -4.31395741e-03, -9.17391013e-03,
       -1.10268705e-02, 5.81998145e-03, 6.23327354e-03, 6.70188013e-03,
       -3.41051188e-03, 1.99632663e-02, -8.09500739e-03, -6.24453882e-03,
       -1.34593691e-04, -1.41741277e-03, 1.20232588e-04, -7.56932562e-03,
       1.37308892e-02, 2.42222622e-02, 6.90452708e-03, -7.73384888e-03,
       -1.51136015e-02, -1.10515831e-02, -7.47921318e-03,
       -6.61178492e-04, 1.33141351e-03, 2.70920037e-03, 7.69245438e-03,
       4.10397304e-03, 4.57224017e-03, 3.80278565e-03, -4.73269634e-03,
       4.17007226e-03, 1.09390328e-02, 4.21200413e-03, 3.53291421e-03,
       -5.88155817e-03, 1.76342670e-03, 5.46440389e-03, 2.28146277e-03,
       -6.92763599e-03, -2.17127358e-03, 1.90861450e-04, 2.17121188e-03,
       1.50914211e-03, -4.84541617e-03, 1.39069010e-03, -3.71162896e-03,
       -4.11188416e-03, -1.06782408e-03, -2.43169605e-03, 4.76948032e-03,
       4.20802971e-03, 5.47056261e-04, -5.64007694e-03, -6.35763956e-03,
       6.67556841e-03, 5.04453853e-03, 4.26166086e-03, 7.34756282e-03,
       -4.25889343e-03, 2.39446084e-03, -1.94375007e-03, -4.30772034e-03,
       -4.99662769e-04, 9.81075224e-03, 7.35042151e-03, -4.03105095e-03,
       -1.17245363e-02, -1.71832065e-03, -2.13641394e-03, 8.91173165e-03,
       1.69237342e-03, -1.86637626e-03, 1.18865026e-02, 4.29666182e-03,
       -1.06109688e-02, -1.27990143e-02, 2.53608474e-03, -8.86545237e-03,
       -1.36396475e-03, -3.59176029e-03, -3.72090191e-03, 2.56537180e-03,
       9.40751471e-03, -2.37021872e-04, 1.47217587e-02, -7.72599829e-03,
       -5.98012842e-03, -4.51050093e-03, -4.22219839e-03,
       -6.11205632e-03, 7.98803847e-03, 1.11176455e-02, -7.99804181e-03,
       -1.12242410e-02, -2.29187729e-03, -9.36215278e-03,
       -4.57575684e-03, -2.30682595e-03, 4.10485634e-04, 9.97023098e-03,
       3.08802235e-03, -7.56199006e-03, -1.43179356e-03, 3.29413754e-03,
       -1.09218480e-02, -6.06403872e-03, -7.14314636e-03, 6.26071729e-03,
       6.05994090e-03, -1.08059809e-04, -1.99020915e-02, 1.95654668e-03,
       -6.52063033e-03, 8.63042008e-03, 1.91754301e-03, -8.03160481e-03,
       -6.47911103e-03, 9.97955911e-03, 9.81037132e-03, -6.08601654e-03,
       -1.03709735e-02, 1.38113755e-04, -5.92834922e-03, 6.32705446e-03,
       1.73294137e-03, 1.58047129e-03, 2.41412967e-02, 1.13103362e-02,
       -7.94358365e-03, 2.25333893e-03, -1.55919762e-02, -5.53112803e-03,
       1.05674402e-03, -2.74472730e-03, -2.23543902e-05, 2.77483393e-03,
       1.31165516e-03, -1.69660375e-02, -1.93966692e-03, -7.25270156e-03,
       1.20121064e-02, 1.37203711e-03, -7.37642404e-03, -8.66408646e-03,
       8.04110430e-03, 7.75203528e-03, -1.12120491e-02, 6.23739557e-03,
       6.17586076e-03, 1.53011104e-04, -6.52368064e-04, -7.68915378e-03,
       3.81503790e-03, 6.62077311e-03, 5.72005380e-03, -1.25009054e-02,
       -2.64732516e-03, -1.01957340e-02, 1.85320503e-04, -1.17755949e-03,
       -7.32610095e-03, -4.75329580e-03, -2.85259122e-03,
       -8.91749281e-04, -1.07911536e-02, 5.22469543e-03, -3.17604118e-03,
       7.50950165e-03, 1.05273689e-03, 1.33259397e-03, -9.20633599e-03,
       9.58363712e-03, 7.91886263e-03, -7.33997207e-03, 1.70073863e-02,
       -8.09611171e-04, 1.82247325e-03, 6.21361565e-03, -2.71564419e-03,
       6.92903157e-03, 6.37691934e-03, 1.59564205e-02, 6.01498643e-03,
       1.67106539e-02, -1.13885961e-02, -2.38354574e-03, 6.00139378e-03,
       2.51370645e-03, -8.27073891e-05, -2.76750536e-03, 3.24100559e-03,
       -1.45205120e-02, 4.38826438e-03, -5.51666133e-03, 4.95062629e-03,
       4.06530313e-03, 1.40395446e-03, -4.45484603e-03, -7.15153292e-04,
       1.19514307e-02, 8.73205950e-04, 2.99670314e-03, -1.85054336e-02,
       -2.95180408e-03, 1.00419763e-02, -8.39776476e-04, 1.13380505e-02,
       2.90964008e-03, 1.11592608e-03, 5.12139080e-03, 1.51078319e-02,
       -1.09834764e-02, -1.96668832e-03, 7.47664925e-03, 7.30544422e-03,
       6.65018382e-03, 7.55881518e-03, -7.55303120e-03, 4.11195401e-03,
       9.02149454e-03, 2.76092442e-06, 2.76322034e-03, 5.68169286e-04,
       -3.64137255e-03, 1.13129965e-04, -4.37573250e-03, -2.40314240e-03,
       3.00132274e-03, -2.35432945e-03, -8.43708403e-03, -5.97348390e-03,
       8.91686324e-03, -7.62175710e-04, -4.10194229e-03, 4.07820975e-04,
       -4.22679400e-03, -1.28133642e-03, 5.76560106e-03, 4.09215252e-04,
       3.83349415e-03, 4.83184867e-03, 8.99925886e-04, 4.14908258e-03,
       1.58434955e-03, -1.13305943e-02, -8.92799255e-03, 4.37491602e-04,
       1.14887776e-02, 2.60564368e-02, 5.39601920e-03, 2.71045533e-03,
       2.47052114e-04, -2.31651962e-03, -1.41344527e-02, -4.17744042e-03,
       -1.42012909e-02, -9.90977511e-04, 2.25922223e-02, 1.19446097e-02,
       1.18523801e-03, 2.69015413e-03, -7.08958614e-05, -1.59529429e-02,
       -1.03842998e-02, -7.11791962e-03, 3.88278626e-03, 1.14531405e-02,
       -3.38630378e-03, 3.13647767e-03, 8.02686205e-04, -1.82287151e-03,
       -5.07857604e-03, -7.77853886e-03, -1.71976741e-02, 7.26644648e-03,
       2.31087524e-02, 1.71903172e-03, -6.64535770e-03, -8.82098638e-03,
       -6.38198107e-03, -1.32916244e-02, -1.66150543e-03,
       -1.96032436e-03, -1.65821216e-03, 4.27711755e-03, 1.83139637e-03,
       -7.27870548e-03, -4.80985269e-03, -5.62751526e-03, 5.23169944e-03,
       5.81724569e-03, -3.58429388e-03, -5.47587918e-03, 5.28050913e-03,
       -3.28787882e-03, -7.85801373e-03, -5.51599078e-03, 1.46072533e-03,
       7.76738953e-03, 9.67575144e-03, -5.55011909e-03, 8.22871516e-04,
       1.38640357e-02, -8.81572999e-03, -7.40943151e-03, -1.23171648e-03,
       2.73276563e-03, 2.16794200e-02, 1.89684238e-02, 8.25596601e-03,
       2.27891793e-03, 1.56142041e-02, -4.74253530e-03, -2.01201392e-03,
       4.75449767e-03, 2.33038489e-04, 7.27826636e-03, 6.96533453e-03,
       -9.60394926e-03, 7.46325182e-04, 4.20474028e-03, 1.54334644e-03,
       7.72173400e-04, 3.63425445e-03, 1.58123311e-03, -1.19708350e-03,
       -8.89673084e-03, -1.31757427e-02, -1.47736853e-03, 9.14362899e-04,
       -1.13363424e-03, 3.86286224e-03, 1.42364099e-03, -1.99665641e-03,
       7.30129704e-03, 1.28229205e-02, -4.83647780e-03, 2.65530660e-03,
       1.24228997e-02, -2.91500968e-04, -9.94975329e-04, 7.01656099e-03,
       3.44436197e-03, -3.19790514e-03, -1.37293618e-03, -2.19488293e-02,
       -4.08036960e-03, 1.26059316e-02, 9.80723370e-03, 1.04223685e-02,
       7.51427258e-04, -5.95546002e-03, -1.18527981e-03, 1.46072789e-03,
       4.92467824e-03, 1.31850606e-02, 6.50308840e-03, 1.19527727e-02,
       6.64443150e-03, -8.17977171e-03, -9.12267528e-03, 3.66614142e-04,
       1.40910763e-02, 2.71970918e-03, -1.61704177e-03, 6.54137461e-03,
       8.02152790e-03, 8.43267539e-04, 8.45649652e-03, -2.49852054e-03,
       2.04351149e-03, 2.55957432e-03, -1.45388478e-02, 5.33063477e-03,
       1.21376961e-02, 1.06821014e-02, 1.37167815e-02, -9.49751004e-04,
       -8.03612359e-03, 7.99810048e-03, 1.20818065e-02, -1.83231924e-02,
       -5.10443747e-03, -1.53590064e-03, 7.75703602e-03, 2.77270051e-03,
       1.02886894e-04, -3.13256495e-03, 1.68451783e-03, 9.95328417e-04,
       -6.51096227e-03, -1.29171591e-02, -1.46935158e-03, 5.11850044e-03,
       2.89407047e-03, -1.91025052e-03, 8.59101012e-04, 4.20433469e-03,
       -9.24651790e-03, -5.39476424e-03, -6.70984387e-03,
       -3.95254558e-03, -1.61576050e-03, 4.01868718e-03, 7.14408047e-03,
       6.59850286e-03, 1.16299083e-02, 5.79552259e-03, -3.61257349e-03,
       -8.56769364e-03, -4.46909480e-03, 9.81996581e-03, -1.37850770e-03,
       1.69236795e-03, 1.58924833e-02, 8.83936044e-03, -1.04080662e-02,
       6.54924754e-03, 4.23029391e-03, 1.94710144e-03, 7.89407548e-03,
       -4.97224042e-03, 5.13255130e-04, 5.93057415e-03, -1.98846241e-03,
       1.15877207e-04, -6.68351213e-03, 3.29540810e-03, 3.66873550e-03,
       -3.67992884e-03, 1.65955152e-03, 3.84868961e-03, 5.03430795e-03,
       -4.77580354e-03, 6.13736594e-03, -1.54760247e-03, 3.34513537e-03,
       1.55598363e-02, -1.01896264e-02, -5.27604949e-03, -1.14056224e-03,
       5.51961409e-03, -1.03529943e-02, -9.13605187e-03, -7.35755078e-03,
       5.97676961e-03, 4.30405838e-03, 4.88186162e-03, -4.43658466e-03,
       -4.39789752e-03, 4.34106169e-03, -5.64847887e-03, -9.39761638e-04,
       -4.77819750e-03, 8.32285266e-03, 1.52054746e-02, 7.43141223e-04,
       -8.00167769e-03, -1.43824829e-04, -7.69783219e-04,
       -3.28641036e-03, 9.64986102e-04, 1.51833415e-03, 1.40286970e-03,
       8.08563922e-03, -3.45982681e-03, -4.07109503e-03, -3.87460552e-03,
       -3.56197613e-03, -9.96257085e-03, 3.84883233e-03, 2.47700932e-03,
       -7.08198233e-04, -1.36731006e-03, -2.77248397e-03,
       -5.21938968e-03, 1.87540380e-03, 1.30927726e-03, -2.25192145e-03,
       1.73728797e-03, 3.31788557e-04, 1.00388592e-02, 1.22047840e-02,
       -4.52880142e-03, -8.12354905e-04, -2.08506593e-03,
       -2.89990427e-03, -3.79429595e-03, 2.70780898e-03, 4.42657853e-03,
       4.96730499e-04, 3.72769614e-03, -6.98902039e-03, -8.42156168e-03,
       -3.04152118e-03, 6.24672743e-04, -9.05407965e-03, 9.72703751e-03,
       6.45533809e-03, 5.70161594e-03, -6.49112510e-03, -4.54429165e-03,
       -7.97089469e-03, -8.34285282e-03, 2.74406513e-03, -3.44723742e-03,
       4.40783752e-03, 7.02700438e-03, -3.86112323e-03, 1.26496877e-03,
       3.26101459e-03, 7.32837594e-04, -5.46967704e-03, -6.84362557e-03,
       -5.61424531e-03, 4.04151948e-03, 7.18866615e-03, 4.94846469e-03,
       3.66475130e-03, -5.53283561e-03, -1.12944674e-02, -1.01490431e-02,
       -2.02590111e-03, -7.57967960e-03, -2.24838630e-04,
       -4.50211670e-03, -4.90672281e-03, 1.63513888e-03, 1.61892374e-03,
       -9.62551497e-03, -7.24577438e-03, 1.65497104e-03, 2.59953714e-03,
       -2.48194276e-03, -1.72548788e-03, -8.46375525e-03, 1.01059058e-03,
       4.50061401e-03, -5.47927979e-04, -7.31624011e-03, -5.70991659e-04,
       1.19630005e-02, 5.81417792e-03, -1.27063515e-02, -1.13282101e-02,
       -1.49389887e-02, -2.35506753e-03, -3.08369665e-04,
       -1.11677730e-03, 1.00152688e-02, -7.21263140e-03, -6.58921059e-03,
       -4.59016953e-03, -2.89759785e-03, 5.06494427e-04, 6.86181337e-03,
       3.73648386e-03, -1.00811785e-02, 9.88123845e-03, 1.02833118e-02,
       -5.89065079e-04, 3.09262861e-04, -1.12593011e-03, -1.08437389e-02,
       2.06036121e-03, -4.45242086e-03, -5.35414880e-03, -2.95886886e-03,
       7.63939181e-03, 1.02418754e-02, 2.77346792e-03, -5.96449617e-03,
       -5.67084644e-03, 2.48426246e-03, 7.36385118e-04, -8.43550079e-03,
       2.68674269e-03, 7.38006271e-03, 2.78916996e-04, 4.15232405e-03,
       -1.29846372e-02, -6.71005296e-03, -4.17336449e-03,
       -2.85901711e-03, 4.76631976e-04, 4.53816494e-03, -1.06497109e-03,
       -1.12982222e-03, -5.30372653e-03, -1.69546704e-03,
       -9.19748470e-03, -5.02760662e-03, -2.06242269e-03,
       -1.91769516e-03, 1.09978160e-03, -3.08135408e-03, -3.04643810e-03,
       -1.01768272e-02, -1.26117794e-02, -1.22155529e-02, 1.69274851e-03,
       -2.78591597e-03, -1.07922414e-02, 4.89438360e-04, 2.65943655e-03,
       2.29258440e-03, 2.93592084e-03, -5.59269683e-03, -5.88292442e-03,
       -2.61142314e-03, -6.88640261e-03, 4.67246119e-03, -3.79845966e-03,
       7.95142201e-04, 8.00821465e-03, 6.40200637e-03, -4.62788017e-03,
       5.04377577e-03, 5.63849136e-03, 3.28261848e-03, 2.67136353e-03,
       3.38841486e-03, 8.00808484e-04, 6.33514300e-03, -5.88946743e-03,
       -7.18455855e-03, -5.40727796e-03, 9.92927048e-03, 6.16231794e-03,
       1.73357339e-03, -8.85084737e-03, -3.47933802e-03, 6.66538766e-03,
       3.57101811e-03, -1.36919031e-02, -6.33297022e-03, 6.42395066e-03,
       6.69650966e-04, 8.53439607e-03, -4.83196200e-04, 5.13512269e-03,
       5.09859296e-03, 6.25437032e-03, 1.08167820e-03, 5.00670774e-03,
       5.78179443e-03, 9.61799454e-03, 2.51462893e-03, 3.14160809e-03,
       5.61829749e-03, -1.67188030e-02, -1.08017568e-02, 1.02720689e-02,
       2.14785640e-03, -2.17428454e-03, -3.84587119e-03, 9.73662920e-03,
       -1.40563929e-02, -9.40563157e-03, 4.06864146e-03, -4.97060083e-03,
       -4.21791011e-03, 9.25143366e-04, 7.51878740e-03, 5.09016402e-03,
       4.77955211e-03, 3.64958937e-03, 2.36501289e-03, 7.93215446e-03,
       -2.83462252e-03, 5.16789081e-03, -2.49620248e-03, -4.47359635e-03,
       -5.71984891e-03, 2.32275925e-03, 1.30065177e-02, 2.74681835e-03,
       -1.25037013e-02, -7.75478547e-03, 9.97200329e-03, -1.83001673e-03,
       -1.49763580e-02, -1.37028610e-02, 7.36993551e-03, 1.16200680e-02,
       -6.47515757e-04, -1.16300797e-02, -3.62731487e-04, 6.31914800e-03,
       -5.47376403e-04, -1.36933476e-02, 7.03667523e-03, 3.99281504e-03,
       1.09085338e-02, 1.24340877e-03, 2.36077048e-03, -1.01806107e-03,
       9.77650564e-03, -4.71279724e-03, -1.35085480e-02, -1.30769582e-02,
       1.66831259e-02, 1.11890510e-02, -4.29425575e-03, -1.33562030e-03,
       -8.71611875e-04, -5.84824104e-03, -1.29861208e-02,
       -7.46502914e-03, 1.00249657e-02, 1.32813612e-02, 6.32529205e-04,
       -3.21936188e-03, -1.45718614e-02, 4.74338094e-03, -4.28358279e-03,
       -5.30231604e-03, -3.85885290e-03, 1.25534786e-02, 9.36397072e-03,
       4.37530456e-03, -5.78683056e-03, -3.77186062e-03, -9.94382706e-03,
       -1.05805080e-02, -9.31921136e-03, -1.47310505e-02, 2.06914687e-04,
       9.94013343e-03, -3.90502787e-03, -1.12485010e-02, -4.85046487e-03,
       -7.66132167e-03, -1.51706561e-02, -1.67414676e-02,
       -8.65393877e-03, 7.29995780e-03, 1.19640715e-02, -8.49825796e-03,
       -8.72547366e-03, -3.48556973e-03, -8.57173372e-03,
       -1.59073330e-03, -3.82851087e-03, -4.14621877e-03, 2.29916070e-03,
       7.57658342e-03, 3.29804979e-03, -4.20987082e-04, -5.17443474e-03,
       2.12105480e-03, -3.17932712e-03, -1.56426465e-03, -1.11158732e-02,
       -1.43967546e-03, -2.17166520e-03, -2.18625180e-03, 1.84121123e-03,
       8.31039529e-03, 9.86499526e-03, 4.38777590e-03, 2.30803783e-03,
       3.35953129e-03, 1.72264094e-03, 4.30371892e-03, -6.61368435e-03,
       -3.62103432e-03, -6.44017383e-03, 2.21443595e-03, 2.85014883e-03,
       4.06384561e-03, -1.24944863e-03, 5.34214871e-03, -5.78928157e-04,
       3.09639098e-03, 3.94837139e-03, 5.80071378e-03, -1.96070154e-03,
       8.67333449e-03, -3.02436412e-04, 2.39967229e-03, 8.07444938e-03,
       -7.06267729e-03, -3.31425294e-03, 2.24780105e-03, 3.45299253e-03,
       4.73696459e-03, -5.11272578e-03, -1.88038999e-03, -5.07647565e-05,
       -4.55080252e-03, -2.85023591e-03, -1.72460650e-03,
       -6.87154382e-03, -8.42011441e-03, 2.47632060e-03, -2.23194133e-03,
       7.49380095e-03, 7.84638710e-03, 2.33487785e-03, -9.07311030e-03,
       -1.48628966e-03, -1.28646221e-04, 3.29222390e-03, -7.47214013e-04,
       4.87358635e-03, 5.23897493e-03, 8.89788847e-03, 1.03969476e-03,
       -6.14552898e-03, 6.90654665e-03, 1.99361797e-03, -2.95014982e-03,
       -7.38127762e-03, -2.02950765e-03, 1.22717302e-02, 8.49166233e-03,
       -3.46721080e-03, -5.88272046e-03, 4.86844312e-03, -4.58734948e-03,
       -7.47873075e-03, 7.06586195e-03, 3.64469393e-04, -1.90600299e-03,
       3.46537912e-03, 1.27071259e-03, 8.86412151e-03, 3.42919934e-03,
       -1.21077127e-03, -9.01630707e-03, -5.27734868e-03,
       -3.24306055e-03, -1.03344209e-02, 3.26870638e-03, 8.98124930e-03,
       -5.02308505e-03, 3.77441011e-03, -2.01206771e-03, -3.57091660e-03,
       -1.92295611e-02, -1.31528694e-02, -1.04484987e-03, 4.85104218e-04,
       -3.35771329e-04, -1.21123586e-02, -4.37134085e-03,
       -1.11911912e-02, -7.93702155e-03, -2.08443832e-02,
       -2.27547623e-03, -5.77711640e-03, -1.94949273e-03,
       -6.04941370e-03, 1.38208466e-02, 5.22563746e-03, -3.54816997e-03,
       1.30919123e-03, -4.86148288e-03, -1.06015196e-02, -8.94442294e-03,
       2.42889393e-03, 6.81874575e-03, 1.04494002e-02, 3.56518617e-03,
       -1.86924101e-03, -4.31113906e-04, 7.49668432e-03, -6.43513678e-03,
       -2.38622911e-03, -1.02640558e-02, 2.47564190e-03, -4.34023933e-03,
       8.19380209e-03, -3.22413724e-03, 3.64951533e-03, -9.72847734e-03,
       4.96180216e-03, -2.14157230e-03, -9.74020280e-04, -1.18257580e-02,
       4.61800350e-03, 7.59806775e-04, -2.20152386e-03, 6.03842922e-03,
       5.97705785e-03, -6.59474730e-03, -2.32421444e-03, -7.67444319e-04,
       -4.84845228e-03, 1.37535138e-02, 1.26255292e-03, 2.75740807e-04,
       1.41680520e-03, 4.84961178e-03, -4.11926629e-03, 3.04553309e-03,
       1.06385839e-03, 7.39078643e-03, 4.10397816e-03, -2.67746346e-03,
       -4.91708610e-03, -5.47072268e-04, 7.13576609e-03, -5.36365295e-03,
       -5.09321922e-04, -5.51454350e-03, 5.71617624e-03, 1.38574708e-02,
       5.31573547e-03, -2.64945603e-03, -2.81261676e-03, 5.25473151e-03,
       -9.83997062e-03, 4.17502783e-03, 1.14652729e-02, 1.55306635e-02,
       8.22573993e-03, -9.71644942e-04, -6.85847690e-03, 6.09269540e-04,
       -1.07480315e-02, -6.76679332e-03, 3.67192086e-03, 6.43367134e-03,
       5.59432758e-03, 4.35994996e-04, -9.51988995e-03, -5.00438595e-03,
       -1.53078500e-03, 1.48049183e-02, 6.37936871e-03, -5.32787153e-03,
       -8.14496819e-03, -1.65046426e-04, -6.49707997e-03,
       -1.11337714e-02, -2.71535409e-03, -6.66912086e-03,
       -1.20931538e-02, -3.82696115e-03, -3.94292129e-03,
       -4.18120017e-03, -3.65648372e-03, 4.68139537e-03, 3.06198373e-03,
       -2.42094160e-03, -9.17682191e-04, -4.27069468e-03, 6.58871513e-03,
       5.95849799e-03, 8.45207274e-03, 1.72287109e-03, 1.57497078e-03,
       6.46099215e-03, -5.57338307e-03, -8.90123472e-03, -1.25024309e-02,
       -1.15304196e-03, 1.30400155e-02, 1.17893778e-02, 5.90607245e-03,
       -6.70011295e-03, -6.09663269e-03, 1.48544349e-02, -4.07241547e-04,
       1.98460068e-03, -6.92984648e-03, -1.60028506e-03, 1.90955028e-03,
       6.04381738e-03, 4.77936672e-04, 1.28602227e-02, 1.36829484e-02,
       6.78969454e-03, 4.34443681e-03, -1.60009582e-02, -9.69858188e-03,
       -6.55487040e-03, 4.70041716e-03, 8.66239984e-03, 7.26139918e-03,
       5.22376457e-03, -1.87047652e-03, 7.83543009e-03, -2.82347831e-03,
       1.32266274e-02, 7.54647143e-03, 1.07355593e-02, 6.81361463e-03,
       3.44354799e-03, 1.73621420e-02, 1.01803970e-02, 1.40376715e-02,
       -1.62403123e-03, -5.60802687e-03, -5.11883665e-03, 1.39437169e-02,
       7.81775080e-03, 2.78912694e-03, 7.77980452e-03, -5.48132882e-03,
       2.40125204e-03, -8.16175155e-03, 1.61224138e-03, 5.81415115e-05,
       2.96764937e-03, 6.96679170e-04, -6.61937520e-03, 6.64051273e-04,
       -5.78105915e-03, 5.39225480e-03, 1.63822866e-03, 9.32950620e-03,
       5.86451124e-03, 6.29370427e-03, 2.42350507e-03, -3.44688771e-04,
       1.39317466e-02, -1.09296497e-02, -1.31806359e-03, -4.02594544e-03,
       -2.89625674e-03, 3.74182756e-03, 6.72782678e-03, 2.86094320e-04,
       6.98630838e-03, 1.56584587e-02, -7.09767127e-03, 7.05061387e-03,
       3.30220163e-03, 2.63309153e-03, 6.14643842e-03, 2.35092337e-03,
       -2.22039805e-03, -2.38900702e-03, 2.74938205e-03, -8.87175463e-03,
       8.41022376e-03, -2.97613954e-03, 1.18306363e-02, 7.06565939e-03,
       -3.81886098e-03, -6.64774142e-03, 5.86709008e-04, 1.15809022e-02,
       4.39937832e-03, -2.73472886e-03, -1.86138116e-02, 3.04650841e-03,
       9.43406578e-03, -9.79285967e-03, -1.03067840e-02, 9.42853559e-03,
       6.64455537e-03, -4.55723889e-03, 1.23051181e-02, 3.01550957e-03,
       1.17773116e-02, 8.30233935e-03, -9.00158938e-03, -6.62668468e-03,
       1.54922316e-02, 6.16044411e-03, 2.33400147e-03, 3.20285093e-04,
       -5.13578532e-03, 1.29034277e-02, 1.34286629e-02, -1.08814612e-02,
       -7.12734472e-04, 1.86079182e-03, 5.84415998e-03, 7.68424990e-03,
       2.91111646e-03, -5.62387332e-03, 6.43547578e-03, 9.14894324e-03,
       -7.63985934e-03, 4.98893671e-04, 9.19225218e-04, 2.02409481e-03,
       1.35754375e-03, 3.13386065e-03, 6.57784333e-03, 9.63506289e-03,
       -4.93047899e-03, 4.11367789e-03, -7.01071229e-03, 5.75220585e-03,
       1.79028604e-03, -3.12564033e-03, -7.79618742e-03, 1.56357919e-03,
       1.47185382e-02, 1.36324707e-02, -7.32982240e-04, 6.13536499e-03,
       3.34150740e-03, 1.05367880e-02, 2.12966814e-03, 5.82560292e-03,
       4.71266452e-03, 1.32384673e-02, -2.37312145e-03, -1.23703456e-03,
       -3.00264196e-03, -9.04442649e-03, -1.47006800e-02, 3.31689185e-03,
       -4.81134048e-03, -2.22790590e-03, -2.79532687e-04,
       -4.01258282e-03, 5.96420793e-03, -7.90678256e-04, -1.09843668e-02,
       -1.88680642e-04, -2.59452290e-03, -3.66029679e-03, 5.37179131e-03,
       7.23886443e-03, -9.65904165e-03, -4.49323794e-03, 1.10007059e-02,
       -1.42367184e-02, -8.80110636e-03, 6.60543563e-03, -8.60670395e-03,
       -1.33671053e-03, 1.46478200e-02, 1.32316062e-02, 1.42129641e-02,
       6.40310906e-03, -1.52283935e-02, -2.22367398e-03, 4.10392880e-03,
       1.81140192e-03, 5.89973526e-03, 3.69027164e-03, 1.40399381e-03,
       8.28781817e-03, 3.13338288e-03, -1.96144753e-03, 2.60635139e-03,
       9.62745771e-03, 3.11788311e-03, -2.08879262e-03, 2.41149380e-03,
       -1.26593439e-02, -4.32051858e-03, 3.26413172e-03, -3.17699305e-04,
       4.03239857e-03, 1.11956187e-02, -8.37840792e-03, -7.28816399e-03,
       3.52122798e-03, -1.19683174e-02, -1.59836572e-03, 6.59607910e-03,
       -5.51842572e-03, -1.73324393e-03, 1.19703002e-02, 3.64524475e-03,
       -6.21937588e-03, -7.16076745e-03, -1.35592902e-02, 7.90815242e-03,
       1.36312516e-02, 1.15170970e-03, -4.77870321e-03, 1.03891140e-03,
       -7.17525044e-03, -1.22895045e-02, -1.04884049e-02,
       -1.34428209e-02, 7.22732628e-03, -1.20167586e-03, 1.08134013e-03,
       2.23556563e-04, 7.60562858e-03, -5.81194228e-03, 6.48144196e-05,
       4.44800965e-03, -3.30154970e-03, -6.72565773e-03, 8.73266533e-03,
       5.31791151e-03, 2.47324002e-03, 5.46563370e-03, -1.00511061e-02,
       -2.69221142e-03, 9.29024257e-03, 4.30225860e-03, 3.29177151e-03,
       1.08119119e-02, 5.08003542e-03, -4.70527557e-05, 2.88091047e-04,
       -1.27044916e-02, -7.65439775e-03, -9.23186634e-03,
       -6.83903042e-03, 2.40597175e-04, 5.83502697e-03, -5.50489360e-03,
       3.32020340e-03, -1.59128482e-04, 6.62368402e-05, 7.41009973e-03,
       -6.71697082e-04, -1.08597334e-02, 7.15011498e-04, 7.35703669e-03,
       5.53444494e-03, 5.46882302e-03, 1.13161905e-02, -8.79506115e-03,
       2.23163143e-03, 7.47473817e-03, 2.49309675e-03, 4.70545236e-03,
       9.17205960e-03, -3.12756491e-03, 4.37007053e-03, 6.73306827e-03,
       -1.55710792e-02, -8.66676401e-03, -1.16447518e-02, 1.64677083e-04,
       7.00313738e-03, 1.39679667e-02, 8.20702349e-04, 3.82941891e-03,
       5.19287214e-03, 1.01200286e-02, 1.07358443e-02, 3.24779539e-03,
       -2.16687782e-04, 1.25093767e-02, 9.26249952e-04, -3.79164983e-03,
       -6.08050846e-04, 3.27475107e-04, -9.72050242e-03, -1.59901045e-02,
       -1.02021424e-02, -7.20719434e-03, 2.74167722e-03, 9.29918047e-03,
       -1.38625887e-03, 8.28276295e-03, 6.23648660e-03, -9.42592043e-04,
       -8.93802010e-03, -8.44085123e-03, 8.07875860e-03, 3.23724281e-03,
       -8.66323151e-03, -5.31133451e-03, 2.06376705e-03, -2.65944214e-03,
       7.92640634e-03, 7.50203058e-03, -1.15373230e-03, -2.19983049e-03,
       -1.47617869e-02, -2.98833940e-03, -5.14325779e-03, 5.07138111e-03,
       1.00747095e-02, 5.62190653e-05, -1.50568318e-02, -5.50249778e-03,
       -2.71580019e-03, 4.86341398e-03, -2.89194495e-03, -8.02913401e-03,
       -7.68002064e-05, 3.91556462e-03, 1.52437761e-02, 1.10743716e-02,
       1.16308825e-02, -3.29721277e-03, 6.96640462e-03, 4.56448039e-03,
       -5.97940234e-04, -3.75620043e-03, -4.25291853e-03, 8.23114533e-03,
       1.07635856e-02, 5.18951612e-03, -1.56513671e-03, -7.80732790e-03,
       1.10841133e-02, 3.79391364e-03, 1.66099437e-03, -7.31088003e-05,
       4.02992032e-03, 4.34269011e-03, 5.67151327e-03, -6.82423962e-03,
       -1.60104421e-03, -2.34058636e-04, -2.96540093e-04,
       -6.29750127e-03, -9.93381441e-03, -4.23556706e-03, 5.06895827e-03,
       8.96884780e-03, -3.06096417e-03, -9.80707235e-04, 3.33268312e-03,
       6.23431802e-03, -4.62869852e-04, 5.08409808e-04, -1.40112464e-03,
       2.49433983e-03, -4.54918575e-03, -6.47222903e-03, -5.46135660e-03,
       1.39658172e-02, 5.51770255e-03, 7.92056043e-03, 3.91434226e-03,
       8.60773772e-03, 1.19486200e-02, 7.10457470e-03, -8.65176506e-03,
       8.09979811e-03, 2.88437563e-03, -1.80510851e-03, 3.40071484e-03,
       -4.70527506e-04, 3.78056336e-03, 3.97049729e-03, 1.67457457e-03,
       -3.27150384e-03, 1.83093012e-03, 1.02065857e-02, 1.59692345e-03,
       -4.70903981e-03, 5.05053904e-03, 6.63882995e-04, 1.47930067e-02,
       -3.19198263e-03, -3.05430801e-03, 4.49196715e-03, -7.56770000e-03,
       3.14533524e-03, 2.40779342e-03, -4.17685974e-03, -8.08755984e-04,
       -2.61804671e-04, -5.60986483e-03, -8.25657696e-03,
       -1.00374613e-02, 1.03222793e-02, 3.62356543e-03, 4.94668772e-03,
       -4.26891551e-04, 1.30056497e-02, 3.90109187e-03, 1.13936584e-03,
       4.54307906e-03, -2.57330900e-03, 1.62521866e-03, 2.21994193e-03,
       -4.54816176e-03, -9.61426739e-03, 1.00660315e-02, -4.95880237e-03,
       3.11877870e-04, 4.39393241e-03, -2.82554119e-03, 4.95377230e-03,
       8.69679824e-03, 7.06731062e-03, -6.44802582e-03, 9.48475208e-03,
       -3.49955237e-03, -6.82823453e-03, -6.31686952e-03,
       -5.22719882e-03, 8.92894622e-03, -1.42546021e-03, -7.14933639e-03,
       -1.19595760e-02, 8.78105965e-03, -8.40709172e-03, 7.55392248e-03,
       6.48029661e-03, 6.29375409e-03, -2.34340574e-03, -1.09500811e-03,
       -1.14442883e-02, -1.41581343e-02, 5.06213540e-03, -2.22701556e-03,
       -1.76303333e-03, 8.81999847e-04, -4.30861954e-03, -5.27003920e-03,
       1.61028432e-03, -1.40200707e-03, -7.58297043e-03, 7.67107820e-03,
       -8.34263337e-05, 9.69191569e-06, 7.10605271e-03, -1.72266935e-03,
       -8.03549495e-03, -5.71446400e-03, -9.24549624e-03,
       -8.75768159e-03, 3.03119933e-03, -4.76776809e-03, -3.47449793e-03,
       -3.98477959e-03, -5.25450241e-03, -2.68904935e-03,
       -1.10540725e-03, 2.95171328e-03, -2.79561244e-03, 1.20408768e-02,
       1.15035037e-02, 2.04601511e-03, -4.35311953e-03, -7.05533475e-03,
       -2.40755896e-03, 5.76851366e-04, -4.55809059e-03, -7.51181226e-03,
       -5.47673646e-03, -6.50797971e-04, -4.76421975e-03,
       -6.12330204e-03, -7.29195122e-03, -4.18865960e-03, 1.98893505e-03,
       -3.94369988e-03, -7.06015574e-03, -1.10433344e-02,
       -8.45150370e-03, -1.23280128e-02, -1.18510472e-03,
       -1.08362664e-03, 2.78777536e-03, 1.21358666e-03, 6.60346681e-03,
       -6.80587534e-03, 2.18732376e-03, 4.01295628e-03, 4.24216501e-03,
       -8.08079075e-03, -6.03117282e-03, 2.99535110e-03, 3.19226459e-03,
       4.05994942e-03, -4.27395717e-04, 6.86651212e-04, -7.39367586e-03,
       -6.92180591e-03, -1.21350233e-02, -6.29233290e-03, 2.33300310e-03,
       -1.91839272e-03, -3.82321281e-03, -2.57148920e-03, 1.82177842e-04,
       -6.08810270e-03, -2.63662706e-03, 4.39663371e-03, 7.13843619e-03,
       3.31172533e-03, -1.42070772e-02, -1.39543088e-02, 1.46461697e-03,
       -7.89727736e-03, -7.55067682e-03, -9.91794048e-04,
       -3.02266446e-03, -6.35242963e-04, 1.21054333e-02, -8.09960719e-03,
       -1.49398716e-03, -2.78969225e-03, -9.32361698e-04,
       -7.28882430e-03, 3.34867800e-04, 4.19129012e-03, 1.02915280e-02,
       1.99349504e-02, -1.80143714e-02, -6.29172660e-03, 8.89401708e-04,
       4.00484831e-04, -2.29236015e-04, 1.18670072e-02, 7.23141711e-03,
       1.65571161e-02, -3.23364453e-04, -1.14582609e-02, -1.30648557e-02,
       5.73838246e-04, -1.12961410e-02, -2.56659812e-03, -2.61443295e-03,
       -3.54632270e-03, -2.92632612e-03, -9.60491039e-03, 4.63330513e-03,
       7.34969135e-03, 1.73396580e-02, -9.36009863e-04, 2.27523060e-03,
       -1.71213262e-02, -1.35180894e-02, -1.79260541e-02, 1.03455996e-02,
       -1.07181752e-02, -3.47017427e-03, 1.64935773e-03, -2.48906971e-03,
       4.54394286e-03, 1.34791434e-02, 4.64349845e-03, 9.06288438e-03,
       7.07513979e-03, -3.49314208e-03, 5.15664229e-03, 1.78850945e-02,
       1.93584301e-02, 2.34785862e-03, 9.52038169e-03, 3.98595957e-03,
       1.14315767e-02, -3.50478222e-03, 1.56533043e-03, 4.59182449e-03,
       1.25981085e-02, -4.19139047e-04, 1.45194018e-02, -1.66325457e-02,
       -1.96427945e-02, -1.78637300e-02, 9.24263429e-03, -1.66261068e-03,
       -1.04094399e-02, 9.31849703e-03, -3.64140770e-03, 5.73122967e-03,
       -1.40361767e-02, -1.38831371e-02, -4.36315639e-03, 4.01065126e-03,
       -4.57077380e-03, -1.07926494e-02, 1.45595791e-02, 4.51373495e-03,
       7.97355268e-03, -2.07068585e-03, -8.45858082e-03, 1.03239007e-02,
       1.73609816e-02, -7.66096683e-03, -2.16089864e-03, 1.89698916e-02,
       1.62758939e-02, 9.11944080e-03, -6.04711426e-03, -1.57407783e-02,
       1.21920342e-02, 6.42698444e-03, -4.28938726e-03, -6.13925094e-03,
       5.49095916e-03, -3.25031066e-03, 6.31363550e-03, -1.08656511e-02,
       -1.13882786e-02, 2.98912916e-03, 4.77282214e-04, -1.42349796e-02,
       -2.74396292e-03, -2.59036873e-03, -1.72329787e-03, 1.10529726e-02,
       -2.12205760e-03, -7.99105503e-03, 3.88798770e-03, 7.57633895e-03,
       -6.58183498e-03, -6.20695297e-04, 3.63525609e-03, 8.10369104e-03,
       1.01704616e-02, -6.64177351e-03, -8.28236435e-03, 8.51995405e-03,
       1.16097843e-02, -1.17418421e-02, -1.11647826e-02, -3.99955362e-03,
       3.62896547e-03, 1.47949103e-02, -2.24009412e-03, -9.20055667e-04,
       9.42391437e-03, -4.03136760e-03, -1.92843750e-02, -1.76723825e-03,
       -2.31022132e-03, 1.41674606e-02, 1.58691537e-02, 3.65428557e-03,
       -7.32666813e-03, -7.79815204e-03, -7.33477902e-03,
       -2.46085366e-03, 5.73666207e-03, 7.98957981e-03, -1.74034969e-03,
       7.01506250e-03, 4.77059092e-03, 1.80167099e-03, 5.44787035e-04,
       1.68648995e-02, -7.01944204e-03, 2.49328185e-03, 6.35841256e-03,
       2.26782057e-02, 1.55988820e-02, -1.24078908e-03, -7.45547749e-03,
       7.28069153e-03, 1.18938806e-02, 4.05668421e-03, 5.39740641e-03,
       1.60092544e-02, 2.28913547e-03, 5.56204515e-03, -4.52789152e-03,
       -4.27751709e-03, 1.13088470e-02, -1.19840130e-02, -5.00329828e-04,
       -1.63273909e-03, 4.19205084e-04, -1.09204482e-02, 8.67598224e-04,
       1.32242944e-02, 9.75671411e-03, -2.13455758e-03, -4.61218692e-03,
       3.03952635e-04, 3.21037183e-03, -2.54262472e-03, -2.31778100e-02,
       3.15490738e-03, 2.29364820e-02, 8.15822370e-03, -6.86952425e-03,
       6.09514955e-03, 8.06140248e-03, -5.55806980e-03, 2.46578245e-03,
       -4.81327670e-03, -2.22605327e-03, -2.10878975e-03, 2.60984001e-04,
       1.77111477e-03, 1.09181618e-02, -1.18116371e-03, -8.85959715e-03,
       7.60494324e-04, -5.74295130e-03, 4.61992994e-03, 1.41639458e-02,
       1.12226363e-02, 4.20838175e-03, -6.79313298e-03, 2.31043692e-03,
       -1.89934543e-03, 1.04871241e-03, -1.43130152e-02, -8.48926045e-03,
       5.13889920e-03, -3.72311822e-03, -4.95312270e-03, -1.31139755e-02,
       3.75987985e-03, 3.05454736e-03, -7.32118124e-03, -8.29349924e-03,
       -2.78417929e-03, -2.92455708e-03, -3.65017029e-03,
       -1.28431944e-02, 4.79257293e-03, -7.29287229e-03, -1.58138562e-03,
       8.17318633e-03, 8.39795452e-03, 1.79785275e-04, 6.05196599e-03,
       9.28756874e-03, 6.34432398e-03, 1.66155293e-03, 2.68667797e-03,
       -4.44747915e-04, 1.92757370e-03, 1.49463220e-02, -3.37258028e-03,
       -2.42428295e-03, -1.63996336e-03, -1.32138713e-03,
       -4.52673761e-03, 4.79414593e-03, -9.46614080e-07, -4.33384487e-03,
       1.31246168e-02, -4.77246067e-04, 9.16440622e-04, 4.69235601e-05,
       -1.44038862e-02, -3.43696075e-03, -7.23805651e-03,
       -8.24914686e-03, -3.93202063e-04, 4.53007920e-03, -6.89863740e-03,
       -7.41327647e-03, -6.43995823e-03, -6.79132110e-03, 7.55006261e-03,
       3.19642457e-03, -2.51388410e-03, -3.93438619e-03, 1.01302452e-02,
       5.81531040e-03, -9.98075586e-04, 7.67863961e-03, 1.91723567e-03,
       3.64268152e-03, 6.34546671e-03, 4.34282841e-03, 1.43386866e-03,
       -3.38711357e-03, -9.93236899e-03, -9.59680416e-03,
       -2.27115420e-03, -8.96904618e-03, 2.16610474e-03, -4.15129494e-03,
       2.87475588e-04, 3.16139567e-03, 6.79378118e-03, -8.07406474e-03,
       -1.15841776e-02, -4.75047203e-03, 6.09249389e-03, 4.15544119e-03,
       1.98816182e-04, 2.39134254e-03, 6.45923501e-05, -2.67153163e-03,
       -9.65581462e-03, -5.74517297e-03, 6.33782998e-04, 1.00061530e-02,
       8.93404428e-03, 2.03951262e-03, 1.20289223e-02, 9.23762657e-03,
       -4.74179536e-03, -8.40836205e-03, -3.58563708e-03,
       -6.30735932e-03, -2.74703442e-03, 6.07895106e-03, -7.50646926e-03,
       2.82464596e-03, 3.95866996e-03, -1.77465801e-04, -2.61573330e-03,
       -1.12294927e-02, -1.10230977e-02, 9.11469338e-04, 4.84078750e-03,
       3.21556465e-03, 3.02201789e-03, -2.05514254e-03, -3.15868156e-03,
       -1.84142822e-03, -2.27517635e-03, 3.65767605e-03, -4.14886791e-03,
       -6.49478927e-04, 8.61169212e-03, 4.29706182e-03, -1.04506314e-02,
       -7.48890731e-03, -7.01152254e-03, 2.52049114e-03, 8.15760344e-03,
       -7.29140267e-03, 5.61581831e-03, -5.65976836e-03, 1.19596384e-02,
       -9.99378040e-04, 4.59203962e-03, 3.99664138e-03, -6.46132790e-03,
       -1.74609628e-02, 8.90252923e-05, -7.85677880e-03, 2.69105018e-04,
       3.34743899e-03, -1.03269219e-02, -1.73077695e-02, -3.68934299e-04,
       -6.92428555e-03, -1.21561168e-02, -8.82963371e-03, 1.96832418e-03,
       1.66759063e-02, 1.02712819e-02, -1.37967605e-03, -1.40160671e-03,
       -1.37434108e-02, -6.65859831e-03, -8.37655645e-03,
       -2.72167940e-03, -1.33027555e-03, 1.76190550e-03, 1.29280146e-02,
       -1.80739851e-03, 4.60609375e-03, -5.96801518e-03, -1.43794399e-02,
       -1.36435460e-02, -1.17733562e-03, 1.34950934e-03, 1.12396926e-02,
       1.21086668e-02, -7.02022342e-03, -1.12719778e-02, -1.18977632e-02,
       -8.57910793e-03, -7.39119621e-03, 8.61666398e-04, -6.05141930e-03,
       3.47954483e-04, 8.66617355e-03, -5.22309309e-03, 7.82642793e-03,
       3.58605059e-03, -7.43993674e-04, 1.96690718e-03, 4.58802795e-03,
       3.64952744e-03, 7.32874591e-03, 1.54156126e-02, -2.35467963e-03,
       -2.78947153e-03, 1.20370346e-03, -6.70622755e-03, 3.47784953e-03,
       2.89724418e-03, -5.61313052e-03, 1.27444686e-02, 1.62378568e-02,
       -1.57775276e-03, 5.31770708e-03, 1.75646739e-03, 1.36748794e-03,
       -2.57520680e-03, -1.07263848e-02, 7.12899817e-03, 9.54932068e-03,
       1.25029432e-02, -7.31315045e-03, -1.43950561e-03, 5.57255745e-03,
       -2.43645255e-03, 7.02102343e-03, 9.93085280e-03, -9.16761719e-03,
       5.84028242e-03, 3.31064733e-03, 3.19399033e-03, -2.73360335e-03,
       -9.28085484e-03, -1.00579849e-02, -6.25738734e-03,
       -1.13242334e-02, -7.81123806e-03, 1.16527863e-02, 6.90164231e-03,
       -3.60953156e-03, 2.39648428e-02, 1.07913231e-02, 1.25140129e-02,
       3.66752967e-03, -8.73447116e-03, -1.65331294e-03, 3.55983432e-03,
       -4.60468885e-03, -1.14677399e-02, 5.99190034e-03, 3.10006924e-03,
       1.16691943e-02, 1.46460291e-02, -3.22178123e-03, -1.36193465e-02,
       1.76430389e-03, -9.55612957e-03, -9.57043434e-04, 1.83714684e-02,
       -2.93236226e-03, -6.86713401e-03, -6.11023977e-03,
       -1.07436180e-02, -8.93860124e-03, -7.28135579e-04,
       -1.27453571e-02, -1.55064790e-02, 3.67005880e-04, -9.59051866e-03,
       -5.75552182e-03, -5.04045223e-04, -3.88522958e-03, 3.15804640e-03,
       8.08114000e-03, -2.37061200e-03, -1.08068762e-02, 7.70655368e-03,
       5.85153745e-03, 1.02599626e-02, 1.53184505e-02, 6.50562812e-03,
       5.45039261e-03, 9.80630610e-03, 6.52075512e-03, 3.64468736e-03,
       1.31203551e-02, -5.60368737e-03, 6.28897594e-03, 1.08196754e-02,
       -7.75827852e-04, -6.30224356e-03, -4.39406780e-04,
       -4.14457265e-03, -1.12917889e-02, 3.46535840e-03, -5.19538764e-03,
       -4.04405035e-03, 7.72399642e-03, -6.81364036e-04, -6.55899569e-03,
       1.37888547e-02, 4.95222444e-03, -2.55881669e-03, 1.13573782e-02,
       -2.29196204e-03, -5.34544419e-03, 1.19661726e-03, -6.26540743e-03,
       1.19217355e-02, -5.38753299e-03, -1.10457530e-02, 2.52715312e-03,
       -4.95484797e-03, 7.76132289e-03, 7.62217352e-03, 6.83126831e-03,
       1.39076216e-02, 9.81295854e-03, -2.20760610e-03, -4.46906174e-03,
       -1.23294754e-04, -3.14191246e-04, -1.88132748e-03,
       -5.31336758e-03, -3.75755015e-03, 4.38528694e-03, 1.67011167e-03,
       4.68424661e-03, -5.14199212e-03, -1.83619454e-03, 2.95130629e-03,
       -7.09002838e-03, -1.04818195e-02, -4.53462033e-03,
       -6.55142032e-03, -8.88577104e-03, 5.22942690e-04, 1.15905679e-03,
       -9.28340596e-04, 7.18341849e-04, -1.47639271e-02, -1.81941933e-03,
       -7.56826892e-04, -1.26312720e-02, 7.94323348e-03, -6.25155540e-03,
       -2.24013673e-03, 6.66831341e-03, 1.32773621e-02, 2.33561569e-03,
       -6.63894881e-03, -4.09077154e-03, 1.22270724e-02, 8.88622459e-03,
       -5.95988799e-03, -8.14499613e-03, -4.64738999e-03, 3.19236494e-03,
       1.83817965e-03, -1.13747083e-02, -1.01181781e-02, 2.40461738e-03,
       -9.12920758e-03, -1.01321340e-02, -1.81616750e-03, 5.26201539e-03,
       1.18923848e-02, 2.26688571e-03, -4.41630509e-05, -4.49116807e-03,
       -9.68204252e-03, -8.16343538e-03, -9.64397844e-03,
       -8.20415094e-03, -1.14100203e-02, 6.60733366e-03, 1.22679090e-02,
       -8.09719320e-04, -1.73498467e-02, -1.43599072e-02, 1.73597075e-02,
       1.69491151e-03, 2.32353341e-03, -1.84743432e-03, 6.34116167e-03,
       1.88247785e-02, 3.40136979e-03, -3.01082735e-03, 1.02241002e-02,
       5.87897329e-03, -6.30630553e-03, 5.91922458e-03, -3.46346456e-03,
       8.19865055e-03, 1.77734289e-02, 7.70657184e-03, -8.11765250e-03,
       1.65229593e-03, 4.70011774e-03, -1.01860811e-03, -2.89881229e-03,
       -8.27238895e-03, 5.29065216e-03, 1.48966014e-02, 3.27650434e-03,
       -1.32353865e-02, -4.13580704e-03, 1.50614493e-02, -8.21188558e-03,
       -6.45943917e-04, -1.57088041e-02, 3.33137438e-03, 9.74205136e-03,
       -6.25043234e-04, -1.38977300e-02, -1.40121859e-03, 8.01970810e-03,
       -4.05369466e-03, 2.58632097e-03, 2.86410330e-03, 1.10215396e-02,
       1.39888981e-02, 7.56521942e-03, -2.50793528e-03, 9.43106972e-03,
       -2.79353559e-03, -6.40766579e-04, -3.31775914e-03,
       -7.04580860e-04, 1.01992779e-03, 1.68216741e-03, 3.17271729e-03,
       -2.72725779e-03, 9.33106057e-03, 8.44352972e-03, -5.77358250e-03,
       1.30352331e-03, -8.81703105e-03, 4.01697634e-03, 6.44406863e-03,
       -5.63379901e-04, -8.02566949e-03, 6.47544162e-03, 5.15955221e-03,
       -1.46837328e-02, -7.76880188e-03, -1.12082586e-02,
       -1.38254957e-02, 5.15974034e-03, 2.91697914e-03, 2.11596256e-03,
       9.79743246e-03, -3.93147115e-03, -5.12774754e-03, -2.90383282e-03,
       2.63851183e-03, 5.13123395e-03, -6.55558798e-03, 2.71312636e-03,
       2.72145751e-03, 6.73991023e-03, -4.46984079e-03, -6.42079767e-03,
       -9.91406012e-03, -2.69651491e-06, 3.22544435e-03, -1.37266517e-03,
       1.30744502e-02, 2.66195217e-04, 1.42147380e-03, 4.74200118e-03,
       -3.29472311e-03, -6.08010869e-03, -6.29528938e-03,
       -1.47631741e-03, -1.16213337e-02, 2.68092006e-03, 6.71023782e-03,
       -1.06025813e-03, -1.28646346e-03, 1.16198091e-02, -1.91047660e-03,
       3.81324557e-03, 4.34161304e-03, -9.18229483e-03, 3.25778895e-03,
       2.73297867e-03, -1.53895542e-02, -3.10799992e-03, 1.22568535e-03,
       -6.68386836e-03, 1.21606351e-03, 4.67431638e-03, 6.90833945e-03,
       1.05356863e-02, 2.45044101e-03, -1.36838891e-04, -6.69975812e-03,
       -2.85495096e-03, -7.27424258e-03, 3.44538246e-03, 5.32643357e-03,
       -2.67392164e-03, -4.11246018e-03, -1.20010823e-02,
       -6.80522155e-03, 6.19896979e-04, 6.69738790e-03, -3.66627076e-03,
       1.43938337e-03, 9.67217796e-03, 5.68809395e-04, 2.06845789e-03,
       -3.44862905e-03, -8.64603650e-03, 3.70834285e-04, -7.51283253e-03,
       -1.05186300e-02, 9.08451970e-04, 1.04127405e-02, -6.45073131e-03,
       -6.65810565e-03, -1.44806495e-02, 4.66513587e-03, 1.52589311e-03,
       1.17455481e-03, -7.74165522e-03, 4.38849442e-03, -1.68382656e-03,
       7.76677392e-03, 8.85787304e-04, -4.45277849e-03, -5.02885692e-03,
       -2.48353160e-03, 7.97069818e-03, -7.31216045e-04, -6.70764223e-03,
       -5.29643381e-04, 7.05805048e-03, 4.29065013e-03, -4.56809904e-03,
       -7.01241521e-03, 6.83930144e-03, 5.00215404e-03, -1.22042978e-03,
       2.04960559e-03, -9.30375420e-04, -1.50761171e-03, -1.65701821e-03,
       -4.40660864e-03, 8.86014663e-03, 1.24950968e-02, 1.96918584e-02,
       1.46194967e-02, 7.05722813e-03, 2.07625516e-03, 5.55810146e-03,
       -4.73180262e-04, -1.21327406e-02, 6.32198527e-03, -2.56471429e-03,
       8.43807589e-03, 4.42054216e-03, -4.29263292e-03, -9.73392650e-03,
       3.46921314e-03, -6.03628904e-03, -5.08610392e-03, -6.16008462e-03,
       -2.33340892e-03, -3.86387552e-03, -4.53799497e-03,
       -3.06793256e-03, -6.68463390e-03, -5.57323731e-03, 3.39211035e-03,
       5.43635385e-03, -1.46612676e-03, 3.75670288e-03, 1.60749443e-02,
       9.09943040e-03, 1.07038207e-02, -6.84739044e-03, 1.04509117e-02,
       -8.40004359e-04, -1.02883903e-02, -3.44141712e-03,
       -5.10385726e-03, 8.03274196e-03, 1.06212161e-02, 1.13041056e-02,
       6.75249193e-03, 6.47586246e-04, 7.99804553e-03, 1.05217202e-02,
       5.02136478e-04, -6.13555918e-03, -1.21580968e-02, -1.17741190e-02,
       -3.59244668e-03, -1.41833713e-02, 5.60296932e-03, 3.47289816e-03,
       -4.72162152e-03, -1.22859729e-02, -8.30252748e-03,
       -8.89731385e-03, -2.95080873e-03, -4.63314680e-03, 3.75906238e-03,
       1.80979762e-02, -1.38883397e-03, -5.24601259e-04, -1.11972513e-02,
       -8.75188597e-03, -8.56325682e-03, 7.57844129e-04, 8.71285982e-03,
       -1.49317784e-03, 3.76117858e-03, 2.90642958e-03, 3.73050891e-04,
       1.83904439e-03, -3.28181009e-03, -5.60083892e-03, 1.00506544e-02,
       1.00804735e-02, 1.15340892e-02, 1.14114117e-02, -1.06328528e-03,
       7.22804572e-03, 9.07783117e-03, -8.29554722e-03, -1.14453780e-02,
       -7.01502617e-03, -6.99939672e-03, -1.57654416e-02, 1.21774692e-02,
       -1.89932075e-03, -1.11235725e-03, -1.18493279e-02,
       -4.13347175e-03, -1.00046843e-02, -3.43772629e-03, 6.27664290e-03,
       -6.34606648e-03, 1.08073291e-03, -1.01733429e-04, -2.64048320e-03,
       -9.43311676e-03, -1.63879502e-03, -3.18113691e-03, 3.59272421e-03,
       4.86346288e-03, -3.41558061e-03, 8.03561136e-03, 5.87011315e-03,
       1.48196984e-02, 8.59228708e-03, -5.40734408e-03, 1.59397721e-03,
       3.96277569e-03, 1.19116902e-02, -8.49741325e-03, 1.16185527e-02,
       1.71824563e-02, 9.66025982e-03, 9.54663672e-04, 6.59890845e-03,
       -1.05254836e-02, -7.65379635e-04, -8.58063941e-05,
       -1.89281646e-02, -7.60127325e-03, 3.82864941e-03, 4.61736973e-03,
       8.78645945e-03, 1.69739630e-02, -6.74475171e-03, 3.47638910e-04,
       1.83472363e-03, -1.69136561e-02, -2.94504385e-03, -7.83794327e-04,
       -5.16077504e-03, 1.54569857e-02, 8.62704217e-03, 1.86207448e-03,
       8.83984752e-03, 8.81183147e-03, -1.24630770e-02, 1.06578991e-02,
       1.36829475e-02, 8.03003553e-03, 1.68940257e-02, 9.49698593e-03,
       5.04916674e-03, 2.89919274e-03, 5.25380112e-03, -1.08277556e-02,
       8.07478325e-04, -9.14922357e-03, -5.86814340e-03, 6.62194612e-03,
       1.17782708e-02, 2.63940217e-03, 1.65883882e-03, 6.67628879e-03,
       -6.82582194e-03, -1.94889819e-03, 5.91255492e-03, -7.28299655e-03,
       3.52788740e-03, -3.85194086e-03, 7.25543313e-03, 1.17174303e-03,
       9.83623881e-03, 8.03400856e-03, -5.43407863e-03, -4.82459553e-03,
       -6.52306061e-03, -5.36195189e-03, 1.10828681e-02, 6.64306572e-03,
       2.84604495e-03, 5.23580099e-03, -8.09535384e-03, -8.32828600e-03,
       -2.21407274e-03, -1.16652492e-02, -3.03469342e-03,
       -7.01685809e-03, -2.55577010e-03, 9.13585909e-03, 1.89560663e-03,
       -7.45590823e-03, -9.44067910e-03, 2.62795924e-03, -1.02673220e-02,
       -1.05964737e-02, -3.41839157e-03, 1.21231147e-04, -6.45428104e-03,
       1.14491358e-02, 6.36873860e-03, 6.36863383e-03, -9.36080236e-03,
       -6.22334471e-03, 1.26885180e-03, 3.36519722e-03, -9.85492580e-03,
       -1.19715242e-03, 1.68938674e-02, 1.40381809e-02, 3.06162261e-03,
       -9.71446093e-03, -1.24326977e-03, 4.17318987e-03, 1.10258022e-03,
       -3.05538136e-03, 4.07638727e-03, 2.84128054e-03, -1.16088651e-02,
       4.80467221e-03, 4.08292143e-03, -7.98476394e-03, -4.03778162e-03,
       -1.77491247e-03, -6.41199853e-03, 3.39936861e-03, 1.50254238e-02,
       6.11777185e-03, 7.49196566e-04, -6.97352318e-03, -1.69696491e-02,
       7.12838722e-04, -3.88953282e-04, -7.70254293e-03, -2.55652377e-03,
       1.09657319e-03, 1.30934007e-02, -4.85350797e-03, -3.79222236e-03,
       -4.64980118e-03, -2.80580833e-03, 8.95659626e-03, -3.19442106e-03,
       -5.90501493e-03, -1.83354807e-03, 1.40571604e-02, 9.54291038e-03,
       -2.57910142e-04, 2.16696272e-03, -3.42040393e-03, -6.65343739e-03,
       -7.78460875e-03, -3.15916119e-03, 5.25318738e-03, -1.07884116e-03,
       -1.71709545e-02, -5.33251883e-03, -7.50859967e-03,
       -7.06089335e-03, 8.82211141e-03, -3.75339808e-03, -9.14271735e-03,
       -3.32600111e-03, 1.64214231e-03, 6.08673960e-04, 7.47975754e-03,
       1.76724757e-03, -1.30748050e-03, 1.15061253e-02, -2.14952743e-03,
       -4.61989455e-03, -3.89057258e-03, 1.56789571e-02, 8.44813325e-03,
       -1.36924302e-03, -6.02139719e-03, -1.75262091e-03, 1.70667656e-03,
       -5.88193245e-04, 1.45657000e-03, 4.61441418e-03, -2.87677394e-03,
       -2.04093475e-03, -5.06957341e-03, -3.97624867e-03,
       -2.05451110e-03, 7.65166990e-03, 2.57920008e-03, -6.23471383e-03,
       -5.10313548e-03, 6.69331755e-03, 7.74279190e-03, -1.31052628e-03,
       -3.69658787e-03, -7.33847544e-03, -1.14186820e-04, 6.11358555e-03,
       4.33707843e-03, 1.25487950e-02, -9.88289132e-04, 8.01782776e-03,
       -6.05298812e-03, -1.36968391e-02, -4.29007225e-03, 7.05209374e-03,
       5.10736741e-03, 9.02661821e-04, -1.01703929e-03, 4.97751916e-03,
       2.33513929e-05, -4.40224285e-05, -4.76315431e-03, -2.95970542e-03,
       1.00832796e-02, 1.33826192e-02, 4.53202846e-03, 3.63910990e-03,
       -2.52935081e-03, 2.58799852e-03, -2.29660328e-03, -1.26482034e-03,
       -3.18945991e-03, 5.53758163e-03, 4.45603440e-03, -3.23388167e-03,
       -1.92347693e-03, -1.12911751e-02, -2.17538560e-03,
       -5.38962567e-03, -9.20841563e-03, -2.01891153e-03, 1.16479099e-02,
       1.14600314e-02, 2.06598011e-03, 1.68182678e-03, -1.32128932e-02,
       2.29907758e-03, -9.29335691e-03, -1.08126772e-03, 5.44702401e-03,
       6.37440680e-05, 1.75068132e-03, 2.28314195e-03, 8.29843525e-03,
       5.40196337e-03, -2.91011925e-03, 1.02752517e-03, -1.62605499e-03,
       1.12425839e-03, 4.43046074e-03, -2.14465638e-03, -7.04421382e-03,
       -1.02228823e-03, -3.72086396e-03, -2.47350615e-03, 3.89410113e-03,
       3.20098153e-03, 4.56247013e-03, -2.11547781e-03, -8.36527999e-03,
       -1.16273127e-02, 4.48179804e-03, 8.60582397e-04, 7.61508336e-03,
       -2.85262102e-03, -5.03598154e-03, 1.02277685e-04, 6.23632735e-03,
       -6.99414080e-03, -1.95333920e-02, -1.60392874e-03,
       -1.04658324e-02, 4.59527178e-03, -1.53967086e-03, 6.45298220e-04,
       1.53777888e-02, -1.06362940e-03, -8.93740391e-04, -4.11767326e-03,
       1.77580316e-03, 6.30057044e-03, 4.76257503e-03, 3.87241977e-04,
       4.38388251e-03, -6.92686578e-03, -6.88150665e-03, 3.22905998e-03,
       7.14592915e-03, 7.77976646e-04, -9.28005204e-03, 4.35853639e-04,
       -3.79107427e-03, -9.70138982e-03, -1.32968286e-02, 4.98876791e-04,
       -5.16327377e-03, -1.20908972e-02, -6.21621916e-03, 2.16127490e-03,
       1.01300729e-02, 8.63753445e-03, 5.30082965e-03, 6.30328152e-03,
       -8.53188522e-03, -1.01513900e-02, -1.08597111e-02, 1.62868225e-03,
       2.30705854e-03, 9.20704659e-03, 2.84274924e-03, -2.47670547e-03,
       1.21046163e-04, 6.04838086e-03, 3.69146629e-03, 1.52980657e-02,
       1.03816241e-02, 2.00238242e-03, -2.90452014e-03, 2.90874951e-03,
       -6.09227736e-03, 3.43273231e-03, 9.28244740e-03, -8.51469114e-03,
       1.64563563e-02, 6.54970179e-04, 9.59715247e-03, -4.30262677e-04,
       -1.04978746e-02, -1.22769782e-02, 7.04180915e-03, 2.85701081e-03,
       -3.41282110e-03, 1.06159281e-02, 4.92283329e-03, 1.30933141e-02,
       5.17715234e-03, 3.54248285e-03, -6.97545416e-04, 1.16764680e-02,
       1.49862212e-03, -1.04143061e-02, 1.04989647e-03, -1.40314903e-02,
       1.54006062e-02, -3.96699551e-03, -8.10633786e-03, -1.82690658e-02,
       4.75970376e-03, 1.16311572e-02, -4.70815087e-03, 1.78778954e-02,
       7.68168271e-03, 1.02329310e-02, 3.54026211e-03, -2.43208400e-04,
       -1.06212776e-02, 1.38659216e-02, 1.21229673e-02, 8.84409354e-04,
       1.27053875e-02, 1.06959732e-03, -7.87719339e-03, 5.47859725e-03,
       4.33608098e-03, -8.18543695e-03, 1.59022640e-02, 6.86538080e-03,
       -2.62104953e-03, 1.12822792e-02, -6.40948769e-03, 7.49750389e-03,
       -7.29011977e-03, -4.20467323e-03, -1.69252753e-02, 7.70579837e-03,
       1.44730933e-04, -7.44193932e-03, 1.63969863e-02, 5.40549774e-03,
       4.23908280e-03, 2.65360600e-03, 1.05649624e-02, -1.03668999e-02,
       2.92119221e-03, 1.18571101e-02, 5.81954792e-03, 1.11809708e-02,
       3.90526489e-03, -3.82205821e-03, -4.57213959e-04, -1.42941729e-03,
       -6.80798618e-03, 1.18507603e-02, 2.12403107e-03, -1.55105884e-03,
       5.15562529e-03, -3.12984223e-03, 7.65856262e-03, 4.64324327e-03,
       -1.26694760e-03, 1.02489931e-03, 2.94240681e-03, -3.00220191e-03,
       8.86965776e-04, 4.68995096e-03, 4.40084795e-03, -1.65042619e-03,
       -3.92844249e-03, 2.88571231e-03, -5.76580549e-03, -5.11685852e-03,
       -8.53247941e-03, 9.88255953e-04, 2.88205250e-04, 1.21883277e-04,
       1.34453690e-02, 6.36484055e-03, -4.96308738e-03, -2.79577938e-03,
       -5.47016552e-03, 5.77359507e-03, 5.77628799e-03, 3.12936096e-03,
       -1.18523277e-02, 1.54681318e-03, -7.25515711e-05, -9.70884413e-03,
       1.23767881e-03, 4.81648464e-03, 3.05793597e-04, 2.00853893e-03,
       -6.33894512e-03, -1.47257268e-03, -3.99013888e-03,
       -4.19193134e-03, -1.31186079e-02, -3.20515755e-05,
       -3.77918780e-03, 4.62626806e-03, -2.17138627e-03, -6.89166691e-03,
       -8.33291840e-03, 3.15186474e-03, 6.30468410e-03, -4.64029517e-03,
       7.56311603e-03, 4.14981833e-03, 7.91456085e-03, 1.25486730e-03,
       -5.28649241e-03, 5.09328116e-03, 2.44184583e-03, -1.36882474e-03,
       1.66073802e-03, 5.35273459e-03, 6.76666107e-03, 1.21127279e-03,
       2.42015137e-03, -1.31537747e-02, -4.21108352e-03, 1.19809508e-02,
       4.38298099e-03, -7.61499209e-03, -3.83463153e-03, -5.30111045e-03,
       2.44477671e-03, 1.27490265e-02, -7.53963133e-03, -9.65209678e-03,
       6.47035427e-03, -5.85504388e-03, -1.34079903e-03, 2.18840712e-03,
       -6.93362067e-03, 4.25053621e-03, 7.13435095e-03, 2.11895001e-03,
       8.12429562e-03, 1.94580965e-02, -7.77830184e-03, 4.40861052e-03,
       -6.22578757e-03, -3.18884640e-03, 6.87333802e-03, 1.47674186e-02,
       7.03363214e-03, 6.35385793e-03, 1.44169142e-03, -1.52961565e-02,
       1.31701434e-03, -4.53174487e-03, -6.08953275e-03, -4.98895627e-03,
       3.78004438e-03, -2.94985622e-03, -9.77088138e-03, 1.04336040e-02,
       -7.74306431e-03, 3.77130182e-03, 9.62910149e-03, -4.04177420e-03,
       -3.03447800e-04, 1.03313001e-02, -5.24234585e-03, -6.96943933e-03,
       5.43207396e-04, -9.43114888e-03, -9.80044017e-04, 6.86283363e-03,
       5.77457529e-03, -7.07860570e-04, 1.31098218e-02, 3.63390590e-03,
       1.85466779e-03, 1.20175793e-03, -2.01454852e-02, -8.01805686e-03,
       8.34506587e-04, -6.16241992e-03, 5.34548191e-03, 9.60984919e-03,
       6.06015231e-03, -1.00445040e-02, -3.22199729e-03, -1.35509567e-02,
       -1.07195498e-02, -6.07229164e-03, 3.86644923e-03, 4.89751762e-03,
       5.64510003e-03, 9.04682279e-03, 9.88043495e-04, 2.03256402e-02,
       -7.02301413e-03, -8.75220168e-03, -7.23346602e-04,
       -5.63389156e-03, -8.48958909e-04, 3.74585227e-03, 8.18703882e-03,
       3.03184148e-04, -2.26043887e-03, -5.28325699e-03, -3.98737347e-06,
       -7.04423001e-04, -1.08685568e-02, -2.07201717e-03, 5.98706212e-03,
       1.03461416e-02, 1.36536937e-02, 6.41884422e-03, -1.22333989e-02,
       -1.05415257e-02, -3.20932083e-03, -2.09930819e-03,
       -4.39726328e-03, 4.63882834e-03, -4.87129483e-03, -6.74653566e-03,
       -7.82732479e-03, -6.60924707e-03, -6.94269966e-03, 5.13835764e-03,
       -5.21831913e-03, 6.67254068e-03, 7.23262923e-03, 7.18070846e-03,
       2.90339207e-03, 1.15330731e-02, 3.67350481e-03, -3.03532020e-03,
       -3.68489325e-03, -1.94467825e-03, -4.94912092e-04, 3.51825613e-03,
       -7.43975723e-03, -9.42868646e-03, -4.64668870e-03, 9.44155455e-03,
       2.78415508e-03, -8.11400916e-03, -7.37751089e-03, 9.05351061e-03,
       1.05182249e-02, -5.25741093e-03, -5.90641098e-03, 1.20629463e-02,
       3.46273207e-03, -1.40708247e-02, -9.84348240e-04, 9.67695960e-04,
       -2.46595056e-03, 1.68385310e-03, -1.64875481e-02, -1.18331267e-02,
       4.86313645e-03, 2.43859889e-04, -9.05895699e-03, -8.08995776e-03,
       -2.90516997e-03, 2.04455061e-03, 1.45444367e-03, 2.42077676e-03,
       8.68655450e-04, 9.02564451e-03, 1.54987266e-02, 8.65390897e-03,
       2.35400209e-03, 6.09415525e-04, 6.01686165e-03, 3.56609642e-04,
       -5.85304201e-03, -1.12193413e-02, 8.57786555e-03, 4.46101371e-03,
       4.85550519e-03, -6.44490262e-03, 6.25090732e-04, 5.45910187e-03,
       -1.52581010e-03, -7.69803999e-03, -9.35997115e-04,
       -1.23986090e-02, 2.38217763e-03, 2.95530446e-03, -3.93277733e-03,
       6.75786939e-03, -1.72853051e-03, -5.57302497e-04, -8.69534723e-03,
       -6.83153933e-03, -1.49592953e-02, 3.81489703e-03, 6.92222780e-03,
       -1.27471071e-02, 4.20998363e-03, 1.31299160e-02, 2.67725321e-03,
       -5.15244948e-03, -6.78422069e-03, 4.31955885e-03, -1.34087261e-03,
       -3.88494646e-03, -3.12131201e-03, 1.27944956e-02, 3.67482542e-03,
       -5.51427947e-03, -4.77226684e-03, -9.87947918e-04,
       -1.28796240e-02, -5.64550515e-03, 3.70742142e-04, 2.38750316e-03,
       6.01612637e-03, 5.55962231e-03, 5.28199924e-03, -9.77828354e-03,
       -8.09512008e-03, -5.56011684e-03, -6.35247258e-03, 2.92527117e-03,
       -8.37134756e-03, 6.73206756e-04, -1.16285635e-03, 1.45687051e-02,
       9.95247811e-03, 3.38909100e-03, 1.52937770e-02, -4.13020654e-03,
       3.42540210e-04, 1.83133909e-03, -1.14851352e-02, 4.33470029e-03,
       7.67212652e-04, -2.00989234e-04, 1.13448896e-03, 5.28072380e-03,
       -6.21798821e-03, -4.43074293e-03, 2.42066244e-03, -6.92137575e-04,
       -8.85715708e-03, 1.49879912e-02, 1.75519399e-02, 7.57933687e-03,
       7.17205647e-03, -7.90000614e-03, -6.93164021e-03, -4.45186906e-03,
       -1.30585432e-02, -1.56521201e-02, 6.61113416e-04, 4.33225976e-03,
       6.53501088e-03, 2.18721330e-02, 1.27426721e-03, -2.54654163e-03,
       -1.14014111e-02, -1.62684936e-02, -3.92717822e-03, 5.27615007e-03,
       1.91546902e-02, 2.72569619e-03, 1.49014797e-02, -2.32106773e-03,
       3.66539555e-03, -7.92109221e-03, -2.17103562e-03, 3.06497514e-03,
       7.94389565e-03, 8.87360051e-03, 5.95030934e-03, 4.46354644e-03,
       3.19277798e-03, -6.94072992e-03, -9.55062453e-03, 1.61710184e-03,
       -9.74472379e-04, -1.05157448e-02, -1.11642508e-02,
       -3.59251536e-03, 4.93976846e-03, -6.97601121e-03, -1.52628357e-03,
       -6.87283929e-03, 5.83718577e-03, 1.04911346e-02, -1.65894523e-03,
       1.35285584e-02, 1.23115999e-04, 6.28211256e-03, -4.54013189e-03,
       -2.38720980e-03, 3.29530667e-05, 5.75282611e-03, 8.12160969e-03,
       1.46272534e-03, 6.86560618e-03, 4.13544802e-03, 6.53632311e-03,
       -6.62241690e-03, -1.92798441e-03, -5.78309922e-03,
       -5.79570653e-03, -3.68929887e-03, -1.82177487e-03,
       -5.73489768e-03, -2.25194218e-03, -4.54527000e-03, 1.72408915e-03,
       -9.03265551e-04, -8.63678724e-05, 1.55477988e-04, 7.64688151e-03,
       6.59633568e-03, 1.72121183e-03, 9.67427902e-03, 1.81668869e-03,
       1.75149888e-02, -5.09032514e-03, -1.14635797e-02, 3.36789875e-03,
       1.63760257e-03, 2.61164340e-03, -1.51947909e-03, -3.67486710e-03,
       -6.58132695e-03, 2.79822387e-03, -2.78777629e-03, -4.68792045e-04,
       -6.49961131e-03, 7.07840640e-03, 3.13796056e-03, -4.43004118e-03,
       4.45768856e-05, 8.84093437e-03, 1.60109755e-02, -2.49597547e-03,
       -8.77989549e-03, 5.84669691e-03, -2.32271291e-03, 1.98856858e-03,
       -5.88734727e-03, 4.48556850e-03, -9.36934899e-04, 8.63621943e-03,
       -8.28194711e-03, -6.78946637e-03, -8.74418207e-03,
       -9.43784695e-03, 6.49122102e-03, 5.46387117e-03, 9.49405320e-03,
       1.15276491e-02, 6.52689894e-04, 2.03777594e-03, -2.64864601e-03,
       -8.08778778e-03, 3.65955033e-03, 9.44850151e-04, -3.32730240e-03,
       1.60593702e-03, 4.67630615e-03, 4.35671862e-03, -3.23119457e-03,
       -7.02291680e-03, -3.42883472e-03, 9.70833376e-03, 1.00367675e-02,
       1.51307620e-02, 1.89692248e-02, 7.92157743e-03, -1.35161879e-03,
       3.95825692e-03, -1.15855632e-03, -3.15173849e-04, -1.37184160e-02,
       -1.73047301e-03, 5.13091218e-03, 9.94967762e-03, 1.30970636e-02,
       -1.11233129e-03, -7.60183157e-03, 2.73660570e-03, -3.22996289e-03,
       -8.56665894e-03, 2.48301588e-03, 5.83105534e-03, 5.57568856e-03,
       1.33821070e-02, 7.69826677e-03, -2.90056318e-03, 1.10174203e-02,
       1.73326675e-03, 5.24634542e-03, 8.04439746e-03, 1.13673341e-02,
       1.65014490e-02, 6.10477570e-03, -3.82010150e-03, -1.26818875e-02,
       4.05504461e-03, 9.32393875e-03, -1.66454515e-03, 9.81327984e-03,
       7.70144770e-03, 7.94999860e-03, 4.07491997e-03, 1.11660836e-02,
       8.85975640e-03, 2.09010951e-02, 7.80884316e-03, -1.25916246e-02,
       -2.93015596e-03, -7.72965490e-04, 2.23435508e-03, 2.81561661e-04,
       1.16235260e-02, 8.95154756e-03, 9.22324322e-03, -2.32925313e-03,
       -2.17551552e-02, -3.26056243e-03, 1.30564251e-04, 1.91748934e-03,
       7.13175815e-03, 1.26954373e-02, 1.27061293e-03, 2.32373853e-03,
       -1.40566938e-02, -9.43395961e-03, 4.84616822e-03, 9.76723805e-03,
       6.54697372e-03, 2.75589968e-03, 7.46683031e-03, 9.76995286e-03,
       5.16943866e-03, -6.23109564e-03, -2.32505035e-02, 1.95065711e-03,
       9.98091418e-03, 1.40577238e-02, 1.43395811e-02, 1.21193752e-02,
       8.30290373e-03, 1.51453904e-04, -1.72968395e-02, -1.31051838e-02,
       -2.20609410e-03, 6.97923638e-03, 8.43944307e-03, 1.11791985e-02,
       1.31231295e-02, 3.83179082e-04, 3.37304221e-03, -1.27737003e-03,
       -7.68706109e-03, -3.80517473e-03, 1.71959645e-03, -2.22251096e-04,
       -1.32289913e-03, -2.41393736e-03, -2.03923732e-02,
       -1.21274749e-02, -6.62634103e-03, -1.65179018e-02,
       -7.57471751e-03, 6.95169158e-03, 1.68751106e-02, 2.10345015e-02,
       1.14800893e-02, 1.45642683e-04, 1.32294549e-02, 1.10177766e-03,
       -3.59355449e-03, -6.58263220e-03, 6.29218807e-03, 4.48234193e-03,
       1.11282365e-02, 2.77379714e-03, -7.82738626e-03, 9.09465551e-03,
       2.04681605e-03, 6.80841831e-03, 2.64422409e-03, -2.00617802e-03,
       -6.83824590e-04, -3.01901996e-03, -1.08121149e-02,
       -1.02680475e-02, -1.20956665e-02, -8.30330828e-05, 9.78545099e-03,
       -2.68254988e-03, 4.37050971e-04, -3.20148165e-03, 2.54896004e-03,
       -3.69318551e-03, 5.85017214e-03, -7.55082071e-03, -8.81198887e-03,
       1.15200887e-02, -1.65687571e-03, 1.54499954e-03, -1.16098868e-02,
       6.41134055e-03, -4.60195821e-03, 4.78633243e-04, 1.27430772e-02,
       9.57771763e-03, 8.18852615e-03, 5.17937075e-03, -7.42485607e-03,
       -6.61592605e-03, 1.37558067e-02, 5.51740220e-03, 1.20004201e-02,
       4.24194662e-03, 4.67160624e-03, 6.36546127e-03, -2.09232699e-03,
       6.87068934e-03, -3.22226668e-04, 2.64469441e-03, 9.60762030e-04,
       7.20405160e-03, -6.53787889e-03, -6.33360725e-03, 2.15613563e-03,
       1.00546156e-03, 6.58780755e-03, 8.09781998e-03, 1.05074234e-02,
       -1.77915692e-02, -7.51105975e-03, -2.16762777e-02, 2.73856887e-04,
       8.49972479e-03, 1.11407442e-02, -3.85842705e-03, -3.31117568e-04,
       9.90718510e-03, 1.24057708e-02, 1.65394451e-02, 2.13479926e-03,
       1.57786091e-03, 1.03692841e-02, 1.35611631e-02, -6.15247805e-03,
       4.42873081e-03, 8.62707477e-03, -3.62716196e-03, -7.92924315e-03,
       -1.32764969e-02, 3.80422384e-03, 1.23963063e-03, -5.32404192e-06,
       5.51973819e-04, -2.99883378e-03, 6.38936274e-03, -1.96433514e-02,
       -3.21066286e-03, -1.22644976e-02, -2.69226567e-03, 1.35494918e-02,
       8.78589228e-03, -2.63728155e-03, -9.41795018e-03, -6.86930842e-04,
       -4.40823613e-03, 1.58396550e-02, -6.72705413e-04, 6.59669982e-04,
       4.84164339e-03, 6.34843437e-03, -6.89664565e-04, -9.06827487e-03,
       -4.34851553e-03, -1.34557765e-02, -1.36535242e-02,
       -1.23207569e-02, 3.55415372e-03, 9.96304769e-03, 1.63529441e-02,
       4.75577806e-04, -1.13423355e-02, 5.50791388e-03, -1.84339832e-03,
       -8.00894864e-04, -1.06673036e-03, 6.66535972e-03, 7.06342096e-03,
       6.34551840e-03, -2.96026794e-03, -7.24544981e-03, 2.53873970e-03,
       2.81936582e-03, 4.00439557e-03, -3.64505919e-03, -4.93075745e-03,
       4.84026968e-03, 1.26801839e-04, -1.00696692e-02, -1.26689707e-03,
       -9.05556045e-03, 3.42548150e-03, -5.19018760e-03, -5.72148664e-03,
       -7.37749832e-03, 3.62673891e-03, 1.39528618e-03, -7.48720020e-03,
       -8.75397213e-03, 3.76592483e-03, 1.01427594e-02, 4.06606775e-03,
       2.01492594e-03, 1.53428444e-03, -5.22874156e-03, -6.68804906e-03,
       -8.05406272e-03, -1.07532064e-03, 4.97171748e-03, 1.18813943e-02,
       -9.56187141e-05, -1.03485794e-03, -1.54870935e-02, 1.37583343e-02,
       2.16857251e-03, -8.56473483e-03, -1.53420109e-03, -1.55572994e-02,
       -1.84535165e-03, -6.23542583e-04, 5.09452960e-03, 3.53095541e-03,
       1.05701964e-02, 8.13299976e-03, -6.78857882e-03, -7.16316793e-03,
       -1.79795399e-02, 5.73642692e-03, -1.54660607e-03, 2.58017285e-03,
       5.61987376e-03, 1.89522514e-03, 4.24753875e-03, -5.15503902e-03,
       -2.08378164e-03, -1.48539169e-04, 9.02250037e-03, 1.36318104e-03,
       5.27037168e-03, -8.50319490e-03, 2.15333747e-03, -1.85935380e-04,
       1.58248469e-03, -6.02403004e-03, -8.08241125e-03, 4.93406318e-03,
       1.20997359e-03, 8.69463314e-04, -6.30375172e-04, -9.44653060e-03,
       -1.20618539e-02, -1.31546715e-02, -1.12076115e-03,
       -1.95932901e-03, 1.52536305e-02, 1.97060592e-03, -6.57518220e-04,
       -5.35665406e-03, 9.46172280e-04, -6.35782769e-03, -1.47198411e-02,
       1.93745713e-04, 8.66030750e-05, 1.38540044e-02, 1.37501265e-04,
       9.36520658e-03, 9.07734502e-03, -4.96388925e-03, -5.18932799e-03,
       -9.36405454e-03, -9.05216765e-03, 7.44302897e-03, 1.33411912e-02,
       2.87666172e-03, -3.65578267e-03, 4.97195811e-04, 7.39334757e-03,
       -3.02423048e-03, -1.76733807e-02, -7.84339942e-03,
       -4.81207622e-03, 7.95624964e-03, -7.11942604e-03, -6.15346013e-03,
       1.17800357e-02, -2.96310609e-04, -6.71333820e-03, -1.19525772e-02,
       -1.73913292e-03, 1.12361358e-02, 1.33695323e-02, 3.75925354e-03,
       4.55346797e-03, 7.10411323e-03, -8.94643646e-03, -4.21261648e-03,
       -8.25830549e-03, 1.76628330e-03, 1.13123339e-02, 1.42558208e-02,
       -3.02227144e-03, 5.32618258e-03, -4.55310335e-03, 9.48285311e-03,
       8.64908192e-03, -8.39133002e-03, -3.23749310e-03, 4.01526270e-03,
       7.11015100e-03, -1.09816017e-02, -8.66467692e-03, 5.35137719e-03,
       9.75310468e-05, 9.86126717e-03, -1.79269898e-03, -7.04440102e-03,
       2.21739159e-04, 1.33763235e-02, -6.78194920e-03, -3.27475974e-03,
       -1.18815096e-03, 4.53806948e-04, -1.94564147e-03, 1.46286993e-03,
       1.57819421e-03, 1.77232530e-02, 1.02986461e-02, -8.19667592e-04,
       3.18313343e-03, 9.57119651e-03, -5.34934166e-04, -4.70724283e-03,
       -7.65754003e-03, -1.87831987e-02, -1.37247681e-03,
       -6.51757186e-03, -7.65897520e-03, -8.66557099e-03, 4.23783530e-03,
       6.98841270e-03, 5.05075837e-03, 1.23149774e-03, -1.28671888e-03,
       1.20574534e-02, 8.66066199e-03, -1.96065218e-03, -2.77669611e-03,
       6.32706983e-03, 2.54827319e-03, 6.83417497e-03, 6.23005722e-03,
       -1.05056120e-02, 1.03786411e-02, -5.89256873e-03, 4.18778462e-03,
       1.50165232e-02, 6.79360051e-03, -4.72726347e-03, 2.57246592e-03,
       -1.67907926e-03, -1.30352490e-02, -1.75812092e-04,
       -6.56231726e-03, -1.45745475e-03, -6.88515184e-03,
       -5.48431231e-03, -7.65047316e-03, -7.10540498e-03,
       -2.43871100e-03, -1.88170176e-03, -2.50933226e-03,
       -4.42281453e-04, 4.00893344e-03, -7.87335262e-03, -1.49544682e-02,
       7.04153022e-03, 7.34336767e-03, 1.86879875e-03, -1.05320178e-02,
       -1.54414272e-03, 2.44928640e-03, 1.23702865e-02, 2.23230626e-02,
       8.01966526e-03, 2.75526778e-03, 3.79110826e-03, -6.22344902e-04,
       -3.89305083e-03, -6.52722083e-03, -3.24950740e-03, 1.33113377e-02,
       3.70089104e-03, 5.16725704e-03, -6.15145266e-03, 4.38790041e-04,
       -1.56647526e-03, -8.07793986e-04, -6.39358256e-03,
       -2.11458141e-03, -2.14759633e-03, -3.64103820e-03,
       -6.28775358e-03, -2.22274475e-03, 3.95694096e-03, -1.29705006e-02,
       -7.00340746e-03, 1.07869161e-02, 7.90511444e-03, 5.30173536e-04,
       -1.71922776e-03, -1.90948148e-03, 8.82308185e-03, 9.57899634e-03,
       -6.09118317e-04, -4.54748794e-03, -4.08533821e-03, 1.22384657e-03,
       7.66062690e-03, -6.58998266e-04, 6.71427138e-03, 6.91349106e-03,
       9.21536703e-03, -1.32917203e-02, 2.99910409e-03, 5.62858442e-03,
       4.31895722e-03, 4.80719889e-03, -4.31279978e-03, -4.78115631e-03,
       -3.16671270e-04, 6.68292260e-03, -1.35306055e-02, -7.78675359e-03,
       2.56547146e-03, 1.30791217e-02, 3.30267544e-03, 8.71702738e-04,
       -1.94112374e-03, 4.24502790e-03, 1.09352879e-02, -2.28431332e-03,
       -2.97963526e-03, -4.32351109e-04, -1.78119139e-04, 2.82269134e-03,
       3.40755912e-03, -1.31916592e-03, -2.02252483e-03, 1.51218539e-02,
       -2.76213349e-03, 6.51120860e-03, 2.58098735e-04, 7.70920888e-03,
       7.15388590e-03, -3.35596711e-03, -1.17187370e-02, -2.22917239e-04,
       1.26256058e-02, -2.15358753e-03, -1.04818763e-02, -1.15706101e-02,
       -7.71960826e-04, 1.25289231e-03, 2.59923213e-03, -1.11897718e-02,
       1.03342300e-03, 6.89964369e-03, 3.46063590e-03, 1.90853630e-03,
       7.59706972e-03, -8.43115337e-03, -1.54137413e-03, -2.50985357e-03,
       -2.22929288e-03, -1.46667811e-03, 3.88894900e-04, 1.76319049e-03,
       1.10868942e-02, -1.86898410e-02, -1.32259447e-02, -2.56609125e-03,
       -6.47182250e-03, -1.12444460e-02, 8.22104886e-03, 1.29946796e-02,
       3.79031844e-04, -7.95016345e-03, 9.44263954e-03, -1.97327742e-03,
       2.69052805e-03, 3.62910097e-03, -1.49128586e-03, 1.04366103e-03,
       5.50935278e-03, -6.39199698e-03, -1.11149251e-03, -1.86737243e-03,
       -1.92617741e-03, -3.99368443e-03, -1.87410216e-03,
       -1.01817977e-02, 1.43482641e-03, 3.14002717e-03, -1.20771467e-03,
       2.95442226e-03, 7.21383491e-04, -1.35638099e-02, -1.75246038e-02,
       -6.22528419e-03, -9.95936990e-03, -5.29195022e-05, 6.00457890e-03,
       -6.24133321e-03, -3.93399037e-03, 1.05114738e-02, -1.28701227e-02,
       -1.44439479e-02, -1.08822808e-02, -8.99252761e-03, 7.01598218e-03,
       1.26773100e-02, -5.35970787e-03, -9.13455326e-04, 9.07634012e-03,
       -1.16349384e-03, -9.76001285e-03, -3.00018629e-03,
       -7.26256985e-03, 1.54330889e-02, 2.13163067e-02, -7.11283064e-04,
       4.30592278e-04, 1.76179279e-02, -8.02368578e-03, -8.54430348e-03,
       -6.38518063e-03, -5.16119506e-03, 7.36069778e-05, 7.77043588e-03,
       9.86216124e-03, 2.30592806e-02, 8.29046778e-03, -1.01049300e-02,
       1.74190980e-04, -4.89697233e-03, 1.69005024e-03, -1.21100890e-02,
       -1.37012533e-03, -7.03145424e-03, 5.70909004e-04, 6.53935689e-03,
       -2.52313958e-03, 7.32529676e-03, 1.14584016e-03, -1.08815450e-02,
       -3.80881503e-03, -4.19816840e-03, 8.82718712e-03, 8.26797169e-03,
       -1.20071936e-02, -1.57216974e-02, -3.47353541e-03,
       -4.02334798e-03, -2.80323019e-03, 1.59753172e-03, -1.03532616e-02,
       -8.48214701e-03, -4.86517791e-03, -5.42412745e-03,
       -2.37751361e-02, 3.95264803e-03, 1.42034830e-03, -4.68088128e-03,
       -6.76316023e-03, 9.37474484e-04, -3.45061091e-03, 4.33929265e-03,
       1.51513619e-02, 9.53974854e-03, -7.64066447e-03, -7.30108062e-04,
       -4.58856719e-03, -2.87337415e-03, -2.28439551e-03,
       -9.49380640e-03, -6.54130569e-03, -4.88075567e-03,
       -4.54349443e-03, -1.31422216e-02, -1.39121860e-02,
       -2.78023514e-03, -4.15430777e-03, -3.99170024e-03,
       -1.80745963e-03, 8.16135854e-03, 8.75329226e-03, -5.43677481e-03,
       -1.33874500e-03, 2.42685596e-03, -1.33631369e-02, -1.76824990e-03,
       -2.74579180e-03, -1.04123624e-02, -1.31673710e-02,
       -6.31004618e-03, -6.93539344e-03, -4.76732664e-03,
       -6.35084882e-03, 1.14455621e-03, 8.87773093e-03, 1.22024829e-03,
       -4.29233350e-03, -1.81870419e-03, -1.32744750e-02, 9.74107184e-04,
       -2.78021384e-04, -7.49002397e-03, 8.94958619e-03, -3.14111100e-03,
       -5.63936308e-03, -9.83097684e-03, -7.34047499e-03,
       -9.07777529e-03, 1.02521675e-02, 1.22262305e-02, -1.46110887e-02,
       4.12596529e-03, 8.52180738e-03, -5.28966077e-03, -9.42781381e-03,
       -9.36341379e-03, -1.25408387e-02, 4.65104386e-04, 5.52651181e-04,
       -2.13564862e-03, 9.46670119e-03, 6.19327417e-03, -5.11502428e-03,
       -1.30746816e-03, -4.52623377e-03, 2.73478101e-03, 3.54223954e-03,
       1.29212264e-03, -1.39429439e-02, 4.16257838e-03, 7.48832524e-03,
       8.46550916e-04, -1.06793421e-03, -9.60556976e-03, 3.57334455e-03,
       6.03711233e-03, 1.27173103e-02, -6.83371816e-03, 2.16620648e-03,
       5.15228882e-03, 8.81532021e-03, 8.96373356e-04, 3.23653570e-03,
       1.25378426e-02, 1.91124587e-03, 2.38370989e-03, -3.50750459e-04,
       -3.97892063e-03, 9.27656237e-03, 3.63631966e-03, 5.92010003e-03,
       5.54439519e-03, 3.64584988e-03, 2.63004843e-03, -1.87932001e-03,
       -1.29053332e-02, 3.12645896e-03, 1.55269923e-02, 1.31949587e-02,
       1.05832312e-02, 6.67411741e-03, 1.39364391e-03, -7.40839075e-03,
       -1.34794833e-02, -1.05548725e-02, 1.58474464e-02, 6.83492981e-04,
       4.69190208e-03, -2.00059381e-03, 7.95657933e-03, 1.31431902e-02,
       1.11353649e-02, 4.14689211e-03, -9.62191168e-03, -1.67415233e-03,
       1.38926529e-03, -3.14234849e-03, 5.54409949e-03, -4.17220592e-03,
       1.08126532e-02, 9.90534201e-04, 1.03591727e-02, 3.59495031e-03,
       -3.83097911e-04, 1.63346529e-02, 7.45889079e-03, -3.84750357e-03,
       -3.90926423e-03, 4.55611153e-03, -9.94015485e-03, -1.58119556e-02,
       -1.59643032e-02, 4.48042713e-03, 4.35218448e-03, 1.25528406e-03,
       2.69606709e-03, -6.39415812e-03, 4.85605421e-03, -3.83314141e-03,
       5.16892737e-03, -6.72083441e-03, -9.81649733e-04, -2.47170241e-03,
       -1.38985207e-02, -5.52564254e-03, -4.66335611e-03,
       -4.70038829e-03, -1.07632913e-02, -1.27416267e-03, 1.90682098e-04,
       5.76269376e-05, -9.60330386e-03, -5.66356303e-03, -3.63058178e-03,
       9.24010668e-03, 2.25021038e-03, -6.68917829e-03, -7.73879047e-03,
       -5.44773228e-03, -1.20025873e-02, -1.21737821e-02,
       -9.28538572e-03, -5.59355784e-03, 8.66141709e-05, -4.31327615e-03,
       -1.09046604e-02, -8.95832840e-04, -3.32162785e-03,
       -8.00722186e-03, -3.34757031e-03, 1.02684200e-02, 2.98357219e-03,
       1.65017433e-02, 1.88053027e-02, 6.41941093e-04, -7.28622172e-03,
       3.18523427e-03, -5.36052091e-03, -5.96875837e-03, 6.86391431e-04,
       -9.39646456e-03, -8.62826942e-04, -1.45215942e-02,
       -2.50681676e-03, -1.45843215e-02, -9.15603060e-03,
       -1.17673697e-02, 3.15092650e-04, 2.55204341e-03, -1.73968598e-02,
       5.30072779e-04, 2.36748694e-03, -1.87442114e-04, 9.88663451e-05,
       -6.09090272e-03, -4.62886225e-03, 2.15777894e-03, 1.49929933e-02,
       4.87362407e-03, 5.70969051e-03, 1.02051173e-03, -5.47062373e-03,
       -5.68134803e-03, 4.68526594e-03, -5.72648412e-03, 6.49849093e-03,
       6.22516079e-03, -1.20624597e-03, 6.36567036e-03, 1.65872239e-02,
       5.40019106e-03, 1.29306996e-02, 7.20656756e-03, 1.32245582e-03,
       1.76533288e-03, 3.94339301e-03, -1.06295142e-02, -4.87052090e-03,
       -5.59938140e-03, -4.58253128e-03, 7.16760661e-03, 1.85419025e-03,
       3.06052971e-04, 6.16266578e-03, 1.29886903e-02, 9.15399473e-03,
       6.94886874e-03, 1.83659617e-03, -4.60283220e-04, -1.14046838e-02,
       -1.36382796e-03, 2.57057208e-03, 5.29953511e-03, 3.44978832e-03,
       -6.20572176e-03, -1.15655677e-03, 7.96509814e-03, 2.16478645e-03,
       1.07543739e-02, 7.82482850e-04, 7.54516385e-03, 6.08781166e-03,
       1.09579309e-03, 5.58246579e-03, -3.31101823e-03, 8.81600287e-03,
       4.97672474e-04, -1.16824675e-02, -8.79484881e-03, 7.03788479e-04,
       1.98672828e-03, 1.06355315e-02, 9.76304337e-03, 6.72580162e-03,
       -1.00801932e-02, 2.77075707e-03, -1.09210843e-02, 9.56182543e-04,
       3.59611074e-03, -1.89099915e-03, 5.54559240e-03, 2.90854741e-03,
       6.32791547e-03, 4.50937403e-03, 9.53059830e-03, 5.28331893e-03,
       3.96096427e-03, 6.44674385e-03, -1.81248807e-03, 6.47071167e-04,
       -1.76944071e-03, -5.12798643e-03, 1.05333067e-02, 4.68757097e-03,
       -7.04585947e-03, -2.74052075e-03, 2.32513412e-03, -3.18649015e-03,
       -2.30373844e-04, 6.00519823e-03, 1.06162801e-02, 9.16153565e-03,
       -7.30389671e-04, 4.85191448e-03, 2.94877915e-04, -9.51330643e-03,
       -9.17699002e-03, 4.81781550e-03, 9.34991706e-03, 7.50387646e-03,
       -4.60310839e-05, 3.84921604e-03, 3.18582868e-03, 1.17176434e-03,
       -4.03403258e-03, -1.41338352e-02, 1.05938881e-04, 6.45869598e-03,
       9.93313268e-03, 7.11850217e-03, 8.24432261e-03, 8.53338651e-03,
       7.38464121e-04, -9.23518091e-03, -5.01456298e-03, 6.10818679e-04,
       9.70557705e-03, 5.79410419e-03, 6.74276147e-04, -1.59671612e-03,
       -8.84895027e-03, -2.40667374e-03, -1.50261205e-02,
       -4.07853257e-03, 4.69546439e-03, 5.58134681e-03, 6.39582868e-04,
       1.23424958e-02, 7.59976590e-03, -5.83291706e-03, 7.60083413e-03,
       -1.17501076e-02, -6.80744182e-03, -6.46931026e-03, 3.29538924e-03,
       8.43711942e-03, -6.20358763e-03, 8.80252011e-03, -3.57809081e-03,
       9.34727024e-03, 5.26526058e-03, -6.54224074e-03, -1.19124185e-02,
       -3.86186922e-03, -7.78533192e-03, -3.51992296e-03,
       -6.11929630e-04, -1.07353497e-02, 8.36708862e-03, 2.11183168e-03,
       -1.44239154e-03, 4.16796701e-03, 4.04703896e-03, -1.37813715e-03,
       -2.65346118e-03, 1.27605014e-02, -9.68299748e-04, 1.44818081e-02,
       1.65520632e-03, -8.35082214e-03, -7.52599025e-03, 8.89098179e-03,
       6.88412227e-04, 2.59498862e-04, 3.28675541e-03, -1.70057558e-03,
       1.06989676e-02, 3.82277113e-03, 4.70882282e-03, -4.07300144e-03,
       1.26581953e-03, -1.28650013e-02, -6.98309485e-03, -6.49593351e-03,
       -4.03506262e-03, 1.03118466e-02, 4.41136071e-03, 6.05162350e-04,
       1.82360737e-03, -9.22228675e-03, -6.52108341e-03, -8.28357693e-03,
       -3.59822693e-03, 6.47151843e-04, 3.30276461e-03, -4.53096908e-03,
       2.88552162e-03, 2.17667312e-05, 1.31044965e-02, 1.05021354e-02,
       -3.38811707e-03, -6.89234538e-03, -2.34123482e-03, 8.70623905e-03,
       2.67011393e-03, 1.13304295e-02, 1.22407256e-02, 7.47294771e-03,
       8.46239086e-03, -8.07584543e-03, -4.98719374e-03, -1.51175377e-03,
       6.61527098e-04, 4.52307193e-03, -1.00538356e-03, 7.56666111e-03,
       -1.46966903e-02, -5.28013706e-03, -1.44793214e-02, 8.98491405e-03,
       6.94301398e-03, -2.03344016e-03, -4.50276770e-03, 2.61768862e-03,
       -2.36399774e-03, -1.43278735e-02, -1.44368983e-04,
       -9.53384023e-03, -6.99400250e-03, -2.34622490e-02,
       -1.87868662e-02, -1.49825076e-02, -6.87311462e-04, 1.98849337e-03,
       -6.58066990e-03, 1.38368818e-03, -9.46200511e-04, 8.69049132e-03,
       1.50967799e-02, 6.37348322e-03, 7.54323846e-05, 7.08431529e-04,
       -8.84761102e-05, -4.49771341e-03, 4.19437885e-03, 6.75559137e-03,
       1.39032379e-02, -3.76351667e-03, -2.64290813e-03, -3.16477474e-03,
       9.23689548e-03, 2.44649593e-03, -3.89801199e-03, -1.50613708e-03,
       1.20099261e-03, -1.73840169e-02, -7.62816612e-03, -1.00615313e-02,
       -8.79237836e-04, 2.30048108e-03, 4.68862196e-03, -9.62945446e-03,
       -4.41870652e-03, 5.11316955e-03, -5.84542565e-03, 1.51234330e-03,
       1.20258436e-03, 1.14990410e-03, -7.84835778e-03, -7.41802808e-03,
       -9.36710835e-03, -5.12719899e-03, 1.67179964e-02, 6.50687050e-03,
       -2.71831732e-03, 2.12402712e-03, -4.08970611e-03, -3.42363864e-03,
       -6.36362517e-03, -4.26261267e-03, -6.19636802e-03, 9.32987966e-03,
       -4.58899932e-03, 3.74148530e-03, 1.92662666e-03, -7.44267087e-03,
       -6.84625178e-04, -6.55230600e-03, -6.80003967e-03,
       -3.67915118e-03, 1.49283260e-02, 3.36274994e-03, 8.08419380e-03,
       -8.07967409e-03, -5.56173641e-03, -6.33004541e-03,
       -9.89924185e-03, -8.63129273e-03, 1.47998764e-03, 1.08715910e-02,
       1.84627119e-02, 9.14183073e-03, -3.16049531e-03, -1.34930639e-02,
       -1.22187054e-03, -7.54284393e-03, -1.34392912e-02,
       -9.37956199e-03, 7.65435584e-03, -8.44001863e-03, -3.54509393e-04,
       -2.42308131e-03, -5.45233442e-03, -2.47171102e-03,
       -1.07997637e-02, -6.32138504e-03, 6.00629672e-03, 9.77578759e-03,
       -3.64338746e-03, 4.38577309e-03, 1.09851746e-04, 1.03031110e-03,
       3.54485330e-03, -2.39530904e-03, -6.25773519e-03, -2.99884379e-03,
       4.44349553e-03, 1.20604644e-02, 3.27717303e-03, 3.58542916e-03,
       -9.89331678e-03, -4.50659869e-03, -3.80733586e-03,
       -3.92686017e-03, -1.02758836e-02, -1.85231760e-03, 8.25129915e-03,
       4.27862396e-03, -2.70119193e-03, -1.21545764e-02, 5.82425902e-03,
       -1.23119196e-02, -5.68556553e-03, -1.56906992e-03,
       -7.74592254e-03, 7.44313467e-03, 1.75233241e-02, 1.55502120e-02,
       5.09930868e-03, 8.34558439e-03, -5.94311254e-03, -7.96630699e-03,
       -1.04302103e-02, -1.42795630e-02, 8.35965108e-03, 1.22014415e-02,
       7.43545033e-03, 1.54743646e-03, -6.22277102e-03, 2.48404627e-04,
       -9.06334724e-03, -1.07370354e-02, 3.55480821e-03, 1.05160717e-02,
       9.65038687e-03, -9.96832084e-03, -1.09454654e-02, 4.88131167e-03,
       8.55314545e-03, -2.40196404e-03, 2.68838106e-04, -6.81616692e-03,
       -2.41496903e-03, 1.36387476e-03, -1.36624034e-02, 1.09024474e-03,
       1.48473410e-02, 4.03298624e-03, -9.22105089e-03, -7.15938630e-03,
       -7.42301252e-03, 1.30651146e-02, 1.30087528e-02, -4.23766486e-03,
       -1.15947530e-03, 2.00598482e-02, 1.45098399e-02, 4.13693674e-03,
       1.04964590e-02, -7.70289544e-03, -1.15944829e-03, -1.27414579e-03,
       -1.26012377e-02, -5.73864498e-04, 5.02889231e-03, 4.92601516e-03,
       -2.06979620e-03, 5.64648118e-03, 2.92601669e-03, 3.23961675e-03,
       -4.74958506e-04, -1.70022296e-03, 4.04625200e-03, 1.19836386e-02,
       7.19618006e-03, -4.10582684e-03, -9.36673768e-03, 3.02601256e-04,
       1.52990725e-02, 1.37317693e-04, 2.56299763e-03, 4.94598551e-03,
       1.18425749e-02, 7.30694225e-03, -1.29156595e-03, 1.77271981e-02,
       1.01787481e-03, 3.57810291e-03, -3.07391561e-03, 2.38279608e-04,
       8.15645885e-03, -1.36660077e-04, -3.44569678e-03, -3.73524893e-03,
       -5.20023145e-03, 5.02958149e-03, 1.07322996e-02, 4.22534114e-03,
       8.51927698e-03, -2.65962444e-03, 1.42870778e-02, 1.07623888e-02,
       -4.63500997e-04, -1.80450361e-03, 4.47066221e-03, 1.52536472e-02,
       6.18705666e-03, 4.98292921e-03, 1.49152288e-03, 1.33777212e-03,
       1.18932724e-02, 3.14004254e-03, -6.40311558e-03, -5.62124420e-03,
       -3.85950040e-03, 3.32972663e-03, 1.23304436e-02, -4.80057113e-03,
       -2.86253751e-04, 4.04565595e-03, -2.24084186e-04, -3.61642940e-03,
       1.14103984e-02, 1.02682207e-02, 5.41535579e-03, 6.68522809e-03,
       -8.72950070e-03, -7.80348852e-03, 1.04339542e-02, 4.73504933e-03,
       -6.20896695e-03, -3.54096503e-03, -6.62323087e-03, 2.38516508e-03,
       -4.70555713e-03, -1.47146881e-02, 1.42624229e-03, 4.88146348e-03,
       7.40868226e-03, -5.73647069e-03, 1.44546572e-03, -2.93094572e-03,
       -1.07674417e-03, 1.10295191e-02, 1.49949687e-04, -2.64257984e-03,
       1.17431511e-03, 2.95132468e-03, 6.10336196e-04, -6.17010985e-03,
       -4.39161947e-03, 6.39355648e-03, 5.61337685e-03, 8.76113959e-03,
       -5.70033491e-03, 7.87480734e-03, 1.13067003e-02, 1.63385062e-03,
       1.45042390e-02, -1.71945803e-02, -6.22149184e-03, 4.01055999e-03,
       -1.36795873e-02, -3.31966765e-03, 1.20351627e-03, 1.06937652e-02,
       4.75063128e-03, -6.90485875e-04, -1.01843448e-02, -3.26328073e-03,
       7.13648694e-03, -1.13152256e-02, 5.47184329e-03, 1.09872478e-03,
       -9.14011151e-03, -4.14212467e-03, -4.77272738e-03, 2.85200262e-03,
       -4.79448307e-03, 1.23492337e-03, 4.61955694e-03, 2.79526506e-03,
       2.79797846e-03, -1.52364066e-02, -8.98754166e-04, 2.34752498e-03,
       2.18715562e-04, 7.54333276e-04, -9.72380489e-03, -1.46999545e-02,
       3.74429487e-03, -3.31332022e-03, -7.30418460e-03, -2.72605941e-03,
       1.33445184e-03, 5.79487579e-03, 2.12414976e-04, 1.07424380e-02,
       -1.67294362e-04, -1.56375754e-03, 7.00637093e-03, -6.54013362e-03,
       3.21233645e-03, 4.49484726e-03, 6.44174032e-03, 2.08202354e-03,
       1.50431530e-03, -1.19303702e-03, 1.62952743e-03, 1.03363730e-02,
       -1.12943980e-03, 5.28584654e-03, 2.99174106e-03, -6.25781249e-03,
       -4.13062284e-04, -1.09030004e-03, -1.07409963e-02,
       -1.95200508e-03, 6.80449326e-03, 4.13158955e-03, -7.40726618e-03,
       -1.09712062e-02, -7.08565582e-03, 1.37627334e-03, 4.37976746e-03,
       -5.44543425e-03, -3.15028848e-03, 4.54358570e-03, 1.13656817e-04,
       1.26994336e-02, 6.13711029e-03, -4.64048964e-04, -1.80828589e-04,
       6.00029621e-03, -3.50666046e-03, 7.52643822e-03, 3.29420873e-04,
       3.83769418e-03, 6.55887090e-03, 4.57893079e-03, -1.07014012e-02,
       -3.17956880e-03, 1.27962036e-02, 6.24837540e-03, 1.42596606e-02,
       4.91825677e-03, -6.17073150e-03, -1.40947374e-02, 2.43852171e-03,
       -1.15803583e-02, -3.53965559e-03, 6.04550587e-03, 4.08540433e-03,
       4.94662533e-03, 1.61527088e-04, -8.77917744e-03, -1.61762338e-03,
       -2.11643148e-03, -8.99900310e-03, -1.40652535e-02,
       -8.46005231e-03, -1.27037661e-02, 2.59079337e-02, 3.15940985e-03,
       -6.15131110e-03, -8.51799175e-03, 8.63006897e-03, -1.79892480e-02,
       -5.37835155e-03, 1.55105814e-02, 2.13371385e-02, 1.57709885e-02,
       5.36163058e-03, -3.39235971e-03, 1.76757365e-03, -4.20540897e-03,
       -9.97424964e-03, -9.19775106e-03, 3.68891214e-03, 9.78409126e-03,
       2.00820778e-05, 1.08044455e-02, -3.87948565e-03, -3.59744369e-03,
       2.60500456e-05, -1.28411368e-04, -1.23066958e-02, -8.09424836e-03,
       -1.89226251e-02, -3.80364130e-03, 1.08731203e-02, -3.63298412e-03,
       -2.98270909e-03, 2.37307092e-03, -2.96757184e-03, -6.71349978e-03,
       -6.52814796e-03, -2.07842365e-02, 9.65022203e-03, 2.01111077e-03,
       3.68335098e-03, 1.76673138e-03, 1.39538734e-03, 3.65273049e-03,
       -9.79724526e-03, 1.72903808e-03, 6.11010822e-04, 1.09469993e-02,
       2.00635102e-03, 6.87459344e-03, -3.97007260e-03, 1.06398687e-02,
       -3.16456542e-03, -1.86629791e-03, -3.53693822e-03,
       -6.76607853e-03, 5.27914439e-04, 1.79970637e-03, 1.73932351e-02,
       9.25922394e-03, 2.44952925e-03, -2.84568174e-03, 1.52307199e-02,
       9.38515551e-03, 4.09294385e-03, 1.73937122e-04, 6.07841089e-03,
       7.69436685e-03, 3.47086205e-03, -1.52609581e-02, -1.79997478e-02,
       1.13959480e-02, 1.30182514e-02, 2.74666096e-03, -4.02856618e-03,
       1.52923574e-03, 2.28768127e-04, 4.24777949e-03, -1.63809955e-02,
       4.31748433e-03, 9.28268395e-03, -1.85426930e-03, -3.42416787e-03,
       1.39897037e-02, 4.27176151e-03, -2.80226977e-03, 3.51160998e-03,
       -7.56529951e-03, -1.02520175e-02, 2.93308683e-03, -1.40039751e-03,
       3.20160924e-03, 4.47339797e-03, 1.64130365e-03, 2.51027895e-03,
       5.82238659e-03, 7.55704613e-03, -1.07488595e-03, 3.23122717e-03,
       5.33231720e-03, -5.89626934e-03, -9.78856068e-03, -4.44718916e-03,
       -5.30595193e-03, -1.27052376e-02, -2.50741048e-03, 1.51198788e-03,
       2.47649103e-03, 1.39986572e-03, -8.01828131e-03, 1.15656732e-02,
       -7.88720616e-04, -4.68085194e-03, -2.77524185e-03, 6.02599652e-03,
       -2.41673295e-03, -1.32442615e-03, -4.77238186e-03, 1.00527259e-05,
       1.34149296e-02, 5.05294418e-04, -2.14873278e-03, -1.07512437e-02,
       1.70019828e-03, 1.94290711e-03, -6.72603305e-03, -3.51870945e-03,
       8.87289736e-03, -5.35713555e-03, -5.16784657e-03, -4.79911873e-03,
       -1.42577728e-02, -8.71799886e-03, 3.74299940e-03, 3.51762306e-03,
       -2.16668239e-03, -4.30591777e-03, -6.44267537e-03,
       -3.42751900e-03, 6.19171420e-03, -5.25998091e-03, -1.51818048e-03,
       -4.47011756e-04, -1.62170769e-03, -9.55909956e-03,
       -4.44019772e-03, 4.09777090e-03, 3.05842306e-03, 3.26111168e-03,
       -1.13517204e-02, 1.05326937e-03, 5.49677294e-03, -2.88696121e-03,
       -6.55304920e-03, -6.90608798e-03, 1.23139331e-02, 1.38468966e-02,
       5.24428813e-03, -4.41700360e-03, -3.58971721e-03, -1.02043627e-02,
       -1.35654490e-02, -9.42268688e-03, -3.59407190e-04,
       -4.41597356e-03, -4.29098727e-03, 3.16144596e-03, 5.85340057e-03,
       3.67876026e-03, 9.95340757e-04, -8.90279748e-03, -1.52250705e-02,
       -6.52967254e-03, 2.51622056e-03, 4.55122022e-03, 2.35503027e-03,
       4.88288468e-03, -4.90081916e-03, 1.45078433e-04, -1.59596317e-02,
       -1.70037374e-02, -1.32146291e-03, 9.09114163e-03, 4.05302225e-03,
       -6.60902646e-04, 1.10485079e-03, 3.86914215e-03, -8.55636783e-03,
       -9.29352827e-03, -1.49793494e-02, 2.98017543e-03, 1.29355965e-02,
       7.62631325e-03, 1.10693672e-03, 9.73370019e-03, 8.01398419e-03,
       4.41791164e-03, -7.11208722e-03, -9.58185922e-03, 1.06857670e-03,
       1.47177663e-03, -1.62085693e-03, -1.02220923e-02, -1.21515873e-03,
       -6.82192156e-03, -3.52393510e-03, -1.20456312e-02,
       -8.38752370e-03, 1.26750150e-04, -3.94322956e-03, -1.73136196e-03,
       -3.16159381e-03, -7.16447737e-03, 1.40407227e-03, -3.59140569e-03,
       -2.76876599e-05, -9.68243647e-03, -7.70828547e-03, 1.64958555e-03,
       1.22339441e-03, -4.92143212e-03, -2.39949717e-04, -1.87906786e-03,
       9.02524800e-04, -1.60300208e-03, 4.62801399e-04, 6.09696982e-03,
       1.25831757e-02, 6.54247822e-03, 3.20936088e-03, -8.26312974e-03,
       8.46660882e-03, -5.01100579e-03, 3.50158289e-03, 3.12098209e-03,
       1.35852816e-02, -3.14815290e-04, -5.62700117e-03, -1.36464108e-02,
       -7.76337367e-03, -8.90640449e-03, -8.21455102e-03, 6.25341060e-03,
       -6.65455218e-03, -6.69132173e-03, 5.18889492e-03, 1.05287032e-02,
       2.16537178e-03, 6.22161478e-03, 7.54552707e-03, 4.87722317e-03,
       1.09830163e-02, -1.13657769e-03, 4.89013782e-03, 4.83345473e-03,
       -4.09781560e-03, -1.00431237e-02, -1.03544742e-02,
       -1.15403170e-02, -5.45672653e-03, 5.34190703e-03, -9.28693917e-03,
       -1.91297091e-03, 9.93386097e-03, -5.71906380e-03, -1.00053446e-02,
       -3.97374434e-03, 1.28909349e-02, 4.83412528e-03, 1.86885204e-02,
       8.35698331e-04, 3.80607671e-03, -7.38978793e-04, 8.90632160e-03,
       6.41718879e-03, 4.75556776e-03, -9.07798484e-03, -5.79682225e-03,
       2.13471032e-03, 3.74660478e-03, 2.70372373e-03, 1.02912565e-03,
       -7.97582511e-03, 1.50994363e-03, 6.42900821e-03, 5.30491164e-03,
       8.17046314e-03, 3.78830289e-03, -2.60099699e-03, 8.45344970e-04,
       5.20652346e-03, -5.18381177e-03, -3.67318792e-03, -1.83380116e-03,
       -1.83488615e-02, -5.86773828e-03, 9.62176360e-03, 2.15711514e-03,
       2.27826857e-03, -5.59219904e-03, -9.13288817e-03, 2.96922587e-03,
       4.17794660e-03, -3.11471848e-03, 1.08939232e-02, 6.54322142e-03,
       5.58626233e-03, 5.47022419e-03, 2.34563672e-03, -8.35678633e-03,
       -4.68376698e-03, 1.93992991e-03, 1.88118231e-03, 5.19709382e-03,
       -6.73970149e-04, -6.86513400e-03, 1.05545204e-02, -3.72735574e-03,
       -1.88067369e-02, -1.18716620e-02, -1.03068091e-02, 1.03705013e-02,
