%YAML:1.0
---
detector_l: !!opencv-object-detector-hog
   winSize: [ 200, 200 ]
   blockSize: [ 16, 16 ]
   blockStride: [ 8, 8 ]
   cellSize: [ 8, 8 ]
   nbins: 9
   derivAperture: 1
   winSigma: 4.
   histogramNormType: 0
   L2HysThreshold: 2.0000000000000001e-01
   gammaCorrection: 1
   nlevels: 64
   signedGradient: 0
   SVMDetector: [ -1.66714273e-03, 1.59842195e-03, 2.10602651e-03,
       2.85427226e-03, 7.46453879e-03, -2.13684561e-03, 1.33485626e-03,
       3.99286766e-03, 2.28227908e-03, -2.09623179e-03, 5.90903824e-03,
       3.05269239e-03, -4.94449958e-03, -2.88511161e-03, -3.47051211e-03,
       4.72541573e-03, 5.81588876e-03, 2.95559317e-03, -6.58611127e-04,
       -1.68015074e-03, -2.11472902e-03, 5.45937847e-03, 1.09590981e-02,
       -2.56820139e-03, 6.14024757e-04, 5.16623678e-03, 3.90012027e-03,
       8.99241946e-04, 2.82913819e-03, 2.59432523e-03, 2.94275186e-03,
       3.52298957e-03, -7.76055641e-03, 3.56330071e-03, 3.99764767e-03,
       -2.08658678e-03, 3.93780181e-04, 7.61897070e-03, 7.51181971e-03,
       -5.96803438e-04, 1.21233065e-03, -2.63468479e-03, 3.10814613e-03,
       1.15377875e-02, 4.68980847e-03, -9.87865403e-03, -5.27740410e-03,
       -4.52142535e-03, -7.49039091e-03, 4.25506197e-03, 3.73876886e-03,
       3.51806567e-03, 6.12324756e-03, -7.10425316e-04, -6.12846948e-03,
       1.61682290e-03, -9.32553143e-04, 2.72737327e-03, 8.35389458e-03,
       -5.44232456e-03, 2.13137688e-03, 5.95647702e-03, -6.21994119e-03,
       -1.55456010e-02, -4.21766005e-03, -4.35343105e-03,
       -2.95187859e-03, 5.52609563e-03, -1.46309810e-03, 1.56037626e-03,
       5.37924003e-03, -1.23642683e-02, -6.89290464e-03, -1.46992120e-03,
       -1.41226221e-03, -3.45473690e-03, 1.21533796e-02, 1.73246488e-03,
       1.66361209e-03, 3.77751305e-03, 3.52013449e-04, 1.13484066e-03,
       3.39332898e-03, 9.58794903e-04, -2.91987113e-03, 1.86821353e-03,
       -8.03702511e-03, -1.65017485e-03, -1.57240801e-03, 6.45284832e-04,
       -4.94368374e-03, -3.08166188e-03, -1.05332537e-03, 1.72629161e-03,
       1.69181861e-02, -1.32846343e-03, 1.68399431e-03, 2.27355631e-03,
       -5.51493838e-03, 3.73180863e-03, -4.32770327e-03, 1.82544475e-03,
       -9.06766742e-04, 1.15264696e-03, -7.67374225e-03, -7.69652659e-04,
       -6.35243673e-03, -5.11173951e-03, 6.70408923e-03, 7.99105968e-03,
       6.54906221e-03, -2.21144804e-03, 6.58557611e-03, -2.33737472e-03,
       2.85693351e-03, 5.14405023e-04, 5.50730852e-03, 5.62561071e-03,
       3.05326830e-04, 5.34401042e-03, 2.69598723e-03, 5.74142672e-03,
       -6.73543010e-03, 1.65519363e-03, 1.11227355e-03, 4.71010804e-03,
       3.36019532e-03, -1.17126806e-03, 3.94815300e-03, 8.49414617e-04,
       8.72800685e-03, -2.38456880e-03, 2.22683535e-03, 2.47256219e-04,
       -6.76146534e-04, -4.39991447e-04, -1.93572929e-03, 7.21940864e-03,
       2.92111328e-03, 1.45419594e-02, -6.63930224e-03, 1.54409907e-03,
       3.20396246e-03, -3.37438018e-04, 1.85023132e-03, -2.27509486e-03,
       4.67033591e-03, 3.71614704e-03, 8.51993263e-03, -9.30608436e-03,
       -1.00683002e-02, -2.78871926e-03, 3.96171957e-03, -9.92082292e-04,
       4.05369996e-04, 8.06974061e-03, 2.93007377e-03, 1.70959048e-02,
       -1.01335188e-02, -3.82358581e-03, 2.26866221e-03, 4.15318087e-03,
       -1.10502988e-05, -2.73223687e-03, 5.63379610e-03, 1.72134105e-03,
       6.18176069e-03, -7.18917465e-03, -7.00326264e-03, -2.04622489e-03,
       2.16363114e-03, 2.54505407e-03, 2.01577946e-04, 1.15010636e-02,
       -1.43979432e-03, 1.17670717e-02, -9.23065096e-03, 9.86346626e-04,
       3.88944335e-03, 8.03671218e-03, -2.11074739e-03, 1.12605956e-03,
       1.96355837e-03, -8.79898388e-03, -6.33757375e-03, -6.20721700e-03,
       1.10845176e-04, 2.28930148e-04, -3.31704970e-03, 1.65858236e-03,
       8.45411618e-04, -3.28328996e-03, -6.73821103e-03, -2.00199266e-03,
       5.67187415e-03, 1.89745636e-03, 5.51597041e-04, 7.45278958e-04,
       -9.83255566e-04, 5.74272883e-04, 4.44548717e-03, -8.88586789e-03,
       -4.45815129e-03, -7.71800848e-03, 8.56534764e-03, 6.11108122e-03,
       -2.31857668e-03, 3.41056543e-03, 2.40303762e-03, 1.69986172e-03,
       -5.76927839e-03, -5.06512530e-04, 5.44870226e-03, 9.62599274e-03,
       3.87030467e-03, -2.16468005e-03, 1.74662005e-03, -3.25496285e-03,
       -1.17422780e-02, -7.81385787e-03, -5.26206009e-03, 3.82535951e-03,
       1.80250441e-03, -3.28853464e-04, 1.03377359e-04, 4.97317081e-03,
       -1.58271322e-03, -6.81100739e-03, 8.63785273e-04, 6.84542581e-03,
       6.14572177e-03, 6.15391554e-03, 3.48836556e-03, 2.57615466e-03,
       -7.23888353e-03, -4.52447450e-03, -7.33003812e-03,
       -7.53048388e-03, 3.25005362e-03, 2.16732896e-03, 1.70617306e-03,
       -4.21457319e-03, -6.47071050e-03, 1.28764089e-03, 5.33939246e-03,
       3.42668718e-05, -2.65938137e-03, 2.95753218e-03, -4.60275961e-03,
       6.26518670e-03, 1.71696569e-03, 5.31306432e-04, -7.21334189e-04,
       -6.89226249e-03, -2.28815991e-03, 2.03518989e-03, -6.74604089e-04,
       2.00875034e-03, -1.27602986e-03, -4.36741067e-03, -2.94237281e-03,
       1.85306848e-03, -3.11823958e-03, -1.02460745e-03, -1.92071870e-03,
       3.60997114e-03, -3.63039173e-04, 2.83141690e-03, -1.19261653e-03,
       1.00834854e-03, 1.04553718e-03, 2.65457318e-03, -1.37169787e-03,
       -2.69847200e-03, -3.97300208e-03, -4.26638825e-03, 1.77611748e-03,
       -1.98973925e-03, -3.12687480e-03, 5.60820522e-03, 2.82187900e-03,
       -3.96664767e-03, 2.37513473e-03, 6.67102914e-03, 1.86898944e-03,
       4.83405031e-03, 2.04891752e-04, -1.65540166e-03, 9.43630293e-04,
       5.97052043e-03, -1.04570703e-03, -7.32052187e-03, -4.32101637e-03,
       1.78678533e-06, 3.89350671e-03, -1.90402800e-03, -3.86086782e-03,
       1.07198593e-03, 1.18447319e-02, 5.91501594e-03, -2.86289980e-03,
       -4.71250294e-03, 6.78542256e-03, 1.02276243e-02, 5.96731715e-03,
       -7.10612210e-03, 6.22665090e-03, 1.10705644e-02, -5.34014078e-04,
       -3.52734607e-03, -7.20123714e-03, -1.00140541e-03, 9.10765302e-05,
       -2.32394529e-03, -1.49934739e-03, 1.28246946e-04, 8.53183493e-03,
       5.28284675e-03, -2.34095543e-03, -5.55768004e-03, 1.13685161e-03,
       2.36946042e-03, 4.64829942e-03, -7.66552612e-03, 3.64737422e-03,
       1.13143055e-02, 7.19904294e-03, -2.24579941e-03, -3.53622995e-03,
       1.68211060e-03, 3.09129152e-03, 4.83631343e-03, -5.77377202e-03,
       2.64913030e-03, 1.08353300e-02, 5.45306643e-03, -3.14963609e-03,
       -2.38166447e-03, 2.15588696e-03, -4.37169475e-03, -4.11116425e-03,
       -7.43420655e-03, -9.58624703e-04, 1.00346217e-02, 7.80447293e-03,
       -1.75803807e-03, 2.29642075e-03, 2.08275509e-03, -3.79112404e-04,
       5.10756578e-03, -3.50273447e-03, -1.68718543e-04, 1.13183782e-02,
       1.40337702e-02, 7.30933214e-04, -2.66202306e-03, -5.97955845e-03,
       -9.52752121e-03, -8.14214069e-03, -1.40496506e-03, 6.24889787e-03,
       3.97832599e-03, 5.10576181e-04, -4.01494186e-03, -4.21049399e-03,
       3.89219774e-03, 2.07273592e-03, -1.31232012e-03, -1.17981283e-03,
       9.56408028e-03, 1.12188573e-03, -5.97501930e-04, -8.21558386e-03,
       -7.87882414e-03, -2.57772324e-03, 6.40570419e-04, -2.67934636e-03,
       1.31225470e-03, -4.86071827e-03, 3.35196359e-03, 2.39167549e-03,
       -3.07453400e-03, -2.53510964e-03, -5.99783263e-04,
       -1.79856096e-03, -2.21073348e-03, 3.10446974e-03, 6.24389667e-03,
       5.24898572e-03, 6.10095821e-03, -6.70720870e-03, -8.17841198e-03,
       -6.24510460e-03, -2.11400096e-03, -8.55976657e-04, 8.43660161e-03,
       2.68570753e-03, 1.64791592e-03, 3.57490452e-03, -1.46398635e-03,
       -1.67139457e-03, 1.86539034e-03, 7.74424465e-04, -2.90731993e-03,
       6.46168482e-04, -1.72173127e-03, -6.01184787e-04, -1.82175217e-03,
       -4.85953316e-03, -4.01849067e-03, -1.09473355e-02,
       -2.65693548e-03, 4.47201783e-05, 2.89604021e-03, -6.10039395e-04,
       5.88086620e-03, 8.76368769e-03, -1.25498057e-03, 1.79292785e-03,
       -3.94035503e-03, -7.55284971e-04, 2.91100098e-03, 7.38440454e-03,
       8.37479660e-04, 3.29048443e-03, 2.98677897e-03, -3.89664993e-03,
       2.94556865e-03, -7.09690340e-03, -5.48606971e-03, -5.10518067e-03,
       5.93402423e-03, 5.19842980e-03, 8.30027461e-03, 6.67775795e-03,
       2.41499627e-03, 4.80938790e-04, -4.11336031e-03, -4.68940567e-03,
       1.89973705e-03, 7.28765968e-03, -2.24587298e-03, 5.48515283e-03,
       1.54490431e-03, -4.31261375e-04, -4.15871199e-03, -6.42903335e-03,
       -2.59620161e-03, 2.14012247e-03, 2.25027488e-03, 6.46895217e-03,
       2.84965872e-03, 2.89798039e-03, -3.52242053e-03, 4.71017603e-03,
       -3.36746289e-03, -5.58389234e-04, -3.34691280e-03, 9.24246572e-03,
       5.54315862e-04, 7.75042514e-04, 3.52966599e-03, -7.39991572e-03,
       -8.44237022e-03, -8.04703101e-04, -3.62341036e-03,
       -2.60323728e-03, 7.54966540e-03, -5.44412411e-04, 5.05349552e-03,
       3.78746586e-03, 9.33439005e-04, 9.72984452e-03, -8.05836823e-03,
       -6.69113221e-03, 9.97253112e-04, 4.14004643e-03, -4.65320161e-04,
       7.95965025e-04, -1.96394278e-03, -4.36284812e-03, 8.45109578e-03,
       -6.40747556e-03, -8.83289904e-04, 2.45788484e-03, 4.11665160e-03,
       5.35508269e-04, 2.76407693e-03, 4.32764320e-03, -1.78270414e-03,
       6.51702471e-03, -5.94549347e-03, -9.45262704e-03, -2.87353341e-03,
       4.97713685e-03, 2.73402571e-03, 4.15539462e-03, 2.93799932e-03,
       1.97826492e-04, 6.37393678e-03, -8.02163873e-03, -2.60366220e-03,
       3.00843990e-03, 5.62409824e-03, -1.86437450e-03, -4.85278107e-03,
       -9.65837017e-03, -8.29093624e-03, 3.65386484e-03, -7.43296091e-03,
       2.34282762e-03, 4.46835766e-03, 6.71378104e-03, 2.61878711e-03,
       1.94717577e-04, -9.18446761e-03, -2.50308891e-03, 1.17126321e-02,
       -3.60597344e-03, 9.94901732e-03, 1.27381338e-02, 1.02578951e-02,
       -2.12755360e-04, -1.56078953e-03, -5.33290580e-03,
       -7.02858577e-03, 4.25721705e-03, -7.56789418e-03, 5.32554463e-04,
       4.26042685e-03, 4.72692074e-03, 7.89327081e-03, 6.73504081e-03,
       3.38848261e-03, -7.01951620e-04, 1.26968231e-03, -4.49409196e-03,
       7.26213679e-03, 9.96878929e-03, 3.30465916e-03, -5.73896850e-03,
       -3.35491309e-03, -7.22810766e-03, 6.80995407e-04, 5.65217296e-03,
       -1.07299099e-02, -1.15843758e-03, 5.72120305e-03, 2.48079246e-04,
       -3.36643285e-03, -2.98307231e-03, -8.13555624e-03, 2.66563543e-03,
       1.32754762e-02, 1.04999449e-03, 2.60379511e-05, 4.97899437e-03,
       5.13981888e-03, 5.48895448e-03, 1.42132794e-03, -1.03883955e-04,
       2.32664665e-04, -3.78748518e-04, -1.07926661e-02, -3.24566453e-03,
       3.06176604e-03, -1.07644056e-03, 7.46034971e-03, 4.06153209e-04,
       -1.22372797e-02, -2.03257054e-03, 2.10547820e-03, -7.12090358e-03,
       -3.21800099e-03, 5.43192215e-03, 2.98461702e-04, -3.69743211e-03,
       1.80296538e-05, -4.85230610e-03, 1.90221961e-03, 9.32960957e-03,
       -5.17828902e-03, -7.17269676e-03, -4.56013840e-05, 5.70291374e-03,
       -3.15941032e-03, -8.94761470e-04, 1.37335376e-03, 4.43592900e-03,
       4.99134883e-03, -6.47366513e-03, -2.73319636e-03, -1.23551325e-03,
       -1.84706959e-03, 4.59361263e-03, 6.84741372e-03, -3.64450598e-03,
       -2.42116023e-03, 1.86519558e-03, -6.04745699e-03, -4.86890739e-03,
       5.41987736e-03, 2.07066745e-03, 1.54010870e-03, 6.20552944e-03,
       -2.28901324e-03, 2.00026273e-03, -4.06271080e-03, -6.20379671e-03,
       -9.74758901e-03, -6.61088992e-03, -3.93711682e-03,
       -4.33881767e-03, -3.05999490e-03, 3.99218779e-03, 1.41357863e-03,
       3.60329193e-03, -4.38261637e-03, 8.65313597e-03, 1.96299958e-03,
       -1.53791741e-03, -4.81902575e-03, -1.75603607e-04, 5.30800503e-03,
       -1.27833476e-03, -5.97363978e-04, -6.23246329e-03,
       -3.44784115e-03, -9.30438563e-03, -7.64004234e-03,
       -1.48545566e-03, -4.98504471e-03, -1.86679291e-03,
       -2.86791287e-03, -2.02356419e-03, -2.03884928e-03,
       -5.17388014e-03, -1.89517264e-03, 2.28699693e-03, 6.21779077e-03,
       4.15506074e-03, 7.40720658e-03, -2.44171079e-03, -6.11236552e-03,
       -6.73945015e-03, -8.57004244e-03, -7.42880953e-03,
       -1.87491800e-03, 2.42739869e-03, 5.79803530e-03, 4.49337903e-03,
       -5.69508970e-03, -9.38490126e-03, -6.92261895e-03,
       -4.49117133e-03, -1.56393796e-02, -8.34061019e-03, 7.51384674e-03,
       9.02117882e-03, 1.18749717e-03, -1.76801346e-04, -1.04253124e-02,
       -2.31936411e-03, -7.30433036e-03, -7.60365045e-03,
       -3.14390659e-03, 4.18893760e-03, 3.84466839e-03, 7.05229212e-03,
       3.13846103e-05, -1.12526929e-02, -6.95892703e-03, -5.51929232e-03,
       -7.26417499e-03, -2.38388567e-03, 1.57460105e-03, 1.32846506e-02,
       3.86452279e-03, 2.16563279e-03, -1.78282702e-04, -2.54803011e-03,
       -9.99529380e-03, -1.26032429e-02, -6.56073214e-04, 7.30808359e-03,
       1.66994461e-03, 9.62773571e-04, 4.18928219e-03, -3.79091059e-03,
       5.55589003e-03, -2.06892821e-03, 2.53904890e-03, -2.39625853e-03,
       -6.12943247e-03, -9.37588164e-04, -4.58402140e-03, 2.64408696e-03,
       -8.78488831e-03, 3.02546984e-03, -4.42463625e-03, 2.24587088e-03,
       -9.69994906e-03, 3.68787022e-03, 6.74471306e-03, 5.36570651e-03,
       3.30366171e-03, 4.32449067e-03, 5.11332974e-03, -3.08879465e-03,
       -4.48297214e-05, 1.76854257e-03, -1.05905317e-04, -7.45673460e-05,
       4.39655362e-03, 2.44553405e-04, -5.95994666e-03, -2.89569050e-03,
       -2.75955303e-03, -3.22342594e-03, 3.23116838e-04, 6.58569392e-04,
       1.68203644e-03, 3.84394749e-04, 4.95548779e-03, 8.61282228e-04,
       6.76420238e-03, 7.22963503e-03, 2.01873202e-03, -6.20208541e-03,
       9.36160050e-03, 4.03765263e-03, -9.97333518e-06, -3.68907303e-03,
       8.68015643e-03, 5.24479523e-03, 1.38413524e-02, 6.36833999e-03,
       -2.69154250e-03, -3.96122559e-05, 9.75108123e-04, 1.49845355e-03,
       4.17868793e-03, -1.03106201e-02, -1.54448627e-03, -4.33562137e-03,
       -9.10123624e-03, -7.44917663e-03, 1.65065855e-03, 1.80990109e-03,
       3.11426562e-03, 2.46644416e-03, -1.60314946e-03, -1.23877800e-03,
       1.60524459e-03, -5.99957537e-03, -6.99847890e-03, 9.19954665e-03,
       2.21600104e-03, -3.16248322e-03, -5.65033220e-03, 6.70327293e-03,
       1.80076121e-03, 6.80972869e-03, 2.09530070e-03, 8.40836263e-04,
       -5.89330040e-04, -2.94648693e-03, -2.75274459e-03,
       -9.12179006e-04, 2.72693136e-03, -7.64485158e-04, -1.49399322e-03,
       -5.14727319e-03, -4.37211851e-03, 4.68889158e-03, 2.37446511e-03,
       2.14641797e-03, -2.12640315e-03, 1.75612420e-03, 2.57294183e-03,
       1.38506922e-03, -4.02554544e-03, -1.34698825e-03, 2.14442308e-03,
       2.32289056e-03, 3.45415948e-03, 3.64802283e-04, 4.62489144e-04,
       4.96386376e-04, 6.17406005e-03, -1.57636008e-03, -9.44170635e-04,
       -1.95254222e-03, -1.14430115e-03, 5.50549896e-03, -7.10080320e-04,
       3.75900394e-03, -2.51440750e-03, -3.33391456e-03, -2.94926995e-03,
       9.05050896e-04, 3.49108828e-03, 1.52172463e-03, 1.07624466e-02,
       -3.33552691e-03, -2.32990785e-03, -6.72583375e-03,
       -2.20913556e-03, -1.74256193e-03, 3.86618404e-03, 8.11463571e-04,
       1.27300655e-03, 1.11220470e-02, 1.00722583e-03, 9.12410091e-04,
       5.47974510e-03, 1.18173640e-02, 4.37021861e-03, 4.22503799e-05,
       -3.93143296e-03, 6.62140548e-04, 1.29997032e-02, -1.59802439e-03,
       -3.14006372e-03, -3.88692296e-03, 6.95827464e-03, 1.69315990e-05,
       -6.20658649e-03, 2.23180116e-03, -1.58782967e-03, 8.29527434e-03,
       3.58425983e-04, 8.70621391e-03, -9.11553018e-03, -1.59822323e-03,
       -1.22487801e-03, 3.23633291e-03, -1.88845233e-03, -5.29384892e-03,
       3.68854287e-03, 2.52267625e-03, 9.26020369e-03, -8.61508772e-03,
       -2.16219458e-03, -7.60726491e-03, -7.34304776e-03,
       -1.82657386e-03, -4.30044049e-04, 6.68219430e-03, 7.55153073e-04,
       4.42024181e-03, -8.88841134e-03, -3.20314895e-04, 5.64468559e-04,
       -5.06835477e-03, -8.21961265e-04, 9.90624423e-04, 5.90770179e-03,
       2.57462077e-03, 2.46753497e-03, -7.61695765e-03, -2.23546731e-03,
       -3.27871949e-03, -4.29330254e-03, 3.90585163e-03, -3.19661270e-03,
       -2.83002295e-03, 9.95702925e-04, 7.75103271e-03, -5.54313790e-03,
       2.88221915e-03, -8.56663901e-05, 7.15475762e-04, 1.80392480e-03,
       -8.83021019e-03, -4.01779218e-03, -9.14147240e-04, 1.27991301e-03,
       -9.35952645e-03, 7.85591081e-03, 7.71781197e-03, 2.98081292e-03,
       6.41748868e-03, 6.88465172e-03, 9.54194926e-03, 3.44356545e-03,
       2.55190162e-03, -8.23843386e-03, 2.35929736e-03, 2.06175493e-03,
       1.43824972e-03, 2.67450744e-03, -1.62979180e-03, 2.57537328e-03,
       -4.62266942e-03, 1.10481575e-03, -7.61469780e-03, 7.37109501e-03,
       6.61391020e-03, -1.38000061e-03, -3.34805599e-03, -7.84823950e-03,
       -5.26434695e-03, 2.32465286e-03, 3.73254716e-03, -3.60985380e-03,
       3.16357519e-03, 1.13790706e-02, 2.01537088e-03, -1.14324014e-03,
       -2.79662060e-03, -6.18605316e-03, -5.59886335e-04, 7.37586245e-03,
       -6.49612816e-03, 1.81122089e-03, 9.51850507e-03, -1.76431518e-03,
       -3.42770619e-03, -1.41173170e-03, 7.65714271e-04, 1.61882804e-03,
       -2.87654204e-03, -2.25844793e-03, 1.15722707e-02, 1.26472572e-02,
       -1.70969521e-03, -1.04530132e-03, 5.69549995e-03, -6.07394380e-04,
       -4.89271618e-03, -6.43341569e-03, -1.04273548e-02, 5.10188332e-03,
       1.26060862e-02, 2.94740801e-03, 4.61400906e-03, 1.49623002e-03,
       -3.22131603e-03, -3.41936387e-03, 1.19728660e-02, -5.73600316e-03,
       4.59553674e-03, 9.82872862e-03, 2.10791128e-03, 6.93466933e-03,
       -5.19056153e-03, -5.87995397e-03, -1.02105672e-02,
       -4.99688881e-03, -1.20149180e-02, -8.58086278e-04,
       -1.61277072e-04, 2.16988567e-03, 7.01214361e-04, 4.72821249e-03,
       -2.43631541e-03, -8.23038071e-03, 5.24509978e-03, -9.42197535e-03,
       7.99431838e-03, 1.55778658e-02, 1.58468401e-03, -3.61407921e-03,
       -9.35795624e-03, 2.31598140e-04, -2.70792632e-03, -4.50848974e-03,
       -1.15490248e-02, 9.25077219e-03, 6.13881368e-03, -6.07592333e-03,
       4.24925843e-03, -4.40837862e-03, -1.72878127e-03, -3.18080885e-03,
       4.64248657e-03, -3.81699344e-03, 2.40833499e-03, 5.72641846e-03,
       4.56331810e-03, 1.66403002e-03, 2.11540004e-03, 6.06677867e-03,
       -1.32876786e-03, 1.20162480e-02, -5.91546902e-03, -3.06289573e-03,
       4.05165087e-03, 1.71522897e-05, -3.28697264e-03, -5.85681153e-03,
       5.53604867e-03, -6.35986973e-04, 7.41012802e-04, -3.15098674e-03,
       4.62634163e-03, 5.75221283e-03, 1.34573522e-04, -1.38976291e-04,
       1.68649087e-04, 8.91741831e-03, -3.77916428e-03, 3.50153306e-03,
       -7.84637686e-03, -4.06055525e-03, 4.92516486e-03, 2.12970772e-03,
       4.49354993e-03, 2.31819181e-03, 1.50502170e-03, -5.28397039e-03,
       1.59204658e-03, -5.26711065e-03, -1.00626079e-02, 1.53674721e-03,
       5.71053009e-04, 1.68384321e-03, 5.62945032e-04, 8.30076542e-03,
       -5.96082862e-03, 3.85858794e-03, -8.22040252e-03, -4.49394993e-03,
       6.21611346e-03, 4.46575554e-03, -2.78890668e-03, 3.37052334e-04,
       7.46913208e-03, -1.21804746e-03, -9.06144502e-04, -6.12074626e-04,
       -3.21938726e-03, 5.37595525e-03, -4.70733782e-03, -2.33372347e-03,
       5.71628287e-03, 1.14832819e-02, 3.26228747e-03, 4.11467580e-03,
       -3.74544109e-03, 4.00126120e-03, 7.64803076e-03, 5.38734253e-03,
       -2.40906468e-03, -3.23788566e-03, 1.12745923e-03, -4.86975815e-03,
       -4.43681236e-03, -6.51936932e-03, 1.92401558e-03, 8.31335597e-03,
       -1.98401441e-03, 2.19993736e-03, -2.58414610e-03, -2.83178175e-04,
       -1.63883751e-03, 9.87534784e-03, 5.98256150e-03, 4.89418767e-03,
       2.43853359e-03, -3.57389660e-03, -2.19543843e-04, 3.68495891e-03,
       1.68407138e-03, -7.01658719e-04, -3.36931762e-03, -6.00449648e-03,
       1.60524087e-05, 6.33443240e-03, 4.24348563e-03, -2.87159812e-03,
       7.03184109e-04, -6.18012855e-04, 9.67685424e-04, 9.69062466e-03,
       7.72854313e-03, 3.89054348e-03, 3.28748580e-03, -4.09692293e-03,
       -5.49330795e-03, -7.56108959e-04, -1.63446646e-03,
       -3.80564202e-03, -2.24493415e-04, 3.35623859e-04, -6.62782881e-03,
       -5.70124248e-03, -4.86983731e-03, -5.57825807e-03, 9.05189663e-03,
       1.14656484e-03, -3.57587822e-03, -4.53390926e-03, -7.08449446e-03,
       -9.69975954e-04, 7.09144806e-04, -4.52825241e-03, -1.84068398e-04,
       9.74098861e-04, 3.80436308e-04, 3.45961703e-03, 5.86964516e-03,
       2.10156501e-03, -2.57491181e-03, -4.58510034e-03, 2.19802465e-03,
       8.92262848e-04, 3.43473884e-03, 5.05841710e-03, 2.87034665e-03,
       3.49206850e-03, -5.60070341e-03, 2.87188712e-04, -3.89228575e-03,
       1.62265403e-03, -1.00170344e-03, 5.78353042e-03, 1.06779370e-03,
       -1.24040307e-05, -2.72002933e-03, -1.09959592e-03,
       -9.47238994e-04, 4.38058376e-03, -5.50524914e-04, -2.64556403e-03,
       4.72557062e-04, -6.13044249e-03, 1.98669033e-03, 1.28113118e-03,
       8.87677597e-04, 3.04514705e-03, -4.10081493e-03, -5.07327355e-03,
       1.40516646e-03, -4.91110515e-03, -2.47565564e-03, -1.98781933e-03,
       1.00498798e-03, -7.72702799e-04, 2.93411058e-03, 1.69355085e-03,
       1.03124767e-04, -1.67787599e-03, -1.55358762e-03, -2.21369439e-03,
       -9.37276520e-04, 2.92241061e-03, -1.06802466e-03, 6.16808422e-04,
       -1.02064968e-03, -3.71688139e-03, -5.21275040e-04,
       -5.88857401e-05, -5.50889736e-03, 1.19300419e-03, -5.86654525e-04,
       7.46695790e-03, 5.50215226e-03, -8.53889901e-03, -3.61648714e-03,
       2.81704497e-03, 1.48460257e-03, 5.03189210e-03, 2.37819646e-03,
       -4.44382476e-03, 5.47430012e-03, 1.96410739e-03, -1.91255810e-03,
       -1.61029820e-05, -5.05347643e-03, 1.53209025e-03, 1.61365443e-03,
       3.17453686e-03, -4.23405645e-03, 1.78592978e-03, 3.62665043e-03,
       1.59515161e-03, -1.46677275e-03, 9.77691612e-04, 1.72532944e-03,
       1.03617357e-02, 5.12766605e-03, -2.75893835e-03, 4.04469157e-03,
       6.37346739e-03, 4.59124800e-03, -1.07753696e-03, 1.54711213e-03,
       4.01432626e-03, 7.96845648e-03, 5.98158175e-03, 6.13706186e-03,
       2.02335347e-03, 4.06955252e-04, -3.23696784e-03, 1.71608769e-03,
       -2.48836610e-03, -1.38876625e-04, -1.28329743e-03, 1.50261878e-03,
       8.41542054e-03, -5.26281260e-03, -5.77147631e-03, -6.31986605e-03,
       -2.54272320e-03, 2.77253636e-03, 3.37180798e-03, 6.86727557e-03,
       7.03386310e-03, 3.39037413e-03, 1.71561039e-03, 3.37644294e-03,
       -7.11089559e-03, 7.65521836e-04, -3.06733791e-03, 7.76881236e-04,
       -3.75708612e-03, 3.74525785e-03, 4.38985880e-04, 5.49259316e-03,
       7.32355809e-04, -3.86255141e-03, 1.21163772e-04, -4.70116641e-03,
       3.35155404e-04, 1.17639673e-03, 4.11878387e-03, 5.10852830e-03,
       1.14024570e-03, -2.57061649e-04, -2.26757792e-03, 7.38489907e-05,
       1.05584157e-03, -1.44634454e-03, 5.37549192e-03, -1.04711158e-03,
       9.78975790e-04, -1.24125439e-03, 5.45184739e-05, 1.45300070e-03,
       1.59458804e-03, 2.35020925e-04, 6.88651809e-04, -2.46305391e-03,
       4.16394323e-03, 3.30838398e-03, -2.66060093e-03, 6.93627493e-03,
       3.86677426e-03, 5.72580891e-03, -6.59301702e-04, -3.76934861e-03,
       5.86843677e-03, 5.44015667e-04, 2.00370536e-03, -4.35436564e-03,
       -3.35787446e-03, 3.56632075e-03, 6.67531276e-03, -5.27663017e-03,
       -4.08805348e-03, 3.97865847e-03, 2.81380140e-03, 3.10870586e-03,
       -2.54724408e-03, -3.55108688e-03, 8.26479663e-05, -3.98254459e-04,
       5.27305005e-04, -9.34711949e-04, 7.97818229e-03, 8.61450026e-05,
       5.52140689e-03, -1.90737250e-03, -5.86029748e-03, -1.58703804e-03,
       -8.68658652e-04, 1.65893303e-04, -5.32283168e-03, 1.88719563e-03,
       7.18226098e-03, 5.34011144e-03, -3.21302796e-03, -9.38498788e-03,
       2.87039904e-03, 1.75548834e-03, 7.12290546e-03, 3.60452873e-03,
       7.75776338e-03, 3.81118443e-04, 2.71679042e-03, 1.01029209e-03,
       -4.98672249e-03, 3.33669735e-03, 2.58117332e-03, 4.88424767e-03,
       4.80895536e-03, 3.29155289e-03, -5.52607002e-03, 1.71829271e-03,
       -3.13804689e-04, -1.89429382e-04, -3.77024198e-03,
       -2.91456655e-03, 4.85683279e-03, 2.51388992e-03, 3.90776992e-03,
       -4.40193200e-03, -2.80966447e-03, 3.09659954e-04, -4.75039193e-03,
       -8.77176970e-03, 2.14513711e-04, 9.26291663e-03, 1.27510605e-02,
       4.08429513e-03, -6.67340495e-03, -5.65994019e-03, 1.13515579e-03,
       2.62445398e-03, 7.06983218e-03, 4.03279118e-04, 1.18722692e-02,
       1.06588183e-02, 3.57127306e-03, 7.13926100e-04, 4.08731494e-03,
       9.15834506e-04, 2.24671396e-03, 4.17744130e-04, -3.64523497e-04,
       4.98058600e-03, 1.65886024e-03, 1.00950133e-02, 3.40584875e-03,
       8.83696694e-03, -4.53878101e-03, -8.03726912e-03, -7.58386403e-03,
       4.39508352e-04, 1.43508334e-03, 1.58001529e-03, 3.89550434e-04,
       1.85294170e-03, 3.01060104e-03, -6.06789859e-03, -6.33491948e-03,
       -4.90614260e-03, -3.21767805e-03, 6.64575200e-04, 4.39449307e-03,
       6.37399079e-03, 7.60107068e-03, 1.04306685e-02, -2.89743720e-03,
       3.58580641e-04, -4.70393384e-03, 5.51787438e-04, 1.50800415e-03,
       -5.62247878e-04, 6.00448996e-03, 8.05238262e-03, 3.93483508e-03,
       4.23638709e-03, -1.18900300e-03, -7.08252238e-03, -4.56310669e-03,
       -2.61167856e-03, -5.91322035e-03, -8.58574174e-03,
       -5.52688958e-03, -6.11886056e-03, -1.06359823e-02,
       -2.87557556e-03, -3.01759434e-03, -8.12451076e-03,
       -3.30462563e-03, -8.69581010e-04, 3.05052497e-03, 4.06884635e-03,
       1.62360165e-03, -4.33264626e-03, 2.76961667e-03, -3.32034950e-04,
       -1.21821687e-02, 1.46225933e-03, -3.21201922e-04, 5.78438956e-03,
       3.83260031e-03, 9.01800406e-04, 8.89920484e-05, -4.14804462e-03,
       -7.02144625e-03, -7.25886645e-03, 1.07139824e-02, 4.89177695e-03,
       1.65120792e-02, 7.51952548e-03, 8.90039653e-03, 1.61417178e-03,
       -8.94824741e-04, 2.08810903e-03, 3.04538175e-03, -3.35796806e-03,
       -2.12486670e-03, 2.41511036e-03, 4.79602162e-03, -1.47809333e-03,
       -9.65468958e-03, 2.40716763e-04, -1.33664161e-03, -4.62259911e-03,
       4.16972907e-03, -4.94942395e-03, -7.56461732e-03, -6.41995168e-04,
       -4.36390750e-03, -1.66378135e-03, 5.35126601e-04, 6.04256708e-03,
       3.53016332e-03, 4.55559883e-03, -3.38650146e-03, -8.30058532e-04,
       -3.57835880e-03, 8.40730965e-04, -5.25246281e-03, 4.38593188e-03,
       1.00652259e-02, 9.98937432e-03, -4.49219160e-03, 5.15289830e-05,
       -5.27010486e-03, 2.59061926e-04, 2.57672917e-04, 2.43211500e-04,
       -2.35568872e-03, 6.37837220e-03, -5.62466856e-04, 2.24058563e-03,
       6.37850631e-03, -5.03247196e-04, 1.35822187e-03, -5.08629531e-03,
       -4.94195661e-03, -3.36648780e-03, 2.63327733e-03, 5.24629606e-03,
       1.16763264e-03, 1.58993481e-03, -4.25538188e-03, 8.04556359e-04,
       -2.00497234e-04, 1.62088312e-03, -7.72322481e-03, -1.06824550e-03,
       2.20948388e-03, -4.50135814e-03, -7.00451015e-03, -3.59283015e-03,
       4.85303300e-03, -6.67023007e-03, -4.75367764e-03, 5.16815227e-04,
       1.15867946e-02, -1.99799286e-03, -5.90037275e-03, -1.06371474e-02,
       -1.42797059e-03, 5.80643071e-03, 2.77310540e-03, 2.86603440e-03,
       -6.46953890e-03, -2.24876683e-03, -6.94137765e-03, 8.40539671e-03,
       -2.55249999e-03, 2.10226793e-03, 6.72039343e-04, 2.22305674e-03,
       3.07869224e-04, -5.11597749e-03, -5.26460214e-03, 9.26116761e-03,
       1.22076226e-02, 3.55061842e-03, 9.61690675e-03, 6.13268465e-03,
       -1.00763969e-03, -1.90945619e-04, -1.95142161e-03,
       -4.36999369e-03, 9.34056193e-03, -7.69747095e-03, -2.21655075e-03,
       7.36745400e-03, 1.40969420e-03, 3.49596492e-03, 2.56178295e-03,
       -5.14175510e-03, -1.75178470e-03, -5.49925910e-03,
       -3.69716063e-03, 2.86516198e-03, 5.82168344e-03, 4.14069189e-04,
       -4.11551725e-03, -1.57211395e-03, -3.61297489e-03, 6.37523783e-03,
       1.09943422e-03, -9.22759864e-05, -5.58236614e-04, 3.00666806e-03,
       2.13344418e-03, -3.70561075e-03, -4.01784666e-03, -4.73142136e-03,
       -4.65322565e-03, 2.40133447e-03, 2.45456281e-03, 4.65535372e-03,
       3.48341162e-03, 2.12700252e-04, 5.11776016e-04, -1.06330297e-03,
       -1.00895455e-02, -6.38792710e-03, 4.39006463e-03, -6.22987794e-03,
       -9.83290607e-04, -3.08541697e-03, -3.59101454e-03, 2.39097420e-03,
       -4.16931137e-03, -2.49045063e-03, 7.76575319e-03, 4.94870590e-03,
       3.31324688e-03, 1.04479572e-04, -2.07629148e-03, -4.20039007e-03,
       -2.10325743e-05, -6.13476941e-03, -3.53111443e-03, 3.46847321e-03,
       3.54185910e-03, 3.46675352e-03, 6.57004630e-03, 8.86939839e-03,
       4.31992067e-03, 1.03462767e-02, 7.56553514e-03, -1.86459266e-03,
       -1.48988189e-03, 2.97426688e-03, -2.41080206e-03, -4.02063690e-03,
       -1.34401408e-03, -2.77252286e-03, -5.51841920e-03, 1.19369035e-03,
       -1.74936175e-03, -1.06686733e-04, -5.37307060e-04, 9.65608098e-03,
       1.18049886e-03, -3.31621640e-03, -2.05573416e-03, 3.12651927e-03,
       -1.27085776e-03, -3.15773301e-03, 3.21695697e-03, 5.64143341e-03,
       2.64546927e-03, -8.25850572e-03, -7.61454785e-03, -9.08635370e-03,
       -3.34218115e-04, 9.64609149e-04, -3.46436561e-03, 1.46771967e-03,
       4.67635429e-04, 2.73277680e-03, -1.62155565e-03, 1.30130281e-03,
       1.34719687e-03, -1.87882734e-03, 5.06696710e-03, -2.39139376e-03,
       -4.32098424e-03, -4.99089062e-03, -3.18946724e-04, 2.24269752e-04,
       -2.48436088e-04, 5.53943508e-04, 6.92349812e-03, 1.48430537e-03,
       5.16857137e-04, -5.57297003e-03, -5.08983247e-03, 5.49579645e-03,
       -5.11005800e-03, -3.78782721e-03, -9.80334808e-05, 7.88830686e-03,
       9.31385253e-03, -6.76593161e-04, 4.02227102e-04, -1.38711883e-03,
       -6.75170403e-03, -3.01734632e-04, 2.95766606e-03, 7.47221569e-03,
       9.82838403e-03, 6.38222508e-03, 2.32265494e-03, -2.68986216e-03,
       -1.54981972e-03, 3.81972641e-03, 2.30274256e-03, 8.03522853e-05,
       -2.61247740e-03, 1.00850211e-02, 1.88086799e-03, -8.54845275e-04,
       -5.86415688e-03, -2.61681015e-03, 2.47385958e-03, 4.81052697e-03,
       -9.29792179e-04, -8.25870782e-03, -1.51624810e-03, 5.62896545e-04,
       3.28113651e-03, -7.58409360e-03, -2.53082928e-03, -3.39559489e-03,
       -1.47348002e-03, 4.93826065e-03, -3.15247825e-03, 6.95097912e-03,
       1.53576524e-03, 1.36663369e-03, -2.66179885e-03, -7.61461270e-04,
       3.56601272e-03, 6.71439711e-03, 4.93892981e-03, -3.07318731e-03,
       -6.82784070e-04, 3.42895905e-03, -1.06496285e-04, -2.81095877e-03,
       -6.67424989e-04, 2.59553693e-04, 4.21354175e-03, 7.58750690e-03,
       -2.10687122e-03, -3.36606079e-03, 1.70929101e-03, 1.09340409e-02,
       1.12547341e-03, -2.13990780e-03, -6.40847441e-03, 3.20050633e-04,
       5.91603667e-03, -5.79290651e-03, -3.75449494e-03, -7.80869229e-03,
       8.51845834e-03, 3.58719891e-03, -4.07487713e-03, 7.23972870e-03,
       1.25007965e-02, 4.85023530e-03, 8.91924184e-03, -7.86671531e-04,
       7.54673267e-03, 1.13100847e-02, 3.98569694e-03, 3.04780947e-03,
       -1.12587039e-03, 8.71516671e-03, 4.95712506e-03, -6.74062467e-04,
       -7.36939663e-04, -4.51503089e-03, 6.92862459e-03, 3.82828759e-03,
       1.47171857e-04, 5.76784601e-04, 1.10524416e-03, 6.18275534e-03,
       -1.93501753e-03, 7.32895266e-03, -6.37244061e-03, 3.15979077e-03,
       4.41071112e-03, -1.69117760e-03, 1.44119526e-03, 6.70849206e-03,
       6.36362284e-03, 3.63419903e-03, 4.25415440e-03, -5.80984913e-03,
       -1.62035483e-03, -5.26213832e-03, -5.39712515e-03, 2.14942521e-03,
       2.86191981e-03, 2.51443568e-03, -7.22003682e-03, 3.10386601e-03,
       -4.21450147e-03, 7.72155356e-03, 9.16543510e-03, 5.15454169e-03,
       1.99137791e-03, 7.54885201e-04, 4.56391834e-03, 1.04108464e-03,
       5.60545968e-03, -5.21073164e-03, 5.80256851e-03, 4.75743413e-03,
       1.50087394e-03, 2.31817830e-03, -1.15732383e-03, 3.61348549e-03,
       4.19202913e-03, 6.30301656e-03, -9.49243642e-03, -7.65558972e-04,
       2.28599599e-03, -2.09420221e-03, 5.56364030e-05, -2.99556204e-03,
       1.84608879e-03, 2.19906005e-03, 8.01143062e-04, -6.73632603e-03,
       5.19044558e-03, 8.47865071e-04, -5.10608591e-03, 9.13725700e-03,
       -6.06957357e-03, -2.09008856e-03, 1.91683811e-03, 1.36657823e-02,
       -5.14662312e-03, 8.34368914e-03, 1.15645416e-02, 9.45683382e-03,
       2.52170581e-03, -6.82363939e-03, 8.42347858e-04, 3.71943484e-03,
       -1.25835315e-04, 1.09644956e-03, 4.56142891e-03, 2.27257237e-03,
       6.22629700e-03, -5.80595806e-03, 1.58628961e-03, 3.30994069e-03,
       4.39420668e-03, 1.46639021e-03, 7.27547158e-04, 1.11432420e-02,
       9.16787051e-03, -4.56740847e-03, -5.22390427e-03, 5.36473189e-03,
       -9.27350484e-05, -8.63129739e-04, -9.70165012e-04,
       -6.57400209e-03, 9.48536303e-03, 1.05251269e-02, -1.36887058e-04,
       1.39473216e-03, 1.94075354e-03, 6.57561328e-03, 9.57456231e-03,
       3.01846507e-04, 4.68895724e-03, 1.92263094e-03, -7.80978589e-04,
       2.02862080e-03, 3.21903359e-03, 2.72448570e-03, 1.55393581e-03,
       2.08536861e-03, 6.09476643e-04, -4.87026107e-03, 1.74655419e-04,
       1.38082367e-04, 1.38119585e-03, -6.48024434e-04, 8.91588442e-03,
       -1.58438997e-04, -1.49356446e-03, 4.47438331e-03, -5.17029455e-03,
       8.15828703e-03, 1.05679929e-02, 2.27016886e-03, -2.90354277e-04,
       8.85658665e-04, 2.66737980e-03, 3.59091046e-03, -3.75189516e-03,
       -6.91935048e-03, 1.18094943e-02, 6.40106434e-03, -5.20602567e-03,
       5.06061455e-03, 7.94150773e-03, 1.05861970e-03, -2.34540808e-03,
       -2.71480792e-04, -6.58432953e-03, 3.13775148e-03, 5.51384129e-03,
       3.94883333e-03, 1.98192988e-03, 1.05694123e-03, 7.09313992e-03,
       2.77618202e-03, 2.32991483e-03, -1.04646590e-02, 2.39912909e-03,
       -2.16306979e-03, -7.72116566e-03, -6.27042027e-04,
       -2.37746933e-03, 7.97087234e-03, 3.36585799e-03, -7.15346134e-04,
       -5.18560829e-03, 2.42598983e-03, 1.66030519e-03, -2.29326612e-03,
       -9.23842564e-03, -3.92910326e-03, 8.10503215e-03, -7.18094129e-03,
       -6.70024846e-03, -1.01256398e-02, -3.28362058e-03, 1.84923457e-03,
       -3.29868315e-04, 4.79799323e-03, 3.92177579e-04, 8.29618145e-03,
       4.23220219e-03, 7.66883604e-03, -4.83665010e-03, -3.39681259e-03,
       -2.89537827e-03, -4.64236969e-03, -6.14241173e-04,
       -3.14714224e-03, 1.00837881e-03, -7.81471375e-04, 6.63425401e-03,
       -7.78253609e-03, -4.19294927e-04, 1.05149962e-03, 3.02140252e-03,
       -1.21802110e-02, -5.29854931e-03, 5.38475253e-03, -2.07804434e-04,
       -5.66196162e-04, -2.79849977e-03, 1.68097625e-03, 3.48109519e-03,
       -6.27786154e-03, -7.40343658e-03, -6.20391220e-04, 3.29035777e-03,
       -1.24121155e-03, -2.55943451e-04, 3.68743844e-04, 3.65568837e-03,
       6.81349589e-03, -1.24606202e-04, -2.43416522e-03, 5.74095815e-04,
       -1.41109910e-03, 1.23500614e-03, 2.14093458e-03, -2.07656552e-03,
       4.72609140e-03, 5.29815024e-03, 3.02485912e-03, 2.71427678e-03,
       7.01277237e-03, -4.67062229e-03, -4.74525103e-03, 5.90899447e-03,
       2.11366406e-03, 7.11456593e-03, 1.12745669e-02, 2.47784751e-03,
       -9.49084852e-03, 1.31025212e-03, 7.97670742e-04, -6.29250240e-03,
       -5.82471769e-03, -5.60183823e-03, -5.73294563e-03,
       -9.70103894e-04, -3.73074785e-03, -5.81608503e-04, 7.10186141e-04,
       2.06741225e-03, 2.83471565e-03, 4.82048793e-03, -1.51970517e-03,
       -1.07183168e-03, -2.57557980e-03, -2.03706208e-03, 1.75704085e-03,
       7.01702992e-03, -3.37678328e-04, -7.99630955e-03, -1.52545620e-03,
       -6.57264027e-04, -1.95069157e-03, 3.59549001e-03, -7.66989822e-03,
       1.24210538e-03, 7.32032908e-03, 1.01776933e-02, 8.74127261e-04,
       3.71045736e-03, 6.11909153e-03, -7.32631073e-04, 2.03557615e-03,
       -2.94959103e-03, 3.62722739e-03, -2.86248187e-03, -1.11809606e-03,
       5.19151613e-03, 3.92043032e-03, -1.45544950e-03, -4.84342128e-03,
       -4.33797576e-03, 5.53018460e-03, 2.46342039e-03, -7.71454768e-03,
       -6.36736513e-04, 2.08591297e-03, -5.09768212e-03, -5.53517696e-03,
       -4.63241944e-03, -2.93318625e-03, 9.34868027e-03, 4.31636116e-04,
       4.60896967e-03, 2.10560672e-03, -5.36611828e-04, 4.30320902e-03,
       -6.88075728e-04, -7.14129582e-03, -6.35662535e-03,
       -2.67812493e-03, -2.96320254e-03, 1.39041455e-03, 7.06916954e-03,
       2.61992263e-03, 1.95038482e-03, -1.11927360e-03, -4.20972193e-03,
       -5.20916795e-03, -1.36473007e-03, 5.34993131e-03, -1.01173352e-02,
       -8.92712176e-03, -5.63493324e-03, -1.32186769e-03, 1.12336164e-03,
       3.87313496e-03, 6.20338926e-03, 1.02581177e-02, -1.30950555e-03,
       -2.24100822e-03, -7.59192696e-03, -5.19648008e-03, 8.78055929e-04,
       5.11116697e-04, 6.59971312e-03, -6.72004477e-04, -1.71869434e-03,
       -3.53381410e-03, -6.76492788e-03, -1.95172289e-03, 3.97616066e-03,
       6.64579310e-03, 8.41026381e-03, -2.03107973e-03, -1.09128118e-03,
       3.23697372e-04, -3.91286844e-03, -4.94451029e-03, -5.05987369e-03,
       1.29841082e-03, 3.01234628e-04, 4.01069503e-03, 4.12312802e-03,
       -9.96474177e-04, -2.42447876e-03, -3.07904184e-03,
       -4.61604213e-05, 1.07430224e-03, 4.59688163e-04, -6.62340922e-03,
       1.30081130e-03, 3.64413881e-03, -2.88415560e-03, -5.38167823e-03,
       -1.61492091e-03, -4.46126971e-04, 6.36389339e-03, -6.87292559e-05,
       -4.72480850e-03, 6.05354365e-03, 2.06779968e-03, 2.99068936e-03,
       8.44854454e-04, -4.46752040e-03, -7.15137459e-04, 4.11173853e-04,
       -1.52099936e-03, -6.23526471e-03, -2.42092588e-04, 3.22800828e-03,
       -1.00224512e-02, -5.90148522e-03, 2.71486002e-04, -2.17355671e-03,
       -2.65884656e-03, 3.18036205e-03, -8.80204316e-04, 6.07865164e-03,
       -3.97996372e-03, -7.49206962e-03, -7.76620756e-04, 9.27768182e-04,
       -1.56181038e-03, -9.13438213e-04, -7.00288627e-04, 2.14586616e-03,
       5.24037797e-03, -1.10097718e-03, 1.02245816e-04, 3.21358442e-03,
       -7.46722275e-04, 3.39156319e-03, -6.63907127e-03, -1.56707026e-03,
       6.18217047e-03, 3.73974280e-03, -3.73722077e-03, 9.04018001e-04,
       3.04729678e-03, 5.19277644e-04, -4.39385884e-03, -4.53150924e-03,
       7.67396181e-04, 4.73968545e-03, 4.37529013e-03, -4.69339872e-03,
       -4.74862242e-03, 1.96177582e-03, 1.85173564e-03, 2.13496177e-03,
       8.05933378e-04, 7.37249793e-04, 1.08311744e-02, 8.70409422e-04,
       -5.89072239e-03, -2.63460400e-03, 9.11172305e-04, 4.13646782e-03,
       4.24436014e-03, -1.60492049e-03, 3.28217470e-03, 3.98729229e-03,
       -2.81597837e-03, -5.56361070e-03, -2.52685812e-03, 4.29750187e-03,
       7.66901439e-03, -1.27930637e-03, 1.87742582e-03, 1.00710406e-03,
       -4.30824747e-03, -3.19968536e-03, -8.49185884e-03,
       -8.93275533e-03, 4.42378549e-03, 8.20659474e-03, 6.07076567e-04,
       -9.71864560e-04, -1.35038944e-03, 6.19638013e-03, -4.24486259e-03,
       -1.03600891e-02, -5.56563027e-03, 3.33453133e-03, 1.18269129e-02,
       -1.08158693e-03, -8.19050241e-04, -2.67306040e-03,
       -3.10301594e-03, 1.21297000e-03, -2.43111886e-03, -1.04054324e-02,
       6.48914743e-03, 6.20243698e-03, -2.87411711e-03, 4.63092094e-03,
       7.21177226e-03, -2.05618143e-03, 2.22359458e-03, -7.89573230e-03,
       -2.46222992e-03, 8.90446827e-03, 3.47984699e-03, -3.30148288e-03,
       4.11575614e-03, -4.43099532e-03, -9.68903862e-03, -2.53421837e-03,
       4.42641031e-05, 7.11765047e-03, 7.31845992e-03, 5.01648104e-03,
       -5.11681894e-03, 2.45374604e-03, -2.11872335e-04, -1.19258882e-03,
       1.84744399e-03, -5.02816215e-03, -7.15621468e-03, 7.10569730e-04,
       1.92693516e-03, -8.91487300e-03, 3.98923689e-03, -5.02135605e-03,
       1.41235971e-04, -6.69018738e-03, -1.39899692e-03, -3.55636398e-03,
       2.23203492e-03, 2.73341686e-03, -2.91153672e-03, -5.30854147e-03,
       -7.90491328e-03, -5.71672758e-03, 3.96000221e-03, 4.72931378e-03,
       4.16057091e-03, -1.40685949e-03, 4.07558167e-03, 3.58375895e-04,
       -6.10186392e-03, 1.83296087e-03, 3.22272000e-03, 4.98727057e-03,
       5.51583990e-03, -2.40409793e-03, -3.24501540e-03, -9.86845989e-05,
       -1.13337785e-02, -6.65062480e-03, -6.15786714e-03, 4.30257432e-03,
       3.89630068e-03, 2.24001938e-03, -1.39549328e-03, -1.18808087e-03,
       -3.73574346e-03, -9.15427972e-03, -6.94950996e-03,
       -4.99115326e-03, 3.63930408e-03, 4.91444813e-03, 1.51642528e-03,
       -3.61281727e-03, -5.98131958e-03, -1.91482634e-03, 1.08001509e-03,
       1.87617750e-03, 1.04013353e-03, 1.17196364e-03, -2.71888217e-03,
       2.35372558e-04, -8.72868299e-03, 1.14751223e-03, -5.64131234e-03,
       -2.02837191e-03, 5.45833400e-03, 7.70414528e-03, 4.90188366e-03,
       5.79418149e-03, -5.75102740e-06, -6.61716238e-03, -3.09381867e-03,
       2.74034333e-03, 6.03401335e-03, 4.36862418e-03, -3.05292546e-03,
       -2.05912441e-03, -4.72914847e-03, -5.62775275e-03,
       -3.80997616e-03, -1.06678926e-04, -6.65123633e-04, 8.65097810e-03,
       8.09449889e-03, 1.20037030e-02, 6.16963347e-03, 7.51590636e-03,
       -4.43233550e-03, -1.08514624e-02, -3.39889666e-03,
       -6.03759615e-03, 2.30862992e-03, 6.43232511e-03, 5.51983435e-03,
       4.88964655e-03, 6.98819896e-03, -2.25373358e-03, -9.30395257e-03,
       -1.17993150e-02, 4.73210961e-03, 3.24413949e-03, 9.72692203e-03,
       8.70015565e-03, 5.66894002e-03, 1.02151488e-03, -4.05477965e-03,
       -2.72504939e-03, -7.24864192e-04, -5.14140166e-03, 2.41742260e-03,
       3.04922159e-03, 7.47880759e-03, 9.29190498e-03, 9.30009410e-03,
       -4.40452853e-03, -1.65518895e-02, -7.45101226e-03,
       -5.67552354e-03, -2.59279681e-04, -4.87074023e-04, 1.19895097e-02,
       5.83924865e-03, 2.81785871e-03, -7.69006833e-03, -8.30765441e-03,
       6.19550759e-04, 4.57125483e-04, -3.07075749e-03, -2.35088193e-03,
       -6.43291837e-03, -3.43733327e-03, -7.07645249e-03, 7.54634431e-03,
       9.45306290e-03, 2.77760741e-03, -6.19703298e-03, -3.52678588e-03,
       -3.23317712e-03, -2.80300691e-03, 3.24371853e-03, -1.67566247e-03,
       7.44256284e-03, 8.15788005e-03, -4.94467793e-03, -5.73669886e-03,
       -5.19772293e-04, -3.91662819e-03, 2.75100302e-03, -2.52336869e-03,
       -3.64648807e-03, -1.07569508e-02, -9.10690811e-04,
       -2.76886788e-03, -5.33542270e-03, 1.46190287e-03, -3.57506005e-03,
       3.35665361e-04, 1.71869295e-03, 9.01302695e-03, 8.67970847e-03,
       6.13328069e-03, -1.01936404e-02, -4.31051524e-03, -5.47452271e-03,
       -2.62490660e-03, 4.37882077e-03, 1.39262280e-04, -3.12773185e-03,
       1.63447915e-03, 4.17241314e-03, -1.92263327e-03, -5.93409920e-03,
       -4.70815273e-03, 1.18631311e-03, 6.41528051e-03, 3.94112198e-03,
       -5.04998781e-04, -9.88878682e-03, -4.43706708e-03,
       -6.43361080e-03, 3.86636332e-03, 6.21142425e-03, 2.40076552e-04,
       -1.48512644e-03, -8.05014279e-03, 1.04231583e-02, 9.71587375e-03,
       9.22790635e-03, -5.17259073e-03, 4.13363613e-03, 7.02019688e-03,
       -1.38373196e-03, -4.89918748e-03, -7.25571578e-03,
       -2.46215519e-03, -1.17447658e-03, 2.20391154e-03, -3.20377760e-03,
       -7.39346771e-03, 1.12386979e-03, 8.06746539e-03, 4.40426217e-03,
       8.58121272e-03, -1.07553718e-03, -4.95166192e-03, -8.43907148e-03,
       -5.85381594e-03, -2.65633431e-03, 2.43227521e-04, 2.18433025e-03,
       -8.71580618e-04, 7.27183791e-03, -6.49845134e-03, 2.30560836e-04,
       7.01160636e-04, -1.77864823e-03, 2.00445694e-03, 3.60219297e-03,
       9.16834164e-04, -7.33492849e-03, -1.06776215e-03, -2.00729631e-03,
       5.11476630e-03, 4.80250129e-03, -2.37404485e-03, 3.45096528e-03,
       4.76200599e-03, 2.28700298e-03, -8.29704478e-03, 3.54709476e-03,
       -4.56296047e-03, 1.73480075e-03, -1.58600952e-03, -2.29081186e-03,
       -1.97869446e-03, 2.08450831e-03, 4.76089597e-04, -8.01582297e-04,
       1.30208842e-02, -2.90805916e-03, -3.59017216e-03, -8.13319872e-04,
       -1.45873439e-03, 9.89613496e-03, 1.94254448e-03, 5.89543488e-04,
       1.91568839e-03, 5.15335333e-03, -3.61485383e-03, -2.14840728e-03,
       1.06895715e-03, -8.21050373e-04, 3.47467279e-03, 7.70001905e-04,
       -2.02844851e-03, -2.67786463e-03, 2.20953277e-03, -4.71810531e-03,
       -2.44361325e-03, -4.24669031e-03, 2.09875405e-03, 1.22208497e-03,
       -3.69795994e-03, -3.87491635e-03, 6.48216170e-04, -6.04916411e-03,
       -5.34573523e-03, -9.59213078e-03, -1.03597706e-02,
       -1.55039260e-03, 9.42305662e-03, 6.15528144e-04, -3.60834994e-03,
       2.43564392e-03, 1.22677034e-03, -5.70607185e-03, -6.61113346e-03,
       2.55752774e-03, 8.91640026e-04, 4.78736416e-04, -4.07728273e-03,
       -1.68303261e-04, -8.78190715e-03, -2.49616941e-03,
       -4.53819335e-03, -2.77666782e-04, 4.17887419e-03, 1.17504899e-03,
       8.78478121e-03, -9.96824703e-04, -5.02065849e-03, -1.84968882e-03,
       -5.48551185e-03, -3.25485854e-03, -2.59749242e-03,
       -5.24243200e-03, 2.18575052e-03, 1.24895258e-03, 1.15429098e-03,
       2.75313715e-03, -1.12469308e-02, -7.11333426e-03, -1.08957561e-02,
       -7.75502529e-03, 4.52976412e-04, 5.87820716e-04, -1.92518439e-03,
       -2.51808087e-03, 2.94005760e-04, -1.94487814e-03, 2.28701462e-03,
       -1.97057007e-03, -6.98654389e-04, 3.62968817e-03, -3.34511441e-03,
       -6.60747848e-03, -7.26877712e-04, 3.77851026e-03, 2.32750410e-03,
       -1.83004735e-03, -5.33764763e-03, 5.50105236e-03, -4.69501218e-04,
       -3.65206436e-03, 3.76020255e-03, 9.94163752e-03, 7.46488292e-03,
       -1.39049487e-03, 2.77438993e-03, -5.81238279e-03, -3.55241122e-03,
       -8.07461853e-04, -6.29803864e-03, -1.27828855e-03, 1.20996935e-02,
       1.85541678e-04, -1.39555149e-03, -1.43144361e-03, -9.04149842e-03,
       7.71839463e-04, 4.72393120e-04, -8.61144625e-03, -6.71569724e-04,
       4.71342402e-03, 8.64247791e-03, 2.78667943e-03, -7.62366282e-04,
       -2.88554071e-03, 4.67007002e-03, -4.42551775e-03, -2.16519437e-03,
       1.28585380e-03, 3.12594417e-03, -2.18435726e-03, 1.81444082e-03,
       -1.13645429e-03, 7.62204640e-03, 5.30652283e-03, -2.31722998e-03,
       -4.00130264e-03, -5.68700081e-04, 1.10438475e-02, 2.96156225e-03,
       -5.48877567e-03, 4.68893023e-03, -3.53249325e-03, 5.63618727e-03,
       1.02023943e-03, -2.53586145e-03, -2.14823941e-03, 8.82461609e-04,
       -5.95285743e-03, 2.90561467e-03, -1.87161402e-03, 8.77428520e-03,
       8.88400152e-03, 4.06839792e-03, 1.48349500e-03, 4.58198087e-03,
       1.20377420e-02, 3.53002409e-03, 9.34080500e-03, 5.52583300e-03,
       5.11289947e-03, 5.05205989e-03, 2.25363858e-03, 1.01287814e-03,
       -8.02132394e-03, 1.32927636e-03, -2.33746064e-03, -2.11076532e-03,
       5.86382113e-03, -3.34568322e-03, -1.47822057e-03, 1.89520814e-03,
       -8.73015914e-03, 5.28052030e-03, 2.70647439e-03, -5.78034110e-03,
       8.92993901e-03, 6.93916250e-03, 1.74738700e-03, 2.93426635e-03,
       1.26103149e-03, 6.31373283e-03, -1.19431857e-02, -3.17322905e-03,
       -1.20159285e-02, -5.99576917e-04, 4.12342371e-03, -5.14755538e-03,
       -1.97889749e-03, -2.40108906e-03, -5.40532451e-03,
       -3.76252877e-03, -2.75989273e-03, -5.73014934e-03,
       -7.44540803e-03, 1.44334957e-02, -2.74321157e-03, 6.36655698e-03,
       8.13772809e-03, 1.12439215e-03, -3.88776278e-03, -5.53837186e-03,
       -2.44631083e-03, 1.73071388e-03, 1.00335116e-02, -4.40521818e-03,
       4.15008701e-03, 4.68916167e-03, 1.33658948e-04, -6.27630204e-03,
       -4.06596903e-03, -6.27660844e-03, -1.91102081e-04, 7.09950598e-03,
       1.53636746e-03, 2.76736147e-03, 4.38259682e-03, 7.56198016e-04,
       -1.82666932e-03, -2.48717167e-03, -2.44880933e-03,
       -1.07194425e-03, 1.10688331e-02, -5.14990091e-03, 1.68481132e-03,
       -1.27599237e-03, -1.42852764e-03, 2.22895807e-03, 5.05875563e-04,
       -3.10185365e-03, 8.11738020e-04, 5.89168770e-03, -2.01915181e-03,
       2.23321863e-03, 7.19615212e-03, 1.29658333e-03, 4.01976798e-03,
       -6.01798575e-03, -6.00866554e-03, 2.94708833e-03, -4.46785428e-03,
       -4.96507669e-03, -7.38938292e-03, -9.12627554e-04, 2.34568259e-03,
       4.23118845e-03, 6.97442424e-03, 9.45159048e-03, 5.59474807e-03,
       2.12447788e-03, -7.99790490e-04, 4.66496870e-03, 7.54584884e-03,
       7.01912306e-03, -1.13434007e-03, 1.83557824e-03, 5.86442696e-03,
       1.45210875e-02, 6.26757042e-03, 7.08553358e-04, 4.00706846e-03,
       4.52630688e-03, -1.03645993e-03, -2.14636396e-03, -4.45937272e-03,
       -2.03141174e-03, 6.93929475e-03, -2.67960364e-03, 2.15779780e-03,
       -3.52453999e-03, -5.73967700e-04, 1.06250937e-03, -1.16607733e-03,
       -3.44036845e-03, -5.77019935e-04, -4.65308875e-03,
       -9.27442964e-03, -2.42302055e-03, -1.72479812e-03,
       -3.74111463e-04, -4.62003052e-03, 3.81213526e-04, -1.12396816e-03,
       5.41582610e-03, 1.47988601e-02, 1.13499109e-02, 7.78231118e-03,
       5.67898853e-03, 2.64551654e-03, 1.65304670e-03, -1.59422029e-03,
       1.01413846e-03, 6.87001972e-03, -2.31057545e-03, 1.60861900e-03,
       -8.57900537e-04, 3.57845984e-03, 8.64299800e-05, -5.55431144e-03,
       3.75292567e-03, 6.44827820e-03, 1.96869951e-03, -6.78565260e-03,
       -6.05298486e-03, -4.16766014e-03, 2.86199269e-03, 3.22691444e-03,
       -1.48785545e-03, -2.70243338e-03, -2.09318078e-03, 2.40776245e-03,
       2.15219986e-03, 3.54415039e-03, -7.40941940e-03, -1.60666904e-03,
       -2.05956073e-03, -7.95772299e-03, 1.31002651e-03, 2.10241252e-03,
       5.32965874e-03, -1.71130372e-03, 2.25338340e-03, -6.90116431e-04,
       1.24230543e-02, 5.82013465e-03, 1.00321586e-05, 1.19429233e-03,
       -6.65819226e-03, 6.61289436e-04, 4.85357223e-03, 1.78806877e-04,
       -2.71198945e-03, 8.32092389e-03, -3.80969653e-03, 5.90742845e-03,
       -2.81969714e-03, -7.95413833e-03, 3.21962812e-04, 6.63613435e-04,
       5.76961692e-03, -4.54453146e-03, -9.25000943e-03, -7.21992459e-03,
       -3.69907683e-03, 1.61457784e-03, -2.79202219e-03, 1.93881366e-04,
       -1.21128710e-03, 3.74745671e-03, -5.92050422e-03, -4.37349314e-03,
       -4.11876291e-03, 2.33715726e-03, 3.90503975e-03, -6.63295109e-03,
       4.80013667e-03, 6.85896445e-03, 4.23727930e-03, -3.40139400e-03,
       -3.83265666e-03, -5.26838005e-03, 8.38816818e-03, 8.34494072e-04,
       3.90207605e-03, 1.50959119e-02, 4.07959055e-03, 5.62476506e-03,
       -4.24705865e-03, -3.01688374e-03, -2.35168240e-03,
       -9.09925788e-04, 1.94903332e-04, 3.71504505e-03, -1.37136271e-03,
       -4.29310743e-03, -3.85821681e-04, -4.47633211e-03,
       -5.31218539e-04, -9.76182229e-04, 2.97753164e-03, 8.97995953e-04,
       2.07552034e-03, -7.10111996e-03, -5.00290003e-03, 1.30118846e-04,
       -3.30958096e-03, 9.55765042e-03, 6.69397926e-03, 1.87376875e-03,
       -6.57799141e-03, -1.98076991e-03, 4.63040080e-03, -1.86376518e-03,
       8.75763409e-03, -2.27862597e-03, 2.97988125e-04, 9.29961796e-04,
       -3.11030704e-03, -5.40359970e-03, -5.84473228e-03, 4.74883569e-03,
       -1.74767012e-03, -3.19827674e-03, -4.46579978e-03, 1.34654706e-02,
       4.43066843e-03, 7.60211668e-04, -3.20069911e-03, 1.94831123e-03,
       -1.20762351e-03, -9.99565120e-04, -8.13006656e-04, 7.38843402e-04,
       2.47915811e-03, 5.22508705e-03, -4.53305664e-03, -7.49102468e-03,
       4.13273083e-04, 3.31396586e-03, 5.59800537e-04, -2.43990077e-03,
       8.04795069e-04, 4.26376268e-04, -1.21564197e-03, -1.66222884e-03,
       -4.49927198e-03, -6.38395362e-03, 4.23132628e-03, 3.23100528e-03,
       -5.14707528e-03, 1.54663727e-03, 7.69504067e-03, -5.95457328e-04,
       5.68659343e-05, 2.24415166e-03, 3.39413388e-03, 4.63780155e-03,
       3.34315747e-03, -7.53535843e-03, -4.10062354e-03, 3.06174741e-03,
       1.34236943e-05, 6.00818964e-03, -3.31266946e-03, 3.98524338e-03,
       -2.43679341e-03, -7.09207775e-03, -1.98187050e-03, 1.62755896e-03,
       -4.13788669e-03, -5.04628988e-03, -2.45589967e-04,
       -4.03576763e-03, 3.63512058e-03, 1.20020518e-03, 4.81137286e-05,
       1.44923129e-03, 4.86240583e-03, -2.10302742e-03, -6.77648699e-03,
       -2.61077913e-03, -8.15504871e-04, 3.63423419e-03, 1.69170392e-03,
       -5.84256253e-04, -9.51595232e-03, -1.96496653e-03,
       -1.33331341e-04, -8.44404753e-03, 6.88480970e-04, -2.36521388e-04,
       4.82876785e-03, 3.72637995e-03, 7.34842103e-03, 8.42172094e-03,
       1.16428360e-02, -1.61407865e-03, -1.13637988e-02, 1.48454192e-03,
       -2.59732036e-03, 1.38471252e-04, 8.94344877e-04, 5.55491913e-03,
       9.13453288e-03, 1.19092893e-02, -6.92771841e-03, -4.90821060e-03,
       -4.16648667e-03, -2.11131107e-03, -1.55662201e-04, 5.56270883e-04,
       3.44684487e-03, -1.81717065e-03, 3.59356636e-03, -8.15624278e-03,
       -4.62125987e-03, -7.58468080e-03, -1.03071914e-03, 1.89181382e-03,
       1.00316422e-03, 5.47154946e-03, 9.44833178e-03, 1.16296839e-02,
       -4.43102187e-03, -4.81648650e-03, -4.00741259e-03,
       -2.05000094e-03, -8.03265139e-04, -4.26494842e-03,
       -2.91096908e-03, -2.58756639e-03, 2.97901430e-03, -7.60036008e-03,
       -9.12348181e-03, -8.48622620e-03, -7.00074481e-04, 1.19672448e-03,
       -2.74010526e-04, -6.16796268e-03, -1.30110485e-02, 2.89557618e-03,
       1.91120547e-03, -6.87272009e-03, -6.41194824e-03, -3.06700100e-03,
       -6.94630714e-03, -1.98305096e-03, 1.44955120e-04, -4.37829457e-03,
       -2.32272778e-05, 1.36935199e-03, -2.19334848e-03, -9.12257005e-04,
       1.68654684e-03, -1.31143013e-03, -3.66419583e-04, -4.25230246e-03,
       -1.21945962e-02, -2.04479718e-03, 8.66049959e-04, -3.71509290e-04,
       -1.78109633e-03, -3.89548251e-03, -7.50301452e-03,
       -2.89523718e-03, 1.18296586e-04, -5.68666169e-03, 1.60518556e-03,
       1.55530602e-03, -1.78982504e-03, -1.30116730e-03, -1.11732772e-03,
       -4.70902491e-03, -3.85777629e-03, 2.01921677e-03, 1.31655450e-03,
       -7.90654682e-04, 1.23560487e-04, -2.63137138e-03, 4.74237325e-03,
       -1.28595682e-03, -3.74764414e-03, 3.40456469e-03, 1.65916851e-03,
       9.99686541e-04, -2.02218117e-03, -2.24659918e-03, 2.64423480e-03,
       1.08024450e-02, -1.39654067e-03, -5.78306895e-03, -2.56884634e-03,
       6.71212561e-03, 4.56968555e-03, -4.00011428e-03, -2.01642932e-03,
       -2.69701798e-03, 5.02426738e-05, -2.98219104e-03, -8.66104383e-03,
       -9.47070774e-04, 1.57135061e-03, -2.58011115e-03, -3.22941318e-03,
       -4.58242558e-03, 8.91262724e-04, 3.70349921e-03, 7.30942236e-03,
       2.17239038e-04, 1.95069646e-03, 4.55705158e-04, -1.77272863e-03,
       -3.48684681e-03, -4.86659585e-03, 1.65935291e-03, 9.24731139e-03,
       1.46731203e-02, -4.01305035e-04, -2.76228180e-04, -3.65436845e-03,
       -2.52150148e-05, 7.31618330e-03, 2.29848363e-03, -4.76836867e-04,
       6.39536884e-03, -1.05989107e-04, -1.06115798e-02, -1.64704619e-03,
       -2.23033573e-03, -4.48364392e-03, -8.21236800e-03,
       -1.27985924e-02, 1.67994958e-03, 4.92148800e-03, 1.90303475e-03,
       -8.59164447e-03, 3.69433896e-03, -3.93060414e-04, -8.59165471e-03,
       -6.24181004e-03, -3.44656757e-03, -1.83078717e-03, 3.88387102e-03,
       2.18074396e-03, -2.16374421e-04, -8.88917421e-04, -6.27365604e-04,
       -8.52364348e-04, 6.98097283e-03, -1.59733137e-03, -4.20428300e-03,
       -2.79664272e-03, -2.03014049e-03, -4.30370122e-03, 1.01163879e-03,
       -5.97099890e-04, 2.34192656e-03, -2.68442766e-03, 4.14837123e-04,
       -5.48796263e-03, -4.52054664e-03, 7.17370829e-04, -5.79864811e-03,
       -7.06307311e-03, -6.47667737e-04, -7.05175614e-03, 1.02529977e-03,
       -9.06222966e-04, -8.63722176e-04, 5.55764651e-04, 3.99613334e-03,
       2.99044023e-03, -2.74647085e-04, -4.65279119e-03, -2.76531093e-03,
       -3.04566813e-03, 6.81967847e-03, 4.87397006e-03, 8.43757589e-04,
       -6.85613719e-04, -5.74634271e-03, -4.36984876e-04,
       -2.17098906e-03, -7.45581710e-05, 8.49779404e-04, 3.77623452e-04,
       -3.45921051e-03, -3.37160262e-03, -1.96352974e-03,
       -4.49772459e-03, 9.16605582e-04, -3.79372179e-03, -3.74910864e-03,
       -1.70147605e-03, 3.82755883e-03, -2.78862892e-03, -3.47247534e-03,
       6.07977528e-03, -2.03722040e-03, 1.46654400e-03, -3.34193092e-03,
       -8.08378961e-03, 2.61739758e-03, 6.34029601e-03, 6.60607731e-03,
       3.92785436e-03, 3.34057794e-03, -6.29069807e-04, 3.49994237e-03,
       -2.84459116e-03, -1.17205651e-02, -1.31556729e-03,
       -2.60764780e-03, -4.99049388e-03, -6.39640202e-04, 2.91149947e-04,
       2.38910411e-03, -1.36458338e-03, -4.79446258e-03, -5.78646967e-03,
       -6.82624616e-03, -2.01360602e-03, -3.31088807e-03,
       -4.79811570e-03, 9.32935334e-04, 9.08185262e-04, -2.41343351e-03,
       4.10930114e-03, 5.07754798e-04, 2.84132152e-03, -3.20000434e-03,
       -2.11752881e-03, -8.17353651e-03, -1.66706264e-03, 1.03254488e-03,
       3.29411938e-03, -3.07047344e-03, -1.27126009e-03, -8.15120526e-03,
       -4.34564613e-03, -1.33705130e-02, -4.92084865e-03, 8.40786286e-03,
       1.44918519e-03, -3.35993920e-03, -2.58080638e-03, -2.84383190e-03,
       -1.01180944e-04, 5.25366934e-03, 3.95510858e-03, 4.75920364e-03,
       -1.40002836e-03, -3.59955616e-03, -5.93450572e-03,
       -1.29904627e-04, 7.83683825e-03, 2.05797632e-03, -2.60546640e-03,
       -1.00595346e-02, -5.81172761e-03, 5.42300462e-04, -1.71291782e-03,
       -7.06566218e-03, 1.74408522e-03, 7.91118387e-03, -1.45753182e-03,
       -7.83841312e-03, -8.77915230e-03, -6.97847223e-04, 2.33374769e-03,
       -1.68264040e-03, -6.95098285e-03, -3.72595177e-03, 7.26209814e-03,
       -2.25836318e-03, 5.20172482e-03, 4.88451496e-03, 1.35984283e-03,
       5.20648900e-04, -1.56191981e-03, -6.19406346e-03, 4.78690723e-03,
       1.22684555e-03, -3.63235304e-04, 3.44761764e-03, 1.03078864e-03,
       2.46742670e-03, -5.35315892e-04, 3.18327860e-04, -2.60194694e-03,
       9.49880574e-04, 6.78578718e-03, -8.58071871e-05, -8.47556163e-03,
       -1.13646081e-03, -2.38274294e-03, -1.72212301e-03, 2.28339038e-03,
       -2.72646756e-03, -7.18140276e-03, 2.54452880e-03, 4.56424430e-03,
       6.57669641e-03, 7.80053670e-03, -5.47207566e-03, 5.42170089e-03,
       1.08368450e-03, 4.71748703e-04, 4.13170131e-03, -3.91459186e-03,
       -1.75503525e-03, -1.63066434e-03, -2.83275568e-03, 4.26913146e-03,
       2.12629791e-03, 2.32379255e-03, 5.18577779e-03, -8.80529266e-03,
       -5.56915672e-03, -7.33262720e-03, 2.64045247e-03, 3.07682203e-03,
       1.03362580e-03, 3.56610096e-03, 3.04782460e-03, -1.71132968e-03,
       -5.86765353e-03, -7.85982888e-03, 4.68519982e-03, 8.76951776e-03,
       3.27412388e-03, -7.09480420e-03, 8.11128970e-03, 5.85670350e-03,
       -1.34266343e-03, -1.01517336e-02, -8.20363685e-03, 1.42228114e-03,
       3.74211697e-03, 3.31321207e-04, -2.30608531e-03, 4.24056826e-03,
       4.35476284e-03, 4.34282003e-03, -6.61501149e-03, -1.09770671e-02,
       -4.45668586e-03, 1.13804732e-03, 1.82319561e-03, 1.28889178e-05,
       -1.78512171e-04, 1.87544525e-03, -4.89129685e-03, -1.32305361e-02,
       -4.72252344e-04, 2.40563205e-03, 3.71385645e-03, -6.36263378e-03,
       -4.48210491e-03, 7.20483577e-03, 9.78314970e-03, 4.33233147e-03,
       -8.38424731e-03, -3.70459654e-03, 6.39097707e-05, 6.99328026e-03,
       4.60440875e-04, -4.50084265e-03, 3.51575459e-03, 1.50294090e-03,
       5.70730353e-03, -6.43349998e-03, 6.00130670e-03, 2.16216667e-05,
       -1.48112152e-03, -8.33447371e-03, -6.35995809e-03,
       -4.20437253e-04, 2.22579972e-03, -2.21429160e-03, -1.07290037e-02,
       2.45860429e-03, 5.37738949e-03, 2.97146454e-03, -4.56732372e-03,
       -1.34144429e-04, -2.68625282e-03, -2.69300700e-03, 2.41461862e-03,
       -2.97657447e-03, 3.79760913e-03, 5.08030504e-03, 1.14934472e-03,
       -1.73927937e-02, -6.65764417e-03, 4.99991560e-03, 1.21250021e-04,
       8.38498771e-03, 4.87188483e-03, 7.67313037e-03, -2.71401484e-03,
       -2.73575983e-03, -8.54894985e-03, -4.37531900e-03, 2.26047821e-03,
       -2.62054335e-03, 4.10592230e-03, 2.73531000e-03, 1.95583445e-03,
       4.31830413e-04, -2.25583743e-03, -6.73635397e-03, -1.92291714e-04,
       -1.07649912e-03, -3.88152688e-03, 6.32776646e-03, 2.44682888e-03,
       4.48115729e-03, -2.79421383e-03, -2.25869520e-03, -1.37076536e-02,
       -9.30765551e-03, -2.38143420e-03, -7.01548997e-04, 2.33076513e-03,
       -2.78122861e-05, -1.72347354e-03, 4.50791884e-03, -9.82370111e-04,
       -7.20050605e-03, 2.29262048e-04, 9.09491722e-03, -1.86396413e-03,
       -2.20062700e-03, -6.81471080e-04, -1.85447920e-03,
       -1.96827576e-03, -4.01424157e-04, -6.52335957e-03, 2.79130018e-03,
       1.30937267e-02, 4.71473765e-03, 2.88827228e-03, -7.50532141e-03,
       -1.98666262e-03, -8.75659753e-03, -7.10094627e-03,
       -4.42727143e-03, 1.17804250e-02, 9.26417112e-03, 5.13251591e-03,
       7.51468353e-03, 2.27151997e-03, 4.42334916e-03, 2.12936802e-03,
       6.33162539e-03, -9.79820848e-04, 9.25552007e-03, 3.45105724e-03,
       -2.34951917e-03, 3.85893136e-03, -3.70060722e-03, 6.70633791e-03,
       -4.57620434e-03, -4.17640898e-04, -9.05463565e-03, 1.20462105e-03,
       1.51617937e-02, 1.24543943e-02, 4.60866187e-03, -2.50422233e-03,
       -2.63842964e-03, -3.75508401e-03, -3.75663908e-03, 1.69158739e-03,
       1.09493611e-02, 6.39350293e-03, 9.96149518e-03, -1.53639668e-03,
       -5.70238288e-03, -3.66894971e-03, -6.83870958e-03,
       -2.16244394e-03, 9.14193632e-04, 3.73426033e-03, 5.64691192e-03,
       3.18997004e-03, -1.47527433e-03, -6.12480845e-03, 2.53907102e-03,
       2.42677008e-04, 2.90055480e-03, 2.54387665e-03, 5.45512466e-03,
       3.54108983e-03, 5.56685403e-03, 3.86695057e-04, -1.08816540e-02,
       -9.49534122e-03, -6.12894073e-03, -6.41063042e-03, 1.29687169e-03,
       -2.16388702e-03, -1.37732961e-04, 6.36539003e-03, 2.59757071e-04,
       -5.06695220e-03, 3.91560327e-03, -5.69811207e-04, -3.80458683e-03,
       5.93281176e-04, 2.26332690e-03, 3.12539120e-03, -3.05035501e-03,
       -4.40091826e-03, 7.04377657e-04, 8.30871891e-03, 1.04146041e-02,
       3.10671655e-03, 9.98501852e-03, 1.16663771e-02, 7.76697183e-04,
       3.78734898e-03, 4.10130434e-03, -4.81166318e-03, -1.62525347e-03,
       -3.49593419e-03, -8.84202216e-03, -1.61211821e-03,
       -3.21393972e-03, -2.22467119e-04, 1.31608243e-03, -8.46675481e-04,
       4.65070130e-03, 3.47643462e-03, 5.64829074e-03, -3.57014919e-03,
       4.96956706e-03, 1.54055597e-04, 3.53621994e-03, -9.01235733e-03,
       -1.13770450e-02, 2.01336085e-03, 4.17745765e-03, -7.80336908e-04,
       1.51915592e-03, 6.23956975e-03, 8.63055233e-03, -5.09739108e-03,
       -3.50062340e-03, -8.51981994e-03, -4.02949797e-03, 4.32202331e-04,
       -7.01411441e-03, 5.07244701e-03, 7.07917439e-04, 1.30566896e-03,
       -1.64680625e-03, -2.15637940e-03, 1.66503945e-03, 2.81768362e-03,
       6.29350543e-03, -3.93669028e-03, -5.04994998e-04, 2.26870575e-03,
       -6.89047214e-04, -6.19581260e-05, 1.98513269e-03, 6.94670761e-03,
       -5.64979436e-03, -8.42961576e-03, -8.96892324e-03, 9.39882768e-04,
       1.92019762e-03, 1.25392119e-03, -6.93521928e-03, -5.75904269e-03,
       -3.29921278e-03, -2.37178104e-03, -2.34317407e-03,
       -4.37491294e-03, -1.10072596e-03, 2.08948646e-03, -1.53068348e-03,
       -6.71977468e-04, -4.95863380e-03, -6.58819685e-03,
       -7.39732105e-03, -9.93830990e-03, -8.22656415e-03, 2.18889691e-04,
       1.89057481e-03, 7.47996441e-04, 4.93353978e-03, 2.72261701e-03,
       7.60963326e-03, -4.21856809e-03, -1.29821869e-02, -7.39976438e-03,
       -4.87734703e-03, 1.23172533e-03, 6.79932581e-03, 3.86365689e-03,
       1.25992101e-05, 6.51512109e-03, -9.85177583e-04, -1.45211387e-02,
       -5.98096428e-03, -1.41263125e-03, 2.25842907e-03, 5.71539532e-03,
       3.99318669e-04, 6.43407460e-03, 4.60871635e-03, 7.20196730e-03,
       1.28883624e-03, -1.71324902e-03, 5.49013261e-03, 9.99303069e-03,
       8.95070261e-04, 1.08971144e-03, -5.12146624e-04, 1.26527296e-03,
       1.10193919e-02, 4.55890608e-04, -1.63126225e-03, 5.03165228e-03,
       6.66769501e-03, -3.45736463e-03, 1.36078021e-03, 5.80696249e-03,
       5.33783482e-03, 5.05618926e-04, -4.47439350e-04, -7.96113536e-03,
       -1.78158458e-03, 6.36349432e-03, 2.54519796e-03, 2.86062888e-04,
       -4.39699786e-03, -4.33340948e-03, -1.18071295e-03,
       -9.83292609e-03, -1.08485781e-02, -4.31307964e-03, 4.97556815e-04,
       -3.48489062e-04, 1.85199431e-03, 3.11410608e-04, 4.67555644e-03,
       1.23320268e-02, 1.36111835e-02, 7.09363073e-03, 4.10053693e-03,
       9.15490964e-04, -3.29519715e-03, -2.12043803e-03, -1.24489481e-03,
       1.76976051e-03, -2.63103889e-03, -3.26695084e-03, -6.58587262e-04,
       5.39785670e-03, 2.00910773e-03, -1.03428727e-03, 1.84844586e-03,
       -3.48578417e-03, 4.89736558e-04, 3.86846322e-03, 3.13121639e-03,
       -1.56348152e-03, -1.26652396e-03, 8.14302708e-04, 1.26319088e-03,
       -3.98806063e-03, -4.57178056e-03, -3.41674895e-03,
       -1.12155657e-02, -7.74180982e-03, -3.85135342e-03, 5.70590468e-03,
       8.64607189e-03, 1.17259577e-03, -2.04025549e-04, 2.40429281e-03,
       1.02313794e-03, 1.33644906e-03, -6.62524998e-03, -1.64886296e-03,
       5.84524497e-03, 3.76801728e-03, 3.06876726e-04, -1.42999430e-04,
       -3.24140047e-03, -3.37571814e-03, 8.38366151e-03, -4.94795758e-03,
       4.09552653e-04, 4.01194161e-03, -2.61580199e-03, 2.38765241e-03,
       3.38767027e-03, 3.52192018e-03, 2.74062087e-03, -2.15121219e-03,
       -5.78841777e-04, -1.28429310e-04, 6.46956544e-03, 1.30978236e-02,
       8.09625536e-03, -1.36699498e-04, 1.42646162e-03, 1.80475553e-03,
       7.12081511e-03, 6.44130539e-03, 4.78603644e-03, 2.57330900e-03,
       -4.25838446e-03, -4.96800232e-04, 6.97374810e-03, -1.24122936e-03,
       6.65780623e-03, 1.10772001e-02, 2.90480303e-03, -1.64683058e-03,
       -5.54340985e-03, -1.71959668e-03, 6.04635710e-03, 8.95706937e-04,
       -2.07976741e-03, 6.91150036e-03, 2.86990684e-03, 5.04030054e-03,
       1.41437456e-03, -3.57628771e-04, -5.79988584e-03, -2.97783903e-04,
       2.95445044e-03, -3.20928358e-03, 4.28232271e-03, 7.88733736e-03,
       4.16895840e-03, 6.15065824e-03, 2.28463160e-03, -3.73887038e-03,
       2.03886317e-04, 2.26483200e-04, -3.28051974e-03, 4.19900008e-03,
       5.91548672e-03, 7.15398137e-03, 5.65040950e-03, 8.04669317e-03,
       -3.77615122e-03, -4.14961809e-03, -2.65254010e-03,
       -6.33150758e-03, 2.39402492e-04, -1.84906356e-03, 1.33431926e-02,
       2.04101182e-03, -4.10659763e-04, -9.70464665e-04, -3.97523493e-03,
       -7.50734645e-04, -4.56628110e-03, 4.07712674e-03, -7.75036402e-04,
       8.97423457e-03, 1.23899709e-03, 8.30968004e-03, 3.03161517e-03,
       2.44575250e-03, -2.00066529e-03, -1.71216484e-03, 2.59874645e-03,
       2.06468836e-03, 4.93745878e-03, 2.07533198e-03, 3.99688492e-03,
       -7.46220304e-03, -3.29948938e-03, 2.99108122e-03, 2.25620437e-03,
       5.48186386e-03, 1.13673450e-03, 1.00654615e-02, -2.07669614e-03,
       6.27690228e-03, -3.60942562e-03, 9.58580407e-04, -2.70852819e-03,
       -2.82195932e-03, 3.61182773e-03, 3.85006773e-03, -1.93093391e-03,
       5.81369037e-04, 7.73963868e-04, -1.50252704e-03, 1.56510761e-03,
       1.79966341e-03, -4.22023237e-04, 2.07916150e-04, 4.75520454e-03,
       -5.95052866e-03, 2.13897158e-03, 8.59593973e-03, -1.14356994e-03,
       5.89842116e-03, -5.83980465e-03, -1.87001409e-04, 3.03907343e-03,
       2.94176070e-03, -2.76957609e-04, -4.02863184e-03, 2.84728245e-03,
       2.18686531e-03, -3.33609642e-04, -1.23720523e-02, -2.80578481e-03,
       3.19728744e-03, -1.21331390e-03, -5.04320895e-04, 3.01433424e-03,
       7.88182020e-03, 5.28057292e-03, -7.91358668e-03, 5.73200220e-03,
       -1.87066826e-03, -1.17203442e-03, 5.57541987e-03, 1.93194847e-03,
       7.20862672e-03, 1.08955959e-02, -5.61135728e-03, 4.29238472e-03,
       6.61353231e-04, -6.02158811e-03, 4.78072703e-04, 6.23203628e-03,
       5.96120907e-03, 1.22146737e-02, 8.81988963e-04, -9.07913782e-03,
       5.05248737e-03, -6.55723549e-03, -5.89254266e-03, -1.53197709e-03,
       3.93802766e-03, 2.63355440e-03, 8.77690315e-03, 3.83654470e-03,
       -2.82286806e-03, -6.83287485e-03, 2.15943693e-03, -6.60496484e-03,
       -3.60302581e-03, 4.02794033e-03, -1.65427092e-03, 5.62559208e-03,
       -2.18227995e-03, -7.59838056e-03, -6.50263904e-03,
       -2.99051637e-03, -1.42622774e-03, 1.01486524e-03, 5.75228827e-03,
       1.37089426e-02, 8.43047164e-03, 3.82171071e-04, -2.74230912e-03,
       -1.95116235e-03, 2.12406216e-04, -1.77900516e-03, 1.98681466e-03,
       -7.32480083e-04, 9.00971610e-03, 3.50416685e-03, 1.72723341e-03,
       -3.76731111e-03, -2.97606434e-03, -5.22075788e-05,
       -6.22708304e-03, -2.49850401e-03, 1.47027394e-03, 3.65452492e-03,
       -4.70683863e-03, -1.02814017e-02, -5.86179597e-03,
       -8.43005534e-03, 1.66273769e-03, -8.75647893e-05, 5.98458061e-03,
       2.91270157e-03, 5.28071774e-03, -5.59578370e-03, -7.67325982e-04,
       -2.35291803e-03, -6.61763083e-03, 3.37116211e-03, -1.37556999e-04,
       4.05157031e-03, -2.50564143e-03, 6.46233151e-04, -2.56228051e-03,
       -1.34112698e-03, -2.01083906e-03, -2.87783635e-03,
       -1.19183527e-03, -4.55587311e-03, 3.25129204e-03, 2.13843398e-03,
       1.53869379e-03, 2.28450052e-03, 1.98518872e-04, -8.18126777e-04,
       -1.16053631e-03, 1.32279447e-03, -4.71702497e-03, 1.93194812e-03,
       9.57886921e-04, -2.03288670e-04, -7.44415866e-03, 2.15164083e-03,
       2.40031304e-03, -2.48992955e-03, 5.94749814e-03, -6.32892409e-03,
       5.04706695e-04, -1.47471321e-03, 2.17031408e-03, -2.99935276e-03,
       9.83540900e-04, 1.35958497e-03, 5.02418587e-03, -2.10341741e-03,
       -4.27302672e-03, -3.81525111e-04, 5.97338052e-03, 9.82806366e-03,
       6.84797240e-04, -1.37925977e-04, -3.57145327e-03, -3.08368145e-03,
       -3.46620032e-03, -4.66850027e-03, 1.82445801e-03, 2.00687419e-03,
       5.22957090e-03, -9.07023321e-04, -3.46184289e-03, -1.16323284e-03,
       -2.41062697e-03, -6.79548466e-05, -3.43323848e-03, 3.96417920e-03,
       4.04504873e-03, 8.24937131e-03, 1.39874697e-03, 3.06189968e-03,
       -9.38514993e-03, -3.83071764e-03, -6.83680503e-03, 2.41664168e-03,
       1.26597760e-02, 1.25602921e-02, 1.25012535e-03, -1.19889970e-03,
       1.29177258e-03, -8.66033696e-03, -7.65744178e-03, -6.56870799e-03,
       -5.22709778e-03, 5.89937344e-03, 1.91480364e-03, 1.18181750e-03,
       -4.06441791e-03, -9.03561618e-03, 1.17222697e-03, -5.95026824e-04,
       -2.03813612e-03, 4.26303654e-04, 6.82111597e-03, -4.46183694e-04,
       -1.28061895e-03, -5.19383652e-03, -6.01711823e-03,
       -3.21343681e-03, 2.25456269e-03, -4.54011187e-03, -2.01775087e-03,
       1.10928295e-02, 5.35537302e-03, 5.03817201e-03, -2.40527303e-03,
       -9.28763673e-03, -4.75250650e-03, -5.65807614e-03,
       -1.92056666e-03, 2.99995509e-03, 7.63812568e-03, 3.22310091e-03,
       8.24069045e-03, -3.48489266e-03, -9.71510541e-03, -4.71546873e-03,
       5.89177595e-04, -1.17776415e-03, -3.19686322e-03, -2.14496464e-03,
       -3.71208438e-03, -4.95167170e-03, -1.06334779e-02,
       -5.18840970e-03, -4.14111093e-03, 5.59184176e-04, 4.95882565e-03,
       -3.68167460e-03, -4.63475846e-03, -7.32781878e-03,
       -2.89696455e-03, 6.66862325e-05, 1.10218478e-02, 5.28568774e-03,
       -1.92266528e-03, -5.99957909e-03, -3.38187465e-03, 1.44663954e-03,
       -2.12011393e-03, -5.63859614e-03, -1.15613295e-02,
       -1.14354603e-02, -3.18719610e-03, -2.70852866e-03,
       -4.22038429e-04, -1.19571385e-04, -2.71572615e-03,
       -4.50889114e-03, 9.80920624e-04, -9.14812181e-03, 6.54429849e-03,
       1.08626364e-02, 2.42987974e-03, -1.02433551e-03, -3.98600008e-03,
       2.74817995e-03, -5.48054045e-03, -4.19224799e-03, -1.23872457e-03,
       3.48006259e-03, 8.22881178e-04, -6.89866766e-03, -4.82209632e-03,
       6.16821460e-04, 6.25529373e-03, -2.26230710e-03, -3.51320906e-03,
       -3.92050762e-03, -7.39524234e-03, -1.10076405e-02,
       -9.56407003e-03, -4.70572159e-05, -1.74882484e-03, 3.53343575e-03,
       1.07620159e-04, -5.42736612e-03, -4.24090913e-03, 3.80239962e-03,
       1.81513629e-03, -1.05616148e-03, -2.62656342e-03, 1.16383797e-03,
       5.51970862e-03, 4.61830525e-04, 4.31393972e-03, -3.65082663e-03,
       -4.02712310e-03, -7.47114280e-03, -5.05399238e-03,
       -4.32154955e-03, 2.42545502e-03, 8.79803614e-04, -2.69777887e-03,
       -4.76595433e-03, -3.23253637e-03, -3.72749055e-04,
       -6.07973663e-03, -5.93283633e-03, -5.07776276e-05, 1.61204301e-03,
       9.67137923e-04, -6.89718919e-03, -3.30270082e-03, -2.33959407e-03,
       9.86563880e-03, -2.69422191e-03, -1.12969277e-03, -2.81178299e-03,
       -3.69105325e-03, 1.45970192e-03, -6.84628217e-03, -9.72304144e-04,
       -1.93491287e-03, -1.18755607e-03, -1.82247814e-03,
       -2.55298073e-04, 2.44068541e-03, -1.79026998e-03, -3.23893689e-03,
       -1.54253375e-03, -4.64393990e-04, 3.74756519e-06, 6.05521305e-03,
       -4.04106127e-03, 3.50175537e-06, -3.66575131e-03, -3.52855097e-03,
       -9.48275556e-04, -5.62886149e-03, 5.70922438e-03, -2.90674111e-03,
       9.29624867e-03, -5.46776937e-05, -3.07883415e-03, -7.34763080e-03,
       -8.08359310e-03, -6.49850396e-03, 6.40362222e-03, -6.92164898e-03,
       -5.22501348e-03, 1.15233688e-02, -3.74455645e-04, -7.66183902e-03,
       -3.78878298e-03, -1.24903861e-02, -4.49454971e-03,
       -1.48929993e-03, 7.62663258e-04, -8.87758099e-04, 1.07911453e-02,
       4.57209535e-03, 2.95929873e-04, -6.20247843e-03, -1.57137122e-02,
       -7.96104874e-03, 5.02781570e-03, -6.32520998e-03, 9.29169648e-04,
       1.25132576e-02, -3.15416226e-04, -5.64495847e-03, -5.98341321e-05,
       -2.09986093e-03, 4.87420650e-04, 8.08952656e-03, -6.90287258e-03,
       -5.71911165e-04, 1.01917544e-02, -7.39858777e-04, -1.43482408e-03,
       1.67879334e-04, 8.93328222e-04, 1.00683086e-02, 2.70893821e-03,
       -9.80932731e-03, -2.85970303e-03, 3.73655488e-03, 9.76760988e-04,
       -2.51155603e-03, -6.94540038e-04, -1.01308329e-02,
       -5.36926650e-03, 3.72897857e-03, -1.40493759e-03, 5.87601913e-03,
       1.74810961e-02, 2.15491280e-03, -6.37528021e-03, -2.85596866e-03,
       -5.50372014e-03, -1.80860545e-04, -5.59243700e-03,
       -8.80189054e-03, -1.18406361e-03, 1.65643860e-02, 4.42610728e-03,
       -7.54858460e-03, 3.34154768e-03, 5.80603397e-03, 8.33880994e-03,
       1.97251095e-03, -5.46933431e-03, 7.24920421e-04, 5.32577978e-04,
       -1.46311751e-04, -3.57160298e-03, -2.24488904e-03,
       -4.54583187e-06, -4.67314525e-03, -7.61500094e-03, 7.21012149e-03,
       7.11400993e-03, 5.38735697e-03, -2.16301205e-03, -4.15412942e-03,
       -4.84642247e-03, -3.78284184e-03, 2.05199164e-03, -2.17490620e-03,
       -6.41179364e-03, 2.16412684e-03, 4.01230389e-03, 7.82810431e-03,
       -5.57262497e-03, -2.14452087e-03, -2.05497444e-03,
       -4.88768611e-03, -6.51262887e-03, -3.97201534e-03, 4.15420206e-03,
       -1.48718141e-03, -4.81145224e-03, -8.67670402e-04,
       -9.08168615e-04, -4.03200218e-04, -8.26168712e-03,
       -6.42508361e-03, 9.22553614e-03, 8.15460272e-03, 7.44629698e-03,
       -3.97976534e-03, -3.31865461e-03, 2.01051636e-03, -2.10796320e-03,
       -6.62475126e-03, -3.92331649e-03, -1.90073694e-03, 2.82788253e-03,
       -7.46493693e-04, -1.08803138e-02, -2.59689311e-03,
       -2.83589377e-03, -8.31505843e-03, -9.41693131e-03,
       -5.11342846e-03, 5.30761573e-03, 7.16399029e-03, 1.05153425e-02,
       -2.58990680e-03, 3.26427398e-03, -7.70303607e-03, -6.90994924e-03,
       -9.91222356e-03, -3.90365417e-03, -4.18809196e-03, 3.24178045e-03,
       9.24411789e-03, 1.77044875e-03, -3.30734975e-03, 6.99494081e-03,
       3.77500523e-03, 3.85664753e-03, 1.62118842e-04, 6.52979501e-03,
       4.46619745e-03, 6.78766379e-03, -1.05314497e-02, -3.71125556e-04,
       1.71585369e-03, 5.26678376e-03, 3.75941908e-03, -2.84849969e-03,
       2.47853762e-03, 5.42800035e-03, 4.57937084e-03, -1.18532283e-02,
       2.57977727e-03, -1.11889874e-03, -2.27374258e-03, -3.93186789e-03,
       -5.34751266e-03, -3.84716340e-03, 3.46337189e-03, 9.40808468e-03,
       -4.96710278e-03, -2.74991291e-03, -2.31739366e-03, 1.83819066e-04,
       6.69139903e-04, -8.44941661e-03, -9.59579181e-03, 1.31534194e-04,
       -2.33918149e-03, -1.00752069e-02, -3.87331378e-03, 4.52179043e-03,
       2.34380062e-03, 6.37356238e-03, -5.39355678e-04, 6.26526820e-03,
       7.62296026e-04, 4.74356161e-03, -1.83477765e-03, 6.81340182e-03,
       1.15329516e-03, -1.97227811e-03, 4.55856277e-03, 3.98219517e-03,
       1.29921669e-02, -4.74859588e-03, 3.51069216e-03, -2.46572657e-03,
       4.02294612e-03, -4.38373350e-03, -4.76351148e-03, 7.66795035e-03,
       1.56913651e-03, -6.99644117e-03, -2.68275267e-03, 2.22089770e-03,
       -6.81357458e-04, -7.17066345e-04, -4.51383414e-03,
       -5.94915217e-03, 4.25133808e-03, 8.01497418e-03, 9.71102738e-04,
       -8.68247170e-03, 3.09544406e-03, -4.19722497e-03, 7.18598370e-04,
       8.82647000e-03, 3.26605467e-03, 6.09024428e-04, 2.02445619e-04,
       8.72129295e-03, -9.07392707e-04, 2.20708433e-03, 1.07078778e-03,
       7.93257821e-03, 4.60918155e-03, 3.52083473e-03, 5.48036245e-04,
       -5.00290701e-03, -5.57764154e-03, -4.99726553e-03,
       -5.99934626e-03, -8.52100260e-04, 1.79331366e-03, 1.48285553e-03,
       -3.86832445e-03, -1.54395064e-03, 3.73874838e-03, -1.52748544e-03,
       1.03345024e-03, 8.94316658e-03, -4.89497266e-04, 1.68949179e-03,
       -1.32030295e-03, -1.99026405e-03, -1.68521341e-03, 7.98451528e-03,
       -7.02296104e-03, -7.04021659e-03, 3.35113588e-03, 2.15734541e-03,
       -1.64425722e-03, 5.15871980e-05, 5.74531127e-03, 1.92360056e-03,
       -2.76117050e-03, 7.23160384e-03, -2.67614238e-03, -4.43978375e-03,
       -6.01660227e-04, -5.25162229e-03, -5.14839194e-04, 5.20205963e-03,
       2.56220321e-03, 3.37404315e-03, 1.50168855e-02, 7.01967906e-03,
       4.46261925e-04, 9.00122803e-03, -1.20940304e-03, -1.14756683e-03,
       1.31244873e-04, 2.66902731e-03, 6.02805475e-03, 4.91072936e-03,
       -2.34611286e-03, -3.25003166e-05, 4.34971554e-03, -4.10578214e-03,
       -4.09545051e-03, 1.17856241e-03, 2.52042874e-03, 4.93385689e-03,
       3.42074758e-03, 4.39699600e-03, 3.95828160e-03, 6.29757671e-03,
       -8.50221259e-04, -4.27495223e-03, 2.29030289e-03, 6.78219041e-03,
       -2.16201786e-03, 7.74439890e-03, -4.11757408e-03, 5.96142898e-04,
       4.01274953e-03, -5.60443243e-03, -1.63068948e-03, -8.77881947e-04,
       8.50049965e-03, -5.81941567e-03, -4.54500969e-03, -5.38969319e-03,
       4.50983876e-03, 4.41954192e-03, 1.14309555e-03, -5.10071230e-04,
       2.65106233e-03, 8.93411040e-03, 2.80064368e-03, 4.05628746e-03,
       -3.64655163e-03, -5.35068219e-04, -3.37494258e-03,
       -6.96311938e-03, -1.54337322e-03, -2.24841502e-03, 2.36887182e-03,
       -4.63166181e-03, 7.13675458e-04, -5.03963325e-03, 1.96052948e-03,
       -8.30291770e-03, -6.40437659e-03, 3.61871067e-03, 2.54994584e-03,
       3.31957731e-03, -1.06295953e-02, -6.89275982e-03, -7.68436026e-03,
       -8.64007790e-03, -4.19236813e-03, 4.45674267e-03, 6.42080908e-04,
       -1.43385772e-03, 3.77934054e-03, -7.64068507e-04, -1.80497905e-03,
       -6.89650513e-03, -3.45347635e-03, -1.05022197e-03, 3.82672553e-03,
       -7.11190002e-03, -8.88828072e-04, -1.82984979e-03,
       -1.24324635e-02, 3.88339016e-04, -2.15852377e-03, -3.91749851e-03,
       -1.06811952e-02, -6.02242444e-03, -7.88780395e-03, 5.47756848e-04,
       4.15467471e-03, -4.02402971e-03, 4.10247780e-03, -1.28237261e-02,
       -3.08398250e-03, -1.15074692e-02, -7.56655354e-03,
       -5.33222686e-03, 7.27458065e-03, 3.26565444e-03, 4.09401441e-03,
       1.35492831e-02, -4.26051067e-03, -7.30730966e-03, 7.54764024e-03,
       -1.29263615e-03, 3.70529294e-03, 2.46185722e-04, -4.39604977e-03,
       -1.25650468e-03, 1.37159764e-03, -4.40851785e-03, -5.64010814e-03,
       1.60968758e-03, 1.75012392e-03, -4.91794525e-03, 2.81961984e-03,
       1.55606191e-03, 3.03552835e-03, 1.07457479e-02, -6.87662186e-03,
       -7.05923792e-03, -1.65993103e-03, -6.32303162e-03,
       -1.15205767e-03, 3.41787166e-03, -1.08931237e-03, -3.73401237e-03,
       -7.30019936e-04, -6.19332446e-03, -9.02881753e-03,
       -1.22129172e-02, -8.31410196e-03, 4.61317785e-03, -4.77596233e-03,
       -9.87741048e-04, 1.65023748e-03, 3.44134704e-03, -1.60865451e-03,
       -6.42691972e-03, 2.20385077e-03, 2.89470190e-03, 7.62243755e-04,
       -4.46761353e-03, -4.75852285e-03, -1.10481596e-02,
       -3.16727115e-03, -4.40155435e-03, -7.73532898e-04, 6.04531588e-03,
       8.13182257e-03, -2.68204301e-03, -1.10152841e-03, 2.90706055e-04,
       1.67809616e-04, 7.09282793e-03, -5.15898981e-04, -4.46304120e-03,
       -6.45720446e-03, -2.81119626e-03, -1.27715128e-03,
       -1.99242495e-03, -6.16731960e-03, -3.52197583e-03, 4.33153007e-03,
       5.55881823e-04, -6.36026962e-04, -8.71372526e-04, 5.61472215e-03,
       8.75588041e-03, -2.22019712e-03, -6.12031994e-03, -8.57357215e-03,
       -2.36413442e-03, -2.12515006e-03, 6.16574369e-04, 6.44665863e-03,
       1.40345031e-02, 6.97735813e-04, -7.15866918e-05, -3.88099375e-04,
       1.81401055e-03, 2.60036346e-03, 2.00533450e-05, -1.02667755e-03,
       -1.28101546e-03, 3.49600194e-03, 5.57337236e-03, -1.05719536e-03,
       -2.47441023e-03, -4.40925432e-05, 7.53552234e-03, 1.93148351e-03,
       -1.10208895e-03, 1.54029275e-03, 7.52753485e-03, 3.70715512e-03,
       1.05799804e-03, 2.13446165e-03, 9.64611396e-03, 9.48154740e-03,
       3.09718237e-03, -3.93075123e-03, -7.34930672e-03, 5.51241124e-03,
       -1.74846710e-03, -7.97988905e-04, 1.52457308e-03, 3.78928077e-03,
       -2.63172016e-03, 4.65794047e-03, 4.88712126e-03, 1.91873615e-03,
       9.31096612e-04, 5.44417824e-04, 1.26108050e-03, 5.03997225e-03,
       2.99342372e-03, -3.97545006e-03, 3.81105510e-03, 4.25154530e-03,
       -6.39372738e-03, -2.85737473e-03, 3.56222712e-03, 5.37057780e-03,
       3.97841306e-03, 5.71843283e-03, -1.28528965e-03, 2.22894084e-03,
       -4.15820023e-03, -4.82367771e-03, 2.47915904e-03, 8.86224117e-03,
       6.32869359e-03, 4.10307152e-03, -2.17249780e-03, 1.83068158e-04,
       -9.79298376e-04, -5.77534456e-03, -3.33872996e-03, 6.24842243e-03,
       -2.51664617e-03, 2.71160342e-03, 1.72416039e-03, 3.42589454e-04,
       -9.13442462e-04, -3.72979348e-03, -4.22839867e-03,
       -8.07436462e-03, -4.55277786e-03, -3.49900755e-03, 4.90052532e-03,
       -1.92196982e-04, -3.01403878e-03, -1.33075740e-03,
       -3.57287610e-03, -7.32561981e-04, -2.88658496e-03,
       -7.17965560e-03, 9.03982762e-03, 4.77815652e-03, -1.04429538e-03,
       -4.69884509e-03, 7.09931366e-04, -4.22432367e-03, -1.15243485e-02,
       4.70722513e-03, 9.18946974e-03, 4.39222762e-03, 1.07988818e-02,
       7.64382631e-03, -2.47883872e-04, -2.01226139e-04, 4.64634970e-03,
       -3.17625212e-03, 3.49953398e-03, 2.01525152e-04, 1.74042280e-03,
       3.32549727e-03, -2.22860021e-03, -2.38451641e-03, -6.63798535e-03,
       -1.18418282e-03, -4.58908617e-04, 2.07185236e-04, -1.94062700e-03,
       -6.82979077e-03, -1.98739651e-03, -3.88833781e-04,
       -7.98110943e-03, -9.70261078e-03, -1.97957666e-03, 4.48753498e-03,
       7.79389963e-03, -2.81526032e-03, 5.53988293e-03, 3.69482930e-03,
       1.31640770e-03, -1.48804800e-03, -2.40644929e-03, 1.39260184e-04,
       -5.93064353e-03, 1.51294656e-03, 3.64295417e-03, 2.60279491e-03,
       7.96957465e-04, -6.02857536e-03, -8.62097461e-03, -5.16774599e-03,
       -6.57816743e-03, -8.02978687e-03, -7.51578482e-04, 8.08204059e-03,
       -1.96343381e-03, -1.90324022e-03, 1.79730973e-03, 3.13622411e-04,
       -5.60718263e-03, 3.37820151e-03, -5.74783701e-03, 5.25156828e-03,
       1.60599034e-03, 5.87819284e-03, -5.27338823e-03, -1.67613931e-03,
       5.11774597e-05, -7.09429011e-03, -1.05721166e-03, -3.48496693e-03,
       4.31946060e-03, 2.43425323e-03, 4.18917945e-04, -2.76390859e-03,
       -2.89296178e-04, -4.77535278e-03, 5.56529313e-03, 8.51799035e-04,
       -8.09741206e-03, -1.80351187e-03, 1.17996121e-02, -3.84895946e-03,
       -6.66179368e-03, 1.72096328e-03, -7.35083828e-03, 6.67622453e-03,
       1.60184150e-04, -5.51050436e-03, 1.36508013e-03, 3.16300360e-03,
       -1.81646668e-03, -1.36489724e-03, -1.65557733e-03,
       -6.04228953e-05, -4.20922134e-03, -3.22241662e-03,
       -5.31008188e-03, -2.63903989e-03, -4.17164806e-03,
       -6.14524726e-03, 4.52752085e-03, 1.15247713e-02, 7.48018268e-03,
       1.68418349e-03, -6.23184955e-03, -5.89638669e-03, -5.95709775e-03,
       -5.30915335e-03, -5.43285580e-03, 2.08044308e-03, 4.94676176e-03,
       1.36287813e-03, 1.78860920e-03, 1.74451503e-03, -3.98648391e-03,
       -3.96804651e-03, -3.79505823e-03, -9.48859192e-03, 9.94112622e-03,
       1.31998034e-02, 9.41023044e-03, 3.90675385e-03, 3.99850123e-03,
       2.22696224e-03, -2.60568666e-03, -9.19716526e-03, -5.29030478e-03,
       -4.09246684e-04, 2.15204223e-03, 6.16378337e-03, -7.08917668e-03,
       -2.19949242e-03, 4.48282063e-03, 9.52145364e-03, -3.30036948e-03,
       1.10646361e-03, -1.96320075e-03, -3.18882125e-03, -2.65714899e-03,
       2.90110940e-03, -2.51363870e-03, 7.60832848e-03, 1.12389885e-02,
       4.33168560e-03, -7.84625113e-03, 3.50381294e-03, 5.51760569e-03,
       2.63960939e-03, 4.54689813e-04, 6.99986471e-03, 1.06940875e-02,
       9.97030269e-03, -4.49691107e-03, 1.84781419e-03, 3.99369234e-03,
       4.60263900e-03, -1.18115149e-03, 7.47313816e-03, -2.38175411e-03,
       1.50508690e-03, 1.30568873e-02, 5.37733594e-03, 3.22919432e-03,
       -7.77212190e-05, -6.58124845e-05, -2.34053936e-03,
       -3.12293507e-03, -4.84793121e-03, 9.83414706e-04, 3.66007606e-03,
       -1.06631313e-03, 4.84085968e-03, -2.13276991e-03, 5.09492215e-03,
       9.42834932e-03, -1.12423934e-02, -4.73821023e-03, 1.13906994e-04,
       -8.93457420e-03, -1.51684580e-04, 2.32496625e-03, 3.39364610e-03,
       4.11251420e-03, -1.43066910e-03, 4.49985918e-03, -1.44402299e-03,
       1.22734741e-03, 6.89597055e-03, -1.52794563e-03, -5.77783678e-04,
       -5.88427624e-03, 2.12878408e-03, 2.24056654e-03, -1.70048175e-03,
       2.08443147e-03, 4.98228380e-03, 7.42246863e-03, 9.57258861e-04,
       9.76649811e-04, -6.40940678e-04, 3.87801975e-03, 5.45434374e-03,
       -1.59071141e-03, 6.50521973e-03, -6.55389344e-03, -6.01148233e-03,
       -2.45227735e-03, -1.08732504e-03, 1.74070278e-03, -1.22131943e-03,
       1.13373843e-03, 9.42239631e-03, 5.07742446e-03, -3.21993837e-03,
       -5.41223306e-03, -2.77384557e-03, 2.68820929e-03, -5.21969960e-05,
       -3.56118253e-04, 1.48202933e-03, 3.01253935e-03, 8.35928135e-03,
       9.41767637e-03, 5.44661656e-03, 3.11136246e-03, 8.55965307e-04,
       4.92745684e-03, 4.56943596e-03, 8.43093172e-03, 4.55257809e-03,
       1.48366659e-03, 4.50292882e-03, 1.20043382e-03, -3.54565168e-03,
       -2.63641425e-03, -7.85726879e-04, -4.72735876e-04, 1.59405044e-03,
       3.46592441e-03, -4.14197147e-03, -4.48703393e-03, -3.57643655e-03,
       -1.40539673e-03, 2.31669447e-03, 2.07699905e-03, 9.13060037e-04,
       2.95696850e-03, 9.03972425e-03, -4.19580331e-03, 4.85876668e-03,
       1.07752869e-03, -2.25181039e-03, -2.81089847e-03, 4.55745758e-04,
       1.62546779e-03, 6.29816204e-03, -4.96705470e-05, -3.33431945e-03,
       -2.59389495e-03, -2.70246202e-03, -1.08028762e-02, 4.47084103e-03,
       1.91407988e-03, -1.74985465e-03, 7.49145355e-03, 4.10730531e-03,
       -1.13670132e-03, -7.66239653e-04, -1.03528621e-02,
       -1.40615525e-02, 1.22460548e-03, -4.44292743e-03, -2.46910681e-03,
       1.49936602e-03, -4.52278368e-03, -6.99564582e-03, 8.44659924e-04,
       -4.12661489e-03, -5.18031372e-03, 1.60888454e-03, -2.31018942e-03,
       3.08812619e-03, 4.49995650e-03, -7.78774091e-04, -5.57060773e-03,
       -1.96939148e-03, -4.56614792e-03, -2.45359913e-03,
       -5.50475856e-03, -5.46275126e-03, -5.61868120e-03,
       -8.83596542e-04, -6.93167048e-03, -7.29867537e-03,
       -1.28841109e-03, -1.35726426e-02, -9.01738927e-03,
       -2.45343102e-03, 1.84642244e-03, 1.29922805e-03, 4.73574968e-03,
       -8.08018539e-03, 2.38435878e-03, 5.80061926e-03, -1.02594653e-02,
       -3.89151834e-03, 2.01249705e-03, -3.77262058e-03, 1.53081652e-04,
       -2.11560889e-03, -7.02471286e-03, -3.70618212e-03, 2.12637032e-03,
       -2.86461064e-03, 5.03459433e-03, -1.13883871e-03, -8.20670649e-03,
       -5.35910064e-03, -2.94700591e-03, -5.51324897e-03, 2.10362254e-03,
       1.04248505e-02, -4.60955489e-04, 1.38470801e-04, 6.42002444e-04,
       8.79479398e-04, -2.10951385e-03, -3.17816064e-03, -7.77900545e-03,
       -2.74785119e-03, 3.24925268e-03, -2.15215934e-03, 1.13277300e-03,
       -7.49091245e-03, -6.90624351e-03, -6.71119476e-03,
       -7.38268392e-03, -1.01800477e-02, 2.04610187e-04, 8.38067010e-03,
       8.01070069e-04, -6.67489460e-03, -5.86890941e-03, -9.80507862e-03,
       -7.79749407e-03, 3.24412249e-04, -1.08113117e-03, 1.61856308e-03,
       1.35966083e-02, -1.13963126e-03, -3.17825540e-03, -1.01062888e-02,
       -1.66386291e-02, -8.62065516e-03, 3.84885655e-03, -2.62631779e-03,
       1.01334704e-02, 1.47245806e-02, -1.31518755e-03, -7.57452892e-03,
       -8.94898549e-03, -1.24091599e-02, -1.12939356e-02,
       -5.34101203e-03, -6.22985000e-03, 7.27677543e-04, 1.06389569e-02,
       2.13539856e-03, -7.16330204e-03, -3.71388509e-03, -9.11987573e-03,
       -1.19547602e-02, -1.77737186e-03, -4.38947789e-03, 2.04006908e-03,
       9.83011257e-03, -5.18896803e-03, -5.24526462e-03, -1.48737483e-04,
       -7.90923927e-03, -5.96521981e-03, 6.76970871e-04, -1.65001757e-03,
       7.68699637e-03, 1.37539459e-02, -2.45412951e-03, -7.17462739e-03,
       -2.67155888e-03, -4.00235411e-03, -1.17952609e-02,
       -1.10323811e-02, -1.00211464e-02, 6.03017444e-03, 1.04033323e-02,
       -1.02236074e-04, -1.10041928e-02, 1.42342818e-03, 7.65273944e-05,
       -9.72412899e-03, -3.77844088e-03, -5.48801478e-03, 4.87598404e-03,
       8.65267310e-03, 1.66675355e-03, -1.00833015e-03, -2.17875536e-03,
       4.45159967e-04, -1.38963815e-02, -1.34621002e-02, -7.38546206e-03,
       3.49843455e-03, 3.26567073e-03, -4.40120278e-03, -7.29263388e-03,
       3.70361493e-03, -3.09042144e-03, -5.54197142e-03, -5.63092157e-03,
       2.51421216e-03, 9.29519907e-03, 1.22093642e-02, 6.63090451e-03,
       2.17947504e-03, 5.73514262e-03, -6.91449677e-04, -5.38931275e-03,
       -5.91254327e-03, -5.72306896e-03, -1.49952772e-03, 5.96510759e-03,
       -3.49724921e-03, 5.28668170e-04, 9.06104036e-03, -8.31764410e-05,
       -8.18149466e-03, -9.06425528e-03, -4.21406608e-03, 9.72047634e-03,
       9.56393313e-03, -5.11175953e-03, 1.50642428e-03, 8.43530614e-03,
       -2.36350275e-03, -8.53100140e-03, -9.70446318e-03,
       -7.82858394e-03, 4.73413122e-04, 2.30065407e-03, -1.62984915e-02,
       -2.85012275e-03, 1.47085520e-03, -7.72417290e-03, -3.47854150e-03,
       -3.74435610e-03, 3.83888255e-03, 7.26637803e-03, 1.53208859e-02,
       3.82509013e-03, 8.04230664e-03, -6.39999984e-04, -5.04725426e-03,
       -6.62860554e-03, -7.17243878e-03, -3.57446191e-03, 8.24168883e-03,
       1.65007822e-02, 9.10867192e-03, 9.03978851e-03, 1.58463532e-04,
       -6.91967644e-03, -1.76693732e-03, -7.27800513e-03,
       -4.71112272e-03, 3.65102501e-03, 3.62236635e-03, -4.14711796e-03,
       -5.23321156e-04, -5.63865295e-04, -4.73764772e-03,
       -2.91347131e-03, -3.96659365e-03, -1.03996412e-04, 7.80056836e-03,
       1.13019384e-02, -1.30264706e-03, -4.87982034e-04, 5.32521540e-03,
       2.65488261e-03, -6.72398973e-03, -6.40335260e-03, -4.41372953e-03,
       7.56523060e-03, 1.37755973e-02, 1.86676346e-03, 8.58885702e-03,
       3.60360229e-03, 2.85848835e-03, -1.43557976e-04, -6.95633003e-03,
       -1.91329364e-02, 1.76030514e-03, 5.17674605e-04, 8.89943098e-04,
       1.62349385e-03, 7.90786522e-04, 2.13506864e-03, 2.02611598e-04,
       -3.98782548e-03, 7.24725658e-04, 7.59471208e-03, 1.06389904e-02,
       -1.01316452e-03, 6.11975847e-04, -3.47831985e-03, -4.94384393e-03,
       4.50015250e-05, -9.80105760e-05, -8.91684927e-03, -3.08452267e-03,
       4.47993539e-03, 8.04477138e-04, -2.14672904e-03, 1.21567177e-03,
       -2.06493028e-03, 8.35829601e-03, 3.33463121e-03, -8.35204311e-03,
       -6.27030898e-03, 1.61854364e-03, 2.70468788e-03, 5.05788194e-04,
       3.58005520e-03, -2.96257669e-04, 8.58408120e-03, 3.67746293e-03,
       -2.18467927e-03, -5.40262647e-03, 7.12274667e-03, -2.38076434e-04,
       4.98710899e-03, 1.11750595e-03, 1.24049210e-03, 9.02579818e-03,
       2.46518827e-03, -1.83856697e-03, -1.52409421e-02, -1.22662587e-03,
       -4.23403195e-04, -5.75063867e-04, 2.97982688e-03, 9.16789565e-03,
       6.51642168e-03, -9.02420748e-03, 3.27557465e-03, -2.52523157e-03,
       -1.91061804e-03, -5.13209356e-03, -6.17000507e-04, 6.47181040e-03,
       -1.48339651e-03, -2.00112746e-03, -3.90716176e-03,
       -3.76099744e-03, -1.94252410e-03, 2.47261743e-03, -2.34920345e-03,
       3.96302482e-03, 3.95849673e-03, -5.17397560e-03, -7.99063779e-03,
       -3.89723398e-04, -1.87172007e-03, -4.88497177e-03, 7.51498854e-03,
       1.27210526e-03, 2.80673825e-03, 1.81858207e-03, 1.38336245e-03,
       -3.72074684e-03, -1.07491259e-02, -5.92050957e-04, 4.42261808e-03,
       6.31670654e-03, -6.02232933e-04, -2.65225209e-03, 1.33039744e-03,
       -3.30479612e-04, -2.97159189e-03, -9.85846017e-03,
       -2.00501923e-03, -6.68460689e-03, -1.31273060e-03,
       -2.44270591e-03, -1.86294288e-04, 1.42068806e-04, -5.73023641e-03,
       -4.25462815e-04, 2.97957216e-03, 8.71482957e-03, -2.81943078e-03,
       -3.24969151e-05, -3.22778383e-03, -6.61365106e-04,
       -1.84922304e-03, -2.85097444e-03, 3.49447527e-03, -6.94223854e-04,
       2.18203850e-03, -3.13735474e-03, 3.12059466e-03, 1.39422843e-03,
       4.53282241e-03, -6.37129648e-04, -3.22198495e-03, 4.57747793e-03,
       -2.24394840e-03, 1.15740076e-02, -2.65590986e-03, -4.24039876e-03,
       -8.35796539e-03, -2.23038689e-04, -1.19966548e-03,
       -3.60614294e-03, -1.70346943e-03, -3.35333264e-03,
       -6.76063995e-04, -8.47316347e-03, 4.50696301e-04, -3.19532142e-03,
       2.02967809e-03, 9.08747897e-04, 1.95829943e-03, 1.18892093e-03,
       -3.50300013e-03, 3.06900148e-03, -6.46990025e-03, -1.74451305e-03,
       6.33106101e-04, -1.68123388e-05, 1.89428637e-03, -2.80176196e-03,
       -3.61625268e-03, -7.51875015e-03, 3.08683654e-03, 5.31184254e-04,
       3.64296301e-03, 3.16081314e-05, -7.94347725e-04, 2.65280413e-03,
       -1.96412276e-03, -1.09521043e-03, -5.28121926e-03, 2.86075345e-04,
       -5.75764850e-03, -2.24903831e-03, 2.80277035e-03, 1.42991764e-03,
       -9.51354450e-04, -5.00907516e-03, -1.66810001e-03,
       -9.17289406e-03, 6.87019620e-03, -9.16684791e-03, -2.28803465e-03,
       2.25158571e-03, -1.74352387e-03, -4.99884831e-03, -1.83632714e-03,
       -3.82296368e-03, -7.55902054e-03, -2.70941178e-04, 1.38077582e-03,
       5.43705095e-03, 3.32545664e-04, -6.45896513e-03, -5.39940549e-03,
       -1.80660316e-03, 1.97730656e-03, -4.40719444e-03, -1.90948555e-03,
       -5.22729242e-03, 5.23473322e-03, -2.17375858e-03, -6.20847894e-03,
       -5.19212103e-03, -3.66959767e-03, -2.31144208e-04,
       -7.50868581e-03, 1.94455602e-03, -4.49908990e-03, 4.86099720e-03,
       5.00004133e-03, -2.39748741e-03, 4.04110790e-04, 5.05063450e-03,
       8.74556787e-03, -3.88301851e-04, -4.31190361e-04, 6.76656666e-04,
       7.41770782e-04, -4.98661818e-03, 1.56539655e-03, -2.00409605e-03,
       2.97463103e-03, 3.67139676e-03, 1.17880420e-03, 5.24948305e-03,
       -3.43070598e-03, 1.73840765e-03, -1.83562282e-03, -8.91738571e-03,
       -8.09983118e-04, 2.59993179e-03, 2.27229716e-03, 2.20665257e-04,
       -2.99151544e-03, -1.14647159e-03, -3.16593883e-04,
       -7.01871281e-03, -3.97426449e-03, 3.19362618e-03, 1.70843827e-03,
       -2.22003204e-03, -2.36788322e-03, 5.06962133e-05, 3.72534012e-03,
       1.08648343e-02, 3.97275377e-04, -4.56793187e-03, 9.93560068e-03,
       6.26260357e-04, -1.11400359e-03, -2.71999021e-03, 1.96091156e-03,
       -2.75915582e-03, -1.89497741e-03, 7.08108360e-04, 6.87919324e-03,
       -7.66843697e-03, -2.97742803e-03, -3.18149617e-03,
       -2.30102078e-03, 4.25966736e-03, -2.13539424e-05, -3.57896998e-03,
       -9.15078539e-03, -4.37276578e-03, -1.24296909e-02,
       -5.11203334e-03, -7.66137661e-03, -4.89554740e-03,
       -4.84979199e-03, 4.01077839e-03, -3.34414490e-03, -9.69308149e-03,
       -3.84705327e-03, 2.99346889e-03, -3.33998026e-03, -5.50664635e-03,
       -2.24069506e-03, 7.30847055e-03, 3.01116239e-03, -1.63996418e-03,
       4.55758072e-06, 5.11600310e-03, -3.28560453e-03, -1.04244903e-03,
       -3.22734844e-03, -7.29511911e-03, -2.05277785e-04, 1.06882732e-02,
       9.44071729e-03, -1.07053819e-03, 3.71235679e-03, -1.54618511e-03,
       -1.65396440e-03, 3.53087933e-04, 8.05669464e-04, 2.83832196e-03,
       1.19124772e-03, -6.10800460e-03, -4.88755060e-03, -1.92867170e-04,
       -3.43235512e-03, -1.92023421e-04, 3.74782761e-03, 5.15658315e-03,
       5.02972514e-04, -2.29802355e-03, -1.18490951e-02, -6.87980419e-03,
       -2.26027775e-03, 2.96306494e-03, 4.45420574e-03, 7.78408116e-03,
       1.67275779e-03, 7.64830876e-03, 2.24242941e-03, 4.83742310e-03,
       2.58679502e-05, 3.04233137e-04, -1.53121422e-03, 1.15303174e-02,
       1.08770980e-02, 3.46258981e-03, 1.98394689e-03, -4.49091522e-03,
       -8.70489143e-03, -1.99180585e-03, -1.24125427e-03,
       -2.17974477e-04, -8.66823306e-04, 2.71251332e-03, 1.85578945e-03,
       -2.25061947e-03, 2.12823646e-03, -6.19518477e-03, -9.67585295e-03,
       -2.91157397e-03, 3.94529663e-03, -2.18135514e-03, 4.40679345e-04,
       -3.31366295e-03, 6.17318379e-04, 2.99194804e-03, -8.59159045e-03,
       -4.41621058e-03, 3.24347452e-03, 1.17467614e-02, 1.18075674e-02,
       1.16155278e-02, -6.95920025e-04, -1.04304745e-04, -1.52481114e-03,
       -1.19383876e-04, -4.40825988e-03, 6.79917261e-03, 1.31319230e-02,
       6.92694029e-03, -2.95066449e-04, -4.19226941e-03, -8.50561913e-03,
       -1.60630516e-04, 3.88138182e-03, -1.35461916e-03, 8.54527112e-03,
       2.76215095e-03, -1.12763792e-03, -5.69238560e-03, -3.55653069e-03,
       3.27659352e-03, 6.23836182e-03, -6.26893714e-03, -2.65170122e-03,
       6.17616810e-03, -4.36443835e-04, 2.70499312e-03, 4.34495369e-03,
       8.39778280e-04, -4.90833423e-04, 1.00896358e-02, 1.24689890e-03,
       -2.22950615e-03, 1.04414742e-03, 4.42102877e-03, 7.95669481e-03,
       -5.56558883e-03, -7.21044652e-03, -9.56062134e-03,
       -5.33035527e-05, 1.33486104e-03, 4.03388962e-03, 2.90974951e-03,
       6.35232404e-03, 8.83088633e-03, -3.04615736e-04, -5.43417362e-03,
       -1.88242877e-03, 2.77503347e-03, 2.18720132e-04, 1.80042372e-03,
       6.62368722e-03, -7.53582455e-04, 2.13909056e-03, -2.32685800e-03,
       -4.37300978e-03, -4.86996165e-03, 2.53225653e-03, 4.45461163e-04,
       -1.34301459e-04, -3.82698025e-03, 5.04417112e-04, 6.81137826e-05,
       -3.89661803e-03, -1.62678864e-03, -7.55823858e-04, 3.91954964e-04,
       -9.60544497e-03, -2.31419923e-03, 6.05479907e-03, -2.00530558e-04,
       4.38259123e-03, -4.81126877e-03, -8.37713014e-03, -7.10341847e-03,
       3.90495639e-03, 1.50736549e-03, 7.74329383e-05, 7.00892269e-05,
       -4.37215623e-03, -5.44208940e-03, -3.14007397e-04,
       -3.44920298e-03, 2.36158186e-04, 2.12692074e-03, -3.75963142e-03,
       2.16206769e-03, 2.55061919e-03, 1.29119772e-03, -6.01767004e-03,
       -2.45455187e-03, -5.08717145e-04, 2.43351050e-03, 1.10160117e-03,
       -1.32573638e-02, -3.97926942e-03, 1.04128383e-02, -1.73505326e-03,
       -5.96082304e-03, -2.11217767e-03, -1.30017959e-02,
       -2.74848891e-03, -1.89345295e-03, -8.70855525e-03,
       -3.20953340e-03, 4.82319901e-03, 4.67884092e-05, -8.78950488e-03,
       -4.93057491e-03, -3.40840779e-03, -2.83049210e-03,
       -7.92388280e-04, -7.33641675e-03, 1.02963187e-02, 1.13183241e-02,
       -3.87976482e-03, -6.36857236e-03, -4.60013002e-03,
       -8.33924673e-03, -2.16979114e-03, -9.03108798e-04,
       -8.75060167e-03, 1.21423351e-02, 1.37204304e-02, -7.17854919e-03,
       -3.52332508e-03, 1.42191490e-03, -1.51686231e-03, -2.63012107e-03,
