%YAML:1.0
---
detector: !!opencv-object-detector-hog
   winSize: [ 200, 200 ]
   blockSize: [ 16, 16 ]
   blockStride: [ 8, 8 ]
   cellSize: [ 8, 8 ]
   nbins: 9
   derivAperture: 1
   winSigma: 4.
   histogramNormType: 0
   L2HysThreshold: 2.0000000000000001e-01
   gammaCorrection: 1
   nlevels: 64
   signedGradient: 0
   SVMDetector: [ -7.67801981e-03, 3.62067134e-03, 6.24998845e-03,
       -5.60672255e-03, -5.56969922e-03, -6.40388485e-03,
       -1.11852810e-02, 3.55853094e-03, -6.44816691e-03, -6.65690983e-03,
       1.00553399e-02, 1.77427083e-02, -1.73686678e-03, 5.21645462e-03,
       -1.87734272e-02, -1.07019278e-03, 4.08270396e-03, 5.33889455e-04,
       -4.09274828e-03, 6.99016405e-03, 3.54092102e-03, -4.22970345e-03,
       2.15832191e-03, 1.64516154e-04, -5.47810982e-04, 1.02306493e-02,
       6.44619577e-03, -6.95815822e-03, -1.04779815e-02, 1.61899198e-02,
       -9.94875375e-03, 4.06246027e-03, -3.18707363e-03, 4.24081646e-03,
       3.77042452e-03, 1.89221762e-02, -9.32449475e-03, 2.58863112e-03,
       1.44730778e-02, 6.63909409e-03, -4.20125294e-03, -2.18208749e-02,
       -8.42651911e-03, 7.67075969e-03, 1.33780413e-03, -7.42299901e-03,
       -6.66272407e-03, 1.38174277e-02, 1.58374757e-02, 2.90872832e-03,
       1.52007462e-02, 7.83621334e-03, 9.54378769e-03, 2.47904798e-03,
       -1.33936405e-02, -1.01465015e-02, 6.72632502e-03, -3.60888429e-03,
       4.23982320e-03, -1.88964196e-02, -5.91428438e-03, -1.36664615e-03,
       4.12414782e-03, -8.56861193e-03, -4.77599492e-03, 7.35793635e-03,
       8.42419919e-03, -6.10176520e-03, 5.40999649e-03, 8.02632421e-03,
       5.44314971e-03, -7.75734021e-04, -6.49884297e-03, -6.40331162e-03,
       -1.55251380e-03, 5.67358453e-03, -4.73385723e-03, 9.29020811e-03,
       9.85962618e-03, 2.82982434e-03, 4.63783246e-04, -6.80900924e-03,
       -6.43445086e-03, -9.97855421e-03, 5.03449375e-03, -1.79159734e-02,
       -1.44715607e-03, -1.74256600e-03, 6.93401787e-03, -3.65696033e-04,
       2.50317925e-03, 9.83071746e-04, 9.47376899e-03, 7.29132909e-03,
       -2.33993074e-03, 3.86649184e-03, 3.70627968e-03, 7.15672411e-03,
       6.46138657e-03, -1.41566008e-04, 1.74611192e-02, 1.72838978e-02,
       -6.51605986e-03, -4.74651391e-03, 6.13722065e-03, 7.33254338e-03,
       8.29487108e-03, 2.59254291e-03, -1.36811566e-03, -7.43720448e-03,
       -8.81610438e-03, 7.22229364e-04, -2.80315871e-04, 2.27043498e-03,
       -7.61577801e-04, 2.11475301e-03, 1.57508906e-03, -4.63280035e-03,
       -8.06419924e-03, -1.40964054e-02, -8.08012299e-03,
       -1.35934483e-02, -7.69519620e-03, 1.86148826e-02, 5.80404466e-03,
       -2.38113245e-03, 2.10217293e-03, 9.72084049e-03, 1.53597007e-02,
       -1.96874584e-03, 2.42852625e-02, 7.44493026e-03, 1.08730595e-03,
       -1.34314655e-03, -3.54693457e-03, -7.24040112e-03,
       -5.75845316e-03, 4.51916177e-03, -1.29318321e-02, 1.41101358e-02,
       -7.39270588e-03, 1.84610318e-02, 3.16597917e-03, -4.93014138e-03,
       3.29145021e-03, -1.32173370e-03, -1.06837600e-02, -2.41930736e-03,
       -6.80374866e-03, 1.55101530e-03, 1.08236205e-02, -2.61249021e-03,
       -3.73588759e-04, 3.00999451e-03, 3.61859426e-03, -4.45004739e-03,
       -1.05214110e-02, 1.40784206e-02, -9.63424053e-03, 1.34092001e-02,
       1.47260551e-03, -1.40831020e-04, -1.14524341e-03, -8.64396989e-03,
       -1.15059391e-02, -1.04588782e-02, 3.58218490e-03, -2.49713124e-03,
       1.10458545e-02, -2.33914191e-03, -5.16982283e-03, -1.03508756e-02,
       -4.13643755e-03, -9.15516354e-03, -3.56292096e-03, 5.97076816e-03,
       -8.94202478e-03, 1.67767014e-02, -6.99913176e-03, -1.63253341e-02,
       9.68916807e-03, 1.25385746e-02, 1.81248295e-03, -1.97723266e-02,
       9.93363187e-03, -3.26867937e-03, 9.77043528e-03, -1.45561306e-03,
       2.41446379e-03, -4.39486792e-03, 8.17874260e-03, -4.58604237e-03,
       -9.38201975e-03, -8.30977317e-03, -4.63386299e-03,
       -6.00113766e-03, -4.29928332e-04, 3.56659992e-03, -3.99733754e-03,
       1.10839456e-02, 1.34209450e-02, 2.35650528e-04, -4.01105592e-03,
       -1.61057580e-02, 1.43382000e-02, -5.21333423e-03, -3.62785649e-03,
       -9.59637295e-03, 8.55255220e-03, 1.07406769e-02, -8.17091390e-03,
       -1.22301318e-02, -2.19238386e-03, -7.53822224e-03,
       -1.32726245e-02, -1.50273750e-02, 5.94213698e-03, 1.36996936e-02,
       1.05430689e-02, 1.60928816e-03, -6.33023621e-04, -1.70985796e-03,
       -9.40931961e-03, 6.98007084e-03, 8.51133000e-03, 1.05428910e-02,
       6.20334176e-04, -1.11569755e-03, -9.39324126e-03, -1.19805699e-02,
       -1.31873488e-02, -1.03923948e-02, 6.27481285e-03, 1.78076960e-02,
       -8.43592267e-03, 1.10007729e-02, 1.53013244e-02, 4.04092390e-03,
       1.01677012e-02, 2.43666139e-03, -9.05565685e-04, -8.29365198e-03,
       -1.18021024e-02, -2.03068848e-04, 4.52240417e-03, 1.09673366e-02,
       9.12466925e-03, 1.54598495e-02, -1.24354828e-02, -1.37245599e-02,
       -1.62711386e-02, -8.03766586e-03, -2.79742060e-04,
       -7.01085548e-04, -2.89437873e-03, -1.53398421e-02,
       -1.07034633e-03, -2.14107335e-02, -2.02753544e-02, 6.75783912e-03,
       1.70038287e-02, -9.37683322e-03, 4.44030343e-03, 8.07083119e-03,
       -5.47969108e-03, 6.36332063e-03, -6.36333087e-03, -7.50126317e-03,
       1.84236234e-03, 3.91010242e-03, -3.58908408e-04, -2.21275003e-03,
       2.75911321e-03, 7.81670492e-03, 4.97991685e-03, -1.31320246e-02,
       -1.02240695e-02, 1.28747453e-03, 2.23386521e-03, 1.26018072e-03,
       -2.99815205e-03, 2.98984814e-03, 1.40244188e-02, 6.06811792e-03,
       -6.76424708e-03, 3.01479222e-03, 1.24968076e-02, 4.00063023e-03,
       -4.77388175e-03, 3.31692351e-03, 2.01180838e-02, 9.56640486e-03,
       4.91908565e-03, -7.96412304e-03, -2.00031064e-02, -5.85688045e-03,
       6.26443769e-04, -4.25628712e-03, 6.41714502e-03, 2.28978395e-02,
       5.98098012e-03, 1.85664594e-02, -3.59454635e-03, -2.07669032e-03,
       -6.91337418e-03, -5.43624349e-03, -6.32849871e-04, 6.71353471e-03,
       1.16812037e-02, 1.60020664e-02, -3.93172679e-03, -1.45255355e-02,
       -9.34276450e-03, -1.26471464e-02, -5.19218948e-03,
       -1.04341877e-03, 1.27542159e-02, 1.03292800e-02, -6.63587940e-04,
       -2.42178654e-03, -1.54624991e-02, -5.34189679e-03,
       -1.35923447e-02, -1.67235900e-02, 5.36255259e-03, 7.72051560e-03,
       1.10920193e-02, 3.99236195e-03, 7.38072628e-03, -6.85813837e-03,
       -6.09166734e-03, -1.30846528e-02, -1.83573354e-03, 6.43654913e-03,
       -8.81308317e-03, -5.99749526e-03, 1.26085998e-02, -5.81761310e-03,
       -7.89658073e-03, -4.27851733e-03, 1.06032332e-03, 8.25780071e-03,
       -4.78936126e-03, 6.67060120e-03, 6.62820553e-03, 5.54285524e-03,
       -5.13963355e-03, -6.13121502e-03, 1.11417065e-03, -6.40905229e-03,
       -1.95460189e-02, 4.79950104e-04, 7.40891846e-04, 5.17007522e-03,
       5.01461374e-03, 2.17727385e-03, -1.79433031e-03, 1.24519812e-02,
       1.07600074e-03, 1.16997131e-03, 1.18665176e-03, -1.76254082e-02,
       -1.58899017e-02, 1.33773882e-03, -1.60189997e-02, -2.38915645e-02,
       -1.73877738e-02, -1.16410945e-03, 2.49349442e-03, 8.58587865e-03,
       -9.34871752e-03, 1.04652382e-02, 1.19532272e-02, 3.43586807e-03,
       -1.89958736e-02, -6.65893871e-03, 8.90936644e-04, 5.44946361e-03,
       5.01916278e-03, 7.99002883e-04, -5.89366013e-04, -6.36255415e-03,
       1.76858332e-03, -1.01773180e-02, -6.42735697e-03, -5.98922046e-03,
       -6.87375665e-03, 7.65494537e-03, 6.72220020e-03, 9.49279964e-03,
       -8.22407473e-03, 1.89286303e-02, -1.51181268e-02, 1.50512569e-02,
       4.12888080e-03, -1.11697726e-02, 5.62263478e-04, -3.70691554e-03,
       1.80698372e-02, 7.94041716e-03, 8.08243267e-03, -3.21677013e-04,
       -2.09762575e-03, -8.16400221e-04, 2.97139678e-03, 9.31279361e-03,
       1.47177586e-02, 1.70204807e-02, -3.65705974e-03, -1.93620138e-02,
       -3.72443348e-03, -3.29688098e-03, 1.39596919e-03, 2.37255916e-03,
       -4.45811963e-03, -7.38271570e-04, 1.02981245e-02, -1.85023956e-02,
       8.73930380e-03, -1.27851060e-02, 3.06286686e-03, -4.83575650e-03,
       -1.59710087e-02, 6.60692900e-03, 9.10653826e-03, 1.37791792e-02,
       -1.16444202e-02, -2.80863582e-03, -1.13499286e-02,
       -1.26318978e-02, -2.17118915e-02, -1.67547613e-02, 1.28393834e-02,
       5.52181294e-03, 8.97268299e-03, -1.05299884e-02, -2.89180111e-02,
       -9.08080395e-03, -7.42575433e-03, 2.21868395e-03, 7.34412111e-03,
       8.78444780e-03, 7.29882915e-04, 1.21219084e-03, -5.34908613e-03,
       2.38950923e-03, -1.01793539e-02, 3.70706664e-04, 6.43293187e-03,
       5.10046317e-04, 4.90059704e-03, 4.01399657e-03, 9.07255220e-04,
       -1.27764726e-02, 6.38797123e-04, 3.87482904e-03, 8.96277896e-04,
       -1.02329804e-02, -3.51095828e-03, 8.44176952e-03, 1.06846718e-02,
       1.23293540e-02, -1.47628952e-02, 1.88145358e-02, 2.10660696e-03,
       9.46142804e-03, 3.77034186e-03, 1.09033026e-02, 1.47168264e-02,
       2.34055915e-03, -2.11407640e-03, -3.36521654e-03, -2.76697264e-03,
       -1.33576244e-02, -1.08870314e-02, 6.39588712e-03, 2.84790038e-03,
       -2.83422909e-04, -2.55899969e-03, -5.83584933e-03,
       -4.33542114e-03, -1.07988780e-02, -1.93307009e-02, 6.22047693e-04,
       9.61355865e-03, 3.72612290e-03, -1.14120613e-03, 3.72365909e-03,
       7.20091863e-03, -3.91171174e-03, 4.68077417e-03, -1.18414434e-02,
       -7.70977046e-03, -4.13667969e-03, 2.33156956e-03, -9.62259131e-04,
       7.14948960e-03, 1.05189288e-03, 1.21643161e-02, 7.49574834e-03,
       -6.74133142e-03, -1.98479998e-03, -3.27676837e-03,
       -2.59731431e-03, -1.11366564e-03, -2.63132108e-03,
       -7.82799092e-04, -7.29402993e-03, -1.71235055e-02,
       -1.03944503e-02, 4.93731070e-03, 9.74505488e-03, 1.02955839e-02,
       -2.50402535e-03, 3.87092074e-03, -4.70776996e-03, -1.21089797e-02,
       -4.17242711e-03, 2.98911543e-03, -6.48282282e-03, 6.25805929e-04,
       4.72904695e-03, 1.08289532e-02, 7.79568916e-03, -4.37173108e-03,
       4.70177038e-03, -1.15954895e-02, -3.06822616e-03, -4.01876355e-03,
       -8.57753621e-04, 1.47666177e-02, 9.29442421e-03, 4.83367685e-03,
       5.34851477e-03, -8.14294675e-04, -9.13617574e-03, 4.48797410e-03,
       -9.30336211e-03, 8.83550011e-03, 1.38613721e-02, 7.62615958e-03,
       7.33926753e-03, -6.31934032e-03, -1.12313516e-02, 1.51251666e-02,
       -2.86182971e-03, -1.30538410e-02, -6.45294273e-03, 1.07392250e-03,
       4.58059600e-03, 5.38722379e-03, 9.13738459e-03, 1.19638173e-02,
       1.10935615e-02, -7.57872453e-03, -4.38660057e-03, -5.28298551e-03,
       1.61503011e-03, 8.33728258e-03, 7.31444173e-03, 2.11408287e-02,
       2.94897566e-03, 8.29354487e-03, -9.09670815e-03, -1.65802464e-02,
       -2.39945156e-03, 9.16977064e-04, -7.74622313e-04, 3.20710056e-03,
       1.40994731e-02, 1.03295529e-02, -3.07960692e-03, -1.25414105e-02,
       -8.11182661e-04, -3.07672960e-03, -1.08647747e-02,
       -5.67120221e-03, -4.65906895e-04, 6.29837159e-03, 5.95436757e-03,
       1.59782488e-02, 5.35039604e-03, -7.62221031e-03, -1.42186163e-02,
       -9.80193727e-03, -7.60323368e-03, -2.11441470e-03, 9.34727397e-03,
       2.47280300e-03, -6.38571242e-03, -1.94757280e-03, 1.08999759e-03,
       -1.01827178e-02, -1.47512658e-02, -1.49585623e-02,
       -2.41708267e-03, 6.71338988e-03, -3.19309440e-03, -2.31695664e-03,
       1.67339086e-03, -1.16331754e-02, 3.87061969e-03, -1.16077242e-02,
       7.12948712e-03, 4.47613792e-03, 3.34011670e-03, -2.60321121e-03,
       -9.99068841e-03, -6.76709320e-03, -1.36625469e-02,
       -1.47169444e-03, -1.97368418e-03, -8.50653276e-03,
       -1.48588594e-03, 1.32826502e-02, -3.57950362e-03, -1.11814020e-02,
       2.33219471e-03, 1.03479978e-02, 3.01005482e-03, -7.52990413e-03,
       -2.23120730e-02, -1.17985969e-02, -5.99816116e-03,
       -1.17274132e-02, -8.17534607e-03, 1.41910901e-02, 1.21139986e-02,
       1.30625803e-03, -3.19267362e-02, 1.76047627e-02, 3.51598323e-03,
       -5.46026090e-03, -1.22802071e-02, -6.12760242e-03,
       -7.14553054e-03, 2.39560334e-03, 7.49465171e-03, 6.53392496e-03,
       4.35530720e-03, 6.38753688e-03, -1.88742252e-03, -1.97621379e-02,
       -1.61944740e-02, 4.36731242e-03, 9.10813361e-03, 6.42203086e-04,
       -1.50566846e-02, -1.43040447e-02, -5.65290684e-04,
       -6.88830204e-03, -4.18875227e-03, 2.81129358e-03, 1.33854439e-02,
       2.41297903e-03, 2.99885846e-03, -2.55297422e-02, -4.63647209e-03,
       6.97155390e-03, 3.41909326e-04, -6.51742751e-03, 1.44119281e-03,
       -2.04750407e-03, -2.99799582e-03, 6.77365437e-03, -1.97095750e-03,
       1.58993690e-03, 1.22647006e-02, 7.75026856e-03, -2.54987623e-04,
       -3.95272812e-03, -2.25206860e-03, -8.99943151e-03,
       -1.24374274e-02, -2.55180467e-02, -1.08423596e-03,
       -1.75153872e-03, 4.49745171e-03, -2.97250599e-03, -3.44318664e-03,
       -1.48946643e-02, -1.18115796e-02, -6.49212115e-03,
       -1.00332918e-02, -2.29656231e-03, 1.04478616e-02, 5.13593527e-03,
       -1.20239090e-02, -4.54957504e-03, 6.26917405e-04, -2.72519724e-03,
       1.29007827e-02, 4.87723667e-03, -1.62207969e-02, 1.22613832e-02,
       1.05995433e-02, -1.76331005e-03, 3.44692357e-03, 6.73031434e-03,
       3.69581347e-03, -2.97101040e-04, -1.01065682e-02, 6.80369185e-03,
       1.58934202e-02, 1.16002737e-02, -9.82525479e-03, -7.79428927e-04,
       -1.83729436e-02, -8.50258674e-03, -6.23434735e-03, 3.91983008e-03,
       -5.94854308e-03, 2.18646098e-02, 2.03605369e-02, 4.23757732e-03,
       -5.55982871e-04, -1.29801370e-02, -4.64532850e-03,
       -1.23864561e-02, -4.54950845e-03, -1.51654286e-03, 1.38771562e-02,
       1.49695128e-02, 6.36226404e-03, -6.18702150e-04, -1.37372786e-04,
       1.14758080e-02, 1.21722335e-03, -1.21878404e-02, 1.36206124e-03,
       1.54296020e-02, 1.16113806e-02, -1.78905204e-02, 1.09097338e-04,
       -2.27425862e-02, 1.00443466e-02, 7.24938046e-03, -1.75914485e-02,
       -1.09260064e-03, 1.56453382e-02, 1.55989416e-02, -6.47342706e-04,
       -7.17762019e-03, -2.26539932e-02, -1.21691625e-03, 3.55345476e-03,
       -3.20595643e-03, -2.35845312e-03, 1.64010338e-02, 6.56121224e-03,
       -2.35102815e-03, 4.75783320e-03, -1.22961318e-02, 3.69251356e-04,
       9.31557920e-03, -1.20747620e-02, -2.47873110e-03, 1.08930822e-02,
       1.57011840e-02, -1.12299155e-02, 1.24615189e-02, -1.98997241e-02,
       1.42043214e-02, 3.98322009e-03, -4.01081005e-03, -1.16634816e-02,
       3.13498056e-03, 2.59500672e-03, -9.67505109e-03, 1.04237562e-02,
       2.62859929e-03, 2.80946586e-02, 1.35502825e-02, -2.17071944e-03,
       6.04926283e-03, 1.99590134e-03, 2.15860666e-03, 9.88850719e-04,
       1.90929677e-02, -1.00851404e-02, 9.31791402e-03, 1.96808148e-02,
       -4.69104201e-03, -1.77100748e-02, -1.95735414e-02,
       -5.71544189e-03, -1.00832125e-02, -6.66886626e-04,
       -1.91057045e-02, 1.13865407e-02, 1.53423613e-02, -1.55927977e-02,
       -7.93919992e-03, 2.04402190e-02, 5.89941069e-03, -8.75821430e-03,
       1.92269813e-02, -7.91954249e-03, 1.00852801e-02, 5.97304571e-03,
       -3.75222135e-03, 8.42565019e-03, 2.86296252e-02, 1.78174693e-02,
       2.37873616e-03, 2.59412695e-02, -1.57996621e-02, -1.59648445e-03,
       4.04984131e-03, 5.03866700e-04, -1.41760455e-02, -3.37904366e-03,
       -1.86887023e-03, -1.29005155e-02, 2.79633864e-03, -2.11971514e-02,
       -1.41333137e-02, 2.87487265e-03, -7.22204009e-03, -1.08279632e-02,
       -1.87491928e-03, 2.90764030e-03, -2.96136085e-03, 9.00442898e-03,
       -1.47687607e-02, -1.31578008e-02, -2.43313168e-03, 5.73905511e-03,
       8.36301188e-04, 1.76250357e-02, 3.55870789e-03, 3.15446896e-03,
       1.66077749e-03, -2.55872943e-02, -1.34015770e-03, 9.78432316e-03,
       -3.19145015e-03, -1.15395812e-02, 2.24898271e-02, 1.36038503e-02,
       1.35272490e-02, -9.93477460e-03, -1.65869556e-02, 1.83663459e-03,
       9.10277385e-03, -2.21923999e-02, -1.92127889e-03, -3.85947269e-03,
       1.11860305e-03, -1.76735129e-03, -2.36732536e-03, -6.07073028e-03,
       1.59960228e-03, 8.88382271e-03, 9.40057635e-03, -1.52161205e-02,
       7.39654666e-03, -2.57392600e-03, 7.59086572e-03, -8.06610473e-03,
       -1.55724981e-03, 8.28184187e-03, 1.43154915e-02, -1.49693815e-02,
       2.51562847e-03, 9.70139075e-03, 2.65123183e-03, -1.63397305e-02,
       -6.51779352e-03, 2.21741805e-03, 1.26547078e-02, 5.88052673e-03,
       1.30176404e-02, -3.65527067e-03, -9.36196558e-03, 4.01620567e-03,
       -2.95411795e-04, -1.00596529e-02, -6.91435765e-03, 1.63885616e-02,
       1.06451325e-02, 1.71512999e-02, 1.27563803e-02, 8.29478167e-03,
       6.25390094e-03, -1.24247679e-02, -2.81790420e-02, -8.21277499e-03,
       6.11645170e-03, -1.00419289e-02, 1.36449086e-02, 1.31046940e-02,
       5.45838964e-04, 1.61421229e-03, -4.00870852e-03, -1.23856496e-02,
       -1.38760600e-02, 1.90337338e-02, 4.40136110e-03, 2.15146616e-02,
       -1.12724500e-02, -1.23094264e-02, -8.50578677e-03,
       -3.76848644e-03, 1.72704854e-03, -6.72032917e-03, 9.42979241e-04,
       3.67289968e-03, 9.61549114e-03, -2.64199870e-03, 2.69944523e-03,
       6.35300390e-03, 7.75278453e-03, 1.49162160e-02, 7.74231786e-03,
       9.24014580e-03, 6.40923996e-03, -5.94186480e-04, 2.10502464e-03,
       3.97145608e-03, -6.43453095e-03, -2.04388844e-03, -1.55513799e-02,
       -5.15252165e-03, 9.48164146e-03, -3.25655867e-03, -8.90954514e-04,
       -1.29943970e-03, 2.51898868e-03, 8.95779114e-03, -8.71915184e-03,
       6.21120259e-03, 6.68527046e-03, 1.07528614e-02, -4.16455138e-03,
       -5.32427989e-03, 2.84785475e-03, -2.99454620e-03, 1.47527622e-04,
       -3.11352825e-03, 9.12558229e-04, 8.93796515e-03, 3.74068902e-03,
       1.12283025e-02, -3.79448786e-04, -3.43117659e-04, 1.10501768e-02,
       1.90814654e-03, -1.79586578e-02, -5.15069580e-03, 1.04567027e-02,
       9.38821398e-03, 9.17856302e-03, 6.92579476e-03, -5.38976444e-03,
       -1.12958727e-02, -5.03023202e-03, -1.12307034e-02,
       -6.28569629e-03, 3.88773740e-03, -7.26187974e-03, -1.04567287e-02,
       -8.96456838e-03, 1.33718294e-03, -4.86449106e-03, -7.77615467e-03,
       -1.36619834e-02, -3.73264775e-02, -3.05582769e-03,
       -3.07920785e-03, 5.20799914e-03, 3.30795208e-03, -2.23676465e-03,
       1.03850551e-02, 1.25060221e-02, 2.81679240e-04, 1.99375078e-02,
       1.84490625e-02, 7.87785091e-03, 1.42930192e-03, -1.32274698e-03,
       3.62753635e-03, -8.11099634e-03, -9.03500550e-05, -5.41914254e-03,
       1.29317222e-02, 2.92833848e-03, 9.29846521e-03, 2.12665275e-03,
       -1.35880348e-03, -1.39164366e-03, -1.08918212e-02,
       -1.62329327e-03, -2.71351542e-03, -9.03287996e-03, 4.33604745e-03,
       1.17779458e-02, 2.58789444e-03, 2.19097463e-04, 8.34093615e-03,
       -7.64609687e-03, 6.46105176e-03, -7.07205292e-03, -9.78185143e-03,
       -4.20429371e-03, 8.93800706e-03, -3.60605097e-03, 1.70763198e-03,
       1.23414146e-02, -3.49773769e-03, -5.97233325e-03, -8.52416269e-03,
       8.72419588e-03, -7.69372215e-04, 3.46130016e-03, 5.72675653e-03,
       2.90008401e-03, 3.92364617e-03, 5.21866823e-05, -4.32720734e-03,
       -6.88434206e-03, 5.77600207e-03, -1.08936802e-02, 6.59857923e-03,
       -1.68295682e-03, -9.18626843e-04, -4.40805510e-04,
       -8.64156801e-03, 8.78287945e-03, -2.31678295e-03, 8.10623262e-03,
       2.70992913e-03, -2.10827403e-03, 9.68222972e-03, -4.34245012e-04,
       -8.77892692e-03, -7.39399437e-03, 7.12780701e-03, -8.38606153e-03,
       7.35777151e-03, 1.15415687e-03, 4.93746158e-03, 1.02935024e-02,
       -7.45805120e-03, 4.12100693e-03, 8.38560518e-03, 7.38772191e-03,
       5.96649293e-03, 7.77917448e-03, -6.55959593e-03, 1.40445083e-02,
       -3.82156391e-03, 1.29097374e-02, -6.68047403e-04, 5.46785165e-03,
       1.68411958e-03, -3.96713673e-04, 7.64324469e-03, 5.06690005e-03,
       -2.58908817e-03, -1.43737914e-02, 5.62049914e-03, -1.42717184e-02,
       -5.20802289e-03, 3.06955329e-03, -6.13251794e-03, -2.95545813e-03,
       7.06831133e-03, 1.40231615e-02, 6.88754162e-03, -6.99344045e-03,
       -5.98948775e-03, 5.73655404e-03, -5.64735942e-03, -7.04159122e-03,
       -1.48387370e-03, 7.14306347e-03, 2.57537258e-03, 3.40057979e-03,
       -1.10090198e-02, 3.61368828e-03, 6.35451777e-03, -3.81220458e-03,
       6.11525436e-04, 7.07290880e-03, 1.33005192e-03, -4.23415564e-03,
       -1.31893456e-02, 5.11047058e-03, 3.49553069e-03, -1.73448597e-03,
       -4.98330500e-03, 6.90461136e-04, 7.88720977e-03, -5.23936329e-03,
       -1.53431101e-02, -4.02309373e-03, 4.75274678e-03, -1.78984960e-03,
       2.28339317e-03, -2.14776653e-03, -1.22906535e-03, 5.70803473e-04,
       -2.45894468e-03, 4.22947574e-03, -3.45619908e-03, -3.93426977e-03,
       -5.24997059e-03, -4.95308405e-03, -2.28952756e-03,
       -4.28723637e-03, 1.70623735e-02, 4.88778297e-03, -4.39412473e-03,
       -5.11249108e-03, 4.00126399e-03, -1.31495539e-02, -7.24273454e-03,
       -7.94479437e-03, 9.40134190e-03, 7.16380728e-03, -8.82234890e-03,
       -1.04776863e-02, 3.48735601e-03, -3.29389260e-03, -5.87724894e-03,
       -3.09634255e-03, -1.43794334e-02, 1.71385054e-02, 4.93287621e-03,
       -3.79829109e-03, 6.82617584e-03, 9.18125361e-03, 3.18206544e-03,
       -1.34267295e-02, -1.02463076e-02, -9.39266570e-03,
       -8.19887780e-03, 3.91968788e-04, -7.53657240e-03, -6.06005453e-03,
       -7.14542170e-04, -4.32161288e-03, -1.15861604e-02,
       -6.14220090e-03, -5.46183344e-03, -1.38589728e-03,
       -1.24575030e-02, -1.29967509e-02, -4.20950307e-03,
       -4.22455458e-04, -7.95543380e-03, -3.51740932e-03, 4.67362208e-03,
       -7.89112132e-03, 1.36369998e-02, -2.59311800e-03, -7.70023558e-03,
       -5.95050631e-03, -5.35084587e-03, 3.09769181e-03, 3.49012611e-04,
       5.59304468e-03, 6.53062761e-03, 2.87745730e-03, -1.74419936e-02,
       -1.00409472e-02, -1.92135796e-02, -1.09039880e-02,
       -4.03914973e-03, -2.10862933e-03, -7.57496990e-03,
       -8.97744950e-03, 7.24994345e-03, -1.04105694e-03, -1.80019496e-03,
       4.13727574e-03, -3.79089848e-03, 3.48959281e-03, 1.81055313e-03,
       5.67438733e-03, 7.84590747e-03, -3.24021536e-03, 6.48092572e-03,
       8.00353847e-03, -7.40614114e-03, 5.61721448e-04, 1.17878290e-02,
       -1.03728380e-02, 2.74826237e-03, 4.18122159e-03, 1.02879824e-02,
       -1.32229812e-02, 2.47944170e-03, -1.00788465e-02, -6.15373394e-03,
       -1.50313051e-02, -1.20273163e-03, -5.74458670e-03,
       -1.51525959e-02, 2.49456125e-03, -2.51794886e-03, 1.09236920e-03,
       3.29658715e-03, 5.72124915e-03, 1.08762388e-03, -4.69703344e-04,
       -1.79734605e-03, -8.23112298e-03, 8.32807925e-03, -3.23230773e-03,
       1.30345691e-02, -8.82367231e-03, -1.17433409e-03, 5.88716799e-03,
       3.07483575e-03, -8.01089406e-03, -1.30231278e-02, 8.33069719e-03,
       -1.22992704e-02, 1.03822735e-03, 2.92596500e-03, 7.27608660e-03,
       2.67695845e-03, 1.77747244e-03, 1.86384376e-03, -3.03190621e-03,
       -3.06087290e-03, 2.56706984e-03, -1.16948085e-02, -1.40420413e-02,
       -1.14365909e-02, 7.87471829e-04, 1.26925865e-02, 4.13798075e-03,
       8.57127551e-03, 4.51569771e-03, 7.42295897e-03, -1.10853370e-02,
       2.57985340e-03, 1.68871880e-03, 2.67547229e-03, 4.93049715e-03,
       -4.39123280e-04, 1.47994026e-03, 4.00551455e-03, 4.67607402e-04,
       -9.60040279e-03, -5.06033131e-04, 4.91181435e-03, 6.88560866e-03,
       1.27211818e-02, 4.32191417e-03, 1.56145059e-02, 2.01117117e-02,
       6.32640766e-03, 7.78949645e-04, -2.65368057e-04, 5.86250657e-03,
       2.41119112e-03, 8.11863318e-03, 1.84180588e-03, -2.35124305e-03,
       -9.21784248e-03, -2.37956901e-05, -1.46576883e-02,
       -6.58851396e-03, 1.64936180e-03, -3.03080166e-03, 1.22089442e-02,
       -4.56187641e-03, 1.19418837e-03, -8.36331490e-03, -7.06929201e-03,
       -7.06376601e-03, -1.72298215e-02, -1.52932648e-02,
       -1.07025196e-04, 6.81493711e-03, -6.21621683e-03, -2.24206410e-03,
       -4.46202495e-04, 1.07126571e-02, -7.06912298e-03, -3.42446356e-03,
       9.73252463e-04, -5.97153790e-03, 1.66634622e-03, -7.98511552e-04,
       1.68168973e-02, 1.06284553e-02, 2.32544877e-02, 3.22125084e-03,
       -6.34560175e-03, -1.76902977e-03, -1.59765929e-02, 1.72165595e-02,
       -6.12960802e-03, -2.41308729e-03, -3.95996682e-03, 1.26952736e-03,
       -8.21056403e-03, -1.46902930e-02, -1.07268943e-02, 1.04750535e-02,
       1.37416795e-02, -1.17321149e-03, -5.18503506e-03, -1.62247941e-02,
       1.76388007e-02, -1.07800681e-02, 4.16021189e-03, -5.30589232e-03,
       2.12292150e-02, 1.48071151e-03, -1.23540591e-02, 1.85601017e-03,
       -4.26676404e-03, 6.39260164e-04, -3.17201391e-03, -1.02143791e-02,
       -5.71910478e-03, -1.62799079e-02, 4.74119419e-03, -1.65805016e-02,
       -1.40291359e-03, -7.49533810e-03, 7.21065328e-03, -1.78747289e-02,
       -5.69398701e-03, -3.48613597e-03, -6.09493582e-03, 2.96119647e-03,
       -3.91595624e-03, -7.86687806e-03, -1.38490333e-03, 1.13691185e-02,
       -1.37397368e-02, -1.22237171e-03, -9.19379387e-03, 7.61589548e-03,
       6.14585867e-03, 4.20738710e-03, -5.46696363e-03, 1.31556038e-02,
       4.39596875e-03, -1.25159007e-02, -7.98915792e-03, -1.88475288e-02,
       -1.83761716e-02, -5.00337826e-03, -1.34667540e-02,
       -5.02558053e-03, 5.71476878e-04, -5.76277357e-03, -1.52381249e-02,
       -5.06089395e-03, 3.82280257e-03, -8.02044105e-03, 8.82769842e-03,
       -4.01992630e-03, -5.99280791e-03, 1.56518247e-03, -1.77968945e-02,
       -1.49918161e-02, -6.80331839e-03, 2.18267064e-03, -1.44892596e-02,
       1.88044813e-02, 2.50392040e-04, -1.19451731e-02, -9.86972125e-04,
       -2.98866327e-03, -4.35864739e-03, -1.04962001e-02,
       -5.41375438e-03, -6.80931960e-04, 2.03072582e-03, -2.95714801e-03,
       -4.78909351e-03, 6.96663558e-03, 3.38773918e-03, 5.37436921e-03,
       -8.35785922e-03, 1.26544088e-02, 5.43312589e-03, 1.41212633e-02,
       -1.05216140e-02, -7.52935046e-03, 1.42335100e-03, -1.15872947e-02,
       2.62324512e-03, -4.72381391e-04, 6.34734286e-03, 1.01835160e-02,
       1.21364603e-02, -7.13572931e-03, 7.80489435e-03, 7.36708706e-03,
       9.86462692e-04, -1.88010943e-03, -3.78328422e-03, 6.35546679e-03,
       2.80329157e-02, 4.78974730e-03, -1.75592199e-03, -3.82565940e-03,
       5.24428999e-03, 1.54411923e-02, -3.75940418e-03, -1.96851324e-02,
       2.97026057e-03, 8.94634426e-03, 5.39113441e-03, 3.69802560e-03,
       -7.78200803e-03, -8.07968248e-03, -1.45410048e-02,
       -6.41669752e-03, -1.15104495e-02, -5.96524496e-03,
       -8.22875067e-04, 5.46959601e-03, -3.70021863e-03, -4.72633354e-03,
       -4.71607177e-03, 4.75534191e-03, -7.74311321e-03, -1.17653525e-02,
       5.38639352e-03, 1.08119454e-02, -2.83316267e-03, 9.36351903e-03,
       -2.33123009e-03, -9.11378767e-03, -1.79344974e-02,
       -1.56663582e-02, -7.43658701e-03, 1.13549279e-02, -1.29621592e-04,
       4.32089204e-04, 6.41191658e-03, 2.21741037e-03, -6.60921121e-03,
       -3.28967534e-03, 2.84768082e-03, -2.12721899e-03, -2.39196746e-03,
       1.31375832e-03, 1.67008042e-02, -3.01319873e-03, -9.04983189e-03,
       -8.15369375e-03, 3.14094918e-03, 8.70009419e-03, -3.11326212e-03,
       4.14470397e-03, 9.03859455e-03, -9.98871308e-03, 4.47855005e-03,
       1.06608616e-02, -8.76968843e-05, -1.57252140e-02, -8.05721059e-03,
       -1.32469274e-03, -1.06157320e-04, -6.23470033e-03,
       -1.96522325e-02, -9.75473877e-03, -4.38980944e-03,
       -7.32993660e-03, -1.07324189e-02, 1.98946451e-03, 5.87341841e-03,
       1.64164545e-03, -6.82966597e-03, 1.19638443e-02, 7.35591352e-03,
       -1.08623058e-02, -1.18640009e-02, 3.78503441e-03, 3.10407399e-04,
       -3.09029315e-03, 2.62550917e-03, 1.87226455e-03, 1.68074388e-02,
       1.88786592e-02, 6.33498072e-04, -1.30272713e-02, 2.81067216e-03,
       2.93060788e-03, -1.83545533e-04, -7.43794590e-05, -3.50331858e-04,
       -1.10015627e-02, 2.04847869e-03, 1.71354739e-04, -3.89086810e-04,
       8.45785066e-03, 7.62641337e-03, 5.27209835e-03, 6.19475543e-03,
       -9.78780445e-03, 2.74303136e-04, 1.54067464e-02, 8.32147989e-03,
       -7.76156783e-03, 7.17214309e-03, 2.28419341e-03, 1.04015844e-03,
       9.60634556e-03, -7.00678723e-03, 1.53963584e-02, 2.01012753e-02,
       8.24339595e-03, 7.73838209e-03, 7.15574576e-03, 5.10947965e-03,
       -3.60324164e-03, -5.60129108e-03, 2.60704081e-03, 1.11773536e-02,
       6.55439158e-04, -4.06049599e-04, -5.29182423e-03, 6.78378670e-03,
       -6.19773148e-03, -1.49570936e-02, -5.91318263e-03, 2.50737811e-03,
       -3.76746710e-03, 7.23510003e-03, -4.22449782e-03, -4.74033970e-03,
       5.87333180e-03, 8.06629192e-03, 1.55428601e-02, 1.54192271e-02,
       4.61999746e-03, -5.54097770e-03, -8.08342360e-03, -5.89052914e-03,
       -3.35477851e-03, -6.95988885e-04, -2.20056321e-03, 1.13301491e-03,
       7.42726820e-03, 7.73162232e-04, 8.91251955e-03, 4.01875586e-04,
       5.12894802e-03, 1.14997977e-03, 1.47738149e-02, -2.12072372e-03,
       -4.62471554e-03, -4.71269304e-04, 2.82553048e-03, 6.65710773e-03,
       4.88849496e-03, 1.36994384e-02, 8.31344072e-03, 3.55509063e-03,
       3.35267559e-03, 1.81570109e-02, 9.84619930e-03, 5.48757380e-03,
       -1.16798701e-03, -2.97078630e-04, -1.75620732e-03, 1.37909886e-03,
       -5.69782220e-03, -1.16700791e-02, 3.26538866e-04, 9.18324012e-03,
       1.78289344e-03, -3.44968139e-04, 8.49593524e-03, 3.64529085e-03,
       3.15040397e-03, -8.09588179e-04, 3.42801353e-03, 1.91796087e-02,
       6.87403744e-03, -6.30730472e-04, 2.61327066e-03, 7.78957596e-03,
       1.01726362e-02, -7.81444740e-03, -6.48030778e-03, -9.04587097e-03,
       4.78761364e-03, 1.52675656e-03, 5.45404153e-03, 9.83495824e-03,
       2.61990894e-02, 8.25598277e-03, 1.94539642e-03, 5.17457258e-04,
       -2.87048216e-03, -3.78047512e-03, 1.66686706e-03, 6.77237229e-04,
       4.10658959e-03, 4.49318730e-04, -8.98173917e-03, -5.25697740e-03,
       1.20889219e-02, 1.34460265e-02, 1.73756294e-02, 6.78643491e-03,
       1.69770385e-03, 8.57077911e-03, 2.05561332e-02, 1.60172605e-03,
       -6.95399195e-03, 1.69621268e-03, 4.12724260e-03, -4.18378925e-03,
       -4.81587462e-03, 4.56359470e-03, 5.50210592e-04, 1.26748718e-03,
       -1.72319810e-03, -2.16899766e-03, 7.25528749e-04, -1.11811387e-03,
       4.98458231e-03, 1.11799389e-02, -1.78336084e-03, -6.35156175e-03,
       -7.41335424e-03, 4.75632539e-03, -1.14907115e-03, -7.53328856e-03,
       -1.20784147e-02, -6.71413587e-03, 3.37254442e-03, -2.92872731e-03,
       1.95522122e-02, 2.07559206e-02, 6.10758597e-03, -1.87684707e-02,
       -8.64132307e-03, -1.01821031e-02, 4.76047117e-03, 6.74299663e-03,
       1.49899349e-02, 8.57920852e-03, 2.12964565e-02, -1.96328689e-03,
       -1.26226395e-02, -2.37204861e-02, -1.26494654e-02,
       -2.39987182e-03, 4.05756873e-04, 3.07839690e-03, -4.33260202e-03,
       -3.68236471e-03, 2.04231986e-03, -7.51901697e-03, 1.74128870e-03,
       -8.14849231e-03, -1.32795759e-02, -1.21314626e-03,
       -5.46428235e-03, -9.93366074e-03, -3.69947008e-03, 5.73795708e-03,
       7.09354086e-03, 1.18937287e-02, -2.62809452e-03, -5.69610624e-03,
       4.12945775e-03, 2.31145835e-03, -4.04239120e-03, 1.38558364e-02,
       -5.04433736e-03, 1.66370464e-03, 5.49392868e-03, 9.16646502e-04,
       -4.41517169e-03, -6.12917915e-03, -5.27864322e-03,
       -5.95818739e-03, 2.07488909e-02, 1.35655822e-02, 1.74803175e-02,
       -2.43329909e-03, -2.00392809e-04, -2.17366754e-03,
       -4.29089274e-03, -9.38030146e-03, -3.62161500e-03,
       -1.60536543e-03, 6.38503209e-03, 1.30291504e-03, 8.50648619e-03,
       1.00675793e-02, 1.16173476e-02, 1.53599409e-02, 3.04825115e-03,
       -4.86683752e-03, -3.46944761e-03, -1.54536683e-02,
       -5.24252374e-03, 4.89823287e-03, 1.24226091e-02, 1.19090900e-02,
       1.00202924e-02, -4.28049453e-03, -8.14572535e-03, 5.36262104e-03,
       4.24360996e-03, 5.36544109e-03, -2.32604030e-03, 3.00063100e-03,
       1.13862371e-02, 5.80408517e-03, -5.55852894e-03, -2.99465307e-03,
       -1.08576370e-02, -1.58871617e-02, -6.56481658e-04, 1.62954852e-02,
       -3.16311576e-04, 6.19792379e-03, -1.48116273e-03, -5.50410710e-03,
       1.34288538e-02, -5.89442020e-03, -3.33407172e-03, 1.66385609e-03,
       -7.62885017e-03, 2.04136348e-04, 7.07063964e-03, -4.26374003e-03,
       1.50451707e-02, 1.54145341e-02, 4.59371979e-04, -5.59331500e-04,
       -2.35905382e-03, 2.23354623e-03, -6.38985075e-03, 6.50225719e-03,
       3.61568318e-03, 7.15477485e-03, 1.50506990e-02, -1.01910587e-02,
       -2.01150216e-03, -4.01791837e-03, -5.01370477e-03, 1.20029915e-02,
       2.18450278e-02, 1.04712779e-02, 2.09305752e-02, 5.57310041e-03,
       -7.82930641e-04, 1.35952318e-02, -8.39615299e-04, 4.10133880e-03,
       -1.77589851e-03, 2.01672576e-02, -3.66998604e-03, -1.09193390e-02,
       7.49294786e-03, 3.61206150e-03, 1.80156319e-03, -2.01857067e-03,
       -2.18518800e-03, -1.05729802e-02, 2.80980323e-03, -2.68126605e-03,
       7.99424597e-04, 8.35753232e-03, 2.12167203e-03, 4.96661570e-03,
       -7.34595116e-03, -5.39307529e-03, 5.31708216e-03, 1.35710752e-02,
       1.47214625e-04, 1.40391551e-02, -1.04804256e-03, 1.01683727e-02,
       6.08053012e-03, 1.71248417e-03, 6.18989673e-03, -1.25108631e-02,
       -3.23280226e-04, -9.50516574e-03, -1.54083259e-02, 2.08569597e-03,
       -5.01212291e-03, 4.20410419e-03, -9.40557104e-03, -1.10218376e-02,
       -3.55467526e-03, 1.45946699e-03, -7.88271835e-04, -1.08451990e-03,
       -7.91685935e-03, -6.36534952e-03, 1.47081714e-03, 1.55528414e-03,
       -7.78144551e-03, 1.07362876e-02, -1.97333563e-03, -5.45158377e-03,
       5.09815104e-03, -8.29310529e-03, -3.14001716e-03, -2.61119916e-04,
       1.46636739e-02, -2.05123462e-02, 1.37874987e-02, 5.93699934e-03,
       7.67344842e-03, 3.57978488e-03, -1.41651472e-02, -9.59392823e-03,
       8.26131509e-05, -6.20721257e-04, -7.23762996e-03, -1.10811805e-02,
       -1.38051230e-02, 2.35249521e-03, -5.54161239e-03, -1.37374541e-02,
       -8.42393748e-03, 6.23672968e-03, 1.37435803e-02, 5.41523891e-03,
       9.85988975e-03, 5.21988468e-03, 3.90059105e-03, -9.17630387e-04,
       4.11708094e-03, -4.39127069e-03, 8.99652019e-03, 1.01709729e-02,
       4.20254748e-03, 6.04636222e-03, 2.51246011e-03, -8.02107505e-04,
       9.00531560e-03, 2.18037460e-02, 1.15083857e-02, 2.17206515e-02,
       4.85598342e-03, -8.28322954e-03, 9.42607061e-04, 1.18378073e-03,
       -1.54330544e-02, 1.39723588e-02, -3.84944282e-03, -3.39978514e-03,
       8.61824118e-03, 1.01352874e-02, 1.76008344e-02, 5.35194995e-03,
       2.98581878e-03, -6.10298524e-03, 4.74920496e-03, -1.40419067e-03,
       2.12592748e-03, 2.04464849e-02, 7.59134162e-03, 6.12897612e-03,
       1.01071317e-03, -1.20147718e-02, -1.38780884e-02, -1.40779780e-03,
       1.14429425e-02, 3.57251940e-03, 2.28237826e-02, 1.48257827e-02,
       1.13353329e-02, 1.12785418e-02, 5.61932893e-03, -1.05841202e-03,
       3.11655272e-03, -6.78966194e-03, -8.73333402e-03, 1.07421549e-02,
       5.85080497e-03, 1.30270643e-03, 1.89438313e-02, 1.34774111e-02,
       4.31256276e-03, -1.14753388e-03, -8.04158408e-05, 5.22300554e-03,
       1.74214728e-02, 1.16510978e-02, 4.91656968e-03, 8.58124229e-04,
       -8.63120239e-03, -8.82688537e-03, -6.60999585e-03,
       -4.92649106e-03, -1.29098073e-03, 2.38639452e-02, 1.14595117e-02,
       3.90217570e-03, 7.70727359e-03, -8.62091110e-05, -7.20611354e-03,
       1.65528292e-03, -4.38953610e-03, -9.68103390e-03, -1.26638648e-03,
       -2.47246400e-03, -5.27815707e-03, 1.61061306e-02, 1.63882207e-02,
       -4.42829070e-04, -4.34960006e-03, 1.77174751e-02, 1.08857434e-02,
       -3.16124037e-03, -5.23130968e-03, -7.28166057e-03, 7.47821108e-03,
       1.10305762e-02, 4.27506026e-03, -1.69576856e-03, 4.25153738e-03,
       -2.01104418e-03, 8.76148604e-03, 1.60567428e-03, -5.34630660e-03,
       1.74384599e-03, 5.60944527e-03, -1.45188738e-02, -2.66895338e-04,
       2.57434789e-02, 2.22320165e-02, 6.16241619e-03, -1.47402141e-04,
       -5.64139849e-03, 4.40841913e-03, -4.77610342e-03, -3.98091646e-03,
       1.12836892e-02, 8.77218507e-03, 5.54442732e-03, -8.12530797e-03,
       -5.54711279e-03, -1.71292981e-03, 5.67129022e-03, 5.64804766e-03,
       -1.37393165e-03, -8.47738981e-03, -5.52852359e-03,
       -1.12943975e-02, -4.34943615e-03, -8.40367377e-03, 1.71955731e-02,
       -3.66716925e-03, -1.63000282e-02, -1.15035269e-02,
       -1.00327283e-02, 1.21928472e-02, 2.70366482e-03, -9.28598829e-03,
       -1.90252974e-03, 5.09293005e-03, 1.46593163e-02, -3.97422817e-03,
       -4.48471634e-03, 9.47308843e-04, 2.79675666e-02, 1.01516033e-02,
       2.36928579e-03, 6.52351556e-03, 2.99846809e-02, 1.19800493e-02,
       -1.22128399e-02, -1.63689218e-02, 8.83559510e-03, -3.31328483e-03,
       -5.66786528e-03, -2.11103936e-03, -6.62377290e-03, 1.03196753e-02,
       5.95211750e-03, -2.35958118e-03, 4.35145106e-03, -5.17336791e-03,
       -5.61110582e-03, -3.78873828e-03, 6.31301198e-04, -4.73746378e-03,
       4.02120920e-03, -8.60138517e-03, -6.17492013e-03, 4.86989506e-04,
       -9.38843191e-03, 2.14110352e-02, 8.62053689e-03, 5.21197775e-03,
       8.63467343e-03, 1.57703850e-02, 1.06520103e-02, -9.07113682e-03,
       -1.39734903e-02, 5.04973019e-03, 1.73161216e-02, 6.91447686e-03,
       -3.40894586e-03, 1.25080836e-03, 7.75958505e-03, -5.36073232e-04,
       -3.93668609e-03, -3.26176523e-03, 1.07927648e-02, -1.83739867e-02,
       -1.21186450e-02, -3.83883645e-03, 8.23736843e-03, 2.51772860e-03,
       2.07740907e-03, -2.07930291e-03, 1.91699760e-03, -1.27063217e-02,
       -8.44216812e-03, -9.44453233e-04, 9.16764315e-04, 7.41979945e-03,
       8.75612628e-03, 1.54721020e-02, 1.80458929e-03, 6.98444527e-03,
       -3.33706674e-04, -7.06988445e-04, -3.50155286e-03, 4.56852885e-03,
       1.24096386e-02, -1.48355775e-02, -9.18535143e-03, -1.52970860e-02,
       7.84886535e-03, 5.22333523e-03, -3.80403339e-03, 4.26809443e-03,
       1.33541757e-02, 1.23658553e-02, 7.70604180e-04, 2.24789102e-02,
       7.98813708e-04, 9.54977889e-03, 1.28356693e-02, -1.04081128e-02,
       -3.56840296e-03, -1.36333713e-02, 1.00341868e-02, 3.52221960e-03,
       6.15990208e-03, -1.64693323e-04, 1.82008441e-03, -8.21491983e-03,
       -1.02599682e-02, -1.38935689e-02, -2.03957427e-02, 4.88814432e-04,
       -1.59025099e-02, -3.71481804e-03, -4.57962789e-03, 9.99048725e-03,
       -3.97889782e-03, -2.67303013e-03, 3.89432861e-03, 5.37956506e-03,
       2.48163403e-03, 7.77180260e-03, 8.12356174e-03, 1.19203003e-03,
       6.57351455e-04, 1.25677709e-03, 2.66180653e-03, -3.39190639e-03,
       -8.75490811e-03, 3.24725243e-03, -5.02059411e-04, -2.01970409e-03,
       1.07402485e-02, 5.66597236e-03, 3.31246149e-04, -9.22128744e-03,
       -6.73514931e-03, -5.75904781e-03, 4.68947599e-03, -6.71910075e-03,
       -3.28073697e-03, -1.07117034e-02, -2.59578577e-03,
       -5.36997011e-03, -9.61738115e-04, -2.04097014e-03, 4.75118728e-03,
       2.02251729e-02, -1.63169776e-03, 8.59527662e-03, -3.90635757e-03,
       -1.18270805e-02, -1.63875287e-03, 6.12574955e-03, -1.19909402e-02,
       -8.52639414e-03, -1.60002150e-03, -5.23337163e-04,
       -1.36304865e-04, 3.74850165e-03, -8.09028093e-03, 6.36503939e-03,
       9.31703299e-03, -1.16730388e-02, 4.46151360e-04, 9.17282421e-03,
       1.99879077e-03, 1.37778055e-02, 2.42357492e-03, -1.44069977e-02,
       6.20115222e-03, 3.04296822e-03, -3.81404604e-03, -5.54340705e-03,
       5.42944251e-03, -5.91658871e-04, 4.62199887e-03, -4.26235050e-03,
       -1.54015115e-02, -4.04916471e-03, -4.79002483e-03,
       -7.46516418e-03, 4.45024762e-03, 1.50407832e-02, 1.33460686e-02,
       8.86369031e-03, -3.23542999e-03, -7.30082393e-03, -1.64633486e-02,
       4.34088800e-03, -1.18922032e-02, -8.03619623e-03, 6.40138611e-03,
       -5.60040236e-04, 7.71110924e-03, 1.02376100e-02, -1.18844239e-02,
       -9.39776376e-03, 1.20203961e-02, -6.28709281e-03, 3.76172480e-04,
       1.05815269e-02, 7.35493377e-03, 6.40232675e-03, 8.67736898e-03,
       -6.90666214e-03, -2.74040527e-03, -1.03953923e-03,
       -1.10617140e-02, -8.31504632e-03, -8.44372343e-03,
       -3.91490234e-04, 1.68617703e-02, -1.62018207e-03, -9.30551067e-03,
       -1.64218675e-02, 1.62956696e-02, -7.97859021e-03, -6.62983768e-03,
       -7.64103793e-03, -3.77385877e-03, 4.28056763e-03, 5.82070672e-04,
       -1.10178012e-02, -7.08497735e-03, 1.22097982e-02, -1.42195318e-02,
       -2.02858355e-02, -8.26252438e-03, 1.94974558e-03, 1.12753883e-02,
       -3.13174515e-03, -1.09154740e-02, 5.22152428e-03, 1.80530306e-02,
       -1.41921807e-02, -1.14850430e-02, 9.06940456e-03, 9.35543422e-03,
       6.50258036e-03, 3.28054582e-03, -1.43335713e-02, 1.49536394e-02,
       2.26004072e-03, -6.28711795e-03, -4.32206597e-03, 6.67789113e-03,
       -5.76153956e-03, 3.48240079e-04, -1.03845196e-02, -1.32114114e-02,
       -4.54614498e-03, -8.89205374e-03, -1.56153068e-02,
       -3.27396177e-04, 2.33383896e-03, -1.17042232e-02, -9.51811578e-03,
       -5.23419178e-04, 2.81247194e-03, -9.22955666e-03, 5.62425191e-03,
       -1.16658695e-02, -4.76737553e-03, 1.42286802e-02, -7.45520182e-03,
       1.30078115e-03, 2.42254767e-03, -1.38316574e-02, 7.89134428e-05,
       -6.44153357e-03, -2.96291173e-03, 6.56541903e-03, 4.81387367e-03,
       -7.04585854e-03, -1.12579810e-02, -2.23263935e-03, 1.72159227e-03,
       -2.90326029e-03, -1.11761251e-02, -2.05436256e-02,
       -5.65596763e-03, 4.96932026e-03, -1.02635613e-03, 1.12427911e-02,
       1.08577143e-02, 8.05086177e-03, -7.45333638e-03, -1.21171342e-03,
       -8.23883247e-03, -1.02355834e-02, 9.46856290e-03, -1.49660336e-03,
       1.04809208e-02, 5.44622215e-03, 2.55531142e-03, 5.67101268e-03,
       -8.55040830e-03, -7.63644325e-03, 5.23314020e-03, 1.66454520e-02,
       1.16985431e-02, 1.91331692e-02, 8.23175348e-03, 1.03606991e-02,
       2.40539480e-03, 1.29579660e-03, 1.60601716e-02, 1.36082247e-02,
       1.73909795e-02, 2.61619035e-03, 1.42576192e-02, 4.41045361e-03,
       -3.59792751e-03, 8.34472757e-03, -1.64110900e-03, 9.22304462e-04,
       7.43893150e-04, -5.42000227e-04, 1.06359869e-02, 4.79199737e-03,
       4.02997219e-04, 6.30829530e-03, 5.38061792e-03, -1.93179287e-02,
       4.01393132e-04, 6.06907019e-03, -9.29347891e-03, -1.61404740e-02,
       2.54200096e-03, 2.78956862e-03, 1.57034229e-02, -1.65278073e-02,
       2.49973522e-03, 1.69785265e-02, 3.63293337e-03, -6.39007485e-04,
       1.21957781e-02, 1.43029983e-03, -3.39670898e-03, -9.82079376e-03,
       5.31838462e-03, -1.50739877e-02, 4.00651945e-03, 4.02786536e-03,
       -4.35472140e-03, -3.32263066e-03, -1.49647729e-03, 1.05513586e-02,
       1.24271559e-02, -1.01097366e-02, -1.68564841e-02, -4.29684529e-03,
       9.31937154e-03, 2.98654661e-03, -1.41870640e-02, -6.99788751e-03,
       2.12169229e-03, -4.20081103e-03, -1.10692428e-02, -8.57038051e-03,
       -3.40740453e-03, 3.34383687e-03, -2.20943289e-03, -5.63323824e-03,
       3.71792633e-03, 1.40694622e-02, -3.83733353e-03, -2.07675970e-03,
       -5.33669116e-03, -4.16510273e-03, 1.22028803e-02, 8.33593681e-03,
       -3.44081753e-04, -1.00977467e-02, 6.24207314e-03, 8.53342470e-03,
       3.14830407e-03, 1.39513211e-02, 1.18305348e-02, 7.83130806e-03,
       6.35764981e-03, 4.14443994e-03, -1.10905310e-02, -6.04171865e-03,
       -1.34874089e-02, 1.35447429e-02, -1.02604348e-02, -3.44521552e-03,
       3.79166612e-03, 3.24931170e-04, 1.16816377e-02, 1.59014919e-04,
       1.80169556e-03, -2.67617870e-03, -1.28154643e-02, -7.20837479e-03,
       -4.66798898e-03, -8.74382735e-04, -6.28251350e-03,
       -3.17400927e-03, -6.17549429e-03, -2.80809822e-03, 4.13055485e-03,
       -9.39677749e-03, 1.10118417e-02, 2.92981439e-03, -2.34751147e-03,
       -3.97427101e-03, 6.71453634e-03, -1.09858736e-02, -6.94057497e-04,
       -7.01134745e-03, 1.11088231e-02, 4.27397434e-03, 1.44883443e-03,
       4.85873129e-03, 2.41843518e-03, 7.17830472e-03, -8.53993651e-03,
       -2.80017173e-03, 1.11220023e-02, 5.26969228e-03, -9.20354016e-03,
       -5.05777728e-03, -4.60851239e-03, -9.32844880e-04, 9.45245032e-04,
       -1.78089293e-04, -1.93110097e-03, 8.01638514e-03, 9.09987837e-03,
       -4.59290901e-03, -1.44959921e-02, -7.14225927e-03, 1.64298667e-03,
       -5.89554198e-03, -1.21903932e-02, -4.43676580e-03,
       -8.91522504e-04, 5.68756554e-03, 2.60518910e-03, -2.60405825e-03,
       1.84323371e-03, 1.20563209e-02, -6.47115894e-03, -1.59825967e-03,
       -3.94523697e-04, 1.75334103e-02, 7.48065952e-03, -6.11446798e-03,
       -1.02139851e-02, 2.97004310e-03, -1.35481136e-03, -8.53531715e-03,
       -1.59714185e-02, -1.51065281e-02, 4.75944747e-04, 1.34488754e-02,
       4.19646362e-03, -6.56296674e-04, 2.12498382e-03, 6.46935264e-03,
       -7.41553400e-03, -9.04704817e-03, -5.17401751e-03, 7.83579424e-03,
       1.36397278e-03, -1.17475828e-02, 4.20810049e-03, 4.90711536e-03,
       -3.22850712e-04, -1.23039344e-02, 2.38032313e-03, 9.96161811e-03,
       1.17496466e-02, -1.28521295e-02, -3.03040637e-04, 2.41193338e-03,
       1.23066958e-02, 7.92022329e-03, -3.57693201e-03, -4.86673694e-03,
       -5.60240913e-03, 5.47765382e-03, 1.46227106e-02, -9.91173740e-03,
       -5.87733276e-03, 1.09103071e-02, -8.49670917e-03, -1.86864138e-02,
       -8.93237162e-03, 2.59977038e-04, 8.79529677e-03, -2.76451092e-03,
       -8.33423529e-03, -2.96712806e-03, 4.96118038e-04, 7.61937024e-03,
       1.61709525e-02, 3.38240154e-03, 4.89263376e-03, 4.11040965e-04,
       -1.08251441e-02, -1.94800273e-03, 4.15184908e-03, 3.46170925e-03,
       1.23441042e-02, 1.00458004e-02, 2.30936240e-03, -2.08304077e-03,
       -7.66213331e-03, -5.18359290e-03, -1.51083283e-02, 8.60207947e-04,
       7.09960377e-03, -7.46799028e-03, -1.17870979e-02, -1.38948336e-02,
       -2.64360290e-03, -5.41060755e-04, -1.58356689e-02,
       -1.83495115e-02, -1.13067525e-02, 6.86409464e-03, 9.22629051e-03,
       2.15032808e-02, -8.06779310e-04, -5.64257288e-03, -3.30826640e-03,
       -1.57801025e-02, 9.45163704e-03, 1.11477058e-02, 7.84012675e-03,
       -4.28686710e-03, 7.56884180e-03, -8.43817461e-03, -2.99275183e-04,
       -3.81225604e-03, 4.42464650e-03, -3.42714484e-03, 1.88053846e-02,
       1.15945647e-02, -6.18870091e-03, -1.67184845e-02, -8.62853974e-03,
       3.00636468e-03, -4.91766399e-03, -1.12193273e-02, -3.25822341e-03,
       -6.11005537e-03, 8.50066449e-03, 1.36248406e-03, 1.61928833e-02,
       -7.28174020e-03, -3.16106656e-04, -7.49635883e-03,
       -8.79817083e-03, -1.49052963e-02, -5.00673614e-03, 1.20253973e-02,
       -4.56961617e-03, -2.13452000e-02, -1.46368903e-03, 4.15569777e-03,
       -2.92357872e-03, -1.73378550e-02, -9.15832072e-03, 6.40408788e-03,
       6.81601232e-03, -2.49871588e-03, -5.02673956e-03, 1.48693260e-04,
       1.00292545e-03, -1.23637310e-05, -2.75319023e-03, -1.12273812e-03,
       6.58065593e-03, 1.45748602e-02, 7.05579389e-03, -2.42173951e-03,
       5.11414092e-03, -5.38774207e-03, 1.97564950e-03, -1.03755165e-02,
       -1.08129941e-02, -4.23292397e-03, -3.08629801e-03,
       -8.28484260e-03, -9.10572056e-03, -8.09989683e-03,
       -1.17659038e-02, 6.25005923e-04, -8.06531229e-04, -3.74301849e-03,
       7.98356440e-03, -6.46722410e-03, -1.35159807e-03, -1.38419056e-02,
       -4.03335644e-03, -7.91667216e-03, -6.49025990e-03, 4.02075518e-03,
       1.17015578e-02, 1.27606709e-02, 1.21364053e-02, 6.13359129e-03,
       1.10338274e-02, -5.56031708e-03, 1.87071320e-03, 9.65577364e-03,
       -7.73773529e-04, 1.89304550e-03, 8.85636732e-03, 8.48121010e-03,
       2.86819739e-03, 2.23083515e-02, -6.41406514e-03, -7.73592736e-04,
       -1.48017530e-03, -1.25640696e-02, 4.16165509e-04, 8.16570409e-03,
       2.60168267e-03, -1.23401626e-03, -1.00672629e-03, -6.07208535e-03,
       -2.29458907e-03, 2.96695391e-03, 7.40206381e-03, 6.13851473e-03,
       1.03236046e-02, -1.78105012e-03, -1.28359552e-02, -1.72164553e-04,
       -2.63568270e-03, -1.26540223e-02, -1.88945942e-02,
       -2.41183312e-04, 6.57756114e-03, -1.58278213e-03, -6.49211369e-03,
       -1.33775864e-02, -5.49995760e-03, 1.06648207e-02, 9.16357338e-03,
       9.53889638e-03, 1.22502903e-02, 7.85058271e-03, 1.65065785e-03,
       3.71612376e-03, -2.87752591e-05, 6.39827596e-03, -1.51915131e-02,
       -2.04286841e-03, 4.61516529e-03, -4.43410268e-03, 2.98676686e-03,
       5.95595129e-03, 1.67725387e-03, -2.38559418e-03, 1.98217567e-05,
       -5.34104137e-03, 7.87182245e-03, 7.73612922e-03, 4.19907068e-04,
       -6.07419200e-03, -1.35743357e-02, -1.14744743e-02,
       -4.50334139e-03, 5.87549992e-03, -9.42935608e-03, 6.19975757e-03,
       -2.39202258e-04, -1.12561472e-02, 7.68812886e-03, 1.84199552e-03,
       -8.80192593e-03, -2.60441145e-03, 9.64117050e-03, 9.71764792e-04,
       1.81652958e-05, 2.35856371e-03, 6.50761323e-03, 2.63803266e-03,
       -8.97226110e-03, -1.20058339e-02, -3.16277053e-03,
       -1.11306161e-02, 5.58359176e-03, -6.57284446e-03, 3.96727963e-04,
       9.51776281e-03, 2.45844317e-03, -2.09935233e-02, -1.88844539e-02,
       -9.22241807e-03, 1.21083306e-02, 5.59142977e-03, 1.24759870e-02,
       -8.96157138e-03, -5.52822230e-03, -3.38314567e-03,
       -1.37772141e-02, -1.40825100e-02, -1.91337001e-02,
       -1.08549064e-02, 1.64762735e-02, 1.23918280e-02, -1.74407288e-02,
       -9.96365864e-03, -3.13581550e-03, -2.70181755e-03,
       -1.55045558e-03, -1.75542780e-03, -3.86725948e-03, 6.23319251e-03,
       -6.76732464e-03, -2.16898174e-04, -6.59946760e-04, 2.35517789e-03,
       -6.73784874e-04, 5.50162839e-03, 8.67659878e-03, 9.90786590e-03,
       7.24696554e-03, 9.82931536e-03, 1.28887789e-02, 3.87998391e-03,
       2.56900396e-03, -8.73094890e-03, -8.52175150e-03, -1.05857337e-02,
       -6.08410640e-03, 1.07339048e-03, -5.01025701e-03, -2.66911630e-02,
       -8.15023948e-03, 2.28790138e-02, -2.89229350e-03, -7.94759393e-03,
       -4.01034998e-03, -6.93988113e-04, -3.73932962e-05,
       -6.33699168e-03, -1.82194151e-02, 7.69434636e-03, 3.55378399e-03,
       -4.32487531e-03, -3.13253235e-03, 6.35811221e-03, 1.05498470e-02,
       -9.89150256e-04, 6.54474413e-03, 1.31733308e-03, -6.04560555e-05,
       3.20023671e-03, 9.55254491e-03, -1.58833433e-03, 6.85129408e-03,
       -1.16881123e-03, -1.93165033e-03, -2.09404767e-04,
       -2.48291693e-03, -1.20147914e-02, 1.97321437e-02, -6.99308049e-03,
       -7.11982930e-03, -8.77064373e-03, -3.38754500e-04,
       -4.68129618e-03, -5.82154747e-03, -9.85714048e-03, 1.37076015e-03,
       1.40275965e-02, -2.18013488e-03, 2.84484331e-03, 4.17230604e-03,
       7.00638862e-03, 4.84821759e-03, 1.41624408e-02, 3.98429111e-03,
       -1.26598040e-02, 3.64399818e-03, 5.09908702e-03, 1.71199220e-03,
       5.55808656e-03, 1.00093195e-02, 8.94742610e-04, -5.53264702e-03,
       9.04366560e-03, -6.93424977e-03, 9.05083772e-03, -1.00237678e-03,
       1.39915955e-03, 8.56404193e-03, 2.19988311e-03, -6.18370669e-03,
       3.92944959e-04, 7.36096734e-03, 3.00559122e-03, 1.48473615e-02,
       3.39589501e-03, 6.88809529e-03, 7.71638704e-03, 9.12444480e-03,
       -6.41163066e-03, -6.30543276e-04, 4.93854564e-03, -1.09809954e-02,
       1.67429969e-02, 3.26805026e-03, 9.06078704e-03, 1.22953858e-02,
       1.00966524e-02, -9.00983624e-03, -3.76641494e-03, 3.10896570e-03,
       -3.11878137e-03, 5.41083934e-03, -6.77205564e-04, -9.95711889e-03,
       2.53810524e-03, -9.94057767e-03, 2.43887445e-03, -4.44118911e-03,
       -1.12253893e-02, -2.71001155e-03, 1.29627120e-02, 1.91517565e-02,
       -2.69515952e-03, 3.48605542e-03, -1.19420309e-02, 1.27132544e-02,
       -7.56354071e-03, -1.40687339e-02, -6.90814760e-03, 1.44559164e-02,
       2.06091977e-03, -3.40602268e-03, 3.64264566e-03, -9.94732953e-04,
       -1.80643576e-03, -7.87632260e-03, -6.88582566e-03,
       -7.90852122e-03, 3.04300282e-02, 7.47318007e-03, 6.31258823e-03,
       6.72999443e-03, 2.04509520e-03, 1.73760951e-02, 2.53619021e-03,
       -5.60249062e-03, 6.54630316e-03, 1.11542754e-02, 7.99113698e-03,
       -1.14568807e-02, -4.19657631e-03, -1.95205747e-03, 1.86416637e-02,
       -7.42760766e-03, -9.18120239e-03, -9.28698853e-03, 8.58021621e-03,
       5.94573142e-03, -3.67312547e-04, 4.93234838e-04, 1.40196839e-02,
       1.49053885e-02, -7.27917766e-03, -1.19434418e-02, -1.35908742e-02,
       2.48262323e-02, 3.23837344e-03, -7.40402797e-03, 1.10760273e-03,
       -2.15975544e-03, 1.46961343e-02, -7.35198671e-04, -6.53841533e-03,
       -4.83729818e-04, 1.39492108e-02, 1.91472266e-02, 8.92477948e-03,
       1.01670912e-02, 3.64974141e-03, 1.23366481e-02, -5.12855547e-03,
       -9.33244824e-03, -7.94990920e-03, 1.13316979e-02, 1.09109608e-02,
       -1.24717713e-03, 2.53342092e-03, 7.42477551e-03, 1.36911059e-02,
       -4.21901559e-03, -4.00087610e-03, -3.14734620e-03, 5.43668121e-03,
       6.68549212e-04, -3.00427643e-03, -2.55060871e-03, 1.51168997e-03,
       -3.09534697e-03, -4.96749626e-03, 2.77829869e-03, 6.31150790e-03,
       1.36705469e-02, 1.61891952e-02, -2.33371719e-03, 2.56419624e-03,
       -5.37709100e-03, 7.80133018e-03, 2.11853039e-04, -8.45956791e-04,
       2.32635206e-03, 1.48846032e-02, 1.38548790e-02, 6.33612566e-04,
       -3.47718666e-03, -8.59767664e-03, -1.21985553e-02,
       -2.15731584e-03, 1.34802042e-02, -1.10090082e-03, -1.09772058e-02,
       -2.30961828e-03, 7.58451817e-04, 4.44500847e-03, -1.43830003e-02,
       4.82553896e-03, -5.66188945e-03, 5.23032015e-03, -6.40825229e-03,
       -2.40383651e-02, 2.59135239e-04, 1.49965398e-02, 9.08653717e-03,
       8.47598945e-04, 2.13610642e-02, 1.33141899e-03, 9.26265121e-03,
       -3.80834658e-03, 6.74360618e-03, -2.64284993e-03, -9.79386084e-03,
       -6.41205255e-03, -7.63738668e-03, -2.22274265e-03, 1.43828755e-03,
       1.79429799e-02, 3.26911756e-03, -1.25956181e-02, -8.03836063e-03,
       1.52525427e-02, 7.89043307e-03, 9.34775919e-03, 9.23282281e-03,
       -2.33458355e-04, 1.36639755e-02, 1.09186396e-02, -6.70547085e-03,
       -5.56565006e-04, 8.33300315e-03, -1.47971627e-03, -1.68035924e-03,
       1.52232125e-03, -9.58671607e-03, 8.94366298e-03, -1.99331064e-03,
       -3.78235546e-03, -3.96436872e-03, -6.24287827e-03,
       -4.58694808e-03, -7.67559512e-03, -8.65598209e-03, 4.01213719e-03,
       5.99227054e-03, -1.10623230e-04, -1.57961398e-02, -5.72487339e-03,
       1.27284089e-02, 6.42284343e-04, -1.53973028e-02, 6.74674462e-04,
       -5.83126675e-03, -3.21415416e-03, -9.60067773e-05,
       -3.53604788e-03, -4.66616964e-03, -1.57154619e-03,
       -8.79290421e-03, -2.25863580e-04, -7.68875936e-03, 1.67412843e-04,
       -1.27558340e-03, 4.34912508e-03, 5.75679261e-03, -5.56526054e-03,
       -7.39644794e-03, -1.02563687e-02, -7.53061089e-04, 4.49238112e-03,
       7.95671716e-03, -3.57534061e-03, 6.12764992e-03, 7.07023824e-03,
       -6.96878822e-04, -3.60836810e-03, 1.97768304e-03, -1.12166386e-02,
       1.35565652e-02, 5.40460413e-03, -1.83952264e-02, 1.54578057e-03,
       7.90376216e-03, -7.92380515e-03, -1.17516918e-02, -1.83718950e-02,
       -1.09657226e-02, 5.80612849e-03, -1.49819872e-03, -9.12742631e-04,
       1.05153788e-02, 1.04609309e-02, -1.62279524e-04, -3.31084011e-03,
       -2.59053730e-03, -1.90646015e-02, 1.15680220e-02, -1.68475113e-03,
       -5.76354610e-03, 1.76071376e-02, 4.22036042e-03, 9.54757538e-03,
       7.67212361e-03, 1.03821885e-02, 1.55712070e-03, -2.39811558e-03,
       -5.64571237e-04, -2.36655250e-02, -8.67433194e-03, 4.14070161e-03,
       4.53865295e-03, 7.85480719e-03, 6.66389661e-03, 8.83734785e-03,
       1.68300132e-04, -4.81296191e-03, -1.60801765e-02, -1.22873951e-02,
       -2.04646261e-03, 7.77444395e-04, -2.71909731e-03, 1.54085853e-03,
       -1.17561724e-02, 4.08368837e-03, -3.05478089e-03, -2.66373307e-02,
       -6.99175615e-03, 4.18619718e-03, -7.48807751e-03, 1.96847576e-03,
       -8.96075740e-03, -3.00780125e-03, -7.32105272e-03,
       -1.63342757e-03, -5.58991218e-03, -1.11336564e-03, 4.22788225e-03,
       -4.20771074e-04, -9.20790713e-03, -7.72074936e-03,
       -2.28428957e-03, -2.04991759e-03, -1.49889374e-02,
       -7.56505178e-03, 5.28080622e-04, 7.02896621e-03, 2.78759635e-05,
       5.46498224e-04, 1.18843773e-02, 7.75252050e-03, 6.99692918e-03,
       -9.50912572e-03, 4.78532072e-03, 8.18426814e-03, 4.38634586e-03,
       -5.94501034e-04, 5.07948641e-03, -1.20123038e-02, -1.59774069e-02,
       -1.37456171e-02, -7.70821236e-03, -1.17011489e-02,
       -3.02724913e-03, 1.41725515e-03, 1.12311775e-02, 1.70557424e-02,
       2.76930194e-04, -8.06881953e-03, 3.63893900e-03, -1.30622108e-02,
       -7.94702303e-03, -7.26500573e-03, -5.27974498e-03,
       -2.82784412e-03, 1.11947523e-03, 1.78195965e-02, 2.47506541e-03,
       6.36216626e-03, -2.69010174e-03, 3.18201288e-04, -8.33348930e-03,
       -2.39101262e-03, 8.29912722e-03, 2.04381300e-03, 7.25922035e-03,
       5.69559541e-03, -1.23483362e-03, 1.32110128e-02, 1.79569405e-02,
       -2.07852689e-03, -1.06620966e-02, 1.51121523e-04, -2.47429311e-03,
       5.10346889e-03, -1.05961366e-02, 1.05510655e-04, -4.09948546e-03,
       -2.90997676e-03, -8.70416593e-03, 1.19661186e-02, 5.26368851e-03,
       -8.86894390e-03, -2.46055354e-03, -7.97904655e-03,
       -6.72587566e-03, 1.22769382e-02, 2.25541601e-03, 3.33940773e-03,
       -6.11925079e-03, -2.27820058e-03, 2.65676295e-03, 4.52251965e-03,
       8.07013828e-03, 4.24486166e-03, 3.67480889e-03, 1.36473970e-02,
       -1.17687287e-03, -9.16306302e-03, -1.95961329e-03, 9.84500255e-03,
       9.85664222e-03, 9.60156135e-03, 1.51111209e-03, 2.74503557e-03,
       1.04219578e-02, 2.39174301e-03, 4.23652073e-03, 2.51878216e-03,
       -4.50339774e-03, 1.14064757e-03, 9.99674294e-03, -9.32246074e-03,
       -2.62480415e-03, -3.32943699e-03, -6.37849967e-04,
       -1.26923239e-02, -9.44715459e-03, -6.01556804e-03, 3.67818982e-03,
       1.36794802e-02, -6.84123999e-03, -1.31279025e-02, -7.32307089e-03,
       -2.03311909e-03, -2.12558283e-04, 7.08394544e-03, 8.98934435e-03,
       -7.60934036e-03, 6.54823799e-03, -4.27535124e-04, 1.43420429e-03,
       -1.50206732e-04, -4.60849726e-04, -1.27631635e-03, 1.26689393e-02,
       9.31828097e-03, -5.35879564e-03, -1.17023867e-02, -3.71626741e-03,
       1.37355772e-03, -3.91365757e-04, -4.15991060e-03, 5.06099139e-04,
       -1.81799475e-03, 3.57923942e-04, -7.66686630e-03, -8.68245121e-03,
       4.30553732e-03, 1.08503026e-03, -1.12886503e-02, -1.15846575e-03,
       1.19011989e-02, 4.37957374e-03, 1.11062145e-02, 7.00279651e-03,
       -2.07805051e-03, 9.34060663e-03, 1.16149792e-02, -1.93232053e-03,
       4.83654859e-03, -1.48509303e-03, -1.67502218e-03, 6.98587950e-03,
       2.56138854e-03, -7.49775395e-03, -1.39236134e-02, 3.93106928e-03,
       -5.83347219e-06, 3.41325230e-03, -4.95299185e-03, -7.35023757e-03,
       3.00765084e-03, 1.25390152e-02, -7.17106601e-03, -1.55652706e-02,
       1.13731611e-03, -3.42684682e-03, 4.90696216e-03, 8.54035094e-03,
       -9.69383214e-03, -4.02322185e-04, 2.03024894e-02, -3.34496819e-03,
       -7.22449366e-03, -2.57159141e-03, -1.33986920e-02, 4.81618242e-03,
       1.68568268e-03, -1.33708864e-02, -4.18906659e-03, 1.29440669e-02,
       -1.04466118e-02, 1.08225073e-03, -1.76760863e-04, -6.98192162e-04,
       7.62026478e-03, -9.83409304e-03, -7.70414202e-03, -7.08363485e-03,
       9.50723328e-03, 5.50137041e-03, -4.89001488e-03, 1.59191135e-02,
       2.85547390e-03, 1.47483370e-03, 8.59970809e-04, -5.66810695e-03,
       -4.08353237e-03, 1.07872020e-02, 3.00139934e-03, -6.67869626e-03,
       1.13403080e-02, 5.75606246e-03, 7.34050758e-03, -1.49144670e-02,
       -1.98457390e-02, -1.38367768e-02, 2.61122710e-03, 8.51912890e-03,
       1.21114157e-04, 4.73074568e-03, -5.65787731e-03, -7.59556331e-03,
       -6.39673974e-03, -1.88197009e-02, -1.51965944e-02, 5.50956000e-04,
       -9.21628159e-03, -3.97250103e-03, 1.61697660e-02, -5.47917094e-03,
       -7.07062893e-03, 8.37607961e-03, 4.04683000e-04, 6.27199141e-03,
       2.22303011e-02, -3.94066051e-03, 9.60528094e-04, 8.66604561e-04,
       6.36241306e-03, 8.48411489e-03, -8.41129047e-04, -2.25361879e-03,
       1.68660358e-02, 7.79281138e-03, 1.04027502e-02, -4.93704714e-03,
       -1.14017678e-02, 3.87816993e-03, 9.84141044e-03, 8.69393628e-03,
       -4.71564522e-03, 4.93320578e-04, 3.46180866e-03, -8.08829069e-03,
       2.13088165e-03, -7.22536165e-03, -2.09953319e-02, 3.55615397e-03,
       2.95613869e-03, -1.41404625e-02, -4.37955465e-03, -9.47054010e-03,
       1.27891665e-02, -1.04580540e-02, -9.46265180e-03, -1.57850105e-02,
       1.03783626e-02, 7.19419308e-03, 3.65629536e-03, 1.47662051e-02,
       1.60499569e-02, 8.34237691e-03, 1.31045084e-03, 2.69115786e-03,
       1.22782588e-02, 1.82976574e-02, 1.15362275e-02, -5.11812279e-03,
       4.08689911e-03, 3.36587219e-03, -7.76849873e-03, -6.27066940e-03,
       -5.11737913e-03, 6.61224918e-03, 9.68389306e-03, 5.93151757e-03,
       -1.20238112e-02, -8.67931405e-04, 1.39485691e-02, -1.05485751e-03,
       -6.41902792e-04, 6.88405009e-03, 3.58886202e-03, 1.61160640e-02,
       -9.13301762e-03, -1.95047595e-02, -1.05368020e-02, 3.52373067e-03,
       4.41429857e-03, -1.09983254e-02, -3.85456556e-03, -1.32103488e-02,
       -1.07742166e-02, 1.21204648e-02, -3.65523458e-03, -6.75911456e-03,
       -4.22301423e-03, 1.02372039e-02, -6.00736728e-03, -1.16628213e-02,
       -9.49149835e-04, 7.66858831e-03, 3.48350988e-03, -5.72499679e-03,
       1.28592104e-02, 6.94890274e-03, 1.97929721e-02, 3.58061446e-03,
       -1.87991571e-03, -1.37977069e-03, 2.58688233e-03, -5.99652342e-03,
       -1.68521348e-02, -1.31384227e-02, -2.22995365e-03, 7.43014179e-03,
       -1.09508568e-02, -9.90396086e-03, -6.05976395e-03,
       -1.54411606e-02, -4.51655593e-03, -7.05096032e-03, 5.46639459e-03,
       6.04985049e-03, -8.79843626e-03, -5.46581391e-03, -9.13872849e-03,
       -6.42096903e-03, -6.56935992e-03, -4.71741380e-03, 3.87398386e-03,
       1.76089667e-02, -1.82338554e-04, 4.92998911e-03, -7.22565455e-03,
       -4.03848430e-03, -3.06557980e-03, -1.75850728e-04,
       -5.78805921e-04, 3.40810954e-03, 6.08623261e-03, -4.48683556e-03,
       -7.33547332e-03, 2.32781959e-03, 2.00124294e-03, 8.74516275e-03,
       -1.48143666e-03, 6.51225029e-03, 5.48245898e-03, 4.94518841e-04,
       -6.56209374e-03, -1.24422843e-02, -1.46129047e-02,
       -1.04970457e-02, 3.58313136e-03, 1.25626964e-03, 7.92461196e-06,
       -7.29491760e-04, -1.26943865e-03, -6.82455115e-03,
       -1.09833563e-02, -5.47599571e-04, -1.53685855e-02,
       -5.84284496e-03, -2.92637339e-03, -5.40104462e-04, 1.51081604e-03,
       -7.63439992e-03, -9.31117451e-04, -9.44336783e-03, 8.00104719e-03,
       -7.04640523e-03, 2.96235597e-03, -2.62617669e-03, 4.07676026e-03,
       2.00537965e-02, -2.80054915e-03, -8.32754653e-04, -1.46495886e-02,
       2.37904882e-04, -2.25517107e-03, -2.36940291e-03, 3.68238497e-03,
       -3.24299023e-03, -1.54087692e-03, 2.77330354e-03, 5.78159234e-04,
       1.78205781e-03, 6.18024496e-03, -8.04544892e-04, -8.38986412e-03,
       -1.44041330e-02, 2.73764948e-03, 2.12663598e-02, 1.13746338e-02,
       -8.68459247e-05, -6.74707443e-03, -5.17829088e-03, 6.35211170e-03,
       -4.87058191e-03, -7.53100635e-03, -3.01868911e-03, 4.51006368e-03,
       -2.84758350e-03, -7.66667351e-03, 4.00770921e-03, -2.29067495e-03,
       4.07879660e-03, 1.01104900e-02, 1.45525495e-02, 3.96594265e-03,
       -5.55551145e-03, -2.08029356e-02, -1.95619743e-02,
       -6.34226017e-03, -1.09671382e-03, -2.57625594e-03, 5.01593575e-03,
       1.11615863e-02, -2.50647403e-03, 1.16675729e-02, 3.53736244e-03,
       -1.52554819e-02, -4.72180592e-03, -1.81960501e-02,
       -7.08313473e-03, 8.60136375e-03, -3.22277588e-03, 8.51505809e-03,
       9.76320449e-03, -1.19006773e-03, -1.10000120e-02, 3.18942545e-03,
       1.03942258e-03, 1.18396524e-03, 1.93239078e-02, 6.59315242e-03,
       2.29391991e-03, 2.71499692e-03, 5.92957251e-03, 1.21550204e-03,
       1.86793320e-02, -2.94403313e-03, 6.13531657e-03, 3.31605552e-03,
       -8.49482312e-04, -8.42952915e-03, -1.56974401e-02,
       -4.28109150e-03, 4.28496627e-03, 2.41948403e-02, 5.54635609e-03,
       6.06150506e-03, -5.77958487e-03, -1.22012580e-02, -6.45247614e-03,
       5.81329572e-04, 1.22433612e-02, -2.81371200e-03, -3.01924092e-03,
       -3.84398806e-03, -2.85105594e-03, -8.54591466e-03,
       -1.10532821e-03, -7.11051701e-03, -9.00062732e-03, 1.00278342e-02,
       -6.30072504e-03, -1.44092925e-02, -7.86146987e-03,
       -3.02588497e-03, -4.51169023e-03, -3.63483489e-03, 2.85715051e-03,
       -1.42728314e-02, -3.31730559e-03, 4.11187159e-03, 2.46132724e-02,
       6.90433243e-03, -1.92175759e-03, -1.57238357e-02, -7.68655492e-03,
       -1.63853765e-04, -1.79738970e-03, -7.96554203e-04,
       -9.72547941e-03, -1.92076841e-03, 1.21568190e-02, 1.13696521e-02,
       -1.56433992e-02, -1.71392299e-02, 5.26564009e-03, -1.81440578e-03,
       4.90871910e-03, 1.15328180e-02, 4.66053374e-03, -8.60120344e-04,
       -8.98034684e-03, -6.39552204e-03, -1.45832682e-03, 7.01835332e-03,
       4.65819566e-03, -6.44534244e-04, 3.48519604e-03, 3.15895746e-03,
       -1.01116940e-03, -8.34015850e-03, -1.55064333e-02,
       -6.62720157e-03, 7.25244125e-03, -1.69593235e-03, -2.84734112e-03,
       -9.66787525e-03, 1.49762845e-02, 1.51405102e-02, 3.58799938e-03,
       -9.50188376e-03, 2.80867028e-03, 2.19470859e-02, 1.53892243e-03,
       -9.06836893e-03, 3.47530877e-04, 8.35170504e-03, 2.95252050e-03,
       3.29473638e-04, -7.02272262e-03, 1.03994552e-02, 4.76897003e-05,
       -5.99422725e-03, -2.09641550e-03, -6.84265140e-03, 2.93780322e-05,
       -5.30616671e-04, -1.12375114e-02, -1.52244940e-02,
       -5.74574992e-03, -1.74696348e-03, -9.93514434e-03,
       -1.03597231e-02, -2.02820497e-03, -2.14090552e-02,
       -6.89927163e-03, -2.03254330e-03, -8.75085033e-03, 1.85050489e-03,
       2.42287908e-02, 5.05846227e-03, -5.33321360e-03, 3.10178823e-03,
       8.91519338e-03, 3.35141527e-03, -2.44288053e-03, -6.91754278e-03,
       5.08767460e-03, 1.34930108e-02, -5.82840119e-04, 6.48395484e-03,
       1.45011321e-02, 1.25318989e-02, 2.22689155e-02, 1.86884534e-02,
       6.64898939e-03, -6.90604467e-03, 9.97045171e-03, -4.96923178e-03,
       -9.62312054e-03, -6.87693758e-03, -7.24430953e-04, 7.12016365e-04,
       3.40995751e-03, -1.41394371e-02, -1.88933674e-03, 2.07125973e-02,
       1.20490128e-02, 1.84175093e-02, 4.85376129e-03, 2.02607568e-02,
       9.86006483e-03, 2.66378117e-03, -1.89690012e-02, -1.53310243e-02,
       1.39245559e-02, 5.45822608e-04, -1.58668240e-03, 9.67440568e-03,
       1.59635749e-02, 8.28974415e-03, 3.46827786e-03, 7.38547044e-03,
       -7.05031725e-03, -3.93773022e-04, 8.39636475e-03, 1.56868584e-02,
       1.74256768e-02, 7.52385985e-03, 2.05580355e-03, 1.08191499e-03,
       8.63140728e-03, -1.27038937e-02, 9.13589448e-03, -3.45939025e-03,
       -5.53018320e-03, 7.19258422e-03, 3.46452631e-02, 9.46203433e-03,
       -3.26309795e-03, -2.27564331e-02, -6.13425020e-03, 1.33829238e-02,
       2.33227480e-03, 1.63741652e-02, 6.45542843e-03, 2.17098277e-02,
       1.53993408e-03, 1.05875442e-02, -1.41153876e-02, 5.82952239e-03,
       4.60916571e-03, -2.32751085e-03, 6.61385292e-03, 8.88105854e-03,
       9.65654198e-03, 2.42807390e-03, 2.30164360e-03, -5.36588393e-03,
       -4.19596443e-03, 1.45231765e-02, -5.65778557e-03, -1.00622349e-03,
       8.78788705e-04, 3.93331656e-03, 2.33901944e-02, 2.10256111e-02,
       5.10888500e-03, 4.43301257e-03, 6.31998479e-03, -9.10666306e-03,
       1.62322242e-02, -3.45816556e-03, -4.55194199e-03, -4.63790400e-03,
       6.23045198e-04, -1.29570197e-02, -2.69161584e-03, -9.77456570e-04,
       -8.09417758e-03, 4.22014110e-03, -4.85587446e-03, 8.75850092e-04,
       6.07376499e-03, 1.47694275e-02, -7.39618146e-04, -8.50517768e-03,
       1.15632154e-02, -5.17003238e-03, -1.09833134e-02, -7.27206795e-03,
       1.11720627e-02, 1.31891891e-02, 3.84930754e-03, -8.10169266e-04,
       -4.14101966e-03, 1.19874170e-02, 4.83599398e-03, 6.38070167e-04,
       1.09719839e-02, 1.13291610e-02, 1.43876690e-02, -3.67174554e-03,
       -6.66562514e-03, -7.59865530e-03, 2.63809785e-03, -1.01628918e-02,
       -5.20763453e-03, -5.26133925e-03, 9.94459447e-03, 3.26983165e-03,
       6.42869994e-03, 1.52187899e-03, -7.79280439e-03, 1.64125618e-02,
       -1.36034074e-03, 6.53109560e-03, -1.07862439e-03, 2.14378778e-02,
       9.29502212e-03, -1.16539327e-03, 2.03239033e-03, 7.54434895e-03,
       3.27739376e-03, -4.69602272e-03, -1.19367670e-02, -1.76423253e-03,
       4.40072780e-03, 9.15176142e-03, -7.68313999e-04, -1.03207876e-03,
       -3.31885880e-03, -1.00063893e-03, 6.53783791e-03, -5.08099981e-03,
       -1.04521157e-03, -2.30468996e-03, -3.54576879e-03,
       -5.75495139e-03, 2.74447724e-03, -7.93622993e-03, 1.26767540e-02,
       1.46485656e-03, -2.97290902e-03, -3.57753178e-03, 5.83433406e-03,
       3.17314081e-03, -8.75363592e-03, -4.14555718e-04, 2.69593275e-03,
       8.39368161e-03, 1.80099849e-02, 1.80454180e-02, 1.94731299e-02,
       1.18616857e-02, -6.25075260e-03, 1.54422354e-02, 2.39636675e-02,
       1.14623709e-02, -2.42887321e-03, 3.67705710e-03, -3.68453679e-03,
       1.48714194e-03, 1.46364910e-03, -2.64121988e-03, -6.45150570e-03,
       6.75204908e-03, 3.12203018e-04, -1.16636073e-02, -5.51950699e-03,
       6.24610437e-03, 8.65659094e-05, 3.29277874e-03, 8.87589715e-03,
       -8.23059399e-03, 3.84025602e-03, -1.05028795e-02, 1.04886238e-02,
       1.00202467e-02, 1.92145221e-02, 1.48567762e-02, 2.79689813e-03,
       -1.21035147e-02, -2.53671571e-03, 2.18324512e-02, 1.94455367e-02,
       2.09067506e-03, 4.44297446e-03, 7.69193936e-03, -6.22137031e-03,
       -1.50557263e-02, 1.19978497e-02, -1.34596089e-03, 1.61141623e-02,
       8.13172106e-03, -1.70742590e-02, -9.52102989e-03, 4.23172349e-03,
       -3.82495834e-03, -5.00775641e-03, 1.56882256e-02, 3.85180791e-03,
       -9.15656704e-03, -7.58531783e-03, -1.39749618e-02,
       -1.14666028e-02, -4.62057441e-03, -1.22780388e-03, 1.01313638e-02,
       6.23004045e-03, -1.40931597e-02, -5.55454288e-03, -3.30513343e-03,
       -8.81878007e-03, -7.46847736e-03, 1.24028772e-02, 5.87067707e-03,
       -1.50166405e-02, 6.07724348e-03, -4.44520125e-03, -5.15037356e-03,
       -6.93544745e-03, -7.07538659e-03, -1.67575479e-02, 6.72730384e-03,
       2.25918032e-02, 1.99500527e-02, 6.31380687e-03, 7.81362690e-03,
       -4.37242072e-03, 1.46703934e-03, -3.74359521e-03, -1.01298420e-02,
       -7.69820437e-03, -5.70843229e-04, 8.38848471e-04, 8.74543842e-03,
       -1.48712434e-02, -5.09833917e-03, 7.86508713e-03, -2.30167084e-03,
       -3.03108199e-03, -1.32712850e-03, -4.49952960e-04,
       -8.88893567e-03, 7.75970193e-03, -2.71911710e-03, -9.38419160e-03,
       1.21128876e-02, -1.07172783e-02, -2.00048164e-02, -2.57692154e-04,
       1.85349490e-02, 1.59894247e-02, -6.19992008e-03, -9.93023161e-03,
       4.25535720e-03, 1.02188988e-02, 1.01962918e-02, 2.43760832e-03,
       1.02872001e-02, 1.15888724e-02, 2.26253862e-04, -1.24744959e-02,
       -2.43482951e-04, 6.84891129e-03, 1.71417110e-02, -6.58298936e-03,
       4.85007768e-04, 9.35369288e-04, -4.40636370e-03, -6.55256212e-04,
       7.28496024e-03, -1.88337930e-03, -2.11569648e-02, 8.28186423e-03,
       -6.54888665e-03, 7.26939179e-03, -2.02194345e-03, -1.35979708e-02,
       -6.66251034e-03, 7.50429183e-03, 9.14459676e-03, -8.60001706e-03,
       -6.60930108e-03, -2.84787803e-03, 4.30875365e-03, 9.18290019e-03,
       -7.76701421e-03, -1.24709692e-03, -1.02482913e-02, 6.87922444e-03,
       -2.30267947e-03, 1.48791738e-03, -1.76999613e-03, 9.40557197e-03,
       -5.18532516e-03, -4.70215734e-03, 2.87170010e-03, 1.59789585e-02,
       2.14571841e-02, 3.97084141e-03, -8.16493575e-03, -7.61280442e-03,
       -1.41094043e-03, 6.69037364e-03, -5.38005168e-03, -1.19111091e-02,
       -5.35932789e-03, 1.10760080e-02, -7.14380760e-03, -3.58048244e-03,
       -1.89260568e-03, 1.52866601e-03, 1.97260007e-02, 1.32854544e-02,
       7.52397405e-04, -5.10138506e-03, -2.69509526e-03, -6.01098221e-03,
       -1.04430197e-02, 4.37889295e-03, 8.68677534e-03, -2.57288804e-04,
       -4.49205341e-04, 1.95510569e-03, 9.43930447e-03, 1.63550042e-02,
       -7.94544001e-04, -3.26442445e-04, 8.67805630e-03, 1.32054994e-02,
       6.70001190e-03, 1.40970750e-02, 9.88401286e-03, 3.96352727e-03,
       -1.51036278e-04, -1.07662836e-02, -6.26397040e-03,
       -5.36008086e-03, 5.66668203e-03, 2.17015110e-03, 6.47965493e-03,
       -1.25484224e-02, -5.87469665e-04, -6.71897200e-04,
       -3.42329219e-03, -1.33202104e-02, 2.26947982e-02, 2.09756251e-02,
       -5.66947600e-03, -2.99478346e-03, -2.42389319e-03, 5.56712039e-03,
       9.44209937e-03, -2.72910786e-03, 1.05509651e-03, 1.56479087e-02,
       7.43321190e-03, -3.02908709e-03, -8.11650883e-03, -1.65665094e-02,
       2.34290329e-03, 2.12121071e-04, -7.26580247e-03, -3.44900624e-03,
       1.56787895e-02, 6.97765732e-03, -1.41705545e-02, -2.31778137e-02,
       -9.53965064e-04, 4.99114906e-03, 3.79600935e-03, -3.18584661e-03,
       5.56598091e-03, 5.14931511e-03, 9.22775362e-03, -1.47800980e-04,
       -3.03112265e-05, 1.30159184e-02, 2.86781834e-03, -2.95073050e-03,
       -9.58735310e-03, -4.14690375e-03, -1.31009368e-03, 6.16884383e-04,
       -1.18094748e-02, 1.23453140e-03, 4.97482950e-03, 6.16667187e-03,
       8.55110178e-04, -2.16552382e-03, -8.14301148e-03, -3.29105213e-04,
       -2.12872727e-03, -1.95820034e-02, -1.05696768e-02, 6.90359622e-03,
       2.54009455e-03, 7.94124324e-03, -9.20053013e-03, 5.74431801e-03,
       -9.92078148e-03, -7.22584315e-03, -2.25977767e-02,
       -1.13800270e-02, 1.64306965e-02, 1.21359304e-02, 7.63541507e-03,
       -7.16355257e-03, -9.61762015e-03, 1.17131649e-02, -1.44033507e-03,
       -1.18579175e-02, -1.21266814e-03, -8.50029010e-03, 3.85828479e-03,
       7.37784198e-03, 3.24814185e-03, 6.58190911e-05, 6.13420084e-03,
       -7.03537883e-03, -6.65510027e-03, 8.74130335e-03, -5.10455502e-05,
       1.72176417e-02, 2.09953240e-03, 4.48305113e-03, 2.57824105e-03,
       8.43019225e-03, 1.06857223e-02, -1.40460506e-02, -1.70852907e-03,
       6.13732217e-03, -2.15940969e-03, -6.03055814e-03, -6.47925911e-03,
       4.80091013e-03, 5.38708922e-03, -8.90876818e-03, -4.45066858e-03,
       -4.75959387e-03, -1.35578597e-02, -7.21096294e-03,
       -1.32175945e-02, -3.19525576e-03, 1.75640208e-03, -7.47764995e-03,
       -1.17990626e-02, -3.17617855e-03, 2.19314843e-02, -3.20822978e-03,
       1.60262734e-02, -8.01144727e-03, 1.28949352e-03, -2.06485880e-03,
       -5.90243144e-03, -6.24856260e-03, -9.41191707e-03, 9.11203399e-03,
       -8.84597003e-03, 2.03706995e-02, -1.78809545e-03, 2.19288971e-02,
       7.13632954e-03, -9.02452914e-04, -1.56306326e-02, 5.95985621e-04,
       -2.67165340e-03, -4.28051827e-03, 6.63833413e-03, -1.19784418e-02,
       -1.79757515e-03, -5.50143188e-03, 8.31012148e-03, -3.90053354e-03,
       -4.15114220e-03, -5.56003535e-03, -1.87550317e-02, 1.11083873e-02,
       -8.64344183e-03, -5.43502951e-03, -2.42723804e-03,
       -1.37911672e-02, -1.37380706e-02, -1.47417719e-02, 7.45225931e-03,
       8.34962260e-03, 9.27473418e-03, 1.19580852e-03, 8.93388595e-03,
       -1.46564993e-03, -1.66312605e-02, -1.10711167e-02,
       -5.45970211e-03, 2.47476739e-03, -1.11035155e-02, 7.09357718e-03,
       2.88800034e-03, 3.41014587e-03, -1.22559583e-02, 1.86908506e-02,
       4.75799665e-03, -3.89243796e-04, 9.57244635e-03, -4.20572842e-03,
       5.36724459e-04, -1.16052767e-02, -1.22285401e-02, 9.19609040e-04,
       8.04555137e-03, -7.57131493e-03, -2.07705400e-03, -1.39630130e-02,
       -1.64822061e-02, -1.39742801e-02, -9.20107029e-03,
       -4.20703366e-03, -1.62757220e-04, -2.38162931e-03,
       -7.81577360e-03, -2.29285238e-03, 8.09949997e-04, 6.56044111e-03,
       1.39375888e-02, 3.80480400e-04, -1.46124493e-02, -3.74430255e-03,
       -7.33876135e-03, -7.59113207e-03, -1.17473984e-02,
       -6.53743744e-03, -9.05312423e-04, -7.40127824e-03, 3.84556770e-04,
       -1.06397960e-02, -6.59959391e-03, 8.21785070e-03, -5.04946290e-03,
       -8.71540920e-04, -4.00720211e-03, 6.31338172e-03, -1.19531257e-02,
       -1.50537072e-02, -5.53796161e-03, 5.53681515e-03, 3.29313055e-03,
       1.39369927e-02, 9.99194570e-03, -4.62160353e-03, 3.38814012e-03,
       -7.33024115e-03, 3.50702647e-03, 2.54772557e-03, 1.83159451e-03,
       -5.67362818e-04, -8.82823393e-03, 2.88420543e-03, 1.06793195e-02,
       9.41895507e-03, -2.75179837e-03, 5.59700932e-03, 3.02660745e-03,
       2.27750919e-04, -1.44880842e-02, -1.56013258e-02, -1.03857461e-02,
       -1.04105109e-02, 1.46028828e-02, -4.39898064e-03, 3.16465762e-03,
       1.95769803e-03, -1.75369680e-02, 1.20006567e-02, 2.13460848e-02,
       2.50067469e-02, 5.05505176e-03, 1.33513275e-03, 7.23157078e-03,
       7.67552620e-03, 9.42772627e-03, 1.13175241e-02, 1.27629545e-02,
       1.33391954e-02, 1.73062701e-02, -8.35647713e-03, -2.16525141e-03,
       -1.12364581e-02, 1.09172557e-02, -1.36331341e-03, -6.38540077e-04,
       5.54572139e-03, -3.00278724e-03, -1.38749683e-03, -4.45772242e-03,
       4.43464471e-03, -6.85538864e-03, 1.74605986e-03, 4.69919201e-03,
       -7.70960003e-03, 3.46296723e-03, -2.16875644e-03, -3.15770484e-03,
       1.35951152e-03, 6.27052318e-03, -2.93060159e-03, 3.57187609e-03,
       1.53693715e-02, -4.53933049e-03, 1.29783899e-02, 1.08194659e-02,
       5.60261123e-03, -5.91132510e-03, 2.85763876e-03, -1.87575407e-02,
       9.70241986e-03, -3.78512341e-04, -2.13884609e-03, -9.26693995e-03,
       6.87531289e-03, -1.07027721e-02, -2.15684366e-03, 6.28368044e-03,
       -7.91254640e-03, 1.25418827e-02, 1.32002123e-03, -1.09290993e-02,
       -2.16160575e-03, 5.21213515e-04, -4.45468351e-03, -7.19516771e-03,
       -1.16731820e-03, -5.17517934e-03, 6.99143333e-04, 2.54549477e-02,
       1.98305515e-03, -1.87975157e-03, 3.89760290e-03, 7.70143094e-03,
       -8.02295282e-03, 8.88649840e-04, 5.07285912e-03, -1.34675368e-03,
       1.79840177e-02, -3.65258136e-04, -2.62319967e-02, 4.69062198e-03,
       -5.55936620e-03, 3.98541772e-04, 8.53338977e-04, 3.00659169e-03,
       1.22775519e-02, 7.83216115e-03, -1.64097883e-02, -1.32202338e-02,
       1.30820246e-02, 1.09888138e-02, -6.93183672e-03, -3.03519162e-04,
       -8.39558837e-04, 8.21923837e-03, 9.97253042e-03, -1.62250269e-02,
       2.77440785e-03, 5.76891145e-03, 1.20839719e-02, -1.90874934e-03,
       4.29145154e-03, 7.16809835e-03, -4.44145757e-04, 3.66627355e-03,
       -9.54767037e-03, 2.66153854e-03, 1.45077724e-02, 4.28446662e-03,
       2.76286807e-03, -1.10289585e-02, 2.15363293e-03, 1.46844620e-02,
       7.73052592e-03, -5.75604616e-03, 2.81696115e-03, 2.02253666e-02,
       9.79183521e-03, -3.19115841e-03, 9.31868888e-03, 1.55399146e-03,
       5.77313080e-03, 1.11641716e-02, -7.84029253e-03, 2.83330050e-03,
       1.39409723e-02, -9.86036472e-03, -6.16406417e-03, 6.05735462e-03,
       5.78027125e-03, 1.53508727e-02, 2.14760541e-03, -1.66377169e-03,
       5.19710127e-03, 9.87014826e-03, -6.85767364e-03, -1.66340973e-02,
       6.80417242e-03, 1.08167797e-03, -7.82305188e-03, 8.70973454e-05,
       -1.02628758e-02, 8.30410048e-03, 2.55279616e-02, 6.76984433e-03,
       -6.79748482e-04, 1.94903780e-02, 2.24651434e-02, -1.23619894e-03,
       1.06399255e-02, -4.28876327e-03, 5.64506045e-05, 1.91776510e-02,
       -1.23673910e-02, -2.13458836e-02, 7.50946859e-03, 5.85284317e-03,
       -6.45307591e-03, -2.05198731e-02, -1.76949855e-02, 9.84299986e-05,
       2.48441231e-02, 3.32178571e-03, -9.05237254e-03, 8.92035197e-03,
       1.68452766e-02, -4.96014534e-03, -8.44977237e-03, -2.05583703e-02,
       -2.88491603e-03, 1.10838730e-02, 2.06907857e-02, 1.25430310e-02,
       1.66354738e-02, -8.06197058e-03, -2.52072443e-03, -8.15450493e-03,
       1.51065097e-03, -1.52130853e-02, -2.16477178e-03, 1.13720596e-02,
       -7.97552802e-03, 3.08891735e-03, -4.83991951e-03, -5.38565684e-03,
       -3.01973545e-03, -2.71189911e-03, -1.27691496e-02, 1.79758074e-03,
       2.35293154e-02, 9.39769670e-03, 6.48957957e-03, -2.06222907e-02,
       -2.12929701e-03, -1.01079624e-02, -1.01267258e-02,
       -8.33227765e-03, -1.20029338e-02, 1.91202033e-02, -3.40146082e-03,
       -6.12328062e-04, -1.55268069e-02, -3.69404140e-03,
       -3.52201052e-03, -9.41937417e-03, -5.13316458e-03, 4.81783925e-03,
       9.44545027e-03, 1.18646491e-02, 4.83873114e-03, 7.86598306e-03,
       -7.46182678e-03, 3.93688818e-03, 5.24480383e-05, 2.24669557e-03,
       -2.77910451e-03, -4.46629245e-03, 5.12348535e-03, -4.60258638e-03,
       3.68599920e-03, -6.38036989e-03, -6.75453979e-04, 4.10281913e-03,
       1.20926171e-03, -1.54566625e-03, 1.41803054e-02, 6.44629542e-03,
       -6.78257551e-03, -1.58548891e-03, -2.47123255e-03, 6.71541831e-03,
       4.73624241e-04, 3.27529223e-03, -4.49485844e-03, -5.01781516e-03,
       -8.46800581e-03, -6.07918995e-03, 5.07314131e-03, 1.22841112e-02,
       1.03815459e-02, 1.33240204e-02, 1.12974094e-02, -9.04701836e-03,
       -7.09727989e-04, -1.67953421e-03, -5.86499786e-03,
       -4.77095693e-03, -9.91106965e-03, -3.86130693e-03, 1.92599632e-02,
       9.97804571e-04, -5.59501210e-03, 2.77652708e-03, 4.81376145e-03,
       -3.34042241e-03, 1.42014641e-02, 1.17318137e-02, 6.27596676e-03,
       1.14770755e-02, 1.03011057e-02, -9.55908652e-03, -1.30611546e-02,
       -1.32720382e-03, -1.62890344e-03, -5.57861524e-03, 2.31066602e-03,
       3.56144249e-03, 1.74669027e-02, -6.10272819e-03, 5.06834919e-03,
       1.55141167e-02, 1.42931258e-02, -2.20386335e-03, 1.40972040e-03,
       9.93498415e-03, -1.74926431e-03, -5.48148714e-03, 3.37514631e-03,
       -4.18196851e-03, 1.96013274e-03, -1.50652770e-02, 5.17202495e-03,
       1.40475631e-02, 1.40403174e-02, -1.32751637e-04, -3.19382688e-03,
       6.30098721e-03, 5.61417593e-03, 1.30463252e-03, -1.96253275e-03,
       9.30342358e-03, 1.54323820e-02, 5.92248281e-03, -9.07720008e-04,
       -9.15002823e-03, -8.07200931e-03, -1.44029083e-03, 1.62533931e-02,
       5.93988923e-03, 3.03282100e-03, 4.26529022e-03, -5.31033706e-03,
       -9.66282841e-03, -1.36028295e-02, 5.88065013e-03, 2.28100698e-02,
       2.50997189e-02, 1.71866603e-02, 3.18899588e-03, 7.10979709e-03,
       -1.97975198e-03, 5.29308105e-03, 6.69294549e-03, 2.06785649e-03,
       -2.50518927e-03, -1.59162097e-02, -8.39116611e-03,
       -1.69111998e-03, 1.10862153e-02, -1.03255063e-02, -1.23667689e-02,
       -7.39534153e-03, 6.80204527e-03, 6.44263113e-04, -1.29758706e-03,
       -1.52017111e-02, 1.61022518e-03, 9.62432660e-03, 1.49788130e-02,
       -1.00097833e-02, -6.94357138e-03, 6.94515556e-03, 2.08565332e-02,
       4.23663389e-03, 1.98510871e-03, 3.03859753e-03, -7.13703595e-03,
       -2.00640187e-02, 2.96281488e-03, -1.38830603e-03, 1.14882337e-02,
       1.64582953e-02, 1.07458243e-02, 1.07560703e-03, 1.51778394e-02,
       1.65237505e-02, 1.32551054e-02, 9.88299027e-03, -3.17509286e-03,
       3.14841815e-03, -1.17032388e-02, -5.03838854e-03, -1.86767410e-02,
       -2.03737654e-02, -5.47293574e-03, -3.96184344e-03,
       -1.72641762e-02, -9.07768682e-03, -2.81524286e-03,
       -6.72134710e-03, 7.52577698e-03, -1.28108624e-03, -1.12413317e-02,
       8.90852127e-04, 4.25331295e-03, 1.22619709e-02, -6.61588646e-03,
       -1.05459103e-02, -1.04670031e-02, 9.99314128e-04, -2.89835432e-03,
       1.10839559e-02, 1.42269977e-03, 9.80081037e-03, 2.24578497e-03,
       -1.66201908e-02, 3.04276682e-03, 8.35376268e-04, 1.40913604e-02,
       7.79802864e-03, 2.62434948e-02, 1.28423898e-02, 1.21817524e-02,
       1.75727997e-02, 3.05397273e-03, -3.55728553e-03, -8.30681995e-03,
       -3.28079308e-03, 3.23771895e-03, -3.64236999e-03, 9.40372795e-03,
       -2.56669894e-03, 1.84063008e-03, -8.99658073e-03, 8.61701090e-03,
       -4.87657357e-03, -1.38526484e-02, -1.28611960e-02,
       -4.88215545e-03, 1.70128830e-02, -6.37634774e-04, -7.40269665e-03,
       5.13726054e-03, 5.78592438e-03, 2.72167125e-03, -2.33778032e-03,
       1.06604090e-02, 1.53924152e-02, 1.58436708e-02, 5.75946132e-03,
       4.54050023e-03, -5.61022316e-04, 1.47533836e-02, 1.20315803e-02,
       -2.03611851e-02, 1.04632871e-02, 1.57303289e-02, 1.42816305e-02,
       4.09049401e-03, -1.36365264e-03, 1.23576876e-02, -3.88268754e-03,
       -8.02084245e-03, -1.46811772e-02, -1.41192051e-02,
       -8.80223326e-03, 1.25360740e-02, -2.67135305e-03, -5.68079203e-03,
       -3.04906676e-03, -8.88540223e-03, 2.37272517e-03, 1.02591999e-02,
       8.93285777e-03, -1.04138860e-03, 3.36442422e-03, -1.18164974e-03,
       -6.77522644e-03, -7.07225734e-03, 1.48057065e-03, 4.84908745e-03,
       -1.07259611e-02, 4.72019194e-03, -4.07377025e-03, 1.25887739e-02,
       1.19848652e-02, 1.09940441e-03, 7.06698233e-03, 5.63082052e-03,
       4.08872683e-03, 1.03002582e-02, 1.18318880e-02, -6.85996085e-04,
       1.11990757e-02, 3.66902165e-03, -1.38082169e-03, 1.86040033e-05,
       -7.13405851e-03, 3.05436016e-03, 4.91686538e-03, 6.81822980e-03,
       -7.54583580e-03, 2.89842580e-03, 5.33569930e-03, 7.44267134e-03,
       6.19410165e-03, -6.65838784e-03, -1.39235249e-02, -1.24818655e-02,
       -1.48565928e-02, -1.79707855e-02, 1.20817479e-02, 4.03281115e-03,
       -4.70172788e-04, 1.61772419e-04, 1.29627332e-03, 3.36369337e-03,
       -4.95296204e-03, 4.26202780e-03, 9.14175715e-03, 1.74304692e-03,
       6.27574418e-03, 4.97450540e-03, -4.95449733e-03, 4.93101310e-03,
       -4.33335174e-03, -3.12479492e-03, -3.21686920e-03, 1.22098532e-03,
       5.13649080e-03, 5.64484531e-03, 8.35470762e-03, -3.12742172e-03,
       -1.00821378e-02, -1.64591800e-02, 2.24882923e-03, 2.62319250e-03,
       -1.60258617e-02, -9.61475726e-03, -1.56440996e-02,
       -8.16043746e-03, -6.41002413e-03, -6.88925246e-03,
       -1.42785702e-02, -2.93446610e-05, 1.10503649e-02, -9.39827878e-04,
       -1.20471511e-02, 6.10478164e-04, -2.66411505e-03, -3.20819346e-03,
       4.75825043e-03, -7.37709273e-03, -2.23554019e-03, -2.24068365e-03,
       1.78748008e-03, -3.57437111e-03, -9.63216089e-03, 9.88730509e-03,
       5.47379546e-04, 1.30731484e-03, 4.59738279e-04, 4.08948306e-03,
       7.10523746e-04, -4.48287139e-03, -1.01060448e-02, 3.95622291e-03,
       1.51384892e-02, 1.15116918e-02, -1.06885051e-02, -1.38870180e-02,
       -1.03875427e-02, -2.19145295e-04, -5.46583440e-03,
       -7.06973439e-03, -3.78107210e-03, 1.13773835e-03, 1.11003714e-02,
       -1.01091089e-02, -5.17759880e-04, -2.50492641e-03,
       -9.69606824e-03, -2.74444409e-02, -1.88272707e-02,
       -8.38972814e-03, 1.58694794e-03, -3.37983388e-03, 5.49599295e-03,
       8.17928184e-03, -5.43985050e-03, -1.38273984e-02, -1.48800891e-02,
       -6.57994021e-03, 7.80674303e-03, 1.88601296e-02, 1.44025702e-02,
       1.26451515e-02, 2.23255903e-02, 8.63947067e-03, -2.08696574e-02,
       -1.69915445e-02, -8.42556078e-03, 1.19406381e-03, 1.31457602e-03,
       -2.22659577e-03, -1.09027168e-02, 4.97362111e-03, 3.18577955e-03,
       -4.27219458e-03, -1.04391156e-02, -6.34843577e-03,
       -4.86372970e-03, -6.34072674e-03, -1.95353609e-02,
       -4.99457540e-03, 5.44297881e-03, -1.01252915e-02, 8.95294012e-04,
       -2.10705140e-04, 2.11078357e-02, 1.52264293e-02, 2.33436143e-03,
       -1.82456337e-02, 1.41851995e-02, 1.79955307e-02, 7.39547843e-03,
       -1.35686686e-02, -6.49013650e-03, -3.18328181e-04,
       -8.91425833e-03, -8.24257266e-03, -6.82236720e-03,
       -1.20906439e-03, 1.07355334e-03, -3.16219660e-03, -1.33273518e-03,
       2.55272631e-03, 7.15263514e-03, 8.54183268e-03, 8.12707189e-03,
       -2.87233107e-03, 7.34962465e-04, 5.57008060e-03, -1.42069245e-02,
       -2.40996480e-03, -1.15830190e-02, 6.26542978e-03, 1.50016299e-03,
       -2.52338476e-03, -6.08340465e-03, 6.48849085e-03, 8.89555551e-03,
       -1.00071286e-03, 7.84129743e-03, -1.19164567e-02, -1.20842289e-02,
       -1.70726702e-02, -1.30258510e-02, -6.66063372e-03,
       -6.06161170e-03, -4.97157639e-03, -6.82478305e-03,
       -5.43057395e-04, -6.96595619e-03, -5.47277043e-04, 8.22301395e-03,
       1.03654256e-02, -5.70669305e-03, -1.69321080e-03, 2.59376201e-03,
       -3.64040118e-03, 1.98594481e-03, -8.13980401e-03, 1.15574161e-02,
       -4.43985872e-03, -1.10124117e-02, -4.64580115e-03, 1.39488829e-02,
       -1.52456050e-03, 3.00265453e-03, -5.99545194e-04, -1.07438937e-02,
       -1.50722107e-02, 2.07348005e-03, -1.40871303e-02, 8.48189089e-03,
       6.30107103e-03, -3.96699458e-03, -1.88689157e-02, -1.01329079e-02,
       -7.57887308e-03, 8.75414722e-03, 1.02797272e-02, -6.33915141e-03,
       6.17883680e-03, -3.78740276e-03, 4.17323969e-03, 1.02548499e-03,
       2.35811528e-03, -3.57900211e-03, 3.81105160e-03, 4.22878098e-03,
       6.92638010e-03, -4.36242251e-03, -1.42202377e-02, -1.67995156e-03,
       -1.26675209e-02, -3.33958771e-03, -7.47441221e-03, 5.88252582e-03,
       3.18480073e-03, 8.62566102e-03, -3.14366189e-03, 1.40264456e-03,
       -1.36137742e-03, -1.61157548e-02, -1.30017763e-02, 6.48222677e-03,
       6.11408660e-03, 9.80596058e-03, -1.08167939e-02, 4.22275905e-03,
       -1.52963139e-02, 1.40060484e-03, -1.27390865e-02, -4.59038559e-03,
       1.57049745e-02, 1.95367988e-02, 8.51733610e-03, -4.73964261e-03,
       -1.05100814e-02, 1.30784593e-03, -4.32625227e-03, -1.54514872e-02,
       -1.84439346e-02, -4.38984577e-03, 3.93695757e-03, 5.81171270e-03,
       7.30472559e-04, 8.89968593e-03, -1.00444462e-02, -1.08222868e-02,
       -1.60302371e-02, -9.61837638e-03, -9.86306579e-04,
       -2.46534217e-03, -5.95147628e-03, -8.57218821e-03,
       -1.22332666e-02, -7.80551042e-03, 7.00800819e-03, -1.00094629e-02,
       -9.72112932e-04, 5.81219513e-03, 1.79545507e-02, -5.56621490e-05,
       2.92493217e-03, -3.93835315e-03, -4.01447120e-04, -2.74284533e-03,
       -3.52851138e-03, -6.57337625e-03, -4.01040213e-03, 5.93858212e-03,
       -3.20377783e-03, 2.00984697e-03, -1.40401069e-03, 2.96728918e-04,
       -3.39420862e-03, -1.66428126e-02, -1.90606117e-02,
       -4.08732006e-03, 1.09104253e-02, 2.79673305e-03, 1.41018629e-02,
       -5.19366469e-03, 3.01811518e-03, -9.48891789e-03, -1.84843466e-02,
       -1.46883847e-02, -1.45832570e-02, 1.47075597e-02, -1.84933236e-03,
       8.82571004e-03, 1.02471467e-02, 2.48272880e-03, -6.55228412e-03,
       1.95058994e-03, -4.88650566e-03, 3.91086610e-03, 1.63655393e-02,
       -4.98486101e-04, -7.29765557e-03, 7.20164506e-03, 1.59892160e-02,
       -1.69915077e-03, 3.76503187e-04, 8.85235320e-04, -1.00595662e-02,
       7.88972620e-03, -2.91185174e-03, -7.14383461e-03, 8.78160354e-03,
       3.45490803e-03, -6.55247830e-03, -1.97848007e-02, -7.02543836e-03,
       -3.61963734e-03, 1.46975629e-02, -1.86070846e-03, -1.40035823e-02,
       6.99433126e-03, -3.85356764e-03, -1.44353313e-02, -1.92290079e-02,
       6.48655696e-04, -4.73845704e-03, 3.21800890e-03, -1.19182386e-03,
       -1.12307966e-02, -2.97968951e-03, 1.33530581e-02, 2.98622018e-03,
       1.03753489e-02, 1.32820169e-02, -2.43335636e-03, 3.90802277e-03,
       -6.26524631e-03, -7.31017953e-03, 9.91494209e-03, 2.36179885e-02,
       4.09018155e-03, -7.35202245e-03, -1.32713597e-02, -1.17021184e-02,
       4.92738094e-03, -5.23482123e-03, 1.25999125e-02, 2.10661180e-02,
       -6.78155664e-03, -1.22469673e-02, -1.47393262e-02, 8.66926648e-03,
       -2.35702633e-03, 2.03935523e-03, -8.28940363e-04, 2.28450983e-03,
       -4.78214910e-03, 1.16948728e-02, 4.73008549e-04, 1.84474059e-03,
       -6.88475370e-03, -5.16519090e-03, 3.69118084e-03, 7.43654324e-03,
       7.69184576e-03, -1.40548078e-03, 1.75263211e-02, 2.74406490e-03,
       -2.00286992e-02, -5.65708475e-03, 4.60392842e-03, 8.08941945e-03,
       -5.03104366e-03, 8.97473842e-03, 1.88466236e-02, 1.18221184e-02,
       1.46990558e-02, -3.83668346e-03, -6.99504465e-03, 5.65113593e-03,
       6.01611147e-03, 1.19267991e-02, 2.37752572e-02, 1.23160901e-02,
       7.82398507e-03, -3.79426195e-03, -8.19687825e-03, -1.05443597e-03,
       3.56159708e-03, -1.32704666e-03, -1.13363964e-02, -1.68624688e-02,
       -1.34856411e-04, 5.39435726e-03, 1.36338233e-03, -7.64314644e-03,
       -3.94402101e-04, 3.36281676e-03, -2.95125374e-05, -1.21027585e-02,
       -1.68884266e-02, 1.69593329e-03, 4.07533627e-03, 1.47205619e-02,
       4.09278413e-03, -4.58553294e-03, 6.47992268e-03, 8.15293007e-03,
       1.56110339e-02, 3.23388376e-03, 1.08100325e-02, -3.42172757e-03,
       2.31806465e-04, 1.47376321e-02, -1.03290379e-03, 6.97174761e-03,
       -1.02597820e-02, 1.03477882e-02, -1.58808788e-03, 4.59276838e-03,
       -7.24993087e-03, -4.69019776e-03, 3.25340475e-03, -2.76813819e-03,
       8.64811707e-03, -7.49282027e-03, -5.42102521e-03, -1.07977297e-02,
       -2.98167183e-03, -6.87979208e-03, -2.39167046e-02, 6.45613251e-03,
       2.19110399e-04, -2.05276441e-03, -4.25566826e-03, 1.60536300e-02,
       -1.06399867e-03, 4.40618349e-03, 1.27801914e-02, 1.82331435e-03,
       -2.06932146e-03, -5.88798849e-03, 8.84431880e-03, -4.78194654e-03,
       1.92972529e-03, 4.16339515e-03, 1.63548514e-02, -6.80606626e-03,
       9.21261380e-05, -1.61195267e-02, -9.23469779e-04, 7.59681873e-03,
       6.31113816e-03, 1.47958910e-02, 2.38890573e-03, 6.24972535e-03,
       6.68690819e-03, -1.52076818e-02, 2.80892639e-03, 1.14652980e-03,
       -2.94567063e-03, -8.96156998e-04, 2.14321744e-02, 1.28999930e-02,
       1.89862177e-02, 8.02229159e-03, 4.19860618e-04, 8.11152812e-03,
       4.66879504e-03, -3.53930611e-03, 2.33318424e-03, -1.73323136e-03,
       -9.47052054e-03, 1.65915173e-02, -1.50972810e-02, -1.56011211e-03,
       -6.78863004e-03, -9.03815497e-04, 1.22255748e-02, 5.78105915e-03,
       1.15838344e-03, 1.25171663e-03, -3.06820584e-04, -6.53953059e-03,
       1.50660956e-02, 9.98498127e-03, -3.78673850e-03, 1.40492618e-02,
       -5.41031128e-03, 8.71155504e-03, 1.04146572e-02, 1.00519238e-02,
       5.65963658e-03, 4.19469224e-03, 1.16677191e-02, 1.21163186e-02,
       1.27020888e-02, -1.48593949e-03, -2.42496692e-02, -2.08858680e-02,
       3.31316981e-03, 8.65680445e-03, 5.59416506e-03, 1.05997007e-02,
       7.20879482e-03, 1.69661101e-02, -1.40969614e-02, -1.43577605e-02,
       4.04440193e-03, 9.86887608e-03, 8.53389222e-03, 1.13958046e-02,
       1.85588747e-03, -1.56133855e-02, 1.10596083e-02, -7.01393792e-03,
       -4.80007334e-03, 1.24892434e-02, 9.52185318e-03, 1.28554450e-02,
       4.21584165e-03, -1.59343649e-02, -6.23176154e-03, 8.83658137e-03,
       4.77132387e-03, 9.51599563e-04, -8.32525024e-04, 1.08567672e-02,
       5.16575528e-03, 1.74538547e-03, -1.83014257e-03, -1.78056732e-02,
       -1.55303301e-03, -2.04373505e-02, -1.45610664e-02, 1.12552540e-02,
       2.25776853e-03, 7.50738708e-03, -9.43464786e-03, -1.51347853e-02,
       -5.32228872e-03, -1.27048017e-02, -1.18260542e-02,
       -4.23305389e-03, 3.58688761e-03, -4.78469953e-03, 9.76244267e-03,
       8.42102151e-03, -1.87229440e-02, -1.32311312e-02, 7.47032184e-03,
       2.65205605e-03, -4.75528510e-03, -6.69736788e-03, 2.54646922e-03,
       -1.38057498e-02, 7.81031977e-03, -4.17452864e-03, -4.97544603e-03,
       2.22766353e-03, 1.25140166e-02, -1.71868119e-03, -5.10788104e-03,
       -9.74734873e-03, 1.28692873e-02, -1.00488849e-02, -2.97782547e-03,
       -3.41317058e-03, -1.59324519e-02, -6.67168666e-03,
       -5.85937500e-03, 6.16356265e-03, 5.35872998e-03, 9.12557542e-03,
       -4.84213093e-03, 5.11183171e-03, -1.33354648e-03, -9.28035844e-03,
       2.02233507e-03, 3.47733893e-03, 2.76499218e-03, -2.31140619e-03,
       -5.37603023e-03, 8.60244222e-03, 3.37009914e-02, 5.65382885e-03,
       5.49745420e-03, -1.18625453e-02, 1.68418325e-02, 3.24918935e-03,
       -4.24559880e-03, -4.77595720e-03, -7.93437101e-03, 1.59050860e-02,
       6.18893094e-03, -5.71911084e-03, -1.17998477e-02, 2.20050067e-02,
       1.34920711e-02, -7.99963542e-04, 7.13277748e-03, 7.20582297e-03,
       1.89602878e-02, -8.06230865e-03, -9.12146084e-03, 5.58938039e-03,
       1.55167459e-02, 2.29638442e-03, 1.57997403e-02, 1.09530753e-02,
       -6.42532948e-03, 2.38493737e-03, -4.10044286e-03, -1.18246628e-02,
       -9.83894896e-03, 1.69515274e-02, 1.22925527e-02, 1.38093913e-02,
       -6.83815544e-03, -1.87529400e-02, 3.05398065e-03, 1.15855553e-04,
       -7.83531833e-03, -4.43064841e-03, 1.02227060e-02, 9.00536589e-03,
       -1.16918748e-02, -1.12802302e-02, -1.93687938e-02,
       -4.77683125e-03, -1.22027462e-02, -4.75293119e-03, 5.67390537e-03,
       1.94875430e-02, 7.12019484e-03, -1.32613350e-02, 8.53120442e-03,
       -1.36672789e-02, 8.62399698e-04, 2.61362386e-03, 4.77119023e-03,
       -1.21674649e-02, 5.26245590e-03, 4.22757771e-03, -4.03397949e-04,
       1.20840268e-02, 7.02536758e-03, 2.02427283e-02, 5.56466961e-03,
       -1.90892036e-03, -4.08962509e-03, 1.20962290e-02, -1.43819561e-04,
       3.20696854e-03, -9.36030410e-03, -1.24848438e-02, -1.38541693e-02,
       -5.30397985e-03, -2.53687333e-03, -1.50842511e-03, 3.01125017e-03,
       -7.55422143e-03, -1.23966346e-02, -1.29158003e-02,
       -1.19723715e-02, -8.28120206e-03, -1.55021157e-03,
       -7.46250618e-03, 1.68658257e-03, 6.75745821e-03, -6.59234542e-03,
       -1.95217989e-02, -6.32176222e-03, -3.04534496e-03,
       -1.08916371e-03, 3.32858111e-03, 2.17659282e-03, 3.42976861e-03,
       6.03250694e-03, -7.06699351e-03, -1.55032976e-02, 7.98544381e-03,
       7.94521440e-03, 3.59132770e-03, 1.98726151e-02, 4.28590167e-04,
       1.03838202e-02, 4.24553873e-03, -6.78040506e-03, -1.06952423e-02,
       -1.15411412e-02, -2.48271655e-02, -1.15795834e-02,
       -5.64333331e-03, -4.71928297e-03, -1.33971218e-03,
       -1.18492078e-02, -1.39147127e-02, -1.83103271e-02,
       -1.24602474e-03, 8.05537391e-04, 8.24599527e-03, 1.36655951e-02,
       -7.38908013e-04, -1.26408983e-03, -8.20184767e-04,
       -6.14770572e-04, -1.29471235e-02, 4.99226712e-03, 1.43013091e-03,
       -2.67058099e-03, 8.64599925e-03, 3.73453321e-03, -4.14144434e-03,
       -5.04708663e-03, -1.17194671e-02, -1.47211580e-02, 6.32633595e-03,
       1.79158002e-02, 1.21679129e-02, 2.27317922e-02, 1.26906633e-02,
       -3.44199268e-03, -2.21922272e-03, -3.46461241e-03,
       -1.27200307e-02, -3.13490606e-03, -8.20011657e-04,
       -5.72339632e-03, 3.97187052e-03, -5.39329508e-03, -1.35457208e-02,
       -1.45420134e-02, -8.67639435e-04, 5.64483635e-04, -7.05737527e-03,
       -6.30146079e-03, -1.93541020e-03, -1.74030638e-03, 2.01640837e-03,
       7.31885293e-03, -1.47946167e-03, -1.06094945e-02, -6.42139977e-03,
       -1.23873297e-02, 6.94430142e-04, -8.17136432e-04, 1.51336519e-03,
       -1.50488736e-03, -9.77843162e-03, 8.74510268e-04, -1.65198371e-03,
       -1.37222176e-02, 4.45092097e-03, 2.22878810e-03, 1.12682125e-02,
       3.35568417e-04, 2.04007979e-02, 4.03529778e-03, 9.37475171e-03,
       -4.13155323e-03, 6.21422147e-03, -2.39520194e-03, -1.26373442e-02,
       -1.42377205e-02, -8.70354101e-03, -1.75476889e-03,
       -3.45053687e-03, 9.51293763e-03, -1.09867402e-03, -6.81177806e-03,
       2.31630125e-04, -1.17524117e-02, 8.01117811e-03, 1.09223975e-02,
       1.17521556e-02, 3.11420020e-03, 3.13894037e-04, 3.11861490e-03,
       -5.02055511e-03, 8.08810908e-03, 1.56411412e-03, -1.79036427e-02,
       -2.22244929e-03, 8.51580116e-04, 1.48467231e-03, 7.47122709e-03,
       -5.82360290e-03, 4.92721749e-03, 2.40051169e-02, 1.11520365e-02,
       -6.31063199e-03, 6.25115866e-03, 1.81603655e-02, 1.41621893e-02,
       8.63176305e-03, -3.47686524e-04, 1.59545988e-02, -4.17722575e-03,
       -1.30308128e-03, -1.63618696e-03, 1.59245469e-02, -2.69608106e-03,
       1.05754950e-03, -3.18604917e-03, -3.00716283e-03, -9.87777952e-03,
       4.63761436e-03, 4.37154621e-03, -6.43748138e-03, 2.40365090e-03,
       -2.76649324e-03, -6.70141261e-03, -1.78045302e-04, 2.70232256e-03,
       -5.50109521e-03, 1.97126623e-02, 1.08388038e-02, -5.75597910e-03,
       1.30797015e-03, -1.78627837e-02, -1.41645828e-03, -6.60275284e-04,
       9.39852279e-03, 6.84040738e-03, 1.19977109e-02, 1.42947985e-02,
       1.21352391e-03, 2.64748931e-03, 9.22626071e-03, 2.48885062e-03,
       8.22423678e-03, 1.04779843e-02, 5.73341316e-03, -1.06251528e-02,
       -1.43150066e-03, -1.41574303e-02, 4.99718543e-03, -1.47726312e-02,
