%YAML:1.0
---
detector: !!opencv-object-detector-hog
   winSize: [ 200, 200 ]
   blockSize: [ 16, 16 ]
   blockStride: [ 8, 8 ]
   cellSize: [ 8, 8 ]
   nbins: 9
   derivAperture: 1
   winSigma: 4.
   histogramNormType: 0
   L2HysThreshold: 2.0000000000000001e-01
   gammaCorrection: 1
   nlevels: 64
   signedGradient: 0
   SVMDetector: [ 2.24631443e-03, -3.63867497e-03, 4.39984398e-03,
       5.51918114e-04, 6.35660067e-03, -1.98461488e-03, -2.92442186e-04,
       -7.04813190e-03, 2.91521917e-03, -1.19492412e-03, -5.11825597e-03,
       8.92656564e-04, -5.50732622e-03, -9.37195681e-03, -7.16670556e-03,
       4.85632056e-03, -2.88285757e-03, 2.67336000e-04, -1.00331625e-03,
       -7.66930729e-03, -3.76726035e-03, -4.53655142e-03,
       -1.50797179e-03, -2.13793037e-03, 7.44192919e-04, -4.33937088e-03,
       -3.18208855e-04, -2.66658579e-04, -6.90689823e-03, 1.25007890e-03,
       -4.81513282e-03, 1.25784194e-03, 4.21210658e-04, 3.16650444e-03,
       -2.67837965e-03, 1.28204457e-03, -3.49654903e-04, -5.55833010e-03,
       3.04738269e-03, 2.33198795e-03, -9.41898394e-03, -6.04240410e-03,
       5.08512044e-03, 6.31010067e-03, -3.00086773e-04, -4.71821381e-03,
       -7.89530389e-03, -1.27004678e-04, -8.67839553e-05, 7.35673727e-03,
       4.27594641e-03, 5.84718259e-03, -5.99653809e-04, -4.99310344e-03,
       -1.11580617e-03, -5.30099263e-03, 4.29728162e-03, 1.67586945e-03,
       3.58858798e-03, -7.81424096e-05, 4.34461236e-03, 5.13360649e-03,
       -4.13695909e-03, -3.83853354e-03, -1.26225059e-03, 6.99314242e-03,
       -2.15126877e-03, 1.02811363e-02, 2.34231283e-03, 7.68322311e-03,
       6.17722236e-03, -7.30405049e-03, 3.89619847e-04, -7.69721446e-05,
       1.11609430e-03, -3.29917879e-03, 4.04113671e-03, -4.03551525e-03,
       1.21477654e-03, -5.46643604e-03, 6.20457722e-05, -2.31149816e-03,
       -2.23685149e-03, -2.58093490e-03, -1.60521851e-03,
       -5.27206248e-05, -7.17974873e-03, -7.33500987e-04, 1.90764235e-03,
       2.13755964e-04, 1.14388559e-02, 1.00195585e-02, 1.04487631e-02,
       9.24325490e-04, 8.94069578e-03, -3.73000395e-03, 3.59405763e-03,
       3.51575291e-04, 2.14610435e-03, 1.43660642e-02, 8.03215988e-03,
       7.67873414e-03, -5.52752826e-05, -2.24458473e-03, -3.52802710e-03,
       2.37119989e-03, -4.57285717e-03, 3.25588114e-03, -5.41828107e-03,
       -1.01424207e-03, -6.71817048e-04, -3.77652864e-03, 3.12496698e-03,
       -3.77349264e-04, 9.61450336e-04, 2.85626296e-03, -5.12654893e-03,
       -1.74346741e-03, 1.77922810e-03, 2.29249429e-03, 5.96788852e-03,
       8.45005736e-03, -6.65561017e-03, -2.50037480e-03, -1.00346166e-03,
       -2.00813753e-03, 5.64637175e-03, -6.83970330e-03, -8.37458018e-03,
       -6.63930736e-03, 7.42897741e-04, -1.84434559e-03, 4.35154559e-03,
       3.68033256e-03, -2.14167242e-03, -3.41952691e-04, -4.08568187e-04,
       -3.24621471e-03, 3.84991174e-03, 3.93952127e-04, -5.06913615e-03,
       6.23297365e-03, 8.40516761e-03, -4.89582447e-03, -1.91944651e-03,
       1.43197458e-03, 4.54934663e-04, 1.09431539e-02, 1.08931810e-02,
       -8.27611424e-03, -9.13836993e-03, -3.77028104e-04,
       -1.80174212e-03, -2.18810118e-03, -2.67500919e-03, 4.97369387e-04,
       5.32002840e-03, 6.30146591e-03, -5.33942925e-03, -4.68083424e-04,
       7.07342988e-03, 9.15540382e-04, -4.34572296e-03, 1.17951876e-03,
       7.88057921e-04, 6.39040535e-03, 1.78371836e-03, -2.83022178e-03,
       -5.11320727e-03, -8.29672150e-04, -5.39442152e-03,
       -4.89435717e-03, 2.25257617e-03, 8.83774366e-03, 4.48917132e-03,
       -2.51134578e-03, -1.34743974e-02, 9.02921951e-04, 1.27262366e-03,
       -2.84047564e-03, 4.64489800e-04, 2.27126433e-03, 5.42703783e-03,
       8.07213306e-04, 8.59499909e-04, -2.91961391e-04, 3.91964521e-03,
       9.74692870e-03, -2.10885284e-03, 2.13263906e-03, 3.23874014e-03,
       2.54973350e-03, 8.37991480e-04, -1.35832429e-02, -4.94500948e-03,
       -7.77865062e-03, -2.37617805e-03, -7.25645223e-04,
       -5.35143679e-03, 4.31937352e-03, 5.11921430e-03, -2.48321798e-03,
       -3.24892858e-03, -1.15150213e-02, 5.06133167e-03, 7.99931027e-03,
       -7.62363605e-04, -2.51933606e-03, -2.93685403e-03,
       -8.76358303e-04, 4.89824684e-03, -7.71598471e-03, -4.79616039e-03,
       1.48252246e-03, 1.03683944e-03, 7.65151810e-04, 6.13534870e-03,
       5.48872491e-03, 7.52954569e-04, -3.80384014e-03, -2.78065418e-04,
       -6.95419358e-03, -1.17956931e-02, -7.52773089e-03, 4.37441282e-03,
       -2.48089869e-04, 1.69214362e-03, 1.31357787e-03, -3.96973919e-03,
       8.16765428e-03, -3.07272235e-03, -2.48129014e-03, 9.43277555e-04,
       3.43490654e-04, -4.29231953e-03, -4.57284227e-03, -2.14135181e-03,
       2.37321947e-03, 5.67442225e-03, -6.54628268e-03, -4.85633081e-03,
       -2.06005760e-03, -2.51597259e-03, -9.96161252e-03, 5.06878924e-03,
       4.46331082e-03, -8.78786761e-03, 1.82453427e-03, -5.56592038e-03,
       -2.83533416e-04, 1.08635912e-04, -8.51166807e-03, -3.81536526e-03,
       -2.27125781e-03, -6.19522063e-04, -5.54642780e-03, 3.09465383e-03,
       -6.54983707e-03, -8.14771466e-03, -1.90479693e-03,
       -3.92866135e-03, 2.59877974e-03, 4.31303779e-04, 4.51136241e-03,
       1.75310159e-03, 1.69314817e-03, -1.06058186e-02, -2.19352799e-03,
       5.74541558e-03, 2.52523669e-03, -9.60583639e-05, 9.68119036e-03,
       5.61359338e-03, -1.35618616e-02, 1.80066249e-03, -8.47633649e-03,
       -5.32898074e-03, -7.71123962e-03, -7.11265625e-03, 3.91910784e-03,
       6.17073150e-03, 8.38659517e-03, 4.63857832e-05, 8.62633437e-03,
       -6.21385593e-03, 5.24282083e-03, 5.00384765e-03, -4.96745715e-03,
       2.28753872e-03, 8.12336709e-03, 6.31409604e-03, 8.25827883e-04,
       -3.57301161e-03, -1.52623970e-02, -7.07387784e-03,
       -2.75659189e-03, -2.97239562e-03, 1.54770198e-04, 5.10745961e-03,
       6.48800004e-03, 1.00061391e-02, 7.56413396e-03, -9.41114966e-04,
       -6.73856412e-04, -4.61014174e-03, -1.26496737e-03,
       -3.68431327e-04, 8.95725843e-03, -1.55668822e-04, -1.55335889e-04,
       4.77640331e-03, -1.03558814e-02, -3.86403012e-03, 1.72097783e-03,
       -9.74980462e-03, -3.61657655e-03, -5.46970521e-04, 3.44804069e-03,
       2.86549621e-04, 8.96982662e-03, -9.74493381e-03, -7.44571863e-03,
       -4.79043974e-03, -6.24166289e-03, -2.32069637e-03, 3.01273423e-03,
       5.81540214e-03, 9.69698932e-03, 2.94075767e-03, -1.61550252e-03,
       -6.70261797e-04, -2.94074020e-03, -2.43276916e-03,
       -8.57406575e-03, 3.35263350e-04, -4.21031192e-03, -1.70430087e-03,
       -8.92843876e-04, 3.07345553e-03, -1.86016306e-03, 1.30207161e-03,
       -8.15459248e-03, -8.84362962e-03, -4.82611032e-03, 1.16557945e-02,
       1.71294960e-03, -5.72454883e-04, -1.03636272e-02, -1.01843681e-02,
       -5.73157612e-03, -5.30260440e-04, -2.86139781e-03, 3.54977255e-03,
       8.68541375e-03, -5.67794126e-03, 1.06595829e-03, -5.07458486e-03,
       -4.67900565e-04, -4.53144824e-03, -2.12421393e-04, 8.97816615e-04,
       -4.07584710e-03, -9.40379128e-03, -5.37108257e-03, 6.20369939e-03,
       1.97290862e-03, -4.72744927e-04, 1.33417209e-03, 1.21767330e-03,
       -7.78347487e-04, -7.99593609e-03, -1.12457909e-02,
       -1.60754677e-02, -4.95410291e-03, -1.69255177e-03,
       -8.74032360e-03, 1.16968888e-03, -3.62607208e-03, 3.56905884e-03,
       2.55068531e-03, -2.50996090e-03, -1.16498824e-02, 2.06906837e-03,
       -8.11812526e-04, 7.55126402e-03, 2.97286827e-03, 1.26539748e-02,
       8.19374714e-03, 6.24113902e-03, 4.69764974e-03, -8.96268804e-03,
       -5.64884814e-03, -4.67447424e-03, 2.14066613e-03, 6.05032034e-03,
       8.95102974e-03, 1.51796092e-03, 1.51210325e-03, 1.52291369e-03,
       -4.60669072e-03, 7.31799193e-03, 5.32859797e-03, -6.66063977e-03,
       -4.37844824e-03, -1.34556019e-03, 6.26822060e-04, 9.30762757e-03,
       9.63248871e-03, -8.36800877e-03, -7.35891843e-03, 2.45360262e-03,
       -4.33982210e-03, -6.62223063e-03, -7.81215215e-03, 6.57306984e-04,
       5.27556101e-03, 7.92833697e-03, -3.80477257e-04, 5.24324318e-03,
       4.32582339e-03, 2.20483891e-03, 2.71312962e-03, 3.78761254e-03,
       -8.01996887e-03, 3.36792757e-04, 3.78445559e-03, -1.16263013e-02,
       -2.43870076e-03, 3.07410373e-03, -4.35594330e-03, -4.51799016e-03,
       -9.86458547e-03, 4.03033476e-03, 1.07443109e-02, 1.24909803e-02,
       -2.08187103e-03, -3.06343334e-03, 5.50734950e-03, -3.45755462e-03,
       -6.05635287e-04, -4.06886358e-03, -1.30881570e-04, 6.70410413e-03,
       1.63979246e-03, -8.94168764e-03, -1.33026531e-02, 4.32129856e-03,
       -6.35924470e-03, 2.60486314e-03, 1.52991572e-03, -5.84587175e-03,
       3.37449746e-04, 4.54978785e-03, -1.35318004e-02, -6.13407698e-03,
       7.02464860e-03, -4.49600536e-03, -3.37431231e-03, -4.73975483e-03,
       1.72650779e-03, 3.39305610e-03, 1.78476423e-03, -9.92169138e-03,
       -1.14453994e-02, 4.38642409e-03, -7.70787988e-03, -4.14564228e-03,
       4.68361657e-03, -2.61433609e-03, -2.90524424e-03, -8.84647574e-03,
       -1.16548715e-02, -6.32249005e-03, -1.16192561e-03,
       -4.54188511e-03, 3.89960129e-03, 7.86658283e-03, 4.94184578e-03,
       -6.28687954e-03, -1.02112452e-02, -4.88030119e-03,
       -5.13357692e-04, 6.12858625e-04, 8.78231134e-03, 1.19493045e-02,
       1.55660417e-02, -2.89287418e-03, -3.60619393e-04, -2.98319082e-03,
       -8.27536732e-03, -3.54707264e-03, -2.00503180e-03,
       -4.53496445e-03, -6.54133782e-03, -7.93641258e-04, 1.39521505e-03,
       4.01627691e-03, -1.80971937e-03, -3.90423997e-03, 1.18596444e-03,
       -1.08038985e-04, 4.19285847e-04, -6.89782016e-03, 2.26380024e-03,
       4.46701655e-03, -7.18396856e-04, -5.15855895e-03, -2.98685115e-03,
       -1.03438646e-02, -2.25553266e-03, 4.30450076e-03, 8.12983327e-03,
       1.38627216e-02, 1.10670337e-02, 5.29628666e-03, 1.87764911e-03,
       -4.25571483e-03, 9.72453784e-03, -1.06460564e-02, 1.26030424e-03,
       9.75056831e-03, 1.02299582e-02, 2.87278934e-04, 3.83003429e-03,
       4.06023115e-03, 5.22227259e-04, -6.21434161e-03, -7.83836842e-03,
       -7.00578047e-03, -6.18935796e-03, 2.20642122e-03, 1.07809883e-02,
       1.37244137e-02, 8.83065350e-03, -4.42173681e-04, 1.54077832e-03,
       -9.06829350e-03, -2.35217158e-03, 3.29871802e-03, 2.62440601e-03,
       2.41108029e-03, 3.03359982e-03, 6.35771547e-03, -2.70347483e-03,
       9.80136264e-03, -1.17077744e-02, -6.35489635e-03, 2.13647541e-03,
       3.14482837e-03, -1.58769160e-03, -1.72479346e-03, 6.75735704e-04,
       3.23533919e-03, 1.43457940e-02, -2.72601424e-03, -6.22444879e-03,
       2.10908969e-04, 7.59873213e-03, 4.65411833e-03, 9.97561868e-03,
       6.43097796e-03, -6.33294322e-03, -2.38323631e-03, -1.02065140e-02,
       -6.41940767e-03, 5.21985535e-03, -2.69010291e-03, 3.56705557e-03,
       5.16895950e-03, -1.82218233e-03, 2.27262746e-04, 9.08873882e-03,
       -5.96863683e-03, -3.52226361e-03, 4.25904850e-03, 4.55884059e-04,
       -6.79491321e-04, -4.57776739e-04, -8.11755471e-03, 2.73490720e-03,
       1.12026287e-02, 3.24458256e-03, -4.33308259e-03, -2.57036462e-03,
       1.19384769e-02, -3.58496397e-03, -2.75338953e-03, -7.28939706e-03,
       6.84272079e-03, 6.92003756e-04, -4.07322834e-04, -9.38122068e-03,
       -6.83811773e-03, -1.09998167e-04, -2.99224327e-03, 1.58778683e-03,
       -3.73587082e-03, 5.67428907e-03, 3.13624018e-03, -5.30399103e-03,
       -5.97926928e-03, 1.12519786e-03, 9.93538531e-04, -1.38123881e-03,
       2.89001805e-03, -6.28202455e-03, 1.01144994e-02, -7.41227577e-03,
       -4.77735419e-03, -1.13774389e-02, -3.35396570e-03,
       -3.95268667e-03, -2.97930720e-03, -2.56177853e-03, 4.89346683e-04,
       6.20217714e-03, 1.09380875e-04, -1.33673684e-03, -6.29059831e-03,
       -4.31904523e-03, -4.80509800e-04, -6.64446270e-03,
       -1.44654489e-03, 3.54533811e-04, 5.32540446e-03, -8.85056239e-03,
       1.25640864e-03, -1.33158069e-03, 1.31783402e-03, -2.55719619e-03,
       2.32847617e-03, -6.92421524e-03, -2.23393994e-03, 8.10270198e-03,
       -1.32816855e-03, 3.20575055e-04, -8.68614018e-03, -2.16962001e-03,
       4.08028020e-03, -1.92631606e-03, -1.28231151e-03, -5.50183293e-04,
       -1.01731054e-03, -1.43232979e-02, 2.36190087e-03, 1.54955767e-03,
       -3.47654568e-03, -6.19323878e-03, -2.06535752e-03,
       -1.69658847e-03, -1.86224026e-03, 1.17247063e-03, -1.36185437e-02,
       5.43375500e-03, 2.52212887e-03, 3.04630317e-04, -1.58704736e-03,
       5.81180153e-04, -1.10495300e-03, 2.67666625e-03, 3.32075241e-03,
       -1.21225072e-02, -6.60522981e-03, -4.84879268e-03,
       -7.11959414e-03, -9.45506326e-04, -1.86629186e-03,
       -1.66170602e-03, -1.15710997e-03, -2.05320306e-03,
       -8.98851547e-03, 7.37295067e-03, 1.42712425e-03, -5.26558887e-03,
       -4.79935110e-03, -4.91881697e-03, -8.65277275e-03,
       -2.98573682e-03, 3.06954607e-03, 1.03379050e-02, -2.23805616e-03,
       -1.00305751e-02, -1.09364381e-02, -4.68689436e-03,
       -1.03081526e-04, -1.76074472e-03, 4.26686881e-03, 8.32498353e-03,
       -9.88064054e-03, -2.11892463e-03, 1.91059997e-04, 1.17274304e-03,
       2.62421061e-04, -9.88252182e-03, -9.08807851e-03, 7.38987641e-04,
       2.82960245e-03, -1.54403942e-02, -4.49549500e-03, 2.54539284e-03,
       3.71354236e-03, -4.88161761e-03, -1.87736889e-03, -3.69739695e-03,
       4.66613518e-03, 5.51012764e-03, 8.23111460e-03, -2.99307634e-03,
       -3.14011984e-03, -6.16879493e-04, -1.41321987e-04, 6.50698494e-04,
       2.75977491e-03, 7.82109238e-03, 8.35118117e-04, -1.74781997e-02,
       -1.16242804e-02, 4.92990157e-03, 6.43161265e-03, 5.79751283e-03,
       -7.32346671e-03, -4.82171495e-03, 2.67390371e-03, 4.65936307e-03,
       -9.26572393e-05, 8.91316915e-04, 3.89058236e-03, -2.50373851e-03,
       -2.25021597e-03, -4.94555756e-03, -1.73991942e-03,
       -3.75633105e-03, 3.86297761e-04, 7.62619963e-03, -2.88679177e-04,
       -2.32499893e-04, -6.27647620e-03, -1.14364438e-02,
       -3.87015898e-04, 8.17488035e-05, 4.16939240e-03, -5.17808250e-04,
       -1.77849457e-02, -6.84067002e-03, 7.47657381e-04, 8.62364192e-03,
       5.78988297e-03, 1.08936045e-03, 4.92388557e-04, -5.11775585e-03,
       -4.90704970e-03, -3.32828821e-03, -2.44034803e-03,
       -1.70001481e-03, -2.25388515e-03, -2.54443521e-03,
       -1.84878916e-03, -7.25754863e-03, -1.02281505e-02,
       -8.10105470e-04, 1.00239459e-02, 1.21567340e-03, 4.44532838e-03,
       -2.51522404e-03, -5.45553863e-03, -5.14035521e-04,
       -1.64647156e-03, -9.52079240e-03, -4.62969719e-03, 4.78046807e-03,
       -1.16349715e-04, 5.47071081e-03, -6.54604519e-04, -2.05721334e-03,
       3.12544638e-03, -4.29594191e-03, -8.46988894e-03, -7.40755163e-03,
       5.10264793e-03, 2.26122281e-03, 3.31452605e-03, -1.54550374e-03,
       -3.66976019e-03, 1.55678985e-03, 5.49974560e-04, -4.08577127e-03,
       -8.88950843e-03, -5.60434535e-03, -5.16967339e-05, 9.54394974e-03,
       6.54163538e-03, -1.01613894e-03, -3.12743941e-03, 3.64161958e-03,
       2.37422553e-03, -4.36158897e-03, 9.15279146e-03, -7.75611494e-04,
       -1.01736572e-03, -4.64303652e-03, -3.25176818e-03,
       -4.82469797e-03, 8.46861512e-04, 1.54029103e-02, -8.38945969e-04,
       7.73772877e-03, -7.12698558e-03, -3.36754601e-03, -7.46867666e-03,
       -4.59198188e-03, -9.15885612e-05, 1.92666112e-03, -1.44171168e-03,
       -1.07005499e-02, 3.45883920e-04, -1.21120887e-03, 3.36385728e-03,
       4.71909856e-03, 1.74731773e-04, -8.29394534e-03, 5.35969390e-04,
       1.19135678e-02, -1.26398844e-03, 3.91422072e-03, -1.64477974e-02,
       -8.34678300e-03, -6.07179105e-03, -2.85072555e-03,
       -5.20016486e-03, -8.16790573e-03, 6.89714961e-03, 4.91892733e-03,
       1.08053572e-02, -9.15728137e-03, -2.95407558e-03, 1.79512092e-04,
       1.64456409e-03, -1.17995834e-03, -7.14141317e-03, 1.00884296e-03,
       1.14088207e-02, -5.06781274e-03, -9.01798997e-03, -8.24784162e-04,
       -9.19570681e-04, -1.93981524e-03, -3.58159328e-03,
       -3.45283607e-03, 6.04464673e-03, 4.20216657e-03, 5.93530945e-03,
       -1.09207174e-02, -4.42440202e-03, 1.44726434e-03, -1.40766241e-03,
       -3.08754388e-03, -6.46750815e-03, -1.62906991e-03, 2.99933436e-03,
       -2.00665602e-03, 1.69458194e-03, -1.45383994e-03, 3.90503812e-03,
       -1.37622270e-03, -4.37899167e-03, -6.67421380e-03,
       -6.82611903e-03, -1.05697829e-02, -8.08321405e-03,
       -2.98840413e-03, 4.03789664e-03, -2.79633357e-04, -3.80427547e-04,
       7.10342661e-04, -6.69615855e-03, -8.43170972e-04, -3.30783194e-03,
       -2.75157462e-03, -2.41610862e-04, 9.27563198e-03, 8.13597627e-03,
       4.44525806e-03, 4.26385319e-03, 5.60652837e-03, 3.99447186e-03,
       -5.52094774e-03, -8.89832992e-03, -6.97916746e-03, 7.50274630e-04,
       2.20308764e-04, 3.15061468e-03, 3.40890884e-03, 2.89480528e-03,
       3.61900777e-03, -9.40742623e-03, -3.51492106e-03, -2.56820885e-03,
       1.10216103e-02, 7.46028312e-03, 4.53415420e-03, -3.20436759e-03,
       -8.07807967e-03, -1.57495029e-03, -3.16072232e-03,
       -6.17243873e-04, 8.31467623e-04, 8.79972801e-03, 1.13235582e-02,
       -1.60273281e-04, -2.78829294e-03, -2.54761474e-03, 3.72088223e-04,
       -4.14280174e-03, 6.19863579e-03, -5.77369286e-03, 8.25126097e-03,
       9.99284722e-03, -4.72239126e-03, -7.54451088e-04, 1.12631288e-03,
       1.40592980e-03, -2.03138217e-03, 1.17239647e-03, 9.79595818e-04,
       1.39652928e-02, 7.01809162e-03, 3.22826323e-03, -5.37567865e-03,
       2.83616362e-03, 6.53696852e-03, -5.29676443e-04, -1.58683083e-03,
       -3.29714781e-03, 7.85523281e-03, 7.44616939e-03, -6.60028309e-03,
       5.01011964e-03, 3.26147350e-03, 5.57935238e-03, -2.09558755e-03,
       4.46936255e-03, -2.22814525e-03, 5.31574572e-03, 3.84723558e-03,
       3.80725396e-04, 9.22457129e-03, 8.79503507e-03, 3.24658165e-03,
       -7.63160363e-03, -1.44603115e-03, -5.63025707e-03,
       -2.26928480e-03, -9.72661935e-03, 9.57140699e-04, -4.34476929e-03,
       1.64559955e-04, 4.96045966e-03, -8.90565570e-04, -5.63431904e-03,
       -2.55320407e-03, 5.23707876e-03, 6.25160104e-03, -5.89882350e-03,
       -6.60358055e-04, -1.64629915e-03, 1.00821760e-02, 2.89609144e-03,
       -5.06447628e-03, -8.40376969e-03, 3.70697794e-03, -2.25655385e-04,
       -9.99592361e-04, 5.51850349e-03, -8.13649822e-05, -6.39552902e-03,
       -1.03826355e-02, 2.55345856e-03, -4.48019849e-03, 1.93605863e-03,
       5.40003693e-03, -5.68645599e-04, -7.97531568e-04, -8.12805549e-04,
       2.96010822e-03, -3.72278085e-03, 8.08253419e-03, -6.39175111e-03,
       1.26998441e-03, 4.47114231e-03, -4.79169097e-03, 5.20419089e-05,
       4.92486544e-03, 8.43896065e-03, -7.36980885e-03, 4.47004313e-05,
       -4.84895613e-03, -2.41991365e-04, -2.13330844e-04,
       -1.28596998e-03, 4.12895204e-03, 4.74754488e-03, 1.18890936e-02,
       4.90686274e-04, -2.15289649e-03, -7.34251831e-03, -6.71479525e-03,
       -2.79312138e-03, -8.07936129e-04, 3.51114478e-03, 3.82273085e-03,
       7.58889411e-03, 3.41371004e-03, 7.97872152e-03, -1.72037177e-03,
       -4.48923837e-03, 5.05462987e-04, -5.39005734e-04, -1.77777547e-03,
       2.16467492e-03, 6.03132416e-03, -4.87346947e-03, 6.41302206e-03,
       -1.21704321e-02, -6.02559932e-03, -3.44006508e-03,
       -8.05032760e-05, 7.33473292e-03, 4.43617068e-03, 1.14486581e-02,
       4.13837191e-03, -3.08127783e-04, 6.57509256e-04, -2.24834448e-03,
       3.14091682e-03, -1.27318234e-03, 8.59551225e-03, 6.59611169e-03,
       5.80396689e-03, -4.91626421e-03, 2.88020412e-04, 8.92156211e-04,
       -1.81277411e-03, -1.46167271e-03, 5.20540355e-03, -3.55317327e-03,
       3.65937361e-03, 3.08740721e-03, -4.93087433e-03, 2.12293840e-03,
       -9.46779922e-03, -2.20949505e-03, 2.50742189e-03, 2.80594424e-04,
       2.40802858e-03, 8.22118483e-04, 1.32841105e-03, 7.11613474e-03,
       6.43179147e-03, 8.93405930e-04, 1.64910068e-03, 4.26017866e-03,
       6.45406824e-03, 4.53678798e-03, 2.59490614e-03, -7.27247633e-03,
       -4.88026300e-03, -3.37775028e-03, 3.27667524e-03, 1.98129378e-03,
       -1.66330056e-03, 5.28036524e-03, 3.48968641e-03, 3.42229009e-03,
       2.37461925e-03, 5.29680343e-04, 7.16657436e-04, 6.69198344e-03,
       5.74221043e-03, -9.16163903e-04, 2.82633933e-03, -2.94245104e-03,
       -1.79323566e-03, -4.46828175e-03, 1.17530033e-03, 3.34398728e-03,
       -1.60809723e-03, -4.06250870e-03, 4.85300057e-04, 2.08942429e-03,
       -7.17541622e-03, 9.06249974e-03, 2.35432410e-03, -1.33560330e-03,
       2.00128858e-03, -3.69864982e-04, -1.81441254e-03, 2.02763150e-03,
       -5.33994613e-03, 5.67710726e-03, -2.75243947e-05, -1.49464363e-03,
       -1.12481089e-03, 3.06772324e-03, 3.02323024e-03, 5.11797145e-03,
       -2.25212588e-03, 6.66378019e-03, 3.07741994e-03, 4.14312817e-03,
       -2.40200176e-03, 9.78190103e-04, -1.00726080e-04, 3.78781441e-03,
       1.57642423e-03, 8.94830795e-04, 1.42382365e-03, -4.10587620e-03,
       5.99136809e-03, 2.94619793e-04, -2.07914598e-03, 4.56279283e-03,
       1.21748017e-03, -3.29287024e-03, 5.38328255e-04, -4.95286332e-03,
       3.78354918e-04, 1.20936765e-03, -2.03094748e-03, 2.82922108e-03,
       6.99468562e-03, -2.00711796e-03, 3.08880163e-03, 2.97620986e-03,
       1.63694983e-03, -7.11805769e-04, 1.40472781e-03, -2.24280846e-03,
       6.37128775e-04, -2.75748828e-03, 2.68611847e-03, -3.68105341e-03,
       -2.16454081e-03, -1.07508351e-03, 2.55072466e-03, 4.64081857e-03,
       1.20058120e-03, -1.64610671e-03, 3.11716949e-03, 6.48300396e-04,
       2.98293569e-04, 3.74413864e-03, 4.55608126e-03, -9.10124835e-03,
       -2.33825669e-03, -5.88770071e-03, 7.90958467e-04, 1.12017086e-02,
       2.84405868e-03, 4.70795901e-03, -4.05647355e-04, -9.37276054e-03,
       -4.90454538e-03, -6.43186131e-03, 8.24816409e-04, 6.18427200e-03,
       9.25943907e-03, -2.27157748e-03, -4.00210684e-03, -1.72119238e-03,
       -4.93744621e-03, -2.44795738e-05, 4.15844331e-03, -4.05336870e-03,
       -5.49723068e-03, 2.70012184e-04, 2.94610363e-04, 4.85006720e-03,
       -1.26403014e-04, 1.88817678e-03, 1.51003629e-03, 3.64484522e-03,
       1.96899241e-03, 3.61012807e-03, -4.19337256e-03, -7.91244907e-04,
       -3.85390682e-04, -7.56493479e-04, -2.26134225e-03,
       -5.03085554e-03, -6.99825631e-03, 1.34182628e-03, 6.70591835e-03,
       3.08989245e-03, 2.12489016e-04, -8.96589085e-03, -5.02505898e-03,
       -1.70596060e-03, 1.76749105e-04, 9.05607740e-05, 7.09427695e-05,
       -2.80485349e-03, -1.19003223e-03, -2.75838701e-03,
       -3.43659287e-03, -5.29779913e-03, 2.59461487e-03, 1.79569761e-03,
       2.46986584e-03, -2.28276080e-03, 7.23302923e-03, -1.76544592e-03,
       2.13824469e-03, -6.26484025e-03, -1.05193341e-02, -4.78133047e-03,
       5.56669955e-04, 9.13087744e-03, 5.66142658e-03, 6.63634809e-03,
       6.76067488e-04, 7.53958942e-04, -6.38528075e-03, -1.17814876e-02,
       -2.46968702e-03, -5.78540144e-04, 3.15401208e-04, 7.72796280e-04,
       -6.75844774e-03, -3.12523131e-04, -2.02463497e-03, 1.13745860e-03,
       1.40764064e-03, 9.10467096e-03, -3.23964329e-03, -3.97960772e-04,
       -1.13776349e-03, -6.53908076e-03, -4.70674504e-03,
       -3.51192150e-03, -2.68546864e-03, 3.96823278e-03, 6.18271809e-03,
       -2.59885477e-04, 3.96511192e-03, 3.38298548e-03, 4.77266265e-03,
       -3.21976491e-03, -4.88508213e-03, -4.52425517e-03, 1.04927539e-03,
       1.27457420e-03, -1.12765068e-02, -8.23419541e-03, -3.49614699e-03,
       1.71280219e-04, -5.51310275e-03, -5.85147180e-03, -8.70783441e-03,
       6.61717681e-03, -4.89378301e-03, -3.68306041e-03, 1.52389682e-03,
       3.71661037e-03, 2.71874852e-03, 8.81937053e-03, -9.28785652e-04,
       -6.48254063e-04, 3.10319080e-03, 4.24444163e-03, -8.71268008e-03,
       -7.76434271e-03, 4.47679995e-05, -8.58057756e-03, 3.54133034e-03,
       -8.58235115e-04, -1.68134097e-03, -2.17060000e-03,
       -6.60307473e-03, 5.28857857e-03, -6.67791115e-03, -4.95480979e-03,
       1.20475958e-03, 4.17524530e-03, 2.08239933e-03, -6.74910552e-04,
       1.11972587e-02, 2.46801716e-03, 9.29910049e-04, -7.29227113e-03,
       -4.06974182e-03, -2.40109284e-06, 1.09033324e-02, -1.34578859e-03,
       1.13162987e-05, 1.06676202e-03, 8.52428610e-04, -2.49936222e-03,
       -3.07041500e-03, -2.37078452e-03, -9.14913323e-03, 1.94750537e-04,
       9.38801095e-03, 3.77248996e-03, -2.13107863e-03, -5.65508334e-03,
       3.88387125e-03, 3.28595750e-03, 2.25423701e-05, -9.13919788e-03,
       -1.71452609e-03, 4.95495042e-03, -1.45740213e-03, -8.87672137e-03,
       -3.50310421e-03, 3.90600646e-03, 3.17885447e-03, -2.85978196e-03,
       -1.36045506e-03, 4.69451072e-03, 2.83092423e-03, 5.62635530e-03,
       1.54336728e-03, -1.38792035e-03, 4.55457764e-03, 8.49248189e-03,
       -1.53787725e-03, -8.61778483e-03, 5.02021052e-03, -3.03336466e-03,
       1.79086498e-03, -1.48980494e-03, -2.13563954e-03, 1.61471940e-03,
       6.10756082e-03, 8.28336086e-03, -1.68441562e-04, 1.97977453e-04,
       -1.06690731e-03, -7.70651735e-03, -1.36993341e-02,
       -6.81598950e-03, 5.58894208e-05, 1.13173611e-02, 7.42822047e-03,
       6.49313256e-03, 4.11917781e-03, 3.15404637e-03, -6.86944695e-03,
       -1.25150857e-02, -9.49430466e-03, 1.54888339e-03, 5.85146854e-03,
       4.20152117e-03, -2.56392872e-03, -1.44330284e-03, -9.04744305e-03,
       -9.30352788e-03, -1.24297636e-02, -1.26362976e-03, 6.87321927e-03,
       4.85430751e-03, 4.64402325e-03, 4.26861364e-03, 3.74421990e-03,
       3.72872921e-03, -8.94210208e-03, -1.41803399e-02, -1.39683066e-03,
       5.07241208e-03, 6.12385338e-03, 3.64445848e-03, -1.18233461e-03,
       -2.22896808e-03, -1.11620477e-03, -3.99256730e-03,
       -8.25264398e-03, -3.88981635e-03, 7.59380171e-03, 1.13592874e-02,
       1.18813552e-02, 4.09424817e-03, -4.46973601e-03, -5.82648115e-03,
       1.51484082e-05, 1.45849132e-03, -5.93750086e-03, 4.76679159e-03,
       6.04900088e-05, -6.97284332e-03, -8.16486124e-03, -1.36393134e-03,
       5.43274451e-03, -2.73061707e-03, -8.72252695e-03, -5.73712774e-03,
       5.96821774e-03, 1.32466750e-02, 1.47177028e-02, 9.94837191e-03,
       -2.81484495e-03, 3.20141204e-03, 1.44749531e-03, 3.79017368e-03,
       -3.85889388e-03, -2.85009365e-03, 6.62328349e-03, 9.59721580e-03,
       -3.69404996e-04, -3.37409414e-03, -4.27687960e-03, 2.41823099e-03,
       9.36784595e-03, -9.00562853e-04, 6.00640709e-03, 6.56741019e-03,
       5.95043297e-04, 2.11992912e-04, 4.05136496e-03, -3.18657001e-03,
       -5.58222295e-04, 9.34418011e-03, 6.60706824e-03, -3.76910553e-03,
       5.81743941e-03, 8.36582948e-03, 8.13948209e-05, -1.00095235e-02,
       -4.37277509e-03, 9.58025828e-03, 1.22994902e-02, -2.41818395e-03,
       -8.27913452e-03, -1.49783830e-03, 4.01665340e-04, -1.41129261e-04,
       -1.28677301e-03, -3.99961276e-03, 1.04747756e-04, 4.75729862e-03,
       -2.28796294e-03, 1.30837096e-03, 9.10738949e-03, 5.32131596e-03,
       6.51084352e-03, 4.11551679e-03, -4.82836692e-03, -9.01580509e-03,
       5.95653709e-03, 8.35875142e-03, -7.77006382e-04, 6.77108997e-03,
       3.91610991e-03, 3.88587196e-03, -1.59156334e-03, 2.40751833e-04,
       -1.04830954e-02, 1.91587792e-03, 6.14596240e-04, -2.62414501e-03,
       -2.11230409e-03, -3.72334640e-03, -3.81335174e-03,
       -9.09235980e-03, -2.39504827e-03, -5.28630742e-04, 5.76868467e-03,
       2.06255959e-03, -5.76092163e-03, -2.15382548e-03, 1.36750552e-03,
       1.70638723e-05, -1.42854648e-02, 2.22664559e-03, -1.23917898e-02,
       -5.19095268e-03, -7.18928408e-03, 8.49665422e-03, 5.55209024e-03,
       9.00747906e-03, 5.62019786e-03, 4.70622582e-03, 3.59184179e-03,
       -7.32598640e-03, -1.95715041e-03, 3.86705785e-03, 6.81986194e-03,
       1.37883630e-02, 1.06238322e-02, 6.01341017e-03, 1.83818873e-03,
       6.65166881e-03, 6.02705346e-04, 1.15356850e-03, 4.20993613e-03,
       -3.02919070e-03, 2.44626333e-03, 1.31910741e-02, 4.61160950e-03,
       2.01517926e-03, -4.65793861e-03, -1.02826096e-02, -7.02219689e-03,
       -9.18533746e-03, -2.28458457e-03, 3.17428424e-03, 8.58141296e-03,
       4.77469934e-04, 4.94015636e-03, -2.90416460e-03, -6.14557788e-03,
       1.82764721e-03, -2.50350358e-03, 1.39628490e-03, 7.18477601e-03,
       3.51067935e-03, 3.19299940e-03, -1.37443154e-03, 3.71511676e-03,
       -1.33324030e-03, 2.24516843e-03, 1.11372198e-03, 1.83837081e-03,
       -2.23616301e-03, 1.86906278e-03, 3.06558236e-03, 7.53356004e-03,
       -7.60114199e-05, -7.24158902e-03, -2.61533482e-04, 4.80745453e-03,
       -2.55763298e-03, -1.91728561e-03, -2.23953277e-03,
       -1.65883786e-04, 3.15508805e-03, -4.76795435e-03, -1.06755248e-03,
       9.27617215e-03, 1.67548098e-03, 4.05782647e-03, -2.52394704e-03,
       1.94216566e-03, -2.02608900e-03, -1.90314313e-03, -6.45938038e-04,
       1.92855590e-03, 7.94609077e-03, 8.79868399e-03, 3.21571087e-03,
       -1.26692164e-03, 3.72765702e-03, 2.86434428e-03, 1.42848790e-02,
       5.37297549e-03, -4.35325736e-03, 6.91648992e-03, 4.62030945e-03,
       -6.15825411e-04, 1.55086489e-03, 7.30191777e-03, 2.38793888e-04,
       -1.41630108e-02, -7.33380765e-03, -2.92174891e-03, 8.21234286e-03,
       -2.35368148e-03, 5.07073710e-03, -1.50009932e-04, 6.04342017e-03,
       7.80341972e-04, 4.65337839e-03, -8.98640021e-04, -5.51078795e-03,
       5.10325097e-03, 1.06378756e-02, 6.57848286e-05, -3.67464265e-03,
       3.51972878e-03, 1.36750517e-03, -7.59132905e-03, -3.30148288e-03,
       2.08758703e-03, 9.21883341e-03, 1.35114358e-03, 7.37578550e-04,
       6.01575826e-04, 9.63561703e-03, 2.71584955e-04, -1.38044795e-02,
       -6.83361804e-03, 2.57188978e-04, 9.62974504e-03, 5.14099514e-03,
       6.18034683e-04, 4.23887605e-03, 1.44760380e-03, 1.64070306e-03,
       -6.40648650e-03, -4.50815493e-03, -1.53723022e-03, 2.35082582e-03,
       5.62525762e-04, 1.28521852e-03, -2.68876948e-03, 1.91533228e-03,
       3.93216126e-03, -7.28807121e-04, -3.38948076e-03, 4.43544565e-03,
       9.12526250e-03, 1.39529502e-03, -5.58943953e-04, 8.33200663e-03,
       8.48374516e-03, 7.49677839e-03, 5.83349122e-03, 4.78394702e-03,
       1.62100536e-03, 4.93365014e-03, 2.33601523e-03, 4.99974331e-03,
       4.40474087e-03, -1.29428779e-04, -4.38323570e-03, -3.59427271e-04,
       -7.69872277e-04, 2.82817218e-03, 3.64264240e-03, 1.37189450e-03,
       3.41347139e-03, 3.53853335e-03, -3.57992435e-03, -9.70636588e-03,
       -6.58581965e-03, -6.84505794e-03, 2.90247658e-03, 2.30641849e-03,
       -6.79097575e-05, 4.91703162e-04, 1.07920300e-02, 6.63408730e-03,
       -3.03017255e-03, 2.86449329e-03, -1.90080784e-03, 5.49060293e-03,
       9.29256715e-03, -9.15673008e-05, 3.07349162e-03, 6.14797650e-03,
       2.62151263e-03, -2.63562729e-03, -1.12872955e-03, -2.63918634e-03,
       3.70979123e-03, 1.02220224e-02, 2.91160867e-03, 1.88027043e-03,
       3.80662619e-03, -2.17884197e-04, -8.38613510e-03, -8.95512931e-04,
       -7.86929112e-03, -1.11900794e-03, 2.92766420e-03, -1.37155969e-03,
       -2.59826123e-03, 9.23613028e-04, 2.34344974e-03, 3.99067253e-03,
       8.85977224e-03, -1.13994367e-02, -1.83879654e-03, 6.50665024e-03,
       2.03813921e-04, -2.74527323e-04, 5.71432617e-03, 4.04503313e-04,
       3.99340177e-03, 2.25461670e-03, -8.69896612e-04, 2.11600121e-03,
       5.57332067e-03, 5.94566518e-04, 9.12131858e-04, 7.05503579e-03,
       -2.35234085e-03, 3.14106146e-05, -1.65799761e-03, -6.52828952e-03,
       7.82877178e-05, 4.95747570e-03, -4.63826349e-03, -7.83483149e-04,
       4.68717160e-04, 3.75170540e-03, 5.53068472e-03, 9.49802715e-03,
       -5.70085365e-03, 3.46168503e-03, 1.18207643e-02, 4.01470857e-03,
       -5.04528685e-03, -4.83726338e-03, -1.81199366e-03, 3.87866283e-03,
       6.61267992e-03, -2.26622564e-03, -1.24852883e-03, 6.08364586e-03,
       2.22766001e-04, 3.64148943e-03, 5.86885121e-03, 2.22106371e-03,
       -8.85447662e-04, -4.83669527e-03, -4.71186079e-03, 1.22400858e-02,
       1.41598927e-02, 2.68798345e-03, -3.21123423e-03, -7.80987670e-04,
       4.55944380e-03, 4.19350015e-03, -9.40107857e-04, -8.40234477e-03,
       2.30642408e-03, 1.62692193e-03, -4.89362655e-03, 3.01549933e-03,
       -1.74260451e-04, -8.73666140e-04, -9.97490017e-04,
       -1.91033923e-03, -6.96145510e-03, -1.00839064e-02,
       -7.64496578e-03, -1.15570822e-03, -6.75129797e-03, 7.05139304e-04,
       3.14434874e-03, -2.17835652e-03, 1.99716794e-03, -2.12594820e-03,
       4.40904079e-03, -3.19780293e-03, -6.46080310e-03, 8.53765011e-03,
       -3.15087009e-03, -5.15113352e-03, -2.15700152e-03,
       -6.56480063e-03, -3.81324114e-03, 8.93902034e-03, 5.17505361e-03,
       5.43782441e-03, 1.59551867e-03, -9.87578183e-04, -5.88879269e-03,
       -2.73195445e-03, -1.26224263e-02, 3.53658665e-03, 1.20373685e-02,
       9.09288006e-04, 3.33859702e-03, -1.08384052e-02, 7.91834143e-04,
       3.49248265e-04, 1.03067374e-03, 4.43269731e-03, 2.45262636e-04,
       4.68164217e-03, -2.02281587e-03, -6.16492704e-03, -5.94916288e-03,
       -1.00627796e-04, -2.46177614e-03, -2.45949323e-03,
       -2.31795385e-03, -6.68835128e-03, -2.73533422e-03,
       -5.81173117e-05, -5.35902893e-03, 5.83435874e-04, 1.08216926e-02,
       2.46909400e-03, 2.85556051e-03, 5.51612815e-04, 9.39216278e-03,
       2.46191677e-03, -6.25440711e-03, -4.60406329e-04, 9.36886482e-03,
       9.56578087e-03, -4.25298131e-05, 2.29000303e-04, 7.55982008e-04,
       -6.08984195e-03, -7.46509898e-03, -7.54403742e-03,
       -6.71765360e-04, -4.21172101e-03, -2.24545947e-03,
       -2.97778076e-03, -2.82969046e-03, 1.91736396e-03, -1.87422778e-03,
       2.29501515e-03, 3.68700270e-03, -4.33982629e-03, -3.56278592e-03,
       -5.25067048e-03, 6.77848526e-04, 1.08394818e-03, -6.30703464e-04,
       -1.56813592e-03, 8.24430678e-03, 3.54253291e-03, -1.21109188e-03,
       4.02595801e-03, 3.69201903e-03, -1.21345976e-02, -7.39665283e-03,
       9.19082202e-03, -7.26343226e-03, -2.82147725e-04, 5.45472838e-03,
       -3.18503357e-03, 2.47768150e-03, -3.30748153e-03, -1.03078028e-02,
       -1.25264330e-03, 7.51425838e-03, -1.16081815e-03, 1.32251373e-02,
       2.82329042e-03, 4.12263675e-03, 1.26257841e-03, 5.07299264e-04,
       8.51539057e-03, -9.70855239e-04, 1.32168096e-03, -4.21608333e-03,
       7.96202628e-04, 1.44950347e-04, 3.13411909e-03, 4.47145430e-03,
       6.14957977e-03, 1.15209632e-02, -3.68571770e-03, -6.65554125e-03,
       -1.19727580e-02, -5.57115581e-03, -6.64572173e-04, 3.52334999e-03,
       2.88717169e-03, 2.58155633e-03, -1.40044698e-03, 3.45080066e-03,
       8.50071479e-03, 1.62013035e-04, 8.34297761e-03, 3.58124264e-03,
       -4.34107409e-04, 2.54560611e-03, 8.04721564e-03, 6.21061958e-03,
       -3.61832255e-03, 4.52481443e-03, -1.08630732e-02, -1.73602998e-03,
       -1.17662879e-04, -7.29980762e-04, 3.74421268e-03, 4.68130643e-03,
       1.27491308e-02, 7.53953820e-04, -2.23425892e-03, 3.53846001e-04,
       -9.38346959e-04, 5.07299788e-03, 2.06473400e-03, 3.67616699e-03,
       7.01688789e-03, 3.96127021e-03, -9.31588002e-03, 4.37134970e-03,
       6.04584161e-03, 4.61130263e-03, 2.17708963e-04, 8.36761144e-04,
       -3.14054755e-03, 1.04810884e-02, 4.66987025e-03, -6.19749352e-03,
       1.35860895e-03, -1.29295792e-03, 2.37451633e-03, 3.44314054e-03,
       -1.13870145e-03, 2.51292158e-03, 1.28670987e-02, 4.75156866e-03,
       -7.88491406e-03, 3.91700538e-03, 6.72764983e-03, 7.59824598e-03,
       6.02710620e-03, 3.80862691e-03, -2.57737795e-03, 1.71480316e-03,
       -5.82772447e-03, -1.08881528e-02, 2.21270486e-03, 1.02313154e-03,
       1.08079403e-03, -3.76403285e-03, -3.84462369e-03, 1.68376905e-03,
       -1.10653136e-03, -6.11758744e-03, -8.15386325e-03,
       -4.83522337e-04, -8.02054594e-04, 2.33504781e-03, -8.11896008e-03,
       -4.61592665e-03, 9.19704884e-03, 1.25854127e-02, 4.50363476e-03,
       -1.12462919e-02, 5.47208497e-03, 4.98145726e-03, -4.64443001e-04,
       -2.73492490e-03, 4.33241017e-03, 1.36058731e-02, 1.20765967e-02,
       3.23396549e-03, -5.66788577e-03, 2.69593671e-03, 7.28729786e-03,
       1.71273586e-03, -3.18784150e-03, 4.28459048e-03, 4.33503091e-03,
       -2.39149621e-03, -1.44376914e-04, -3.55871907e-03, 6.84772898e-03,
       3.76565964e-03, 3.07467161e-03, -8.65504518e-03, -3.88950593e-06,
       -4.38070623e-03, -6.75237505e-03, -6.61286958e-06,
       -1.90207234e-03, -9.64298728e-04, 6.72448287e-03, 7.03268917e-04,
       -7.16251833e-03, -1.59367046e-03, 6.10821322e-03, 6.63543493e-03,
       3.85416904e-03, -3.40814632e-03, 7.93188252e-03, 7.54065346e-03,
       2.81086634e-03, -7.02258013e-03, 1.62922207e-03, -2.16329726e-03,
       2.60603405e-03, 8.43247212e-03, 4.17896686e-03, 5.91801899e-03,
       1.70542598e-02, 1.69115770e-03, -7.58359255e-03, -1.03471440e-03,
       -2.92026484e-03, -4.20603715e-03, -1.95016863e-03,
       -1.15235336e-03, -2.16444329e-04, 6.62128162e-03, -1.20749895e-03,
       -4.05933289e-03, -2.08139676e-03, -2.65042181e-03, 4.23014717e-04,
       -1.74216926e-03, -3.67188919e-03, 7.89168011e-03, -4.99043017e-05,
       2.80394382e-03, -1.57104002e-03, -1.34937628e-03, 3.62822000e-04,
       8.55124497e-04, 6.97940076e-03, 4.23997780e-03, 5.30422060e-03,
       1.66781824e-02, 6.65962882e-03, -2.56337528e-03, -2.93753785e-03,
       -2.82698264e-03, -4.80933255e-03, 1.70451967e-04, -3.80599243e-03,
       1.72233453e-03, 7.09205167e-03, 5.16561512e-03, 3.02221836e-03,
       -1.76571507e-03, -4.88438830e-03, -2.13861163e-03,
       -3.06326640e-03, -5.98776480e-03, 1.68370979e-03, 1.67055079e-03,
       5.73107274e-03, 1.58843084e-03, -4.19366593e-03, 3.92930117e-03,
       2.37651099e-03, 4.64285910e-03, -3.56852775e-03, -3.11783631e-03,
       4.48097242e-03, 3.52556468e-03, 3.28921294e-03, -5.76276914e-04,
       -8.24141223e-03, -8.53458699e-03, -1.73721102e-03,
       -4.71831020e-03, 7.74673361e-04, 3.26757599e-03, 3.35011585e-03,
       2.85332883e-03, -1.50323857e-03, -4.73329471e-03, -4.77680610e-03,
       6.40452793e-03, 3.20905959e-03, 3.23478063e-03, 6.17397390e-03,
       2.06489884e-03, 5.12964092e-03, -1.49366236e-03, -7.34741276e-04,
       1.88593764e-03, -1.12184358e-03, 1.05330732e-03, 1.98309147e-03,
       3.67873488e-03, -7.92808644e-03, -2.99712224e-03, -1.25831563e-03,
       9.29616566e-04, 7.63104483e-03, 2.56215339e-03, 1.90476573e-03,
       4.65908693e-03, -3.09965177e-03, -9.55440663e-03, -6.05600048e-03,
       4.70375846e-04, -5.94403828e-03, -1.66773808e-03, 7.50684878e-04,
       1.18879252e-03, -1.24302588e-03, 1.47175524e-04, -6.96839439e-03,
       -6.96863339e-04, -7.62161519e-03, -3.36365751e-03, 7.27444934e-03,
       1.65335805e-04, -2.24074209e-03, -3.18448502e-03, -3.79126705e-03,
       -1.33800488e-02, -5.33245876e-03, -6.55542174e-03, 5.14901895e-03,
       2.67901667e-03, 2.26422236e-03, 9.60977282e-04, 2.95089767e-03,
       -2.39649322e-03, -7.91243184e-03, -2.93829682e-04, 7.83945899e-03,
       -5.26735373e-03, -9.37665999e-03, -1.32052705e-03,
       -1.33934221e-03, -1.96395069e-03, -3.56167997e-03,
       -9.74852405e-03, 2.92237871e-03, -2.49030418e-04, 5.10494271e-03,
       -1.72453129e-03, -5.15662367e-03, -7.16698542e-03,
       -5.13273664e-03, -3.52398376e-03, -7.92023074e-03, 5.56224678e-03,
       6.35706494e-03, -2.37111351e-03, -1.73385777e-02, -4.69916826e-03,
       -2.39039771e-03, -7.82526506e-04, -2.54634768e-03,
       -3.32081923e-03, 5.56340860e-03, 8.56210571e-03, -1.32195512e-03,
       -7.99596962e-03, 1.21216313e-03, 3.47827817e-03, 5.17214183e-03,
       9.24899010e-04, -3.95197561e-03, 7.36389868e-03, -6.89933077e-04,
       -4.26987791e-03, -1.01567442e-02, 4.29435568e-05, 6.50386675e-04,
       -4.17891133e-04, -1.59649365e-03, -5.74036641e-03, 1.74122152e-03,
       -4.00173757e-03, -4.46050474e-03, -1.23576038e-02, 6.41568750e-03,
       8.03335477e-03, 5.08883456e-03, 3.05571151e-03, 1.04881648e-03,
       5.03324438e-03, 4.38859640e-03, 3.48706800e-03, -9.15636122e-03,
       -1.37584447e-03, -3.97117168e-04, 3.11606185e-04, -5.20923757e-04,
       -6.05539698e-03, 2.75819213e-03, 9.76777170e-04, -5.54861384e-04,
       -5.99817326e-03, -4.23185015e-03, -3.00591928e-04,
       -2.40009930e-03, 8.43612885e-04, -2.73557554e-04, -2.76872772e-03,
       -6.08795369e-03, -2.07384495e-04, -3.60661699e-03,
       -3.90083599e-03, -6.40262500e-04, -1.42584927e-03,
       -7.08218489e-04, 5.31143509e-03, -3.40160681e-03, -3.32027208e-03,
       6.14648173e-03, -8.13228451e-03, -6.70941500e-03, -2.88068457e-03,
       1.24851149e-03, -1.12051016e-03, -1.41074369e-03, -1.56993610e-05,
       2.22318550e-03, 3.57090239e-03, -2.58460315e-03, 1.00062031e-03,
       1.96307944e-03, 5.51475072e-03, -2.71818577e-03, -6.61022030e-04,
       -2.97895656e-03, 2.52315518e-03, -1.17716321e-03, -1.18413335e-03,
       6.44809753e-03, 1.90234015e-04, -3.42726847e-03, -7.57031189e-03,
       5.73252328e-04, -4.87033138e-03, 2.06014304e-03, -7.91932270e-03,
       -7.52179883e-03, 4.96922806e-03, 2.65677320e-03, 3.57744331e-03,
       2.23374204e-03, -4.48727794e-03, -6.05116831e-03, -2.00680923e-03,
       4.09777416e-03, 1.95449614e-03, 1.09846322e-02, 9.44331172e-04,
       -4.54279967e-03, -6.77158870e-03, -2.74868077e-03, 3.26223759e-04,
       6.70399005e-03, -6.64128514e-04, -3.98103101e-03, 4.06567892e-03,
       5.64286904e-03, 7.92196020e-03, -2.70620058e-03, -3.88343167e-03,
       2.18493259e-03, 4.83021466e-03, -8.63608811e-03, -5.65269869e-03,
       -4.16858494e-03, -8.16646963e-04, 3.26418527e-03, 1.04829380e-02,
       -1.12194789e-03, -3.52542824e-03, -8.93628038e-03,
       -2.72770948e-03, 3.01467255e-03, 8.43885820e-03, 6.56508235e-03,
       -1.18795375e-03, 8.53867829e-03, 6.32821349e-03, 3.16817360e-03,
       -3.25164245e-03, 1.88148243e-03, 1.39222038e-03, 9.08511283e-04,
       5.87741006e-03, 1.10252416e-02, 6.54953066e-03, -6.51412411e-04,
       2.72569666e-03, 4.27661417e-03, 1.09229388e-03, 4.80794115e-03,
       4.49522212e-03, 1.23350862e-02, 1.84259494e-03, 4.04024683e-03,
       5.37629379e-03, 1.23883667e-03, 3.55287758e-03, -2.53163395e-03,
       2.43479875e-03, 1.55935658e-03, -5.94527973e-03, -5.17023401e-03,
       -5.69705189e-05, 1.37135182e-02, 7.54241738e-03, -5.93384774e-03,
       -7.67606869e-03, -4.31691436e-03, -5.22784190e-03,
       -4.97722020e-03, 7.84978922e-03, 5.55946352e-03, 9.44520533e-03,
       7.61664286e-03, -8.66599660e-03, 4.37378278e-03, 4.27776808e-03,
       1.15864002e-03, -4.38088784e-03, -3.28717171e-03, -2.09495705e-03,
       -1.47080515e-03, 1.89888873e-03, 3.90847272e-04, -4.24045557e-03,
       -3.69875459e-03, -3.09493439e-03, 2.27755099e-05, 3.45882773e-03,
       9.29341000e-03, 1.08718239e-02, 8.10232665e-03, -3.84186767e-03,
       2.83560075e-04, -2.18653213e-03, -6.67309761e-03, -5.95088117e-03,
       1.76529866e-03, -4.74750821e-04, 2.95252330e-03, 2.04199413e-03,
       -6.57302910e-04, 7.79478054e-04, -2.69266070e-06, 2.84524518e-03,
       -2.14537882e-04, -7.39694992e-03, -4.88805305e-03,
       -7.58274039e-03, -3.79484100e-03, -5.03007416e-03, 7.98294379e-04,
       -1.41432742e-03, -1.74497673e-03, 3.64747504e-03, 5.73502528e-03,
       7.38913845e-03, 1.25354528e-02, 1.02683734e-02, -4.14472492e-03,
       4.30703489e-03, 8.46288633e-04, -2.53960909e-03, 2.37018708e-03,
       -5.11972175e-04, -4.31501493e-03, 2.42525549e-03, 6.87129470e-03,
       -1.53858413e-03, 4.55466157e-04, -3.24598001e-03, 1.05881300e-02,
       4.40231059e-03, 9.40135773e-03, -5.73845161e-03, -1.96611765e-03,
       -3.43101029e-03, -2.06666475e-04, 8.27902404e-05, -9.02424727e-05,
       5.80270914e-03, -2.49107042e-03, 5.28335897e-03, -8.22768733e-03,
       -6.32798765e-03, -5.13906311e-03, 1.23008876e-03, 1.69299846e-03,
       -3.67670180e-03, 2.54751998e-03, -2.64947815e-03, 2.67978897e-03,
       1.43897685e-03, 1.17169693e-02, 1.15674995e-02, -2.07292949e-04,
       4.98337857e-03, 5.95276430e-03, 1.50613487e-02, -1.36578328e-03,
       -5.34003717e-04, -9.14569385e-03, -1.78440544e-03,
       -9.87975509e-04, 1.26901187e-03, 1.02497963e-03, -5.62740606e-04,
       2.40354240e-03, -1.47004472e-03, 1.32754752e-02, -8.41577165e-03,
       -3.75325070e-03, -2.90608383e-03, 6.87649823e-04, 7.56354129e-04,
       4.47797793e-04, 7.08707841e-03, -2.98274611e-03, 7.99426623e-03,
       -2.90154829e-04, 8.92552140e-04, -4.51262435e-03, 9.01362291e-05,
       9.44884028e-03, 7.47444993e-03, 1.11493059e-02, -1.78121147e-03,
       3.22396657e-03, -8.93173181e-03, -2.78767293e-05, -8.84071551e-03,
       -9.13221811e-05, 6.68512424e-03, 7.34376768e-03, 1.47561682e-02,
       -4.75073420e-03, 3.70337395e-03, -8.37602466e-03, -6.12162426e-03,
       -1.81249436e-02, -2.63288245e-03, -3.21975816e-03, 2.02908507e-03,
       6.78543933e-03, -3.91564769e-04, 9.31111816e-03, -6.64519938e-03,
       -6.28821785e-03, -4.22888855e-03, -1.35252206e-03,
       -1.45745126e-03, -3.56361293e-03, 4.11205040e-03, 5.88416122e-03,
       -2.96510552e-05, -9.37955547e-03, -2.11226498e-03, 3.46512697e-03,
       3.12895211e-03, 2.27303966e-03, 6.05526054e-03, 1.06998291e-02,
       -6.90129236e-04, -1.86879386e-03, -8.64007324e-03,
       -1.08935423e-02, -1.84357837e-02, -3.21417302e-03, 4.22049407e-03,
       7.24132173e-03, 3.83614772e-03, 4.55882633e-03, 2.52183760e-03,
       -6.89036772e-03, -6.32548705e-03, -1.16932346e-02,
       -7.62213196e-04, -3.06031457e-03, -6.11580117e-03,
       -3.54235037e-03, 4.96051228e-03, 2.16934597e-03, -8.59080534e-03,
       -2.76182732e-03, -2.52501515e-04, -5.99570456e-04,
       -7.04474049e-03, -2.52490980e-04, 3.42507800e-03, 1.52732467e-03,
       4.61976696e-03, -1.44249375e-03, -1.05201216e-04, 7.55748386e-03,
       1.67713064e-04, 8.02928768e-03, 5.15731564e-03, -3.47032957e-03,
       2.25256011e-03, 6.09474909e-03, -1.13453940e-02, -6.70515932e-03,
       -1.13953678e-02, -4.71719960e-03, 2.10299343e-03, 3.35951033e-03,
       2.08339421e-04, -4.93159634e-04, 9.36688017e-03, -2.92654708e-03,
       -5.69812302e-03, -2.27733003e-03, -5.38244238e-03,
       -4.67263954e-03, 6.61033951e-03, 3.45508824e-03, -6.33125799e-03,
       5.11678914e-03, -2.92072142e-03, 3.97339696e-03, 1.05708083e-02,
       -1.88878679e-03, -5.15182223e-03, -2.48924713e-04,
       -4.21877345e-03, -1.87671150e-03, -2.76224688e-03,
       -3.04560876e-03, 4.74778377e-03, 6.83456333e-03, -1.74905732e-03,
       1.55062973e-03, 9.23115877e-04, -2.50831433e-03, -1.12449769e-02,
       -1.90616946e-03, 1.53771474e-03, 4.76491451e-03, 1.02346335e-02,
       2.81416054e-04, -2.84791249e-03, 4.00224701e-03, -4.68964502e-03,
       6.28631748e-03, -3.86739848e-03, 5.37978718e-03, 9.43864137e-03,
       1.06172739e-02, -7.21965480e-05, -4.60931286e-03, -6.49106922e-04,
       1.26907276e-03, 6.22456986e-03, 1.72159896e-04, -3.53527931e-03,
       2.89142900e-03, 9.19515733e-03, -3.68119014e-04, -6.97029755e-03,
       -1.73828693e-03, -3.15039139e-03, -5.27345063e-03,
       -3.10041010e-03, -5.90597745e-03, -4.85336687e-03, 3.88930272e-03,
       -1.26594529e-02, -1.66740688e-03, 3.35450098e-03, 1.34096795e-03,
       9.19979345e-03, 3.15563427e-03, 8.56911531e-04, 5.02059981e-03,
       1.01173203e-02, 5.56560932e-03, -3.12926015e-03, 5.23831928e-03,
       -7.52709399e-04, 1.77688536e-03, -5.77302929e-03, -2.18445295e-03,
       -4.39854711e-03, 1.87431579e-03, 4.50960739e-04, -3.26683908e-03,
       1.37314654e-03, -3.74096562e-04, -5.92035241e-03, 5.89867355e-03,
       -3.60513688e-03, 1.97476847e-03, 1.97122758e-03, -1.10862693e-02,
       -7.99207948e-03, 4.30107320e-05, 2.53349799e-03, 5.34589030e-03,
       9.74928122e-03, -4.84879082e-03, -2.44124691e-04, 5.21930633e-03,
       -9.62737668e-03, -1.36162026e-03, 1.85448700e-03, 1.59720308e-04,
       1.40069553e-03, 7.86820054e-03, 5.60236676e-03, 4.38003568e-03,
       1.50598865e-03, 2.62894668e-03, -1.06808031e-03, -7.13075651e-03,
       -7.30563095e-03, -1.44963933e-03, 1.46105746e-02, 6.07783161e-03,
       7.01143919e-03, 6.29203743e-04, 4.00802586e-03, -4.46610065e-04,
       5.85124712e-04, -5.81820728e-03, -6.10056939e-03, -4.74441145e-03,
       2.23268475e-03, 6.12115627e-03, 7.24925241e-03, 1.40306412e-03,
       4.30035777e-03, 4.50230995e-03, -4.86275181e-03, -8.79685953e-03,
       -7.25483103e-03, -4.66078892e-03, -4.92800679e-03,
       -2.88237305e-03, 2.38707149e-03, 1.81511091e-03, 9.36871115e-03,
       3.65778524e-03, -2.91069481e-03, 3.20675946e-03, 3.81942745e-03,
       -4.26886108e-04, 5.25237201e-03, 1.06505712e-03, 4.05151304e-03,
       3.01567605e-03, 6.46971213e-03, 2.72464543e-03, 1.01099920e-03,
       -4.17215191e-03, -5.36727253e-03, -2.20303307e-03, 2.35427869e-03,
       1.87603082e-03, 8.96206871e-03, 2.66634324e-03, 4.94409294e-04,
       5.37574990e-03, 8.87519401e-03, -4.38833376e-03, -4.41788835e-03,
       2.40839575e-03, -5.17290784e-03, 1.95905310e-03, 1.69751838e-05,
       -6.82194077e-04, -2.14486266e-03, -1.75799674e-03,
       -8.36507045e-03, -6.21968927e-03, -6.32555317e-03,
       -4.92510805e-03, 3.57808894e-03, 7.08913850e-03, 8.40778742e-03,
       6.86742971e-03, 4.04165545e-03, -4.58149845e-03, -5.25668170e-03,
       -5.13930107e-03, -1.18830018e-02, -1.56534242e-03, 2.05080491e-03,
       -2.18940829e-03, -2.44777388e-04, 2.79023452e-03, -2.17204099e-03,
       -7.76101183e-03, -1.64416432e-02, 1.37804577e-03, 2.00232351e-03,
       -5.42027829e-03, -6.36390597e-03, 5.36295632e-03, -2.10443372e-03,
       2.38478230e-03, 5.02763549e-03, 2.02319468e-03, -3.77725717e-03,
       -5.10989502e-03, -4.90844436e-03, -2.76902528e-03, 6.82538887e-03,
       -7.37799506e-04, 1.03281578e-02, 2.17789109e-03, -4.06730128e-03,
       -5.19332883e-04, -8.67771800e-04, -1.16831914e-03,
       -1.21175428e-03, 6.12192834e-03, 1.32947986e-03, 4.31989832e-03,
       3.01155425e-03, 1.34580256e-03, 7.67339545e-04, -5.20662311e-03,
       1.79861891e-04, -7.02965539e-04, 1.98366446e-03, -9.83005506e-04,
       6.97327731e-03, -1.15129096e-03, 3.78773292e-03, -2.84270290e-03,
       -2.60389433e-03, -1.88737677e-03, 1.11725007e-03, 1.76084489e-02,
       3.04525113e-03, 7.35880202e-03, 2.30848487e-03, -4.09532525e-03,
       -5.60128875e-03, -1.97169982e-04, -6.55100332e-04,
       -5.62807126e-03, 5.82965417e-03, -4.35436331e-03, -2.66542519e-03,
       -1.63491932e-03, -8.65500700e-03, 2.30507879e-03, -3.23649403e-03,
       6.58066943e-03, -3.41524719e-03, 8.50058720e-03, 3.55529221e-04,
       3.73865291e-03, -2.72243924e-04, 4.24327236e-03, 4.82861837e-03,
       -1.40371360e-03, 1.04456057e-03, -3.11899860e-03, 4.65683290e-04,
       2.49450607e-03, 2.91520916e-03, 4.60185064e-03, 7.35220686e-03,
       -3.86849488e-03, 4.60093608e-03, 1.95787963e-03, -6.43434981e-03,
       -8.58699204e-04, -4.61063208e-03, -5.97180612e-03,
       -1.71798293e-03, -6.87070144e-03, 4.25209850e-03, 4.28397348e-03,
       -5.55412285e-03, -7.12175667e-03, 5.05507737e-03, 5.78511879e-03,
       7.42182089e-03, 1.30783184e-03, 5.63173415e-03, -2.25567346e-05,
       -1.68404604e-05, -3.54001019e-03, -1.74526509e-03, 3.27524636e-03,
       -6.23924891e-04, 1.32311849e-04, 4.49734181e-03, 3.82072921e-03,
       3.46798473e-03, 3.97242513e-03, 1.60880433e-03, -6.21881569e-04,
       -3.90745187e-03, 4.34734114e-03, 1.05393622e-02, 2.95351632e-03,
       9.85950045e-03, 5.79776056e-03, 3.62174073e-03, -4.21115058e-03,
       -1.04762632e-02, 9.22293309e-03, 8.82847514e-03, -4.47278289e-05,
       -3.07331909e-03, 8.25421326e-03, 3.22340615e-03, 3.71395517e-03,
       -5.98582299e-03, -8.60679150e-03, 2.21633352e-03, 2.24976707e-03,
       5.94849153e-05, -7.72904092e-03, 2.44956370e-03, -2.19898461e-03,
       6.80191070e-03, 1.94325903e-03, -4.37030476e-03, 1.43630977e-03,
       8.61344766e-03, 4.86662053e-03, 3.89149965e-04, 2.02897750e-03,
       1.76085788e-03, 4.62493626e-03, -1.80103176e-03, -5.23646874e-03,
       2.64640432e-04, 3.71591048e-03, -2.06468161e-03, -3.22528998e-03,
       5.20946970e-03, 6.01878203e-03, 4.99593979e-03, -3.84955714e-03,
       -8.37433059e-03, 3.77958571e-03, 4.71024076e-03, -2.71978183e-03,
       -7.36903725e-03, 3.90580553e-03, -3.03576957e-03, 8.95612128e-03,
       4.66444623e-03, -3.64990253e-03, 1.83012860e-03, 1.24831842e-02,
       6.49099879e-04, -8.23211018e-03, 6.61264290e-04, 3.19580222e-03,
       1.42218615e-03, -2.44978862e-03, -3.76920961e-03, 2.29149475e-03,
       -1.39102479e-03, -1.01321070e-02, -1.04998155e-02, 5.14589669e-03,
       4.93999477e-03, 1.16639780e-02, 5.41527476e-03, 6.84363255e-03,
       1.12562850e-02, 3.59765440e-03, -9.12513956e-03, -1.49493683e-02,
       -2.74288724e-03, -3.17156478e-03, 2.20723054e-03, 2.48988887e-04,
       -2.57928879e-03, 3.17262788e-03, 1.35461194e-02, 4.44473140e-03,
       -3.54406168e-03, -2.13845656e-03, -5.66786947e-03,
       -4.01882315e-03, -2.63579260e-03, -7.75872730e-03,
       -3.21826851e-03, 3.72465304e-03, 2.46278592e-03, 3.01573542e-03,
       -4.55271162e-04, 1.29457435e-03, 5.27712563e-03, 3.67494044e-03,
       3.70726432e-03, 6.69912901e-04, 2.06289440e-03, -5.87692764e-03,
       -8.33410863e-03, -4.17801458e-03, -2.40190071e-03,
       -3.89375049e-03, 3.62062966e-03, -1.31603321e-02, -7.37533672e-03,
       -2.69803987e-03, -9.27799207e-04, -2.45335139e-03,
       -3.31310090e-03, -6.59612427e-03, -5.28552942e-03,
       -2.32204562e-03, -1.05518494e-02, -5.79027599e-03, 5.51058119e-03,
       3.65583226e-03, 8.71791039e-03, 1.68059277e-03, -1.23217274e-02,
       -1.12234037e-02, 1.60798570e-03, -3.71399801e-03, -8.59093489e-05,
       7.56879896e-03, 6.97635626e-03, 8.39500874e-03, -9.89357242e-04,
       -5.16731106e-03, -9.25475731e-03, 4.85193636e-03, -9.94792860e-03,
       -9.67542827e-03, -1.00986112e-03, -1.83991157e-03, 4.88098338e-03,
       1.77652785e-03, -1.12072527e-02, -1.07888449e-02, 3.60677252e-03,
       -2.83906236e-03, -2.74804700e-03, 3.17419786e-03, 1.84445444e-03,
       6.58206316e-03, -6.02572737e-03, -1.17191179e-02, -7.59650394e-03,
       -4.20472166e-03, -3.05088097e-03, -2.40081083e-03, 4.32158494e-03,
       1.36998028e-03, 6.89768931e-03, -5.44927781e-03, -1.54806022e-02,
       -3.20162089e-03, 3.14069376e-03, 9.12785158e-03, -6.31890027e-03,
       2.56359321e-03, -6.76544523e-03, 1.28773029e-03, -6.67121308e-03,
       -1.58785712e-02, -9.23840981e-03, 3.80458834e-04, -1.08930143e-03,
       -6.02910109e-03, 2.02645804e-03, 5.31773083e-03, 9.17016808e-03,
       -5.58455335e-03, -1.56638250e-02, -4.76691034e-03, 5.50516928e-03,
       7.60422973e-03, -1.18120783e-03, 1.53132668e-03, 3.53120500e-03,
       7.02129491e-03, -2.33587180e-03, -3.57515761e-03, -4.15038085e-04,
       3.94210452e-03, 6.49244012e-03, -4.78312653e-03, -3.01609840e-03,
       -4.30283090e-03, 5.60551090e-03, 4.02922463e-03, -2.06432445e-03,
       -5.11108432e-03, 2.51156255e-03, 2.49873893e-03, -5.44018578e-03,
       -3.88480024e-03, -9.42707993e-03, 1.74766209e-03, 8.82013608e-03,
       -1.85398548e-03, -1.71488756e-03, 4.95367870e-03, -4.82981047e-03,
       -6.40990585e-03, -3.19955940e-03, -3.74439964e-03, 8.58935248e-03,
       1.08409338e-02, -4.83936537e-03, 1.57109054e-03, 5.57701243e-03,
       -3.10443644e-03, -1.11263534e-02, -8.94575659e-03,
       -1.25006707e-02, 7.68896542e-04, 9.17442050e-03, -2.58232676e-03,
       -1.12555965e-04, 5.63860452e-03, 6.93321880e-03, 3.93879786e-03,
       2.18478683e-03, -5.76189952e-03, -5.34978276e-03, 3.26261180e-03,
       -3.84715735e-04, 3.73183889e-03, 1.60735473e-03, 5.83458832e-03,
       -2.99049122e-03, -2.78627354e-04, -6.53252611e-03,
       -7.06615439e-03, -7.53218355e-03, -6.87468844e-03, 2.44209485e-04,
       6.62432285e-04, 1.25764549e-04, -1.18625455e-03, -2.58440198e-03,
       -7.29925651e-03, -2.93714856e-03, -1.98130985e-03,
       -2.02651205e-03, 3.33153177e-03, 7.91507214e-03, 1.11187843e-03,
       5.76092163e-04, -5.13925543e-03, 2.66593252e-03, -1.07850169e-03,
       -2.19921535e-03, 2.73346761e-03, -1.25561329e-03, -1.18177827e-03,
       6.60334667e-03, 4.76273010e-03, -1.02912694e-04, -5.57536399e-03,
       -2.77864491e-03, 7.42541961e-05, 5.83360298e-03, -5.71654504e-03,
       -2.37482862e-04, 5.19054942e-03, -6.74350699e-03, -6.54716697e-03,
       -1.18991937e-02, 4.56824899e-03, 1.00448830e-02, 2.37827492e-03,
       9.46635962e-04, 4.96089598e-03, 7.33829523e-03, -2.75854091e-03,
       -5.65354829e-04, 4.82398755e-05, -4.09677019e-03, -2.92760180e-03,
       -6.94722519e-04, -8.19591619e-03, 6.19928644e-04, 9.29167320e-04,
       -4.76755807e-03, -1.94796221e-03, -4.65866085e-03,
       -7.43089803e-03, 2.59107997e-04, 6.60946267e-03, -1.06057758e-03,
       1.14302814e-03, 1.68506650e-03, -9.45042633e-03, -7.56728463e-03,
       -8.34674202e-03, -7.70285493e-04, 8.44887644e-03, 9.93773248e-03,
       -1.89983592e-04, -1.19339873e-03, 5.66233601e-03, 7.24083686e-04,
       -6.97014213e-04, -1.94398686e-03, 2.06763204e-03, -5.69449621e-04,
       -2.89840996e-03, -8.06309842e-03, -1.35675468e-03, 1.48551259e-03,
       -5.81590598e-03, -5.36901597e-03, -5.35702158e-04,
       -5.54540288e-03, -1.87901454e-03, 5.97445620e-03, 2.98820174e-04,
       -4.74742148e-03, 5.60575956e-03, 3.39493691e-03, -5.75454556e-04,
       5.53955836e-03, 1.99747016e-03, 7.13419216e-03, 4.01930092e-03,
       -2.85416045e-05, -9.44534317e-04, 4.40553436e-03, 1.07559636e-02,
       3.19980644e-03, 7.02315592e-04, -2.30242289e-03, -1.74433889e-03,
       1.42816338e-03, 2.12655775e-03, -2.41525890e-03, 4.19055950e-03,
       2.45582848e-03, 3.23573506e-04, 1.52559485e-04, -6.44968543e-03,
       -2.12179986e-03, -3.64158093e-03, 1.91242711e-04, -4.28005308e-03,
       3.60364211e-03, 1.43065881e-02, 6.91365357e-03, 6.38468890e-03,
       -1.03927136e-03, -2.54313299e-03, -3.63616017e-03,
       -5.51694364e-04, -4.91614593e-03, 1.70692638e-03, -4.82436502e-03,
       6.06469810e-03, 3.38821136e-03, -5.72760124e-03, -2.57441867e-03,
       6.33207196e-03, 6.67093508e-03, 4.10137000e-03, -2.01850501e-03,
       9.78139811e-04, -2.07390613e-03, -3.80878570e-03, -3.61865014e-03,
       8.82308232e-04, 6.39942940e-04, 1.78538519e-03, 8.63879337e-04,
       -3.00827436e-04, 2.02720775e-03, 1.93375431e-03, 2.68376595e-03,
       6.19733194e-03, -1.26519962e-03, 5.14350785e-03, 1.61125103e-03,
       9.83541249e-04, 1.30355195e-03, -8.54613353e-03, -2.78534996e-03,
       -9.46429325e-04, -5.30510093e-04, -8.93350225e-04, 2.15651424e-04,
       -1.02803682e-03, 2.32282188e-03, 1.03356072e-03, 2.32888875e-03,
       -1.41543988e-03, -1.82573393e-03, 6.77434215e-03, -7.81571434e-04,
       5.78453764e-04, 1.03312160e-03, 2.54446804e-03, 9.05062258e-03,
       3.37304431e-03, -4.49362444e-03, 6.34333678e-03, 3.34783993e-03,
       -1.41988450e-03, 7.35406252e-03, -1.04307826e-03, -3.14867590e-03,
       -2.88921315e-03, -6.61185151e-03, -6.43289275e-03, 7.78717548e-03,
       5.38821891e-03, 2.83792312e-03, -6.48564612e-03, -4.44482872e-03,
       -2.72710156e-03, 8.31992924e-03, 5.94289195e-05, -1.17698582e-02,
       -8.29302520e-03, 1.12526538e-03, -2.58774497e-03, 1.07978075e-03,
       -5.06002083e-03, -7.63894897e-03, -9.76636354e-03,
       -8.65040347e-03, -8.42775870e-03, 1.53835898e-03, -6.71650050e-04,
       2.66996515e-03, 1.52960699e-03, -4.58223512e-03, -5.53672761e-03,
       -5.51471394e-03, -5.35582099e-03, 3.56401061e-03, 1.11375256e-02,
       7.93351792e-03, -4.11034515e-03, 5.95990859e-04, -2.77732941e-03,
       3.86147993e-03, -6.23714784e-03, -2.90905568e-03, -2.59175547e-03,
       9.14368720e-04, -6.07197220e-03, -5.48381777e-03, -2.40762276e-03,
       -2.20462889e-03, -2.36239797e-03, -1.47238337e-02,
       -3.78785131e-04, 2.17593019e-03, 1.20558226e-02, 6.97167544e-03,
       7.74297863e-04, -5.89990662e-03, -4.17334912e-03, -1.51339875e-04,
       -9.82592441e-03, -1.08862272e-03, 4.00010450e-03, 1.15099000e-02,
       -1.69555668e-03, -5.03509864e-03, 9.26132780e-03, -5.50391269e-04,
       3.78120015e-03, -6.92964718e-03, 1.60109613e-03, 2.62877368e-03,
       4.59314510e-03, -7.81075889e-03, -1.45810831e-03, 1.04088048e-02,
       -1.55955809e-03, 5.35637746e-03, -5.02850767e-03, 1.78523862e-03,
       3.75860534e-03, 2.33967541e-04, -1.29061975e-02, 2.27245782e-03,
       -2.52171559e-03, -5.22807799e-03, -3.61096277e-03,
       -7.10574118e-03, 1.29045022e-03, 6.74094912e-03, 9.56493896e-03,
       -5.71311684e-03, -5.58756525e-03, 4.34783427e-03, -3.34381172e-03,
       -2.04203476e-04, -9.26936138e-03, 1.13595347e-03, 4.65340726e-03,
       1.17482746e-03, -8.99093878e-03, 3.52998124e-03, 1.36562195e-02,
       2.10876737e-04, 6.26276573e-03, -4.15042014e-04, 8.37179739e-03,
       -8.34721257e-04, -3.31178028e-03, -1.15305129e-02, 9.14357975e-03,
       1.20251738e-02, 1.88363425e-03, -1.07323995e-03, -1.14736764e-03,
       6.09544944e-03, -4.15591570e-03, -1.06049376e-02, -1.14100296e-02,
       4.58136806e-03, 7.89297465e-03, -3.86767439e-03, 2.26934021e-03,
       -6.19955594e-03, 9.51827317e-03, -6.44854223e-03, -3.81409167e-03,
       -8.25218298e-03, 6.94803102e-03, -1.62013073e-03, -1.01536782e-02,
       -7.68254744e-03, -8.92737228e-03, 7.51351821e-04, -9.46521852e-03,
       -1.51204213e-03, -9.31255706e-03, -2.73928768e-03, 1.45539604e-02,
       4.69385507e-03, -8.18810426e-03, -3.87450517e-03, 1.85163170e-02,
       -2.05267803e-04, -4.91525326e-03, -7.36874761e-03, 5.22518903e-03,
       1.50826685e-02, 3.50555754e-03, -8.36725347e-03, -9.29096621e-03,
       9.95500293e-03, 1.57379266e-03, -6.14039740e-03, -1.02960775e-02,
       4.49076435e-03, 1.76709192e-03, -7.09270453e-03, -1.54357515e-02,
       -9.54327453e-03, -1.64454442e-03, -1.61360216e-03, 5.40296081e-03,
       2.99097621e-03, -9.90157714e-04, 5.33879083e-03, -5.63231442e-05,
       -1.14202658e-02, -1.57037620e-02, -4.17769840e-03,
       -1.48555718e-03, -2.80560157e-03, 4.87577170e-03, 1.86713308e-03,
       3.71398777e-03, 7.00640259e-03, -2.74510682e-03, -7.00058090e-03,
       -2.88946554e-03, 1.70214497e-03, -6.22757291e-03, -5.92298899e-03,
       -1.60435110e-03, -4.13347222e-03, 6.22775452e-03, 2.32864055e-03,
       9.35014244e-03, 3.41204135e-03, 6.08249195e-03, 5.04748151e-03,
       1.38104875e-02, 2.11866084e-03, 2.36680804e-04, 4.73910943e-03,
       -6.75475458e-05, -4.89447825e-03, -6.12329040e-03,
       -9.09923576e-03, -7.78601645e-03, -1.48719130e-03,
       -5.11652511e-03, -2.40486977e-03, 5.47860004e-03, 3.24881636e-03,
       6.70309458e-03, 4.03032219e-03, -1.00277527e-03, 4.29627160e-03,
       5.56031475e-03, -5.36183128e-03, -5.16605796e-03, 2.75898469e-03,
       -1.26832770e-03, 6.25177054e-03, 4.82110074e-04, 5.36220650e-05,
       4.20190999e-03, 8.42989143e-03, 2.74967542e-03, -5.07956417e-03,
       7.06973486e-04, -5.23307733e-03, -1.99144729e-03, -7.09567731e-03,
       -5.04703214e-03, -2.63483944e-05, -1.47491531e-03, 1.53794733e-03,
       1.88111642e-03, 3.01434455e-04, 1.45227858e-03, -4.62570647e-03,
       9.27317087e-05, -8.28000531e-03, 1.10452184e-02, 8.65055714e-03,
       -2.98762025e-04, -4.73786052e-03, -9.50841978e-03,
       -1.71025435e-03, -6.56801602e-03, -2.08547655e-02,
       -1.13085685e-02, 2.05812044e-03, 5.71323093e-04, 3.82319163e-03,
       -2.21190951e-03, -2.73853308e-03, -7.48440740e-04,
       -9.85134975e-05, 4.76110727e-03, 2.96582730e-04, 2.39809859e-03,
       -4.13017347e-04, 7.97135662e-03, 6.36829436e-03, -4.41262359e-03,
       -4.38948069e-03, 2.26144562e-04, 5.17792650e-04, 1.99516560e-03,
       9.94953979e-03, 3.84271936e-03, 1.40730757e-02, -2.77755875e-03,
       -8.38361587e-03, -2.34730984e-03, -5.12986118e-03,
       -9.85327736e-03, -1.20235439e-02, -2.89481785e-03, 5.62665518e-04,
       7.88758602e-03, 1.16388430e-03, -5.82423341e-03, -3.76871205e-04,
       -3.74694774e-03, -3.84687237e-03, -5.55980252e-03, 2.27375072e-03,
       2.35493854e-03, 3.85023374e-03, 5.30024944e-03, 8.46251007e-03,
       6.02031010e-04, 9.07392241e-05, 3.32360808e-03, 5.97987929e-03,
       -4.32946673e-03, 3.76711343e-03, 1.86446344e-03, -5.09427348e-03,
       -1.32270867e-03, 1.35673920e-03, 4.07106057e-03, -3.21916537e-03,
       -4.02778882e-04, -3.13352072e-03, -3.10062175e-03,
       -4.71996656e-03, 4.16963873e-03, 1.44503906e-03, -3.36779468e-03,
       -7.22396327e-03, -7.01476680e-03, -7.23527846e-05,
       -8.83881841e-03, -3.17781139e-03, 9.02029220e-03, 2.72963243e-03,
       2.80945620e-04, -2.91704992e-03, -2.79994099e-03, -3.93897993e-03,
       -3.25482199e-03, -5.86333266e-03, -5.11617819e-03, 6.83096005e-03,
       -4.31988901e-03, 2.77665327e-03, 2.52350839e-03, 7.93432351e-03,
       4.89071012e-03, 4.27420111e-03, -1.62354647e-03, -5.93005726e-03,
       -6.35561533e-03, -5.06175496e-03, -1.96638820e-03,
       -9.34041757e-03, -7.83496536e-03, -3.99576966e-03, 2.57144053e-03,
       4.58222255e-03, -1.28537579e-03, -7.27022532e-03, 3.37159843e-03,
       5.45471814e-03, 5.47560444e-03, 6.57793321e-03, 9.10708099e-04,
       -2.23013503e-03, -6.97876886e-03, -4.47235396e-03, 3.46009480e-03,
       -3.25545110e-03, 8.11008445e-04, -3.38072283e-03, -6.37521455e-03,
       -5.35790296e-03, 2.86120689e-03, 3.32961418e-03, 5.23050490e-04,
       -6.53955911e-04, 3.07814707e-03, -1.59066706e-03, -6.28179871e-03,
       -1.48171827e-03, 8.46698240e-04, 2.30382988e-03, 5.87574765e-03,
       6.79226173e-03, 5.07468404e-03, -3.37456656e-03, -5.95187442e-03,
       -4.01504990e-03, 2.61509558e-03, 3.39296617e-04, -4.03216621e-03,
       -2.10575107e-03, -4.11650748e-04, 1.09203276e-03, 5.68093499e-03,
       2.68531218e-03, 7.28237967e-04, -1.52897823e-03, 5.09178871e-03,
       4.34155483e-03, 7.44738756e-03, 5.88208158e-03, 5.89154940e-03,
       -2.86831358e-03, -5.44458674e-03, -6.86020590e-03, 3.76176718e-03,
       -6.99831406e-03, 5.89357631e-04, 5.59208775e-03, -4.11996711e-03,
       -1.48337707e-03, 3.82291479e-03, -3.25028226e-03, 2.83496291e-03,
       5.41337358e-04, 2.26807245e-03, -2.14815000e-03, -2.58810772e-03,
       5.71072633e-05, 2.91752443e-03, 2.98532401e-03, -2.36960175e-03,
       -3.66344873e-04, 2.97316443e-03, 6.93385396e-03, 8.70162342e-03,
       1.56187033e-03, -4.64042323e-03, -2.99164536e-03, -1.62649760e-03,
       -4.54145670e-03, 8.01836650e-05, -1.22858735e-03, 1.52891339e-03,
       4.83729830e-03, 1.09204240e-02, -3.81328631e-03, -5.00399107e-03,
       4.24996158e-03, 5.36031043e-03, 4.03259089e-03, 3.94500280e-03,
       6.62904745e-03, 6.18163450e-03, 1.12370616e-02, -1.91124715e-03,
       -3.84142343e-03, 2.65431823e-03, -6.68434566e-03, -9.54577699e-03,
       -1.53566513e-03, 1.14247706e-02, 3.83632444e-03, -2.10192055e-03,
       -3.42732575e-03, -1.84888358e-05, 2.78531900e-03, 4.16123448e-03,
       -1.96387270e-03, 6.03149063e-04, 9.01260704e-04, 5.40620415e-03,
       7.17754476e-03, 2.53449456e-04, 1.28949690e-03, 1.55043404e-03,
       -6.67792337e-04, -1.99653674e-03, 3.50948976e-04, 1.25922812e-02,
       3.28074489e-03, 2.91107944e-03, -6.14278903e-03, -1.46115234e-03,
       1.75511278e-03, -1.81490707e-03, 3.89890542e-04, -3.02698766e-03,
       5.13523992e-04, 2.31728400e-03, 6.02732366e-03, -6.79166894e-03,
       -7.65242788e-04, -2.67013116e-03, 8.90409760e-03, 3.56856151e-03,
       5.40444814e-03, -3.44956177e-03, 7.25689530e-03, -9.32995346e-04,
       -2.21938663e-03, -3.02150939e-03, -7.11382832e-03, 4.68476792e-04,
       -2.39859684e-03, 2.68945447e-03, 2.11147987e-03, 3.97597812e-03,
       -5.74833131e-04, -3.10178474e-03, -5.43414522e-03, 2.01257551e-03,
       -1.18471810e-03, 2.52770004e-03, 4.58672235e-04, -9.66218114e-03,
       5.38251363e-04, 3.35080805e-03, 2.31562066e-03, 3.82072106e-03,
       -7.45595573e-03, -2.23531458e-03, 8.80826090e-04, 9.08139348e-03,
       1.11579115e-03, -2.54700147e-03, -1.97657943e-03, -3.84549639e-04,
       -2.92324414e-03, -4.00795352e-06, -8.26952513e-04,
       -2.59981328e-03, 4.60476178e-04, 1.60105210e-02, 7.14846095e-03,
       -6.12871908e-03, -7.83787854e-03, -2.64783303e-04, 7.05216546e-03,
       -3.19491170e-04, -2.27035326e-03, 6.04694104e-03, 1.01887798e-02,
       8.71146843e-03, -9.99974925e-03, -1.53337838e-02, -1.01710917e-04,
       -7.86693394e-03, -5.83874807e-03, -1.99140329e-03, 3.92656337e-04,
       7.25272391e-03, 5.01817232e-03, -4.31321468e-03, -2.72579491e-04,
       1.97454798e-03, 1.67318201e-03, -8.67536291e-03, -7.79663958e-03,
       -4.93179634e-03, -2.88481265e-03, 6.38803560e-03, 2.28315545e-03,
       -2.79703923e-03, 8.80367402e-03, 2.40165624e-03, 1.86935754e-03,
       4.46767954e-04, 5.18051255e-03, 6.91005727e-03, 4.91933059e-03,
       -3.54993204e-03, -9.36750602e-03, -4.64481040e-04, 4.05666558e-03,
       -1.31922925e-03, 7.10606854e-03, -5.04658278e-03, 1.98768874e-04,
       -4.73031169e-03, -2.70630722e-03, -9.40124912e-04, 3.34108307e-04,
       -3.14368657e-03, -8.08069855e-03, -7.88817741e-03, 1.10576606e-04,
       1.17501058e-02, 3.42918211e-04, -4.64574667e-03, -7.08558736e-03,
       3.71519855e-04, -6.25918852e-03, -3.51627753e-03, 3.52818286e-03,
       -8.02606344e-04, 1.16160400e-02, -7.70786079e-03, -5.58975327e-04,
       -3.52307106e-04, -5.44150732e-03, 1.46501104e-03, -5.56495786e-03,
       8.47118534e-03, -5.60860615e-03, -1.19772414e-03, -1.77983439e-03,
       -6.43439963e-03, 3.56597523e-03, 3.23165068e-03, -3.93565977e-03,
       -2.65046046e-03, 7.62416422e-03, -4.59666271e-03, 6.25236752e-03,
       3.40571208e-03, 4.81887814e-03, 9.60230362e-03, -4.29433398e-03,
       -1.98942469e-03, -2.44713668e-03, 4.25498514e-03, -1.35580555e-03,
       1.63422979e-03, -8.70683114e-04, -4.42719134e-03, 6.06188038e-03,
       -4.36136825e-03, -5.15037868e-03, 4.62106458e-04, 6.73411274e-03,
       -4.21620533e-03, 2.29132432e-03, 2.19979812e-03, 4.00984939e-03,
       3.18694115e-03, -2.30357796e-03, -8.53175018e-03, -3.21135274e-03,
       3.84213240e-03, 1.13968272e-03, 1.23807098e-04, 1.76052516e-03,
       7.83289690e-03, 8.21428746e-03, -3.80359101e-03, -7.15331594e-03,
       -3.74104432e-03, 4.55520302e-03, -2.79193907e-03, 5.84284263e-03,
       2.76481360e-03, 1.52742083e-03, 5.77591592e-03, 3.15625151e-03,
       -9.62790847e-03, 3.03168339e-03, 9.82514489e-03, 2.36360519e-03,
       -3.80265922e-03, -5.81302447e-04, -1.00088597e-03,
       -3.62871191e-03, -1.01270946e-02, -5.25187375e-03, 3.74871818e-03,
       6.73525734e-03, 3.09205777e-03, 7.01471604e-03, -2.31056404e-03,
       -2.14459398e-03, -3.70697305e-03, 2.23403960e-03, -6.56824419e-03,
       -4.20642039e-03, 7.43332691e-03, -5.91526181e-03, 4.94792301e-04,
       6.05936220e-04, -5.24847070e-03, 4.10649972e-03, 9.96681955e-03,
       -8.69176257e-03, 1.99958612e-03, 5.82856080e-03, -5.40422648e-03,
       -8.77481140e-03, -7.73864146e-03, -1.63596626e-02,
       -6.69154199e-03, 3.13837756e-03, -3.92898591e-03, -6.17972296e-03,
       8.65918305e-03, -3.12007469e-04, 1.26843876e-03, 1.21900172e-03,
       -1.23222230e-03, 6.15390670e-03, 8.93691182e-03, 2.81899679e-03,
       1.32868113e-03, 1.06720366e-02, -1.04305067e-03, -5.10137435e-03,
       -4.35840106e-03, -3.51269264e-03, 1.14552677e-02, 1.22360103e-02,
       -3.46820359e-03, 5.51673409e-04, 7.36797985e-04, -2.36639078e-03,
       -4.55983682e-03, -5.18306298e-03, -1.09797465e-02,
       -1.20568031e-03, 7.20081478e-03, 3.04377149e-03, 1.09099341e-03,
       4.19654790e-03, -3.14015476e-03, -1.66473840e-03, -2.36240262e-03,
       1.84228248e-03, -4.97760437e-03, -2.19741301e-03, 5.37144532e-03,
       3.17522045e-03, 2.45611137e-03, 3.82198166e-04, -2.24695052e-03,
       -4.40289406e-03, 6.15035475e-04, 9.82573442e-03, 8.13618395e-03,
       3.52019502e-04, 6.49471907e-03, 1.00837206e-03, -1.16356334e-03,
       1.05489639e-03, 3.56856559e-04, 2.75083794e-03, 1.46673783e-03,
       -5.39425854e-03, 3.54668335e-03, 6.12649834e-03, 1.05615389e-02,
       5.80012100e-03, 1.82856387e-03, 2.89972732e-03, 1.46180496e-03,
       -8.75317212e-03, -4.90511209e-03, -1.44554442e-03, 5.94266644e-03,
       9.43934172e-03, 4.90342733e-03, -4.32994246e-04, -2.32748827e-03,
       -8.38135276e-03, -1.32305641e-02, -1.09035242e-02, 5.29108150e-03,
       4.17391537e-03, 6.29199762e-03, 4.29110485e-04, -1.80907338e-03,
       3.95679427e-03, 2.28998880e-03, -4.29216772e-03, -5.11975726e-04,
       4.94964933e-03, 4.79357736e-03, 1.02326088e-02, -2.38882238e-03,
       -8.98048165e-04, 2.36939499e-03, -5.85184339e-03, -1.14464434e-02,
       -1.53627293e-03, -2.21299561e-04, 4.37248877e-04, 3.90519417e-04,
       -3.09030642e-03, -7.75693776e-03, -4.26888140e-03,
       -2.78179883e-03, -6.10084878e-03, -6.44710287e-03, 8.73787422e-03,
       1.97521038e-03, -1.52742420e-03, -1.98861235e-03, -1.60569756e-03,
       -7.23766070e-03, 4.78606811e-03, -3.64228664e-03, 4.02588630e-03,
       3.36869317e-03, -2.10375036e-03, 9.75834858e-03, -7.02252705e-03,
       -7.65705016e-03, 3.33098019e-03, -2.63085909e-04, -6.99545722e-04,
       4.09432733e-03, 1.08807823e-02, 2.23152712e-03, 3.01060057e-03,
       -4.43356996e-03, -1.44880801e-03, -5.76291513e-03, 3.75930523e-03,
       2.06333771e-03, 1.20097129e-02, -3.22379963e-03, -3.44769959e-03,
       -7.55927945e-03, 1.89275586e-03, 9.92884394e-03, -2.40409141e-03,
       7.68674025e-03, -2.69422214e-03, -2.67898128e-03, -6.44883560e-03,
       -8.37823004e-03, -1.36494823e-02, 2.24996009e-03, -5.07262303e-03,
       7.59321614e-04, 5.71911223e-03, -3.93063668e-03, -4.34986409e-03,
       -4.24020318e-03, -8.19612108e-03, -6.79393020e-03,
       -1.43541477e-03, 5.14121493e-03, -1.43208588e-03, 1.03297345e-02,
       1.11746201e-02, 2.31030281e-03, -3.73816723e-03, -1.09902807e-02,
       -1.00486996e-02, 4.22317255e-03, 5.73771866e-03, 6.98741991e-03,
       5.28207794e-03, 2.68910010e-03, -6.63259765e-03, -2.17400448e-04,
       7.25506223e-04, -3.43557820e-03, 4.21738392e-03, -2.16143019e-03,
       2.10942887e-03, 6.03169156e-03, 7.08858995e-03, -1.25189847e-03,
       -1.09480834e-03, -7.12936744e-04, -7.08375708e-04, 1.47632626e-03,
       5.52613009e-03, 1.55651895e-03, -6.41482882e-04, 5.63115720e-03,
       -3.37963109e-03, 2.36019655e-03, -3.15700355e-03, -1.05183730e-02,
       -2.45357677e-03, 9.55591537e-03, 1.01529500e-02, 7.08604651e-03,
       5.83684072e-03, -4.53874189e-03, -2.65978090e-03, 8.67807175e-05,
       -1.02232415e-02, -2.49583914e-04, 3.16612632e-03, 8.40457808e-03,
       7.41840573e-04, 3.47708468e-03, -9.83214937e-03, -2.13971524e-03,
       -5.83244162e-03, -5.75113250e-03, 7.45355105e-03, 6.37764530e-03,
       5.30558056e-04, -3.48584866e-03, 5.41458186e-03, 3.97215714e-04,
       1.69233698e-03, -5.75245172e-03, -8.44648760e-03, -7.66615523e-03,
       -5.51809382e-04, 4.08926560e-03, 5.52987307e-03, 1.25256265e-02,
       6.37989724e-03, -6.27049850e-03, -5.65112848e-03, -5.46231167e-03,
       9.36264754e-04, 8.04760214e-03, 9.44203977e-03, -3.49570368e-03,
       8.59882159e-04, -8.46331287e-03, -2.91753822e-04, -4.89198510e-03,
       -3.32358689e-03, -5.11654420e-03, -4.65778355e-03, 6.27874909e-03,
       2.40575522e-03, 4.38628253e-03, 3.24620726e-03, 3.22750374e-03,
       1.61519228e-03, -4.53794561e-03, -8.78276303e-03, 5.85390860e-03,
       1.09395925e-02, 1.36656435e-02, 4.84941155e-03, 6.86453248e-04,
       -3.77634610e-03, 4.86918911e-03, -1.41267327e-03, -2.70621479e-03,
       -5.11956727e-03, 6.00610953e-03, 8.05384200e-03, 2.99675186e-04,
       -8.38904921e-03, -1.14323827e-03, -2.45436467e-03,
       -1.63277716e-03, -3.81494383e-03, 9.93070542e-04, 2.87680468e-03,
       4.71133133e-03, -1.55895785e-03, -2.26548268e-03, -4.27604839e-03,
       3.73812253e-03, 5.11951558e-03, -3.47035384e-05, -3.99242010e-04,
       -3.33044725e-03, 1.36925569e-02, 8.37749860e-04, -3.95676354e-03,
       7.31305778e-03, 6.22341642e-03, 3.06337420e-03, -4.23187902e-03,
       8.27953126e-03, 8.85744765e-03, 1.52358552e-02, -1.06422493e-04,
       -1.00422454e-04, 3.03702243e-03, 2.73617497e-03, -2.54899706e-03,
       -7.72154331e-03, 1.15955074e-03, 3.05994763e-03, 1.79796794e-03,
       -6.99622603e-03, -8.81903747e-04, 1.03673046e-04, -9.05539666e-04,
       2.36717562e-04, -6.72892574e-03, 4.68692137e-03, -6.37675310e-03,
       1.11388387e-02, -4.78827721e-03, -7.53672933e-03, -4.08567116e-03,
       -3.57389753e-03, 3.14518431e-04, -7.92957470e-03, -1.02421381e-02,
       -1.43349022e-02, -3.42685380e-04, -7.52469432e-03,
       -7.50607485e-03, 3.56651889e-03, -3.06835491e-03, -5.17121470e-03,
       -6.80364063e-03, 5.30360593e-03, -4.94897692e-03, -1.89042810e-04,
       1.21224998e-03, 6.01231726e-03, 8.63505527e-03, -2.05189222e-03,
       -5.33891935e-03, -1.99165288e-03, -2.97431634e-05,
       -6.12916937e-03, 8.01340118e-03, 2.86822766e-03, 1.20850420e-02,
       -2.09197961e-03, -4.64202836e-03, -1.27520808e-03,
       -2.93033343e-04, -1.24814510e-02, -1.30206710e-02, 5.56034828e-03,
       3.63041693e-03, -3.46414908e-03, 9.60738771e-03, -9.41234641e-04,
       -1.48807932e-03, -2.08887202e-03, -5.40844956e-03,
       -1.14911301e-02, 4.98639746e-03, -5.26901509e-04, 6.01974269e-03,
       7.65241822e-03, -2.77759437e-03, -7.90160429e-03, -3.45937745e-03,
       -1.08477343e-02, 3.42139479e-04, 4.23191767e-03, 7.21719163e-03,
       6.69720536e-03, 1.19190570e-02, 4.70261509e-03, -6.01169420e-03,
       -1.06782829e-02, -6.81344513e-03, -2.74518481e-03, 3.29959835e-03,
       1.05633177e-02, 8.17729253e-03, 6.74380455e-03, -2.75609433e-03,
       -9.05522611e-03, -2.15248507e-03, -6.06891839e-03, 1.97923812e-03,
       1.12291798e-02, -4.37738519e-04, 8.96620564e-04, 7.73793727e-05,
       -3.21371132e-03, -3.78679181e-03, 1.15331179e-02, -1.05478419e-02,
       -3.20570171e-03, 1.19020194e-02, 3.67592019e-03, 1.26386073e-03,
       6.68224646e-03, 9.59252380e-03, -1.63612000e-04, 3.24523891e-03,
       -4.18869313e-03, -8.80562235e-03, 2.48943502e-03, 2.42642034e-03,
       -4.16657451e-04, 4.74718446e-03, 9.77498852e-03, 4.60149720e-03,
       7.50326784e-03, 1.14512928e-02, -2.29067495e-03, 7.54676014e-03,
       1.00650068e-03, -3.43661802e-03, 1.62752916e-03, 1.26980373e-03,
       1.29898021e-03, 1.51777193e-02, -8.67335591e-03, -2.05262518e-03,
       7.95795582e-03, -1.92882526e-05, -2.30299262e-03, -4.68808087e-03,
       -4.94831568e-03, -2.46926863e-03, 8.04795325e-03, -2.93793180e-03,
       -1.11109624e-03, 4.34094109e-03, -3.66860256e-03, -1.03958063e-02,
       3.78259155e-03, 4.07354301e-03, 9.84725542e-03, -2.72158883e-03,
       8.99870880e-03, 2.58582557e-04, 9.08653904e-03, 3.45323258e-03,
       1.81986543e-03, -5.36455354e-03, -9.33145080e-03, 5.62923402e-03,
       -1.18759403e-03, -1.16790216e-02, -4.37218376e-04, 2.00904062e-04,
       -2.02971656e-04, 1.39849330e-03, -2.65473616e-03, -3.37432371e-03,
       5.95487282e-03, 3.43369716e-03, 4.98444773e-03, -4.79750706e-05,
       3.69385839e-03, -5.93704032e-03, -6.80598384e-03, -8.47908203e-03,
       -1.07829422e-02, -1.98258250e-03, -2.69087846e-03,
       -9.23137763e-04, 3.10205296e-03, 2.47765449e-03, -3.37142544e-03,
       -8.51489510e-03, -2.09838874e-03, -9.40330978e-03,
       -6.71513379e-03, -6.19323924e-03, -9.26152058e-03,
       -4.50776517e-03, -3.45711154e-03, -5.13530429e-03,
       -1.28181651e-03, -6.05771784e-04, -3.32182040e-03,
       -2.73835671e-04, 3.60415480e-03, 2.00934671e-02, 8.31805984e-04,
       2.80030817e-03, 1.07394415e-03, -2.00576824e-03, -5.50389290e-03,
       -6.37345761e-03, -6.22126972e-03, -4.95026167e-03, 1.82114344e-03,
       -2.49180826e-03, 4.00338229e-03, -6.79414906e-03, -3.67459841e-03,
       -4.37191862e-04, 1.01283751e-03, -1.39629317e-03, 2.18818034e-03,
       1.29186055e-02, -4.62114718e-03, 7.86121283e-03, -3.16445902e-03,
       5.15116379e-04, 5.16829500e-03, 1.27027498e-03, 3.93976038e-03,
       -5.74510358e-03, 5.92607679e-03, 1.87704468e-03, -5.31540159e-03,
       2.82220449e-03, 3.88403959e-03, 1.04006175e-02, 6.16194867e-03,
       3.34766041e-03, -5.21811889e-03, 1.96952582e-03, -4.34516976e-03,
       -2.74063990e-04, 2.18582177e-03, 5.91136143e-03, -3.04475287e-03,
       -2.78424355e-03, 2.17226939e-03, -1.16761460e-03, -3.24941217e-03,
       1.15661172e-03, -7.96219858e-04, -1.02585915e-03, -8.40362255e-03,
       -1.42050325e-04, 4.73050121e-03, 9.24003683e-03, -4.55929991e-03,
       -4.18819953e-03, -9.80035309e-03, -3.12350504e-03,
       -5.00536757e-03, -8.74283910e-03, 9.64831933e-03, 7.86854047e-03,
       9.92567837e-03, 3.86393885e-03, -9.15483863e-04, -5.65317366e-03,
       -3.18227499e-03, 3.53115681e-03, 6.61453512e-03, 2.93379114e-03,
       -1.36880393e-04, -1.33451284e-03, -5.50384307e-03, 3.67470388e-03,
       3.56219383e-03, 3.55814374e-03, 3.47514427e-03, 2.18101521e-03,
       -1.02134992e-03, -5.69669239e-04, 4.61245049e-03, 2.50254222e-03,
       -7.42677972e-03, -4.07071039e-03, -1.20008590e-04, 2.96446984e-03,
       -2.76451348e-03, -7.94896763e-03, -1.00805769e-02,
       -1.65067539e-02, -7.56921479e-03, 2.58694473e-03, 8.36833008e-03,
       4.43195505e-03, 6.64281426e-03, 1.13787432e-03, 2.15446646e-03,
       3.47231718e-04, 5.58036985e-03, 9.68176173e-04, 4.75869467e-03,
       8.40699673e-03, 7.14827375e-03, 2.65824981e-03, 5.52608259e-03,
       -2.74641393e-03, 3.46040790e-04, 3.20845866e-04, 4.72058635e-03,
       -5.29274438e-03, 3.73276556e-03, 4.93357703e-03, -4.44096979e-03,
       -1.05537602e-03, 1.53192051e-03, -7.82229379e-03, -8.36550537e-03,
       -6.56506559e-03, 4.20940062e-03, 9.19139013e-03, 3.47241899e-03,
       6.18889648e-03, 3.51704354e-03, -1.56029186e-03, -5.88240987e-03,
       -4.44753881e-04, 2.62976158e-03, 1.56903596e-04, 4.20062151e-03,
       4.22553951e-03, -2.11085565e-03, 4.73139994e-03, -6.52848696e-03,
       -1.03005744e-03, 7.14458991e-03, 2.30794353e-03, 2.39857472e-03,
       8.35434720e-03, 1.16306022e-02, -1.80806604e-03, -7.52191991e-03,
       6.49799732e-03, 2.24044570e-03, 6.00949163e-03, 5.12874965e-03,
       -1.91064901e-03, 3.34073231e-03, 6.27643848e-03, -2.35627010e-03,
       -5.56686753e-03, 3.48930014e-03, 2.26115435e-03, 1.36766331e-02,
       8.41425825e-03, 3.43591650e-03, 5.36034210e-03, 2.89152400e-03,
       -6.61273068e-03, -7.62307085e-04, 1.27873775e-02, 2.97763105e-03,
       5.86782023e-03, 4.91243508e-03, -5.05196350e-03, 2.55790632e-03,
       -8.04289710e-04, -2.33549904e-03, 9.48395394e-03, 1.86068355e-03,
       6.49744878e-04, 2.82439840e-04, 2.09885300e-04, 1.48285413e-03,
       1.36191084e-03, 1.09634467e-03, -6.01943815e-03, -2.26018787e-03,
       1.69049090e-04, -3.51463375e-03, -4.42983210e-03, -4.11902228e-03,
       2.73653073e-03, 5.87099232e-03, 5.26069058e-03, -3.59030534e-03,
       -3.59929074e-03, 9.08262841e-03, 2.45336117e-03, -9.28213936e-04,
       -2.11996352e-03, -4.38844180e-03, -3.84262111e-03,
       -9.06998944e-03, -2.13962886e-03, 5.12557663e-03, 9.96014662e-03,
       5.25079528e-03, 8.04325007e-03, 4.03453875e-03, -1.24449885e-04,
       5.26328979e-04, -3.06126894e-03, -8.23159516e-03, -9.29395319e-04,
       -4.16109804e-03, -4.21131169e-03, -7.29660457e-03,
       -3.61140608e-03, -1.22027462e-02, 4.24930314e-03, -1.42082688e-03,
       -2.22378806e-03, -2.15319591e-03, -1.04003316e-02,
       -5.23404824e-03, -3.73356073e-04, 8.02938081e-03, -1.12025244e-02,
       -6.38478436e-04, -2.24605529e-03, 7.25436443e-03, 4.45101759e-04,
       5.36321476e-03, 2.33104941e-03, 9.23746673e-04, 4.27821884e-03,
       -2.82434071e-03, -3.50256846e-03, -1.25467218e-02,
       -1.46391625e-02, -7.10276654e-04, -4.74084774e-03, 2.81834090e-03,
       6.05267053e-03, 1.51344584e-02, 2.73808109e-04, -7.01216049e-04,
       -7.17032235e-03, -1.97569607e-03, 2.45383446e-04, -3.50999716e-03,
       -1.35454629e-03, 1.74656766e-03, 5.36573876e-04, -8.53226241e-03,
       1.74901972e-03, -5.83277084e-03, 7.03445636e-03, 7.17859715e-03,
       7.57576432e-04, -1.78226829e-03, -3.75442556e-03, -8.20677634e-03,
       -1.42264515e-02, 8.87994596e-04, 5.71297482e-04, 7.83576805e-04,
       9.06365085e-03, -1.16865197e-03, 5.71003882e-04, 1.15698464e-02,
       4.24547167e-03, 2.20692437e-03, 4.70766751e-03, -1.08749064e-05,
       7.80580752e-03, 1.50674339e-02, -6.24752080e-04, 5.39933098e-04,
       8.60999245e-03, -3.08019505e-03, 1.98835507e-03, 7.60428933e-03,
       2.99830252e-04, 2.86591100e-03, 8.65473598e-03, -4.91365464e-03,
       -5.83813433e-03, -5.13455318e-03, 1.29988999e-03, 4.09958977e-03,
       -1.29705353e-03, -1.43154606e-03, -2.07059644e-03,
       -7.53353932e-04, -9.21135396e-03, 1.26155012e-03, 6.15188619e-03,
       5.61480178e-03, 6.62937900e-03, -2.59046745e-03, -4.88692336e-03,
       -6.43337099e-03, -9.71715432e-03, -1.20806997e-03, 2.88347388e-03,
       5.73781412e-03, 5.31842606e-03, 9.41822119e-03, 7.83404056e-03,
       1.02820736e-03, 2.44720979e-03, -1.19901517e-04, -3.96045903e-03,
       4.82085673e-03, 7.11551076e-03, 7.60676060e-03, 4.39842371e-03,
       5.91780292e-03, -2.03513890e-03, -1.02408975e-02, -9.09789372e-03,
       -3.46512021e-03, 5.37406188e-03, 6.19732635e-03, 6.91266777e-03,
       2.73754681e-03, 4.73481277e-03, 3.23809870e-03, 3.38623673e-03,
       -9.23535321e-03, -4.83547774e-04, 3.42220138e-03, 2.65727052e-03,
       -6.78627752e-03, 1.17205281e-03, -1.51179571e-04, 1.83122186e-03,
       4.72447835e-03, -7.08814827e-04, -1.31324993e-03, 4.05897573e-03,
       3.41921905e-03, 3.41567094e-03, 8.74126703e-03, 1.21808946e-02,
       4.64634551e-03, -1.47579412e-03, -1.21810511e-02, 1.49578857e-03,
       2.49456870e-03, 1.00581609e-02, -1.09862001e-03, 6.84405677e-03,
       7.20717479e-03, 7.90469814e-03, 5.21558477e-03, -2.80480832e-03,
       -8.16952065e-03, 1.58450566e-03, 5.11903176e-03, -3.03434418e-03,
       -2.15388043e-03, -5.97473979e-03, -3.56668164e-03, 7.43650831e-03,
       -3.18579958e-03, -5.98739879e-03, -1.43539335e-03, 1.56460609e-03,
       5.21468092e-03, 5.24829095e-03, -9.22822743e-04, 9.04935692e-03,
       1.41827145e-03, -6.74709387e-04, -2.88201612e-03, 9.59662255e-04,
       7.64694251e-03, -5.23435418e-04, 2.99585727e-03, 4.57851478e-04,
       3.64463020e-04, 3.80720641e-03, -4.48426744e-03, -5.83280390e-03,
       -2.63274735e-04, 1.33248535e-03, 5.22259716e-03, 6.78971549e-03,
       -1.01754698e-03, 9.83884442e-04, 5.69123775e-03, -6.05519221e-04,
       -5.70155354e-03, -5.82414214e-03, 1.73753838e-03, 1.00665062e-03,
       4.13752394e-03, 6.51111593e-03, -1.15661928e-03, 1.97460153e-03,
       2.48013693e-03, -5.89369657e-03, -4.26248088e-03, 2.34904094e-03,
       -5.13286656e-03, -2.81092827e-03, -1.56056380e-03,
       -6.02040347e-03, 5.34370029e-03, 5.68151660e-03, -4.60350420e-03,
       -2.62053660e-03, -5.20957261e-03, -3.53897223e-03, 1.91410503e-03,
       2.01750104e-03, -5.05546632e-04, 7.42657110e-03, 2.18196749e-03,
       4.66784433e-04, 5.73525066e-03, 5.73353376e-03, -2.80107721e-03,
       -5.68118645e-03, -4.33291076e-03, -1.19621435e-03, 7.76608754e-03,
       -1.05014900e-04, -2.69494462e-03, 2.23097450e-04, 2.01749988e-03,
       1.81880168e-04, 2.68117719e-06, -2.85320007e-03, 7.18619092e-04,
       5.60739916e-03, 1.51884917e-03, -2.75184214e-03, 3.78738763e-03,
       2.61505693e-03, 6.81453268e-04, -6.75439043e-03, -1.84838858e-03,
       -1.82810752e-03, -3.03502148e-03, -1.23179536e-02,
       -2.76254560e-03, 9.87730338e-04, 2.94698053e-03, -1.57276739e-03,
       -3.95842362e-03, 6.95422583e-04, 1.13641820e-03, 7.65536074e-03,
       -3.66063486e-03, 1.36724615e-04, -2.97662476e-03, -3.89747065e-03,
       -7.79154757e-03, -6.07322063e-03, -5.35002956e-03, 4.29398473e-03,
       2.54471647e-03, -6.64152158e-03, -3.69356800e-04, -4.56760591e-03,
       -3.46280355e-03, 8.19424400e-04, -1.32503714e-02, -3.41327582e-03,
       -9.44339111e-03, -6.89776614e-03, -5.58558479e-03,
       -3.45177064e-03, -6.60888432e-03, 1.41110842e-03, 1.39257184e-03,
       -1.24337533e-02, 8.05624528e-04, -1.27793448e-02, -1.10296784e-02,
       -9.76439193e-03, -7.29375891e-03, -8.56766105e-03,
       -7.68491998e-03, -2.50781863e-03, -4.49620606e-03, 1.39104540e-03,
       6.30898541e-03, 1.83613074e-03, -6.22928003e-03, -7.06936233e-03,
       -3.05205048e-03, 3.38324346e-03, 6.96700159e-03, -5.36463596e-03,
       8.11912306e-03, 3.87238892e-04, -6.29275804e-03, -3.68337543e-03,
       -2.92355719e-04, -9.89149231e-03, -4.88633895e-03,
       -6.74372725e-03, -1.55095691e-02, -1.74446031e-03, 1.57021545e-03,
       1.04252086e-03, 5.11780055e-03, -2.23646592e-03, -7.21103884e-03,
       -6.97607500e-03, -5.36147039e-03, -1.54941101e-02,
       -2.96616554e-03, 5.39331743e-03, 4.08491120e-03, 6.71137730e-03,
       -9.93716531e-03, -8.40324722e-03, -7.01741083e-03,
       -2.10263813e-03, -2.30439054e-03, 1.30227972e-02, 6.36002468e-03,
       1.37405749e-03, 1.66327890e-03, -1.01913540e-02, -1.49751930e-02,
       -1.51238125e-02, -5.03419712e-03, -3.00084893e-03, 7.91076105e-03,
       1.41061414e-02, 5.05461404e-03, -3.39293270e-03, -3.15378676e-03,
       -4.32895403e-03, -3.45849036e-03, 3.67267552e-04, -3.48760933e-03,
       -2.55143340e-03, 1.02748759e-02, 3.63341090e-03, 4.53793816e-03,
       -8.74982495e-03, -9.99290124e-03, -5.95059432e-03, 2.59299530e-03,
       8.60362721e-04, 7.97189306e-03, 5.51438751e-03, 4.09003021e-03,
       -4.77587897e-03, -4.00475739e-03, -1.28866052e-02,
       -1.51251936e-02, -5.29275043e-03, -3.74378124e-03, 2.83076242e-03,
       1.98793337e-02, 8.13608989e-03, -6.23049156e-04, -9.27088223e-03,
       -1.12906517e-02, -9.52720083e-03, -5.63660264e-03,
       -5.99177787e-03, -4.49547637e-03, 5.99472737e-03, -3.74982785e-03,
       -9.09634028e-03, 2.72050174e-03, -7.12694088e-03, -1.25007601e-02,
       -5.41611249e-03, 3.38671566e-03, 6.16175402e-03, 5.41116623e-03,
       1.72348507e-03, -1.38366202e-04, 4.98866756e-03, -1.21522718e-03,
       -1.12726940e-02, -2.26130243e-03, -3.74371395e-03, 5.00807632e-03,
       3.46948672e-03, -1.40199228e-03, -7.06447754e-03, -3.81547306e-03,
       -7.57030305e-03, -1.03403004e-02, -3.73513694e-03,
       -9.57268476e-03, 1.07673346e-03, 1.30850030e-02, 6.64741034e-03,
       -1.26575504e-03, -6.84047234e-04, -5.53448219e-03,
       -1.42431827e-02, -4.43308055e-03, -1.46107152e-02, 6.71944174e-04,
       7.81661831e-03, 5.35956258e-03, -5.62114036e-03, -3.64828884e-04,
       -2.59835389e-03, -4.90797684e-03, 2.47320835e-03, 7.51246233e-03,
       9.93271451e-03, 5.44649316e-03, 1.18765878e-04, -2.82979384e-03,
       1.82118989e-03, -4.02554777e-03, -4.06350894e-03, -3.13608139e-03,
       -1.08383605e-02, -2.84303236e-03, 3.80545063e-03, 4.29681764e-04,
       2.60405592e-03, 3.85767338e-03, -4.29770350e-03, -1.30801601e-02,
       -1.30399945e-03, -2.91250204e-03, 1.07190590e-02, 1.44244572e-02,
       2.42560427e-03, 7.67047575e-04, 7.00650364e-03, 1.21645781e-03,
       -3.56712914e-03, -4.93033975e-03, -4.60958388e-03,
       -3.44124343e-03, 5.70122246e-03, -1.03643152e-03, 3.54838185e-03,
       -1.99625199e-03, -3.55646102e-04, -6.58066856e-05, 1.25764520e-03,
       2.35047215e-03, 1.79780181e-04, 4.03151661e-03, 4.57320362e-03,
       5.72130259e-04, -1.25727395e-03, 5.22888286e-06, 2.17210455e-03,
       -4.12855064e-04, -1.72603480e-03, -1.47968740e-03, 1.40214507e-02,
       9.81462188e-03, 3.26636177e-03, 4.40688618e-03, 6.82328921e-03,
       6.05050800e-03, 2.25852011e-03, -6.61338167e-03, -7.50235794e-03,
       -4.08451073e-03, 4.44375817e-03, 1.10847922e-03, 2.58562667e-03,
       7.09889736e-03, 1.07000517e-02, 7.18686380e-04, -2.90417904e-03,
       -3.66184465e-03, -3.16063350e-04, 8.17135070e-03, -1.68269558e-03,
       6.31134678e-03, -8.92374432e-04, -3.04477662e-03, -2.78086262e-03,
       -3.00813233e-04, -2.93813832e-03, 1.83433909e-02, 6.08869689e-03,
       4.55837883e-03, -2.75412598e-03, -1.84284901e-04, 4.39470448e-03,
       -7.12869782e-03, -2.37986743e-02, -1.11623779e-02, 3.17162834e-04,
       1.89810875e-03, -5.24501083e-03, -6.21961139e-04, 3.58942198e-04,
       6.22787047e-03, 2.61150097e-04, -2.70143454e-03, -1.97143909e-05,
       8.96974409e-04, 5.42718684e-03, -3.77619686e-03, -3.58033879e-03,
       1.79154507e-03, 9.43927467e-03, 4.37878817e-03, -9.28633101e-03,
       -7.79323699e-03, -1.41567958e-03, 1.69752646e-04, -8.78491346e-03,
       -1.45208288e-03, -5.95390098e-04, 4.78354795e-03, -1.03719905e-03,
       -1.53565174e-02, -1.42562361e-02, -7.89435522e-04, 8.64801090e-03,
       4.45613754e-04, 7.40301330e-03, 1.19308790e-03, 5.39532676e-03,
       -2.55190372e-03, -2.23919330e-03, -5.66591788e-03, 9.50282626e-03,
       7.75127299e-03, 1.16066644e-02, 1.96302799e-03, 3.26482659e-05,
       8.58013611e-03, 5.06025786e-03, -5.78957750e-03, -1.88596696e-02,
       -6.93676993e-03, 3.31863970e-03, -1.61718077e-03, 2.50074849e-03,
       2.09906045e-03, 7.48003740e-03, -4.37147589e-03, 1.91938586e-03,
       -5.78565011e-03, 9.73604852e-04, 5.73142292e-03, 6.19865255e-03,
       2.11558747e-03, -5.71917649e-03, -4.78068320e-03, -2.96940841e-03,
       -1.29242719e-04, 4.07736655e-03, 4.90885181e-03, 1.22601225e-03,
       3.49070341e-03, 1.61678076e-03, -1.01223197e-02, -5.56013454e-03,
       9.40720458e-03, -3.01070453e-04, 5.33631351e-03, 1.04455696e-02,
       -1.95596414e-03, 4.04437073e-03, 1.30699866e-03, -7.14365719e-03,
       2.96659931e-03, -5.04656276e-03, -3.74463201e-03, 4.27264581e-03,
       3.61363124e-03, 1.22597301e-03, 1.85217592e-03, 7.41636893e-03,
       6.00227271e-04, 4.73542372e-04, -1.88611913e-03, -4.37665638e-03,
       1.09663501e-03, 1.48914129e-04, -1.94581586e-03, 6.38109539e-03,
       3.61954700e-03, -3.93499201e-03, -2.78902869e-03, 1.18380478e-02,
       8.83756299e-03, 1.45696150e-03, 2.54425337e-03, -4.14731493e-03,
       1.03508332e-03, 2.75420095e-03, -3.86016513e-03, -1.50701392e-03,
       2.71368655e-03, 3.90164182e-03, -2.70323362e-03, 4.47256118e-03,
       1.59238838e-03, 1.78717636e-03, 7.19953654e-03, 2.29429151e-03,
       -2.09109043e-03, 3.01723508e-03, 9.02374275e-03, -6.19911298e-05,
       1.48470653e-03, -4.41932725e-03, -3.10046948e-03, 7.98372459e-03,
       1.87840080e-03, -2.19985051e-03, -3.94708710e-03, 3.53196519e-03,
       -2.58869375e-03, 1.37548641e-05, -4.69009066e-03, 2.22907099e-03,
       4.13200585e-03, -4.35878104e-03, -5.44786220e-03, -5.39128715e-03,
       7.78459653e-04, -9.04076907e-04, 5.94987767e-03, 1.00506353e-04,
       2.38978514e-03, -1.50806515e-03, -5.80043346e-03, -4.94594499e-03,
       -6.39591366e-03, -1.81383593e-03, 1.82093983e-03, 4.03054059e-03,
       1.83156517e-04, -3.89123219e-03, 1.33805331e-02, 6.73580740e-04,
       -3.21860751e-03, -1.12455608e-02, 8.90200678e-03, -2.30402965e-03,
       -9.90411849e-04, -3.46685597e-03, 5.45680057e-03, -1.94480829e-03,
       -6.16751146e-03, 3.98909766e-03, -5.23245893e-03, 3.93589865e-03,
       -6.81925798e-03, -1.99297536e-03, 2.66496744e-03, -9.95346461e-04,
       -6.05871715e-03, -2.75207683e-03, -2.01378576e-03,
       -6.20358391e-03, 3.56592727e-03, -9.81464982e-04, 3.70758149e-04,
       -8.94234341e-04, -2.68936623e-03, -2.95696640e-03,
       -1.63545785e-03, 2.95297778e-03, -2.48493301e-03, 2.71774316e-03,
       -2.13964912e-03, 9.07432940e-03, 4.90154512e-03, 3.66139063e-03,
       -7.01129017e-03, -7.38564553e-03, 6.50651101e-03, -1.66900898e-03,
       4.25261492e-03, -2.32998910e-03, -6.03684748e-04, 1.29284430e-03,
       -1.51641422e-03, -5.08730824e-04, -2.42153392e-03, 5.67095587e-03,
       3.47804488e-03, 6.78001298e-03, -1.59527955e-03, 3.91126890e-03,
       -2.50820024e-03, 4.81369579e-03, -1.13662099e-03, -1.65080873e-03,
       -3.58196092e-04, -1.13702531e-03, 2.26466544e-03, 2.59741582e-03,
       2.46739201e-03, 1.84185593e-03, -6.96496386e-03, 1.56038126e-03,
       2.62211356e-03, 2.34519900e-03, -8.80508160e-04, -6.26760721e-03,
       -3.26063065e-03, -2.04457273e-03, -3.31314886e-03, 1.44453137e-03,
       2.43565487e-03, -3.45473201e-03, -4.37322259e-03, 4.96236724e-04,
       5.39233210e-03, 5.10062929e-03, 4.48706094e-03, 2.02695723e-03,
       2.14277115e-03, 6.88764267e-03, 1.23375474e-04, -6.37288578e-03,
       -3.77501943e-04, -3.76201095e-03, 3.12554208e-03, 2.53633340e-03,
       5.93575696e-03, 3.52384499e-03, 4.46280756e-04, -7.41563737e-04,
       -2.11287593e-03, -1.90095301e-03, -7.76401814e-03, 1.53875293e-03,
       -1.67509343e-03, -2.05269386e-03, -1.70325849e-03,
       -3.17017408e-03, -5.29422564e-03, -9.80153307e-03,
       -9.28856526e-03, 1.43200858e-03, 4.80440725e-03, 1.53927234e-04,
       1.75885472e-03, -2.85465911e-04, 8.26230459e-03, 7.91919068e-04,
       -4.77183331e-03, 2.50733690e-03, -1.05645915e-03, 7.02454569e-03,
       2.70134374e-03, 7.90842064e-03, 6.67883037e-03, 1.32991653e-03,
       4.13959799e-03, -3.03087500e-03, -4.90654167e-03, 2.88380357e-03,
       9.79993213e-03, 1.75590487e-03, 4.02320828e-03, 5.16685145e-03,
       -1.50204767e-04, -8.24525673e-03, -6.57225214e-03,
       -8.36182851e-03, 3.81339487e-04, 4.06179344e-03, -3.78955621e-03,
       8.24914081e-04, 1.69947965e-03, -1.23734633e-03, -1.00999204e-02,
       1.44573557e-03, -6.87344407e-04, -9.23699190e-05, -1.81077700e-03,
       -5.44123538e-03, -4.86387173e-03, -1.33943555e-04,
       -3.62193887e-03, 5.40230144e-03, 1.66698406e-03, -8.84990324e-04,
       9.34876129e-03, 6.92335004e-03, -6.46885950e-03, -2.57995119e-03,
       -5.94184874e-03, 7.10867520e-04, 5.75545523e-03, 4.26777313e-03,
       7.74230435e-03, 2.77087698e-03, -4.14822716e-03, -2.61908723e-03,
       -2.07197666e-03, -1.30550377e-03, -4.01515374e-03,
       -5.66552440e-03, 6.21050689e-03, 6.78248610e-03, -3.70243448e-03,
       -2.78364256e-04, -3.67728970e-03, -7.47870002e-03,
       -6.61733560e-03, -1.37149740e-03, -7.04857241e-03, 7.10824330e-04,
       2.49759969e-03, -1.13592064e-02, 2.03356822e-03, -7.67405005e-03,
       -6.17883308e-03, -5.48019260e-03, 1.04800630e-02, 6.74297940e-03,
       7.96165410e-03, 8.01993161e-03, 2.30234652e-03, -2.02761148e-03,
       -9.51524300e-04, -6.70246175e-03, 1.01223751e-03, 8.70668609e-03,
       3.37720616e-03, 6.40752260e-03, 2.38630525e-03, -3.68207134e-03,
       6.95475983e-03, 1.09606097e-02, -4.83412994e-03, -2.09551211e-03,
       8.48174910e-04, -1.86707720e-03, -3.73938796e-03, 2.44888780e-03,
       -2.03636358e-03, 6.31394389e-04, -5.06542018e-03, -2.82159960e-03,
       -2.62270612e-03, 5.83431334e-04, -2.48184107e-04, -6.09174531e-05,
       -7.18570664e-04, -3.67166853e-04, 3.75271821e-03, -3.05142923e-04,
       -1.60942841e-02, -4.04273300e-03, 8.61745887e-03, 8.46053567e-03,
       4.61044675e-03, 4.53667279e-04, 3.60355363e-03, 8.45972355e-03,
       1.15697319e-02, -8.86960013e-04, -4.94750822e-03, 3.48790712e-03,
       6.98488578e-03, -5.74973598e-03, -4.80134459e-03, 8.17784690e-04,
       1.61717914e-03, 2.42399331e-03, -1.28424331e-03, 3.43042845e-03,
       2.85433931e-03, 1.73570518e-03, -4.75491630e-03, -2.97633465e-03,
       -8.18518223e-04, 1.29484909e-03, -5.08094104e-07, -8.76636896e-03,
       -2.16965564e-03, -2.75753532e-03, -2.42727669e-03, 2.83177337e-03,
       1.62565485e-02, 1.24655692e-02, 6.94478396e-03, -8.06113589e-04,
       -4.50894795e-03, 1.24248432e-03, 3.69220995e-03, 5.71080344e-03,
       -6.87326305e-03, -7.63215590e-03, -3.81245557e-03, 1.04830200e-04,
       -6.63639628e-04, 2.39158733e-04, 3.40664131e-03, -1.90995488e-05,
       -1.98302255e-03, -6.36818446e-03, 9.27244313e-04, 5.89832058e-03,
       8.90126079e-03, 2.24646647e-03, 5.10397227e-03, 1.49563805e-03,
       -1.26018748e-03, -7.30153080e-03, 3.40407947e-03, 8.48776475e-03,
       2.45877285e-03, 4.06457623e-03, -5.23192750e-04, 2.71269376e-03,
       8.11453629e-03, 7.08982407e-04, -5.77924773e-03, 2.83412612e-03,
       -4.22494626e-03, -9.97207314e-03, 1.67293730e-03, 9.92947724e-04,
       1.75023428e-03, 1.50607480e-03, 1.94349710e-03, -2.90134037e-03,
       4.35475667e-04, -5.92512125e-03, -1.17766652e-02, -3.89026850e-03,
       -1.41116639e-03, 7.31604174e-03, 9.19981115e-03, 1.53322180e-03,
       -3.85638280e-03, 6.22906082e-04, -8.02667718e-03, -1.03686526e-02,
       -3.71252722e-03, -1.96657004e-03, 4.09514550e-03, 9.53445584e-03,
       -1.66784402e-03, -5.51909953e-03, 5.59807196e-03, 5.85789513e-03,
       -2.69929878e-04, 6.28571073e-03, 2.17861252e-05, -7.37918483e-04,
