%YAML:1.0
---
detector_l: !!opencv-object-detector-hog
   winSize: [ 200, 200 ]
   blockSize: [ 16, 16 ]
   blockStride: [ 8, 8 ]
   cellSize: [ 8, 8 ]
   nbins: 9
   derivAperture: 1
   winSigma: 4.
   histogramNormType: 0
   L2HysThreshold: 2.0000000000000001e-01
   gammaCorrection: 1
   nlevels: 64
   signedGradient: 0
   SVMDetector: [ -4.29272838e-03, 2.00235008e-04, 4.55503957e-03,
       -1.79635233e-03, 4.34040790e-03, 7.21669663e-03, 6.85162470e-03,
       7.88127817e-03, 1.10716233e-03, -3.88559559e-03, -2.44069961e-03,
       6.10141596e-03, -4.71076742e-03, -1.12403929e-03, 4.60670050e-03,
       8.15859064e-03, 8.16212222e-03, 6.43458625e-04, -9.35834926e-03,
       -6.81015337e-03, -1.19582482e-03, -5.16470056e-04, 4.81136329e-03,
       1.70065090e-02, 7.63769634e-03, 4.40034037e-03, 8.17840279e-04,
       -5.63543197e-03, -4.57565580e-03, 2.00494332e-03, -6.66832784e-05,
       4.31185542e-03, 5.62276505e-03, 8.49659741e-03, 4.92061349e-03,
       -3.61082843e-03, 8.08350556e-03, 2.33575716e-04, 4.62773722e-03,
       6.72569382e-04, -1.61985328e-04, 3.55179235e-03, 9.45707876e-03,
       1.01408176e-02, 4.30202531e-03, 1.36213156e-03, -5.06119244e-03,
       -3.38580506e-03, -4.31873417e-03, -2.11173930e-04, 7.80348200e-03,
       9.97920334e-03, 8.43337644e-03, -4.28261788e-04, 1.56317709e-03,
       1.75195397e-03, -1.71833890e-04, 2.08785268e-03, -2.93207425e-03,
       -5.89693991e-05, 9.90792527e-04, 1.44646212e-03, -5.25128562e-03,
       -2.15586438e-03, 9.88323241e-03, 3.72539763e-03, 5.39251487e-04,
       1.02676731e-03, 1.31349405e-03, 6.79456163e-03, 7.44103803e-04,
       -5.48534933e-03, -1.07368035e-03, -3.18238162e-03,
       -2.76790163e-03, -6.78779231e-03, 6.49949908e-03, 3.19536706e-03,
       7.66689284e-03, 3.02290404e-03, -4.72198892e-03, 7.07265362e-03,
       1.01772416e-03, 2.30530091e-03, -4.71932162e-03, 5.62765403e-03,
       -6.54763123e-03, -4.64521442e-03, -1.94348255e-03, 1.10486674e-03,
       -8.66044647e-05, 7.44132092e-03, 4.57359653e-04, -3.62605182e-03,
       6.48878631e-04, 1.00949593e-03, 8.46916158e-03, -4.12930176e-03,
       -5.25030168e-03, 1.39762089e-03, -1.10991136e-03, -3.81870108e-04,
       -5.66883339e-03, 6.04794035e-03, 3.37726716e-03, -8.30040139e-04,
       -3.82595416e-03, -6.18997961e-04, 1.19745145e-02, 5.24240732e-03,
       9.59688518e-03, -4.86223726e-03, 1.48101256e-03, -5.72691113e-03,
       -6.92423293e-03, 8.33353610e-04, 6.19407138e-03, 5.94382593e-03,
       5.14422124e-03, 1.07420590e-02, 5.77706262e-04, -7.21175282e-04,
       -4.68956353e-03, 2.82562198e-03, 3.36961821e-03, 3.52884457e-03,
       2.37103319e-03, -2.08525732e-03, 1.14276458e-03, -1.48550142e-03,
       4.75698104e-03, -2.97488528e-04, -8.94103199e-03, 1.98872702e-04,
       3.28238634e-03, -6.24647364e-03, -2.20334297e-03, 4.00866568e-03,
       4.51477012e-04, -8.72696837e-05, -8.44476745e-03, -7.82897603e-03,
       3.03794234e-03, -4.19975910e-03, 1.90500123e-03, 3.92211182e-03,
       9.67065059e-03, 2.22195638e-03, -3.55056277e-03, -6.95947604e-03,
       1.72491977e-03, 5.21491934e-03, 3.25617613e-03, -1.33102003e-03,
       -8.32396001e-03, 2.09509395e-03, 3.83489649e-03, 2.52841087e-03,
       -7.24063860e-03, -2.38271873e-03, 6.60498859e-03, 3.99409235e-03,
       -4.73174313e-03, -8.15866794e-03, 5.44175738e-03, 3.71035282e-03,
       -4.11015790e-04, -5.85780479e-03, -6.43032277e-03, 1.54938130e-03,
       3.23896456e-05, -6.40698755e-03, -8.96819122e-03, 6.19665068e-03,
       3.00103379e-03, -4.22967924e-03, -8.93020816e-03, -5.60771767e-03,
       -3.60366539e-03, 8.82749737e-04, -8.61876365e-03, -1.17237074e-02,
       -9.87164560e-04, -2.06792052e-03, -1.79709541e-03, 1.69748696e-03,
       4.56075463e-03, 5.87999821e-03, -4.06654930e-04, -7.62525946e-03,
       -6.19733380e-03, 2.44585215e-04, -3.35611985e-03, -2.98652682e-03,
       1.15261180e-02, 7.89193902e-03, 5.26975607e-03, 1.10963581e-03,
       -3.67577514e-03, -5.65511128e-03, -2.14757543e-04,
       -3.21741449e-03, -1.21867992e-02, -1.88439561e-03, 2.68384372e-03,
       2.83930544e-03, -1.03597424e-03, -4.83685872e-03, 6.91444287e-03,
       5.48238587e-03, -1.36638444e-03, -1.15173608e-02, 5.14336117e-03,
       8.55682045e-03, 5.86321205e-03, -1.92945194e-03, -5.73649956e-03,
       -5.22322860e-03, -4.41958662e-03, -4.05343296e-03, 4.94203623e-03,
       1.50568960e-02, 4.36449004e-03, 8.77988059e-04, 8.66632152e-04,
       6.33793138e-03, -5.05599007e-03, 4.47300059e-04, -3.09364940e-03,
       -4.35791491e-03, 1.54073129e-03, 2.03092047e-03, -3.35451262e-03,
       1.42523786e-03, -4.58457926e-03, 6.11846428e-03, -8.74377787e-04,
       3.04244249e-03, 4.76135610e-04, 5.43205254e-03, 4.10596281e-03,
       -9.89703578e-04, -4.15532803e-03, -3.61663918e-03, 7.65936915e-03,
       4.31948312e-04, -6.51008077e-03, -2.09554308e-03, 4.33154032e-03,
       3.03307478e-03, -1.59273075e-03, -2.65930104e-03, -6.33785326e-04,
       -6.79704174e-03, 6.16253121e-03, 3.70717281e-03, -4.48347162e-03,
       -2.22174334e-03, -4.59038280e-03, -6.02682680e-03,
       -3.05995089e-03, 2.54216930e-03, -2.11935374e-03, -3.06279282e-03,
       3.22927511e-03, 3.68309952e-03, -1.09685829e-03, 2.75447103e-03,
       3.12689599e-03, 3.89149925e-03, -1.71641237e-03, 4.15823568e-04,
       9.04665620e-04, -2.62750592e-03, -5.99401013e-04, -9.54683346e-04,
       -1.12530706e-03, -8.83339962e-04, 1.07181922e-03, -6.03095104e-04,
       2.94229086e-03, -6.48200279e-04, 3.94584052e-03, 9.33082215e-03,
       -3.88831855e-03, 4.62073786e-03, 1.03721628e-03, -7.21391581e-04,
       1.53698423e-03, 2.55724392e-03, -1.24691688e-02, -4.21833247e-03,
       -3.50114983e-03, -5.17178886e-03, 2.92478432e-03, 2.73161894e-03,
       -3.26730683e-03, -1.96736399e-03, 7.94291031e-03, -1.61996915e-03,
       -2.54331948e-03, 1.72789267e-03, -4.76962235e-03, 1.07884808e-02,
       4.35779290e-03, -4.78911726e-03, 5.40253008e-03, 9.59778111e-03,
       -4.26887721e-03, 6.62711100e-05, -2.20673112e-03, -4.83286101e-03,
       1.93317712e-03, -1.22960715e-03, -1.56015705e-03, -1.22359884e-03,
       7.74848135e-03, 3.71298869e-03, 1.73495861e-03, -1.94812973e-03,
       -7.25703454e-03, 3.87686258e-03, -4.07723477e-03, -4.91390750e-03,
       -6.94936048e-03, 7.68243987e-03, 6.78503979e-03, -1.81744911e-03,
       7.41234189e-03, -1.90776971e-03, 4.70166653e-03, -5.56656509e-04,
       -1.33434925e-02, -4.48285555e-03, 6.82536559e-03, 6.64751092e-03,
       1.24386628e-03, -1.69983902e-03, -5.93497930e-03, -6.18428458e-03,
       -3.38045903e-03, -1.19574061e-02, -2.00170232e-03, 2.21328833e-03,
       6.77845860e-03, -1.61901803e-03, 3.43467598e-03, 1.34656811e-03,
       2.43903999e-03, -5.44949574e-03, -3.25500430e-03, 7.97104440e-04,
       -6.39395090e-03, 4.11658548e-03, 1.34589954e-03, -1.57893414e-03,
       -4.69755474e-03, -8.03184230e-03, -9.99241043e-03, 6.26244862e-03,
       7.22965039e-03, 5.80524281e-03, 4.15897975e-03, 3.54597368e-03,
       2.95059918e-03, 1.32663304e-03, 2.19575455e-03, 1.32074032e-03,
       2.30874331e-03, 7.72133097e-03, 4.87521477e-03, 1.30939321e-03,
       -2.06927792e-03, 1.90886413e-03, -1.54295831e-03, -2.55103991e-03,
       -1.48463482e-03, 4.92248684e-03, -5.56672341e-04, -2.93920137e-04,
       3.45810084e-03, -9.04594257e-04, -3.41567094e-03, 4.28642874e-04,
       1.21755751e-04, -7.23426114e-04, 8.80589150e-03, 2.16073799e-03,
       8.35558213e-03, 1.07487543e-02, -1.40848430e-03, -1.92615495e-03,
       2.41028005e-03, -2.17649573e-03, -7.45283207e-04, 2.73745717e-03,
       1.97631842e-03, 3.16757848e-03, 2.01518810e-03, -2.63485941e-03,
       2.53613945e-03, -2.75738491e-03, -8.14690662e-04, 2.94288155e-03,
       6.60460349e-03, 5.18770190e-03, 2.79241038e-04, -3.50885093e-03,
       -1.97988609e-03, 2.91616051e-03, -3.93945770e-03, 1.77018915e-03,
       4.70540067e-03, 7.37728411e-03, 3.33328964e-03, 3.73266195e-03,
       7.51979882e-03, -1.41095254e-03, 1.03210742e-02, -3.19344201e-03,
       2.21786811e-03, 2.94097769e-03, 5.80728427e-03, -3.17274663e-03,
       -2.98890029e-03, 1.48456974e-03, -2.91626900e-03, 1.18729903e-03,
       -3.92335467e-03, -7.58910738e-03, -2.23665824e-03, 4.15564794e-03,
       -1.01467897e-03, -1.53979240e-03, -1.17451954e-03,
       -3.32984928e-06, -1.44513079e-03, -4.38550906e-03,
       -5.05121797e-03, -4.07004915e-03, -3.51951225e-03,
       -3.23884725e-03, 2.56626843e-03, 7.94727355e-03, -1.33982889e-04,
       -9.54971649e-04, 5.04090509e-04, -3.82297067e-03, 6.55138283e-04,
       -3.10085132e-03, 4.14853654e-04, -2.27609975e-03, 1.46290183e-03,
       -5.25966799e-03, -3.47682089e-03, -5.77520765e-03,
       -9.14898608e-03, -5.43157896e-03, 4.78189019e-03, 1.02897994e-02,
       4.46288427e-03, 5.61250187e-03, -4.77531971e-03, 1.48312806e-03,
       -3.41307721e-03, -3.72475595e-03, -3.07424203e-03, 1.01947105e-02,
       -4.58997162e-03, 5.37683605e-04, 4.04325826e-03, -4.71961871e-03,
       -9.84583423e-03, -4.87109739e-03, -6.08399091e-03, 1.11504737e-03,
       -2.12824182e-03, -2.45853118e-03, 2.15548160e-03, 3.31681222e-03,
       -2.72941077e-03, -1.10489605e-02, -7.10723409e-03,
       -1.70253846e-03, -6.38837286e-04, -4.33575857e-04, 1.04511390e-02,
       -6.17380952e-04, 7.94903084e-04, -6.57435367e-03, -1.51394680e-03,
       -4.73723235e-03, -5.70693007e-03, -1.78530827e-04, 7.46142259e-03,
       6.47380017e-03, 5.57685364e-03, 7.54796714e-03, 2.44086469e-03,
       -4.15491313e-03, -1.17699299e-02, -6.90930430e-03,
       -6.58382429e-03, -1.42303167e-03, 6.18159771e-03, 9.73814633e-03,
       5.53973345e-03, -4.38560685e-03, -3.73304775e-03, -9.36529506e-03,
       -4.01398167e-03, 2.06297627e-05, 5.33409510e-03, 1.40770497e-02,
       7.93802738e-03, 1.07619329e-03, -3.63302999e-03, 3.27033270e-03,
       -1.39367431e-02, -1.90848566e-03, 2.81484821e-03, 9.55311395e-03,
       6.35734480e-03, 9.07073636e-03, 7.46229291e-03, -2.08221306e-03,
       -7.73089472e-04, -1.56755019e-02, -3.78468400e-03, 1.17317890e-03,
       2.91390973e-03, 1.37368403e-03, 3.61710647e-03, -1.06965064e-03,
       -6.51781866e-03, -5.52529329e-03, -1.12722898e-02,
       -2.73624319e-03, -1.45845441e-03, -4.02167346e-03, 6.65366882e-03,
       3.34208272e-03, -1.85665174e-03, 1.95424445e-03, 1.82316324e-03,
       -1.35100139e-02, -8.64110421e-03, 2.05310318e-03, 3.84188280e-03,
       5.23763290e-03, 2.17628735e-03, -3.22324131e-03, -3.05791560e-04,
       3.34066828e-03, -2.85759661e-03, -8.81366804e-03, 3.85455135e-03,
       1.40264658e-02, 4.79848729e-03, 2.41638906e-03, -2.46652192e-03,
       -3.62196867e-03, -7.59430276e-03, -1.30181992e-02,
       -2.17221421e-03, 1.13620772e-03, 7.96889508e-05, 5.19074174e-03,
       -2.28062505e-04, -6.21580053e-03, -6.07127382e-04, 2.38414505e-03,
       -3.09253740e-03, -1.03655746e-02, -2.42066034e-03, 1.92204129e-03,
       -7.23471967e-05, -1.02055969e-03, -6.68627722e-03, 5.82003547e-03,
       8.12214334e-03, -2.69959122e-03, -8.38881824e-03, -5.49331401e-03,
       9.37152375e-03, -3.68491537e-03, 8.70127988e-04, -5.35862334e-03,
       1.60584215e-03, -3.67452253e-06, -5.86492196e-03, -7.98278209e-03,
       -5.31049818e-03, -1.32383575e-04, 2.55977473e-04, 1.05891749e-03,
       -8.20952933e-03, 1.67022250e-03, 5.55486744e-03, 3.36969271e-03,
       -7.20946584e-03, 2.95414880e-04, -4.20079887e-04, 5.43167116e-03,
       5.23501355e-03, -5.91533585e-03, 8.05620011e-03, -3.67152249e-03,
       -2.96847522e-03, -1.22592440e-02, -3.44215240e-03, 4.30497387e-03,
       -8.97759013e-03, -2.00486463e-03, 8.55816412e-04, -3.55573138e-03,
       -5.51584992e-04, -6.40604366e-03, -3.86126689e-03, 7.21247285e-04,
       -5.41306101e-03, -1.21125756e-02, 2.01353943e-03, 3.89944250e-03,
       8.13710853e-04, 3.25730024e-03, 7.44362269e-03, -5.49232296e-04,
       3.29041691e-03, -8.52701627e-03, 6.55742409e-03, -1.03387481e-03,
       -4.70213639e-03, -1.45078346e-03, -6.08741771e-03,
       -6.28950913e-03, -6.76827272e-03, -2.59737391e-03, 8.06999952e-03,
       7.79091381e-03, 9.91228782e-03, 2.27292627e-03, 2.51936936e-03,
       4.30654763e-04, 3.60737485e-03, -4.66139929e-04, 3.57834087e-03,
       6.47075335e-03, -5.39236562e-03, 5.93882869e-04, 2.42052483e-03,
       1.69283198e-03, -1.68542739e-03, 5.48348995e-03, -1.63815764e-03,
       2.77899089e-04, -2.96193035e-03, 6.20413013e-03, 6.47264533e-03,
       1.53769215e-03, -1.81432231e-03, -1.22159887e-02, -5.96311036e-03,
       -4.56029223e-03, 3.36348754e-03, 1.10375965e-02, 8.51144921e-03,
       5.89001179e-03, 2.71804584e-03, 1.88878772e-03, 4.97731322e-04,
       1.72066456e-03, -1.70536002e-03, 6.26442605e-04, 8.05445667e-03,
       8.22972227e-03, 1.64516624e-02, 1.63033884e-03, -5.57780033e-03,
       -5.94895612e-03, -4.72588837e-03, -5.64961368e-03,
       -2.48075859e-03, 8.27444904e-03, 1.01744861e-03, -4.28235857e-03,
       -5.71023999e-03, -7.72515777e-03, -8.19287263e-03, 3.73937190e-04,
       -7.97797751e-04, 1.15194106e-02, 3.74406273e-03, -1.04854992e-02,
       -4.11492027e-03, -1.12113813e-02, 2.92399258e-04, -4.36805142e-03,
       1.99815864e-03, -3.80037678e-03, 3.44029395e-03, -1.15312878e-02,
       7.99142662e-03, 7.94060621e-03, 6.74750889e-04, 2.75305792e-04,
       1.94663694e-03, -8.77877872e-04, -1.53330329e-03, 4.49180696e-03,
       8.74821679e-04, -1.56392518e-03, -9.14808013e-04, -1.24259503e-03,
       4.87834262e-03, -6.07704837e-03, -2.06524017e-03, -3.75115802e-03,
       2.59803212e-03, -1.40678778e-03, -6.20337902e-03, 2.68437690e-03,
       -2.51691462e-03, -1.29898253e-03, 9.38444585e-03, 4.74825222e-03,
       3.69338581e-04, -3.70465266e-03, -1.21059213e-02, -2.98837665e-03,
       5.51356236e-03, -6.31821714e-03, -7.57512404e-03, 3.97576950e-03,
       1.82528957e-03, 2.70950492e-03, -1.81256561e-03, -1.02473106e-02,
       2.38925847e-03, 4.29422222e-03, -8.58408748e-04, 2.07698415e-03,
       -4.83517908e-03, 6.81694248e-04, -3.56424577e-03, -2.63132551e-03,
       -3.09373601e-04, -4.95793391e-03, 2.70718662e-03, -2.64684414e-03,
       1.07560321e-04, -3.34198866e-03, 8.19015142e-04, 2.00914801e-03,
       -3.43521195e-03, -4.13490832e-03, 2.73239356e-03, 1.97694125e-03,
       -6.92581199e-03, -4.99889115e-03, -1.22265471e-03, 2.81817652e-03,
       7.34965317e-03, -6.87053136e-04, -2.87440093e-03, 5.11781080e-03,
       1.21016812e-03, -3.98043031e-03, -1.84194825e-03, -1.76257628e-03,
       5.20004425e-03, 7.60107907e-03, 1.19785382e-03, 3.70031456e-04,
       -3.29289376e-03, 2.41448008e-03, -2.74284161e-03, -7.66834200e-05,
       -3.86394653e-03, 2.66163680e-03, 4.46419726e-04, -2.35068984e-03,
       -6.39484916e-03, -9.30637994e-04, 6.54613227e-03, 1.46708521e-03,
       1.94449400e-04, 1.26712810e-04, 3.94601142e-03, 6.07844535e-03,
       -2.37371167e-03, -1.04929982e-02, 3.20770690e-04, -3.46165593e-03,
       -5.64513728e-03, 3.20302555e-03, 2.61121895e-03, 1.22131528e-02,
       7.23792333e-03, 3.11020529e-03, 1.59557199e-03, 1.18708122e-03,
       -6.54377369e-03, -6.38184045e-03, 4.19915840e-03, -2.79725320e-03,
       6.95999945e-03, 6.71397755e-03, 6.72653667e-04, -9.83954989e-04,
       2.62243237e-04, 8.89644958e-04, -4.47106501e-03, -1.14282640e-03,
       1.93298608e-03, 8.34445842e-03, 6.87176269e-03, 1.22337218e-03,
       -7.79084954e-03, -2.60793883e-03, 3.12738965e-04, -1.63374396e-04,
       7.53561687e-03, 8.76401842e-04, -2.59279599e-03, 5.29026147e-03,
       -1.58857903e-03, -1.02400379e-02, 2.19771499e-03, -3.27505171e-03,
       -4.73976973e-03, 1.26226177e-03, 2.59971176e-03, 2.89363251e-03,
       1.15447631e-03, 6.58482080e-04, 7.05231039e-04, 6.74867677e-03,
       7.61912530e-03, -4.68150480e-03, -2.65695015e-03, -4.10733605e-03,
       -6.63734227e-03, -4.70549893e-03, 5.61439701e-05, -4.83987620e-03,
       5.06841985e-04, -2.33822339e-03, 2.57474580e-03, 4.14423458e-03,
       6.15741126e-04, -4.85163322e-03, -1.52577553e-03, -3.25551885e-03,
       -8.85374099e-03, -3.38784815e-03, -9.91879497e-04,
       -7.89451879e-03, -4.21614107e-03, 4.15229239e-03, -3.21176648e-03,
       -1.08197602e-02, -6.94566825e-03, -9.50980373e-03,
       -2.33081053e-03, -4.17379010e-03, -2.81622098e-03,
       -3.28669813e-03, 3.55438446e-03, 1.00782504e-02, 3.35985608e-03,
       -6.18906226e-04, 2.70907884e-03, -1.01309223e-03, -6.87245559e-03,
       2.29352969e-04, 1.42419408e-03, -3.04494007e-03, -1.45649328e-03,
       7.90877920e-03, 1.02767153e-02, 8.03342927e-03, 6.57239975e-03,
       2.81524262e-03, 1.87835912e-03, 5.19657508e-04, 3.01464950e-03,
       -1.27016287e-03, -1.02103315e-02, -8.63684155e-03, 1.77910610e-03,
       8.96797236e-03, -8.96934769e-04, 3.75082460e-03, -1.79028395e-03,
       3.41041083e-03, -3.78371775e-03, -1.61524559e-03, -5.99982974e-04,
       6.10749889e-03, -1.28688698e-03, -3.67162260e-03, 5.32551843e-04,
       7.78680318e-04, -2.46062409e-03, -2.11580045e-04, -1.07081933e-03,
       6.11485913e-03, 6.80363690e-03, -1.13731204e-03, 1.47036964e-03,
       2.63139582e-03, 2.82692345e-04, -1.89557369e-03, -7.55350105e-03,
       1.14287983e-03, 2.16094358e-03, 1.61221426e-04, 2.52959784e-03,
       -1.14521617e-03, 4.52243211e-03, 3.12473829e-04, -1.62161922e-03,
       -1.04094238e-03, -1.90130924e-03, 1.93245732e-03, 7.97266606e-03,
       4.45611367e-04, 6.05958654e-03, 1.39739225e-02, 1.52705982e-03,
       -1.80934661e-03, -9.03593376e-03, -2.04822700e-03,
       -1.67906797e-03, 3.54666007e-03, 4.04805923e-03, 3.92200332e-03,
       -9.22503648e-04, -3.97794088e-03, 1.81141030e-03, -6.95100985e-04,
       8.97814333e-03, 3.30276927e-03, 1.60725194e-03, 8.22951493e-04,
       -4.37186426e-03, -9.81400535e-03, -1.10530714e-02, 7.13022938e-03,
       1.78397633e-03, 5.58275403e-03, -6.31842762e-04, 3.93821672e-03,
       1.61600823e-03, -7.10971944e-04, 8.52683908e-04, -7.81240594e-03,
       -4.56703128e-03, -4.44895995e-04, 8.92895646e-03, -6.49753376e-04,
       -7.58012524e-04, -5.09672891e-03, -1.14438832e-02,
       -1.08808617e-03, -3.90896900e-03, -1.01761725e-02,
       -2.57915328e-03, 8.92977882e-03, -3.12380656e-03, -5.56547381e-03,
       5.40262973e-03, -5.97362593e-03, -6.91713858e-03, -7.66984513e-03,
       1.73330039e-03, -4.48131090e-04, -6.95951574e-04, 6.49900269e-03,
       1.19302757e-02, 1.76732009e-03, -6.31502969e-03, 4.76823049e-03,
       -3.91120411e-04, 5.54668298e-03, -6.19720621e-03, -4.00875509e-03,
       3.07028135e-03, 9.03040636e-03, -1.80385879e-03, -8.09091516e-03,
       1.10106601e-03, -5.17287292e-03, -4.45791846e-03, -1.33341900e-03,
       4.28382587e-03, 1.10166857e-03, 1.23597903e-03, 6.11512107e-04,
       -2.25113146e-03, 7.74756400e-03, -5.33930119e-03, 3.47945234e-03,
       -1.43614924e-03, 2.38334201e-03, 5.25034498e-03, 2.33088038e-03,
       3.12361913e-03, -4.22345847e-03, 5.11069177e-03, -2.31502624e-03,
       -2.32701004e-03, -5.56686101e-03, -5.51846111e-03,
       -8.32646503e-04, 1.95923680e-03, -3.04753403e-03, -1.20016071e-03,
       6.07623952e-03, -1.80642586e-03, -2.97335186e-03, -6.89380849e-03,
       -5.10387495e-03, -5.30080544e-03, 1.04943255e-03, 4.01066523e-03,
       1.69709197e-03, 1.01934876e-02, -3.70125729e-03, -7.20188348e-03,
       1.07130513e-03, 1.38545095e-03, 1.81569136e-03, 1.46333638e-04,
       7.53754936e-03, 8.96089803e-03, 1.44734401e-02, 1.75188412e-03,
       -8.67888145e-03, -3.27582611e-03, -1.04315137e-03, 7.59616494e-03,
       1.18354326e-02, -1.33152155e-03, -1.59262121e-03, -5.51039993e-04,
       -2.46339082e-03, -8.93251784e-03, -4.59312042e-03,
       -1.69790443e-03, 2.88043125e-03, 3.09190690e-03, -3.91297834e-03,
       1.30351377e-03, 2.05046637e-03, -7.21347402e-04, -4.56349552e-03,
       -2.47225841e-03, -2.13470048e-04, 3.94988433e-03, -1.39506138e-03,
       -6.20800070e-04, -2.37075100e-03, 3.89352022e-03, 2.48898240e-03,
       -2.70151440e-03, -6.28064247e-03, -3.52197629e-03, 8.53049103e-03,
       5.83292404e-03, -9.77685209e-03, -2.92459805e-03, 5.46275405e-04,
       -3.01068439e-03, -2.17669920e-04, -2.27810885e-03, 3.27635556e-03,
       6.19220454e-03, -4.62944480e-03, -2.03812355e-03, 7.48737808e-03,
       3.78475827e-03, 5.91515936e-03, 2.34154490e-04, -1.18878984e-03,
       -1.74491690e-03, -2.69395649e-03, -3.63545376e-03, 2.88891466e-03,
       7.04287877e-03, 1.12976669e-03, 1.51844439e-03, -8.17780197e-03,
       3.85333714e-03, -2.49148230e-04, 2.44897790e-03, -2.00209115e-03,
       -2.14559422e-03, 1.96137396e-03, 9.34011955e-03, 5.51992375e-03,
       4.26750490e-03, -9.62486956e-04, 5.59747498e-03, -3.19214771e-04,
       -3.31886462e-03, -1.19811099e-03, -2.27727275e-03, 7.15707953e-04,
       6.81029726e-03, -9.59106348e-03, -2.61721876e-03, 3.42074130e-03,
       -4.19278070e-03, -1.00315316e-02, 1.83794973e-03, -4.19999426e-03,
       -5.60006360e-03, -3.08803492e-03, -8.04793742e-03, 2.27753120e-03,
       1.72973413e-03, 7.93091860e-03, 2.94087199e-03, -1.02599338e-03,
       4.65118501e-04, -6.79435488e-03, -4.97828750e-03, 6.20380929e-03,
       -2.85987044e-04, 1.14095295e-02, 4.39836364e-03, 2.28858972e-03,
       -9.06031765e-03, -1.01587363e-02, -1.13902055e-02, 2.06782988e-05,
       -1.04843071e-02, -2.20442889e-03, 2.21396238e-03, -5.65815484e-04,
       -1.15269069e-02, -1.28803030e-02, -5.67414507e-04,
       -5.71479322e-03, -1.61343627e-03, 6.01330632e-03, 2.81768502e-04,
       5.63668925e-03, 3.30538396e-03, -4.99410974e-03, -7.56586262e-04,
       1.36539340e-04, -3.86652723e-03, -2.08171527e-03, 3.46909487e-03,
       8.11429601e-03, 5.95605746e-03, -4.74318024e-03, -2.89982022e-03,
       3.30147892e-03, 1.27568573e-03, 7.25793373e-03, 5.03155915e-03,
       -1.83366972e-03, 3.74702446e-04, -1.57098798e-03, -6.75151963e-03,
       -2.81549990e-03, -1.08322650e-02, 3.35925887e-03, -2.06158450e-03,
       -1.69993390e-03, 6.22529769e-03, 6.48021139e-03, 1.31371315e-03,
       -6.34612003e-03, -5.39941574e-03, 2.74736201e-03, 7.11462600e-03,
       1.22341830e-02, 5.33368764e-03, 1.24998600e-03, -2.10566563e-04,
       3.10934702e-04, 8.59372609e-04, -4.08548024e-03, 1.95384445e-03,
       -2.41833902e-03, 6.15018513e-03, 4.89866966e-03, -1.84056989e-03,
       2.76164687e-03, -3.97080602e-03, -7.86674209e-03, -1.67323474e-03,
       -3.72602721e-03, -1.44975651e-02, -7.00512761e-03,
       -8.10534577e-04, 1.70964631e-03, -4.72439779e-03, -1.07300002e-02,
       -9.51598305e-03, 3.26587207e-04, 6.67647971e-03, 2.57017091e-03,
       4.43547731e-03, 1.65937329e-03, -1.38823828e-03, -3.66999791e-03,
       1.49242941e-03, 1.37838454e-03, 3.54309886e-04, -6.43738895e-04,
       -5.95568563e-04, -4.16695559e-03, -4.40915721e-03, 3.77909583e-03,
       1.82394998e-03, -2.94633023e-03, -3.94537114e-03, -3.09739821e-03,
       -5.68161719e-03, -8.29136837e-03, -2.14850088e-03,
       -3.90245020e-03, 4.83031897e-03, -2.23927619e-03, -2.13172240e-03,
       -2.19474663e-03, 2.14030803e-03, -3.62314773e-03, -2.15349230e-03,
       9.18647181e-03, -3.23626352e-03, 3.32298107e-03, -6.55631127e-04,
       -6.20109588e-03, -4.39039245e-03, -4.07155138e-03, 1.63448008e-03,
       3.07427533e-03, 9.79590579e-04, 2.27293145e-04, 6.66080276e-03,
       -6.54416718e-03, 1.12590271e-04, -7.80011178e-05, 6.19301456e-04,
       -2.90455483e-03, 2.38493760e-03, 6.55982085e-03, 2.14603776e-03,
       -1.29496198e-04, 2.46056914e-03, -6.40589418e-03, 9.55004725e-05,
       -3.69074114e-05, -5.42131718e-03, -7.17674661e-03, 6.16483437e-03,
       -8.03397910e-04, 5.75309386e-03, -5.79517614e-03, -1.17436480e-02,
       -2.06917454e-03, -3.63493082e-03, 1.16829097e-03, -3.82542307e-03,
       5.40583069e-03, -1.01663964e-03, 6.00726530e-03, -4.54981206e-03,
       -1.67126562e-02, -2.56824587e-03, 3.77186202e-03, 3.02285538e-03,
       -5.97329519e-04, 7.15678791e-03, 2.26549385e-03, 1.02883261e-02,
       3.83896823e-03, -4.54580272e-03, -1.57469418e-03, 1.85476127e-03,
       1.15516763e-02, 7.33840792e-03, 1.30042415e-02, 4.74156719e-03,
       8.08724575e-03, 1.53851148e-03, -4.13217396e-03, 6.95375493e-03,
       4.38915659e-03, -1.69781168e-04, 2.92787910e-03, -2.03088508e-03,
       -4.25134273e-03, -6.32591918e-03, -7.44537590e-03,
       -8.80226772e-03, -2.66750110e-03, -1.34473003e-03, 6.51158486e-03,
       6.53546443e-03, 5.41010173e-03, 4.56987694e-03, 1.94335604e-04,
       -1.44435302e-03, -5.25733642e-03, -9.42885876e-03,
       -1.33057323e-03, 6.47549890e-03, 9.15443338e-03, -1.06069283e-03,
       2.26002652e-03, 4.42759227e-03, 8.87054252e-04, -5.72876248e-04,
       2.76123150e-03, -2.05989787e-03, 6.00868138e-03, 6.29764097e-03,
       -3.89474956e-03, 7.45810103e-03, 1.31819407e-02, 2.92006880e-03,
       6.41747564e-03, -5.69600752e-03, -8.80505890e-03, 1.33360801e-02,
       9.91635770e-03, 8.45917594e-03, 6.74392562e-03, 9.29724518e-03,
       -3.08359298e-03, -8.96289479e-03, -9.25674941e-03,
       -2.56962492e-03, 1.11703668e-02, 9.37885325e-03, 7.80723570e-03,
       7.17362622e-03, -9.23552434e-05, -8.35109968e-03, -6.62451982e-03,
       -5.28151495e-03, -2.32770480e-03, 3.49727389e-03, 1.02341908e-03,
       -3.42083373e-03, 6.82913652e-03, 4.11918527e-03, -2.76575098e-03,
       -2.78062798e-04, -5.87448431e-03, -4.72452026e-03,
       -6.95561874e-04, -4.09661978e-03, -4.27094894e-03,
       -2.27599824e-03, -6.73021015e-04, -3.08346702e-03,
       -3.12913698e-03, -5.71662653e-03, -3.32037662e-03, 2.93015619e-03,
       6.35850301e-04, 3.34954052e-03, -1.34978036e-03, -5.30730374e-03,
       -9.94599238e-03, -6.50622300e-04, 1.19668315e-03, -2.57555651e-03,
       -1.27009058e-03, 1.22995977e-03, -3.34284414e-05, -2.22288794e-03,
       -6.53257594e-03, -7.34164426e-03, -4.17598058e-03,
       -5.91692748e-03, -9.03838128e-03, 2.82471138e-03, 5.83324472e-05,
       -4.92170732e-03, -9.81824123e-04, 2.57613696e-03, -3.21563776e-03,
       1.42103992e-03, -3.11674463e-04, 3.20457481e-03, 8.26693978e-03,
       6.62844628e-03, 6.72586123e-03, 8.07213318e-03, -1.44149631e-03,
       -5.91998920e-03, -1.91592623e-03, 3.60239646e-04, 7.36713468e-04,
       -6.55881874e-03, -4.25178977e-03, -1.17462943e-03, 1.69525610e-03,
       -8.28348193e-03, -8.05587601e-03, 1.37283874e-03, -1.61204359e-03,
       -4.73708147e-03, 1.55303883e-03, -6.05415727e-04, -4.05645045e-03,
       5.09689376e-03, 1.74483447e-03, -6.48255181e-03, -7.96591118e-03,
       1.94789987e-04, 1.12179173e-02, -7.05657434e-03, -2.76028784e-03,
       -3.20052961e-03, 3.21225263e-03, -7.23937235e-04, -4.47556144e-03,
       7.86121376e-03, 1.04481708e-02, -2.39979150e-03, -9.82496608e-03,
       -1.54643389e-03, -4.35784273e-03, 6.64104009e-03, 4.01162263e-03,
       8.92907614e-04, 1.81982480e-03, 8.30457918e-03, -7.86053855e-03,
       -1.71303155e-03, 5.41772181e-03, -1.07045227e-03, 4.83096810e-03,
       3.94941354e-03, -9.92610818e-04, -1.10498667e-02, -1.62655173e-03,
       3.32029327e-03, -2.88164779e-03, -1.67548162e-04, -6.52438588e-03,
       2.40119826e-03, -3.61634372e-03, -9.08071350e-04, -8.30550492e-03,
       4.35377355e-04, 4.38031461e-03, -8.14949349e-03, -1.77705684e-03,
       -2.97071226e-03, 4.65651555e-03, -4.85896319e-03, -3.72580206e-03,
       2.80175731e-03, 1.34070842e-02, -3.59131047e-03, -1.41235972e-02,
       -4.74203518e-03, -4.56375349e-03, 1.92589045e-03, -7.16362894e-03,
       -1.58420182e-03, -5.99264773e-03, 5.98349376e-03, -1.21413507e-02,
       7.17468886e-03, -5.81865956e-04, -4.67852131e-03, -3.03284638e-03,
       7.98034482e-04, 6.49341673e-05, -7.67318392e-03, -4.03397949e-03,
       6.44215709e-03, 1.02012260e-02, 7.48874852e-03, 6.40763144e-04,
       5.32982267e-05, 1.95952738e-03, 1.85742625e-03, -4.04182402e-03,
       -5.01065690e-04, 6.50566351e-03, -5.32669201e-03, 3.32446583e-03,
       4.59054438e-03, -1.40517644e-04, 4.78048157e-03, 4.01995704e-03,
       1.17307623e-04, 6.93490915e-03, -6.83084968e-03, 2.15932308e-03,
       1.40506960e-02, 3.47768189e-04, -3.35445092e-03, -5.38243586e-03,
       5.85817252e-05, -7.31520308e-03, 4.69859428e-04, -5.27137425e-03,
       4.02166508e-03, 9.15796775e-03, 6.23339321e-04, 2.44918116e-03,
       6.08209055e-03, -1.32697250e-03, -9.41741373e-03, -5.32655884e-03,
       6.13205275e-03, 8.56930204e-03, 1.34420050e-02, 7.07430299e-03,
       -1.79184577e-03, 2.32091872e-03, 3.84028215e-04, -3.66741908e-03,
       -1.73686130e-03, 7.11091515e-03, 8.69847659e-04, 9.47972201e-03,
       -6.04831986e-03, -2.34912266e-03, 3.86915612e-03, -1.61667203e-03,
       -8.06916505e-03, -1.20331103e-03, -3.47587047e-03, 1.28612132e-03,
       6.12744782e-03, 4.65995353e-03, 1.98822422e-03, 7.34307803e-03,
       -1.99720194e-03, -2.03432189e-03, -3.20112827e-04, 1.48226402e-03,
       4.21119621e-03, 6.33199420e-03, 4.00075736e-03, 4.21688380e-03,
       8.80718138e-03, -1.21197524e-03, -6.52476912e-03, -4.99957893e-03,
       2.94948579e-03, 1.90428284e-03, -1.78496854e-03, -2.54721940e-03,
       5.29090408e-03, -3.70044541e-03, -1.05496228e-03, -3.10201710e-03,
       4.85960534e-03, 1.94412062e-03, 6.29128481e-04, -1.29136245e-03,
       3.03299376e-03, 6.86163548e-03, 3.34013108e-04, -2.48095626e-03,
       -6.53046276e-03, -9.16277338e-03, -3.08664865e-03, 3.01437313e-03,
       -4.01421450e-03, -3.65066412e-03, 4.44305828e-03, 6.07412832e-04,
       5.92054985e-03, -8.42675727e-05, -2.06194329e-03, 2.95131351e-03,
       8.52750055e-03, 2.13339995e-03, -2.59833387e-03, 1.38966192e-03,
       -5.66899823e-03, -3.91985406e-04, -1.34624424e-03, 3.55560565e-03,
       3.75785469e-03, 1.23471691e-04, -2.19752034e-03, -8.15990008e-03,
       3.00820940e-03, 6.65554637e-03, -3.22356424e-03, -2.45026965e-03,
       2.53595266e-04, 2.16092635e-03, 1.01448912e-02, -8.17220891e-04,
       -5.86847216e-03, 4.04772290e-04, 7.57302949e-03, 6.93586282e-03,
       6.75870152e-03, 5.36025222e-03, 7.57857179e-03, 1.45871786e-03,
       3.66874825e-04, -8.52815527e-03, 5.22512756e-03, 6.98399683e-03,
       2.53246492e-03, -7.10241683e-03, -4.67049284e-03, 5.89808077e-03,
       5.16833086e-03, 5.46261726e-05, -2.35052640e-03, 1.81919732e-03,
       8.80798511e-03, 9.78665892e-04, -3.30236903e-03, -2.92601526e-05,
       4.96456586e-03, 4.92081279e-03, 6.05080789e-03, 3.05015873e-03,
       -6.41172798e-03, -1.51692401e-03, -1.02073210e-03, 2.42628832e-03,
       -6.25147950e-03, -5.97390393e-03, 8.19357391e-03, 3.72899557e-03,
       -1.21336116e-03, 4.29237587e-03, 4.87760501e-03, -3.40854836e-04,
       -7.09456578e-03, -1.03098545e-02, 6.80389861e-03, 6.42241398e-03,
       6.97889645e-03, 2.35018949e-03, -2.31090910e-03, -5.21811331e-03,
       -3.91831063e-03, -5.33623155e-03, -6.65144622e-03,
       -1.82207115e-03, 8.27673264e-03, 4.56154021e-03, 3.82416695e-03,
       -1.60132314e-03, -7.96201522e-04, -4.38364362e-03, 2.29162676e-03,
       -8.22234061e-03, -2.20489921e-03, 1.56606175e-03, -4.66437516e-04,
       1.10838831e-04, 1.84067374e-03, 6.84030633e-03, -7.73258554e-03,
       9.64186213e-04, -3.98149155e-03, -6.51558256e-03, 5.77605702e-03,
       2.95477500e-03, 2.25515076e-04, 4.94831102e-03, 1.67360634e-03,
       9.49676323e-04, 2.18152651e-04, -8.44972115e-03, -6.70750916e-04,
       4.34307195e-03, 2.02016206e-03, -9.65957704e-04, -2.43632426e-03,
       3.67431133e-03, -1.52839138e-03, 1.69711909e-03, -6.20177202e-03,
       1.12190517e-03, 1.83686870e-03, 2.25898228e-03, 5.56258298e-03,
       -6.44230342e-04, 5.89074334e-03, -2.88978871e-03, 4.68371995e-03,
       2.22718972e-03, -5.36837056e-03, -5.17728273e-03, -1.25271513e-03,
       -4.14803857e-03, -5.12343273e-03, 3.33032059e-03, -3.02222255e-03,
       -2.03825720e-03, -9.20215715e-03, -1.36738122e-02, 6.21223589e-03,
       1.77895231e-03, 1.48474690e-04, -1.03799850e-02, -1.21027837e-03,
       3.84288887e-03, 6.97813975e-03, 4.85105114e-03, 4.84052440e-03,
       1.15397582e-02, 2.74800928e-04, 3.35607794e-03, -7.87939783e-03,
       2.16418761e-03, -1.21477700e-03, 3.85638862e-03, -1.11635483e-03,
       6.06220169e-03, 4.48613707e-03, -4.29197773e-03, 5.06077951e-04,
       3.69981886e-03, 7.02287070e-03, -3.74143454e-03, -9.16039571e-03,
       1.67673605e-03, 7.13917427e-03, 2.07188446e-03, -5.16634714e-03,
       2.51949998e-03, 6.32291753e-03, 4.50886693e-03, -2.59572291e-03,
       -1.85909076e-03, -3.98957543e-03, 1.73520157e-03, 1.16132514e-03,
       1.88968537e-04, 4.08404681e-04, 1.00749906e-03, 1.37092918e-02,
       3.00786225e-03, -1.33596058e-03, 8.34739488e-03, 4.78883134e-03,
       4.57505183e-03, 1.07610493e-03, 3.89628485e-03, 6.24700543e-03,
       1.18334116e-02, 2.40961876e-04, -1.02637650e-03, 7.44649721e-03,
       8.45838245e-03, 8.51287099e-04, -3.77611606e-04, 1.22507650e-03,
       1.17848522e-03, -1.97772612e-03, 2.07756553e-03, 8.54341255e-04,
       -2.89454381e-03, 2.89678317e-03, 3.44812195e-03, 6.10038452e-03,
       6.76578563e-03, 1.57347717e-03, -3.25001217e-03, -6.11606054e-03,
       8.14120169e-04, -5.49621368e-03, 4.63890191e-03, 4.82627796e-03,
       3.93105811e-03, 4.64498880e-04, 7.60922721e-03, 7.79560115e-03,
       2.84169847e-03, 1.26781932e-03, -3.56830633e-03, 7.93962367e-03,
       8.35789926e-03, 1.08965226e-02, -2.91671749e-04, 2.40503973e-03,
       1.27740623e-03, -6.43639546e-03, -2.81110522e-04, -7.50861270e-03,
       -1.84694899e-03, 5.31476596e-03, -7.87998724e-04, -1.02694391e-03,
       -3.79484333e-03, 1.26959605e-03, 1.93524512e-03, 7.43340794e-03,
       -1.35639415e-03, 2.35269102e-03, 2.70523736e-03, -8.57493840e-03,
       -5.36441663e-03, -3.14907567e-03, -5.48787601e-03,
       -2.21628509e-03, 1.25681106e-02, 2.19685887e-03, -6.13732322e-04,
       -1.08337670e-04, 4.36627492e-03, -1.91402782e-04, -1.31039368e-03,
       1.32573145e-02, -6.97669166e-04, 6.21999032e-04, -9.28290829e-04,
       -6.89473143e-03, 2.39770859e-03, 6.47590554e-04, 1.86218799e-03,
       1.93530379e-03, 7.85799604e-03, -8.07278790e-03, 2.45982106e-03,
       -6.05098391e-03, 1.43600482e-04, -8.98478087e-04, -4.18594526e-03,
       4.35394747e-03, 1.11426238e-03, -2.25051376e-03, -2.22266209e-03,
       1.81706413e-03, -2.00900505e-03, 2.52293120e-03, -7.57598458e-03,
       6.63826533e-04, 1.29450802e-02, 1.21303208e-04, -2.26467312e-03,
       -3.08507914e-03, 7.62233860e-04, 1.21914502e-03, -4.24720254e-03,
       -6.44839718e-04, 1.13884290e-03, 5.59580559e-03, 7.02853641e-03,
       9.91565920e-03, -1.36573601e-03, -1.32598984e-03, -2.65568402e-03,
       -1.36358241e-04, -6.08293805e-03, 2.23581027e-03, 1.19617069e-02,
       4.41828230e-03, 1.01257646e-02, -5.17489575e-03, -2.70293118e-03,
       6.21861138e-04, -5.51375933e-03, 2.01230589e-03, 3.55337770e-03,
       1.41138788e-02, 1.47378887e-03, -2.31845025e-03, 3.25244572e-03,
       2.34614336e-03, 1.65114261e-03, -3.07230814e-03, 4.67114104e-03,
       2.28855410e-04, 5.74810850e-03, -1.45218428e-03, -8.94251373e-03,
       8.10029916e-04, -1.91150850e-03, 5.57148317e-03, 7.74510903e-03,
       -2.62679299e-03, -3.61453771e-04, 5.03741764e-03, 1.53655489e-03,
       1.02576902e-02, 1.77402282e-03, 2.39056186e-03, -1.57430919e-03,
       -5.45633910e-03, 6.18935388e-04, -1.49958616e-03, -1.49032667e-06,
       5.50111802e-03, 7.50287669e-03, 4.09966614e-03, 1.32925832e-03,
       2.16328015e-04, 2.67351605e-03, 3.20063415e-03, 2.73821526e-03,
       4.69891122e-03, 2.70620058e-03, -1.78468181e-03, -3.10426415e-03,
       -5.59567474e-03, 6.30560331e-03, 6.66723633e-03, 2.66402634e-03,
       -5.95383998e-03, -4.46282123e-04, -4.52311290e-03, 7.17608666e-04,
       -6.36282144e-03, 1.29000877e-03, 6.54097321e-03, 6.47527073e-03,
       6.06588833e-03, -1.43272593e-03, 1.61118829e-03, 3.12113063e-03,
       1.08423047e-02, -5.16449742e-04, -6.40476774e-03, -2.83898902e-03,
       3.55998147e-03, 3.93906096e-03, -2.57803104e-03, 3.80212325e-03,
       -3.53699154e-03, 6.52569067e-03, -3.53499828e-03, -1.61196908e-03,
       2.75225379e-03, 7.11381203e-03, 6.07371237e-03, -5.90422377e-03,
       1.13087597e-04, -5.72252378e-04, 7.20076589e-03, -1.63222768e-03,
       3.20306071e-03, 9.66391643e-04, 4.87695727e-03, -2.94800918e-03,
       -1.08608585e-02, -1.38434989e-03, -2.32157600e-03,
       -3.88005399e-03, -2.73050042e-03, 1.26599311e-03, -6.37011649e-03,
       -4.92502656e-03, 9.00653936e-03, 1.90172694e-03, -3.64762219e-03,
       -2.48459144e-03, 9.82475467e-03, -1.50833407e-03, -1.52897125e-03,
       -3.23298061e-03, 4.36153170e-03, -3.40654375e-03, 2.77677597e-03,
       3.95740382e-03, -2.52958713e-03, 1.09816967e-02, 5.92239434e-03,
       -4.24547645e-04, -8.01638793e-03, 2.81420595e-04, -5.06203528e-03,
       -1.09971762e-02, -7.16747856e-03, -4.76445770e-03,
       -1.55750068e-03, -1.35495490e-03, 2.31417990e-03, -3.89486807e-03,
       -6.17487961e-03, -9.27241577e-04, 4.05929191e-03, -5.59029588e-03,
       -3.34953773e-03, 5.95381530e-03, -5.90266846e-03, 1.87441031e-03,
       -3.56293516e-03, -1.93121587e-03, -5.18062478e-03,
       -3.71545879e-03, -1.50177581e-03, -6.06983667e-04, 8.68170429e-03,
       6.63265213e-03, 8.66428716e-04, -6.24793582e-03, -6.10588933e-04,
       3.52312671e-03, 1.13236427e-03, -5.05818939e-03, -1.68292294e-03,
       3.96100013e-03, -5.05901827e-03, 6.66217355e-04, -4.05762112e-03,
       4.52296459e-04, -1.96415209e-03, 8.43392778e-03, -3.44356569e-03,
       -1.87581428e-03, -4.26035520e-04, -1.03244187e-04, 2.56409380e-03,
       -3.12515185e-03, -4.67518345e-03, 6.91034459e-03, 6.79261098e-03,
       8.67312774e-04, -5.90171712e-03, -8.69752560e-03, -3.53221712e-03,
       4.34392225e-03, 5.83466375e-03, 5.38799865e-03, -3.34591605e-03,
       1.45819446e-03, -3.72061087e-03, -4.04778961e-03, -7.19165988e-03,
       -1.29065081e-03, 2.39444221e-03, -5.54563059e-03, -5.09961555e-03,
       -1.40543969e-03, 6.29698974e-04, 3.18507361e-03, 4.85062366e-04,
       -7.75483157e-03, 5.71267866e-03, 4.09912737e-03, -4.48824186e-03,
       -3.70717025e-03, 6.04681438e-03, -2.57624453e-03, -7.17855338e-03,
       -9.91141889e-03, -9.33064800e-03, -1.28166110e-03, 3.52927507e-03,
       8.38762801e-03, 7.16936076e-03, 7.70034175e-03, 1.99473812e-03,
       -8.02634377e-03, -7.56993983e-03, -3.83299636e-03, 4.22209705e-04,
       3.59103340e-03, 6.79431483e-03, 6.76117651e-03, 1.54149428e-04,
       -5.12318593e-03, 1.39895041e-04, -1.03612186e-03, -1.66067039e-03,
       3.90665606e-03, 4.29176842e-04, -6.30977191e-03, -7.66322576e-03,
       2.66915327e-03, 7.07480405e-03, 4.23032744e-03, 9.98272677e-04,
       6.96337735e-03, 6.16173726e-04, -2.81319395e-03, -8.88549490e-04,
       -5.55437151e-03, 1.01261036e-02, 9.04300623e-03, -4.21373360e-03,
       -3.05152964e-04, 1.21390168e-03, -6.21028803e-03, -1.35442213e-04,
       3.43538617e-04, 6.97581703e-03, 2.81573948e-03, -8.05571734e-04,
       -8.15496501e-03, -3.78607865e-03, -5.69509389e-03, 1.28324074e-03,
       -3.38249817e-03, -3.32329742e-04, 2.21464736e-03, 5.16641047e-03,
       7.77683500e-03, -1.93381368e-03, -7.35068868e-04, 1.21948924e-02,
       -2.76804389e-03, 1.05051079e-03, 5.20171656e-04, -1.70987309e-03,
       2.17635720e-03, -4.06753924e-03, -8.11419077e-03, -4.14169440e-03,
       3.89997894e-03, -9.33691743e-04, 3.50256287e-03, 1.62314554e-03,
       -3.03617073e-03, 5.53328427e-04, -8.30441900e-03, -7.19025591e-03,
       -4.93327016e-03, 2.97843735e-03, 4.49785870e-03, -3.98383290e-03,
       -1.07668934e-03, 5.05155930e-03, 2.13459297e-03, 2.88719420e-05,
       9.83668119e-03, -3.14380997e-03, 1.58853582e-05, -1.61718577e-04,
       1.11182802e-03, 7.41786463e-03, 3.02832574e-03, -2.57094018e-03,
       -6.46678079e-03, 1.56698353e-03, 1.00050389e-03, 1.65855121e-02,
       -3.56939621e-03, -1.02176133e-03, 5.26580436e-04, -9.54222586e-03,
       3.49466875e-03, -2.02372466e-04, 1.21237887e-02, 5.80495829e-03,
       1.14896912e-02, 1.93817890e-03, 5.05738705e-03, 6.99678063e-03,
       -4.99724003e-04, -9.16125660e-04, 1.69141823e-03, 8.96097103e-04,
       -2.30827276e-03, 9.44149157e-04, 2.38510524e-03, -2.20245076e-03,
       3.33843054e-03, -6.35555759e-03, 7.43308105e-04, -1.34135713e-03,
       -7.44298054e-03, 5.85612422e-03, 7.15330197e-03, 6.93199504e-03,
       9.87943541e-03, -5.37157641e-04, -5.41684171e-03, 2.59443512e-03,
       -1.06697076e-03, 4.71249875e-03, 4.04781615e-03, 9.64310579e-03,
       6.29397156e-03, 4.54161968e-03, 4.37385589e-03, 2.56964122e-03,
       -2.96369963e-03, 9.16972815e-04, -2.12462363e-03, 3.70631134e-03,
       7.52581656e-03, 2.75907945e-03, -9.12606250e-04, -1.36666757e-03,
       -1.63468154e-04, -4.17715404e-03, -7.86339398e-03,
       -4.24602348e-03, 3.17573105e-03, 4.47243336e-04, 4.06133570e-03,
       5.55910356e-03, 1.27558620e-03, -1.21433579e-03, -6.64186338e-03,
       -9.73239727e-03, -2.23892904e-03, -1.79876434e-03, 5.51636051e-03,
       3.18818772e-03, -9.55346564e-04, -2.23398325e-03, -9.16937541e-04,
       1.20765215e-03, 2.80357199e-03, 6.21908810e-03, 3.23194748e-04,
       -1.60920550e-04, 2.76629860e-03, -1.06087909e-03, 7.48743815e-03,
       5.49775036e-03, -4.28896584e-03, 1.89095084e-03, 6.60770247e-03,
       4.86989226e-03, 1.15817487e-02, 3.92811140e-03, -3.92920244e-03,
       2.15365575e-03, -3.22097517e-03, -8.74857325e-03, -9.10677388e-03,
       -6.87302789e-03, -4.10053739e-03, 9.31994431e-03, 8.91853299e-04,
       6.99170341e-04, -4.21627797e-03, -4.18445375e-03, 2.11126567e-03,
       -2.97926506e-03, 2.83488678e-03, 1.20660113e-02, 2.68391392e-04,
       -1.11853459e-03, 5.70747012e-04, -2.00455543e-04, 4.12483048e-03,
       -1.30863138e-03, 2.76602968e-03, 2.05528107e-03, -2.98545987e-04,
       1.37829781e-02, 6.88847853e-03, -2.45911628e-03, -4.74916212e-03,
       -2.34811311e-03, 1.84964971e-03, 1.30607153e-03, -7.00928131e-03,
       1.01594292e-02, 2.53941771e-03, 5.97064709e-03, 9.33329924e-04,
       -3.70854116e-03, 6.06014905e-03, -3.47167253e-03, -5.93773695e-03,
       -7.05853477e-03, 3.13471211e-03, -1.70851673e-03, -3.11178574e-03,
       1.29612824e-02, 1.17088873e-02, 2.30134604e-03, -4.49044257e-03,
       -6.22245669e-03, -6.28168182e-03, -2.37369281e-03,
       -1.68809539e-03, 3.76818865e-03, 1.06684286e-02, 9.27883480e-03,
       -1.10532262e-03, -2.37832610e-05, 1.11460977e-03, -1.31495968e-02,
       -2.86460621e-04, -5.36015909e-03, -9.21472255e-03, 8.67195369e-04,
       8.77243001e-04, -2.01132544e-03, -6.14719884e-03, -7.97239039e-03,
       -1.09511726e-02, -5.10177063e-03, -1.06732817e-02, 3.88797163e-03,
       1.41371023e-02, 1.13564730e-02, -3.00397095e-03, -6.61348645e-03,
       -1.28682796e-02, -8.95631034e-03, -4.71255183e-03,
       -5.22325933e-03, -3.29642859e-03, 8.47612601e-03, 8.03670287e-03,
       -3.26288259e-03, -1.60966925e-02, -1.14716748e-02,
       -1.08936969e-02, -4.84380592e-03, -1.73869124e-03,
       -2.49012862e-03, -3.83588788e-03, 5.74868219e-03, -1.03401430e-02,
       -5.23955701e-03, -5.96995791e-03, -5.51904645e-03, 1.18405535e-03,
       -7.32034212e-03, 3.26427468e-03, 1.23336921e-02, 1.36164809e-02,
       -6.53749239e-03, -4.53758566e-03, -2.20117276e-03,
       -6.46098470e-03, -2.05276115e-03, -6.23071380e-03,
       -2.22357200e-03, 3.97260301e-03, 1.45712798e-03, -2.95138080e-03,
       -8.47557653e-03, -1.90475432e-04, -8.62114306e-04,
       -3.01300734e-03, 6.74399780e-03, -6.31820512e-06, -2.36068596e-03,
       2.58563715e-03, -4.45118593e-03, 1.03525619e-03, 2.31440668e-03,
       1.15365556e-05, -5.62854158e-03, -1.28305971e-03, -4.71294113e-03,
       -4.73499158e-03, -5.80083299e-03, -4.37882449e-03, 3.17725702e-03,
       -3.28569720e-03, -5.70908596e-04, -4.91546327e-03,
       -2.04941817e-03, -1.30588061e-03, 3.94149544e-03, 5.53694414e-03,
       -1.20695052e-03, 3.87672964e-03, -9.00060218e-03, -7.77534078e-05,
       -2.79671280e-03, -4.11531841e-03, -1.47276896e-03,
       -1.08166656e-03, -3.11761093e-03, -4.57073981e-03, 2.37250631e-03,
       4.46349964e-04, -3.01234657e-04, 2.73255428e-04, 1.09476186e-02,
       -1.20552955e-03, -8.14745668e-03, -9.17315576e-03,
       -4.45753243e-03, 2.37312820e-03, 3.97119904e-03, 2.70757615e-03,
       6.69336820e-04, 8.43111333e-03, -5.94426272e-03, -4.08672076e-03,
       -8.97136144e-03, -5.13311708e-03, 3.76251666e-03, -1.21598877e-02,
       -4.97386185e-03, 2.86464812e-03, 3.20938043e-03, 2.63502658e-03,
       1.02518480e-02, -6.60644379e-03, -1.57901575e-03, 8.13839305e-03,
       1.41276349e-03, 3.68060055e-03, 7.34898960e-03, 1.09552508e-02,
       -6.91607734e-03, 1.79187790e-03, -9.50947125e-03, -9.46086948e-04,
       8.68141931e-03, 3.45824077e-03, 6.92571397e-04, 3.24891577e-03,
       2.52831029e-03, -3.39794927e-03, -7.40621705e-03, -1.14383250e-02,
       3.00099794e-03, 1.00216735e-02, 4.91024344e-04, -4.12187306e-03,
       -2.22982047e-03, -3.61699495e-03, 6.23816997e-03, 2.29887897e-03,
       -3.01370583e-03, 7.83594418e-03, 1.23507455e-02, 2.83739972e-03,
       -6.26954297e-03, -2.35533761e-03, 1.97724206e-04, -1.46439055e-03,
       -3.82377789e-03, -1.45041738e-02, 3.99795081e-03, 6.83592679e-03,
       6.79713630e-05, -8.80837068e-03, -1.25105940e-02, -2.64278729e-03,
       2.58357311e-03, 1.27444835e-03, -3.88722890e-03, 5.58850542e-03,
       9.13873035e-03, -1.43701443e-03, -1.01544112e-02, -7.50789139e-03,
       -1.17175526e-03, 1.74195017e-03, 7.36422464e-03, 2.06788350e-03,
       4.32604458e-03, -1.10300863e-03, -7.09123618e-04, -1.22003667e-02,
       -4.33437945e-03, 2.21368624e-03, -1.68076390e-03, 8.74983671e-04,
       -5.88462781e-03, -3.38777620e-03, 8.44487268e-03, 1.34207588e-03,
       -4.37718304e-03, -1.10102501e-02, -3.23247281e-04,
       -1.74312573e-03, 9.96996742e-03, 3.96857457e-03, 4.90467716e-03,
       -1.85495114e-03, -1.03935308e-03, -2.10999278e-03,
       -4.81804321e-03, 1.09200859e-02, -1.63517462e-03, -1.87849673e-05,
       -1.17875985e-03, -5.17438119e-03, 1.07838074e-02, 7.90933613e-03,
       -4.44230950e-03, 4.04340308e-03, 2.94062658e-03, 9.34736454e-04,
       -2.71456409e-03, -8.18125717e-03, 7.60518527e-03, 3.43304964e-05,
       -2.22373037e-05, -5.02009364e-03, 1.15899986e-03, -4.09718230e-03,
       -1.48208556e-03, -6.12187898e-03, -5.67737129e-03,
       -1.46627193e-03, 3.56452935e-03, 3.38115590e-03, 4.26994462e-04,
       -1.38251821e-03, 1.38958422e-02, 4.42897493e-04, 2.93862144e-03,
       -1.04344822e-03, 5.88988885e-03, -2.23576347e-03, -1.23610697e-03,
       -6.18877029e-03, -6.92820875e-04, 3.14076152e-03, 3.19740386e-04,
       3.99744837e-03, 3.90353310e-03, 2.36630323e-03, 1.45816861e-03,
       -2.38724425e-03, -1.98770757e-03, 7.32734613e-03, 9.53783467e-03,
       2.07345045e-04, -4.27395757e-03, -5.13137598e-03, 4.09526564e-03,
       4.28371597e-04, -3.80838336e-03, -3.83781712e-03, -3.03458539e-03,
       7.40750926e-03, -3.45079112e-04, -6.76190760e-03, 1.16402953e-05,
       2.68292427e-03, 4.17354470e-03, -3.63060599e-03, -3.42569733e-03,
       7.89651182e-03, 1.01776430e-02, -5.69262449e-03, -4.00934881e-03,
       4.45886428e-04, 7.05325929e-03, 2.93589011e-03, 3.41546698e-03,
       -3.05141031e-04, 3.87401716e-03, 4.36287280e-03, -6.32131880e-04,
       -6.92198984e-03, -2.38443562e-03, 1.59746082e-03, 1.55916833e-03,
       -6.35487027e-03, -6.29078131e-03, -1.07249068e-02, 3.66984517e-03,
       -2.58194050e-03, -6.17998128e-04, 5.89577900e-03, 4.92366962e-03,
       1.02444561e-02, -5.54424385e-03, 1.34541560e-03, -4.74746153e-03,
       5.12079056e-03, -1.52881793e-03, 2.20574345e-03, 4.63614846e-03,
       8.40352662e-03, -4.71394393e-04, -4.30535583e-04, -2.84041814e-03,
       -2.36026454e-03, -1.74388895e-03, -6.57110382e-03,
       -1.09533733e-02, -3.63581860e-03, -3.73613834e-03, 3.15682171e-03,
       1.75278896e-04, -1.37114455e-03, -5.54233184e-03, 5.15376404e-03,
       -6.50592195e-03, -6.59146206e-03, -2.90619791e-04,
       -2.76487786e-03, -1.44420355e-03, 1.60415727e-03, -1.73845608e-03,
       -4.31460002e-03, 6.25705719e-03, 6.23046746e-03, -3.23064183e-03,
       7.14354124e-03, 2.41726855e-04, 4.22032550e-03, 1.71469816e-03,
       -1.28077122e-03, 1.17316248e-03, -4.25978145e-03, -4.49001836e-03,
       -8.76180734e-03, 7.44765392e-03, 5.76732960e-03, -7.19338981e-03,
       8.99249781e-03, 5.85835520e-03, 6.04726560e-03, 8.73897783e-03,
       1.35941785e-02, -4.66974539e-04, 6.15762954e-04, -1.09248422e-02,
       -4.17244807e-03, 5.03634615e-03, 6.61587995e-03, 1.08921407e-02,
       9.73048527e-03, -3.37581616e-04, 2.01973366e-03, 4.11874615e-03,
       -6.27860101e-03, 5.89783303e-03, 1.74215611e-03, -1.09559053e-03,
       4.39110771e-03, 3.05172359e-03, 7.23980134e-03, 3.98195442e-03,
       2.86954851e-03, 6.83757104e-03, 4.11807466e-03, 1.30008161e-03,
       -9.21616144e-03, -5.01578255e-03, -1.66383456e-03,
       -6.86030486e-04, 6.44422416e-03, 3.63696204e-03, -4.96583804e-03,
       -4.06747265e-03, 2.07640394e-03, 2.91490764e-03, 8.96413904e-03,
       1.16892979e-02, 4.78725415e-03, 6.93437364e-03, 2.82531697e-03,
       -2.57545430e-03, -7.23364064e-03, -7.23107904e-03,
       -1.72175490e-03, -9.54039337e-04, -8.48884752e-04, 5.08096861e-03,
       1.53872715e-02, 2.99647800e-04, -9.30402521e-03, 8.90308060e-04,
       1.17814040e-03, -1.69721199e-03, -4.44112066e-03, 1.20243682e-02,
       2.07104534e-03, 6.03405293e-03, 7.47061893e-03, -6.65634451e-03,
       -6.56102493e-04, -3.01048462e-03, 1.48648198e-03, -1.05196144e-03,
       8.60269740e-03, -7.08038500e-03, 1.21905177e-04, -4.04411490e-04,
       -2.40706466e-03, -4.99011902e-03, -6.46207668e-03,
       -1.07154867e-03, -4.35721595e-03, 7.60487560e-03, 4.08571213e-03,
       1.04889860e-02, 1.40577625e-03, -1.01180673e-02, -1.94873253e-03,
       -7.04363082e-03, 2.66274600e-03, -6.25840388e-03, 6.82084309e-03,
       2.58499000e-04, 7.59453699e-03, 8.18406581e-04, 2.22214963e-03,
       -3.59949050e-03, -6.54700678e-03, 9.18135920e-04, 2.58569722e-03,
       4.25202958e-03, -2.32417136e-03, -4.59987950e-03, 1.15497957e-03,
       -3.48443678e-03, -9.44127562e-04, -2.66129477e-03, 2.80187116e-03,
       -1.95434457e-03, 9.25379619e-03, -2.54286942e-03, -1.98938628e-03,
       4.11356753e-03, 3.20756040e-03, 5.42537600e-04, -4.82902955e-03,
       8.51753075e-03, 9.72337439e-04, -3.26917809e-03, 5.13249543e-04,
       2.92969169e-03, 4.94866073e-03, 5.33643551e-03, 7.24382326e-03,
       4.39087453e-04, 4.29460313e-03, -6.43704378e-04, -1.27290061e-03,
       2.40506697e-03, 3.62124969e-03, 8.88961740e-03, 9.52889491e-03,
       -1.43308984e-03, 1.74844533e-03, -4.47003031e-03, -3.23251309e-03,
       2.78486148e-03, -3.77338985e-03, -3.60968756e-03, -3.23829101e-03,
       -2.47113337e-03, 5.17060468e-03, -1.34205190e-03, -9.88224801e-03,
       1.60037365e-03, 2.32651993e-03, -4.50645713e-03, 7.49610085e-03,
       3.30482027e-03, 9.70645342e-03, 7.30749732e-03, 9.05409222e-04,
       -4.35962388e-03, -1.50911196e-03, 3.55765224e-03, -6.24275301e-04,
       4.05768072e-03, 7.67831178e-03, 7.67995929e-03, 6.43987255e-03,
       -2.26144330e-03, -3.88930878e-03, -1.97688607e-03, 3.33417300e-03,
       -2.68392940e-03, 9.41764284e-03, 6.62390422e-03, 9.33062378e-03,
       5.06215263e-03, 1.86370150e-03, -3.22911120e-03, 3.63661442e-03,
       1.15844617e-02, -8.47924326e-04, -1.34163664e-03, -1.77452003e-03,
       6.47988962e-03, -4.57168184e-03, -1.07984338e-03, -2.88185105e-03,
       -5.80525305e-03, 1.55164290e-03, -3.32742278e-03, -5.01905009e-03,
       -7.14032957e-03, 1.61872711e-03, 4.67519974e-03, -1.20669941e-03,
       5.33401780e-03, 7.45379459e-03, 1.56269781e-02, -1.39655196e-04,
       5.18332515e-03, 1.53199013e-03, 2.45768204e-03, 5.40105533e-03,
       8.81937239e-03, 5.06363576e-03, 3.46620241e-03, 1.05801392e-02,
       -3.14046419e-03, -2.48664920e-03, -5.04693249e-03, 7.77707947e-03,
       3.16226622e-03, 7.70033197e-03, -5.46464929e-04, 1.93159911e-04,
       3.11950571e-03, -1.46491057e-03, -8.10412411e-03, -1.19105009e-02,
       -8.88948212e-04, 1.00124441e-03, 9.05291736e-03, 1.45919656e-03,
       -2.63698702e-03, 9.41686518e-03, 1.02370558e-02, 6.18155056e-04,
       -1.21459961e-02, -7.64611701e-04, 4.04188689e-03, 8.64198711e-03,
       2.90938560e-03, 4.55497624e-03, 8.43322463e-03, -1.40084210e-03,
       -3.14425491e-03, -1.44307436e-02, -5.84386010e-03, 1.10642915e-03,
       9.23643820e-03, 2.49251188e-03, 2.90910690e-03, 1.52640324e-02,
       5.67464158e-03, -1.23887369e-03, -1.29625639e-02, -3.19245481e-03,
       -5.89751522e-04, 1.70035788e-03, -5.03339851e-03, -2.24646344e-03,
       -2.32250686e-03, 9.48303193e-03, -1.03785330e-03, -7.64573971e-03,
       -2.64574797e-03, 6.91515487e-03, -6.35821198e-04, -6.07400155e-03,
       -3.40082822e-03, -1.13426587e-02, -6.46258064e-04, 4.00416600e-03,
       -4.58647357e-03, 1.88572262e-03, 5.28274057e-03, -1.20672630e-03,
       -6.59352168e-03, 7.91697530e-04, 4.49883845e-03, 8.60068656e-04,
       2.32701912e-03, -2.56079971e-03, 5.14568237e-04, -1.33780460e-03,
       4.07853251e-04, -3.02311988e-03, -6.39202539e-03, 1.48410234e-03,
       7.50843482e-03, 9.23458580e-03, 5.09608071e-03, -5.94361406e-03,
       5.17072482e-03, -5.44062932e-04, -9.98371979e-05, -6.00290112e-03,
       -1.54933212e-02, -5.31308877e-04, 5.31260949e-03, -2.64513353e-03,
       -3.20137129e-03, 2.21976428e-04, -6.22896710e-03, -1.00993714e-03,
       -2.43902687e-04, -1.09887281e-02, 3.39354272e-03, 3.61860567e-03,
       -4.19819495e-03, -4.04808298e-03, -2.85660499e-03,
       -2.73058098e-03, -1.06863002e-03, -8.67917016e-03,
       -3.48292431e-03, 4.64049540e-03, 9.47489869e-03, 8.19388125e-03,
       -1.04604266e-03, 2.31673219e-03, -3.76424822e-03, 3.99011420e-03,
       2.75979680e-03, -3.56756942e-03, 1.56954292e-03, 6.33206777e-03,
       3.11111961e-03, 4.45292518e-03, 4.53683315e-05, -1.04513643e-02,
       1.07707677e-03, 4.79340646e-03, 2.05702556e-04, 7.64838932e-03,
       -2.53850187e-04, -6.45049987e-03, -2.33974284e-03, 3.86378757e-04,
       -2.74324487e-03, 8.60377587e-03, 6.47035195e-03, 9.04479623e-03,
       4.69464716e-03, -3.41620459e-03, 2.20374321e-03, 6.72851456e-03,
       1.00178120e-03, -8.57791491e-03, 4.55814041e-03, 3.88217252e-03,
       -2.70961807e-03, 1.32151833e-03, 4.77965083e-03, 1.68014562e-03,
       6.09511556e-03, 2.00384366e-03, -8.04651901e-03, 5.52526559e-04,
       -3.29058734e-03, -1.42986560e-03, 2.08692183e-03, 3.76453111e-03,
       4.58130176e-04, 1.16597405e-02, 3.14007769e-03, 1.86417648e-03,
       5.47430385e-03, 2.94377049e-03, 8.21155217e-03, 7.38853239e-04,
       3.69092129e-04, -7.84388336e-04, 2.65529077e-03, 3.39601160e-04,
       -3.18090571e-03, 7.74240587e-04, 2.03057542e-03, 3.42128100e-03,
       6.56543486e-03, 1.55659672e-03, -2.42593815e-03, -2.83363368e-03,
       2.95442366e-03, -5.84467174e-03, -2.24635261e-03, -4.44049761e-03,
       7.09078927e-03, -3.54097487e-04, -8.27504089e-04, 2.38021673e-03,
       7.30822561e-03, -5.29411575e-03, 1.84845179e-03, 3.37177888e-03,
       7.52403028e-03, 1.93995296e-03, 1.48716033e-03, -7.57531403e-03,
       -9.04460810e-03, -7.31604267e-03, -8.68449453e-03,
       -9.38005745e-03, 2.11442297e-04, 1.82803697e-03, 7.39996461e-03,
       -3.01227323e-03, -2.70834030e-03, -6.66013965e-03,
       -1.33303357e-02, 5.19916590e-04, -3.57516273e-03, 9.18015372e-03,
       1.59200244e-02, 6.15820615e-03, -3.20955925e-03, 5.94507903e-03,
       -1.74635055e-03, -7.26684509e-03, -4.86381166e-03,
       -9.57455428e-04, -2.97042937e-03, 4.48017195e-03, 3.14454292e-03,
       -3.32126743e-03, -8.40637088e-03, -1.23683969e-02,
       -1.16821704e-02, 2.89861020e-03, -1.00042648e-03, 4.31378139e-03,
       8.81081540e-03, 2.17187381e-03, -2.97391252e-03, 7.55488919e-03,
       -2.89803138e-03, -1.55359958e-04, -7.66331982e-03,
       -7.82189611e-03, 7.42694829e-04, 5.87191898e-03, 4.71591344e-03,
       4.54021327e-04, 1.72825414e-03, -6.63038576e-03, -5.49697410e-03,
       5.52719086e-03, 1.28770131e-04, -1.01745606e-03, -1.36649993e-03,
       -1.90737401e-03, -4.26994683e-03, -4.10556793e-03,
       -3.47650680e-03, 9.03592631e-03, 4.54332912e-03, -3.96890566e-03,
       -2.12414446e-03, 2.32060021e-03, -5.96344398e-05, 3.44765070e-03,
       9.41458251e-03, 2.30929945e-04, -1.11008005e-03, 1.09078512e-02,
       6.05719723e-03, -2.67466018e-03, 3.16745369e-03, -2.91268760e-03,
       7.57701043e-03, 7.24606402e-03, -3.38021573e-03, 5.97986067e-03,
       4.93880920e-03, 3.23661719e-03, 4.22205916e-03, -7.81667605e-03,
       -9.67263523e-03, -4.80573531e-03, -3.43571184e-03, 4.09901235e-03,
       7.74329994e-03, 2.09246599e-03, 3.23495333e-04, -7.82951014e-04,
       2.78238696e-03, 1.42847036e-03, -1.59063318e-03, -9.17229685e-04,
       2.68431590e-03, 2.59554991e-03, 6.52032299e-03, 5.88202430e-03,
       3.19950469e-03, -3.62529582e-03, -7.64989946e-03, -7.29943439e-03,
       3.16950004e-03, -8.24696326e-04, 5.13041066e-03, 4.29067574e-03,
       2.25171167e-03, -3.95562872e-03, -5.27663389e-03, -6.77822158e-03,
       -7.11841090e-03, 5.52863069e-03, 5.44815836e-03, 4.40641213e-03,
       -3.42580071e-03, -2.09457963e-03, -4.84360708e-03,
       -5.59996162e-03, -1.37669372e-03, -6.59684418e-04,
       -9.44460742e-04, -6.74306788e-03, -2.59937719e-03,
       -3.14614689e-03, -8.94865952e-03, -1.30543560e-02,
       -3.15024517e-04, 2.13376503e-03, -6.31809293e-04, -2.52240058e-03,
       -5.83710894e-03, -2.41717789e-03, 2.05744524e-03, 4.95866057e-04,
       -3.80779966e-04, -6.22398406e-03, 7.27924125e-05, -4.28958423e-03,
       7.17998715e-03, 2.50639976e-03, 1.46103685e-03, -6.69697672e-03,
       -4.99936612e-03, -1.85443810e-03, 6.55795541e-03, 2.41795764e-03,
       7.97710568e-03, 8.46056733e-03, 7.29658129e-03, -2.06674170e-03,
       2.70211883e-03, -3.69226257e-03, -1.29584940e-02, -7.50101451e-03,
       4.16783057e-03, -1.50961778e-03, 2.99161486e-03, 7.80282659e-04,
       -7.57654838e-04, -1.05850003e-03, -4.96368110e-03,
       -7.69048044e-03, -6.02609757e-03, -5.35431411e-03,
       -1.86779816e-03, 4.91907168e-03, -9.13618424e-04, -8.63674190e-03,
       -2.57018907e-03, -4.10343288e-03, 4.31516208e-04, -2.49429978e-03,
       -7.57837415e-06, 9.75190662e-03, 1.64065715e-02, 1.44003993e-02,
       1.28082186e-03, -5.00817085e-03, -5.56064816e-03, 3.37806356e-04,
       -5.22328634e-03, -1.73400820e-03, 3.12446849e-03, 9.26455390e-03,
       4.54290910e-03, -4.86695673e-03, -5.11093298e-04, -3.79698421e-03,
       -1.80815361e-04, 4.02274309e-03, -7.05918670e-03, -2.50181672e-03,
       9.56358016e-03, 3.72676732e-04, -8.60004779e-03, 4.40913066e-03,
       -2.92726583e-03, -7.62903539e-04, -6.81862887e-03,
       -1.72790524e-03, -2.18849001e-03, 7.32855313e-03, 3.65689769e-03,
       7.31905631e-04, -5.66616515e-03, -6.96655409e-03, 2.21452047e-03,
       3.89151275e-03, -7.51757016e-03, -3.20035592e-03, -2.11256905e-03,
       -8.16704333e-03, -1.02114035e-02, -6.60486345e-04,
       -5.38955722e-03, -3.78536782e-03, -9.61290020e-03,
       -9.15223174e-03, -2.40784977e-03, 6.44654594e-03, -1.12478668e-02,
       -2.34509725e-03, 8.36824253e-03, 4.61946533e-04, 4.53083823e-03,
       -5.15568582e-03, -2.84145842e-03, -1.39149989e-03, 1.15565024e-02,
       -4.80412593e-04, -1.12719822e-03, 3.11957672e-03, -1.25851026e-02,
       1.32399984e-03, -7.19390460e-04, 3.33488290e-03, -1.03458925e-03,
       2.39420752e-03, -1.05189867e-02, -8.90239142e-03, 3.80383525e-03,
       -2.68638181e-03, -2.99852807e-03, -1.08918305e-02,
       -5.97064942e-03, 6.09658612e-03, 2.10854579e-02, 2.32758801e-04,
       5.49033564e-03, 5.16416784e-03, -1.10333320e-02, -2.90338346e-03,
       -6.85090525e-03, 4.64755314e-04, 2.83154706e-03, 1.22998180e-02,
       -8.72281101e-03, -2.84831808e-03, 6.97546033e-03, -1.01628089e-02,
       -8.99369712e-04, 2.26153526e-03, -2.81233876e-03, 2.79484247e-03,
       1.11813815e-02, -5.05909510e-03, -5.15245413e-03, 5.07693458e-03,
       -4.99298098e-03, 3.88602028e-03, 7.31991488e-04, 6.68401457e-03,
       -3.15565127e-03, 6.45075459e-04, -1.05081014e-02, -2.63358047e-03,
       1.87727320e-03, -9.63131059e-03, 2.02018768e-03, 3.08816577e-03,
       -2.48741056e-03, 1.95265363e-03, 9.05287452e-03, -7.88275898e-03,
       -5.12799900e-03, -5.21704962e-04, -4.94028861e-03, 7.61155691e-03,
       1.42183132e-03, 5.90053480e-03, 1.72073347e-03, 6.40594354e-03,
       -4.71679401e-03, -1.10396715e-04, 1.48166008e-02, -2.59324024e-03,
       -2.77860905e-03, -2.75450875e-03, 7.01914215e-03, -1.32477412e-03,
       3.96243500e-04, -1.02590015e-02, 5.19176293e-03, 1.12849176e-02,
       -2.69338838e-03, -4.97973477e-03, -1.07185300e-02,
       -2.90280586e-04, 2.73478706e-03, 4.25255485e-03, 2.25560361e-04,
       8.14555958e-03, 1.03392890e-02, -6.92717033e-03, 9.91792185e-04,
       -8.15735757e-03, 4.93334560e-03, -2.57027801e-03, 6.41927170e-03,
       3.39606690e-04, 1.05939684e-02, 5.53347869e-03, -2.64935312e-03,
       -3.36760655e-03, -8.24128650e-03, -1.69842818e-03,
       -1.70149928e-04, 4.30374313e-03, 2.30209203e-03, 1.51530420e-03,
       7.60851847e-03, 5.06121293e-03, -1.78670033e-03, -9.94858891e-03,
       4.52531874e-03, 2.16789381e-03, 1.06813656e-02, 8.52465071e-03,
       7.21040042e-03, 3.67424713e-04, 1.19287148e-03, 7.43683602e-04,
       -3.75854992e-03, 8.29503499e-03, -2.93204165e-03, 8.68585717e-04,
       9.52435890e-04, -3.49064940e-03, 3.05585470e-03, 1.89259846e-03,
       -3.95283848e-03, -6.95008831e-03, 3.54826846e-03, 5.07804705e-03,
       1.46686584e-02, 1.10424515e-02, 1.97525392e-03, 1.52347004e-03,
       1.47428201e-03, -1.47321250e-03, -5.35986852e-03, -3.88544472e-03,
       -1.67514302e-03, 1.14059169e-03, 4.84806485e-04, -5.04165795e-03,
       -5.66595409e-04, 5.98136429e-03, -6.26898778e-04, -3.70253436e-03,
       4.77153528e-03, -2.10823677e-03, -2.55868700e-03, -1.18725712e-03,
       7.71272578e-04, 1.54763577e-04, 4.71936335e-04, -3.37716122e-03,
       -1.63339288e-03, 1.66542293e-03, -4.51602828e-04, 2.32594809e-03,
       7.33719347e-03, 2.11185636e-03, 7.71597307e-03, 4.51474357e-03,
       -7.53298460e-04, -1.67366024e-03, 3.18380422e-03, -2.39623175e-03,
       -6.66133501e-03, -4.52135270e-03, 4.81559522e-03, 1.89429824e-03,
       5.41020324e-03, 2.42115301e-03, 3.25109647e-03, 4.34918003e-03,
       -6.00185385e-03, -3.47675383e-03, 7.30334409e-03, 2.43185577e-03,
       -3.92734399e-03, -5.03482297e-03, -1.00268109e-03, 3.73005820e-03,
       4.28704871e-03, -5.97154303e-03, -2.77591473e-03, 2.17710994e-03,
       -3.05222464e-03, 1.00193436e-04, 1.83315319e-03, 6.05345296e-04,
       -2.97484896e-03, -4.37127007e-03, 3.86701926e-04, -2.32201349e-03,
       -2.81166821e-03, -2.97372136e-03, -7.70003907e-03, 4.36490960e-03,
       7.48269353e-03, 4.05032467e-03, 1.22557506e-02, -6.27599191e-03,
       -1.71855313e-03, 4.37087798e-03, -4.42523602e-03, -6.32525189e-03,
       2.96171987e-03, 5.37324091e-03, -4.43318393e-03, -6.95272908e-03,
       -4.13084729e-03, -3.41917644e-03, -3.98079646e-06,
       -4.35447582e-04, -5.34268213e-04, -1.14400522e-03,
       -2.50936346e-03, -4.34237858e-03, -5.15770819e-03, 1.19310757e-03,
       -8.46582092e-03, -1.98142324e-03, -1.23156852e-03, 7.25597795e-03,
       -2.95296870e-03, -4.23468417e-03, -8.56337883e-03,
       -3.59654194e-03, -6.66831562e-04, -4.96441592e-03, 2.93106143e-03,
       6.44778134e-03, 6.57974649e-03, -2.80743325e-03, -1.12026825e-03,
       -8.38894490e-03, -1.32887764e-02, 1.71352737e-03, -4.76659974e-03,
       -3.03508551e-03, 5.13092987e-03, 8.95464420e-03, -9.09942784e-04,
       1.56062865e-03, -9.11172386e-03, -6.29136479e-03, 3.51712736e-03,
       -3.74109880e-03, -3.09283519e-03, 9.59058199e-03, -5.49605116e-03,
       7.85504561e-03, 5.25187282e-03, 1.24966148e-02, 7.61606405e-03,
       8.65965243e-03, -2.51700543e-03, -2.19700523e-04, -5.87264961e-03,
       -1.82671053e-03, -1.80147286e-03, 2.69447407e-03, 1.19485119e-02,
       5.50215831e-03, -1.41598657e-03, -5.56484621e-04, 4.63681435e-03,
       -5.93813835e-03, -5.07992983e-04, 3.62234307e-03, 3.40391370e-03,
       6.69074710e-03, -3.79349035e-03, 2.95297266e-03, -7.63250235e-03,
       -6.18028687e-03, 3.74947005e-04, -1.81821489e-03, -1.95382163e-03,
       2.67047668e-03, 3.98704223e-03, -1.45054748e-02, -3.83709907e-03,
       -9.44032799e-03, -2.63561355e-03, 6.71064528e-03, -2.27536238e-03,
       8.70049465e-04, 1.64471241e-03, 1.10356463e-02, 8.17108434e-03,
       3.87046742e-03, 3.72840418e-03, 6.07606908e-03, -2.53203674e-03,
       -1.13851822e-03, -9.91890486e-03, -8.29910021e-03,
       -3.68377822e-03, -4.22520284e-03, 3.75967985e-03, 1.19784838e-02,
       6.52071740e-03, 6.16953941e-04, -2.81487429e-03, -4.30320622e-03,
       4.08590399e-03, 1.35293137e-03, -9.98332258e-03, -1.04798365e-03,
       -6.27819542e-03, 8.15539825e-05, 3.40566644e-03, 2.89232150e-04,
       -3.94730316e-03, -4.78284806e-03, -9.54303425e-03,
       -8.52572452e-03, 1.83693366e-03, 4.50283242e-03, 2.83383741e-03,
       5.93038392e-04, -3.77233932e-03, -7.46613042e-03, -3.89682176e-03,
       1.13284891e-03, -1.84013115e-05, 3.73475393e-03, 6.43474050e-03,
       3.67310736e-03, -6.63332816e-04, 4.85520490e-04, -6.43535808e-04,
       -2.55756406e-03, -7.66931800e-03, -6.65918109e-04, 1.09040622e-04,
       -2.37709307e-03, -4.84733190e-03, -1.91039476e-03, 2.15605204e-03,
       6.78068900e-04, -2.04174034e-03, -5.06888796e-03, -2.34619924e-03,
       1.09547609e-03, -4.34863068e-05, -1.86523073e-04, 7.31806911e-04,
       6.87699951e-03, 3.69349308e-03, -1.70958648e-03, -2.92049209e-03,
       3.19909747e-03, 1.80840446e-03, -3.36357480e-04, -9.17911250e-03,
       1.52409822e-03, 3.21432995e-03, 1.88414729e-03, 3.69619764e-03,
       -1.97358872e-03, -2.24112789e-03, -1.28629661e-04,
       -5.83562488e-03, -1.20972958e-03, 1.64713489e-03, 6.20017946e-03,
       -4.23777150e-03, -3.98571417e-03, 3.67558049e-03, -7.06318300e-03,
       5.31900208e-04, -1.27495476e-03, -5.94163837e-04, 4.43735998e-03,
       3.48940305e-03, -1.84009914e-04, -1.43027829e-03, 5.97080449e-04,
       5.53247705e-03, 2.89787585e-03, -4.23621213e-06, -8.31011590e-03,
       -1.46691001e-03, 5.02136955e-03, -4.13844269e-03, -3.62348533e-03,
       8.67213309e-03, 7.89522845e-03, 1.86811725e-03, 4.78316704e-03,
       -4.20882087e-03, -1.67429890e-03, 1.06858509e-02, -1.30431214e-03,
       -9.53469332e-03, -3.35865840e-03, 3.38311307e-03, 1.08985230e-04,
       8.21137510e-05, 2.57495116e-03, 4.12354805e-03, 7.51652941e-03,
       -5.56807558e-04, -1.87042134e-03, -1.97872607e-04, 7.34243030e-03,
       -2.96716252e-03, 1.24143565e-03, -6.39290723e-04, 2.13095057e-03,
       4.69890842e-03, -2.21924810e-03, -6.39190432e-03, -3.12232156e-03,
       -3.34011391e-03, -2.48069130e-03, 8.67782976e-04, -9.66012292e-03,
       -4.48077917e-03, 2.28966726e-03, -1.70651183e-03, 7.90227205e-03,
       -9.06115514e-04, 8.15727166e-04, -3.55308712e-03, 3.52563825e-03,
       -2.08093580e-02, -7.26871798e-03, 3.72437807e-03, -1.31109636e-03,
       1.66421139e-03, 5.61830355e-03, 8.15370586e-03, -3.29649705e-03,
       -3.29422671e-03, -7.83188641e-03, -8.32598307e-04, 7.61729572e-03,
       1.30982534e-03, -1.77602482e-03, 4.52402281e-03, 3.00869788e-03,
       -3.82889970e-03, 6.97221328e-03, -4.20227041e-03, 5.46978135e-03,
       2.30816985e-03, 1.28362933e-03, 8.75343103e-03, 5.28404489e-03,
       7.59900140e-04, -2.25085299e-03, 2.61511863e-03, -1.59260463e-02,
       -2.90978444e-03, -9.46979970e-03, -4.36174683e-03,
       -2.14727269e-03, 2.27737473e-03, 2.21265829e-03, -7.58541841e-03,
       8.02056922e-04, -2.94387573e-03, -3.29144136e-03, 3.09701031e-03,
       1.92709034e-03, 2.42299269e-04, 5.66367293e-03, 1.05880443e-02,
       5.36976382e-03, 8.86524562e-03, -4.67925938e-03, -3.31081124e-03,
       4.41698619e-04, -6.53899927e-03, 3.12153110e-03, -3.33839329e-04,
       1.20731238e-02, 6.27734466e-03, 6.64142473e-03, -6.44948380e-03,
       5.08588040e-03, -1.28207086e-02, -5.56436554e-03, -1.22117996e-03,
       5.95108955e-04, 1.10390466e-02, 3.66865634e-03, 7.07043428e-03,
       1.15097454e-03, -4.69855731e-03, -6.97990460e-03, -8.10437743e-03,
       8.15722859e-04, -7.98178953e-04, 1.28725125e-02, 8.93043168e-03,
       9.21463780e-03, 1.98136643e-03, -1.57270499e-03, 3.57760873e-04,
       -3.33210011e-03, -1.95302651e-03, 3.68284411e-03, 6.58517471e-03,
       2.86205020e-03, 4.63676779e-03, -2.12049531e-03, 1.02754286e-03,
       -6.05555950e-04, 1.88874325e-03, -7.29527441e-04, -2.71683955e-03,
       3.79187777e-03, 2.94399797e-03, 1.13607757e-02, 5.11666201e-03,
       1.80588663e-03, -2.83661229e-03, -5.35861263e-03, -1.88081828e-03,
       -1.19357673e-03, 4.88330470e-03, 3.90960323e-03, -1.47450750e-03,
       -4.84267985e-05, -9.82003985e-04, -5.39500825e-03, 2.98967585e-03,
       6.95931772e-03, 7.30716996e-03, 8.78838077e-03, -7.64401257e-03,
       -3.77165456e-03, 5.82277607e-05, -4.70166095e-03, -1.04633905e-03,
       -8.63179972e-04, -2.66326731e-03, -6.05982030e-03, 3.65239731e-03,
       -1.92104443e-03, 6.32465491e-03, 5.11725480e-03, -1.61414815e-03,
       -3.73444823e-03, -7.24560069e-03, -3.07383458e-03,
       -2.03307648e-03, -4.73244395e-03, 1.74156891e-03, 8.99465755e-03,
       6.93196710e-03, -4.41291975e-03, -3.58954980e-03, -3.07046017e-03,
       -3.40878568e-03, 1.92705425e-03, 8.29994306e-03, -7.22294999e-03,
       -2.05206731e-03, 5.49410842e-03, -1.09806238e-03, -2.40379572e-03,
       -4.54977294e-03, -7.14700855e-03, -1.13310553e-02,
       -5.43832500e-03, -8.25511408e-04, 6.82385825e-03, 1.33805256e-02,
       -2.45552347e-03, -4.62278165e-03, -1.00590223e-02, 4.08758206e-04,
       2.47831573e-03, -4.60718479e-03, -3.36762075e-03, 4.42173937e-03,
       3.99828627e-04, -6.07124576e-03, -2.62182322e-03, -7.68242450e-03,
       -3.64562235e-04, -8.10895860e-03, -6.33138185e-03,
       -4.46329918e-03, 4.43305587e-03, 3.24597931e-03, 3.93106136e-03,
       -3.17759439e-03, -1.59312331e-03, 3.87153262e-03, 1.23059901e-03,
       -8.70753266e-03, -2.97433930e-03, 3.49537353e-03, 3.58005799e-03,
       -5.27511910e-03, 2.18115351e-03, 1.36906439e-02, 1.56740621e-02,
       9.15933400e-03, -4.52110637e-03, -1.95136305e-03, 4.59854165e-03,
       5.37619041e-03, 2.01351871e-03, -3.85618140e-03, -8.57324339e-03,
       -4.86428058e-03, -9.73420125e-03, -1.12695768e-02,
       -5.24167065e-03, -5.93633065e-03, 3.95731215e-04, 5.78126463e-04,
       -6.01591868e-03, -1.87586120e-03, -1.90006767e-03, 2.31046090e-03,
       3.46999359e-03, 1.16306299e-03, -1.28361927e-02, -1.33928126e-02,
       -7.31209852e-03, 7.88584724e-03, 5.30628208e-03, 1.19598079e-02,
       4.90498682e-03, -8.51213583e-04, -1.08770595e-03, 6.54188509e-04,
       9.88693442e-03, 1.07768839e-02, 8.35097209e-03, 8.17222521e-04,
       4.46472969e-03, 8.15634895e-03, 7.43601983e-03, -6.17973492e-05,
       -5.18240547e-03, 6.98453048e-03, 1.32030360e-02, -1.30716269e-03,
       7.28602579e-04, -6.87745865e-03, 1.18928950e-03, -4.25506057e-03,
       -4.78255143e-03, -1.36635834e-02, -1.24601359e-02,
       -2.21528998e-03, 7.80255627e-03, -3.85903497e-03, -6.88510668e-03,
       -7.37761613e-04, -2.89018638e-03, 1.61220448e-03, 6.50694594e-03,
       -2.36985134e-03, -3.66644526e-04, 4.01206873e-03, -3.44097614e-03,
       -5.31675993e-03, 2.32174643e-03, -1.52585749e-03, -8.20789393e-03,
       -4.68396069e-03, 8.56332108e-03, 3.74570535e-03, 2.71745189e-03,
       5.35890087e-03, -3.55005288e-03, 1.31404973e-04, -9.14176740e-03,
       -7.51859555e-03, 2.96658161e-03, 8.21679365e-03, -5.15360944e-03,
       1.62611040e-03, -2.17530923e-03, -4.32148064e-03, 2.20303948e-04,
       2.20274227e-03, 3.28335608e-03, 2.31611100e-03, -4.63655079e-03,
       -6.31241081e-03, 7.08269468e-03, 8.23079515e-03, -2.07806763e-04,
       6.19307114e-03, 7.15527730e-03, -9.04051936e-04, 2.05238326e-03,
       -1.00802500e-02, -1.65111362e-03, 2.78045796e-03, 4.56246111e-04,
       -3.70561518e-03, 2.02199980e-03, 1.54321850e-03, -3.20367864e-04,
       -6.78688462e-04, -1.15775398e-03, -4.85481182e-03, 4.81136609e-03,
       5.48997987e-03, -4.71086860e-05, 1.00330617e-02, 1.07667847e-02,
       -2.07918556e-03, -5.27787022e-03, -9.90424026e-03,
       -7.72928877e-04, 8.24201945e-03, 7.91952666e-03, 1.47956528e-03,
       -1.75186992e-03, -1.54388114e-03, -7.86361191e-03, 6.68587768e-03,
       -2.83737644e-03, 1.84052566e-03, 5.15558664e-03, -1.18879041e-04,
       -3.13444086e-03, -8.55531730e-03, -1.24991080e-02,
       -5.81349665e-03, 3.88636906e-03, -3.78942955e-03, -9.29958536e-04,
       8.11508484e-03, 2.33717519e-03, 3.18628596e-03, -3.10893776e-03,
       1.00043730e-03, 1.19736791e-03, 3.68364435e-03, -1.90028071e-03,
       2.07784562e-03, 5.78708248e-03, -1.12434872e-03, -3.45419277e-03,
       -5.28558856e-03, -4.85240947e-03, 5.52851357e-04, 1.22095840e-02,
       -2.37821066e-03, 7.09188025e-05, 2.25128513e-03, -1.84940267e-03,
       -4.16018767e-03, -9.52106714e-03, -4.29232605e-03,
       -8.28977674e-03, 9.63445473e-03, 4.99256747e-03, 7.52136996e-03,
       -5.48166409e-03, -5.18336147e-03, -4.77013225e-03, 1.67094066e-03,
       -1.36569259e-03, -2.51625828e-03, 1.44507522e-02, 7.68055860e-03,
       4.72517358e-03, 2.94846320e-03, -7.85108842e-03, -6.59912033e-03,
       -2.17523403e-03, 4.12506796e-03, -4.47042286e-03, 9.29765031e-03,
       6.37931516e-03, 4.10929992e-04, -1.34743536e-02, -1.60143469e-02,
       -1.28941368e-02, -3.25757801e-03, -4.53517912e-03,
       -9.59601533e-03, 1.18243070e-02, -2.39412315e-04, -8.49673618e-03,
       -8.13081488e-03, -4.40625520e-03, -1.06772082e-03,
       -3.01506696e-03, -4.03680652e-03, 3.82484938e-03, 2.01085135e-02,
       9.14703961e-03, -4.49484400e-03, -1.17822718e-02, -4.46555112e-03,
       8.31095316e-03, -4.66074212e-04, -4.96258773e-03, 4.08523018e-03,
       1.25062428e-02, -2.84924917e-03, -1.24984542e-02, -7.77639030e-03,
       -9.37310699e-03, -9.09498800e-03, -5.59304282e-03, 6.89053163e-03,
       2.93722516e-03, 2.54655406e-02, 7.16596376e-03, -1.26079954e-02,
       -7.47876195e-03, 6.59113226e-04, -8.77619372e-04, -6.26414269e-03,
       8.27835989e-04, 3.96217871e-03, 2.01241281e-02, 5.26467757e-03,
       -1.64704397e-02, -5.57509996e-03, 2.59916508e-03, 1.04587115e-02,
       5.00272308e-03, -5.79701876e-03, 2.04005628e-03, 2.39723129e-03,
       -7.73484772e-03, -1.23519013e-02, -3.57021042e-03, 2.11794089e-04,
       3.00388853e-03, -4.51605860e-03, -9.15662292e-03, 5.18349372e-03,
       5.54340007e-03, -9.71631613e-03, -2.26396928e-03, -1.45756046e-03,
       1.73283613e-03, 8.54629464e-03, -4.00432386e-03, -1.29978731e-03,
       6.94422750e-03, 1.49962250e-02, 3.32053984e-03, -7.48650264e-03,
       1.19974406e-03, 9.17351223e-04, 5.57948416e-03, -4.86415811e-03,
       2.01925146e-03, -1.23488042e-03, -5.37629705e-03, -8.72977078e-03,
       -2.79458333e-03, 9.84730432e-04, -4.02160746e-04, -1.35245163e-03,
       -7.71610020e-03, -7.08838832e-03, 5.15841879e-03, 1.53844552e-02,
       -1.62155251e-03, 4.76544257e-03, 3.89731326e-03, -5.69678284e-03,
       -4.79624001e-03, -3.29657900e-03, -7.72019988e-03, 3.69974156e-03,
       8.20221100e-03, -2.75947666e-03, 3.14977113e-03, -3.24652484e-03,
       -1.09254429e-03, -6.87507913e-04, -5.69637725e-03,
       -8.50520853e-04, 2.63362448e-03, 5.68196084e-03, -5.13474224e-03,
       -6.90384163e-03, -3.57279531e-03, -5.79522830e-03,
       -1.35186140e-03, 2.34157802e-03, -2.30175862e-03, -2.11375672e-03,
       3.16225877e-03, -1.73063471e-03, -7.62341253e-04, 5.24439244e-03,
       -9.97321098e-04, 4.26359894e-03, 1.68276019e-05, 3.84301087e-03,
       -1.56723231e-03, 3.96311795e-03, -9.59392730e-03, -1.91002584e-03,
       -1.55449100e-03, -3.47161735e-03, 4.79261251e-03, -2.28697294e-03,
       3.29405698e-03, -2.62583070e-03, 2.74720509e-03, -7.80796306e-03,
       -2.65957974e-03, -1.00646373e-02, -6.03461219e-03, 1.28545286e-03,
       5.70665637e-04, -3.16413795e-03, -3.71605420e-04, 5.94780548e-03,
       -5.85691305e-03, -1.28844939e-02, -6.94880588e-03, 7.34020816e-03,
       1.50510697e-02, 4.49178182e-03, 9.08673275e-04, -8.22431035e-03,
       4.06516343e-03, -9.53640416e-03, -1.98826492e-02, 2.45474488e-03,
       -6.42672880e-03, 3.20672919e-03, -2.78598466e-03, 3.71672772e-03,
       -7.14676874e-03, 4.79703536e-03, -2.40859808e-04, 5.29563660e-03,
       5.57646900e-03, -2.33201380e-03, -4.39365162e-04, 4.53654071e-03,
       -4.05060872e-03, -6.41224580e-03, 8.08117166e-03, 2.69369665e-03,
       7.43560493e-03, -1.40817859e-03, 2.31818296e-03, 9.73478146e-03,
       4.82399249e-03, -2.99332314e-03, -1.09380754e-02, 2.15293420e-03,
       -7.49722356e-03, -1.24523602e-02, 2.96024606e-04, -4.60793148e-04,
       5.82067471e-04, 4.67160717e-03, -1.02263065e-02, -9.13421437e-03,
       2.89433985e-03, -1.54560888e-02, -2.73080636e-03, 9.35023837e-03,
       3.54008074e-03, -2.42363638e-03, -9.94255301e-04, -6.40158542e-03,
       -2.31214892e-03, 4.72313818e-03, 9.80304787e-04, 7.18896091e-03,
       6.84375037e-03, 3.40961898e-03, -2.57393881e-03, -6.18244614e-03,
       -8.43734574e-03, -5.21552563e-03, -2.39406200e-03,
       -8.10057949e-03, -2.58892844e-03, 5.75191155e-03, 1.59026205e-03,
       -5.09101897e-03, -1.30581844e-03, -4.19680076e-03,
       -2.73888145e-04, 7.55459582e-03, -1.03426240e-02, 9.29484668e-05,
       4.20608232e-03, 2.40489026e-03, 3.65403038e-03, 1.04503874e-02,
       -7.40600284e-03, -2.65378738e-03, 8.48984532e-03, -2.84234784e-03,
       -4.89666872e-03, 3.50305834e-03, 2.48686760e-03, -1.64514617e-03,
       -9.21845611e-04, 2.47684168e-03, -5.47162816e-03, -8.44913907e-03,
       -8.58430658e-03, -3.04133585e-03, 9.00281686e-03, 8.64027627e-03,
       2.00452027e-03, -2.08402402e-04, -4.80458315e-04, -1.05894739e-02,
       -1.00500742e-02, 2.63756886e-03, 1.39685685e-03, -5.41691552e-04,
       5.03967609e-03, 1.86337100e-03, 5.89220459e-03, 2.50398344e-03,
       2.55809654e-03, 4.74680308e-03, 1.19547313e-03, -1.07206302e-02,
       -3.96926975e-04, 9.86066740e-03, 6.43140543e-03, 1.69116294e-03,
       -9.67858825e-03, -2.38631666e-03, -1.72511523e-03, 2.63947761e-03,
       -7.44395703e-03, -8.87545873e-04, 9.33572836e-03, 1.24536110e-02,
       -1.30632147e-03, 1.17231626e-02, -7.78330117e-03, -3.53644346e-03,
       4.25811345e-03, -3.87484836e-03, -4.87880455e-03, -2.04227678e-03,
       7.87794031e-03, -2.40534591e-03, -9.03169625e-03, -3.80637147e-03,
       -3.31521337e-03, -1.56029279e-03, -4.58070636e-03, 2.76759290e-03,
       8.93999171e-03, 1.40757645e-02, -1.20970560e-03, -3.01770493e-03,
       -1.60250382e-03, 1.23709266e-03, 6.79846946e-03, -4.48462740e-03,
       1.11822807e-03, 3.13379429e-03, 3.19388323e-03, -2.59971130e-03,
       -1.25358384e-02, 6.57490082e-03, 7.90859479e-03, 5.57320425e-03,
       -1.97590166e-03, 1.75829430e-03, -5.36622340e-03, -4.20278724e-04,
       -1.12228487e-02, -1.28144082e-02, -1.10013163e-04,
       -5.10025350e-03, -8.39850027e-03, -1.14749069e-03, 3.67661036e-04,
       -1.74910913e-03, -7.99101079e-04, -1.00220609e-02,
       -3.13880417e-04, 1.89116923e-04, -5.70457079e-04, -4.17885836e-03,
       8.84911802e-04, 1.26398809e-03, 2.80583976e-03, 6.07866677e-04,
       -7.47159531e-04, -2.30489578e-03, 7.89996516e-03, 3.29509773e-03,
       -3.78364511e-03, -5.30218100e-03, 4.41571814e-04, 6.13549910e-03,
       3.98363825e-03, -2.90368428e-03, 9.47736856e-03, -2.36856379e-03,
       3.81753920e-03, -2.90679443e-03, -4.97025670e-03, 1.75453711e-03,
       -8.12357059e-04, -1.60994183e-03, 4.59757028e-03, 2.95268768e-03,
       7.39568658e-03, -6.93573616e-03, -2.72765220e-03, 5.06135635e-03,
       2.20868713e-03, -1.29213382e-03, 4.38975357e-03, -2.96069396e-04,
       -8.18375498e-03, 2.68404977e-03, -5.93820168e-03, -1.81740685e-03,
       9.70497727e-03, -2.86854059e-03, -6.96748914e-03, -6.21258095e-03,
       3.16497404e-04, 6.80420455e-03, 2.38805683e-03, -5.38925221e-03,
       -1.61205861e-03, -1.80214678e-03, 2.77967495e-03, 2.01166677e-03,
       5.40735992e-03, -5.50227379e-03, -2.25292286e-03, -7.08395906e-04,
       -3.55801778e-03, -1.79714942e-03, 1.94421667e-03, -1.63040753e-03,
       -5.44693880e-03, 6.62850332e-04, -2.90563353e-03, -9.20743588e-03,
       4.79560904e-03, -7.11826654e-03, 1.33979262e-03, 6.38660416e-03,
       1.45825453e-03, 5.47726173e-04, -2.55682482e-03, -1.35139124e-02,
       -5.14955167e-03, 8.95752164e-04, -7.40369270e-03, -6.62688492e-03,
       2.19738786e-03, -3.04207661e-05, -1.11165352e-03, -3.57361790e-03,
       -4.81644133e-03, -4.18572861e-04, 2.75463960e-03, 4.25623544e-03,
       5.50660165e-03, 1.87492464e-03, -8.95323511e-03, -2.04796111e-03,
       -1.45867793e-02, -7.50034396e-03, 7.41534168e-04, 6.21914770e-03,
       7.02964934e-03, 6.61858299e-04, -5.88098075e-04, 7.83783942e-03,
       6.75489008e-03, 4.55069402e-03, -4.78010811e-03, -5.12578664e-03,
       1.65744906e-03, -5.43640088e-03, -5.14644524e-03, 2.90537556e-03,
       9.88267083e-03, 2.58615869e-03, -3.45071172e-03, -5.60875004e-03,
       -3.38205299e-03, 1.74053188e-03, -4.60068788e-03, -8.03335290e-03,
       -1.94183225e-03, -1.96371097e-04, 1.53417164e-03, -7.26210279e-03,
       -3.33948899e-03, 2.15495951e-04, 1.13065320e-03, 3.29417089e-04,
       -3.89154506e-04, 1.41566247e-03, 6.55103184e-04, 1.40498672e-03,
       -6.02567894e-03, -1.70248165e-03, 5.59152989e-03, -7.58173293e-04,
       -2.04390590e-03, -6.37256366e-04, 1.38705829e-03, 3.63673945e-03,
       1.22734962e-03, 5.92515664e-03, 6.36789575e-03, 7.43382378e-04,
       7.95436930e-03, 7.67631968e-03, -2.76576541e-03, -5.32994745e-03,
       5.27803972e-03, -3.19275400e-03, 9.08748014e-04, 6.79335743e-03,
       -6.23401580e-03, 3.22174426e-04, 4.72431444e-03, -4.40030824e-03,
       -2.48584896e-03, -4.80897585e-03, 1.08067633e-03, 4.75066621e-03,
       6.89632306e-03, 8.99492577e-03, 3.01105483e-03, 2.93315505e-04,
       -4.01906995e-03, -9.09163337e-03, 1.50886306e-03, 4.00323933e-03,
       8.65023863e-03, 4.76108957e-03, 2.35144258e-03, 8.15175707e-04,
       -3.73876141e-03, -5.78153739e-03, -7.29379244e-03, 4.45240270e-03,
       -8.29520577e-04, 4.13765293e-03, 2.41779396e-03, -1.30904811e-02,
       -1.78775471e-03, 1.46767139e-04, -8.23496096e-03, -8.83399567e-04,
       -3.58011952e-04, 1.51477405e-03, 1.50213344e-02, 3.38439154e-03,
       -1.29785081e-02, -3.08481348e-03, 5.56100975e-04, -1.15634212e-02,
       -4.01655072e-03, 8.92377459e-03, 5.53935533e-03, 6.69533154e-03,
       3.35584441e-03, -6.57835323e-03, -2.13576859e-04, -5.16506052e-03,
       -3.42151499e-03, -3.91289499e-03, 5.99947013e-03, 3.00910790e-03,
       1.44424709e-02, 1.14634298e-02, -4.25014133e-03, 2.16539158e-03,
       4.96098120e-03, -3.46309436e-03, 1.83350930e-03, 3.42754734e-04,
       5.57207828e-03, 9.00969189e-03, 7.54811056e-03, -5.36065688e-03,
       -4.25866945e-03, -6.38223439e-03, -1.17145786e-02,
       -5.50965872e-03, -3.01604392e-03, -2.99143838e-03,
       -8.36962077e-04, -5.21337148e-03, -3.84249119e-03,
       -3.93277127e-03, 1.02551852e-03, 2.97559774e-03, 3.00807087e-03,
       4.12664423e-03, 4.12326353e-03, 9.80059989e-03, 1.04649756e-02,
       4.97162249e-03, -2.05149921e-03, -5.20930020e-03, -3.14511545e-03,
       4.95536486e-03, 2.16751243e-03, -1.43922953e-04, -3.97436961e-04,
       -9.84702259e-03, 3.83429555e-03, -9.47150402e-04, -3.28291254e-03,
       2.10907822e-03, 1.11258850e-02, -6.19592471e-03, -9.18515120e-03,
       -1.10052153e-03, -8.10844451e-03, -4.88213915e-03, 2.15897243e-03,
       -1.26120646e-03, 1.35992386e-03, 8.40669614e-04, 3.30528943e-03,
       -6.80032792e-03, 2.08921883e-05, -2.50584539e-03, -2.11273041e-03,
       7.78209325e-03, 1.85309837e-04, 4.13250877e-03, -1.23932573e-03,
       4.99151414e-03, 1.70571322e-03, 1.22546812e-03, -1.34003954e-02,
       -1.65200478e-03, 3.73040722e-03, -1.94577361e-03, -3.68572335e-04,
       9.81865078e-03, 1.44422951e-03, 3.69730568e-03, 1.19707165e-02,
       4.46664961e-03, 2.35005794e-03, 1.42133534e-02, 3.01795732e-03,
       -1.95565354e-03, 2.98978644e-03, -5.41055342e-03, -9.28651541e-03,
       -9.25512577e-04, -1.45813369e-03, -3.52510763e-03, 8.45700386e-04,
       -7.06794998e-03, -1.27055414e-03, -2.71717412e-03,
       -9.06108040e-03, 4.65480465e-04, 7.82112870e-03, 8.24514218e-03,
       6.28893124e-03, -8.23724829e-03, -1.20925056e-02, -8.03163275e-03,
       -5.45450440e-03, -1.58585403e-02, -4.34792280e-04, 1.01541411e-02,
       6.16240269e-03, -4.33345977e-03, 6.92983856e-03, 4.36159549e-03,
       -2.92236393e-04, -4.05261246e-03, -1.20364772e-02, 7.93825649e-03,
       1.40910419e-02, 8.98375176e-03, 1.12236766e-02, 7.36632326e-04,
       -1.29203848e-03, -3.98685830e-03, -2.15247879e-03,
       -7.60008581e-03, -3.45963892e-03, -4.89907246e-03, 3.54327657e-03,
       -1.62171546e-05, 1.30768667e-03, -7.42365979e-03, 1.09974330e-03,
       -8.84190854e-03, -1.61081797e-03, -3.47475725e-04,
       -8.09269957e-03, -6.62395917e-03, 3.29149480e-04, 1.79712335e-03,
       -7.50001287e-04, 9.27116070e-03, -6.77552586e-03, -9.48460121e-03,
       2.64164433e-03, 7.11605418e-04, -6.70622475e-03, 3.68751842e-03,
       3.28806625e-03, 1.37119100e-03, 6.69421628e-03, -6.37863996e-03,
       7.18252384e-04, 1.29769724e-02, 1.07932882e-02, 4.34211921e-03,
       6.27832813e-03, 3.91140231e-04, -2.27286178e-03, 9.06570628e-03,
       8.91943273e-05, -1.75939954e-03, 3.25961178e-03, -1.39841915e-03,
       -6.77427917e-04, -1.55359018e-03, -8.04111268e-03,
       -5.35830250e-03, 3.67359747e-03, -6.63189963e-03, 5.91454504e-04,
       -7.13765563e-04, 4.80854232e-03, 1.02096777e-02, -3.55985085e-03,
       -2.18192348e-03, -5.13498380e-04, -8.38495151e-04,
       -2.31204531e-03, 3.25595867e-03, 7.31639983e-03, 1.59304624e-03,
       8.02665576e-03, 5.55627421e-03, -5.82971144e-03, -8.04579910e-03,
       8.38259351e-04, -1.34442569e-04, 4.65780962e-03, -2.21664691e-03,
       -4.20638733e-03, 8.35792813e-03, 8.95645935e-03, -9.58793389e-04,
       6.65889180e-04, 8.21934175e-03, 2.86555407e-03, -2.36224569e-03,
       -4.20747511e-03, 3.76082049e-03, 5.14971092e-03, -8.71009752e-03,
       1.44537259e-03, 5.88086317e-04, 4.44071507e-03, 9.41451988e-04,
       -4.84036794e-03, -7.26629375e-03, 5.65806877e-05, 6.85516093e-03,
       -2.58160476e-03, -7.10369460e-03, -1.13978272e-03, 4.85854410e-03,
       3.09081492e-03, -7.65865436e-03, -7.44296657e-03, -2.08996749e-03,
       -1.41818624e-03, 4.40733088e-03, 6.27286080e-03, 1.03674419e-02,
       1.00192009e-02, 7.69343111e-04, -9.26317647e-03, 9.83010978e-04,
       2.96433084e-03, 6.62904792e-03, 3.45631037e-04, 2.52594659e-03,
       6.58967858e-03, 3.47056636e-03, -5.10523468e-03, -4.96125547e-03,
       -7.64079206e-03, 3.62895022e-04, 5.74832084e-03, 6.35100354e-04,
       -1.49634406e-02, -6.34740433e-03, 2.58690934e-03, -8.46236851e-03,
       -4.01068479e-03, -1.08000694e-03, -1.84659183e-03, 2.53633410e-03,
       -4.10769321e-03, -1.11987740e-02, -4.84310236e-04, 1.46232196e-03,
       -1.43331718e-02, -7.36670801e-03, -4.15234966e-03, 2.42231181e-03,
       3.47167044e-03, -3.99971940e-03, -6.97609270e-03, -1.92458101e-03,
       4.08129953e-03, -1.24116000e-02, 4.28263796e-03, 5.53174270e-03,
       3.71825323e-03, 1.49636820e-03, -1.05371978e-03, -6.45967713e-03,
       4.49664949e-04, 4.75114351e-03, -2.53340718e-03, -2.86792614e-03,
       -5.09718852e-03, -5.79302432e-03, 5.23530832e-03, -3.13228136e-03,
       -3.18568689e-03, -2.73296889e-03, -4.03492199e-03,
       -1.07446285e-02, -1.57138682e-03, -6.42382959e-03,
       -2.43665231e-03, 7.76454434e-03, 3.03058303e-03, -3.18656373e-03,
       -1.21200746e-02, -1.32453544e-02, -8.41875747e-03, 3.85366002e-04,
       -2.09289044e-03, -5.96296415e-03, 3.20294662e-03, -1.50763523e-02,
       -6.32642442e-03, 4.81540943e-03, 2.80448672e-04, -5.32715349e-03,
       5.90977306e-03, 3.93404672e-03, 2.19834480e-03, 1.02430917e-02,
       -5.65990049e-04, 1.60293560e-03, 3.56493494e-03, 1.97916222e-03,
       -2.50681792e-03, 5.93439164e-03, -3.83529463e-03, -3.51509964e-03,
       -3.63473524e-03, -1.04252631e-02, -4.99987835e-03,
       -1.24593417e-03, -5.88267948e-03, 7.64435157e-03, 1.75360206e-03,
       -9.00739338e-03, -5.73895266e-03, -5.57451788e-03,
       -1.35355685e-02, 2.66161188e-03, 1.03112571e-02, 3.61015002e-04,
       3.68502876e-03, 5.56179043e-03, -8.99199105e-04, -8.85021349e-04,
       -4.54943115e-03, -4.13004123e-03, -1.94720039e-03, 7.36582838e-03,
       1.01297330e-02, 7.80489016e-03, -9.50857066e-03, -1.11539010e-02,
       -1.06176520e-02, -6.16589608e-03, -8.36871564e-03, 1.97146717e-03,
       9.14553460e-03, 1.03885224e-02, -5.72464662e-03, 3.20825959e-03,
       -5.35171386e-03, -9.40765254e-03, -2.39731604e-03,
       -5.22263581e-03, 3.54103511e-04, 1.72576029e-02, 3.81137186e-04,
       1.59879006e-03, -5.04387589e-03, -7.27777882e-03, -7.95964804e-03,
       -7.04847183e-03, -6.93117781e-03, 1.14158483e-03, 6.32235920e-03,
       -1.09834718e-02, -1.01586301e-02, -1.01187592e-03,
       -8.26892164e-03, -1.40895741e-02, -2.08409876e-03,
       -1.04668410e-02, 3.25012719e-03, 1.68952923e-02, 1.35481982e-02,
       -9.71902336e-04, 8.38553347e-03, -2.00669747e-03, -1.38004916e-02,
       -1.19076588e-03, -1.30167697e-02, 6.02791901e-04, 1.80887561e-02,
       -5.63972909e-03, -1.15144188e-02, 3.61867412e-03, -6.32991968e-03,
       -9.23208520e-03, -7.29939155e-03, 1.95512385e-03, 2.26014666e-03,
       1.95388608e-02, -7.57318176e-03, -9.48109478e-03, 4.81921202e-03,
       1.25154376e-03, -9.35357809e-03, -1.07134618e-02, -1.15382308e-02,
       6.54208660e-03, 1.70532688e-02, -1.79608574e-03, -1.06259631e-02,
       1.19330129e-02, -6.42407804e-06, -9.39077232e-03, 3.20190389e-04,
       -3.94057669e-03, 1.78915856e-03, 1.85562354e-02, 1.17525400e-03,
       -3.53995338e-03, 8.40602443e-05, -4.06195130e-03, -1.97140723e-02,
       -1.05401287e-02, -9.15420521e-03, -1.27572997e-03, 1.53767001e-02,
       -3.61803756e-03, -1.01017663e-02, 7.54590705e-03, 6.40529324e-05,
       -3.52619379e-03, -7.22812116e-03, -7.46392133e-03, 1.22387079e-03,
       1.98598802e-02, -1.13777758e-03, -4.82742535e-03, 9.52650607e-03,
       1.19932008e-03, -1.25331469e-04, -8.01861845e-03, -8.14398285e-03,
       -1.38245020e-02, 4.84319776e-03, -7.09325355e-03, -6.84000133e-03,
       5.86241297e-03, -1.60303968e-03, -1.00489706e-02, -8.70030653e-03,
       -5.72931720e-03, 5.22218354e-04, 8.35827366e-03, -2.88947485e-03,
       -5.02125872e-03, 7.92816561e-03, 3.86617496e-03, -2.76455050e-03,
       -1.01834545e-02, -2.12444249e-03, -1.08284568e-02, 6.79633487e-03,
       -9.68165882e-03, -1.32518224e-02, -1.14121439e-03, 1.70011062e-03,
       -6.93331053e-03, -6.93148002e-03, 6.67612255e-03, -1.20331172e-03,
       1.22167226e-02, -2.88985996e-03, -5.40708890e-03, -7.25292426e-04,
       -4.01422242e-03, -1.12164160e-02, -1.15115335e-02,
       -1.72810152e-03, 2.69118370e-03, 3.88186215e-03, -4.07161104e-04,
       3.58295307e-04, 1.20655447e-03, 4.86290455e-03, -5.97281521e-03,
       -9.34451818e-03, 8.23340099e-03, -2.93766824e-03, 1.24105373e-02,
       3.81401245e-04, -9.78283212e-03, -3.02384654e-03, -2.84681271e-04,
       -6.48073899e-03, -1.32248811e-02, -2.25346233e-03, 1.04829557e-02,
       1.00735622e-02, -8.83743167e-04, -1.16328346e-02, 7.43042387e-04,
       1.53507048e-03, -4.02482739e-03, -4.12278669e-03, -2.13332777e-03,
       4.62144753e-03, 1.26306806e-02, 3.69470887e-04, -1.23152114e-03,
       1.57059904e-03, 5.97178983e-03, 3.37963738e-03, -3.48500675e-03,
       -1.44728990e-02, -5.02559682e-03, 5.45886857e-03, -2.27126339e-03,
       -7.08968658e-03, 2.76414678e-03, 4.96476190e-04, -2.18551559e-03,
       -6.78087911e-03, 3.22718616e-03, 9.87390615e-03, 7.58011639e-03,
       -2.92972196e-03, -1.01753203e-02, -3.46837705e-03, 1.19928643e-03,
       -2.37609074e-03, -3.38170910e-03, 2.40458222e-03, -4.80896560e-03,
       3.14842514e-03, -9.78017412e-03, -1.64745804e-02, 4.37621586e-03,
       3.99144366e-03, 6.48616906e-03, 2.37220060e-03, 3.46886762e-03,
       -7.10743573e-03, 2.09050253e-03, -1.97199848e-03, -1.57738349e-03,
       3.10687232e-03, 1.85982790e-03, -3.90978903e-03, 3.73776769e-03,
       -3.91658070e-03, -5.85399149e-03, 5.76583296e-03, -1.01330793e-02,
       2.49237288e-03, -3.89666902e-03, 7.93197949e-04, -3.72664561e-03,
       2.33038934e-03, 6.20620046e-03, -8.41831136e-03, 3.16294073e-03,
       -3.81728169e-03, -1.30673805e-02, -3.63276558e-05,
       -4.48507926e-04, -4.89738584e-03, -3.63655575e-03, 1.18050410e-03,
       -1.11464260e-03, 3.92087037e-03, 7.77945621e-04, -6.25711540e-03,
       8.57176166e-03, 2.42319144e-03, -5.99831808e-03, -2.81452318e-03,
       -3.10044573e-03, -5.11677004e-04, 5.91021450e-03, -1.17393676e-02,
       3.09997564e-03, 7.20289210e-03, -1.09760289e-03, -6.53243717e-03,
       1.95209554e-03, 4.31795046e-03, 1.63962890e-03, 1.16997026e-02,
       -1.94762612e-03, 8.74820253e-05, -5.87735383e-04, -3.87219829e-03,
       -7.96943437e-03, -3.34601686e-03, -4.89773089e-03, 8.42061592e-04,
       5.16326865e-03, -3.12731485e-03, -2.83601973e-03, 4.92324261e-03,
       9.44037893e-05, -6.81973994e-03, -6.05848664e-03, -3.89803853e-03,
       -7.22320424e-03, -1.19129778e-03, -5.61294099e-03,
       -1.26185722e-03, -6.44564221e-04, 2.28973664e-03, -9.57945129e-04,
       3.56343645e-03, 9.96328425e-03, -1.53671089e-03, 4.83523682e-03,
       -2.12845230e-03, -5.13349380e-03, -2.55963719e-03, 5.82113210e-03,
       6.37459382e-03, 2.31661275e-03, -4.36669542e-03, -7.00352294e-03,
       3.98701709e-03, 1.56896433e-03, -2.41692713e-03, -4.30897577e-03,
       1.52831734e-03, 4.85460361e-04, -2.06080801e-03, 7.02434639e-03,
       -4.21829242e-03, -7.39004603e-03, -1.04484111e-02,
       -1.02507565e-02, -4.82310820e-03, 7.24462094e-04, 1.18628715e-03,
       -4.75625182e-03, -1.22910854e-03, -8.05843621e-03, 1.29342789e-03,
       -5.94661850e-03, -8.77920364e-04, 1.57001335e-03, 8.07682797e-03,
       1.85309944e-03, -1.02505262e-03, -4.31618141e-03, -4.91650915e-03,
       6.10914826e-03, 1.01732993e-02, 2.35323794e-03, 3.09856352e-03,
       8.88928026e-03, 1.32045324e-03, -3.06234905e-03, -1.12624774e-02,
       9.96185001e-04, 1.16476230e-02, 1.07856691e-02, 1.90645654e-03,
       -9.56552904e-05, 3.05677997e-03, -3.52185196e-03, -4.90725413e-03,
       3.93006951e-03, -6.49269903e-03, 6.96422020e-03, 1.77617255e-03,
       1.70181890e-03, -8.76297522e-03, -3.98729416e-03, 7.66615034e-04,
       -8.38357024e-03, 1.98527053e-03, -8.14701524e-03, 1.18472800e-02,
       3.41752265e-03, -6.67388318e-03, -3.23348073e-03, 7.36321881e-03,
       3.69551848e-03, 2.85249646e-03, -2.46865745e-03, 3.58961918e-03,
       1.20310870e-03, -2.20891437e-03, -6.68106182e-03, 1.41875655e-03,
       4.28507430e-03, 8.40564631e-03, 6.13171840e-04, 3.71879106e-03,
       -4.51960880e-03, -4.89606988e-04, -2.19424648e-04,
       -1.34323991e-03, -1.72494892e-02, -2.97144172e-03, 8.62763729e-03,
       -1.11325074e-03, 6.14169426e-03, -8.95679696e-04, 5.00425650e-03,
       1.33298605e-03, -7.96487555e-03, 9.54077055e-04, -6.64843770e-04,
       6.62975898e-03, 7.56011461e-04, 5.03425859e-03, -6.35887403e-03,
       -5.57581615e-03, 4.11250250e-04, 9.78378928e-04, -4.90826508e-03,
       1.87395967e-03, 1.50706596e-03, 3.69630475e-03, 4.68424987e-03,
       -1.12684863e-03, -5.37485292e-04, 5.38650667e-03, -1.70557096e-03,
       -6.11214142e-04, 8.77798477e-04, 5.88402664e-03, -4.44923528e-03,
       2.64660432e-03, 1.65708689e-03, 3.40446760e-03, 3.24022979e-03,
       4.13459912e-03, 4.85743722e-03, 8.16923101e-03, 3.73339513e-03,
       1.51422538e-03, -8.40619206e-03, -9.46687255e-03, 3.13441758e-03,
       5.51378727e-03, 3.62826162e-03, 3.91094852e-03, 7.70971505e-03,
       9.32635739e-03, -6.19614148e-04, -7.61432282e-04, -3.42152640e-03,
       7.99903553e-03, 5.96486544e-03, 4.46312875e-03, -3.58748832e-03,
       -1.39871775e-03, -3.49023059e-04, -1.02120254e-03, 3.70121677e-03,
       3.44166323e-03, -1.44083635e-03, -6.01040840e-04, -4.74246824e-03,
       -7.86252413e-03, -1.61725609e-03, -7.45108025e-03,
       -3.40422336e-03, -7.56599056e-03, 6.24568108e-03, 3.38717946e-04,
       -3.72725958e-03, -5.01845451e-03, 4.05753218e-03, 9.80937271e-04,
       6.43075071e-03, 2.66461214e-03, 4.60663019e-03, 4.19335812e-03,
       7.76979898e-04, 9.60676931e-04, -2.26762239e-03, -2.08897935e-03,
       4.55280329e-04, -4.09131404e-03, -3.08675994e-03, -6.57832855e-03,
       5.80811407e-03, 3.67848086e-04, -3.86196561e-03, -3.76033504e-03,
       -2.52745417e-03, -1.87520473e-03, -4.39801766e-03,
       -4.69623413e-03, -4.09867847e-03, 3.00722639e-03, 2.45751883e-03,
       8.47125251e-04, -1.03009434e-03, -2.75426870e-03, 9.31788585e-04,
       -2.20851507e-03, -5.26473392e-03, -7.92472810e-03,
       -1.37453794e-03, -1.00373803e-03, -2.55902135e-03,
       -2.77023506e-03, -2.09247181e-03, 2.52382853e-03, 4.03073267e-04,
       -4.45426936e-04, -2.78517185e-03, 5.89259842e-04, -1.15854130e-03,
       -1.77067693e-03, -3.17621231e-03, 6.53433707e-03, 1.14153381e-02,
       5.64558757e-03, 1.52847951e-03, -8.97816196e-03, -5.01773879e-03,
       -5.73218381e-03, -2.98064924e-03, 4.49934695e-03, -3.35339457e-03,
       2.22190004e-03, 3.68041336e-03, 1.54029520e-03, -4.51689679e-03,
       1.12532137e-03, -2.46307370e-03, -6.35820953e-03, -1.04438085e-02,
       -3.40921659e-04, -1.08981552e-03, 1.83516217e-03, -8.41969508e-04,
       -8.50532742e-05, 2.62851897e-03, -6.48948969e-03, -8.41147732e-03,
       -1.03134951e-02, 1.31287202e-02, 8.21960159e-03, 2.79970770e-03,
       -6.54522853e-04, -5.73176146e-03, -3.45398812e-03,
       -7.14263413e-04, -4.33742488e-03, 5.54957055e-03, 1.13092726e-02,
       3.53974849e-03, 1.37629430e-03, -2.59203254e-04, -2.82228878e-03,
       3.79414950e-03, 8.28352384e-03, -3.62053164e-03, -5.47270523e-04,
       1.53112249e-03, 1.92500389e-04, -3.31746181e-03, 3.44283064e-03,
       -6.56478386e-03, 4.09527536e-04, -5.75848855e-03, -7.44970003e-03,
       -9.95897781e-03, 7.06098927e-03, 6.63057494e-04, 1.72196690e-03,
       7.15928338e-03, -3.89203266e-03, 2.61646276e-03, 4.31426009e-03,
       -4.32951143e-03, 1.77178788e-03, 7.20922090e-03, 8.89878068e-03,
       -1.50169944e-06, 5.38996002e-03, 5.90090523e-04, 3.46807670e-03,
       7.49344938e-03, -1.06487738e-03, -3.08443722e-03, 1.11737633e-02,
       7.59159168e-03, -1.42755324e-03, -4.81908070e-03, 4.32859920e-03,
       1.10774936e-05, 1.36263529e-03, 2.99254945e-03, 9.02784243e-03,
       5.33009134e-03, -2.12370954e-03, -6.47421461e-03, -4.00866335e-03,
       -6.40247623e-03, -2.59735412e-03, -2.26666016e-04, 2.85871630e-03,
       2.60963128e-03, 1.02117495e-03, -1.07553322e-03, -2.91679031e-03,
       -3.45649919e-03, 5.27934579e-04, 3.85981868e-03, -5.63615235e-03,
       5.41487057e-03, 8.59879982e-03, 5.46315080e-03, 5.20564103e-03,
       -5.84923942e-03, -1.45084718e-02, -8.33045971e-03,
       -6.96655270e-03, -4.36747633e-03, 6.99431635e-03, 4.42761695e-03,
       -7.63765303e-04, -4.57096816e-04, -2.56100763e-03, 3.71411559e-04,
       1.27149303e-03, -2.62051518e-03, 2.01007235e-03, 1.18908789e-02,
       6.39727991e-03, 2.32266588e-03, -4.13089758e-03, -6.74830144e-03,
       -6.35977183e-03, -8.85077287e-03, 7.96966895e-04, -8.15010909e-03,
       2.15187087e-03, 6.21612463e-03, 4.06283856e-04, -5.41486405e-03,
       -3.74908885e-03, -5.42755565e-03, -1.19343726e-02, 6.35976670e-03,
       2.41422257e-03, -2.86077033e-03, 2.22205308e-05, -2.58240825e-03,
       -8.04755185e-03, -5.80813130e-03, -4.61473176e-03,
       -5.30464016e-03, -6.61688112e-03, 2.19277153e-03, 1.11772558e-02,
       6.52606692e-03, 7.63185974e-03, -3.47390794e-03, 1.75381603e-04,
       -3.21968016e-03, -4.63131024e-03, 6.99987542e-03, 7.86035880e-03,
       1.04341628e-02, 1.41286412e-02, -1.10707413e-02, -6.05123676e-03,
       1.41134404e-03, 1.79717597e-03, -3.07689002e-03, 5.47443051e-03,
       1.29630114e-03, -2.16869847e-03, -2.76475563e-03, -1.56574864e-02,
