<?xml version="1.0"?>
<opencv_storage>
<stage4>
  <maxWeakCount>7</maxWeakCount>
  <stageThreshold>-2.2455935478210449e+00</stageThreshold>
  <weakClassifiers>
    <_>
      <internalNodes>
        0 -1 1053488 2.2444885224103928e-02</internalNodes>
      <leafValues>
        -1.7940270900726318e+00 2.7327185869216919e-01</leafValues></_>
    <_>
      <internalNodes>
        0 -1 2872551 9.5047266222536564e-04</internalNodes>
      <leafValues>
        -1.0763615369796753e+00 4.4493016600608826e-01</leafValues></_>
    <_>
      <internalNodes>
        0 -1 4996932 -1.7618392594158649e-03</internalNodes>
      <leafValues>
        4.9860534071922302e-01 -7.4265110492706299e-01</leafValues></_>
    <_>
      <internalNodes>
        0 -1 4211537 -7.7206250280141830e-03</internalNodes>
      <leafValues>
        1.3143118619918823e+00 -3.6891549825668335e-01</leafValues></_>
    <_>
      <internalNodes>
        0 -1 4166196 2.4970026061055250e-05</internalNodes>
      <leafValues>
        -1.1433843374252319e+00 4.3595039844512939e-01</leafValues></_>
    <_>
      <internalNodes>
        0 -1 4250709 1.3299584388732910e-03</internalNodes>
      <leafValues>
        4.0777966380119324e-01 -2.3028769493103027e+00</leafValues></_>
    <_>
      <internalNodes>
        0 -1 3982823 -1.6232588677667081e-04</internalNodes>
      <leafValues>
        -1.8699166774749756e+00 2.9624155163764954e-01</leafValues></_></weakClassifiers></stage4>
</opencv_storage>
