<?xml version="1.0"?>
<opencv_storage>
<stage1>
  <maxWeakCount>7</maxWeakCount>
  <stageThreshold>-1.8905036449432373e+00</stageThreshold>
  <weakClassifiers>
    <_>
      <internalNodes>
        0 -1 1912093 3.6438670009374619e-02</internalNodes>
      <leafValues>
        -1.8711092472076416e+00 2.3131176829338074e-01</leafValues></_>
    <_>
      <internalNodes>
        0 -1 4815652 5.4830671288073063e-03</internalNodes>
      <leafValues>
        -6.9894385337829590e-01 6.7817389965057373e-01</leafValues></_>
    <_>
      <internalNodes>
        0 -1 3113147 -8.4165134467184544e-04</internalNodes>
      <leafValues>
        4.5250836014747620e-01 -1.3920445442199707e+00</leafValues></_>
    <_>
      <internalNodes>
        0 -1 4679614 -1.4940086985006928e-03</internalNodes>
      <leafValues>
        5.2680617570877075e-01 -1.3255279064178467e+00</leafValues></_>
    <_>
      <internalNodes>
        0 -1 2074537 -5.3491787984967232e-03</internalNodes>
      <leafValues>
        7.7893817424774170e-01 -6.6547203063964844e-01</leafValues></_>
    <_>
      <internalNodes>
        0 -1 3684750 -2.5344116147607565e-04</internalNodes>
      <leafValues>
        -2.2888157367706299e+00 4.0691971778869629e-01</leafValues></_>
    <_>
      <internalNodes>
        0 -1 4400480 -1.6387409414164722e-04</internalNodes>
      <leafValues>
        4.2622250318527222e-01 -5.7564578056335449e+00</leafValues></_></weakClassifiers></stage1>
</opencv_storage>
