<?xml version="1.0"?>
<opencv_storage>
<stage5>
  <maxWeakCount>7</maxWeakCount>
  <stageThreshold>-2.0577158927917480e+00</stageThreshold>
  <weakClassifiers>
    <_>
      <internalNodes>
        0 -1 2143367 1.6477823257446289e-02</internalNodes>
      <leafValues>
        -1.8910837173461914e+00 2.0410997793078423e-02</leafValues></_>
    <_>
      <internalNodes>
        0 -1 4166891 4.3016865674871951e-05</internalNodes>
      <leafValues>
        -1.0323669910430908e+00 4.2490926384925842e-01</leafValues></_>
    <_>
      <internalNodes>
        0 -1 3684744 -2.2549499408341944e-04</internalNodes>
      <leafValues>
        -2.3325111865997314e+00 3.5892271995544434e-01</leafValues></_>
    <_>
      <internalNodes>
        0 -1 3459984 -2.9845215613022447e-04</internalNodes>
      <leafValues>
        4.8458462953567505e-01 -1.3015534877777100e+00</leafValues></_>
    <_>
      <internalNodes>
        0 -1 4528755 1.3518575578927994e-03</internalNodes>
      <leafValues>
        -5.9420090913772583e-01 9.0443140268325806e-01</leafValues></_>
    <_>
      <internalNodes>
        0 -1 4762559 1.1405929690226912e-03</internalNodes>
      <leafValues>
        -5.1847738027572632e-01 1.0391433238983154e+00</leafValues></_>
    <_>
      <internalNodes>
        0 -1 4116192 -5.3447885438799858e-03</internalNodes>
      <leafValues>
        9.9433934688568115e-01 -4.8908320069313049e-01</leafValues></_></weakClassifiers></stage5>
</opencv_storage>
