%YAML:1.0
---
detector_l: !!opencv-object-detector-hog
   winSize: [ 200, 200 ]
   blockSize: [ 16, 16 ]
   blockStride: [ 8, 8 ]
   cellSize: [ 8, 8 ]
   nbins: 9
   derivAperture: 1
   winSigma: 4.
   histogramNormType: 0
   L2HysThreshold: 2.0000000000000001e-01
   gammaCorrection: 1
   nlevels: 64
   signedGradient: 0
   SVMDetector: [ -1.09299275e-04, -1.04295257e-04, -3.89419147e-04,
       -6.02342514e-03, 5.58138452e-03, 2.59160437e-03, 1.41399866e-03,
       -3.64854326e-03, 1.39188953e-03, 7.10418099e-05, -7.72583357e-04,
       7.02545571e-04, -6.16271561e-03, 8.90289899e-03, -2.82781766e-05,
       3.21151386e-03, -6.50194520e-03, -2.38262769e-03, 2.82617845e-03,
       -3.82925780e-03, -1.01520224e-02, -5.86199667e-03, 1.27230994e-02,
       4.85441601e-03, 3.85565427e-03, 4.84166294e-03, 9.50828847e-03,
       5.79280872e-03, 1.51411199e-03, 4.92110243e-03, 5.37286699e-03,
       7.59337796e-03, -1.01993221e-03, 2.84259999e-03, -9.36932280e-04,
       4.79886495e-03, -2.02393596e-04, 1.86506659e-03, 8.88112409e-04,
       1.97654101e-03, 1.30735384e-02, 1.12509821e-03, 4.19444311e-03,
       5.49278548e-03, -2.91115651e-03, -9.27799847e-03, -3.45844892e-04,
       -4.80959564e-03, 5.66940398e-05, 6.39445800e-03, 6.66785659e-03,
       5.22042345e-03, 1.72419345e-03, -1.05806338e-02, 2.89676804e-03,
       1.77780318e-03, -1.21993374e-03, 5.34019573e-03, 8.24500620e-03,
       -1.42118870e-03, 1.62924989e-03, 1.07221969e-03, -3.74596869e-03,
       -9.94972605e-03, 4.94181924e-03, 4.64745006e-03, 2.48182070e-04,
       1.93632219e-03, 6.25634799e-03, 5.97828813e-03, -1.51129335e-03,
       -1.00167617e-02, -5.90462144e-03, 2.46812776e-03, 6.15634909e-03,
       -2.53115804e-03, 6.98257750e-03, 1.23948662e-03, 2.69876537e-03,
       -3.21604987e-03, -1.09459879e-02, -3.91102489e-03, 3.00882006e-04,
       5.33085829e-03, -4.88885120e-03, -6.06482849e-03, -8.62236228e-03,
       -3.60589242e-03, -4.46949329e-04, -3.99906235e-03,
       -4.63930331e-03, 6.22011861e-03, 1.20987967e-02, -1.56133366e-03,
       2.80636922e-03, 4.59178118e-03, 1.12393033e-03, -3.85001092e-03,
       -6.48956792e-03, 1.03369514e-02, 1.16137555e-03, 1.04654357e-02,
       -1.97814358e-03, -3.12746200e-03, 1.21200352e-03, -1.43973820e-03,
       -3.61243333e-03, 5.13358461e-03, -1.93392497e-03, 3.82679817e-03,
       7.59192929e-03, -7.44580850e-03, -1.25786681e-02, -8.23894050e-03,
       -4.33431705e-03, 1.80815288e-03, -4.07047197e-03, 1.52189867e-03,
       1.19403657e-02, 1.99097898e-02, 5.34976774e-04, 8.20040936e-04,
       -1.20557770e-02, 4.73699998e-03, 7.61769945e-04, -3.91174247e-03,
       9.91257932e-03, 1.55600579e-03, 7.53089460e-03, -4.99858381e-03,
       3.46553326e-03, 2.18890724e-03, -1.35868473e-03, 2.35714950e-03,
       9.56795178e-03, 4.42175521e-03, -4.51968936e-03, 7.48514710e-03,
       -1.98891084e-03, 6.17417227e-03, -8.62601772e-03, -3.07507045e-03,
       1.57822773e-03, 4.80608968e-03, -2.99756695e-03, 1.02091311e-02,
       1.80844404e-02, 4.46991250e-03, 7.43665779e-03, -1.12062301e-02,
       -3.42833623e-03, 5.11758029e-04, -4.27455129e-03, 3.05328649e-05,
       -3.60178505e-03, 3.44820577e-03, 7.96715356e-03, 1.46078449e-02,
       -9.37520154e-03, -7.82207004e-04, 9.63660982e-03, 5.97688882e-03,
       -2.80207884e-03, -7.14709377e-03, 1.18011842e-03, -5.66553324e-04,
       7.41312001e-03, -9.45364032e-03, -7.09609920e-03, 2.95940693e-03,
       -4.56860471e-05, 7.03118742e-04, -5.61504299e-03, 1.90799808e-04,
       1.97280571e-03, -5.89210400e-03, -1.00686410e-02, -1.43507566e-06,
       5.57469763e-03, 7.70881679e-03, -5.43617597e-03, -6.11584354e-03,
       -3.35324113e-03, -1.09552091e-03, -8.01973976e-03,
       -3.34930816e-03, 5.56541514e-03, 7.88095500e-03, 1.07833638e-03,
       1.76603475e-03, -9.85418097e-04, -8.78881779e-04, -6.92478335e-03,
       3.81548423e-03, 3.68786138e-03, 5.25740255e-03, -7.35920563e-04,
       7.43775745e-04, -1.90012774e-03, -3.61435860e-03, -1.20472012e-03,
       -5.19223604e-03, -1.26989400e-02, -4.84425947e-03, 4.66155959e-03,
       7.27835437e-03, 1.10017171e-03, 2.14295811e-03, 5.93193434e-03,
       8.75840895e-03, -5.35637233e-03, 6.36856211e-03, 3.20783746e-03,
       2.14189407e-03, -4.60917421e-04, 1.14369590e-03, -1.12583034e-03,
       -3.67365777e-03, -5.90389362e-03, -6.49226271e-03, 6.57843426e-03,
       4.61718533e-03, -5.14123123e-03, -6.67496771e-03, 2.86474358e-03,
       7.22275989e-04, -2.46642181e-03, -3.49753723e-03, -3.15137487e-03,
       9.51604918e-03, -2.09806254e-03, -6.37546461e-03, -1.05287950e-03,
       4.39711893e-03, -4.56302892e-03, -2.41720736e-05, -8.31379904e-04,
       -2.57403986e-03, -2.95395404e-03, 4.10584686e-03, -5.37490938e-03,
       -9.24277306e-03, -6.01232611e-03, -2.12665158e-03, 4.87798447e-04,
       -3.89287528e-03, -7.18281232e-03, -4.19810414e-03, 9.57151875e-04,
       2.12842366e-03, -1.72190601e-03, -5.59986336e-04, -8.92599288e-04,
       -5.32967830e-03, 2.11638369e-04, -1.92354410e-03, -2.10100668e-04,
       -5.45405643e-03, -5.90289989e-03, -3.74877313e-03, 3.41825699e-03,
       1.37196912e-03, -7.76507659e-03, -3.23557854e-03, 5.31053403e-04,
       1.06973751e-02, 1.36908120e-03, -8.18358210e-04, -1.31910469e-03,
       6.00738963e-03, 1.83005049e-03, -3.08361975e-03, -2.92718387e-03,
       -5.19354735e-03, -2.32427428e-03, -3.55053926e-03, 1.86432479e-03,
       1.03949418e-03, 3.47179477e-03, 5.96625358e-03, -5.63762570e-03,
       -1.56292249e-03, 8.12431984e-03, 6.30642287e-03, -4.91690496e-03,
       -2.79261352e-04, -6.11002743e-03, 3.23890103e-03, 2.07219156e-03,
       -3.85475671e-03, -6.37803739e-03, -1.45359372e-03, 6.45717024e-04,
       -2.96689547e-03, -9.65484418e-03, -5.68160601e-03,
       -2.58387509e-03, 5.34438016e-03, 6.39259629e-03, 2.44418462e-03,
       3.15565732e-03, 6.26522955e-03, -2.56515341e-03, -3.91791295e-03,
       -1.55486888e-03, 1.51888863e-03, 3.98075441e-03, 3.32553894e-03,
       -2.05945806e-03, 3.08463629e-03, 5.86853642e-03, -1.22623122e-03,
       -9.08391085e-03, -1.11269774e-02, -5.26409131e-03, 5.19412989e-03,
       8.54162499e-03, -1.27532869e-03, 3.80349392e-03, 9.28300899e-03,
       -2.90727033e-03, -8.26022215e-03, -8.85507185e-03,
       -6.35427795e-03, 2.83080223e-03, 4.96226223e-03, 3.83792864e-03,
       4.15069237e-03, -7.26790458e-04, -6.96958916e-04, -2.98808492e-03,
       9.23102256e-04, -4.36273956e-04, 5.93790924e-03, 5.76455053e-03,
       6.03363151e-03, 4.47207829e-03, 1.09480799e-03, 1.95031753e-03,
       -3.66955600e-03, -2.08078627e-03, 1.10930263e-03, -4.13329341e-03,
       8.04554962e-04, -2.71517492e-04, 2.53779441e-03, 2.00572819e-03,
       -6.30993629e-03, -5.64345252e-03, -8.44310317e-03,
       -1.01844352e-02, -4.34874371e-03, -6.91042398e-04, 3.21868435e-03,
       5.07418625e-03, 8.16215761e-03, -3.99143249e-03, -4.41893609e-03,
       -1.54512487e-02, -4.21547331e-03, 2.28369609e-03, 2.01244303e-03,
       9.25451424e-03, 3.62975919e-03, 5.54896332e-03, 6.26943912e-03,
       7.43114576e-03, 1.98079343e-03, 5.10139740e-04, 3.95160494e-03,
       -2.15179706e-03, 5.31796180e-03, -2.24663620e-03, -3.99520434e-03,
       3.32567561e-03, 5.95930079e-03, -9.81441583e-04, 2.50290614e-03,
       -5.01946546e-03, -7.39186630e-03, 2.54452869e-04, -1.71112537e-03,
       1.03840493e-02, 7.31125660e-03, 3.49950301e-03, -6.98716985e-03,
       2.39848089e-03, 4.64532524e-03, -6.62183808e-03, 3.74665554e-03,
       -1.21651981e-02, -2.09151898e-04, 2.24601454e-03, 3.80068901e-03,
       -3.56119894e-03, 7.72838341e-03, 3.46701569e-03, 1.01494463e-03,
       8.49205628e-03, 2.12880969e-03, -7.33771885e-04, 2.84508127e-03,
       2.94620334e-03, -2.92754057e-03, 6.61644386e-03, 8.98077339e-03,
       3.85567849e-03, 7.18681561e-03, -4.85995505e-03, 1.30868459e-03,
       -1.14693958e-02, -3.34599381e-03, -6.87769614e-03, 5.83852641e-03,
       5.82546368e-03, -1.75643491e-03, 9.71552078e-03, -2.89372099e-03,
       2.93149496e-03, -6.01298409e-03, 2.40781344e-03, -1.62562565e-03,
       1.23062450e-02, 4.51813859e-04, 4.94393054e-04, 7.72505067e-03,
       -3.90330353e-03, 1.32416876e-03, -1.42107503e-02, -8.71750247e-03,
       -6.34027040e-03, 4.14266158e-03, 7.03336205e-03, 2.37680087e-03,
       2.53564725e-03, -5.01386588e-03, -5.87777235e-03, -7.90947862e-03,
       -5.41155785e-03, -3.01323575e-03, 5.84469223e-03, 2.74796877e-03,
       1.38102286e-03, 4.52415505e-03, 2.08149757e-03, -1.38697462e-04,
       -3.69034125e-03, -3.81538738e-03, 1.61149923e-03, 1.17672402e-02,
       -8.45775357e-04, -8.22138740e-04, 4.22946364e-03, -5.84765989e-03,
       -6.24902605e-04, -8.92990734e-03, -5.89553313e-03,
       -1.35346886e-03, 7.00034807e-03, 6.87589915e-03, 9.26426053e-03,
       8.23749043e-03, -4.88765817e-03, 3.12788412e-04, -5.70533657e-03,
       -6.49434514e-03, -1.81908428e-03, 9.43727884e-03, -2.08065915e-03,
       4.47977131e-04, 2.14041327e-04, -3.91389430e-03, -2.73026293e-03,
       -6.83743088e-03, -5.79456752e-03, 5.11070155e-03, 9.65847075e-03,
       -7.12825393e-04, 2.60759308e-03, 4.18130262e-03, -5.67770221e-05,
       2.88828369e-03, -6.69033779e-03, -1.83155108e-03, 2.15102150e-03,
       4.37313784e-03, 3.82677116e-03, 6.16086787e-03, 4.58410243e-04,
       -1.17804743e-02, -6.41698483e-03, -1.16911456e-02,
       -4.78941156e-03, -6.28811016e-04, 1.09914355e-02, 2.80721998e-03,
       4.84667299e-03, -1.33040972e-04, -8.17714375e-04, 1.46165839e-03,
       -6.49063149e-03, 4.57910821e-04, 3.42635484e-03, 6.18602801e-03,
       5.03176637e-03, 9.53278039e-03, 1.19588571e-02, 6.90640416e-04,
       -1.36574823e-03, -2.11294298e-03, 1.61767961e-03, 9.10812756e-04,
       9.37235169e-03, 1.40071958e-02, 1.33561874e-02, 5.23043331e-03,
       -1.81657204e-03, -5.90723474e-03, -1.22086899e-02, 1.11062790e-03,
       7.23812636e-03, 1.26618408e-02, 2.07381812e-03, 7.42007932e-03,
       2.31122854e-03, -1.21478492e-03, -2.15399079e-03, -1.09830254e-03,
       5.31631662e-03, 6.26670243e-03, 6.55806996e-03, 4.50305361e-03,
       1.03741158e-02, 3.75854986e-04, -7.05019012e-03, -2.17114878e-03,
       -8.63059517e-03, 2.18476774e-03, 7.10391346e-03, 2.04392779e-03,
       6.91356603e-03, 7.24042719e-03, -7.06309685e-04, -1.04539876e-03,
       3.74992320e-04, -7.86091015e-03, -6.00097526e-04, 6.32485328e-03,
       9.38717183e-03, 7.92739168e-03, -1.44846644e-03, -5.21001499e-03,
       -4.68456012e-04, 1.57803074e-02, -4.60972602e-04, -3.19157680e-03,
       5.86969685e-03, 9.80370026e-03, 4.90862411e-03, 5.98174101e-03,
       -2.34911311e-03, -3.44105973e-03, -3.58949928e-03,
       -6.51848735e-03, 2.84301559e-03, 3.82209686e-03, 1.16454938e-03,
       6.42359117e-03, 8.39135373e-06, -7.34683033e-03, -3.65907652e-03,
       1.07116643e-02, -6.12028362e-03, -5.90849714e-03, 5.57660707e-04,
       6.12403126e-03, -1.53398316e-03, -7.57284462e-03, -6.90753944e-03,
       -3.18354322e-03, 1.97298769e-02, -5.00183040e-03, -7.98732322e-03,
       -9.24875440e-06, 1.94306590e-03, -5.87523822e-03, 3.66602035e-04,
       8.66023220e-06, 6.97098346e-03, 1.56260803e-02, 2.19794433e-03,
       -9.29328054e-03, 1.82298559e-03, -2.39980360e-03, 5.52149781e-04,
       3.73319420e-03, -5.66016277e-03, -4.56608227e-03, 8.03977158e-03,
       -8.76366440e-03, -7.85067677e-03, -3.21675070e-05, 2.20292527e-03,
       3.70956422e-03, 9.70794167e-03, -8.85177811e-04, 8.62195157e-03,
       2.75617675e-03, -6.87510706e-03, -1.27573619e-02, -2.99103721e-03,
       1.81712210e-03, -3.32106138e-03, 2.73387623e-03, -1.77090857e-04,
       2.40584114e-03, 9.28459037e-03, -1.27777306e-03, -7.87252968e-04,
       6.85332855e-03, 7.68393045e-04, -6.63126260e-03, 4.99993376e-03,
       1.11334387e-03, 2.13761791e-03, -5.07285120e-03, 6.18751918e-04,
       -5.37426351e-03, 4.76576807e-03, -7.90746044e-03, 2.05230108e-03,
       -7.22308643e-04, -1.97767295e-04, -4.32798453e-03, 5.11366548e-03,
       -7.35783530e-03, -7.81019358e-03, 2.88662664e-03, 3.90187139e-03,
       4.21402045e-03, 9.99299251e-03, 4.78392979e-03, -1.35248105e-04,
       -4.56676446e-03, -5.77493664e-03, -4.82103182e-03, 3.77277983e-03,
       1.23852701e-03, 1.39988144e-03, 4.71159350e-03, 4.05293610e-03,
       2.42248434e-03, 2.40620167e-04, -2.50079058e-04, -4.16176161e-03,
       6.82860205e-04, -2.18326575e-03, 3.28579103e-03, 5.21441642e-03,
       4.18024929e-03, 2.98910099e-03, -6.07597455e-03, -7.44796405e-03,
       -8.88116006e-03, -1.61273789e-03, -1.35671662e-03, 1.55147747e-03,
       4.56200307e-03, 3.66387656e-03, 5.25200681e-04, -1.65256858e-03,
       1.25689129e-03, -7.32683809e-04, 5.59028704e-03, -3.39494909e-05,
       -2.08380003e-03, 2.48437957e-03, -3.37292603e-03, -4.26550303e-03,
       1.55543105e-03, -3.96273099e-03, -9.21402127e-03, -7.87315425e-03,
       -5.48087247e-03, 2.07107096e-05, 2.90935184e-03, 2.17991136e-03,
       2.59971316e-03, -3.61343077e-03, 2.05743010e-03, -3.95362964e-03,
       4.27351240e-03, -4.29905392e-03, -9.98535473e-03, -2.47134571e-03,
       -3.53434915e-03, 4.70363768e-03, -1.26279406e-02, 6.45545358e-03,
       1.44633534e-03, 8.22486635e-03, -8.84861220e-03, 2.15331162e-03,
       -2.73178890e-03, -8.82429304e-04, -3.68534122e-04, 1.98955461e-03,
       -2.13380423e-04, 1.17205700e-03, 1.07241783e-03, 4.17606556e-04,
       7.65597069e-05, -5.16420417e-03, -1.08001730e-03, -3.86384898e-03,
       -1.67583171e-02, -5.60244359e-03, 8.23642779e-03, 9.43626650e-03,
       7.99697079e-03, -9.88531485e-03, 2.39152228e-03, 3.78476246e-03,
       3.00959032e-03, -1.22400699e-03, 6.75342837e-03, 8.83259159e-03,
       9.65521950e-03, -7.08910497e-03, -1.24512054e-03, 5.93679585e-03,
       2.85472767e-03, -6.37123128e-03, 7.85447750e-03, -1.54198869e-03,
       7.98998773e-03, -7.40492193e-04, -1.03883324e-02, -1.13558129e-03,
       2.27585528e-03, 1.07955374e-03, -2.28955061e-03, -1.15328245e-02,
       -4.99627786e-03, 2.43487745e-03, 7.33537273e-03, -1.49353838e-03,
       -3.54361837e-03, 3.11915786e-03, -3.98824317e-03, -5.24425972e-03,
       5.75848855e-04, -3.16227763e-03, -4.43447940e-03, -7.51742814e-03,
       -9.42722522e-03, 1.83370407e-03, 5.83997881e-03, 2.15486553e-03,
       2.98409048e-03, 8.98176525e-03, -2.97122324e-06, 5.07268962e-03,
       -2.22829846e-03, -7.99955335e-03, -3.24959820e-03, 7.05604255e-03,
       4.07250924e-03, 6.59830170e-03, -1.47819694e-04, 4.15869895e-03,
       4.47517494e-03, 1.49704469e-03, -7.12427776e-03, 2.27841549e-03,
       7.01370649e-03, -2.47018877e-04, -1.44488423e-03, 1.07507873e-02,
       1.64489273e-03, -4.67970781e-03, -1.03639336e-02, -1.00545492e-02,
       2.55042833e-04, 6.08058833e-03, 3.72638134e-03, 3.67265684e-03,
       -2.95518059e-03, 2.75118160e-03, 6.38866471e-03, 9.87787615e-04,
       -8.50279536e-03, 7.01655925e-04, 4.13904386e-03, 3.09062237e-03,
       3.12190526e-03, 8.69205513e-04, 6.23592350e-05, -1.79722486e-03,
       -2.42630905e-03, -1.82621850e-04, 2.26853834e-03, -3.07543873e-04,
       3.79231223e-03, 4.10513981e-04, 1.26944866e-03, -1.62011711e-03,
       -7.72506138e-03, -3.97137552e-03, 4.13842918e-03, 4.12512571e-03,
       2.75147555e-04, 2.79194489e-03, -1.69893203e-03, -5.38044842e-03,
       -5.49977692e-03, 3.38908145e-03, 1.74642389e-03, -6.54662203e-04,
       4.80009272e-04, 2.13421928e-03, 7.35693937e-03, -8.50688317e-04,
       1.50439475e-04, -1.10047320e-02, -3.02245002e-03, -7.11987074e-03,
       -4.12333990e-03, -2.12889281e-03, -1.05381070e-03, 1.51776796e-04,
       8.73015029e-04, 7.67645799e-03, 1.00947602e-03, -4.05436847e-03,
       -3.99657525e-03, 1.84423674e-03, 4.49224235e-03, 1.51795661e-03,
       5.96404728e-03, 5.14075952e-03, 3.26831097e-04, -4.43103490e-03,
       1.14758697e-03, 9.81805148e-04, -2.84985732e-03, -2.34999624e-03,
       1.75469642e-04, 4.67633596e-03, 5.49240084e-03, 1.53915267e-02,
       -7.08255917e-03, -6.91705989e-03, -1.02845086e-02,
       -6.66173035e-03, 1.88792509e-03, 1.42980542e-03, 6.92346180e-03,
       6.73071714e-03, 4.25282167e-03, -8.39339104e-03, -9.37007274e-03,
       5.05808392e-04, -9.01025953e-04, 4.61215619e-03, -2.64076865e-04,
       -5.48971212e-03, -6.37415331e-03, 6.54933508e-03, -4.41118050e-03,
       1.99876633e-03, -1.91206101e-03, 6.69688405e-03, 5.68819465e-03,
       -3.46714817e-03, -1.37607777e-03, 5.02795819e-03, -6.02650363e-03,
       -5.33497706e-03, 2.04177201e-03, 2.89659202e-03, 8.74218531e-03,
       1.14050531e-03, 5.10995649e-03, 6.60610897e-03, 9.34115378e-04,
       1.66491582e-03, -6.60986453e-03, 9.67394968e-04, 2.76487175e-04,
       -2.39760079e-03, 3.95737216e-03, -5.93094947e-03, 3.29158129e-03,
       -1.34117831e-03, 7.75665569e-04, -4.87964367e-03, 8.50901881e-04,
       2.90217181e-03, 8.59186705e-03, 3.83815705e-03, -3.44875804e-03,
       -1.74684450e-03, 2.85031227e-03, -6.67701289e-03, -3.77817266e-03,
       1.98634528e-03, 3.47939320e-03, 3.36485356e-03, -2.92670378e-03,
       9.16761812e-04, 2.92187952e-03, -2.47652666e-03, 7.62807304e-06,
       -7.54857203e-04, 5.14405081e-03, 2.00138008e-03, -4.60469484e-04,
       3.74829862e-03, -3.01612588e-03, -9.46460699e-04, -2.93017086e-03,
       -3.37761152e-03, -4.37648548e-03, 4.57963021e-03, 6.85669668e-03,
       1.04919719e-02, -4.94233624e-04, 1.87270762e-03, 5.61986119e-03,
       -1.12130716e-02, 9.49901703e-04, -1.70639437e-03, 4.89857793e-03,
       3.68359243e-03, 4.29144176e-03, -1.10729213e-03, 1.39346253e-03,
       6.52594026e-03, -5.72931301e-03, -2.40219594e-03, 1.55288691e-03,
       9.66376625e-03, 1.36534974e-03, -2.48586782e-03, 6.77463179e-03,
       1.41609530e-03, 7.63587933e-03, -4.59063239e-03, -6.75029261e-03,
       -5.90326404e-03, 1.66958082e-03, -4.10492346e-03, 3.24034691e-03,
       -2.28768727e-03, -6.34081988e-03, 1.02166308e-03, -1.14768269e-02,
       2.18817731e-03, 2.91876239e-03, 9.73913074e-03, 3.26722790e-03,
       -2.96420930e-03, 4.02973080e-03, -4.98541072e-03, 7.23235030e-03,
       -2.41913856e-03, -5.97032206e-03, -5.37159573e-03, 1.64460065e-03,
       -9.79055092e-03, -5.28521603e-03, 7.41659990e-03, -7.92544975e-04,
       7.38102198e-03, -5.55732474e-03, 3.32467444e-03, -5.91196469e-04,
       -1.25902612e-03, 6.84203207e-03, 1.31488414e-02, 4.01785364e-03,
       -5.69160143e-03, 4.00013058e-03, -3.26605304e-03, -1.15046115e-03,
       -9.70462896e-03, -6.97297603e-03, 2.33047013e-03, 7.26170000e-03,
       -3.12545383e-03, -2.59866379e-03, 6.50589308e-03, -8.55288841e-03,
       -1.92296586e-03, 3.85603821e-03, 9.38925240e-03, 3.19012580e-03,
       1.70890265e-03, 3.91237932e-04, -1.57729344e-04, 7.40791066e-03,
       -1.29395036e-03, 6.24223752e-03, -3.19832028e-03, -2.48873420e-03,
       2.17552972e-03, -1.20287889e-03, 3.79644893e-03, -2.00408767e-03,
       -1.51846814e-03, -1.75832794e-03, 5.08754794e-03, -5.89509634e-03,
       -7.99655728e-03, 2.85153789e-03, 6.53183495e-04, -6.30896538e-04,
       4.30057850e-03, 2.26189755e-03, 2.12095398e-03, 6.18506502e-03,
       -2.28421320e-03, -1.75399939e-03, -8.18766362e-04, 2.06567463e-03,
       5.66152018e-03, 4.37804498e-03, 9.38401744e-03, 1.54885475e-03,
       1.00531743e-03, -2.46081431e-03, -3.25290067e-03, 1.43787859e-03,
       -3.20162834e-03, 3.69769055e-03, 8.34429637e-03, 1.17090335e-02,
       9.51101101e-05, 2.88194185e-03, -3.12725687e-03, -5.61543135e-03,
       2.68799299e-03, 1.59091072e-03, -7.76954368e-03, -1.11966231e-03,
       -1.49401638e-03, -1.11783811e-04, -3.06118513e-03, 2.81968882e-04,
       2.19576317e-03, 7.16647180e-03, -2.01484771e-03, -1.54649362e-03,
       3.11994366e-03, 9.34988447e-03, -5.86897228e-03, 6.01723650e-03,
       4.69997199e-03, 2.96587776e-03, 7.33046560e-03, -9.07301088e-04,
       -1.31548475e-02, -4.93321335e-04, 1.05438195e-03, -3.04772984e-03,
       -8.57764110e-03, -2.42612412e-04, -3.43541941e-03, 7.42443418e-03,
       -2.69687665e-03, -1.24654509e-02, 3.94723378e-03, 8.03514291e-03,
       -9.05516557e-04, -2.09355936e-03, 6.56220037e-03, 1.17180739e-02,
       1.56273283e-02, -8.26645270e-03, -2.26432458e-03, 1.12052460e-03,
       2.03248486e-03, -6.06575096e-03, -5.47026144e-03, 7.22966716e-03,
       -5.00576105e-03, 8.33528815e-04, -3.28111043e-03, 7.46595848e-04,
       3.18546640e-03, -1.14827196e-03, -5.81247546e-03, -2.06074398e-03,
       7.36424606e-03, 5.10295201e-03, 9.09915194e-03, 5.68213931e-04,
       -8.61022063e-03, 1.56434649e-03, 2.76943832e-03, -6.37781108e-04,
       -7.39485724e-03, 8.15095566e-03, -2.86669616e-04, 4.75763716e-03,
       -4.08446323e-03, -6.84977043e-03, 4.36085695e-03, 4.43342561e-03,
       -1.65300828e-03, -4.21533175e-03, -1.72120938e-03,
       -2.22451286e-03, -1.72036188e-03, -5.88170160e-03,
       -2.69998913e-03, -6.12057140e-03, -1.35722733e-03,
       -2.13158573e-03, -2.77443836e-03, 2.20025843e-03, 8.64689611e-03,
       5.99990971e-03, 1.81810569e-03, 1.85161608e-03, -8.67406186e-03,
       -8.09609052e-03, 3.76874628e-03, 2.94665527e-03, 1.42356742e-03,
       1.15490174e-02, -2.25472916e-03, 3.89994704e-03, -7.22410996e-03,
       -4.20729583e-03, 1.47027546e-04, -6.90832268e-03, -1.16556061e-04,
       -3.70021607e-03, 1.92408985e-03, -4.27942257e-03, -2.60720798e-03,
       1.89913681e-03, -8.04298616e-04, -3.46179237e-03, 1.76042819e-03,
       6.10243354e-04, 4.37636016e-04, -3.48165771e-03, -7.53397634e-03,
       3.77534563e-03, -3.07613029e-03, -2.23754602e-03, -6.59669470e-03,
       2.62169563e-03, 9.14229546e-03, 1.23845804e-02, 4.68839891e-03,
       -8.07310641e-03, -2.45793955e-03, 8.47736956e-04, 3.30454228e-03,
       5.57085790e-04, 6.55621057e-03, 6.98603084e-03, 6.20291056e-03,
       -4.94763022e-03, -9.01813991e-03, -5.14780916e-03,
       -8.80754960e-04, -2.06241617e-03, -6.34027831e-03, 7.84734031e-04,
       1.57091173e-03, 9.23115946e-03, 2.09602551e-03, -4.54923650e-03,
       4.99566551e-04, -1.08754076e-03, -1.28908874e-03, 6.28506625e-03,
       7.54391658e-04, 1.01640343e-03, 5.12998411e-03, 3.21889165e-05,
       2.18571303e-03, 2.82793934e-03, 1.75980746e-03, -2.19571032e-03,
       2.88886414e-03, 4.37878398e-03, 3.54107702e-03, 4.38297819e-03,
       -4.79395129e-03, -5.63663989e-03, -2.48178421e-03, 1.30671309e-03,
       -9.56062414e-03, -2.04310217e-03, 3.13420594e-03, 1.20257139e-02,
       6.64561754e-04, -4.37036011e-04, -6.80580270e-03, 4.67344373e-03,
       3.11040157e-03, -3.87299364e-03, 1.76720123e-03, 5.06564160e-04,
       -2.11612880e-03, 4.43546288e-03, 2.82146293e-03, 2.27104290e-03,
       7.66248023e-03, -2.33848905e-03, -5.97166130e-03, -2.67667160e-03,
       -1.66066142e-03, 2.96558207e-03, 8.99093808e-04, -1.47640554e-03,
       7.79394468e-05, 4.02526744e-03, -3.76176927e-03, -5.66486130e-03,
       2.78395810e-03, 3.07722809e-03, 1.57796573e-02, 2.21060729e-03,
       9.46051790e-04, -3.51390033e-03, 6.45168684e-03, -3.03110783e-03,
       -5.69249270e-03, 3.90586932e-03, -4.26345039e-03, 1.03950631e-02,
       2.17629969e-03, 5.62602514e-03, 3.44583718e-03, 4.51947516e-03,
       -1.89634808e-03, 7.24669022e-04, 4.75759525e-03, 2.49408162e-03,
       2.94033648e-03, -1.12195117e-02, -1.49183418e-03, 4.15920280e-03,
       -5.98507504e-05, -5.34858729e-04, -3.38767539e-03, 1.76793162e-03,
       5.07402816e-04, 2.98347208e-03, -4.22960753e-03, 8.85925163e-03,
       6.36622589e-03, 4.17207694e-03, -3.50575848e-03, -7.99224619e-03,
       7.18239974e-03, -7.60916446e-04, 3.85688990e-03, -5.51782362e-03,
       1.42937119e-03, -1.12412800e-03, 2.04333430e-03, -2.26148724e-04,
       -6.08622795e-04, 1.02940239e-02, 1.18397863e-03, 4.00170358e-03,
       -4.20549931e-03, -3.17064091e-03, -4.46771132e-03,
       -7.83335767e-04, -1.24314611e-04, -1.95200846e-03,
       -4.04697406e-04, -5.24376379e-03, 7.21858256e-03, 2.97685736e-03,
       5.13766054e-03, 2.35842483e-04, 1.00712886e-03, 3.79631296e-03,
       3.33015551e-03, 6.62806816e-03, -2.38132779e-03, 1.25706289e-02,
       -3.03193764e-03, 6.64885389e-03, 8.82900134e-03, 3.45879560e-03,
       -7.55006156e-04, 1.51680852e-03, 1.03783328e-03, -4.00847942e-03,
       3.74093826e-04, 1.32116128e-03, 3.89828254e-03, 2.19535592e-04,
       1.11226320e-04, 2.04666634e-03, 4.86373389e-03, 9.11508407e-03,
       -1.98708684e-03, 5.05605107e-03, 1.02958863e-03, -3.96134658e-03,
       -8.81372858e-03, -4.96758008e-03, 4.29346319e-03, 4.20753704e-03,
       -7.12073699e-04, -4.33807401e-03, 1.63831282e-03, 1.18852314e-03,
       8.24668631e-03, 5.30377124e-03, -5.28803776e-06, -1.91049569e-03,
       4.89054900e-03, 3.60550662e-03, -1.36933406e-03, 2.88407574e-03,
       5.06153982e-03, 5.71115082e-03, -1.21512786e-02, -1.02602020e-02,
       4.70683770e-03, 7.27567542e-03, 1.43903345e-02, 3.16845137e-03,
       7.85343070e-03, -3.86163616e-03, -6.57691807e-03, -5.06372517e-03,
       -3.53644462e-03, 3.89880268e-03, 6.24546083e-03, 6.97822636e-03,
       5.35703357e-03, 3.78112681e-03, -2.29088403e-03, -4.41358471e-03,
       1.67169631e-03, 2.83279899e-03, -5.28803421e-03, -1.25477207e-03,
       4.41152183e-03, 3.51385586e-03, 9.11150686e-03, -4.66818642e-03,
       -3.90725676e-03, -6.34793751e-03, -7.88549054e-03, 1.10324903e-03,
       2.29367591e-03, -9.81704448e-04, 1.26602268e-03, 2.75343889e-03,
       2.51634908e-03, -7.28080422e-03, -1.27753417e-03, -9.07269496e-05,
       5.09940553e-04, -3.07100941e-03, -5.08779893e-03, -3.50288814e-03,
       -5.64162107e-03, -2.60999962e-03, -8.95114266e-04,
       -1.91851391e-03, 3.18157976e-03, 7.80643488e-04, 3.19872098e-03,
       -1.20018935e-03, 2.42895749e-03, 7.92560342e-04, -5.28754620e-03,
       -2.91365664e-03, -1.39886118e-03, -4.63332795e-03, 8.49413686e-04,
       2.68090027e-03, -4.68554860e-03, -1.92956778e-03, 1.00530253e-03,
       -7.47401034e-03, -1.10487463e-02, -8.13086703e-03,
       -2.32828152e-03, 2.25236057e-03, 4.04960476e-03, 4.10717400e-03,
       1.04051484e-02, 1.90313742e-03, -3.11486470e-03, -3.51743982e-03,
       -2.47794460e-03, -1.74198160e-03, -3.58458166e-03,
       -6.06829533e-04, -9.62674385e-04, 5.62005769e-03, -2.88435561e-03,
       -4.38933540e-03, 1.90238748e-03, 3.12999031e-03, -7.34808296e-03,
       2.57110107e-03, -1.86116656e-03, -5.11536840e-03, -2.02542506e-04,
       6.09761197e-03, -7.70638185e-03, -4.01835702e-03, 5.99870738e-03,
       8.71475227e-03, -4.21361532e-03, -5.08205034e-03, -2.18981248e-03,
       5.52169513e-03, -1.13861373e-04, -8.15649517e-04, 9.99279227e-03,
       9.70922876e-03, -2.05973652e-03, -1.56026464e-02, -2.87605729e-03,
       -4.09962470e-03, -4.59995819e-03, 4.66076704e-03, -9.48919728e-03,
       3.83344386e-03, 4.97806724e-03, -6.77704765e-03, -3.40264174e-04,
       8.04674625e-03, -4.42411925e-04, 4.21383698e-03, 8.53562634e-03,
       -1.27237318e-02, -1.10753765e-02, 4.17107716e-03, 9.78632551e-03,
       4.28396137e-03, 5.37422160e-03, 1.60483515e-03, 8.23466573e-03,
       6.03876589e-03, -1.30673107e-02, -1.33224046e-02, -3.76792043e-04,
       9.25685372e-03, -1.33320419e-02, -4.48846072e-03, -1.14818825e-03,
       -2.08974769e-03, 2.64159637e-04, -1.06970705e-02, -5.38256892e-04,
       1.10915666e-02, -3.32540274e-03, -7.57723628e-03, -4.93093440e-03,
       4.71361302e-04, 1.02745916e-03, -2.01519765e-03, -8.15563090e-03,
       -1.16620651e-02, 2.06709094e-03, -7.00425683e-03, 1.34641565e-02,
       -1.37179228e-03, 5.14629763e-03, 2.49346159e-03, 5.10959700e-03,
       -1.06944339e-02, -3.49608948e-03, 5.30975172e-03, 1.17618116e-02,
       1.22377183e-02, 6.07581716e-03, 9.41122323e-03, 3.69763165e-03,
       1.37439452e-03, -5.83706610e-03, -4.04455001e-03, 7.06621818e-03,
       1.11210980e-02, 2.40561552e-04, 2.00686161e-03, 7.06497021e-03,
       -3.43625830e-03, 3.79396224e-04, -9.44782700e-03, -7.65469216e-04,
       4.19938518e-03, -2.14088871e-03, 4.26056189e-03, 7.37932452e-04,
       3.50273051e-03, -2.69174273e-03, -5.73978573e-03, -4.94395150e-03,
       -6.04372052e-03, 4.77603730e-03, 4.66301152e-03, 3.59007437e-03,
       5.02165826e-03, 6.49090670e-03, 2.40094168e-03, 1.02710456e-03,
       -6.22474530e-04, -6.21756399e-03, 3.03850952e-03, 5.61207579e-03,
       1.37478914e-04, 5.23604802e-04, 3.11510335e-03, 8.09713529e-05,
       4.60866885e-03, -1.80948118e-03, -9.74945258e-03, -1.04766106e-02,
       -1.50076242e-03, 3.53672891e-03, -3.34634166e-03, -2.91006872e-03,
       -5.67599479e-03, 1.22766208e-03, 6.63521525e-04, -9.45500855e-04,
       6.24683173e-03, 7.71285361e-03, 4.14373120e-03, -2.36738566e-03,
       -4.10729926e-03, -4.38366085e-03, 4.21824260e-03, 1.55527447e-03,
       -4.35454678e-03, -7.49733904e-03, 3.77324503e-03, 3.96953430e-03,
       -1.57954940e-03, 6.73711649e-04, 4.27283067e-03, 1.14005459e-02,
       1.07710133e-03, -7.44683109e-03, -7.35676521e-03, 5.65909967e-03,
       4.31553554e-03, -8.80789943e-03, -6.36671670e-03, -4.38945275e-03,
       -1.26445852e-02, -1.78243185e-03, 2.01453385e-03, 5.68900118e-03,
       1.20952399e-02, 5.52947074e-03, -2.84039951e-03, -4.92449198e-03,
       1.53698481e-03, 2.39275023e-03, -2.46066088e-03, -1.09620299e-02,
       -1.12943351e-02, 3.25086736e-03, -2.18536635e-03, -8.44600797e-03,
       -4.65522520e-03, -1.47064787e-03, 4.95479500e-04, 3.80231603e-03,
       5.52697093e-05, -1.61850697e-03, 5.87415742e-03, 5.74057736e-03,
       -4.30870708e-03, -7.69689286e-05, -8.77496693e-03,
       -9.43684019e-03, -4.35152929e-03, -7.07612373e-04, 3.74786137e-03,
       4.14193980e-03, 4.54411529e-05, -2.83255777e-03, -6.35117805e-03,
       -1.35762966e-03, 4.93886299e-04, -3.13024200e-03, -8.00491497e-03,
       -7.30278157e-03, -4.92742565e-03, -3.73198622e-04,
       -2.66911159e-03, -1.73361413e-03, -2.42112763e-03, 1.12851765e-02,
       -1.08338683e-03, 4.31141583e-03, 3.71426577e-03, 3.28732014e-04,
       -6.84171729e-03, 3.23555898e-03, 8.83084955e-04, 5.12049010e-04,
       2.99302954e-03, -2.55114934e-03, -5.54381404e-03, -5.26225567e-03,
       -1.37027516e-03, 1.11283734e-04, 1.98620185e-03, -4.06728033e-03,
       -2.11757189e-03, 8.59437697e-03, 3.53077287e-03, 5.79246203e-04,
       -2.87435716e-03, -3.05307470e-03, 3.38043261e-04, -6.95804716e-04,
       -4.01797192e-03, -7.67625263e-03, 3.43131134e-03, 4.15832922e-03,
       7.37545965e-03, -7.86437478e-04, -4.02127346e-03, 3.51219997e-03,
       3.13461083e-03, 2.50546960e-04, -4.31470107e-03, 3.80570382e-05,
       -2.48934166e-03, 3.28474282e-03, 1.15142029e-03, 8.51169042e-03,
       8.27406358e-04, 3.91132059e-03, 4.95553541e-04, -5.40701579e-03,
       -6.50462089e-03, 2.08461308e-03, 3.58737214e-03, 3.47347651e-03,
       2.33593863e-03, 8.90220609e-03, 9.32802068e-05, 1.63748278e-03,
       -5.93922334e-03, -4.34668781e-03, -3.38754221e-03, 8.62088893e-03,
       1.61467609e-03, 3.25796707e-03, 6.15551416e-03, 3.14262672e-03,
       9.99012962e-04, -1.28676693e-05, 2.19606562e-03, -5.16550103e-03,
       6.01824932e-03, -5.75580460e-04, -5.20498492e-04, 4.59668739e-03,
       2.12655403e-03, -6.58475969e-04, -1.13080896e-03, -7.48615433e-03,
       2.28680018e-03, 7.62331020e-03, 1.11979642e-03, 2.61656777e-03,
       6.76447712e-03, 3.49783595e-03, -1.63989118e-03, 1.96495419e-03,
       -1.05163723e-03, -3.52921314e-03, 2.53763492e-03, -4.33768332e-03,
       1.70157442e-03, 5.82854170e-03, 4.53597726e-03, 6.88520493e-03,
       6.26598811e-03, 1.52982436e-02, -2.79634423e-03, 1.65832893e-03,
       1.34755042e-03, -1.54588080e-03, 6.43283129e-03, 3.21931834e-03,
       1.00653544e-02, 6.17702678e-03, 2.91230180e-03, -8.36789515e-03,
       -3.14187631e-03, 6.97093550e-03, 1.58206606e-03, 1.88635068e-03,
       1.01420723e-04, -1.18353707e-03, 3.74941243e-04, -5.31564991e-04,
       3.53728334e-04, 3.80863133e-03, 4.91385072e-05, -2.46877014e-03,
       8.42519570e-03, 2.10612477e-03, 7.26012234e-03, -2.44908896e-03,
       1.30652054e-03, -3.53798200e-03, -4.29495238e-04, -4.00026474e-04,
       5.20994514e-03, -2.56245071e-03, -6.71062211e-04, 5.01990877e-03,
       5.56310173e-03, 5.08918986e-03, -2.81579531e-04, 1.91639783e-03,
       1.34559709e-03, -4.18665074e-03, -2.31971528e-04, -8.53018276e-03,
       -3.81457713e-03, 1.60234014e-03, -3.14858533e-03, -6.44099945e-03,
       1.92683667e-03, 5.68839430e-04, 2.37158849e-03, -3.44183110e-03,
       -6.84395258e-04, 3.15550016e-03, 6.13764208e-03, 1.42689180e-02,
       2.40777130e-03, 4.59906179e-03, 5.01852715e-03, -2.66133831e-03,
       1.32566050e-03, 1.45274017e-03, -1.92474958e-03, -1.05034106e-03,
       1.14367658e-03, 3.06430913e-04, 6.26296923e-03, 3.43319541e-03,
       5.77548519e-03, 4.25384846e-03, -1.85303821e-03, -3.52522568e-03,
       -5.19840186e-03, -7.99336587e-04, -6.06135651e-03,
       -1.84136082e-03, -5.26219839e-04, 4.69543971e-03, 2.36734143e-03,
       1.64055696e-03, 5.08820871e-04, -8.68723355e-03, -2.26032874e-03,
       -4.83641680e-03, -3.99396056e-03, 8.24985746e-03, 5.84722124e-03,
       3.41906655e-03, 5.72721008e-03, -3.81269609e-03, -2.08404544e-03,
       -3.95690789e-03, -1.93894003e-03, 1.24979392e-03, -5.04882773e-03,
       -5.59339242e-04, 1.04307681e-02, 1.17424307e-02, -5.89875272e-04,
       2.02028407e-03, -2.06432014e-04, 1.20115431e-03, -1.00858824e-03,
       1.37671502e-03, -2.97028833e-04, -1.20985718e-03, -2.96286563e-03,
       -4.32597566e-03, -5.64207649e-03, 3.41738400e-04, -1.47491705e-03,
       2.27449764e-03, 9.54836793e-03, 2.20071175e-03, 1.61489961e-03,
       -2.47405097e-03, -7.84265110e-04, -1.69674319e-03,
       -7.95673765e-03, -5.74781932e-03, 3.95542243e-03, -3.23840021e-03,
       -3.28588323e-03, 7.49702845e-03, 3.23544233e-03, -4.80017113e-03,
       2.85461312e-03, 1.11178840e-02, 1.46122032e-03, 5.43227303e-04,
       7.76873250e-03, 1.76531426e-03, 7.64374062e-03, 3.79890925e-03,
       6.51308196e-03, 8.79879110e-03, -6.38047839e-03, -5.12761343e-03,
       8.39321525e-04, -2.96984194e-03, 3.50327929e-03, -5.56356134e-03,
       2.60129920e-04, 9.08865035e-03, 2.80965905e-04, -8.07990902e-04,
       2.50563934e-03, 2.64170370e-03, -1.79515383e-03, -2.53044767e-03,
       -6.22042594e-03, 6.85369479e-04, 1.23704607e-02, -1.91717735e-03,
       4.32942156e-03, -4.52384120e-03, -4.97248350e-03, -7.70036713e-04,
       -5.63287549e-03, 4.51097172e-03, 6.54147938e-03, 1.33715281e-02,
       7.10430369e-03, 2.57027848e-03, 4.77139978e-03, 3.17563023e-03,
       -2.21090647e-03, -8.39321234e-04, -2.90501514e-03, 8.74760561e-03,
       1.16138868e-02, 1.58974435e-03, 2.37314054e-03, -3.60127585e-03,
       -6.27071690e-03, 1.13660411e-03, -6.19484903e-03, -3.93481739e-03,
       -2.35150219e-03, 9.24968068e-03, -9.82355210e-04, 3.39865591e-03,
       -1.37440162e-03, -2.41756579e-03, 2.13883002e-03, -3.64899891e-03,
       -3.56165669e-03, -4.83792229e-03, -1.61508843e-03,
       -9.05776303e-03, -3.80124606e-04, -3.09872977e-03,
       -4.68872162e-03, 3.69704049e-03, -9.04849090e-04, -9.50534159e-05,
       5.12298243e-03, 1.95609522e-03, -2.19207606e-03, 6.87345816e-03,
       -4.12712398e-05, 1.20681434e-04, 8.02306831e-03, 2.72869394e-04,
       -3.22393491e-03, 4.42555128e-03, -9.59541928e-03, -4.94425045e-03,
       3.68099939e-03, 4.18724772e-03, 1.98429986e-03, 5.65153034e-03,
       -8.83068598e-04, -7.29291001e-03, -5.89643139e-04,
       -2.81294459e-03, -5.77975018e-03, -3.74254584e-03,
       -1.63539883e-03, -5.16163418e-03, 6.82589505e-03, 3.51818104e-04,
       -1.23691349e-03, 9.52225819e-05, 4.88166558e-03, 2.14189431e-03,
       -5.52239036e-03, 1.27402833e-03, 7.81697873e-03, 1.43439043e-02,
       5.31787239e-03, -1.17846881e-03, 3.16943764e-03, -3.82292084e-03,
       -8.65788851e-03, 2.74832570e-03, 4.36109398e-03, -1.41743117e-03,
       3.47370328e-03, 2.43472657e-03, 6.72632945e-04, 4.60186042e-03,
       8.78515840e-03, -2.40484742e-03, 6.67141227e-04, 8.09281878e-03,
       1.99162215e-03, 6.72079949e-03, 2.71432963e-03, -8.64520262e-04,
       -4.78101755e-03, 2.42441148e-03, 6.89869514e-03, -5.12767816e-03,
       1.94870401e-03, -1.64001633e-03, 2.89105927e-04, 3.95007781e-04,
       -4.83460445e-03, -4.35992656e-03, 3.61307524e-03, -4.34148405e-03,
       -4.62883664e-03, -3.32784210e-03, -3.28499591e-03,
       -6.16592239e-04, 1.01773394e-03, -4.16236056e-04, 3.07070184e-03,
       5.55576850e-03, 3.57937021e-03, 3.16780596e-03, 3.69922584e-03,
       -7.69390166e-03, -3.16645904e-03, -1.48314284e-03,
       -2.65150401e-03, 4.82786819e-03, 6.42897096e-03, 1.11194944e-03,
       5.57509426e-04, 4.26218519e-03, 8.59718537e-04, -2.20150012e-03,
       2.27637775e-03, -3.22572561e-03, -3.58511694e-03, -4.62839007e-03,
       -1.02237072e-02, -3.00143822e-03, 1.22315914e-03, 6.66818232e-04,
       -9.50127316e-04, 3.83988931e-03, 8.70598480e-04, 6.31539850e-03,
       -1.43874856e-03, -6.36212993e-03, 1.04885933e-03, 2.40706769e-03,
       -9.58512712e-04, -5.20780683e-03, 4.58351383e-03, -2.35032383e-03,
       -1.52217399e-03, -1.32535945e-03, -2.97108060e-03, 5.93139615e-04,
       7.70429661e-03, -1.09071545e-04, -3.01681436e-03, -2.35980470e-03,
       2.30373908e-03, 2.06290558e-03, -3.42733599e-03, -8.98701791e-03,
       1.51809398e-03, 7.26240035e-03, 6.05248800e-03, -1.28702447e-03,
       2.34541763e-03, -3.75281530e-03, 2.53534177e-03, 1.23469892e-03,
       -1.60362129e-03, -8.95364909e-04, 6.79253787e-03, 4.50129760e-03,
       -5.34279272e-03, -3.45144700e-03, -4.31284728e-03, 2.49082153e-03,
       8.88887048e-03, -2.55677849e-03, -8.26067198e-03, 4.31308011e-03,
       3.70256649e-03, 5.63708134e-03, -1.70744921e-03, -8.27383075e-04,
       1.32263906e-03, 4.17213282e-03, -2.21117726e-03, 2.15685897e-04,
       4.65480145e-03, 4.18504886e-03, -4.16763313e-03, 3.42803542e-03,
       -3.13536753e-03, 2.27556261e-03, 8.83064605e-03, 4.55678347e-03,
       -1.51152417e-04, 9.05180117e-04, 1.52095780e-03, -5.23946900e-03,
       -3.92500637e-03, -5.23450365e-03, -1.03302870e-03, 1.86130346e-03,
       -6.29159156e-04, -3.09973652e-03, 1.03005464e-03, 5.17909229e-03,
       8.97369068e-03, 4.38304478e-03, -8.44882056e-03, -5.18555334e-03,
       -2.46979948e-03, 1.53655640e-03, 1.59834092e-03, -3.69298947e-03,
       2.71966029e-03, 6.73815096e-03, 3.60348844e-03, -1.80171977e-03,
       1.22097845e-03, 6.40985277e-03, 8.28410499e-03, 6.45336229e-03,
       -8.69265932e-04, 3.90163576e-03, -2.69364868e-03, -7.67471734e-04,
       3.07552819e-03, 1.82281143e-03, 1.81866006e-03, 1.72471453e-03,
       6.21789601e-03, -1.56935654e-03, 4.02892288e-03, -1.39312551e-03,
       4.78474511e-04, -1.42011454e-03, -5.39979478e-03, 7.15408751e-05,
       -1.66535261e-03, 9.49831912e-04, -7.89518096e-03, -4.69465367e-03,
       2.96657882e-03, 6.21788576e-03, 7.02014659e-03, -4.87689395e-03,
       -1.68895943e-03, 6.98666321e-04, 6.97466265e-03, 3.71078146e-03,
       4.83799446e-03, 3.00179003e-03, 8.88340361e-03, 3.87255521e-03,
       -1.71690620e-03, 2.34466954e-03, -7.63178663e-03, 7.10306806e-04,
       -1.04965025e-03, -3.80979548e-03, -2.03768909e-03, 1.14987849e-03,
       6.26480905e-03, 5.43228444e-03, 2.79942341e-03, -3.46230878e-03,
       3.23210307e-03, 3.53072677e-03, 1.19519565e-04, -1.01276569e-03,
       -4.18889511e-04, 6.83236122e-03, -2.87220278e-03, -1.97075424e-03,
       -3.33793252e-03, 2.04127538e-03, 6.23624399e-03, 9.18498787e-04,
       1.40122976e-03, 5.91009250e-03, 5.33367693e-03, -1.03774411e-03,
       2.49610469e-03, -5.71163790e-03, -1.47632707e-03, -5.32604801e-03,
       5.77287748e-03, 1.15664350e-02, 5.47413714e-03, -1.31909538e-03,
       -1.41250284e-03, 2.18858034e-03, 1.48446893e-03, 7.01205386e-03,
       -7.53617962e-04, -1.85229350e-03, -6.18671440e-03,
       -1.32528935e-02, 6.54279534e-03, -1.05317507e-03, 6.55125035e-03,
       1.00814132e-03, 1.12455087e-02, -5.33370906e-03, 2.36284127e-03,
       2.87175179e-03, 5.18252200e-04, 6.11847313e-03, -2.06698221e-03,
       -3.44954850e-03, -2.73818988e-03, -5.70591167e-03,
       -3.32923047e-03, 2.62512872e-03, 1.81271252e-03, 1.99606689e-03,
       2.08903337e-03, 5.78069012e-04, -1.32991141e-03, -1.64592289e-03,
       3.29065835e-03, 6.62708841e-03, 7.88436178e-03, -7.97661208e-03,
       -2.50195735e-03, 3.46880080e-03, -5.51267574e-03, 1.77063688e-03,
       8.63301568e-04, 1.96859078e-03, -1.06775470e-03, 2.49935454e-03,
       2.34955252e-04, 1.68603484e-03, -7.64310872e-03, -5.79164887e-04,
       1.45170582e-03, 1.90318073e-03, 2.80465814e-03, 6.95126224e-03,
       -7.35051581e-04, -4.68766876e-03, -4.99884365e-03,
       -1.68248336e-03, -4.49868501e-04, 2.66072084e-03, 1.74460991e-03,
       7.69670401e-03, -2.45081232e-04, -2.78929318e-03, -4.90629394e-03,
       -3.21523461e-04, 6.56782184e-04, 1.35861535e-03, 1.97720295e-03,
       -6.44370797e-04, 7.85289146e-03, 4.35244618e-03, -3.71533912e-03,
       -4.43072431e-03, 7.30950793e-04, -2.73161056e-03, 3.25124385e-03,
       3.37690068e-03, 4.74430481e-03, 4.82681766e-03, 3.64597421e-03,
       -8.34995974e-03, -4.43488033e-03, 3.38716130e-03, -3.51600628e-03,
       4.08403436e-03, 1.04044313e-02, 3.34304431e-03, 1.61552541e-02,
       -2.51358817e-03, -6.88415905e-03, -5.36406832e-03, 3.66332079e-03,
       -3.28778941e-03, -1.68013806e-03, -4.56631271e-04,
       -7.57586968e-04, 3.35918763e-03, -7.40670890e-04, -7.09059788e-03,
       -3.79233551e-03, 5.18092827e-04, 7.17879506e-04, -2.55117356e-03,
       9.83774080e-04, 1.19692972e-02, 7.24257494e-04, -2.71528424e-03,
       -1.73475803e-03, 3.24359490e-03, 1.47097884e-03, -5.25002088e-03,
       -4.42271907e-04, 3.12497653e-03, 1.19649584e-03, 9.02695209e-03,
       7.33133347e-04, 1.86548021e-03, -3.21963127e-03, 2.59966007e-03,
       -5.47787501e-03, -3.74639081e-03, -1.07745803e-03, 1.02361869e-02,
       -8.44662020e-04, 6.76671229e-03, 5.18531445e-03, 3.84753803e-03,
       4.95030032e-03, -5.94268134e-03, -5.82476845e-03, -5.32750506e-03,
       -2.01774784e-03, -3.52515629e-03, -5.49253821e-03, 1.28215775e-02,
       1.25683071e-02, -4.28318745e-03, -6.68784510e-03, -2.83591403e-03,
       -2.59052706e-03, -7.17401039e-03, 7.19227595e-03, -8.45496450e-03,
       8.89993832e-03, 8.81198514e-03, -2.13755597e-03, -4.82419180e-03,
       -4.09661187e-03, -7.69374799e-03, -3.01778340e-03,
       -7.09506869e-03, -8.11827776e-04, 4.86503262e-03, 5.64863905e-03,
       -2.81928014e-03, -6.04917388e-03, 4.86443518e-04, -3.22313723e-03,
       -5.20036835e-03, 4.45523812e-03, 3.87856760e-03, 1.00064259e-02,
       6.63365517e-03, -3.59031931e-03, -8.65209568e-03, -3.95352487e-03,
       -3.79466079e-03, -5.24951238e-03, 2.93014082e-03, -1.29942643e-02,
       4.18180088e-03, 7.33278506e-03, -5.93742169e-03, -5.90166543e-03,
       -5.92601951e-03, -3.85452085e-03, -1.24147756e-03,
       -8.28951772e-04, -6.59741461e-03, -6.91507012e-03, 1.94418686e-03,
       -1.19612822e-02, -2.05105846e-03, 1.11316389e-03, -6.83413772e-03,
       -5.98419551e-03, -2.13127490e-03, 2.42720678e-04, 1.33841690e-02,
       8.91009998e-03, -4.51030349e-03, -4.34836606e-03, -3.18379584e-03,
       -7.73546379e-03, 6.73331437e-04, -6.43326109e-03, -6.49709860e-03,
       5.84639842e-03, 2.55078659e-03, -8.32462776e-03, 2.21579010e-03,
       5.16264699e-04, 6.22424809e-03, -2.15280103e-03, 1.76889193e-03,
       -5.38474414e-03, -3.12672555e-03, -3.44635127e-03, 7.76524656e-04,
       1.83606369e-03, -5.91075630e-04, 3.65407020e-03, -3.32665863e-03,
       3.13105597e-03, -2.60635163e-03, -1.25051895e-03, -9.42733139e-03,
       6.78078085e-03, 5.50617976e-03, -6.41932432e-03, -7.39565701e-04,
       -1.56737422e-03, -6.06132345e-03, 1.22299267e-03, 5.23958169e-03,
       1.48438488e-03, -1.03817740e-03, 4.74596350e-03, -6.73912279e-03,
       -1.84767088e-03, -3.12592462e-03, -2.13204441e-03, 2.91731278e-03,
       2.00427882e-03, -4.39168559e-03, -1.17403804e-03, 9.30358830e-04,
       -2.98179453e-03, -4.21773503e-03, -2.85771629e-03, 8.19229614e-03,
       -2.11444357e-03, 1.01301572e-04, -6.72488380e-03, 7.45897414e-04,
       6.44908380e-03, -2.13320879e-03, -6.24526059e-03, -3.43359844e-03,
       5.88439358e-03, -2.16370192e-03, 1.48730446e-03, -1.06077371e-02,
       -2.39402289e-03, -4.21060307e-04, -7.08580855e-03,
       -4.78487741e-03, -2.50321859e-03, -1.98159460e-03, 5.66158618e-04,
       1.48883592e-02, -2.64366344e-03, -2.20739120e-03, -1.00727833e-03,
       -1.01820915e-03, 2.99837557e-03, 1.06480974e-03, -4.29717882e-04,
       -2.32193014e-03, 1.76103495e-03, -1.02134747e-02, -8.26792140e-03,
       6.50326302e-03, -1.76168149e-04, -1.29707018e-03, 1.76675385e-03,
       1.03002274e-03, -8.99344776e-03, -7.16494443e-03, -1.34093789e-02,
       -2.63211224e-03, 3.66674759e-03, -2.50556157e-03, -1.06808741e-03,
       -2.07784865e-03, -1.48297622e-04, -4.33046510e-03, 3.41390772e-03,
       -3.54041043e-03, 3.97220952e-03, 6.70612277e-03, -1.32616668e-03,
       1.01927982e-03, 6.01190142e-04, -3.00468586e-04, -3.15077417e-03,
       -5.73364669e-04, -1.00762630e-02, -2.28157733e-03, 3.61846783e-03,
       2.23902171e-03, 3.32040573e-03, -4.23720945e-03, -4.01928229e-03,
       -3.71459057e-03, -7.83389434e-03, -5.60288876e-03, 2.79856892e-03,
       9.69323853e-04, 2.81137228e-03, -5.89949312e-04, -2.06087803e-04,
       6.53861417e-03, -2.21738359e-03, 3.97988223e-03, 1.23339414e-03,
       -1.18791289e-03, -7.17849238e-03, 3.43089481e-03, 2.05678470e-03,
       -1.59455766e-03, -4.55311063e-04, -2.99546518e-03, 1.32642139e-03,
       -6.11595996e-03, -5.70291234e-03, 3.60030727e-03, 7.86253903e-03,
       1.07081234e-02, -1.20601122e-04, 4.88982676e-03, -3.54074221e-03,
       -7.67910201e-03, -5.54692978e-03, -5.15083550e-03,
       -3.06475908e-04, 4.98076249e-03, 5.73655590e-03, -2.06188392e-03,
       6.67991303e-03, 1.94838434e-03, -5.10238064e-03, -8.97956826e-03,
       -1.03988489e-02, 5.37500530e-03, 9.66211967e-03, 5.46744606e-03,
       -2.96736276e-03, -2.03790027e-03, -7.66420271e-04, 2.62596481e-03,
       -2.17559189e-03, 5.19700907e-03, 1.12916494e-03, 5.71590476e-03,
       1.76749704e-03, 9.70291556e-04, -9.76753049e-03, 4.00972739e-03,
       4.01107129e-03, -1.67233066e-03, 1.51992543e-03, 3.83332116e-03,
       4.19984758e-03, 3.37186432e-03, -4.91350284e-03, 1.12434179e-02,
       3.56043549e-03, 5.78519795e-03, -1.86105841e-03, 1.63732830e-03,
       -3.81466723e-03, 1.82455196e-03, -1.33584501e-04, -7.09848071e-04,
       -2.26967665e-03, 6.50524255e-03, 1.10288132e-02, 7.44269602e-03,
       3.25347227e-03, 6.64468855e-03, 5.34992944e-03, 5.88870328e-03,
       4.42630984e-03, 8.88547685e-04, 2.47610919e-03, 6.58095209e-03,
       5.52890997e-04, 4.99386434e-03, -2.69550015e-04, -1.82135182e-03,
       -6.49827707e-04, -3.22615774e-03, 5.19159483e-03, -1.41952629e-03,
       9.83011676e-04, -2.12138472e-03, -3.17615084e-03, -3.52776772e-03,
       -1.26076047e-03, -1.98018202e-03, 8.47532693e-03, 2.22716946e-03,
       1.39543810e-03, 7.32687488e-03, 6.81435876e-03, 3.81904072e-03,
       -6.25464274e-03, -2.50590313e-03, -7.38824066e-03, 1.15811964e-03,
       9.06346645e-03, 8.78427818e-04, 6.67986507e-03, 1.16717396e-03,
       -5.42139728e-03, -2.57788459e-03, -6.05578069e-03,
       -2.96424003e-03, -5.17601427e-03, 9.15511418e-03, -1.09547225e-03,
       2.45145825e-03, 3.27728019e-04, -3.93776689e-03, 2.42290320e-03,
       1.19166705e-03, 5.61626023e-03, -3.70592868e-04, 1.11608328e-02,
       -1.39042863e-03, 1.52494828e-03, 2.17105448e-03, 3.48313712e-03,
       3.95115756e-04, -3.21687618e-03, -2.30358751e-03, -1.23542384e-03,
       4.13083937e-03, 2.68368237e-03, 4.77896724e-03, -1.36295904e-03,
       -2.54544709e-03, 2.07747007e-03, 1.87726179e-03, 7.59774633e-03,
       9.68061722e-05, 1.11460537e-02, -2.49590888e-03, 5.61948633e-03,
       -6.50623188e-05, -3.77214188e-03, -3.94888315e-03, 4.17795125e-03,
       1.39207894e-03, 2.81638023e-03, 8.17669556e-03, 1.06120436e-03,
       -3.41594056e-03, 4.11906338e-04, -8.27527512e-03, 3.12804151e-03,
       7.23141199e-03, 3.14086420e-03, 1.47284009e-03, -5.60326409e-03,
       -7.69474125e-03, -3.93958203e-03, 3.91252106e-03, -1.84714037e-03,
       -1.38894713e-03, 5.12406696e-03, 3.07349372e-03, 4.92560538e-03,
       4.02162364e-03, 5.01928711e-03, 3.23374348e-04, 3.17948707e-03,
       -6.84157014e-03, -1.56575756e-03, 8.24548304e-03, 8.77014920e-03,
       1.46103064e-02, -4.61035816e-04, -6.85319118e-03, 7.17293122e-04,
       4.76675434e-03, -2.89806770e-03, 4.18177806e-03, 6.34077378e-03,
       -1.45997410e-03, -2.68759043e-03, -2.55826861e-03, 5.26140095e-04,
       3.82036925e-03, 1.67348434e-03, 2.62796180e-03, 4.04913351e-03,
       6.37223292e-03, -9.54449084e-03, -9.79930256e-03, -1.60315551e-03,
       1.43862085e-03, -6.73430681e-04, 1.55216968e-03, -2.93164724e-03,
       -4.92019905e-03, 5.85761387e-03, -6.14673598e-04, 6.83944393e-03,
       -5.66756353e-04, 1.63658685e-03, 5.53705590e-03, 7.89535290e-04,
       -6.94884779e-03, -9.01589729e-03, -2.18631045e-04,
       -9.66743333e-04, -4.75994870e-03, -1.72912516e-03, 9.53597575e-03,
       1.22134816e-02, 3.08870245e-03, -1.12479599e-02, 4.79457108e-03,
       -4.33897832e-04, -9.31562763e-03, -5.15869120e-03, 1.12003861e-02,
       8.42200685e-03, 4.57583554e-03, 4.74785408e-03, 2.60406872e-04,
       4.07230668e-03, -4.43876581e-03, 7.59832747e-03, 5.96215576e-03,
       -3.39767290e-03, -5.21414820e-03, -1.89959712e-04,
       -9.72505251e-04, 8.47747491e-04, -1.85753522e-03, -3.60692013e-03,
       -2.28566071e-03, 2.02125229e-04, 9.05622169e-03, 1.55465361e-02,
       1.03317946e-02, 4.22255043e-03, -5.35067171e-03, 1.90596224e-03,
       2.44524679e-03, 1.35146547e-02, 3.50861903e-03, -7.60424742e-03,
       -2.48563825e-03, 3.11530824e-03, -4.18834202e-03, 2.31542232e-04,
       -1.43201137e-03, -2.57879472e-03, 1.02980845e-02, 4.63599712e-03,
       -5.45443129e-03, 8.25167401e-04, 2.60095764e-03, -2.84992740e-03,
       -8.11631908e-04, -6.37827534e-03, 2.76927953e-03, 7.85455573e-03,
       -7.66393277e-05, 9.91639914e-04, -4.62479191e-03, -9.86839877e-04,
       -2.17925827e-03, -2.36338540e-03, -5.88333525e-04, 5.29156008e-04,
       1.81983709e-02, 8.48427787e-03, -8.07146356e-03, -3.19265295e-03,
       3.68716079e-04, -5.24922693e-03, -4.21244098e-04, 2.78995838e-03,
       1.82305311e-03, 8.11233092e-03, 9.11345196e-05, -5.55794744e-04,
       -2.15805485e-03, -1.03313522e-03, -1.31439336e-03, 8.33008147e-04,
       -1.38961663e-03, 3.83858709e-03, -6.62078382e-04, -5.83029585e-04,
       5.93151708e-05, -6.42559258e-03, 4.27115418e-04, 2.77845166e-03,
       5.85006259e-04, 2.29615974e-03, 2.18590768e-03, -9.79821850e-03,
       -3.05147166e-03, -3.40091647e-03, -6.42970856e-03,
       -1.09760091e-03, 2.29248195e-03, -4.26141894e-04, 6.54642424e-03,
       5.08857146e-03, -1.44161656e-03, -3.67858983e-03, 3.01496498e-03,
       -4.10688762e-03, 5.93146123e-03, 6.93386141e-03, 5.34069678e-03,
       -1.76440226e-03, 4.07733023e-03, -4.89695370e-03, -3.08479858e-03,
       -2.24277494e-03, 1.48502958e-03, 1.17304185e-02, 5.22673735e-03,
       2.42624152e-03, 8.54952203e-04, 6.53674034e-03, -9.77284508e-04,
       -6.17668265e-03, 2.80856527e-03, 8.81362823e-04, -8.13262723e-03,
       -4.77172015e-03, 9.03751759e-04, -4.96987998e-03, 5.00658294e-03,
       3.60540487e-03, -5.03980136e-03, 4.56919055e-03, 6.54448522e-04,
       -5.65797789e-03, -9.77813033e-04, 5.37927495e-04, -2.90879095e-03,
       8.18504300e-03, 7.67096877e-03, 3.82125028e-03, -7.01754005e-04,
       8.25839397e-03, 2.50419532e-03, -4.54628025e-06, -1.15149212e-03,
       -1.73321436e-03, 6.63218554e-03, 1.00036245e-02, 1.78022590e-03,
       6.54763263e-03, 3.71825974e-03, 5.43485861e-04, -8.00834154e-04,
       2.07318505e-03, -4.84170346e-03, 5.05201844e-03, 8.37108120e-04,
       -2.72988784e-03, 2.06576288e-03, -1.03286780e-04, -9.18735657e-03,
       -3.13858548e-03, -4.86314995e-03, -6.61063613e-03, 3.32399830e-03,
       6.02659828e-04, -2.94058491e-03, 4.72522713e-03, 1.01013379e-02,
       4.16811928e-03, -1.20459101e-03, 1.63773575e-03, 4.46504215e-03,
       1.41026126e-03, 3.58276721e-03, 2.85121682e-03, 2.62096245e-03,
       2.76446086e-03, -3.73398489e-03, -7.62900524e-03, -3.28624708e-04,
       -1.55131333e-03, 2.85830814e-03, 2.05943492e-04, -3.63099156e-03,
       1.55938294e-04, 4.84795356e-03, 5.26865711e-03, -4.19556675e-03,
       1.14417588e-03, -6.30464347e-04, 1.77760515e-03, -4.23359964e-03,
       -4.34760703e-03, 3.10249394e-03, 1.02611799e-02, 1.20389392e-03,
       -1.39634148e-03, -1.27270655e-03, 5.32838749e-03, -2.69964890e-04,
       -7.70847953e-04, -5.15276426e-03, -1.71284890e-03, 4.04661288e-03,
       4.90651885e-03, -2.48084520e-03, 2.07574549e-03, -8.11957638e-04,
       -5.00269467e-03, -3.80411558e-03, -9.07984376e-03, 3.47965187e-03,
       3.68059007e-03, 2.92365112e-05, -1.65676244e-03, 6.23152358e-04,
       2.59692245e-03, -8.68996605e-04, 8.48996639e-03, -3.37222219e-03,
       3.41147650e-04, 7.48956902e-03, 7.02594873e-04, -3.23046814e-03,
       1.37456832e-03, 5.41665172e-03, 1.18062808e-03, 3.55887786e-03,
       -3.73067800e-03, -8.22786149e-03, -1.52671721e-03, 3.80976894e-03,
       -5.66875935e-03, -3.38886702e-03, -5.91313560e-03, 1.81367307e-03,
       3.13441944e-03, 2.15224223e-03, -4.94011678e-03, -3.32046300e-03,
       1.72713131e-03, -1.96698029e-03, -3.21766338e-03, -9.03548440e-04,
       1.81996415e-03, 8.78068712e-03, -3.87903885e-03, -6.30478840e-03,
       -3.69760976e-03, -2.72163772e-03, -5.40136872e-03,
       -4.43805894e-03, -5.88468451e-04, 3.17121530e-03, 5.29556163e-03,
       -1.22049439e-03, -1.48440187e-03, -1.05625456e-02,
       -4.15812247e-03, -4.40223608e-03, 1.86352024e-03, -4.33502812e-03,
       1.47244590e-03, 4.21330286e-03, 5.24472864e-03, -2.66541028e-03,
       2.55370305e-05, -9.91143053e-04, -2.99765752e-03, 7.64116936e-04,
       4.44181357e-03, 2.65562581e-03, 7.07447203e-03, -2.29683518e-03,
       -8.18879809e-03, -7.31170119e-04, -4.87047108e-03, 1.02037424e-03,
       7.14386767e-03, -1.84942060e-03, 2.24148878e-03, 2.72838958e-03,
       6.80042955e-04, -6.68180222e-03, -3.08253779e-03, -3.91043676e-03,
       -4.88547795e-03, 1.68778631e-03, -3.30995070e-03, -4.15310683e-03,
       -2.00415816e-04, -6.23004232e-03, -6.26244908e-03, 4.12165048e-03,
       -4.90657240e-03, -4.60881693e-03, 7.46089127e-03, 8.13496485e-03,
       3.97629198e-03, 3.03677120e-03, -1.05418293e-02, -1.48817059e-02,
       -1.63252850e-03, -6.03134558e-03, -2.92638270e-03, 6.01103669e-03,
       4.26859502e-03, 3.33336648e-03, 3.03293183e-03, -5.69855003e-03,
       -6.47844234e-03, 1.01988786e-03, -4.99052042e-03, -5.65409614e-03,
       3.00616841e-03, 2.38166028e-03, -4.26869979e-03, -2.37273076e-03,
       -1.03642084e-02, -1.60088632e-02, -2.80560018e-03,
       -1.06532946e-02, -4.52030962e-03, 1.05903875e-02, 2.29670922e-03,
       8.92895088e-03, 9.44283977e-03, 3.49098234e-03, -1.17431162e-02,
       2.51862890e-04, -1.12429475e-02, -5.62642654e-03, 1.04526868e-02,
       -7.38304062e-03, -3.46424617e-03, -9.07292182e-04, 3.65789467e-03,
       3.90430121e-03, -1.89722562e-03, -6.99268095e-03, -8.36083014e-03,
       -1.18520102e-02, -1.57313654e-03, -4.20138612e-03, 1.12052495e-03,
       4.71805641e-03, 1.00428024e-02, -2.80519109e-03, -6.60836347e-04,
       -3.97269428e-03, -9.03020985e-03, 7.31169072e-04, 1.83412083e-03,
       -2.88519356e-03, 2.89028767e-03, 1.22836826e-03, -6.10565441e-03,
       -6.52793935e-03, -1.12448097e-03, -1.69738487e-03, 5.79047529e-03,
       4.07888880e-03, 2.67061125e-03, -1.59964676e-03, 7.87150301e-03,
       -8.23674351e-03, 3.70867620e-03, 7.31586188e-04, 4.50035930e-03,
       -4.22681682e-03, -7.00040022e-03, 1.98037666e-03, 2.28412356e-03,
       1.19334634e-03, -2.11633928e-03, -2.54090433e-03, -7.91581813e-03,
       -9.07551125e-03, 5.77679195e-04, -5.93013363e-03, -4.04106174e-03,
       1.17328635e-03, -3.85004375e-03, 9.83496779e-04, -5.67409815e-03,
       -2.70886580e-03, -6.87690044e-04, 9.37255844e-03, 2.21141451e-03,
       3.06749996e-03, 7.72064959e-04, 1.36720086e-03, -1.60130032e-03,
       2.05419818e-03, -4.06804145e-04, 2.08237511e-03, 1.05036199e-02,
       9.57787409e-03, 3.39865655e-04, 5.39748697e-04, 3.02463467e-03,
       2.43213354e-03, -3.01119429e-03, -5.92844980e-03, 3.79489292e-03,
       1.65452692e-03, -4.88694431e-03, -5.40600857e-03, -8.27033480e-04,
       -8.31938814e-03, -1.36472366e-03, -6.77526416e-03,
       -7.18033814e-04, 3.91562004e-03, -7.20518932e-04, -3.19191511e-03,
       -4.08492796e-03, 2.23845756e-03, 8.11993741e-05, -4.87839477e-03,
       -5.85528649e-03, 4.32141358e-04, -1.85835955e-03, 4.99168504e-03,
       6.14108634e-04, 4.78705188e-04, -6.75636169e-04, -4.89042001e-03,
       -1.25249452e-03, -5.11266338e-03, -7.46087916e-03, 1.88422727e-03,
       3.94580793e-03, 6.33090409e-03, 1.13351573e-03, 9.77556920e-04,
       2.07419461e-03, -6.68747234e-04, 3.42376856e-03, 3.21587245e-03,
       -2.83842813e-03, -6.23782491e-03, -1.72454887e-03,
       -6.20049471e-03, -9.17650614e-05, 3.87149607e-03, -1.37061390e-04,
       1.72964355e-03, -2.11901006e-05, -6.39165612e-03, -8.16932321e-03,
       -7.89512508e-03, -8.95170774e-03, -3.14573845e-05, 2.76872609e-03,
       7.25302333e-03, 1.16029452e-03, 1.92015443e-03, -2.57617654e-03,
       -4.90976730e-03, 3.75048281e-03, -5.74732665e-03, -1.44202809e-03,
       4.74912347e-03, -3.58644268e-03, 6.65867422e-03, 9.05896188e-04,
       -1.12479841e-02, -9.60189383e-03, -8.87588365e-04,
       -1.67219469e-03, 4.31697443e-03, -9.47931476e-05, 2.50205328e-03,
       8.55686795e-03, 4.31097299e-03, -8.12673476e-03, -4.90833481e-04,
       -3.95794399e-03, -4.81145782e-03, -1.79852254e-03, 3.03673395e-03,
       4.72623715e-03, 5.66982385e-03, 3.16470955e-03, -4.56413516e-04,
       -1.82056380e-03, -1.74115281e-04, -6.00020261e-03,
       -9.67036653e-03, 8.43812828e-04, 3.45231569e-03, 4.04223660e-03,
       -1.45787746e-03, -4.96576820e-03, -5.55566140e-03, 3.75732733e-03,
       1.20320206e-03, 4.07352205e-03, -3.58778844e-03, 3.94791318e-03,
       1.31501751e-02, 1.31406970e-02, -1.12081063e-03, -6.03573816e-03,
       2.18102243e-04, -9.55566182e-04, -6.02929294e-03, -2.58906069e-03,
       -2.75544543e-03, 5.08741150e-03, 9.98019427e-03, 3.06430738e-04,
       7.91823782e-04, 2.43545044e-03, -5.20096393e-03, -1.65183796e-03,
       -2.05283123e-03, 1.53177464e-03, 1.34248808e-02, 1.75475678e-03,
       -7.04187760e-03, 1.68551735e-04, -4.40317811e-03, -4.59228130e-03,
       2.83452612e-03, -4.14198870e-03, -2.71884841e-03, 9.20861494e-03,
       1.08558289e-03, -4.74115089e-03, -3.18292715e-03, -5.98066486e-04,
       -1.78015383e-03, -3.25220311e-03, -3.23860673e-03,
       -5.23167849e-03, -1.04001223e-03, 5.95067581e-03, -2.24652071e-03,
       -3.03244055e-03, -3.96473287e-03, -1.20471558e-03,
       -4.29698359e-03, -1.81825494e-03, -1.05439220e-02, 1.91759574e-03,
       -5.50791994e-03, -3.24891089e-03, 1.15241401e-03, -5.11918589e-03,
       8.49662465e-04, 3.25146335e-04, -7.41868187e-03, 7.74645421e-04,
       7.07023451e-03, 2.27369601e-04, -5.83091751e-03, 2.38502608e-03,
       -8.37269239e-03, -8.37365573e-04, -1.76486815e-03,
       -4.09655180e-03, 3.74748372e-03, 1.13223656e-03, -3.13423690e-03,
       -2.33438239e-03, -3.97770572e-03, -1.63400488e-04, 4.64334711e-03,
       -1.05629936e-02, -5.76451607e-03, -1.71805173e-03, 6.35079527e-03,
       -1.04624091e-03, -3.33935092e-03, -3.61013785e-03, 2.42212717e-03,
       3.58206872e-03, -1.92986208e-03, -2.72917823e-04, 3.51969083e-03,
       1.04589099e-02, -1.72513339e-03, -3.86084919e-03, -1.42831856e-03,
       -8.50141980e-03, 2.69963290e-03, -6.61969127e-04, -5.28630801e-03,
       -7.00182049e-04, 4.58138296e-03, -2.12554634e-03, -1.76453532e-03,
       -3.66747519e-03, -8.42257589e-03, 6.63767988e-03, -4.69060335e-03,
       -1.51581038e-03, 3.16856802e-03, -9.79374978e-04, -5.27635077e-03,
       -4.00027866e-03, -6.56545861e-03, -1.44079560e-03, 7.47369183e-03,
       1.28982135e-03, -6.07573800e-03, -2.80061178e-03, 9.06799047e-04,
       -3.67393601e-03, -2.24968442e-03, -1.15441950e-03, 4.90174338e-04,
       3.89615400e-03, -1.57776929e-03, -4.84312465e-03, 5.70261432e-03,
       3.49639752e-03, -1.38947542e-03, 1.79756177e-03, 5.76010114e-03,
       -8.57773144e-03, -3.57591384e-03, -6.14055898e-03,
       -3.89293022e-03, -3.28202150e-03, -1.05674367e-03,
       -5.39292023e-03, 5.71334735e-04, 8.51824321e-03, 2.36515698e-04,
       4.25690319e-03, -5.13930246e-03, -1.02530764e-02, -9.05402005e-03,
       -1.23344995e-02, -9.76662897e-03, 3.34386714e-03, 1.10092200e-02,
       5.06060198e-03, 3.79105075e-03, -7.87410326e-03, -7.77963595e-03,
       -5.48236957e-03, 5.30784391e-03, 2.35655782e-04, 5.46031399e-03,
       7.99717754e-03, 9.07920860e-03, 1.08166086e-02, -4.06017620e-03,
       -7.80412275e-03, -1.02568278e-02, -8.14314000e-03,
       -6.78637251e-03, 5.41738234e-03, 9.25866794e-03, 1.34051740e-02,
       8.38418677e-03, -1.21229456e-03, -8.93268909e-04, 2.63061794e-03,
       -6.36276137e-03, -4.14638082e-03, 4.57999948e-03, 4.51255264e-03,
       6.01049839e-03, -1.06765609e-03, -9.83797014e-03, -2.86518736e-03,
       -1.95665471e-03, -4.54934174e-03, -6.45073829e-03,
       -4.33083973e-04, 1.29696932e-02, 1.32774217e-02, 8.94327182e-03,
       -4.33178199e-03, 1.61098898e-03, 3.23833176e-03, -1.54324039e-03,
       3.70669784e-03, 7.91401602e-03, 7.50857312e-03, 5.50486962e-04,
       -3.04019568e-03, -1.50337350e-02, -3.02409800e-03,
       -6.75669056e-04, -1.96039770e-03, -4.31484223e-04, 5.71010448e-03,
       5.38511714e-03, 5.80705982e-03, -7.01045094e-04, -7.49155460e-03,
       -6.73075847e-05, 1.68914138e-03, 1.53592468e-04, -1.31696183e-03,
       4.44173580e-03, 1.10884872e-03, -1.78621197e-03, 1.91866735e-03,
       -3.12972290e-04, 1.58372440e-03, 3.31094279e-03, 9.09621827e-03,
       1.56371742e-02, 2.97020003e-03, 8.55661929e-03, 1.87000682e-04,
       -1.35863060e-03, -1.91627908e-03, 6.33571669e-03, -1.85012282e-03,
       4.51570173e-04, -2.54837773e-03, 9.40319709e-03, 3.25234188e-03,
       1.82309421e-03, 3.31669836e-03, 7.93948118e-03, 4.85996110e-03,
       2.26106044e-04, 2.52688560e-03, 1.09062279e-02, 6.85758842e-03,
       -2.27182871e-03, -7.05553731e-03, -5.26612671e-03, 4.69458848e-03,
       1.91639678e-03, -3.76147218e-03, 4.19249479e-03, 1.16012655e-02,
       2.72484240e-03, -5.64684253e-03, -7.33602885e-03, -1.08427284e-02,
       -2.68461579e-03, 1.82334555e-03, -4.95261094e-03, 7.18806544e-03,
       5.02185943e-03, -3.32784723e-03, 1.99864665e-03, 3.72694596e-03,
       6.35352591e-03, 4.72578732e-03, 8.03371891e-03, -2.13596481e-03,
       5.67482831e-03, 9.19355731e-03, 2.01502466e-03, -2.80722068e-03,
       3.42306960e-03, 4.80083004e-03, -2.87364703e-03, -3.26080783e-03,
       -1.19641526e-02, 7.83509202e-03, 7.62986392e-03, 4.49534273e-04,
       -4.59556282e-03, -9.37663671e-03, -6.09860523e-03,
       -6.22373819e-03, -7.10991304e-03, -3.74411116e-03, 1.00429158e-03,
       3.49471338e-05, -3.19061521e-03, -3.94961651e-04, -6.35938114e-03,
       2.18852726e-03, 4.16734081e-04, -1.05809364e-02, -4.33774013e-03,
       2.23530969e-03, -4.96550230e-04, -2.04137736e-03, -1.91721239e-03,
       -3.77248018e-03, 4.61361604e-03, -5.52021759e-03, -7.65833352e-03,
       -1.02809547e-02, 8.90752766e-04, 8.21340363e-03, 5.00045670e-03,
       2.92063225e-03, 2.60768831e-03, 9.04560648e-03, -2.17600755e-04,
       -5.04820375e-03, -2.74511491e-04, -4.31358145e-04,
       -7.01407320e-04, 6.26052637e-03, -8.72725248e-03, -1.67425303e-03,
       -1.43341150e-03, -3.00724962e-04, -3.22336354e-03, 3.63259646e-03,
       4.75863600e-03, 6.64675888e-03, -1.05702495e-02, -4.43613948e-03,
       -1.92903413e-03, 1.68490189e-03, 7.45710637e-03, 3.36018833e-03,
       -1.74125028e-03, 7.50648323e-03, 9.96188633e-03, -4.52154642e-03,
       -7.12905498e-03, -1.95384701e-03, -5.47526870e-03,
       -2.91407760e-03, -6.01405697e-03, 7.42587290e-05, 2.25501810e-03,
       -2.38941197e-04, -8.58653616e-03, 8.47288989e-04, 1.39845430e-03,
       -3.30372452e-04, 3.50333110e-04, -1.28166971e-03, -4.42366581e-04,
       -1.71729553e-04, 5.10798721e-03, 2.84504704e-03, -3.54200439e-03,
       -1.14895811e-03, -4.89157997e-03, 1.95431081e-03, 2.59211706e-03,
       1.28116377e-03, 4.86282771e-03, 5.07248566e-03, -5.93126426e-03,
       -1.19898969e-03, -9.45149362e-03, -8.48504994e-03,
       -5.33257099e-03, -4.85149445e-03, 3.23907076e-03, 1.01983026e-02,
       3.41678481e-03, -2.72014737e-03, -3.63878760e-04, 4.50473774e-04,
       -5.37429354e-04, -2.07485212e-03, -3.72514012e-03,
       -4.60403599e-03, -4.80714021e-03, 3.20609706e-03, 3.86353349e-03,
       -2.07983400e-03, -2.64854729e-03, -6.17368100e-03,
       -6.84712594e-03, -1.02265412e-02, -2.38517858e-03,
       -2.49109959e-04, 1.62843755e-03, -9.92166926e-04, 5.41233784e-03,
       -2.51537794e-03, -4.13618145e-05, 2.33197655e-03, 1.86096458e-03,
       7.76502723e-03, 3.78322764e-03, 8.51835415e-04, 2.24816916e-03,
       8.77146260e-04, 5.37051447e-03, 1.82304834e-03, 2.57696374e-03,
       -6.81658695e-03, -2.57679401e-03, -1.16295423e-02,
       -1.06311608e-02, -7.05558155e-03, 8.12674034e-03, 1.54303643e-03,
       2.15060008e-03, -3.82306811e-04, 5.83254872e-03, 5.11682127e-03,
       2.95494637e-03, 5.19105582e-04, 4.24516713e-03, 5.64468279e-03,
       3.24074388e-03, -4.35809459e-04, -7.12562818e-04, 4.57659177e-03,
       3.31335166e-03, -3.79879167e-03, -1.48514993e-02, -5.56308543e-04,
       1.58878771e-04, 6.24775933e-03, 7.47971423e-03, 7.65639637e-03,
       -3.39876919e-04, -2.26126402e-03, -5.03798900e-03,
       -6.60162978e-03, -6.76809717e-03, 6.56306744e-03, 2.85029062e-03,
       3.82935838e-03, 3.59649002e-03, 3.25557240e-03, 1.36962393e-03,
       2.30711396e-03, -2.51719379e-03, -1.29551569e-03, 6.56963140e-03,
       1.64712407e-03, 9.88060259e-04, -2.35498953e-03, 7.27894437e-03,
       3.06960312e-03, 2.75470177e-03, -7.92160071e-03, -8.65357113e-04,
       -1.02620223e-03, -3.42170824e-03, -8.11332284e-05,
       -4.30040481e-03, 1.01829451e-02, -2.55805906e-03, 5.44729689e-03,
       -7.96803646e-03, -9.62748472e-03, 8.10112525e-03, -2.14211689e-03,
       -7.31740519e-03, -1.01637719e-02, 2.97102751e-03, 5.31265978e-04,
       4.11247415e-03, 1.77702238e-03, 1.87775306e-03, 8.61515757e-03,
       -7.82031845e-03, -1.07776364e-02, -7.27840280e-03,
       -8.40077875e-04, 7.13897077e-03, 1.31468568e-02, 5.21821436e-03,
       1.06319590e-02, -3.65894893e-03, -5.84628060e-03, -2.88635143e-03,
       -4.41299938e-03, 5.40735712e-03, -4.41809557e-03, 2.85548065e-03,
       -9.96788219e-03, -1.29565289e-02, -1.38430551e-04,
       -1.03928670e-02, -5.96373435e-03, 2.16952316e-03, 2.40588980e-03,
       4.86317370e-03, 1.45110330e-02, -1.06924726e-02, 2.24078685e-04,
       -2.40766560e-03, -1.66335469e-03, 3.61232698e-04, -2.24367424e-04,
       -7.49757979e-03, 6.75868709e-03, 4.23330115e-03, -3.33864661e-03,
       2.34918622e-03, 1.67653721e-03, -2.40095519e-03, 3.46826669e-03,
       3.64944385e-03, -4.44414373e-03, 6.67766901e-04, 7.57646421e-03,
       -5.01747150e-03, 1.36846618e-03, -9.56907636e-04, -6.58183498e-03,
       3.67712113e-03, -6.93248658e-05, -4.82362835e-03, 6.85835816e-03,
       8.13273713e-03, -7.86183029e-03, 2.81460676e-03, -3.12537630e-03,
       -2.01121415e-03, 5.14885038e-03, -2.72356643e-04, -5.26215066e-04,
       -3.24782031e-03, 1.36374880e-03, -5.37311332e-03, -1.23187096e-03,
       5.28114336e-03, -4.14997991e-03, 1.82540843e-03, 7.05193123e-03,
       9.59392451e-03, 8.04917514e-03, 3.05763702e-03, -9.70227364e-03,
       -2.50503328e-03, -8.77082755e-04, -5.40370913e-03, 3.99056735e-04,
       4.89876722e-04, 1.02352658e-02, 6.05231849e-03, 2.58943252e-03,
       -6.87526865e-03, 1.60407077e-03, -4.02093818e-03, -1.98342255e-03,
       -2.68838787e-03, -2.15967582e-03, 4.70235338e-03, 1.14845776e-03,
       1.16117345e-03, 6.69044384e-04, 2.37895269e-03, 3.13042034e-03,
       -1.22466998e-03, 1.80026190e-03, 1.65847607e-03, 3.43501073e-04,
       5.33936825e-03, 7.32483168e-04, -7.22409517e-04, 4.00941493e-03,
       -3.27040697e-03, -4.20857500e-03, -1.87382172e-03,
       -9.61759186e-04, 6.88251667e-03, 1.02557882e-03, -1.38333440e-03,
       -4.32862388e-03, 2.79795332e-03, 1.63442269e-03, 9.97195602e-04,
       7.87240360e-03, 6.79966121e-04, 5.40251425e-03, 2.65630404e-03,
       1.48581574e-03, -4.85103065e-03, 2.17337583e-05, 1.32185617e-03,
       -4.55326214e-03, 6.23330241e-03, 1.96431926e-03, -1.39530946e-03,
       1.51088345e-03, -5.53068426e-03, -6.56784978e-03, -1.51829480e-03,
       3.98496049e-04, 5.36329986e-04, 4.68549738e-03, 4.50074114e-03,
       8.30098055e-03, -4.46673296e-03, -5.59697347e-03, -4.09301184e-03,
       -3.84389400e-03, 6.23599719e-03, 1.17505784e-03, 6.74243551e-03,
       -1.72186445e-03, 3.78218479e-03, -1.07084669e-03, 1.36807037e-04,
       1.17716857e-03, -1.27278804e-03, -4.30236850e-03, -4.03446704e-03,
       -4.03462982e-05, -2.42270413e-03, 1.96141686e-04, -1.79431087e-03,
       -1.61734351e-03, 2.52953521e-03, -1.46933633e-03, 7.94496911e-04,
       -1.54773018e-03, -5.04170358e-03, -3.12260678e-03,
       -6.92383095e-04, -4.55931434e-03, 1.07497722e-03, 4.38625272e-03,
       -2.96594948e-03, -3.03571206e-03, -3.86625365e-03,
       -9.95925069e-03, -1.25307031e-02, -6.33353274e-03, 2.43858434e-03,
       4.70075291e-03, 5.76126901e-03, -9.43249732e-04, -4.59030643e-03,
       -3.02214146e-04, 6.47138397e-04, 1.35161262e-03, -9.98160802e-04,
       2.51293211e-04, 3.54684948e-04, 2.99564010e-04, -2.08190945e-03,
       -7.10340636e-03, -2.62644887e-03, 1.88115530e-03, -6.27826015e-03,
       -2.56289053e-03, 5.04965801e-03, -1.93920406e-03, -7.75915978e-04,
       -2.62657343e-03, -8.01314600e-03, -9.18988080e-04, 5.57912001e-03,
       -5.83641464e-04, -3.31841712e-03, 3.63086001e-03, -7.53945205e-05,
       1.17619138e-03, -3.42215272e-03, -4.44909558e-03, 2.56160065e-03,
       1.07900035e-02, 7.68042635e-03, -1.75204396e-03, -1.52847811e-03,
       -1.30578037e-03, 1.21493859e-03, -7.82950723e-04, -8.04301258e-03,
       -6.77134050e-03, -1.06388004e-03, -7.51963723e-03,
       -7.68621080e-03, -6.83485356e-04, -6.62192795e-03,
       -2.73567205e-03, -3.09711020e-03, -5.07108541e-03, 3.13893263e-03,
       3.08337854e-03, 2.49517616e-03, -3.11678392e-03, 3.23002663e-04,
       -7.36363372e-03, -1.09893838e-02, -5.45146223e-03,
       -8.30357336e-03, -7.30732409e-03, 5.86132566e-03, -3.40343523e-03,
       2.47997651e-03, 2.74464348e-03, 4.04336053e-04, 8.89254455e-03,
       2.03976088e-04, -1.62470096e-03, -6.73042750e-03, 2.76075094e-03,
       1.26405864e-03, 1.35698309e-02, 4.32507414e-03, 6.46875333e-03,
       1.17864823e-02, 1.88387150e-03, 1.69547726e-04, -3.70748993e-03,
       -6.59488467e-03, 2.76053976e-03, 2.67690723e-03, -6.61937101e-03,
       -1.20122302e-02, -6.66458253e-03, -3.40626412e-03, 1.33858016e-02,
       3.32644486e-05, -1.92835811e-03, 2.78838957e-03, 1.24834513e-03,
       -6.36058813e-03, 1.39963871e-03, -2.00838599e-06, 3.07411002e-03,
       -2.25932128e-03, -8.66727345e-03, -4.43639746e-03, 3.42198764e-04,
       9.39018617e-04, -8.34828650e-04, -1.93492230e-03, 5.06956037e-03,
       1.24696176e-03, -8.32937367e-04, 4.92601981e-03, 7.67948618e-03,
       1.06912283e-02, -2.94638728e-03, -2.83026812e-03, 4.52760654e-03,
       9.22708865e-03, 5.13272453e-03, 1.40552707e-02, 2.84907967e-03,
       4.96806391e-03, 1.60442910e-03, -1.47981604e-03, -2.36097793e-03,
       -1.26794796e-03, -6.64923387e-03, 4.58248984e-03, -1.05730702e-04,
       -1.94499662e-04, 6.84261275e-03, 5.77284489e-03, 9.63422004e-04,
       -2.00552400e-03, -4.39973222e-03, -1.27886208e-02,
       -3.01666232e-03, 3.17686517e-03, 3.82049684e-03, 7.39221601e-03,
       6.37840759e-03, -1.99468527e-03, -4.23075259e-03, -2.21572933e-03,
       -2.20838748e-03, 1.18404755e-03, -1.48095796e-03, 4.88792453e-03,
       1.15113715e-02, 7.23406626e-03, -1.02417683e-03, -2.18382338e-03,
       -6.56509958e-03, -1.50383459e-02, -2.37681973e-03,
       -4.94610844e-03, -7.61687523e-04, 1.22642610e-03, 2.48041819e-03,
       -6.19157357e-03, -2.83661787e-03, 8.01258313e-04, -1.12390677e-02,
       -1.47007999e-03, -6.56660763e-04, 3.04801879e-03, 2.41994392e-03,
       1.72985252e-03, -2.61019240e-03, 2.31204001e-04, 3.60232289e-03,
       -3.05498648e-03, 5.38575521e-04, -1.11092930e-03, 1.11018494e-03,
       4.91982885e-03, 1.33552123e-03, -9.96471848e-03, 4.53319075e-03,
       1.32456276e-04, -9.49853100e-03, 2.53840371e-05, 3.67193669e-03,
       -6.17854646e-04, -7.03268917e-03, -3.09980148e-03,
       -7.06497300e-03, -2.98911659e-03, 5.24723530e-03, -1.69407227e-03,
       4.64707240e-03, -8.12587701e-03, -1.01249246e-03, -4.57785279e-03,
       1.43653760e-03, -2.09756684e-03, -5.82912192e-03, 7.99362175e-03,
       -1.67975237e-03, -1.15437189e-03, -8.91361199e-03,
       -4.88610798e-03, -4.54405556e-03, 5.05706947e-03, -4.89805220e-03,
       -2.09273724e-03, 1.76449828e-02, 3.81119689e-03, -4.55163047e-03,
       1.80469814e-03, -1.10265175e-02, -1.04429470e-02, -7.94388005e-04,
       -2.08858447e-03, -6.09076722e-03, 6.05481444e-03, 3.83491162e-03,
       3.60468216e-03, -3.69312800e-03, -1.01467548e-02, -1.08660441e-02,
       6.81666797e-03, -3.30405287e-03, 2.78403959e-03, 1.23027992e-02,
       -5.07310673e-04, -5.01088519e-03, -9.74852778e-03,
       -2.08971044e-03, -1.56457117e-03, 2.28660973e-03, -4.05538175e-03,
       2.23008590e-03, 2.03967616e-02, 9.95641481e-03, -7.59834331e-03,
       -1.30530754e-02, -4.21134150e-03, -1.66817787e-04,
       -3.39062302e-03, -4.16576676e-03, -9.29904054e-05, 1.14933942e-02,
       2.24672211e-03, -8.41113087e-03, -3.15603078e-03, -6.32156711e-03,
       -8.11114907e-03, 3.98137001e-03, 5.26623800e-03, 4.88729728e-03,
       1.89322680e-02, 1.52288692e-03, -7.59148691e-03, -8.68938491e-03,
       -4.12376970e-03, -4.50865645e-03, -4.38121660e-03, 2.25931965e-03,
       -9.03915323e-04, 1.58892199e-02, 2.61548255e-03, -9.11047589e-03,
       -8.18000454e-03, -1.21409749e-03, 2.50393437e-04, -1.94131212e-06,
       2.76003935e-04, 1.08969794e-03, 4.34059557e-03, 2.02609692e-03,
       -6.42612576e-03, -7.00573996e-03, -5.40068395e-05,
       -1.25996885e-04, -9.23768245e-03, -4.58687730e-03,
       -4.76671895e-03, 1.33521715e-03, -7.30384723e-04, -2.93146633e-03,
       -4.76863189e-03, -4.30810731e-03, -3.11378809e-03,
       -4.04517539e-03, -3.89340799e-04, 7.76662817e-03, 1.13727525e-02,
       3.09011200e-03, -9.02287662e-03, -1.04318140e-03, 2.83405127e-04,
       -1.41819555e-03, -1.00882519e-02, -1.09819658e-02,
       -7.10579799e-03, 3.18125077e-03, -1.71836698e-03, -1.74042347e-04,
       4.50762709e-05, 5.47927478e-03, 2.29929737e-03, -1.39844911e-02,
       -8.65773484e-03, -1.58126303e-03, 6.55466737e-03, 9.26319917e-05,
       -1.71436841e-04, -2.89303483e-04, 2.41975067e-03, -2.09613339e-04,
       -7.93323480e-03, -5.31952968e-03, 2.91580311e-03, 5.38950972e-03,
       -4.42030840e-03, -1.75287167e-03, -3.86714144e-03,
       -1.03088596e-03, -1.83500547e-03, -1.03970114e-02,
       -5.31934900e-03, -4.54012211e-03, 1.01575907e-02, -1.04361633e-03,
       -2.56371568e-03, -2.33171391e-03, 1.18298107e-04, -2.49884115e-03,
       -8.49825423e-03, -5.49670961e-03, -1.04937481e-03, 3.25722108e-03,
       4.00454766e-04, 2.09676544e-03, -9.64024279e-04, 3.51795112e-03,
       6.17391150e-03, -4.81177820e-03, 1.98577833e-03, 2.97632674e-03,
       4.52610338e-03, -5.75536536e-03, 9.87934298e-04, -2.25194776e-03,
       5.46876201e-03, 9.21101309e-03, 6.33964140e-04, -3.35090864e-03,
       6.57315087e-03, 2.57880171e-03, -7.52239022e-03, 1.54783356e-03,
       -5.57451462e-03, 6.40232291e-04, 3.21551226e-03, -8.49298202e-03,
       1.25867629e-03, 3.25212663e-04, 3.33349197e-03, -1.00020757e-02,
       -3.95865133e-03, -8.19163490e-03, -7.90291000e-04, 5.12551749e-03,
       -4.85764025e-03, -1.09712519e-02, -4.00790060e-03, 2.07268726e-03,
       -8.32499564e-03, -7.41984369e-03, -1.51187344e-03, 4.02547652e-03,
       8.83128494e-03, 3.46786925e-04, -2.03726417e-03, 3.31694697e-04,
       7.14050140e-03, 9.75301664e-04, 5.78082050e-04, -3.71523481e-03,
       1.63810284e-04, 7.17406103e-04, -2.23785741e-04, -1.10212993e-03,
       -8.35254788e-03, -3.07843811e-03, -1.54488138e-03,
       -4.69911331e-03, -1.18317856e-02, -6.01518992e-03, 5.03587443e-03,
       3.80570907e-03, 4.26146958e-04, -4.24530730e-03, 4.15309612e-03,
       -4.00407985e-03, -1.01345172e-02, -1.45870419e-02,
       -9.62970220e-03, -5.06869098e-03, 6.97296066e-03, 3.80250555e-03,
       -1.16710914e-02, 9.25112749e-04, -8.22540373e-03, -9.50787403e-03,
       7.02314638e-03, 4.39091586e-03, -1.13474426e-03, 2.13632639e-03,
       4.58540209e-03, 3.06816283e-03, -4.24133707e-03, -1.49537157e-03,
       -1.86253327e-03, 6.05346402e-03, -1.22410350e-03, -3.97435809e-03,
       -6.85085589e-03, 3.92226921e-03, -1.59674126e-03, -2.50628102e-03,
       -2.99994694e-03, -2.72636604e-03, -3.29342042e-03,
       -2.80903606e-03, -1.33737437e-02, 5.77890174e-03, 5.92942676e-03,
       2.70670955e-03, 8.07058718e-03, -4.80106380e-03, -9.15746484e-03,
       -2.79636751e-03, -3.48351104e-03, -7.05080759e-03, 6.81757927e-04,
       7.09341606e-04, -6.77362550e-03, 2.54829088e-03, -6.66635158e-03,
       -4.42738598e-03, 2.21280172e-03, 3.34913755e-04, -3.10413819e-03,
       2.92430539e-03, 1.40716704e-02, 5.86521754e-04, -3.50995059e-03,
       -4.47628321e-03, -1.89703226e-03, 6.52954588e-03, 4.19573486e-03,
       -2.82861205e-04, 7.18804449e-03, 1.02241496e-02, -2.09947885e-03,
       -4.28840891e-03, 2.78713554e-03, -2.84202310e-04, 5.33552328e-03,
       9.28297115e-04, -2.10296304e-04, 4.20687115e-03, 7.25199562e-03,
       3.08776298e-03, 1.16757234e-03, -4.38842224e-03, -2.34088022e-03,
       3.81434895e-03, 1.74314633e-03, 3.75973852e-03, 6.67108130e-03,
       -1.12716481e-03, -3.14319972e-03, -4.13186522e-03,
       -1.64048665e-03, 5.05059212e-03, 1.69498590e-03, 9.48091224e-03,
       8.35633650e-03, 5.66448434e-04, 1.00100711e-02, -5.37740532e-03,
       1.19246717e-03, 1.86310417e-03, -5.44241583e-03, -3.62109626e-03,
       4.36455151e-03, 9.17486381e-03, -1.07292400e-03, -1.30763929e-03,
       -1.49790980e-02, 2.43405486e-03, 2.25092960e-03, -7.51335919e-03,
       9.47019272e-03, 7.44618196e-03, 9.99270380e-03, 4.11898410e-03,
       1.76812452e-03, -1.15342028e-02, -5.93672460e-03, -3.15301935e-03,
       2.13047606e-03, 2.55528535e-03, 2.26100208e-03, 8.37574422e-04,
       -6.40907499e-04, 1.72288262e-03, -8.41383636e-03, 3.86675383e-04,
       -3.85169033e-03, -4.95135132e-03, -9.29527543e-03,
       -5.57064218e-03, 1.64492964e-03, -8.00942909e-03, -2.22394336e-03,
       -1.25079555e-02, -6.27496513e-03, 1.98006700e-03, -6.52383361e-03,
       -7.28948135e-03, -4.17699153e-03, 3.53753800e-03, 1.05564378e-03,
       5.38425706e-03, -6.30989112e-03, -9.72619746e-04, -9.14650038e-04,
       -3.29688098e-03, -4.41781431e-03, -4.11008066e-03,
       -5.76813379e-03, 2.06575100e-03, 7.12766952e-04, -6.14158995e-03,
       -3.83800222e-03, -9.26200114e-03, -7.43504893e-03, 9.92573053e-03,
       2.22445372e-03, 3.01932823e-03, -6.00913947e-04, 5.55212051e-03,
       -1.27755450e-02, 3.33843683e-03, -2.57442845e-03, 9.56749544e-03,
       -5.84504195e-03, -7.98049616e-04, -2.75508664e-03,
       -5.18949702e-04, 5.53599559e-03, 4.96251229e-03, -4.67378646e-04,
       5.52749215e-03, -2.83560832e-03, 4.14536195e-03, 1.47337525e-03,
       -2.05300259e-03, -2.26087240e-03, -2.82531045e-03, 3.06524546e-03,
       1.37713301e-04, 1.04014836e-02, 4.64270916e-03, -7.07489485e-03,
       -5.75443404e-03, 1.16313237e-03, 6.21869089e-03, 7.30483513e-03,
       -2.10473058e-03, -1.23755750e-03, -2.44671130e-04,
       -7.01783178e-03, -3.12054483e-03, -9.64884367e-03,
       -2.08092062e-03, -3.04643484e-03, 3.19820712e-04, 2.14499468e-03,
       3.59956431e-03, -1.78856438e-03, -2.98077310e-03, -1.54072687e-03,
       -4.03135270e-03, 2.08308047e-04, 1.78823783e-03, -7.08677340e-03,
       -9.99521697e-04, -6.58611394e-03, 5.27523225e-03, 6.80426310e-04,
       -2.47612852e-03, -2.23874720e-03, -4.02406743e-03,
       -6.03606133e-03, -7.50713283e-03, -3.23312311e-03,
       -4.67969105e-03, 3.88482935e-03, -2.01776507e-03, -3.87283112e-03,
       -1.10595487e-02, -1.38016732e-03, 4.69733635e-03, -2.52967002e-04,
       4.90428880e-03, 2.21553212e-03, -3.57569358e-03, -2.53518781e-04,
       -7.20914220e-03, -1.19224750e-02, -1.42412959e-02,
       -2.89591914e-03, 1.75824761e-03, 7.93146342e-03, 1.95382186e-03,
       -3.84674198e-03, 4.94078558e-04, 8.48108064e-03, 2.97775236e-03,
       3.03770532e-03, 5.93667338e-03, 2.02018023e-03, 1.18001830e-03,
       -1.76011818e-03, 3.82790633e-04, 4.89566987e-03, 5.97704668e-03,
       -1.57210720e-03, -2.14842870e-03, -1.85095624e-03,
       -1.94818736e-03, 4.59795538e-03, -8.20185058e-04, -8.08988418e-03,
       -8.34209262e-04, 1.48891436e-03, -7.97429960e-03, -7.77481869e-03,
       7.56392896e-04, 4.50927182e-04, 6.54969655e-04, 4.25210223e-03,
       5.93371049e-04, 3.03146895e-03, -1.42705161e-04, -4.16111806e-03,
       4.14359674e-04, -3.19728395e-03, -5.03005087e-03, -4.15291218e-03,
       -6.52529858e-03, -8.44318233e-03, -1.16184447e-03, 1.12801103e-03,
       -1.34883006e-03, 4.82165907e-03, -4.75392153e-04, 4.12195310e-04,
       9.72291455e-03, 1.05279582e-02, -1.79504638e-03, -2.29868689e-03,
       -2.49921018e-03, -6.75356900e-03, 2.93418183e-03, -2.23692390e-03,
       5.95326535e-03, 2.97863898e-03, 7.14050513e-03, -5.90051897e-03,
       -9.05134529e-03, 1.03245326e-03, -4.86833276e-03, 7.18774507e-03,
       3.89253558e-03, -2.13077920e-03, 2.70105945e-03, -2.14690878e-03,
       -1.16467271e-02, -5.20273624e-03, 3.21161817e-03, -3.55549576e-03,
       8.20765365e-03, 4.88256075e-04, -2.23588618e-03, -2.78864801e-03,
       4.10140492e-03, -6.32411474e-03, 6.44271553e-04, -6.63843891e-03,
       -2.33608461e-03, -5.94973244e-05, 7.17425486e-04, 1.09457190e-03,
       -3.31674889e-03, -1.15783757e-03, -7.50919152e-03,
       -9.39378329e-03, -3.38236452e-03, -4.19914583e-03,
       -8.91260686e-04, 4.67900280e-03, -9.79445037e-03, 1.46132102e-03,
       1.03139561e-02, -1.93101144e-03, -4.06474667e-03, 8.78199190e-03,
       -2.74783466e-03, -3.52450158e-03, -2.27932632e-03,
       -4.57481761e-03, -5.28657995e-03, -1.06341252e-03,
       -1.61657995e-03, 4.99930652e-03, 1.43254763e-02, 4.86565242e-03,
       3.11229960e-03, -8.61460343e-04, -6.69922028e-03, -2.28132843e-03,
       8.65918305e-03, 1.70839811e-03, 4.80136694e-03, 2.17761099e-03,
       1.71400490e-03, 5.04815998e-03, 3.18872812e-03, -3.18536744e-03,
       6.68379059e-03, 3.78106069e-03, -5.03917923e-03, -8.53413425e-04,
       -3.39329289e-03, -4.95782588e-03, 2.46338639e-03, -3.78847052e-03,
       -7.28343194e-03, -2.16740742e-03, -2.63655384e-04, 4.61996719e-03,
       -2.55353912e-03, 6.96524791e-03, 8.18541041e-04, 7.68421823e-03,
       1.65313878e-03, -5.57184499e-03, -2.41434365e-03, -7.70686008e-03,
       4.56957234e-04, 3.87081271e-03, -2.08580028e-03, -5.65165514e-03,
       1.81035115e-03, -4.48943116e-03, -4.48901439e-03, -3.07645835e-03,
       -1.00761307e-02, -1.14298705e-03, -1.17319636e-03,
       -3.02846078e-03, -5.25917718e-03, -2.26824987e-03,
       -9.63558909e-03, -3.46773164e-03, -5.47837093e-03,
       -7.18370499e-03, 5.12141967e-03, 4.29509487e-03, 4.57276125e-03,
       -3.08865798e-03, 2.33392627e-03, -3.70109384e-03, -5.71560301e-03,
       3.31592141e-03, 1.85424741e-03, 7.94105325e-03, 8.62941053e-03,
       1.16774789e-03, -5.33485319e-03, 3.42568709e-03, -9.16854292e-03,
       5.14403498e-03, 9.06798959e-05, -8.85370560e-03, -9.10284871e-04,
       5.03418641e-03, 4.33982303e-03, 4.93202184e-04, 1.08489618e-02,
       -4.77687130e-03, 3.26729077e-03, 5.23541868e-03, -1.43685180e-03,
       6.26018643e-03, 3.87188303e-03, 8.58855841e-04, -1.69336144e-03,
       6.75408263e-03, 7.44748535e-03, -9.98610747e-04, 4.24830848e-03,
       -4.22523264e-03, -1.81136397e-03, -1.28054147e-04,
       -8.92116502e-03, -1.90668437e-03, 7.81227229e-03, 5.93709433e-03,
       2.91622174e-03, -7.67235458e-03, -9.06257331e-03, -4.50339587e-03,
       -1.05388649e-02, -2.36136629e-03, -2.88866041e-03, 2.92638084e-03,
       3.44027439e-03, 1.12945528e-03, 5.05601149e-03, -2.27486482e-03,
       5.58745256e-03, 1.47562835e-03, -1.95655157e-03, 2.12038192e-03,
       7.09670875e-03, 4.31940937e-03, 6.53275382e-03, -7.16741476e-03,
       -1.05858669e-02, -3.88194900e-03, 9.34813637e-04, -8.15765187e-03,
       -1.36671448e-03, 2.15564109e-03, 2.41247797e-03, -3.05483211e-03,
       6.03993563e-03, 1.38175976e-03, 6.02996070e-03, -1.10933520e-02,
       -2.64292676e-03, -3.09635827e-04, -2.21053651e-03,
       -2.69686361e-03, 4.38340986e-03, 9.30982362e-03, 6.68876758e-03,
       7.12134596e-03, -3.22963437e-03, -7.88433943e-03, 5.42109919e-05,
       3.31348041e-03, 3.72896378e-04, 7.74137164e-03, 2.41717775e-04,
       -1.19073072e-03, 5.56601677e-03, -7.56399985e-03, -9.80942859e-04,
       1.49670709e-03, 1.15604671e-02, 4.74202866e-03, 3.16606928e-03,
       -5.15734311e-04, -3.58139444e-03, 9.71386395e-03, 8.99421750e-04,
       -8.13898910e-03, -4.59528790e-04, 7.41770538e-03, 1.76708400e-03,
       -2.17421609e-03, -1.35579938e-03, 1.92964275e-03, 4.83430177e-03,
       -9.59482044e-03, -5.24883997e-03, -4.56306757e-03, 3.83546809e-03,
       6.00998849e-03, -1.65663572e-04, 4.29152278e-04, 1.00632873e-03,
       -1.25775672e-03, -3.39797977e-03, -1.59271678e-03, 2.19729118e-04,
       1.30992131e-02, 6.60819979e-03, -5.81614580e-03, -2.46825046e-03,
       3.39072321e-05, 5.81414020e-03, -3.72979301e-03, 1.43273047e-03,
       5.29686781e-03, 8.34481791e-03, 7.72054354e-03, 6.12083962e-03,
       6.85067661e-03, 1.82347279e-03, 1.23057850e-02, -2.21845019e-03,
       -6.96152216e-03, -8.17435514e-03, 2.95155216e-03, 1.00807147e-03,
       4.82275896e-03, 8.27941392e-03, -3.14356340e-03, -3.34475678e-03,
       -2.61493260e-03, -8.59225576e-04, -6.56251702e-03, 1.37513899e-03,
       3.48916044e-04, 1.33935595e-02, 6.25178916e-04, 4.93816799e-04,
       1.50144188e-04, 2.34555360e-03, -1.60569453e-03, 2.05309317e-03,
       3.20032064e-04, 1.49969093e-03, 9.99332592e-03, 9.53197666e-03,
       6.64523151e-03, 6.59411913e-03, -4.66843182e-03, -7.27876322e-03,
       7.63057382e-04, -8.54403013e-04, 3.49749229e-03, 8.17827042e-03,
       -1.51948549e-03, 6.85941428e-03, 2.62085116e-03, -1.02598360e-02,
       4.99368878e-04, -2.15348275e-03, 4.72887186e-03, 9.21408064e-04,
       7.22544966e-03, -4.52709524e-03, -3.33315902e-03, 1.46110554e-03,
       1.60341337e-03, 1.27123296e-03, 6.02995837e-03, 1.05908411e-02,
       6.05169823e-03, -2.58310093e-03, -5.17483987e-03, -1.63762295e-03,
       2.65677646e-03, -4.71231993e-03, -6.57737255e-03, -1.46692269e-04,
       6.92086993e-03, 7.96889537e-04, -1.63413497e-04, -2.40189279e-03,
       -1.08447706e-03, -3.17183905e-03, -8.69202893e-03, 3.54686519e-03,
       3.93174775e-03, 9.10586584e-03, -4.55818838e-03, -2.33462546e-03,
       -1.03961802e-05, -4.43565194e-03, -4.06208821e-03,
       -2.60464195e-03, -2.11449267e-04, 6.16719364e-04, 1.35790464e-03,
       1.09717739e-03, -8.57243501e-03, -5.60537260e-03, -8.31693038e-03,
       -6.41178992e-03, -6.29568193e-03, -7.14444974e-03,
       -2.95307534e-03, 6.74344739e-03, 6.45748852e-03, -9.46703018e-04,
       4.16003662e-04, -8.96975584e-03, -1.44256121e-02, -1.07183624e-02,
       -3.77267628e-04, -2.78075412e-03, -1.28582481e-03,
       -2.99578137e-03, -1.70156434e-02, -8.84409342e-03,
       -3.30364867e-03, -5.68510406e-03, -3.80114908e-03,
       -7.39254477e-03, 6.90501824e-04, 4.43475181e-03, 9.31997970e-03,
       2.42101052e-03, 4.80707502e-03, 6.82959566e-03, -7.10131950e-04,
       -8.40697717e-03, -3.05535475e-04, -4.98978700e-03,
       -3.76077835e-03, -3.90480342e-03, -1.42202135e-02,
       -1.09417667e-03, -6.62511957e-05, -1.24955568e-02,
       -2.04129913e-03, 4.48005507e-03, -7.98965991e-03, -1.30924806e-02,
       -1.09345382e-02, -1.08447699e-02, -6.13005226e-03, 8.56071338e-03,
       3.64138366e-04, 3.78739135e-03, -5.05566550e-03, -5.69032133e-03,
       -5.48676215e-03, -2.93377973e-03, -7.91518856e-03, 1.70959556e-03,
       4.77373647e-03, 2.96705263e-03, -1.25064317e-03, -9.49899759e-03,
       -1.04852188e-02, -1.37504721e-02, -1.07966140e-02,
       -9.90200881e-03, 2.31718156e-03, 7.27908406e-03, 8.99787806e-03,
       -7.18582468e-03, -2.51289573e-04, -9.67254769e-03,
       -1.27902841e-02, -4.02390491e-03, -4.53921361e-03,
       -1.29062282e-02, 1.37252528e-02, 3.20811151e-03, -4.04716050e-03,
       -6.16023317e-03, -1.03297969e-02, -1.07479254e-02, 4.04478190e-03,
       2.93623959e-03, 3.24930972e-03, 4.41661384e-03, -5.53824706e-03,
       -1.10838013e-02, -5.12368605e-03, -1.21059995e-02,
       -1.78537685e-02, -1.68675405e-03, -1.07778274e-02, 1.58679567e-03,
       1.13502061e-02, 1.50818033e-02, -1.65826303e-03, -2.94971257e-03,
       -9.20615252e-03, -1.31167155e-02, -1.78739452e-03,
       -3.42592341e-03, 1.17997068e-03, 1.12201450e-02, -5.58800716e-03,
       -2.75745313e-03, -1.78073894e-03, -7.14314822e-03,
       -8.44706781e-03, -5.88378054e-04, 3.02969618e-03, 4.94185649e-03,
       1.33156925e-02, -9.26007796e-03, -8.26088153e-03, -6.77553704e-03,
       -5.90645242e-03, -1.34093622e-02, -7.19346059e-03,
       -5.63091971e-03, 3.74532538e-03, 1.51391309e-02, -4.24394198e-03,
       -1.22476481e-02, -9.23551444e-04, -4.47468972e-03,
       -9.65459738e-03, -2.48945272e-03, -3.44028813e-03, 2.03726394e-03,
       9.11715254e-03, -2.07165675e-03, -1.52607867e-03, -5.47369430e-03,
       -6.69849804e-03, -1.44317308e-02, -7.01467646e-03,
       -9.16748773e-03, -1.34480686e-03, 1.53937265e-02, -5.16118528e-03,
       -7.40380259e-03, -4.66602109e-03, -5.13046421e-03,
       -8.61133356e-03, -2.48269294e-03, 1.68544927e-03, 4.32005012e-03,
       2.38092858e-02, 1.90321868e-03, -7.82155432e-03, 3.31775355e-03,
       -3.29923350e-04, -6.55421941e-03, -6.49230089e-03,
       -5.90619212e-03, -9.26814601e-03, 1.26325814e-02, -3.24485853e-04,
       -4.17768722e-03, -9.26182955e-04, -4.13564779e-03,
       -7.49419210e-03, -2.60386337e-03, 1.61326071e-03, 4.58166236e-03,
       1.96243692e-02, -8.45070535e-05, -1.85221760e-03, 7.61059404e-04,
       -6.12750836e-03, -1.33070005e-02, -1.29412049e-02,
       -6.29957998e-03, -4.27726377e-03, 8.00546445e-03, -7.32982671e-03,
       -5.15116798e-03, 4.33386909e-03, 2.62765773e-03, -1.83516915e-03,
       -1.81849720e-03, 1.34517590e-03, -1.48614403e-03, 1.71410739e-02,
       6.88750017e-03, 2.30306148e-04, 3.29288375e-03, -1.59265148e-03,
       -1.03435759e-03, -2.14100466e-03, -2.35726195e-03, 5.50341979e-03,
       1.10914288e-02, 8.73647444e-03, 8.37607309e-03, 7.75960740e-03,
       -1.16450363e-03, -6.20152336e-03, -9.75981075e-03,
       -5.49104158e-03, 8.85932008e-04, 8.71258695e-03, -3.36018411e-06,
       2.25410587e-03, -2.60975887e-03, -4.34511993e-03, 2.09591724e-03,
       -3.88165959e-03, -5.19299926e-03, 7.46275252e-03, 7.73015618e-03,
       -7.66297244e-03, -4.36172774e-03, 4.47191019e-03, 4.00023768e-03,
       3.90509749e-03, -2.77706841e-03, 1.19832542e-03, 5.44915022e-03,
       1.08140754e-02, 1.71423071e-05, 5.87378303e-03, 3.81654198e-03,
       3.01881996e-03, -3.39322520e-04, -3.56824743e-03, -1.24951554e-02,
       -5.78773301e-03, 4.38857870e-03, 3.27484845e-03, 3.77556216e-03,
       -4.00661338e-05, 6.27811416e-04, 4.66680108e-03, -3.71426111e-04,
       9.45979357e-03, 8.37520417e-03, 8.57861340e-03, -4.12513502e-03,
       -2.61500175e-03, 1.83653343e-03, -3.99968121e-03, -3.70710366e-03,
       5.23714069e-03, 2.12157189e-04, -3.77624505e-03, -9.78728989e-04,
       -3.79549223e-03, -2.55217589e-03, -3.08416970e-03,
       -3.98156513e-03, -2.82287874e-05, 4.79130959e-03, -2.61732406e-04,
       -6.28093956e-03, 4.17271908e-03, 4.68276069e-03, -3.06115067e-03,
       8.29725992e-04, -3.81506770e-03, -3.07158870e-03, 5.43730333e-03,
       9.62143065e-04, -5.03737573e-03, 5.92463696e-03, -7.80695293e-04,
       3.72885348e-04, 8.62378045e-04, -6.70130411e-03, -3.78264906e-03,
       5.50788036e-03, -9.25896689e-04, -9.02631041e-03, 1.00812153e-03,
       1.13037869e-03, -6.56730263e-03, 3.31409625e-03, -3.09087161e-04,
       -3.02866381e-03, -1.63029390e-03, -1.01543078e-02,
       -4.53117909e-03, 1.88343681e-03, 2.12307234e-04, -2.27194536e-03,
       1.60838850e-03, -1.80158555e-03, -1.38201322e-02, -8.41710716e-04,
       -1.00087235e-03, -2.45585362e-03, 2.08983105e-03, -5.80806937e-03,
       -2.50391685e-03, 4.68962826e-03, -3.18156322e-04, -1.06145460e-02,
       8.17756169e-04, -4.21891874e-03, -7.64668919e-03, 4.18455154e-03,
       -4.44846554e-03, -6.37186167e-04, 1.44408306e-03, -8.35840765e-04,
       -1.04876319e-02, -4.23181197e-03, -6.77907886e-03, 4.92434157e-03,
       2.72177160e-03, -1.97097869e-03, -3.89783527e-03, 2.72057578e-03,
       6.28148159e-03, 2.81291577e-04, 3.32738156e-03, 2.79686716e-03,
       -1.13669306e-03, -1.02303119e-03, -2.69886130e-03,
       -3.65569210e-03, 4.71901149e-03, 2.67483573e-03, -1.51981041e-03,
       1.17458426e-03, 4.28800331e-03, 1.62040163e-03, -1.22710585e-03,
       -5.68985008e-03, -9.83706792e-04, 2.49984069e-03, 1.58671662e-03,
       2.93893274e-03, 1.08605996e-03, -9.74903908e-03, -7.88537506e-03,
       -1.50216301e-03, -1.32269470e-03, 6.40991004e-03, 1.61518960e-03,
       7.57441204e-03, 7.96405971e-03, 3.54524422e-03, 1.03588160e-02,
       4.39069560e-03, -4.44660801e-03, -9.48687270e-03, -5.43002551e-03,
       2.13879719e-03, 7.71341985e-03, 1.91390328e-03, -4.03958512e-03,
       -2.82330671e-04, -6.22460013e-03, -3.63925996e-04, 1.17307506e-03,
       1.17949788e-02, 7.69827468e-03, 7.07838917e-03, -2.24062754e-03,
       -4.24422603e-03, -7.99897034e-03, -1.14408126e-02,
       -2.65553431e-03, 4.83896770e-03, 9.44977254e-03, 5.17239422e-03,
       5.96670946e-03, -5.72348107e-03, -5.18640783e-03, -1.08701037e-02,
       1.74260407e-03, 5.10728871e-03, 3.99671402e-03, -2.10689474e-03,
       5.27668698e-03, 1.17585063e-02, 1.77917012e-03, -6.69751829e-03,
       3.10913863e-04, -9.80789773e-03, -1.76439050e-03, 6.16411399e-03,
       7.94269703e-03, 2.20664078e-03, 5.74542396e-03, 4.02603904e-03,
       -5.88747393e-03, -1.55865983e-03, -2.31209537e-03,
       -1.11908594e-03, 2.89144996e-03, -2.66919704e-03, 2.31660437e-03,
       2.99240137e-03, -5.65560395e-03, 6.88004307e-04, -1.90434849e-03,
       4.30401368e-03, -1.32724445e-03, -5.49342483e-03, -8.12590495e-03,
       5.04440581e-03, -3.47309094e-03, 5.04280557e-04, -1.59748225e-03,
       3.81987984e-03, -7.38910213e-03, 3.24715045e-04, -9.88638611e-04,
       7.97085837e-03, -4.10425523e-03, -6.32524909e-03, -4.97414963e-03,
       -5.57155488e-03, -3.54176550e-03, 1.23683235e-03, -6.04018802e-03,
       -4.17137751e-03, -8.63592234e-03, -4.40057088e-03,
       -4.63402923e-03, -8.39474238e-03, 1.65487186e-03, 6.84473757e-03,
       -5.39587624e-03, -1.45876745e-03, -3.55327479e-03,
       -3.46036744e-03, -2.59776367e-03, 1.48031523e-03, -5.82401291e-04,
       5.53829083e-03, 3.55433812e-03, -2.71093054e-03, 5.61370980e-03,
       5.89984562e-03, -3.36646591e-03, -8.37804109e-04, -3.77084664e-03,
       2.50778440e-03, 3.37057142e-03, -6.05054549e-04, 6.09197281e-03,
       1.34406947e-02, 4.38738195e-03, 3.43343196e-03, 5.93047077e-03,
       4.68603428e-03, -2.41804193e-03, -5.64335263e-04, -1.42260140e-03,
       1.14582421e-03, 1.16335778e-02, 9.60384682e-03, 3.71798500e-03,
       4.68575070e-03, -1.42182864e-03, -1.90122565e-03, -3.82048893e-03,
       2.12213676e-03, 1.83039682e-03, 9.27431509e-03, 4.14312398e-03,
       4.55351314e-03, -1.38327898e-03, -5.46889845e-03, -5.03606629e-03,
       2.81692296e-03, -1.19752274e-03, 4.31286590e-03, 4.00652690e-03,
       -1.88762962e-04, -4.68674581e-04, -1.13618665e-03,
       -9.84818581e-03, -1.13171432e-02, -6.94279419e-03,
       -4.16341983e-03, 7.84303714e-03, 3.27582308e-03, 8.75248283e-04,
       1.92862912e-03, 3.72115220e-03, -4.08860948e-03, -6.08980423e-03,
       2.84083234e-03, -6.60106540e-04, 5.34792244e-03, 4.75129718e-03,
       -7.22741534e-04, 1.05535192e-03, 4.36674897e-03, 2.08336953e-03,
       1.15671440e-03, -4.24114801e-03, -9.23025142e-03, 1.79535465e-03,
       2.64021510e-04, -1.64313824e-03, 1.03918556e-03, -4.22657788e-04,
       -3.98325501e-03, 1.19888608e-03, -2.77761417e-03, -1.86994148e-03,
       2.48055044e-03, 2.03791214e-03, 2.75878236e-03, -2.74733943e-03,
       -1.64136384e-03, -2.72113853e-03, 1.92244560e-03, -2.48634629e-03,
       -1.43676316e-02, -1.71738211e-03, -5.83649008e-03,
       -5.36916545e-03, -3.94670106e-03, 3.07762274e-03, 6.67670742e-03,
       9.71129443e-03, 3.45790409e-03, 6.89063629e-04, 4.79336450e-05,
       3.69694293e-03, -2.45878357e-04, -3.15034389e-03, 1.09229004e-02,
       1.01776728e-02, 8.24105833e-03, 1.19110562e-04, -6.36438280e-03,
       3.52486473e-04, 2.34777064e-04, -4.86972975e-03, 1.50612835e-03,
       -8.26134905e-03, -7.73642538e-03, 1.59355416e-03, 4.74344799e-03,
       -8.81688949e-03, 2.03886791e-03, -6.00384898e-04, -6.79228548e-03,
       -1.14447474e-02, -5.00825234e-03, -6.82148524e-03, 5.48088457e-03,
       4.33086138e-03, -2.04599404e-04, 2.44279485e-03, -2.56697764e-04,
       -6.18425384e-03, -8.93126708e-03, 1.23594860e-02, 7.54364021e-03,
       7.86638074e-03, 1.55456935e-03, 3.46565899e-03, 6.21000538e-04,
       6.32633222e-03, -5.37890475e-03, 5.78599563e-03, 1.12931691e-02,
       4.22841636e-03, 5.92524279e-03, 2.03909609e-03, 2.85983342e-03,
       3.45249893e-04, 7.20966049e-03, -6.08436856e-03, -3.06857796e-03,
       3.10872303e-04, -3.86271568e-04, 2.57833186e-03, 3.05973948e-03,
       -4.38008830e-03, 1.81708578e-03, 1.08606881e-03, -3.45377019e-03,
       -6.23097923e-03, 5.26139559e-03, 2.74427538e-03, 4.62911092e-03,
       4.65350179e-03, -5.11425361e-03, 2.27354048e-03, 1.19515229e-03,
       -6.32707542e-03, -2.84720189e-03, 4.28444985e-03, 1.02968030e-02,
       1.97205017e-03, 4.22564801e-04, -6.23074500e-03, -1.08475774e-03,
       2.33946089e-03, -4.65661194e-03, -7.65265292e-03, 8.72974843e-03,
       1.41183287e-02, 5.89455618e-03, 2.50102347e-03, 4.65865852e-03,
       2.80346535e-03, -6.18640473e-03, -5.81026170e-03, 6.06189808e-03,
       5.38979657e-03, -2.46329000e-03, -1.05165737e-03, -1.31836976e-03,
       -8.51770118e-03, -1.86233653e-03, -3.40945343e-03, 4.22698306e-03,
       5.92750916e-03, -2.35376926e-03, -5.69141284e-03, -2.42223917e-03,
       2.34936154e-03, 9.12849035e-04, 2.25995993e-03, -7.57195521e-03,
       2.42667901e-03, 2.74839066e-03, 9.89402551e-03, 4.60628187e-03,
       -3.82931228e-03, -6.43759547e-03, -3.84257478e-03, 2.40181875e-03,
       -2.86484137e-03, 1.57641899e-03, 7.74613163e-03, -1.20331743e-03,
       -2.50714296e-03, -9.11852065e-03, -7.05065392e-03, 1.38645875e-03,
       2.93729454e-03, 1.83517265e-03, 8.36005900e-03, 3.13048344e-03,
       -2.98633310e-03, -6.70900894e-03, -3.54804657e-03, 1.74101046e-03,
       -2.08368083e-03, 5.14630741e-03, -1.09154750e-02, 1.04246850e-04,
       4.58290940e-03, -2.99007166e-03, 1.96120725e-03, 4.08048881e-03,
       -1.75957673e-03, -1.56398385e-03, 5.81231806e-03, -4.14767256e-03,
       3.35589144e-03, 2.06309184e-03, -5.70486486e-03, -1.00091556e-02,
       -1.23193953e-02, -4.22233343e-03, -8.93271621e-03,
       -2.43344810e-03, -1.54857652e-03, 1.04795089e-02, 3.56433145e-03,
       -6.13609608e-03, -5.10821538e-03, -3.11406236e-03, 1.39121397e-03,
       9.93032125e-04, 5.45268459e-03, -2.82004429e-03, 8.73931963e-03,
       6.93822000e-03, -7.71924714e-03, -3.02424096e-03, -1.21079700e-03,
       8.79039522e-04, 7.51729298e-04, 8.73049721e-03, -5.43565908e-03,
